SVM-light Version V6.02
0 # kernel type
3 # kernel parameter -d 
1 # kernel parameter -g 
1 # kernel parameter -s 
1 # kernel parameter -r 
empty# kernel parameter -u 
14598 # highest feature index 
2865 # number of training documents 
566 # number of support vectors plus 1 
1.0255897 # threshold b, each following line is a SV (starting with alpha*y)
-0.35024872968182069188358696010255 9:0.14322101 11:0.019378999 18:0.057252001 19:0.073844001 23:0.038727 49:0.10683 57:0.162095 75:0.048528001 76:0.064608999 78:0.286567 84:0.102669 85:0.139935 91:0.058754001 92:0.088326998 95:0.118624 99:0.047022 105:0.065540999 115:0.052333999 121:0.053185001 134:0.071567997 138:0.064365 142:0.041731 144:0.157598 221:0.074330002 239:0.021075999 244:0.045648001 276:0.038621001 285:0.104248 290:0.055473998 352:0.045621 353:0.079425998 383:0.053913999 385:0.105595 392:0.067699999 448:0.056228001 459:0.090487003 478:0.108782 493:0.062633999 519:0.106422 552:0.082818002 554:0.107446 671:0.11718 686:0.10356 705:0.202628 752:0.099175997 758:0.114555 759:0.136759 981:0.10097 1109:0.196914 1139:0.185856 1156:0.263632 1170:0.11524 1353:0.082396001 1491:0.112284 1686:0.115943 1703:0.119754 1913:0.111975 1977:0.117782 2306:0.104954 3397:0.13005599 4208:0.185856 5116:0.204845 12561:0.36564001 13059:0.21595301 #
-0.22088756494258540707953386572626 6:0.076704003 15:0.034634002 19:0.063568003 23:0.056446001 30:0.073697001 31:0.097668998 33:0.057759002 35:0.015121 46:0.16188499 54:0.090144999 60:0.048128001 69:0.072036996 75:0.041776001 87:0.028796 113:0.035004001 116:0.097707003 138:0.055408001 151:0.072999001 201:0.081410997 205:0.043937001 219:0.047189001 236:0.070970997 244:0.039296001 248:0.048197001 257:0.138344 300:0.052683 312:0.067501999 315:0.055176999 341:0.064715996 350:0.039747 352:0.039273001 370:0.038036 371:0.089543 387:0.064168997 396:0.075484 434:0.058122002 477:0.080046996 484:0.12912101 494:0.071020998 579:0.12529799 633:0.078633003 656:0.112111 720:0.098908 723:0.044371001 857:0.17962401 858:0.051116999 1019:0.095611997 1115:0.114104 1126:0.058758002 1130:0.162762 1299:0.24266 1446:0.098614998 1549:0.085709997 1756:0.132301 1796:0.156359 2001:0.115851 2077:0.097478002 2497:0.115851 2613:0.259527 4212:0.135434 4213:0.35583401 4214:0.20225 4215:0.42444399 4216:0.185903 4217:0.20225 #
-0.54351256779401269092488746537128 6:0.041632999 11:0.051561002 18:0.063835002 23:0.043179002 35:0.019584 38:0.063327 44:0.094265997 48:0.077601001 49:0.119113 58:0.090726003 70:0.065856002 76:0.042546999 87:0.063147999 89:0.076523997 99:0.052428 121:0.15474001 126:0.063639 144:0.199806 169:0.068613 239:0.023499001 240:0.088174999 241:0.046083 261:0.105809 271:0.080352001 315:0.071465001 316:0.096249998 353:0.149942 354:0.063372999 368:0.13307001 387:0.083112001 429:0.101685 450:0.086241998 459:0.211731 494:0.091986999 510:0.098194003 676:0.07344 690:0.103849 705:0.198689 722:0.083641 759:0.265306 767:0.095849 783:0.130898 790:0.194841 880:0.156094 1037:0.113989 1150:0.121907 1152:0.116757 1236:0.12589701 1423:0.12589701 1544:0.152496 1665:0.12625401 1902:0.105626 1913:0.12485 2062:0.122537 2306:0.117021 7909:0.49450201 10475:0.219611 #
-0.078141402560043843328330126496439 9:0.040615 11:0.016922999 26:0.106982 35:0.015339 36:0.030874001 38:0.049598999 50:0.048858002 70:0.051580001 71:0.085780002 87:0.029211 93:0.059282001 122:0.040888 136:0.208304 137:0.070776999 149:0.066946998 208:0.043912001 221:0.038337 222:0.119283 226:0.049102001 241:0.061112002 248:0.048891999 277:0.162304 278:0.230223 279:0.180866 280:0.091445997 281:0.20354401 282:0.13435601 283:0.11158 284:0.082162 285:0.091036998 286:0.091036998 287:0.085943997 288:0.41045299 289:0.13122 290:0.048443999 291:0.14442 292:0.055234998 293:0.061832 294:0.234641 295:0.10188 296:0.14038301 297:0.067470998 298:0.268592 299:0.087641001 300:0.053443 301:0.120806 302:0.152604 303:0.170908 304:0.099744998 305:0.14780299 306:0.098604999 307:0.11306 308:0.105303 309:0.124612 310:0.090044998 311:0.074052997 312:0.068475999 313:0.092087001 314:0.091862001 315:0.055973001 316:0.075384997 317:0.084054001 318:0.108029 319:0.14038301 320:0.19598299 321:0.073462002 #
-0.11608163633059860597729340270234 16:0.106108 19:0.059964001 44:0.02877 59:0.045922 61:0.069138996 62:0.051403999 63:0.037836 69:0.040134002 70:0.047963001 75:0.039406002 86:0.063238002 99:0.038183 105:0.025359999 112:0.022461999 114:0.037721001 181:0.056462999 184:0.069328003 200:0.093023002 215:0.106098 216:0.110807 217:0.078658 222:0.065509997 236:0.054012001 241:0.033562001 249:0.083943002 300:0.049695 311:0.068859003 387:0.102486 392:0.054974999 419:0.041554 434:0.054825999 443:0.047711 483:0.067685999 654:0.071203001 656:0.062460002 657:0.168805 688:0.096268997 731:0.102811 780:0.049423002 783:0.056304999 811:0.058991 850:0.10986 938:0.115872 940:0.15497699 945:0.076012999 1736:0.073138997 1737:0.283694 1855:0.197511 1906:0.087894 2004:0.106598 2080:0.089243002 3065:0.118302 3085:0.118302 10267:0.17536099 12260:0.190781 12261:0.335655 12262:0.455259 12263:0.190781 12264:0.190781 12265:0.32302001 #
1.0000000231766961178436758928001 1:0.066899002 3:0.075062998 9:0.137097 22:0.187839 33:0.067137003 43:0.104011 44:0.035452001 58:0.081421003 59:0.056586999 63:0.046622999 64:0.083733 69:0.049454998 76:0.038183 80:0.105501 81:0.074904002 82:0.112045 87:0.056671999 88:0.103357 99:0.112278 121:0.111685 126:0.027214 147:0.091692001 244:0.095858 258:0.064567998 323:0.087113 389:0.075466 393:0.058223002 394:0.084738001 427:0.092285 458:0.073509999 473:0.108308 497:0.068391003 545:0.18052 555:0.101449 583:0.088775001 616:0.089442 631:0.082764 671:0.165255 700:0.103176 712:0.315541 833:0.104782 906:0.17259499 1133:0.080334 1149:0.095123 1151:0.108041 1196:0.104547 1218:0.095795996 1219:0.100022 1295:0.247334 1432:0.102954 1601:0.096836999 1711:0.204974 1712:0.197088 1713:0.112985 1714:0.141855 1715:0.15297 1716:0.190971 1717:0.118239 1718:0.197088 1719:0.23509 1720:0.216089 1721:0.20152301 #
1.0000000231766961178436758928001 5:0.075185999 9:0.050572999 19:0.080296002 31:0.058786999 35:0.019099001 37:0.096481003 59:0.104117 60:0.060793001 62:0.068834998 63:0.050664999 75:0.089345001 87:0.094913997 104:0.053034 114:0.085524 142:0.045378 143:0.101418 156:0.038341999 181:0.075608999 199:0.089257002 214:0.064864002 217:0.062210001 221:0.047736999 231:0.128502 239:0.038803 256:0.065012999 271:0.078364 286:0.113358 292:0.068778001 327:0.058706 342:0.12646399 352:0.049607001 419:0.055644002 429:0.099168003 442:0.210462 475:0.106012 530:0.124755 543:0.237367 616:0.097197004 682:0.23508701 723:0.056047 741:0.092458002 759:0.08783 786:0.130218 807:0.051476002 809:0.24777199 1019:0.120772 1146:0.081920996 1268:0.082722001 1295:0.30562299 1374:0.101448 1502:0.172879 1505:0.299445 1647:0.189025 2075:0.137201 2376:0.18404099 2377:0.234824 2378:0.342181 #
1.0000000231766961178436758928001 3:0.160806 6:0.033542 9:0.099697001 31:0.048565 35:0.015778 42:0.062112 49:0.056678999 57:0.086000003 69:0.044397 100:0.082184002 105:0.047499999 115:0.09866 121:0.047775999 126:0.024431 135:0.121531 136:0.089792997 137:0.043000001 223:0.062286001 247:0.066334002 248:0.050294001 275:0.080661997 322:0.1041 327:0.048498001 340:0.063789003 352:0.069386996 371:0.093438998 430:0.087741002 443:0.137724 450:0.069482997 454:0.088238001 499:0.092826001 513:0.101147 561:0.078997001 665:0.074877001 701:0.075768001 720:0.174751 813:0.085395999 986:0.092032 1083:0.120269 1134:0.090887003 1142:0.071517996 1147:0.099242002 1225:0.077762999 1296:0.076903 1763:0.13087 1961:0.101147 2039:0.102905 2169:0.34108299 2379:0.129941 2479:0.16316199 2486:0.129941 2487:0.137326 2488:0.159876 2489:0.18401299 2490:0.28268 2491:0.159876 2492:0.154384 2493:0.117923 2494:0.18401299 2495:0.14989699 2496:0.25379801 2497:0.204687 2498:0.16695499 2499:0.16316199 2500:0.156977 #
0.92600929616697069679531750807655 9:0.10766 24:0.32743701 35:0.024014 84:0.140367 111:0.14316601 240:0.17827301 293:0.096802004 341:0.102779 383:0.073711 444:0.112365 456:0.303913 457:0.101167 463:0.16543999 491:0.111662 543:0.14221001 656:0.10516 661:0.21111 811:0.099320002 825:0.097847 974:0.126296 1004:0.090287 1268:0.104008 1295:0.272645 1561:0.13112099 1799:0.200647 2169:0.369807 2671:0.29524601 2672:0.19776499 2673:0.32120699 #
0.98869316315826216712281393483863 3:0.109513 12:0.061707001 15:0.034689002 19:0.063669004 22:0.054942999 23:0.033390999 35:0.015144 36:0.030483 37:0.076503001 41:0.041556001 44:0.030548001 48:0.060008999 62:0.054581001 63:0.040174 76:0.032901999 80:0.090907 82:0.096546002 89:0.059176002 99:0.040543001 105:0.045591999 121:0.045857001 126:0.02345 139:0.099362001 145:0.049910001 179:0.068562999 211:0.081540003 221:0.037852 258:0.094200999 286:0.188632 299:0.086530998 300:0.089341 301:0.119276 321:0.072531998 326:0.078019001 341:0.109747 453:0.058058001 463:0.104335 469:0.33358401 484:0.076382004 525:0.105085 526:0.107071 545:0.155549 565:0.10924 622:0.092417002 670:0.084216997 705:0.073213004 832:0.112136 833:0.152871 848:0.122232 882:0.092417002 897:0.10586 906:0.062323 914:0.068972997 1108:0.073312998 1158:0.113186 1159:0.100589 1299:0.18270101 1348:0.064818002 1432:0.150204 1604:0.085845999 1688:0.102559 1928:0.227387 2380:0.118591 2455:0.35360599 2668:0.12750299 2807:0.215882 2808:0.176621 2809:0.14593101 2810:0.186198 2811:0.186198 2812:0.107915 2813:0.148182 #
-1.0000000231766961178436758928001 9:0.110219 11:0.019245001 14:0.076387003 15:0.039955001 36:0.035110001 41:0.081041001 115:0.051973 143:0.054705001 144:0.074579 145:0.057487 206:0.066045001 208:0.049938001 221:0.043598 249:0.060633 258:0.064083003 332:0.26733199 354:0.095570996 387:0.074027002 419:0.05082 538:0.110899 569:0.13989601 611:0.082887001 635:0.099270001 656:0.076387003 671:0.068731003 673:0.23993701 677:0.082672 682:0.123401 719:0.077427 807:0.047013 858:0.058970001 906:0.071783997 937:0.078325003 1212:0.126891 1218:0.095076002 1295:0.326552 1298:0.169778 1334:0.105193 1714:0.367378 2378:0.18457501 2807:0.38321999 3682:0.173544 3768:0.168084 4866:0.18953501 4924:0.23332199 4925:0.23332199 #
-1.0000000231766961178436758928001 6:0.044537999 9:0.093925998 35:0.043967001 38:0.067745999 60:0.139946 61:0.101557 87:0.039898999 89:0.081863999 91:0.070081003 114:0.093813002 115:0.062422998 156:0.138899 164:0.066073999 199:0.097907998 238:0.093420997 256:0.071314 272:0.060562 284:0.112222 297:0.27148399 326:0.182742 352:0.092133 441:0.226138 445:0.098908998 543:0.21006601 584:0.18963499 682:0.087536 690:0.18810099 701:0.100606 716:0.16944 731:0.187181 777:0.096225999 809:0.160521 937:0.094072998 1026:0.092053004 1268:0.090740003 1295:0.36659199 1317:0.102679 1424:0.112222 1549:0.118758 1587:0.17134801 1617:0.118525 1681:0.195802 3876:0.175052 4566:0.16136999 10102:0.244334 10103:0.244334 #
-1.0000000231766961178436758928001 9:0.099510998 16:0.069197997 19:0.112104 24:0.172703 30:0.076760001 35:0.015749 37:0.112125 41:0.043214001 48:0.105659 51:0.117162 69:0.044314001 80:0.094535001 86:0.118225 89:0.061538 99:0.071383998 112:0.024801999 121:0.047687002 126:0.024386 147:0.13911299 178:0.171335 180:0.065869004 196:0.15175501 199:0.073599003 205:0.109204 231:0.062581003 239:0.018897001 241:0.037059002 286:0.093471996 299:0.089984 315:0.057470001 337:0.071047999 340:0.063670002 352:0.085842997 354:0.050962001 387:0.066835999 453:0.060375001 458:0.065869004 473:0.16432101 490:0.119438 493:0.056159001 543:0.15791 545:0.130505 627:0.132733 656:0.144734 682:0.111412 897:0.110085 928:0.126377 967:0.086145997 1151:0.096810997 1203:0.10701 1258:0.117151 1295:0.105606 1450:0.079784997 1713:0.101242 1737:0.203253 1798:0.104278 1888:0.101529 1902:0.084941 1926:0.104278 1941:0.116611 2075:0.23741999 2376:0.256944 3768:0.15175501 4163:0.149618 4218:0.171122 6552:0.162857 7176:0.171122 8112:0.35666999 #
-1.0000000231766961178436758928001 9:0.103659 11:0.020581 23:0.069637001 37:0.132809 43:0.065200001 46:0.117956 55:0.092459001 71:0.104321 76:0.085049003 80:0.111975 85:0.070816003 88:0.064790003 99:0.049938001 112:0.029377 127:0.087176003 146:0.076613002 150:0.14649899 192:0.088409998 202:0.083664 211:0.100436 214:0.063352004 221:0.046624001 228:0.152567 240:0.049603999 243:0.080881998 244:0.10174 267:0.069411002 276:0.041016001 290:0.099752001 292:0.067174003 299:0.106584 300:0.064994998 315:0.068071 321:0.089341 341:0.079839997 350:0.049036 439:0.229755 477:0.207247 497:0.042872 543:0.231832 545:0.091297001 554:0.114111 649:0.277017 656:0.081689 671:0.124449 697:0.231493 707:0.098429002 811:0.077151999 837:0.073707998 906:0.076765999 1151:0.11467 1295:0.21179301 1623:0.102407 1713:0.119919 1728:0.103928 2144:0.27034599 2387:0.157052 2463:0.153625 3521:0.1929 5589:0.35417601 #
-1.0000000231766961178436758928001 5:0.067939997 9:0.109052 15:0.039531998 30:0.084119 35:0.017259 49:0.061997 59:0.055567 65:0.063726999 85:0.065518998 86:0.076520003 87:0.032868002 99:0.046202999 112:0.027179999 121:0.052258998 123:0.064000003 126:0.026724 131:0.061393999 156:0.034646001 169:0.060467001 170:0.078980997 199:0.13656101 205:0.050151002 210:0.076606996 214:0.099239998 232:0.033406999 234:0.090622 236:0.081008002 241:0.068761997 244:0.044853002 256:0.058747999 273:0.086788997 276:0.037948001 297:0.075916998 313:0.061195999 322:0.067252003 326:0.15054099 327:0.053049002 337:0.077859998 352:0.094072998 385:0.049440999 424:0.113924 452:0.090314999 457:0.15258799 464:0.073243998 493:0.061544001 545:0.084468 623:0.078414999 656:0.075579002 671:0.068002999 682:0.15133201 686:0.101758 697:0.089753002 716:0.082439996 728:0.101981 731:0.073476002 740:0.089328997 758:0.112561 783:0.068131 807:0.046514999 809:0.422786 858:0.058345001 904:0.11727 928:0.081795998 937:0.077496 1026:0.075832002 1134:0.099414997 1296:0.084119 1299:0.345745 1309:0.12202 1340:0.14651699 1429:0.116108 1433:0.096887 1617:0.09764 1717:0.116108 2060:0.120639 2069:0.11033 2154:0.142134 2304:0.098612003 2545:0.161808 3768:0.16630501 4406:0.15304799 4566:0.132934 8203:0.212194 #
1.0000000231766961178436758928001 36:0.117966 133:0.50138003 144:0.25057301 457:0.246906 785:0.30287099 4090:0.72057098 #
1.0000000231766961178436758928001 9:0.050639998 13:0.102442 24:0.099933997 36:0.065177001 38:0.061841998 41:0.052476998 58:0.088597998 76:0.070348002 85:0.122927 89:0.074729003 105:0.094933003 109:0.152431 122:0.050980002 155:0.074386999 172:0.31546399 188:0.14730699 210:0.084890001 239:0.038855001 246:0.21462201 249:0.066477001 256:0.065099001 267:0.071162999 282:0.070200004 299:0.109273 337:0.086277999 353:0.086480998 385:0.054786 392:0.073714003 404:0.139037 408:0.169595 419:0.055718001 494:0.089828998 530:0.07378 570:0.105181 579:0.093601003 597:0.072925001 663:0.197767 671:0.127589 760:0.069498003 792:0.115065 807:0.087273002 908:0.112514 1001:0.118445 1077:0.111789 1415:0.130391 1623:0.22033399 1645:0.14362 1653:0.148103 2358:0.162284 7698:0.223041 12049:0.450068 14356:0.25581101 #
1.0000000231766961178436758928001 9:0.054561 11:0.038492002 23:0.11855 28:0.3179 35:0.034887999 36:0.041475002 38:0.066629998 44:0.041563001 50:0.065633997 80:0.32275599 87:0.039241001 97:0.169118 112:0.032450002 119:0.140231 126:0.054021999 139:0.13519099 169:0.072191998 205:0.14288101 208:0.123796 226:0.111684 240:0.11499 258:0.197532 278:0.27198899 290:0.110186 316:0.101269 351:0.068412997 354:0.13993099 393:0.068260998 414:0.097783998 450:0.090740003 474:0.083305001 482:0.109448 497:0.047355998 518:0.109448 523:0.088665999 583:0.104079 678:0.188585 681:0.129604 730:0.100708 760:0.074878998 837:0.137853 897:0.144033 1035:0.170908 1615:0.29721901 2181:0.20500199 2812:0.35037699 #
1.0000000231766961178436758928001 9:0.108288 15:0.075576 18:0.063519001 22:0.070698 30:0.094981 32:0.084218003 33:0.074440002 34:0.118919 36:0.039223999 38:0.063014001 43:0.068112001 44:0.039308 81:0.083051004 85:0.073978998 87:0.062835999 93:0.127519 99:0.109482 105:0.072714999 108:0.071712002 112:0.030688999 138:0.07141 144:0.083315998 151:0.094080999 156:0.03912 172:0.092239 211:0.104922 221:0.048705999 239:0.023383001 242:0.116179 244:0.050645001 261:0.105286 282:0.071530998 287:0.109188 292:0.070174001 323:0.096588001 352:0.050613999 353:0.088119999 385:0.055824 403:0.32885 448:0.062383 531:0.28226501 541:0.109819 649:0.110901 685:0.106215 760:0.119901 785:0.100705 1033:0.102657 1064:0.128242 1142:0.088329002 1151:0.119792 1152:0.116179 1217:0.080114 1708:0.119207 1728:0.10857 1741:0.114398 1956:0.154387 2435:0.201515 3734:0.284659 6008:0.39407301 7518:0.21852399 8063:0.211742 #
1.0000000231766961178436758928001 8:0.18936101 10:0.039055999 11:0.034246001 15:0.071098 23:0.04042 41:0.050303001 77:0.114116 92:0.092188001 108:0.067463003 119:0.124762 122:0.048868001 127:0.085672997 137:0.084591001 143:0.057494 146:0.075291999 149:0.080013998 182:0.093013003 208:0.052483 211:0.098705001 223:0.072369002 226:0.058685999 239:0.021996999 312:0.081840999 448:0.172884 454:0.102523 474:0.074115001 497:0.117624 510:0.091918997 594:0.103512 723:0.053796999 777:0.084201001 807:0.049408998 894:0.109356 910:0.1631 958:0.119213 1256:0.115005 1334:0.110554 1424:0.098197997 1552:0.26230401 1561:0.1001 1568:0.171874 1910:0.110554 2106:0.169755 4922:0.155561 5868:0.158162 6996:0.18238901 7168:0.32844001 7293:0.169755 9995:0.205575 10861:0.36199701 12173:0.245214 12174:0.245214 #
-0.21858669641428404850636013634357 11:0.033073999 38:0.057250001 76:0.080720998 112:0.027882 119:0.071163997 121:0.053610001 122:0.047194999 172:0.14188901 205:0.051447 208:0.050686002 226:0.056676999 244:0.046011999 247:0.074432999 267:0.065879002 290:0.055916999 316:0.14732701 342:0.117229 389:0.076021001 393:0.058651999 419:0.051580999 433:0.065319002 474:0.071578003 482:0.159224 508:0.078319997 561:0.088642001 583:0.187674 628:0.104616 669:0.114796 677:0.083910003 719:0.078587003 723:0.051955 753:0.108042 833:0.25187999 855:0.076682001 874:0.067873001 894:0.183755 978:0.096671999 979:0.096159004 1027:0.107019 1077:0.28891701 1256:0.111068 1329:0.113181 1415:0.12071 1500:0.121975 1583:0.099968001 1634:0.361433 1635:0.219008 1910:0.106769 2165:0.100958 2250:0.13109399 2739:0.160256 3639:0.14111499 4922:0.31528401 5967:0.145807 7238:0.19853701 12513:0.20648099 #
-0.037812213345892159432892754011846 2:0.082004003 9:0.076150998 43:0.100519 93:0.065646999 98:0.052862 105:0.030200999 109:0.174705 114:0.044921 137:0.046289999 156:0.057732999 172:0.22445101 180:0.071042001 205:0.049357001 226:0.054373998 239:0.020381 240:0.045168001 276:0.037347998 341:0.072699003 350:0.075599998 352:0.044117 370:0.042727999 383:0.052138001 385:0.082385004 410:0.072007999 426:0.072933003 442:0.151007 445:0.080191001 457:0.17075901 468:0.139884 470:0.061166 497:0.066096 556:0.188687 567:0.100147 568:0.092091002 655:0.091296002 740:0.209792 741:0.082226001 764:0.090370998 765:0.19326399 803:0.083479002 838:0.088054001 868:0.116205 937:0.076269001 978:0.092744999 1103:0.11427 1415:0.115806 1432:0.237432 1498:0.168989 1579:0.107695 1605:0.128179 1863:0.104414 2169:0.211036 2658:0.113534 4544:0.15374599 5825:0.33540201 5826:0.227198 5827:0.20883501 5828:0.17564701 5829:0.20883501 5830:0.17564701 #
-0.109281048685891349347976131412 2:0.094154999 6:0.041459002 23:0.042998999 27:0.107454 31:0.060028002 65:0.072012 77:0.121399 91:0.155674 93:0.075374 104:0.091689996 112:0.030712999 113:0.045148998 124:0.073971003 126:0.030198 138:0.071465999 142:0.078452997 197:0.070578001 199:0.091141 205:0.056669999 208:0.055831999 217:0.063523002 236:0.104087 241:0.045892 293:0.133109 311:0.094154999 340:0.078846 475:0.108249 489:0.24230701 560:0.083382003 650:0.088293999 676:0.15347999 699:0.085594997 722:0.083292998 789:0.109905 802:0.13788299 807:0.052561998 858:0.065930001 863:0.37417001 929:0.168295 941:0.197308 1035:0.161759 1199:0.13788299 1415:0.132966 1680:0.157407 1698:0.28097901 1736:0.100006 2167:0.185278 2329:0.275343 4567:0.178491 4651:0.37028399 #
-0.10866226714076372694695038489954 2:0.083981998 6:0.036979999 9:0.077987 11:0.053580001 26:0.071657002 93:0.067230001 109:0.151611 112:0.046383001 119:0.166848 156:0.034921002 164:0.054862 172:0.082336999 194:0.082658 197:0.106587 211:0.093658999 231:0.069123 239:0.020873001 241:0.040933002 279:0.205116 291:0.096732996 297:0.076517999 298:0.127647 345:0.14039899 352:0.045180999 375:0.20987201 385:0.104577 428:0.15244401 457:0.174877 470:0.062641002 651:0.177203 833:0.17559101 837:0.068733998 894:0.18872499 906:0.071585 956:0.093336999 1077:0.10168 1148:0.24609201 1173:0.25869799 1234:0.090751 1342:0.088125996 1555:0.174806 2271:0.14325801 2430:0.109126 2824:0.13127001 2884:0.195066 3229:0.170206 3529:0.22226 4540:0.18901201 5491:0.16762 7050:0.16762 7553:0.232678 7554:0.232678 #
-0.090177568305392322156599504978658 35:0.017392 41:0.047722001 59:0.094809003 70:0.058483999 87:0.033121001 105:0.080692999 126:0.026930001 137:0.047398001 138:0.063731998 155:0.114536 178:0.090159997 206:0.065849997 219:0.054278001 239:0.020869 247:0.073118001 249:0.102357 258:0.063892998 262:0.20819101 264:0.132568 265:0.115158 267:0.064714998 327:0.053458001 351:0.057744 356:0.071787 383:0.053385001 392:0.067033999 396:0.24239001 404:0.074676998 448:0.13285699 453:0.066674002 483:0.082534 519:0.105376 544:0.074516997 568:0.197887 623:0.079020001 631:0.171873 634:0.087716997 656:0.076162003 671:0.068527997 682:0.123036 700:0.102098 740:0.090017997 807:0.046874002 837:0.068720996 848:0.14037199 1007:0.098393001 1423:0.111804 1468:0.078552999 1534:0.120246 1599:0.19558699 1603:0.139483 1623:0.095477 2092:0.18897501 2143:0.12998299 2416:0.133255 2731:0.26112601 3036:0.14037199 3234:0.138621 3734:0.150047 4272:0.150047 4963:0.18403 5232:0.151371 7099:0.19502801 7293:0.161046 14578:0.23263299 14579:0.23263299 #
0.39678421369224387005303356090735 3:0.080949001 9:0.140109 24:0.099040002 44:0.038231 53:0.23054799 62:0.068309002 65:0.118495 73:0.108513 76:0.041177001 87:0.036095999 88:0.111461 126:0.029348001 131:0.141495 136:0.107864 143:0.059441 144:0.081035003 156:0.038049001 169:0.066404998 178:0.256392 180:0.079273 190:0.104429 199:0.185885 200:0.123614 234:0.099519998 236:0.071773998 276:0.070561998 290:0.059861001 297:0.14116099 315:0.069164 340:0.076626003 350:0.049823999 352:0.083351001 356:0.078233004 383:0.058178 385:0.054296002 415:0.089482002 443:0.063400999 457:0.135196 523:0.081557997 543:0.190043 656:0.082999997 676:0.071075998 682:0.134083 716:0.090535 720:0.123981 722:0.080949001 731:0.169339 761:0.114035 777:0.087053999 805:0.134525 807:0.051082999 809:0.24587999 837:0.074891001 840:0.184476 863:0.107019 887:0.098724 928:0.15209299 935:0.087159999 1140:0.090774998 1159:0.125889 1295:0.127096 1299:0.30417499 2061:0.18006299 4293:0.131997 4512:0.177697 4872:0.19205 #
1.0000000231766961178436758928001 3:0.074447997 9:0.078149997 35:0.017432 44:0.059533 49:0.062618002 53:0.171068 61:0.084499002 87:0.033197001 88:0.10251 94:0.067369998 105:0.052478001 126:0.045699999 131:0.062008999 144:0.074527003 178:0.189642 180:0.072907001 184:0.084729001 199:0.13792799 205:0.085763 234:0.091528997 236:0.038987 239:0.043894999 256:0.059335001 272:0.050390001 276:0.064894997 291:0.096934997 292:0.062771998 315:0.063610002 340:0.070473 352:0.045274999 370:0.043848999 385:0.084547997 415:0.082295999 457:0.073436998 463:0.120092 490:0.132199 543:0.103229 559:0.080063 656:0.160198 682:0.123316 719:0.077373996 720:0.114025 731:0.125651 765:0.094508998 780:0.060401998 809:0.28028801 840:0.169662 863:0.098425001 880:0.138937 928:0.082615003 1100:0.116145 1299:0.330937 1617:0.098617002 2304:0.099598996 5989:0.40700799 7739:0.18025801 9588:0.20329399 11481:0.233163 11482:0.233163 #
1.0000000231766961178436758928001 9:0.107624 11:0.049038 24:0.089002997 35:0.017033 36:0.034283999 37:0.050818 44:0.034357 48:0.067492001 73:0.097516999 86:0.075517997 87:0.068074003 98:0.053009 112:0.026823999 125:0.093002997 126:0.026373999 151:0.082231998 157:0.094191998 192:0.13668001 198:0.18145201 199:0.079599001 236:0.038095001 241:0.04008 244:0.044266 254:0.126118 265:0.11278 292:0.061336 327:0.052354001 351:0.056550998 354:0.093322001 410:0.072208002 440:0.073852003 460:0.095435999 466:0.27807 473:0.104963 494:0.080003001 518:0.090470999 554:0.218661 673:0.138374 676:0.063873 686:0.170035 697:0.088578001 707:0.089873999 765:0.092347004 792:0.102479 809:0.34054199 837:0.067302004 885:0.077388003 903:0.101546 920:0.113132 954:0.110439 974:0.089580998 1295:0.114216 1298:0.097912997 1317:0.141341 1422:0.082454003 1571:0.106026 1617:0.096362002 2113:0.140273 2176:0.14694899 2184:0.088437997 2242:0.143402 2609:0.140273 2784:0.136603 5828:0.29822201 6176:0.15588801 10501:0.198644 10502:0.22782999 #
1.0000000231766961178436758928001 9:0.090380996 35:0.034132998 38:0.18687899 44:0.068850003 45:0.11874 75:0.094306 164:0.18226901 169:0.119588 236:0.076342002 340:0.289601 350:0.089726999 814:0.339591 930:0.222616 1295:0.22888701 1420:0.311165 1468:0.15416799 3716:0.29708099 4566:0.44514501 10102:0.39807799 #
1.0000000231766961178436758928001 9:0.17535999 11:0.026172999 15:0.054336999 23:0.109764 37:0.119833 41:0.11021 44:0.047850002 57:0.129298 59:0.076375999 60:0.075507 87:0.13308699 99:0.063506 121:0.121618 137:0.064649001 143:0.074395999 164:0.074814998 198:0.222247 199:0.11086 205:0.116712 221:0.059289999 239:0.059735999 240:0.063080996 241:0.094512999 248:0.12802701 256:0.080747999 327:0.072915003 352:0.12930299 354:0.076762997 370:0.059673 392:0.091433004 457:0.099937998 464:0.100673 493:0.084591001 530:0.091516003 682:0.099115998 686:0.139865 697:0.29438499 780:0.082199 791:0.114836 809:0.30774 835:0.291621 920:0.157562 937:0.106518 977:0.113613 1007:0.134205 1134:0.136646 1149:0.12839 1422:0.114836 1459:0.14766499 3397:0.175649 8019:0.25775701 13263:0.317305 #
-0.16794118417665501730162702642701 9:0.05565 11:0.078791 23:0.078458004 59:0.067667 60:0.066895999 63:0.055752002 84:0.122849 87:0.11791 105:0.063271001 121:0.107749 142:0.049934 143:0.111599 144:0.15214001 199:0.098218001 202:0.094260998 206:0.13473199 208:0.101873 212:0.086144999 217:0.068456002 232:0.040681001 240:0.094626002 242:0.12529901 243:0.19124 253:0.17979699 258:0.130729 284:0.112578 293:0.084720999 343:0.17308401 350:0.055248 352:0.130262 383:0.064511001 457:0.149914 523:0.090437002 530:0.13728 665:0.099737003 682:0.087812997 697:0.26081499 707:0.187764 720:0.13747799 722:0.089760996 723:0.061673999 809:0.42019701 817:0.113354 904:0.14280599 1032:0.128878 1399:0.139594 1666:0.136272 1732:0.153547 1978:0.27556899 7824:0.28112 #
-0.41335392400008041935421942980611 9:0.046889 11:0.041002002 35:0.029983001 59:0.057014 60:0.056364998 85:0.067225002 87:0.057099 89:0.069193996 94:0.068438999 103:0.101179 104:0.049171001 105:0.031486001 112:0.027888 114:0.046831999 156:0.035549 164:0.055849001 183:0.087521002 192:0.083926 199:0.140117 202:0.079420999 208:0.050694998 232:0.034277 240:0.079728998 241:0.041669 248:0.056444999 285:0.105101 340:0.071592003 383:0.092032 443:0.059234999 444:0.17389099 445:0.083601996 456:0.180811 457:0.156561 530:0.068314999 671:0.069774002 682:0.125273 697:0.092090003 699:0.077720001 701:0.085036002 707:0.093437999 709:0.126691 740:0.218716 765:0.096009001 780:0.061360002 783:0.069904998 803:0.087030001 805:0.125686 806:0.117618 807:0.047727 808:0.149088 809:0.39969599 810:0.186161 811:0.073239997 812:0.093133003 813:0.095840998 814:0.17617799 815:0.236863 816:0.20652001 817:0.161709 818:0.152812 819:0.34966901 820:0.137132 821:0.18737601 #
-1.0000000231766961178436758928001 6:0.041721001 9:0.087986 19:0.082507998 23:0.043271001 24:0.28629601 35:0.019626001 49:0.070497997 52:0.225289 69:0.055222001 75:0.113791 88:0.068163998 112:0.030906999 113:0.045433 169:0.068758003 194:0.093254998 199:0.091715001 236:0.092115998 239:0.023549 244:0.051004 327:0.060323 352:0.106973 414:0.093134001 456:0.248374 466:0.13426501 635:0.111687 682:0.081998996 686:0.115711 740:0.101579 817:0.105849 874:0.075236 969:0.15198 970:0.186446 1260:0.14531501 1317:0.162854 1321:0.161957 1404:0.29186499 1524:0.137697 1529:0.139294 1539:0.133351 2062:0.122795 2067:0.1481 2371:0.33031201 2812:0.29348099 5828:0.343615 #
-1.0000000231766961178436758928001 9:0.105968 11:0.035622999 23:0.042045001 31:0.058696002 36:0.038384002 49:0.068502001 50:0.060741998 51:0.083788998 59:0.103955 80:0.114469 87:0.036316998 88:0.066234 98:0.059347998 112:0.030032 115:0.056818999 144:0.081531003 145:0.062845998 157:0.221311 164:0.177175 197:0.069012001 198:0.17866001 211:0.102674 222:0.087586999 233:0.104312 239:0.022882 241:0.075976998 244:0.083912 286:0.27008399 292:0.11627 328:0.098548003 338:0.083883002 340:0.077096 392:0.073500998 419:0.055558 442:0.10013 444:0.089230999 453:0.073105998 466:0.130463 473:0.117515 493:0.068001002 512:0.110073 649:0.108525 655:0.102497 671:0.075139001 697:0.099170998 713:0.105651 825:0.13156 835:0.111706 837:0.075350001 863:0.107675 874:0.073105998 914:0.20725 970:0.18116701 974:0.169811 1020:0.12329 1298:0.185607 1317:0.24388 1321:0.092946 1446:0.124372 1618:0.121238 1729:0.120584 2039:0.124372 2062:0.119318 2063:0.18116701 2064:0.161817 2065:0.18659 2066:0.183755 2067:0.143906 2068:0.151994 #
-0.72858434333271515637164839063189 1:0.068666004 5:0.071015 9:0.080876999 10:0.038433 18:0.058802001 35:0.01804 36:0.036311001 37:0.053822 44:0.061609998 76:0.039191999 100:0.093964003 115:0.091008 151:0.087094001 164:0.056894999 181:0.071415 199:0.084306002 213:0.096303999 214:0.061264999 239:0.021646 240:0.100673 241:0.071874 244:0.098389998 274:0.13970099 292:0.064962 352:0.046854999 401:0.088785 404:0.077459 410:0.225297 415:0.085167997 422:0.17114 442:0.16038001 453:0.069158003 561:0.090319999 635:0.102664 637:0.091392003 682:0.196684 686:0.106363 707:0.199763 721:0.154972 780:0.062509999 789:0.101662 791:0.087329 809:0.329833 817:0.097296998 914:0.139109 974:0.094876997 1001:0.111726 1026:0.079264 1142:0.081768997 1274:0.112875 1396:0.120969 1459:0.112295 1805:0.113169 2304:0.103075 2385:0.123417 4566:0.138951 4893:0.147543 6242:0.210389 11841:0.34251401 12281:0.2413 12282:0.2413 #
1.0000000231766961178436758928001 11:0.019718001 43:0.062465001 54:0.106547 76:0.065738998 119:0.121626 122:0.080660999 139:0.117255 156:0.085612997 164:0.056364 175:0.122692 191:0.120231 217:0.058210999 249:0.062121999 276:0.066533998 293:0.151189 354:0.057831999 396:0.089217998 400:0.200408 410:0.128281 444:0.083625004 446:0.16007601 464:0.075843997 657:0.124923 677:0.084701002 701:0.085821003 719:0.079328001 791:0.086515002 858:0.060417 888:0.101305 889:0.104242 903:0.106547 981:0.102735 991:0.073619001 1008:0.107278 1025:0.112707 1370:0.096222997 1415:0.121847 1473:0.132329 1728:0.208956 2067:0.134865 2309:0.15554599 2327:0.14332999 2520:0.131143 2675:0.30660701 2855:0.21972901 2861:0.15554599 3004:0.17780399 3459:0.130568 3733:0.184809 4146:0.15165 4381:0.184809 7637:0.21972901 8124:0.200408 8556:0.208427 9697:0.200408 #
1.0000000231766961178436758928001 6:0.038104001 9:0.099601999 48:0.071023002 52:0.098044999 56:0.068164997 82:0.114267 86:0.079470001 97:0.086886004 99:0.081243999 104:0.084269002 126:0.027753999 156:0.035982002 164:0.056529 165:0.117955 199:0.083764002 231:0.071225002 241:0.042176999 244:0.046581998 267:0.112924 268:0.112443 324:0.076067001 327:0.055093002 397:0.073614001 427:0.094114996 453:0.068714 458:0.074966997 535:0.13733201 543:0.31269601 545:0.087724 565:0.12929 668:0.139368 671:0.070625 690:0.095046997 699:0.078667 719:0.222114 723:0.052598 882:0.10938 906:0.073761001 972:0.27469701 1025:0.113038 1178:0.111574 1338:0.194389 1440:0.14286301 1524:0.12575901 1737:0.13662501 1788:0.103036 1798:0.118681 1805:0.112443 2144:0.108857 2371:0.14375 2807:0.150905 3374:0.138804 4355:0.156002 4478:0.29455599 5694:0.170283 7174:0.209038 7175:0.23975 7176:0.194757 #
1.0000000231766961178436758928001 1:0.072913997 14:0.083885998 15:0.074290998 35:0.019156 36:0.038557 37:0.057151999 45:0.066638 59:0.061675001 63:0.050815001 75:0.052925002 87:0.036481 98:0.059617002 112:0.030167 115:0.057076 123:0.071033999 124:0.072655998 134:0.078051999 147:0.099936001 172:0.190281 221:0.047878001 240:0.050939001 242:0.114203 287:0.107331 321:0.15533499 327:0.058880001 523:0.172985 621:0.23859701 623:0.087034002 682:0.080036998 800:0.12887 852:0.108372 1305:0.102089 1342:0.16431201 1433:0.107537 1451:0.40733901 2145:0.158884 2260:0.297663 4397:0.22340401 5158:0.19409899 8089:0.53772098 #
1.0000000231766961178436758928001 16:0.049019001 18:0.086776003 19:0.046902001 55:0.093624003 70:0.037516002 114:0.029505 143:0.034988001 174:0.061694 233:0.061025001 260:0.065776996 295:0.074100003 349:0.082606003 355:0.084188998 356:0.046048999 372:0.097990997 399:0.068580002 575:0.112429 588:0.121564 596:0.046999998 665:0.052942999 691:0.091243997 894:0.066549003 984:0.162458 994:0.077133998 1028:0.151806 1126:0.090981998 1276:0.074100003 1303:0.084608003 1397:0.055775002 1427:0.057208002 1443:0.091243997 1491:0.071318999 1600:0.070545003 1615:0.067436002 1650:0.054984 1701:0.159031 1722:0.091876999 1935:0.085037999 2006:0.069986999 2197:0.085478 2354:0.090043999 2572:0.081155002 2786:0.098931998 2803:0.090043999 2868:0.078874998 3017:0.247738 3472:0.137165 3643:0.098931998 4036:0.107501 4212:0.099927001 5643:0.18792801 5803:0.130109 6213:0.115366 7712:0.105987 8483:0.130109 8519:0.130109 9010:0.118048 9553:0.149225 9554:0.130109 9555:0.149225 9556:0.149225 9557:0.137165 9558:0.149225 9559:0.149225 9560:0.25266099 9561:0.149225 9562:0.137165 9563:0.149225 9564:0.149225 9565:0.149225 9566:0.149225 9567:0.149225 9568:0.137165 9569:0.25266099 #
1.0000000231766961178436758928001 6:0.025981 42:0.081458002 85:0.046395998 105:0.02173 115:0.061655 131:0.07361 148:0.197511 155:0.047536001 162:0.058301002 172:0.097944997 241:0.028758001 256:0.041600998 276:0.026872 280:0.072861999 295:0.081174999 313:0.043334998 404:0.052476 415:0.057698999 419:0.035606001 436:0.064067997 474:0.04941 497:0.028088 533:0.066972002 556:0.080183998 558:0.21593501 569:0.16595501 595:0.065242998 611:0.098325998 616:0.062194999 617:0.060922999 657:0.14464299 700:0.071745001 713:0.114643 723:0.035863999 759:0.095156997 812:0.064276002 830:0.083042003 978:0.066731997 1092:0.080673002 1093:0.060749002 1104:0.080426998 1136:0.087793 1169:0.085427999 1225:0.060233001 1443:0.099955998 1609:0.076272003 1688:0.082764 1788:0.070254996 1866:0.088526003 2438:0.147451 2639:0.158546 3092:0.232043 3940:0.232043 4146:0.103705 5218:0.104553 5574:0.13704801 6889:0.32703701 9767:0.150261 10542:0.163473 10543:0.163473 10544:0.34306699 10545:0.163473 10546:0.163473 10547:0.163473 10548:0.276784 #
-0.63237025124450663149389129102929 35:0.036495999 41:0.23897099 48:0.144614 69:0.102693 104:0.10134 126:0.118595 198:0.27586201 261:0.197181 351:0.121172 404:0.37394699 523:0.15704399 797:0.274598 1154:0.235955 1305:0.194502 1420:0.196499 1561:0.199277 2639:0.586833 #
-0.003758916753274992895994532915438 11:0.070421003 35:0.063827999 518:0.33902499 678:0.584162 760:0.23194601 1838:0.69353002 #
-1.0000000231766961178436758928001 6:0.033744 9:0.088205002 11:0.029651999 23:0.034998 28:0.173757 35:0.026876001 44:0.032017998 48:0.062896997 50:0.050560001 51:0.069743998 63:0.042107001 80:0.095282003 85:0.102027 86:0.070377 87:0.030229 99:0.042493999 100:0.13998701 105:0.047786001 115:0.047295 121:0.048064001 144:0.18946201 146:0.065191001 162:0.075722001 208:0.07694 221:0.039673001 258:0.058313999 272:0.045885 278:0.099839002 282:0.058265001 293:0.063987002 300:0.055305 324:0.067363001 338:0.069821998 354:0.122571 390:0.072553001 466:0.108594 494:0.074556001 508:0.070216998 545:0.077687003 575:0.076223999 654:0.079241998 682:0.066321 690:0.084170997 699:0.117955 709:0.113562 737:0.085759997 775:0.098555997 840:0.091247 928:0.075230002 936:0.112224 1028:0.10292 1033:0.083618 1103:0.106786 1158:0.248963 1159:0.221256 1212:0.115468 1223:0.099839002 1298:0.091247 1312:0.092782997 1459:0.098807 1615:0.095948003 1718:0.17799801 1765:0.112662 1837:0.146983 1850:0.143677 1920:0.205919 1928:0.140761 2330:0.19721501 2812:0.113108 4311:0.167959 4478:0.124298 4970:0.16083699 5926:0.172473 6163:0.17799801 12586:0.212318 12587:0.212318 12588:0.195158 #
-1.0000000231766961178436758928001 2:0.079736002 9:0.12209 23:0.036415 35:0.016516 44:0.056405999 52:0.090342 109:0.093400002 121:0.084674001 126:0.025574001 131:0.058750998 134:0.067295998 164:0.052088 169:0.057863999 172:0.13236099 178:0.085619003 192:0.078276001 198:0.154734 232:0.031969 236:0.088147998 239:0.033553999 256:0.056219 284:0.088468 293:0.066577002 315:0.060268998 328:0.085349999 370:0.041545998 385:0.080107003 433:0.060933001 460:0.092538998 472:0.12789901 543:0.097806998 544:0.070763998 569:0.132457 592:0.062698998 634:0.083299004 648:0.092716001 807:0.044512998 880:0.131639 956:0.088619001 1121:0.105002 1146:0.070840001 1173:0.145068 1225:0.081398003 1299:0.26505399 1351:0.119633 1405:0.148039 1422:0.079952002 1571:0.102808 1600:0.104436 1645:0.124028 1688:0.111846 2497:0.126543 2767:0.12860499 3626:0.17476 4566:0.127212 4720:0.17945699 4984:0.159146 6132:0.159146 6805:0.16734999 13740:0.484561 13746:0.220915 13747:0.220915 #
-0.10562552078522695342410742114225 6:0.027096 16:0.056005001 25:0.091940999 41:0.059218001 65:0.047065001 87:0.024274001 88:0.044271 91:0.042637002 98:0.039669 112:0.020073 115:0.037978001 116:0.048645999 125:0.069596998 126:0.019737 142:0.030284001 164:0.040199 197:0.046126999 239:0.015294 240:0.071130998 257:0.055571001 258:0.079283997 273:0.064097002 315:0.046512999 324:0.054093 370:0.032063 382:0.077970996 392:0.049128 401:0.062730998 434:0.102823 475:0.168826 517:0.084397003 555:0.073573001 591:0.082886003 596:0.090919003 616:0.136127 671:0.050223 731:0.129491 794:0.067589998 851:0.079547003 892:0.085197002 933:0.045712002 1297:0.149749 1342:0.064574003 1486:0.17532501 1487:0.184624 1650:0.062820002 1701:0.107312 1733:0.27661201 1764:0.168047 1847:0.104971 2385:0.087201998 2929:0.172012 3350:0.134872 3664:0.211164 3912:0.107312 4086:0.191379 4087:0.142933 4088:0.131807 4089:0.17049199 4090:0.26533699 4091:0.148652 4092:0.50225502 4093:0.131807 #
0.87144190991542591628871150533087 5:0.072453998 9:0.082516 24:0.096175 38:0.059516001 44:0.062858999 45:0.064026996 56:0.069995999 61:0.089218996 63:0.048824001 89:0.071918003 104:0.051107001 136:0.177347 138:0.067446001 164:0.178754 181:0.072861999 200:0.120039 214:0.062507004 221:0.077887997 236:0.041165002 248:0.058667999 286:0.22925 293:0.074193999 350:0.048383001 371:0.108996 385:0.052724998 390:0.084127001 410:0.078027003 412:0.146699 433:0.067904003 442:0.163629 456:0.18793 473:0.192039 508:0.081418999 651:0.110737 656:0.080600001 682:0.214691 701:0.088384002 707:0.231749 760:0.066884004 770:0.162319 807:0.049605999 836:0.151577 903:0.109729 914:0.246939 967:0.170462 1001:0.11399 1126:0.071524002 1133:0.084127001 1338:0.095114999 1405:0.097437002 1494:0.129627 1635:0.375402 1798:0.121868 2062:0.115162 2812:0.131152 3931:0.18311401 4566:0.141766 5702:0.190329 #
1.0000000231766961178436758928001 9:0.093364999 23:0.062723003 24:0.087796003 30:0.081891999 35:0.016802 36:0.033819001 44:0.057381999 87:0.031998001 99:0.044978999 113:0.038897 126:0.026016001 157:0.092914 164:0.052990001 169:0.099668004 170:0.076889999 221:0.071102001 239:0.034134999 286:0.168842 292:0.060504001 323:0.083278 351:0.055783998 352:0.043639001 354:0.054370001 370:0.042265002 410:0.071229003 422:0.094140999 424:0.110908 435:0.153699 473:0.217289 532:0.092238002 545:0.082231 591:0.109259 592:0.063784003 631:0.079120003 651:0.171158 656:0.073577002 682:0.167521 690:0.089094996 719:0.074579 723:0.049304999 771:0.080683 897:0.117445 903:0.26138499 910:0.071229003 914:0.12956101 945:0.089543 970:0.33498201 1004:0.063170999 1137:0.111597 1258:0.124984 1489:0.127423 1635:0.29292199 1860:0.234281 1876:0.148995 1977:0.112667 2060:0.117445 2062:0.105128 2075:0.120696 2376:0.161901 2803:0.135609 4289:0.188411 4680:0.224739 4681:0.20657501 #
1.0000000231766961178436758928001 7:0.071324997 11:0.014018 23:0.028013 35:0.012705 44:0.025628 49:0.077275001 75:0.073666997 89:0.049646001 94:0.083140001 98:0.039540999 112:0.020009 133:0.108692 136:0.188676 192:0.060215998 234:0.066712998 240:0.033785999 241:0.071342997 248:0.040498 283:0.092423998 300:0.044268001 323:0.062973998 352:0.069254003 370:0.031961001 385:0.036396001 410:0.150372 411:0.075576998 430:0.070652999 442:0.112954 450:0.055950999 453:0.048707001 456:0.076619998 457:0.053525999 463:0.087531999 490:0.096355997 560:0.054320998 588:0.065968998 591:0.082620002 622:0.077532999 635:0.151741 665:0.060293999 668:0.047074001 686:0.157208 731:0.054090001 758:0.14030001 765:0.116632 789:0.071599998 817:0.116024 822:0.080557004 869:0.078295998 874:0.048707001 896:0.057385001 930:0.082864001 952:0.072162002 958:0.082620002 962:0.068884999 974:0.066821001 1029:0.207289 1134:0.073186003 1150:0.079088002 1176:0.107811 1219:0.072305001 1317:0.148592 1399:0.084389001 1665:0.081908002 1669:0.063519001 1709:0.106968 1746:0.128739 1913:0.080996998 2144:0.201352 2304:0.202667 4360:0.18723001 4600:0.138052 5259:0.113802 6320:0.222454 8699:0.385409 11838:0.169946 11839:0.287743 11840:0.169946 #
1.0000000231766961178436758928001 9:0.102563 10:0.039322 24:0.202399 35:0.018456999 37:0.055066001 44:0.037229002 48:0.073135003 74:0.111828 87:0.035149999 99:0.083659001 107:0.091743 112:0.029067 126:0.059976999 147:0.09629 149:0.080557004 180:0.077196002 198:0.13951001 199:0.14604101 205:0.053631999 210:0.081926003 221:0.046131 232:0.060488999 237:0.115786 239:0.022147 244:0.047967002 292:0.185552 310:0.183452 341:0.078996003 352:0.047938 401:0.090837002 440:0.135497 452:0.057045002 464:0.13262101 466:0.21379399 616:0.093927003 676:0.069213003 682:0.077117004 697:0.162515 730:0.090207003 740:0.095531002 758:0.28725001 837:0.072929002 914:0.17640699 954:0.119673 974:0.097070001 979:0.100244 1317:0.25253499 1461:0.116398 1486:0.14994401 1618:0.198677 1704:0.242002 2039:0.120375 2075:0.132585 2443:0.156616 2497:0.239436 4365:0.167063 4564:0.28937101 #
1.0000000231766961178436758928001 6:0.036701001 9:0.109086 10:0.036781002 11:0.019048 24:0.18932 36:0.03475 56:0.065655001 70:0.058054999 87:0.078456998 98:0.053729001 105:0.030696001 114:0.045658 126:0.045262001 131:0.061413001 164:0.114266 197:0.105783 199:0.136604 236:0.038612999 239:0.020716 271:0.070832998 286:0.102465 292:0.13046899 293:0.069594003 315:0.062999003 318:0.12159 351:0.057319 352:0.044840001 401:0.084967002 429:0.089639001 433:0.063693002 493:0.061563 651:0.10387 656:0.075602002 676:0.064741001 682:0.122132 697:0.188416 809:0.132276 812:0.153733 837:0.068216003 881:0.105353 906:0.071046002 928:0.081822 1108:0.083573997 1142:0.132494 1150:0.107466 1295:0.19601201 1317:0.084611997 1729:0.109167 1978:0.13369399 2009:0.107466 2062:0.182896 2104:0.22889701 2497:0.132276 2549:0.327786 2658:0.115396 3168:0.17175999 4154:0.156267 4525:0.178527 5061:0.21225999 5489:0.19359601 6132:0.166357 6275:0.166357 6447:0.19359601 12393:0.21225999 #
-1.0000000231766961178436758928001 4:0.20632599 9:0.045814998 10:0.036862001 12:0.070501 23:0.038148999 38:0.055948999 57:0.094307996 59:0.116909 87:0.078630999 88:0.060095999 99:0.046319999 107:0.086005002 112:0.027248999 156:0.058809999 192:0.195685 199:0.136907 241:0.085444003 244:0.044966999 249:0.060143001 267:0.109008 286:0.17387401 292:0.105495 323:0.14520299 330:0.094475999 350:0.045483999 352:0.044939999 387:0.073429003 420:0.083420999 429:0.152109 430:0.096216999 464:0.073429003 554:0.252572 577:0.119628 686:0.24343801 701:0.083088003 722:0.073896997 758:0.31503901 759:0.079567 812:0.090999 840:0.099463001 1004:0.065053999 1037:0.100709 1147:0.184264 1159:0.114923 1218:0.094307996 1529:0.122807 1540:0.085275002 1579:0.109705 1724:0.098862 1729:0.10941 2062:0.108261 2099:0.14249399 2182:0.149276 2497:0.13257 3101:0.257319 3397:0.128115 3404:0.151977 3737:0.183083 4211:0.28229201 #
-1.0000000231766961178436758928001 9:0.037935998 11:0.026764 18:0.046698999 19:0.060231999 41:0.039312001 49:0.087137997 54:0.179252 70:0.048177999 75:0.067019999 81:0.061059002 99:0.091523997 104:0.083488002 105:0.025474001 115:0.042688001 178:0.074271001 205:0.099344999 215:0.106574 216:0.053036999 244:0.037234001 262:0.101292 271:0.058782 286:0.22188701 290:0.045248002 293:0.057753 300:0.049918 350:0.037661999 370:0.036040001 393:0.047460999 430:0.079671003 435:0.13105901 450:0.063092001 463:0.20714 473:0.14948501 493:0.051089 508:0.063377 560:0.061253998 572:0.073693998 631:0.14158399 633:0.074506 637:0.122891 668:0.053082 807:0.038614001 897:0.169561 914:0.065250002 936:0.101292 1037:0.083389997 1295:0.162663 1353:0.067208 1364:0.087429002 1422:0.069355004 1491:0.091587 1515:0.069926001 1689:0.127049 1860:0.247613 2517:0.123604 3058:0.27215001 3340:0.098016001 3662:0.140183 4137:0.209281 4293:0.099776 4346:0.142538 4893:0.198396 9605:0.176147 10201:0.191636 10202:0.191636 10203:0.191636 10204:0.191636 10205:0.176147 10206:0.191636 #
-1.0000000231766961178436758928001 6:0.036164999 8:0.05965 9:0.107494 11:0.01877 24:0.088895999 35:0.017012 41:0.046681002 43:0.059461001 89:0.112551 94:0.065748997 103:0.097203001 108:0.062604003 112:0.056225002 120:0.115595 126:0.055282 131:0.102464 133:0.145537 137:0.046363 156:0.071671002 157:0.19743299 164:0.112598 170:0.077853002 181:0.067346998 192:0.080628 197:0.10424 229:0.080213003 241:0.040031999 249:0.059133999 282:0.062445998 286:0.240944 297:0.15704501 311:0.082131997 330:0.092891 340:0.164124 350:0.044721 354:0.055050999 389:0.073046997 431:0.116387 444:0.079603001 449:0.24097399 473:0.177503 493:0.060664002 656:0.074499004 668:0.063031003 682:0.071080998 701:0.081693999 737:0.155624 743:0.090664998 803:0.083609998 810:0.105628 914:0.162599 929:0.086705998 945:0.090664998 1108:0.082354002 1353:0.079805002 1396:0.114078 1618:0.108157 1635:0.12429 1768:0.121711 1860:0.237215 2803:0.137308 3404:0.149427 4222:0.18485001 4289:0.190771 7598:0.198404 7599:0.22755399 7600:0.22755399 7601:0.209162 #
-1.0000000231766961178436758928001 6:0.052824002 9:0.092731997 18:0.047837 23:0.067906998 36:0.02954 42:0.057773001 59:0.112756 61:0.071140997 65:0.054191001 81:0.062546 87:0.047322001 91:0.049091998 108:0.091441996 129:0.093304001 133:0.125551 143:0.046025999 144:0.149731 164:0.097135998 180:0.061381999 199:0.068585001 221:0.036681 241:0.082409002 244:0.038141001 383:0.076273002 427:0.077059999 457:0.061827999 466:0.280303 475:0.081459999 651:0.088298999 682:0.128685 705:0.070949003 707:0.077437997 758:0.20087101 759:0.114269 806:0.097478002 807:0.066970997 835:0.085969001 885:0.066679999 987:0.120031 1007:0.083028004 1093:0.072949 1138:0.104997 1142:0.066520996 1217:0.060334999 1298:0.084365003 1317:0.121783 1353:0.068846002 1555:0.14748 1599:0.097478002 1603:0.117701 1617:0.140579 2543:0.19630501 2544:0.171158 2545:0.137593 2546:0.19630501 2547:0.15529101 2548:0.15176301 2549:0.459447 2550:0.305509 2551:0.091590002 2552:0.159465 #
-1.0000000231766961178436758928001 6:0.079304002 9:0.098778002 11:0.024309 27:0.121394 31:0.067814998 36:0.075087003 44:0.093266003 110:0.117028 194:0.104693 229:0.103885 271:0.090397999 282:0.23824801 286:0.22140799 327:0.067722 340:0.15081701 348:0.139696 393:0.12358 414:0.104557 473:0.229886 539:0.10483 661:0.114398 668:0.081632003 699:0.096699998 858:0.074483998 914:0.169898 952:0.125138 1142:0.169089 1199:0.155771 1219:0.263138 1353:0.103356 1422:0.106658 1617:0.21104699 1704:0.17062099 2038:0.15233199 2453:0.41832301 2485:0.15638 2784:0.17670099 3955:0.160274 9687:0.294707 #
1.0000000231766961178436758928001 9:0.048861999 12:0.127306 17:0.153056 21:0.101487 24:0.096423998 32:0.167363 35:0.018453 38:0.059670001 41:0.050634 48:0.073119998 60:0.058736 65:0.115366 67:0.129963 75:0.050983001 85:0.070052996 116:0.070427001 144:0.25224501 169:0.064650998 180:0.077179998 190:0.101672 219:0.05759 233:0.100939 291:0.102616 321:0.088377997 323:0.091462001 350:0.048508 353:0.083443999 354:0.059712999 370:0.046418998 374:0.121808 404:0.166281 453:0.070742004 465:0.143677 477:0.312336 543:0.109279 567:0.108799 624:0.27182901 661:0.095812 671:0.072709002 699:0.080989003 705:0.089208998 764:0.098178998 773:0.117318 840:0.222616 858:0.130917 874:0.14846 1054:0.114867 1142:0.083641998 1150:0.114867 1449:0.126684 1501:0.100939 1579:0.117 1670:0.334104 2330:0.13541 2867:0.15920199 4567:0.16888601 5443:0.226877 #
1.0000000231766961178436758928001 6:0.061028998 9:0.094218999 11:0.018707 23:0.078452997 32:0.073275998 35:0.016954999 43:0.059262998 48:0.067185 52:0.092745997 58:0.078547999 70:0.096537001 83:0.05889 85:0.064366996 86:0.075175002 92:0.085262999 94:0.065530002 98:0.052767999 114:0.044840999 121:0.051339999 164:0.053474002 174:0.093763001 183:0.14188699 198:0.075692996 201:0.091289997 208:0.126662 239:0.020345001 244:0.044064999 256:0.057714999 271:0.069567002 315:0.104759 318:0.119415 435:0.091606997 443:0.056717001 444:0.079337001 460:0.095002003 518:0.090060003 637:0.085897997 647:0.31554201 656:0.074249998 690:0.089910001 737:0.155104 780:0.099474996 807:0.045697998 855:0.073435999 869:0.104486 881:0.103469 887:0.088316001 904:0.19506501 908:0.099751003 1109:0.235605 1211:0.097269997 1303:0.12858801 1348:0.072568998 1367:0.129241 1501:0.092745997 1555:0.100633 1569:0.124976 1615:0.173529 2034:0.116402 3123:0.168688 5136:0.15517899 10541:0.55204397 #
1.0000000231766961178436758928001 9:0.187914 18:0.23132101 33:0.27109 35:0.041914999 37:0.125053 48:0.166085 69:0.11794 75:0.115804 76:0.091059998 112:0.066009 240:0.188714 258:0.153983 290:0.132378 530:0.161699 705:0.202629 806:0.471365 838:0.21728601 1130:0.26647699 2184:0.217629 2980:0.470018 #
1.0000000231766961178436758928001 1:0.112543 6:0.037122998 9:0.097038999 11:0.032621998 14:0.076471999 23:0.038502 35:0.036648002 41:0.047917001 64:0.083195999 115:0.052030999 144:0.074661002 146:0.121432 182:0.088601001 183:0.086308002 208:0.049993001 258:0.064153999 280:0.10411 290:0.093381003 314:0.104584 327:0.053676002 341:0.074740998 385:0.050025001 404:0.074982002 579:0.085467003 617:0.087050997 671:0.068806998 677:0.082763001 690:0.092601001 697:0.090814002 783:0.068935998 807:0.112312 878:0.29034001 976:0.092909999 1133:0.079819001 1198:0.095866002 1289:0.116353 1348:0.074740998 1420:0.094021998 1459:0.108703 1515:0.085230999 1609:0.108982 1623:0.095866002 1681:0.096391998 1888:0.112579 2018:0.13178 2069:0.111634 2323:0.127031 5106:0.371337 6066:0.176944 6978:0.156414 9807:0.45057601 14299:0.23358101 14300:0.23358101 14301:0.23358101 #
1.0000000231766961178436758928001 10:0.046080001 12:0.052051 15:0.029261 35:0.012775 38:0.041308001 39:0.060860001 41:0.035053 44:0.067238003 46:0.169521 49:0.045889001 51:0.095035002 59:0.086314 68:0.079317003 70:0.042957 98:0.067313999 99:0.081606999 112:0.020118 121:0.038681 143:0.040063001 145:0.071281001 169:0.044755999 236:0.028571 241:0.030060001 256:0.043483 315:0.046615999 351:0.042413 354:0.041338 358:0.094159998 393:0.042319 453:0.048971999 473:0.078722 508:0.056510001 530:0.049281999 545:0.131208 649:0.072699003 677:0.102509 682:0.053374998 688:0.086222999 723:0.037487 740:0.066119 759:0.058745001 780:0.044264998 799:0.065306 908:0.075153999 931:0.076332003 1158:0.095473997 1159:0.084848002 1160:0.1321 1902:0.116656 1928:0.113282 2111:0.102451 2442:0.235475 2615:0.124994 2807:0.22570699 3352:0.25134301 4478:0.100033 13591:0.32960901 13765:0.15706 13975:0.56431597 13976:0.28931001 #
-0.41449100482324385819055123647559 33:0.295737 35:0.036890998 36:0.074253999 44:0.074412003 95:0.14714999 126:0.057123002 197:0.133505 456:0.37667701 497:0.084784001 530:0.24096701 750:0.249827 1130:0.49220499 1163:0.27977699 1209:0.1839 1348:0.157893 1358:0.25151899 1635:0.269521 1682:0.269521 #
-0.79089433520375729269602516069426 3:0.123571 9:0.133297 10:0.036405999 12:0.069628999 23:0.063793004 24:0.18739299 38:0.055257 44:0.034469001 63:0.045331001 64:0.081412002 76:0.062858 83:0.124558 87:0.032543998 98:0.090046003 99:0.077455997 112:0.026912 126:0.044801001 144:0.073060997 156:0.034304999 172:0.22581001 201:0.092007004 237:0.107201 239:0.020505 240:0.076939002 246:0.154719 279:0.119008 292:0.10419 312:0.076288 317:0.196519 363:0.110481 405:0.162551 429:0.088726997 473:0.105306 474:0.069086 498:0.084458999 560:0.073060997 635:0.204089 780:0.059213001 848:0.137923 874:0.110919 894:0.060205001 953:0.099886999 1149:0.15659399 1321:0.083288997 1374:0.090767004 1432:0.100101 1433:0.095931001 1670:0.38470799 1674:0.254136 2042:0.121768 2463:0.14073101 2668:0.14387 2672:0.238279 3387:0.115724 4001:0.170012 4806:0.154677 7155:0.164664 7156:0.22857399 #
-1.0000000231766961178436758928001 9:0.225857 11:0.027005 18:0.13508099 35:0.024475999 36:0.083415002 37:0.15325201 88:0.085011996 160:0.121838 221:0.061175 240:0.110201 244:0.063611001 321:0.117225 352:0.107637 414:0.116154 493:0.087281004 523:0.105322 530:0.094425 546:0.12749 765:0.13270301 878:0.54135603 1348:0.32259801 1453:0.235852 1681:0.135105 1769:0.153547 5114:0.450295 5335:0.243512 #
-0.12099452624946629986091295450024 6:0.038716 9:0.048223998 11:0.064244002 15:0.041715998 28:0.117745 35:0.018212 36:0.036658 37:0.054336 48:0.122185 56:0.069260001 57:0.099265002 63:0.048310999 65:0.067247003 69:0.086765997 71:0.101849 75:0.050317001 92:0.091582999 98:0.056678999 99:0.048755001 108:0.067019999 112:0.048560999 123:0.067534998 126:0.028200001 142:0.043269999 156:0.036559999 164:0.057438001 190:0.169897 216:0.067419 229:0.085871004 241:0.042854998 271:0.074722998 276:0.040043999 300:0.063454002 326:0.093823001 336:0.085217997 385:0.088334002 443:0.103147 518:0.29789001 614:0.111679 624:0.096097 658:0.210959 682:0.076094002 690:0.096574001 767:0.089134 794:0.096574001 807:0.049084999 843:0.11843 858:0.061567999 887:0.094861999 993:0.063807003 1029:0.17549101 1037:0.106004 1109:0.28775901 1163:0.138119 1174:0.168641 1298:0.104692 1334:0.109828 1349:0.105781 1615:0.110086 4167:0.143437 6488:0.21239699 7565:0.21239699 8999:0.21239699 10541:0.445739 #
-0.91637070116443841705233808170306 9:0.101633 11:0.034166001 12:0.074523002 18:0.059615999 22:0.066353001 35:0.01829 37:0.054567002 44:0.036892001 50:0.098637998 76:0.094818003 105:0.055061001 112:0.028803 132:0.126453 146:0.075116001 154:0.24270301 156:0.087614998 169:0.064078003 236:0.040906001 239:0.021946 241:0.043037999 244:0.047532 374:0.120729 389:0.078532003 390:0.083598003 434:0.070303999 469:0.26443401 497:0.071170002 543:0.108311 560:0.078195997 705:0.29201001 723:0.053670999 777:0.084004 812:0.162865 835:0.107137 836:0.15062401 880:0.145777 906:0.075266004 951:0.095114 967:0.100045 1013:0.081744999 1108:0.088537998 1140:0.087595001 1150:0.27167901 1211:0.104925 1276:0.12148 1326:0.126453 1604:0.217574 1669:0.091438003 1728:0.101898 1736:0.093787 1898:0.15918399 2274:0.134811 2915:0.169359 3387:0.123858 4360:0.15918399 6891:0.213302 7050:0.176238 13965:0.24464101 13966:0.24464101 #
1.0000000231766961178436758928001 9:0.089865997 35:0.020044999 36:0.068311997 38:0.064816996 44:0.068457998 51:0.149122 53:0.116182 76:0.043547999 113:0.078569002 126:0.065136999 134:0.081675 145:0.111849 157:0.110848 178:0.103913 205:0.058246002 208:0.057385001 239:0.024052 250:0.093792997 286:0.40424401 292:0.151483 293:0.080802999 317:0.18598001 351:0.066551998 354:0.109824 370:0.050423 383:0.061528001 387:0.085066997 393:0.066403002 545:0.098104 546:0.104408 716:0.095748 731:0.14448801 753:0.122322 858:0.067763999 894:0.07062 984:0.139089 1026:0.24587999 1140:0.162544 1173:0.176064 1209:0.099923 1217:0.082405999 1312:0.117167 1540:0.098791003 1928:0.177754 1930:0.15522701 2268:0.159766 2336:0.19613101 2731:0.143408 2962:0.246448 4434:0.18345401 9405:0.224777 10045:0.26811799 #
1.0000000231766961178436758928001 6:0.067451 31:0.05768 50:0.101065 59:0.060334999 60:0.059648 62:0.067538001 70:0.063015997 87:0.035688002 104:0.052035 112:0.029511999 114:0.049559999 145:0.104566 156:0.037618998 232:0.036272999 236:0.109368 241:0.074662 257:0.138331 282:0.16414499 311:0.090471998 324:0.079527996 352:0.08241 356:0.077349998 365:0.12186 387:0.166898 422:0.104999 452:0.057918001 463:0.129104 688:0.12648501 751:0.27143699 833:0.189162 835:0.18586101 914:0.085346997 951:0.165004 979:0.172328 991:0.077195004 1104:0.25880501 1108:0.090715997 1119:0.096993998 1142:0.084941 1219:0.106646 1234:0.097764999 1317:0.091843002 1433:0.1052 1473:0.13875601 1518:0.112488 1589:0.20632701 1617:0.106018 1902:0.212109 2062:0.117253 2148:0.31029499 2928:0.18643899 3101:0.1646 3543:0.18643899 3701:0.28419599 #
1.0000000231766961178436758928001 10:0.061003 18:0.093332998 19:0.071098 23:0.037287001 33:0.064600997 69:0.080569997 83:0.058738001 98:0.052632 104:0.046959002 105:0.030068999 112:0.026633 114:0.044725999 127:0.079033002 216:0.105999 272:0.048886001 285:0.169945 286:0.26191601 351:0.095068 370:0.042541001 389:0.072614998 420:0.19457 450:0.074473001 457:0.071245998 465:0.077768996 492:0.082200997 637:0.085676 686:0.099710003 758:0.110296 759:0.131675 812:0.150593 835:0.20789699 840:0.097216003 863:0.095489003 874:0.064832002 903:0.170709 914:0.16163699 1196:0.100597 1209:0.084302999 1316:0.113403 1353:0.079333 1424:0.090586998 1669:0.084547997 1688:0.114526 1762:0.33393899 2034:0.243651 2037:0.1258 2080:0.105815 2535:0.108411 3340:0.115698 3400:0.19723 3404:0.25150499 3881:0.15855201 4158:0.165473 7228:0.20792399 8672:0.226207 8673:0.189641 #
1.0000000231766961178436758928001 9:0.044822 15:0.038773 48:0.113566 56:0.064374 75:0.079184003 81:0.072140999 87:0.067652002 121:0.051254999 126:0.062546 143:0.053087 147:0.088310003 156:0.033980999 169:0.059305001 205:0.049187999 208:0.048459999 214:0.097333997 221:0.042307999 239:0.020311 272:0.10269 286:0.210839 300:0.058977999 327:0.088094003 340:0.143618 352:0.043965001 370:0.042580999 420:0.138182 440:0.073394999 492:0.082277998 554:0.175321 690:0.089760996 692:0.12902699 758:0.26344499 761:0.101844 793:0.117034 812:0.089025997 833:0.100917 903:0.100917 1142:0.076725997 1147:0.277825 1150:0.105369 1159:0.23594899 1317:0.082961001 1318:0.139404 1418:0.110399 1422:0.081942998 1617:0.200973 1681:0.15820099 1688:0.114632 1729:0.107037 1769:0.10619 1888:0.109126 2062:0.25274101 2122:0.13108499 2144:0.174062 2193:0.15010899 3404:0.148681 3574:0.153218 4989:0.168409 5111:0.226418 5112:0.179113 5113:0.163111 #
1.0000000231766961178436758928001 15:0.035657 23:0.034322001 35:0.015567 50:0.083953999 56:0.059200998 60:0.049550001 80:0.158214 85:0.059096001 86:0.069018997 88:0.054067999 104:0.043226 131:0.055376001 137:0.042424001 144:0.066555999 156:0.087242998 157:0.14575601 239:0.018679 241:0.036630999 292:0.094913997 299:0.088945001 303:0.102444 383:0.047782999 387:0.111856 401:0.076614 415:0.073492996 419:0.045352999 453:0.059677999 466:0.1065 470:0.056058001 498:0.13026799 518:0.082685001 543:0.156087 555:0.089855 668:0.097654998 699:0.11568 721:0.078982003 789:0.087727003 811:0.064383999 897:0.25966099 914:0.12004 1054:0.096901998 1142:0.070560001 1144:0.133173 1145:0.181549 1150:0.096901998 1152:0.092807002 1158:0.358275 1160:0.16097701 1223:0.097912997 1312:0.154065 1534:0.107629 1556:0.134303 1609:0.097150996 1780:0.14594699 1788:0.089487001 1824:0.148534 1866:0.11276 1879:0.124847 2062:0.16491599 2616:0.108412 2803:0.125643 3404:0.231509 4219:0.152317 4222:0.28638899 5509:0.142472 10485:0.174564 #
-1.0000000231766961178436758928001 23:0.031528998 24:0.074722998 35:0.0143 36:0.028782999 80:0.085837997 87:0.064986996 114:0.037819002 126:0.037491001 142:0.033975001 157:0.165957 164:0.0451 232:0.046866 236:0.054152001 238:0.063766003 239:0.017159 241:0.03365 286:0.20253199 300:0.049823999 350:0.037590999 385:0.040964998 419:0.041662 572:0.073555 659:0.126811 686:0.084312998 697:0.074366003 708:0.094393998 758:0.093263999 771:0.116268 812:0.12733901 951:0.074366003 961:0.10845 984:0.168005 1000:0.116956 1040:0.087265 1110:0.076468997 1158:0.22429 1159:0.19932801 1160:0.38587201 1299:0.17251401 1313:0.115417 1317:0.070084997 1556:0.123372 1740:0.089943998 1806:0.096519001 1859:0.120394 2006:0.089708 2085:0.106374 2144:0.18226001 2497:0.26145601 2665:0.103582 3058:0.219157 3404:0.125605 5962:0.147875 6174:0.125605 6742:0.160357 6904:0.160357 6905:0.191276 6906:0.16677301 6907:0.14227 6908:0.175817 #
-1.0000000231766961178436758928001 9:0.040463999 11:0.016860999 13:0.081857003 15:0.035004001 23:0.057048 35:0.015282 36:0.030758999 44:0.030825 56:0.058116999 59:0.049201999 75:0.042220999 83:0.053077001 88:0.053077001 97:0.074078001 113:0.035378002 121:0.078346997 123:0.056667998 126:0.023662999 143:0.047926001 150:0.120015 155:0.059439 156:0.030678 164:0.101145 174:0.084509 239:0.018337 241:0.060885001 244:0.039714999 256:0.052018002 286:0.216436 315:0.055764999 392:0.058901999 453:0.058584001 484:0.13049901 543:0.090498999 560:0.065335996 565:0.186637 616:0.077768996 697:0.079471998 897:0.10682 903:0.191199 928:0.072426997 953:0.089326002 970:0.245813 1142:0.193378 1223:0.096119002 1338:0.078973003 1405:0.080900997 1432:0.089518003 1488:0.113153 1606:0.105657 1618:0.097156003 1667:0.121803 1806:0.103146 2062:0.200664 2551:0.161477 3216:0.178223 3371:0.103837 4035:0.46506199 4580:0.145181 4852:0.187887 4913:0.187887 6237:0.16170201 7212:0.204408 7213:0.204408 #
-1.0000000231766961178436758928001 6:0.041243002 9:0.086979002 10:0.069982 11:0.055856001 15:0.044438999 16:0.085244 18:0.063238002 23:0.072425 35:0.019401001 36:0.039050002 37:0.057882998 56:0.073780999 89:0.075808004 94:0.074980997 99:0.051936999 104:0.053870998 112:0.051731002 115:0.057806 178:0.100575 187:0.129678 193:0.283398 286:0.274775 322:0.075599 341:0.14059199 419:0.056522999 453:0.074375004 458:0.137389 467:0.159775 508:0.085822001 687:0.144998 690:0.102878 700:0.192835 716:0.092671998 778:0.069069996 903:0.115664 1054:0.120767 1065:0.333157 1139:0.20528699 1159:0.128861 1226:0.155595 1299:0.111526 1312:0.113403 1449:0.133191 1896:0.122351 2568:0.210804 4167:0.152799 4601:0.16597199 5113:0.31652701 5573:0.23853099 5574:0.217556 #
-0.78690115549579009446290456253337 38:0.052719999 41:0.044737 57:0.088863999 61:0.079031996 70:0.054825 87:0.031049 89:0.107864 94:0.063010998 112:0.043473002 113:0.037742998 126:0.025245 157:0.189211 169:0.119874 194:0.077471003 208:0.097952001 221:0.040748999 272:0.04713 286:0.23091 290:0.087182999 337:0.154356 340:0.138327 350:0.042858001 390:0.074520998 510:0.195072 545:0.079793997 550:0.27268401 560:0.069706 585:0.27078599 686:0.096127003 688:0.110044 758:0.18003599 780:0.095652997 903:0.164574 914:0.074253 1333:0.103094 1353:0.076481998 1640:0.25334501 1756:0.084253997 1842:0.152854 2024:0.206311 2104:0.12767 2297:0.126257 5519:0.19014101 5520:0.19014101 5521:0.19014101 7739:0.168596 10980:0.182826 11445:0.200452 11446:0.200452 11447:0.218078 #
-1.0000000231766961178436758928001 6:0.033241 9:0.041404001 11:0.029211 15:0.035817001 23:0.058373 24:0.081707999 30:0.076214001 31:0.048129 36:0.053289998 54:0.093222998 55:0.13122401 70:0.052581999 87:0.029779 98:0.048664 112:0.024625 145:0.087252997 157:0.18147001 164:0.083498999 239:0.018763 282:0.120454 286:0.22146399 311:0.075492002 338:0.068782002 340:0.164961 352:0.068765 419:0.045556001 420:0.075390004 473:0.16315199 474:0.107036 594:0.088290997 690:0.082918003 776:0.107727 777:0.071819 835:0.19222599 952:0.088812001 1142:0.16913199 1147:0.098352 1150:0.097336002 1317:0.22576299 1397:0.078174002 1617:0.185651 2062:0.097838998 3831:0.192251 5063:0.43517101 5066:0.15844201 5073:0.38586 7421:0.16990399 14542:0.20915601 14543:0.20915601 #
1.0000000231766961178436758928001 11:0.090079002 35:0.034214001 67:0.57501101 105:0.127666 112:0.053881001 126:0.052976999 156:0.116291 217:0.11144 221:0.085513003 229:0.161319 232:0.066225998 236:0.12956201 243:0.14834701 322:0.133321 327:0.105164 385:0.16594701 453:0.131162 456:0.49235699 457:0.34395599 676:0.12830099 719:0.151866 738:0.129087 3057:0.212432 #
1.0000000231766961178436758928001 1:0.059881002 9:0.041655999 10:0.033516001 22:0.119776 26:0.064805001 33:0.060095001 36:0.031665001 37:0.098502003 40:0.107628 42:0.061930001 44:0.066595003 51:0.069123998 61:0.07626 87:0.029960001 100:0.081942998 101:0.097678997 105:0.047361001 112:0.024775 121:0.047635999 126:0.024359999 145:0.051846001 180:0.111407 181:0.105447 192:0.074560001 205:0.045713998 208:0.045038 244:0.040885001 258:0.057794999 271:0.064547002 300:0.054813001 316:0.077317998 335:0.130486 351:0.052232001 374:0.103846 387:0.066763997 392:0.060635999 473:0.096946999 508:0.069591999 529:0.104491 570:0.086521 623:0.071478002 673:0.12780599 675:0.241101 681:0.20765901 705:0.076053999 744:0.129559 764:0.083701 783:0.062103 822:0.099747002 1065:0.103529 1404:0.138182 1604:0.089176998 1623:0.086364001 1799:0.222561 1802:0.147493 2009:0.097928002 2445:0.129559 2710:0.13245 2734:0.26062801 3057:0.097678997 4021:0.14398199 4210:0.142398 4471:0.170938 4478:0.123192 4485:0.32749099 5093:0.136923 5114:0.170938 5846:0.123192 7788:0.18347301 13743:0.210429 13744:0.210429 #
1.0000000231766961178436758928001 14:0.089676999 16:0.089978002 23:0.076447003 35:0.020478001 36:0.041219 41:0.056191001 44:0.069937997 57:0.111617 70:0.116595 75:0.056577999 76:0.044489 87:0.038998999 95:0.138302 99:0.092821002 113:0.047407001 115:0.103308 126:0.031709 131:0.072847001 142:0.082378 206:0.13127901 208:0.18053401 221:0.107413 241:0.048188001 244:0.090108998 272:0.059197001 284:0.185725 351:0.067989998 363:0.224167 368:0.235594 424:0.135175 463:0.141082 498:0.101212 552:0.096556 579:0.100225 592:0.077740997 595:0.109321 614:0.21261699 651:0.123208 682:0.144869 705:0.098999001 758:0.13355801 974:0.107701 981:0.117719 1100:0.136445 1109:0.32356501 1138:0.14650799 1156:0.21808399 1305:0.109137 1348:0.087646998 1460:0.158584 1555:0.121541 1686:0.135175 1703:0.13961899 1926:0.135593 2146:0.173768 2551:0.1278 2573:0.22251 3050:0.191991 #
1.0000000231766961178436758928001 7:0.095063999 9:0.13808 11:0.031633999 18:0.055197001 23:0.078354999 35:0.016934 37:0.085542999 41:0.046466 44:0.034157999 48:0.067100003 53:0.098151997 59:0.054522 65:0.062527999 76:0.036789998 80:0.10165 81:0.072169997 85:0.064286001 86:0.075080998 108:0.062316999 112:0.045154002 123:0.106322 216:0.062688001 221:0.088822998 244:0.044009 258:0.062212002 347:0.144869 352:0.043983001 353:0.12965301 365:0.110119 383:0.051979002 385:0.04851 405:0.183164 410:0.071790002 419:0.049336001 448:0.054209001 470:0.06098 483:0.080362 518:0.152293 635:0.16316999 670:0.094168998 682:0.070753999 760:0.061538 764:0.152548 780:0.058678001 811:0.070037998 822:0.25621301 878:0.350081 885:0.076939002 976:0.090097003 1099:0.147386 1348:0.17295399 1583:0.095615998 1623:0.15740199 2163:0.113554 2197:0.129747 2298:0.13946 2330:0.124263 2579:0.129079 2719:0.136677 7356:0.20820101 7357:0.352516 9828:0.226509 9829:0.226509 #
1.0000000231766961178436758928001 9:0.126265 23:0.044059001 80:0.119951 95:0.079708003 102:0.300984 126:0.030942 139:0.131107 142:0.080385998 209:0.093386002 241:0.047022 245:0.12345 276:0.043938 296:0.182888 297:0.087899998 304:0.220017 328:0.103267 337:0.090149 340:0.080788001 350:0.052530002 352:0.051902 392:0.077021003 452:0.104571 469:0.13767 493:0.071258001 568:0.183439 650:0.090469003 682:0.083493002 830:0.28494999 846:0.109702 858:0.067555003 880:0.159273 915:0.26494399 1342:0.101236 1583:0.112831 1987:0.14663599 1988:0.151549 2579:0.319657 3073:0.143548 3076:0.145364 3473:0.173922 3817:0.415984 #
-0.71684267761333364532561063242611 3:0.080107003 6:0.039873 9:0.084090002 11:0.035038002 12:0.076425001 24:0.098010004 33:0.186961 35:0.018756 36:0.037753001 44:0.064057998 46:0.118603 57:0.243956 68:0.116458 76:0.040748999 80:0.112589 83:0.065145999 87:0.035719998 89:0.073289998 136:0.106742 149:0.13860799 154:0.104303 178:0.097234003 179:0.084916003 192:0.088894002 204:0.087215997 208:0.090916 216:0.069434002 278:0.117974 282:0.068847999 289:0.160459 351:0.062274002 354:0.102765 387:0.134773 389:0.080536 397:0.077032998 415:0.088551 588:0.311369 649:0.22401001 654:0.093635 661:0.097387001 676:0.11909 690:0.099459998 699:0.13938101 764:0.099793002 799:0.095886998 822:0.28378499 837:0.12548301 881:0.114459 1152:0.29179299 1347:0.120238 1623:0.21608999 4478:0.24868201 5366:0.193958 5920:0.21874499 #
-0.18349987619323185339403892157861 3:0.072934002 4:0.203638 6:0.036302999 19:0.071794003 33:0.065233 37:0.086264998 42:0.067225002 48:0.11457 85:0.064828999 87:0.032522 99:0.095941 105:0.030363999 113:0.039533999 138:0.062578 142:0.040573001 145:0.056279 232:0.033055 241:0.040183999 244:0.044381 323:0.084642 365:0.111049 385:0.048920002 453:0.065467 538:0.108569 552:0.080518998 613:0.24945299 665:0.081040002 1092:0.112725 1093:0.084884003 1171:0.092263997 1405:0.090405002 1413:0.123698 1494:0.120272 1669:0.085375004 1717:0.114885 1721:0.115646 1941:0.12644599 2169:0.212172 2882:0.364456 4167:0.134497 4325:0.119817 6530:0.169898 7268:0.209959 7388:0.386751 7389:0.228421 7390:0.191497 7391:0.19915999 7392:0.209959 7393:0.228421 #
-0.15723566512343015166841553309496 6:0.066165999 14:0.136299 105:0.055341002 109:0.103958 115:0.092736997 136:0.177129 206:0.117845 219:0.097135998 221:0.077791996 262:0.220052 271:0.127702 354:0.100718 528:0.25815701 579:0.15233099 782:0.15887301 869:0.19180299 976:0.16559801 991:0.128213 1006:0.232618 1299:0.17892 1686:0.205452 1700:0.232618 1763:0.25815701 2259:0.21596999 3009:0.38267201 3050:0.29180601 7010:0.30965701 #
-1.0000000231766961178436758928001 9:0.110069 11:0.019219 23:0.038408 35:0.017419999 38:0.180096 48:0.11687 58:0.080698997 63:0.046209998 75:0.048128001 76:0.037845001 99:0.046634 107:0.086588003 108:0.064103998 112:0.027433001 121:0.089308001 131:0.061967 134:0.070978999 144:0.194344 147:0.090879999 164:0.054939002 181:0.068960004 210:0.077321999 244:0.076651998 247:0.073234998 328:0.090021998 426:0.074796997 470:0.062729999 493:0.105175 530:0.067203 554:0.106561 614:0.106821 682:0.173683 692:0.31685501 700:0.102262 759:0.080107003 830:0.118364 858:0.05889 902:0.139707 930:0.113611 1114:0.12618101 1149:0.094279997 1170:0.114291 1268:0.075447999 1318:0.242899 1533:0.106821 1623:0.161917 1826:0.140597 1843:0.14902399 1896:0.109858 1913:0.111052 2068:0.138844 2306:0.104089 2380:0.136409 2528:0.30499801 2665:0.12618101 3073:0.125135 3168:0.36370799 4974:0.145551 9681:0.19534101 #
1.0000000231766961178436758928001 6:0.040429 9:0.131404 10:0.040516999 35:0.019018 41:0.052184001 65:0.070223004 69:0.053513002 75:0.052544001 87:0.036217999 89:0.074312001 97:0.092188999 99:0.14213499 100:0.099059001 105:0.033815 126:0.029448001 143:0.059643 144:0.081309997 147:0.099216998 188:0.146484 212:0.077951998 232:0.062328 239:0.02282 267:0.070765004 286:0.191113 350:0.049993001 387:0.080709003 401:0.093598001 440:0.082460001 452:0.14026301 473:0.198431 474:0.076886997 545:0.15759499 597:0.072517999 656:0.083282001 671:0.074934997 690:0.100847 701:0.091325 783:0.127114 787:0.085795999 791:0.092064001 835:0.23379201 906:0.078263 914:0.18177 1154:0.122955 1217:0.078185 1295:0.127528 1299:0.185103 1340:0.095356002 1367:0.144963 1399:0.12631699 1570:0.114688 1669:0.160982 1681:0.104976 1841:0.180675 1994:0.110929 2068:0.151582 2073:0.132936 2438:0.135517 2708:0.183256 3094:0.167045 4564:0.176103 8203:0.233822 8204:0.254383 8205:0.254383 #
1.0000000231766961178436758928001 6:0.040199 9:0.10508 11:0.020863 15:0.043313999 24:0.098811001 35:0.01891 36:0.038061999 44:0.038143001 61:0.091664001 98:0.099642999 112:0.02978 126:0.029281 131:0.067267001 164:0.142315 198:0.084418997 199:0.088371001 208:0.054134998 221:0.047263 236:0.042293001 244:0.049144 248:0.060276002 276:0.041579001 282:0.145667 283:0.232905 286:0.190026 292:0.19010501 297:0.083180003 315:0.069003999 351:0.062783003 414:0.089737996 457:0.134884 637:0.095798999 655:0.101638 656:0.082809001 699:0.082993999 758:0.123329 773:0.120222 817:0.101989 903:0.112737 914:0.145817 945:0.100778 1142:0.22366101 1317:0.241836 1459:0.11771 1494:0.13318001 1618:0.20355301 2413:0.232493 2497:0.144885 5063:0.37339699 5066:0.191606 6805:0.191606 7421:0.34788799 #
0.99899944836238752099433213516022 15:0.031055 21:0.126249 36:0.065119997 57:0.125119 76:0.029455001 114:0.060710002 144:0.15125801 248:0.043216001 259:0.115045 286:0.19202 300:0.099134997 315:0.049474001 336:0.063440003 341:0.098249003 350:0.060343999 450:0.059705 466:0.221339 474:0.054811999 530:0.052304 544:0.058090001 576:0.180795 579:0.066354997 633:0.070506997 654:0.114597 659:0.203565 700:0.07959 730:0.112194 758:0.14971399 811:0.056074001 977:0.064933002 984:0.094076 1142:0.10405 1158:0.212649 1159:0.15246999 1289:0.090334997 1299:0.18598101 1669:0.067781001 1769:0.085051998 1860:0.18904801 2063:0.128803 2497:0.290005 2545:0.215216 2827:0.158117 4170:0.134886 5249:0.39777499 6174:0.201629 9963:0.282233 #
1.0000000231766961178436758928001 8:0.115793 11:0.061691001 35:0.033023998 37:0.098527998 70:0.111051 121:0.099996001 144:0.141192 368:0.224392 466:0.22593001 469:0.227515 682:0.137981 686:0.329671 759:0.15186401 825:0.13456 1258:0.245656 1298:0.18983901 1740:0.207715 1913:0.21053 2306:0.197329 4167:0.26009399 6237:0.34943801 11792:0.44172701 #
1.0000000231766961178436758928001 6:0.056938 9:0.109301 11:0.029550999 32:0.068365 44:0.031908002 63:0.071050003 89:0.14750201 94:0.061138 105:0.028127 112:0.024912 121:0.081101 150:0.073374003 157:0.087479003 164:0.119053 178:0.082006 200:0.10317 208:0.045286998 223:0.062447 231:0.062859997 239:0.018981 240:0.088279001 308:0.1086 389:0.067923002 440:0.068589002 443:0.052914999 444:0.074019998 448:0.08574 597:0.060320001 655:0.085024998 665:0.075070001 765:0.085766003 783:0.062447 837:0.062505998 935:0.072745003 937:0.071030997 938:0.217591 1004:0.059475999 1015:0.112722 1057:0.085766003 1112:0.107852 1134:0.091121003 1299:0.15396699 1375:0.113636 1405:0.083745003 1422:0.129657 1423:0.213413 1653:0.122502 1746:0.16028801 2235:0.117673 3022:0.133182 3057:0.098219 3165:0.12686799 3462:0.36935601 5967:0.13027599 7050:0.152431 10142:0.194491 10143:0.184487 10144:0.50492299 #
1.0000000231766961178436758928001 9:0.163166 11:0.020586001 18:0.060818002 26:0.076860003 27:0.24531899 35:0.018658999 36:0.037556 37:0.116825 58:0.086438 83:0.064805999 98:0.098319001 115:0.055594001 126:0.028891001 131:0.11238 197:0.067523003 208:0.053415999 219:0.058230001 232:0.036116 233:0.102062 240:0.049616002 286:0.110741 291:0.103758 307:0.28862101 351:0.061949 354:0.060378 405:0.249144 433:0.068837002 452:0.121022 493:0.112653 497:0.042881999 544:0.190769 651:0.190071 700:0.18545499 701:0.151704 726:0.199764 743:0.099437997 887:0.097185999 961:0.141504 1211:0.10704 1276:0.123929 1353:0.087527998 1405:0.098777004 1769:0.11705 1888:0.120287 2662:0.170766 3479:0.197431 4133:0.28014901 4985:0.24957401 4986:0.24957401 4987:0.24957401 #
-0.11718136673188195295836067089112 6:0.041746002 8:0.068855003 9:0.109122 11:0.051702 32:0.143693 41:0.091233 59:0.13268501 81:0.083691001 87:0.078483 98:0.061115 105:0.059117999 112:0.030926 113:0.045460999 123:0.07282 126:0.051484 147:0.102449 213:0.104832 221:0.049081001 239:0.023562999 241:0.110268 242:0.117074 244:0.051034998 247:0.082557999 256:0.066844001 311:0.094806001 352:0.051004 354:0.063545004 403:0.118701 404:0.084319003 408:0.294846 414:0.093189999 494:0.092237003 579:0.096110001 665:0.157785 697:0.214316 723:0.057626002 738:0.074091002 771:0.094300002 783:0.077520996 785:0.101481 802:0.13883699 807:0.052926 825:0.080013998 975:0.095844001 1004:0.073831998 1012:0.081464998 1057:0.106468 1142:0.15070701 1146:0.084228002 1198:0.107804 1468:0.088694997 1512:0.147469 1520:0.267212 1579:0.124508 1669:0.098174997 1729:0.124174 1736:0.100698 1741:0.115279 3912:0.16532999 4243:0.195371 4244:0.241438 4246:0.229019 4344:0.26266801 4345:0.26266801 #
-0.11841002587364306275485859032415 50:0.104001 56:0.124171 67:0.54874402 69:0.091874003 109:0.184646 114:0.086351 156:0.065545999 197:0.20006301 276:0.171317 317:0.30294099 322:0.127231 428:0.168997 567:0.192509 668:0.120974 731:0.13900501 785:0.168732 858:0.11038 993:0.114393 1142:0.14799599 1515:0.15935899 2695:0.248879 3460:0.31019101 4602:0.286789 #
-0.1888573122723728736627180069263 4:0.106729 5:0.17573901 9:0.040127002 11:0.028309001 44:0.030567 108:0.055767 112:0.023866 123:0.056194998 126:0.023465 132:0.104775 139:0.208656 144:0.13597099 156:0.030422 217:0.04936 244:0.066683002 265:0.169892 280:0.090346001 292:0.054570999 300:0.0528 304:0.098545 346:0.097695999 352:0.039360002 385:0.073501997 387:0.064312004 405:0.191764 427:0.079571001 530:0.058462001 547:0.123113 551:0.13189501 568:0.082162 570:0.083343998 623:0.068852998 640:0.10297 665:0.071915001 731:0.064516 853:0.108418 888:0.085901998 892:0.101293 965:0.109311 1093:0.075326003 1142:0.144152 1148:0.12662099 1169:0.105928 1175:0.150768 1276:0.100654 1345:0.12662099 1349:0.088019997 1596:0.1117 1607:0.10297 1688:0.102625 1900:0.104036 1978:0.117354 1997:0.128591 2041:0.24376 2438:0.107985 2579:0.115512 3459:0.110715 3960:0.150768 4146:0.128591 4167:0.119353 4601:0.12964199 7130:0.176735 11183:0.169935 14344:0.425392 14345:0.202701 #
-0.39862885714194512543073756205558 7:0.179179 9:0.049915999 10:0.067998998 11:0.035215002 53:0.184999 69:0.053043999 70:0.063391 74:0.114217 103:0.10771 115:0.056168001 126:0.049422 131:0.067059003 199:0.088096999 200:0.122946 208:0.053966999 226:0.060346 240:0.050128002 241:0.044358999 244:0.048992001 276:0.10816 325:0.105423 385:0.113329 397:0.077422 434:0.202298 448:0.126643 508:0.083391003 552:0.088884003 657:0.13177 676:0.070692003 783:0.074417002 880:0.150252 903:0.112387 906:0.077577002 981:0.108366 1126:0.073256001 1137:0.125209 1218:0.102748 1288:0.141565 1329:0.120509 1427:0.096666001 1653:0.145983 1686:0.210687 1703:0.217612 1863:0.115881 1967:0.162636 2022:0.213342 2497:0.144435 3059:0.187548 3395:0.162636 4926:0.194938 6496:0.21985 7812:0.21985 7813:0.25215101 7814:0.23177101 7815:0.211391 #
-1.0000000231766961178436758928001 6:0.037312001 9:0.16196001 35:0.017552 49:0.063049003 87:0.033426002 94:0.067833997 98:0.054623999 100:0.091421999 113:0.040633 121:0.053146001 149:0.129705 172:0.140662 194:0.083401002 204:0.081614003 208:0.050246999 231:0.069744997 310:0.174455 322:0.068393998 323:0.086994998 393:0.058143999 405:0.207597 513:0.112515 656:0.076861002 682:0.073334001 700:0.103036 725:0.180483 830:0.20192499 837:0.069352001 899:0.114471 952:0.099688001 1109:0.116216 1122:0.094016001 1133:0.080224998 1217:0.072157003 1225:0.086502999 1299:0.17083199 1340:0.149003 1398:0.118467 1405:0.092918001 1423:0.112832 1432:0.174079 1534:0.121351 1700:0.13117699 1977:0.117696 1987:0.379419 1988:0.392131 2034:0.120495 2219:0.16063701 2326:0.11926 2829:0.162525 3977:0.15721001 4299:0.152761 5729:0.1815 #
1.0000000231766961178436758928001 6:0.067025997 11:0.046275999 35:0.015024 75:0.041508 105:0.026713001 112:0.02366 115:0.075792 123:0.055711001 134:0.061216 143:0.047116999 144:0.108756 210:0.066687003 240:0.039951 308:0.103141 326:0.077396996 350:0.039492998 385:0.102701 405:0.142911 419:0.04377 427:0.078886002 497:0.058460999 552:0.070836999 577:0.103873 579:0.073528998 588:0.078005999 611:0.071388997 677:0.071203999 690:0.079667002 696:0.109762 703:0.30085099 743:0.080067001 760:0.054595001 807:0.040491 858:0.050790001 887:0.078253999 906:0.061826002 981:0.086364001 1112:0.10243 1142:0.068098001 1152:0.089567997 1225:0.074043997 1332:0.111757 1429:0.101072 1432:0.088005997 1674:0.22342999 1681:0.082929 1686:0.099170998 1699:0.1375 1701:0.126487 1703:0.10243 2486:0.123727 2662:0.1375 2777:0.107055 3759:0.144768 4240:0.155359 4640:0.15222999 8135:0.27639499 8656:0.155359 10663:0.17521299 10753:0.163243 14520:0.200956 14521:0.200956 14522:0.184714 14523:0.200956 14524:0.200956 14525:0.200956 14526:0.200956 #
1.0000000231766961178436758928001 9:0.048119001 11:0.042077001 15:0.041625001 22:0.111626 23:0.118034 24:0.094958 36:0.036578 42:0.071537003 44:0.062063001 51:0.079847001 56:0.069109999 76:0.094210997 85:0.068986997 95:0.072485998 99:0.082369998 104:0.105896 105:0.054708 126:0.028139001 156:0.036481 187:0.121467 194:0.14620399 202:0.081504002 211:0.097842999 221:0.045419998 236:0.068815999 240:0.048323002 247:0.076398998 258:0.066761002 272:0.052531 299:0.103832 338:0.135344 352:0.047199 385:0.109249 410:0.077040002 413:0.110105 433:0.067043997 450:0.080026001 458:0.12869 470:0.065439999 508:0.080388002 512:0.104894 580:0.278503 635:0.103418 671:0.071603999 682:0.12855799 741:0.087971002 765:0.098526001 767:0.088940002 874:0.069665998 1026:0.079847001 1149:0.098353997 1152:0.227365 1154:0.117489 1295:0.121858 1368:0.096848004 1421:0.140728 1477:0.101821 2059:0.164489 5886:0.175109 6937:0.197456 7567:0.223427 7568:0.243073 7569:0.411558 7570:0.243073 #
1.0000000231766961178436758928001 5:0.076104999 9:0.107431 12:0.133376 14:0.177672 22:0.070138 24:0.17104501 26:0.079639003 35:0.019332999 41:0.053048 44:0.038996 46:0.25655299 48:0.076605998 51:0.084945999 56:0.073523 61:0.158674 75:0.053413998 82:0.123248 87:0.036818001 90:0.15139 99:0.051755998 145:0.063713998 181:0.076534003 202:0.086708002 272:0.055886 293:0.077932999 414:0.091746002 473:0.25002301 559:0.088795997 569:0.15504999 649:0.186285 671:0.076176003 716:0.092347004 799:0.098834001 906:0.079558998 908:0.19257601 935:0.088904001 1295:0.272064 1347:0.123934 1575:0.176939 3086:0.216794 3491:0.128409 3605:0.17316499 3912:0.16276699 6140:0.16405 6753:0.204568 8154:0.22546899 8155:0.258596 8156:0.258596 #
1.0000000231766961178436758928001 6:0.044812001 9:0.145649 11:0.023257 15:0.048284002 33:0.080522001 41:0.097933002 49:0.075722001 105:0.089438997 112:0.033197001 114:0.055748001 121:0.063827999 126:0.055264998 144:0.152594 162:0.100558 172:0.168934 182:0.106951 192:0.099904001 200:0.13748001 216:0.078033999 221:0.089204997 239:0.025294 240:0.056054 241:0.049603 245:0.130225 261:0.113889 297:0.092724003 323:0.10448 340:0.178847 350:0.055411998 351:0.069986999 352:0.092699997 354:0.068212003 357:0.109797 394:0.101632 443:0.070511997 444:0.098635003 470:0.12852401 572:0.108427 579:0.103168 592:0.080022998 617:0.105081 649:0.119962 709:0.15081 713:0.197735 728:0.124557 765:0.114287 822:0.133652 830:0.143231 858:0.120657 956:0.113106 1040:0.128636 1064:0.13872001 1142:0.095546998 1159:0.237057 1299:0.25430101 1342:0.180813 1348:0.090219997 1432:0.25913501 1468:0.095207997 1654:0.17125 1769:0.132238 2113:0.173599 2825:0.206255 5302:0.20312101 #
1.0000000231766961178436758928001 6:0.07198 9:0.155992 11:0.022064 23:0.044092 26:0.082378 35:0.033860002 36:0.068153001 38:0.064664997 39:0.095273003 44:0.040337998 51:0.087867998 65:0.073841996 87:0.079924002 88:0.069458 99:0.090644002 108:0.073592 115:0.059585001 145:0.13831 147:0.10433 198:0.232961 208:0.057250001 221:0.049982 232:0.038709 239:0.023995999 240:0.053178001 247:0.084073998 248:0.063744001 272:0.097878002 315:0.123558 330:0.109193 354:0.064712003 401:0.098421 443:0.066894002 467:0.164692 470:0.072012998 497:0.096451998 545:0.16571499 654:0.099832997 661:0.103833 686:0.117907 690:0.106044 716:0.095523998 728:0.118166 802:0.141386 807:0.053897999 833:0.119224 869:0.123235 1028:0.129665 1126:0.077711999 1217:0.082213998 1223:0.21296901 1432:0.117144 1623:0.109784 1977:0.22705001 3170:0.28291199 11964:0.56135899 #
-0.56136147856240825593232557366719 1:0.073994003 9:0.122831 23:0.042861 24:0.101579 35:0.019440001 41:0.053341001 45:0.067625001 60:0.104765 76:0.042233001 83:0.067518003 99:0.109214 104:0.053978998 112:0.030614 113:0.045003001 121:0.058862001 126:0.063170001 142:0.078199998 144:0.198331 151:0.093851 223:0.129931 239:0.039494 272:0.056194 350:0.051100999 352:0.050491001 383:0.14239 387:0.082497999 392:0.074927002 405:0.149189 427:0.102072 446:0.17411999 493:0.117369 545:0.227035 546:0.101255 555:0.18998399 679:0.10955 682:0.081221998 693:0.379399 703:0.352911 705:0.26236299 765:0.105396 811:0.080401003 1131:0.101417 1490:0.116422 2060:0.23006999 3076:0.29676601 4271:0.226712 5525:0.19697399 #
-0.6284982357603142721913513923937 9:0.083328001 11:0.043035001 13:0.099559002 14:0.13781001 18:0.060582999 22:0.141509 24:0.097121 26:0.076563999 30:0.09059 31:0.057208002 39:0.088549003 68:0.115402 69:0.052299 76:0.040378999 85:0.184119 87:0.084466003 89:0.072626002 94:0.121624 95:0.074137002 98:0.057844002 99:0.084246002 105:0.069353998 113:0.043028001 121:0.095288999 126:0.02878 144:0.079465002 168:0.38691199 188:0.14316 205:0.054009002 239:0.022302 300:0.064759001 351:0.06171 393:0.061572 403:0.112348 422:0.104141 433:0.068571001 443:0.105267 458:0.077738002 497:0.042716 508:0.082220003 575:0.089253001 656:0.13781001 671:0.204454 799:0.29260099 885:0.084446996 906:0.076486997 908:0.109347 1295:0.124634 1340:0.093192004 1342:0.094160996 1501:0.101668 1844:0.188329 2274:0.136998 2442:0.16325399 2807:0.156482 3673:0.179098 8281:0.36701101 10216:0.228517 #
-0.37416389631416185901358062437794 10:0.040440999 11:0.020943999 12:0.077347003 19:0.135122 22:0.116602 35:0.018983001 36:0.038208 49:0.068189003 65:0.118677 87:0.094333 99:0.086042002 139:0.124544 142:0.0451 144:0.211779 179:0.085940003 234:0.099673003 240:0.050478 241:0.044668 341:0.081246004 351:0.063024998 352:0.083477996 353:0.085839003 370:0.047750998 385:0.054379001 387:0.080559 390:0.086764999 614:0.197089 616:0.096602 649:0.108029 651:0.11421 656:0.083127998 679:0.106975 705:0.155378 752:0.27968699 799:0.097043 840:0.229004 874:0.072772004 881:0.11584 885:0.086246997 894:0.113234 908:0.111678 1110:0.101508 1146:0.081419997 1147:0.20215601 1295:0.12729099 1491:0.12135 1837:0.17577501 1913:0.121015 2306:0.113427 2731:0.13580801 3633:0.162394 3636:0.453345 4576:0.16107801 4577:0.25391001 #
-1.0000000231766961178436758928001 9:0.083460003 15:0.058249 21:0.082602002 27:0.082753003 35:0.015019 51:0.065991998 59:0.048356 72:0.108337 85:0.096538 87:0.048429001 114:0.039721001 115:0.044750001 126:0.023256 144:0.064213999 145:0.049497999 164:0.047368001 179:0.067997001 238:0.113395 241:0.035342 271:0.061623 313:0.111762 321:0.071932003 337:0.067757003 341:0.064282998 385:0.043024998 410:0.063671999 466:0.102752 568:0.081430003 579:0.124459 671:0.100199 685:0.081863001 686:0.088552997 697:0.078106999 740:0.077738002 765:0.170891 835:0.087980002 914:0.068402998 953:0.087791003 979:0.138116 1136:0.107891 1268:0.065050997 1295:0.170524 1317:0.216847 1348:0.064282998 1462:0.13745899 1518:0.090155996 1601:0.082753003 1617:0.084969997 1662:0.095748998 1763:0.32506901 1945:0.125493 2144:0.154442 2148:0.17645501 2184:0.132037 2282:0.104985 3832:0.22198901 4094:0.14081199 4211:0.14472499 4478:0.117611 4578:0.14472499 5234:0.184659 5681:0.27631301 5907:0.158924 6316:0.29657301 12096:0.20089599 #
-1.0000000231766961178436758928001 2:0.085703 9:0.079585999 12:0.072332002 23:0.039140001 44:0.075144999 48:0.119098 49:0.063767999 57:0.16382401 75:0.083042003 81:0.075654998 104:0.049291998 121:0.053752001 126:0.027488001 131:0.063147999 142:0.042176001 169:0.062194001 180:0.074247003 198:0.079249002 200:0.115777 241:0.041772 244:0.046135001 276:0.039032999 292:0.13415401 328:0.155325 340:0.071768001 350:0.046665002 352:0.046107002 370:0.044654999 385:0.050852999 386:0.116469 392:0.068421997 433:0.065491997 443:0.059381001 498:0.087737001 508:0.078528002 686:0.104665 705:0.085818999 758:0.27627799 759:0.081634 771:0.085245997 812:0.195931 858:0.060012002 903:0.105833 908:0.219172 926:0.104665 935:0.081634 953:0.103764 1110:0.160725 1149:0.096077003 1618:0.360838 1740:0.111656 2062:0.111073 3421:0.142369 5008:0.176612 6198:0.31803799 6554:0.36954001 6909:0.23744699 #
1.0000000231766961178436758928001 6:0.044932999 9:0.156247 31:0.065057002 35:0.021136999 36:0.072033003 48:0.083752997 49:0.128555 50:0.113992 65:0.078046001 69:0.059475001 75:0.058396999 76:0.045919999 87:0.068154 91:0.070703 98:0.111377 112:0.033287 121:0.064001001 156:0.042431001 171:0.110625 194:0.295874 197:0.076490998 236:0.099209003 276:0.046475001 327:0.064967997 422:0.118429 429:0.109746 448:0.067662999 668:0.078312002 710:0.14829899 752:0.28479299 771:0.101499 837:0.083517 906:0.207564 1296:0.10302 1340:0.222408 1344:0.14128 1405:0.111896 1423:0.135877 1433:0.118656 1800:0.187436 2013:0.20367099 3444:0.223653 3844:0.23702 4429:0.229664 4845:0.229664 7883:0.28272101 7884:0.25987101 #
1.0000000231766961178436758928001 9:0.054458998 12:0.083802 33:0.046401002 75:0.033560999 76:0.026389999 107:0.060378999 144:0.087931998 146:0.049888 164:0.038309999 172:0.057496 178:0.062971003 197:0.043958999 208:0.034775 214:0.041253 218:0.077652 232:0.023512 238:0.054166 239:0.014575 241:0.028584 293:0.048966002 297:0.053431999 326:0.062578 399:0.194848 420:0.058564998 452:0.037542999 459:0.062578 496:0.079938002 540:0.100752 588:0.063069999 686:0.071618997 705:0.163941 740:0.062872 758:0.13413601 759:0.055860002 765:0.111508 840:0.069828004 880:0.163927 920:0.080681004 1032:0.15632001 1038:0.097419001 1112:0.082818002 1122:0.065066002 1142:0.055059001 1154:0.164812 1299:0.205706 1334:0.073252998 1405:0.10888 1422:0.058803 1491:0.077652 1932:0.077437997 1987:0.187062 1988:0.19332901 2304:0.069404997 2545:0.19282199 2555:0.111173 2903:0.111173 3062:0.092589997 3871:0.1154 4049:0.141665 5250:0.12561201 6047:0.12561201 6489:0.118855 12637:0.14934599 13116:0.35638499 13117:0.162479 13118:0.162479 13119:0.162479 13120:0.162479 13121:0.162479 13122:0.162479 13123:0.162479 13124:0.162479 13125:0.162479 #
1.0000000231766961178436758928001 35:0.025803 36:0.051936001 38:0.049279001 63:0.068447001 75:0.042105 114:0.040304001 216:0.095519997 222:0.069995001 226:0.048785001 231:0.102533 232:0.082351997 239:0.018285999 340:0.061611 390:0.117939 392:0.058738999 444:0.071309 447:0.097967997 452:0.047100998 497:0.035023998 541:0.14541 770:0.079379 803:0.074897997 856:0.086217001 938:0.123806 939:0.157591 1117:0.14111599 1268:0.066004999 1297:0.105746 1755:0.131478 1997:0.129316 2062:0.095353998 2942:0.149113 3529:0.241347 8710:0.300924 12125:0.54731101 12126:0.203844 12127:0.203844 12128:0.44711599 #
1.0000000231766961178436758928001 9:0.093826003 11:0.018629 18:0.055036001 27:0.093029998 35:0.016884999 38:0.054598 41:0.046330001 45:0.058736999 59:0.16740499 105:0.07164 109:0.095486 112:0.045022 121:0.086563997 124:0.064042002 206:0.063928999 212:0.117178 239:0.020260001 241:0.039731 243:0.073210001 245:0.104309 248:0.053819999 258:0.105026 290:0.053326 321:0.080866002 324:0.071656004 348:0.107055 365:0.109798 460:0.094604999 479:0.111799 486:0.130052 493:0.060208999 508:0.074690998 523:0.123016 544:0.122488 554:0.103287 579:0.082636997 614:0.103539 631:0.079510003 660:0.120798 679:0.095151998 807:0.045506999 824:0.187004 1138:0.120798 1150:0.105103 1169:0.19983201 1198:0.092692003 1342:0.085538998 1435:0.096864 1561:0.092193998 1574:0.1256 1599:0.112147 1623:0.092692003 1950:0.134578 1972:0.122825 2260:0.211679 2271:0.139052 2639:0.12936801 5814:0.18346301 6228:0.171086 7712:0.16040801 9661:0.196916 12144:0.473966 12145:0.22584701 #
1.0000000231766961178436758928001 9:0.094520003 35:0.012786 44:0.025791001 75:0.059813999 78:0.20861199 114:0.070967004 120:0.226711 178:0.158176 205:0.037154999 244:0.069737002 341:0.114849 350:0.070538998 449:0.086303003 450:0.095337003 582:0.174734 633:0.066495001 656:0.055994 670:0.071103998 731:0.054435998 753:0.16375101 817:0.068962999 833:0.159978 863:0.12224 952:0.072623 1134:0.073652998 1299:0.124451 1405:0.142057 1755:0.26324099 1888:0.082431003 2299:0.103877 2304:0.15332 3376:0.114528 9819:0.47677201 9825:0.149121 10796:0.50383902 10797:0.17103 #
-0.53932482125665059946584278804949 1:0.053091001 9:0.103107 23:0.030753 35:0.013948 38:0.107628 41:0.038272999 55:0.117052 63:0.037 70:0.079415001 99:0.03734 105:0.041990001 112:0.037191998 121:0.042234 143:0.043742999 148:0.086383998 156:0.028000001 200:0.090967998 216:0.051633999 232:0.064425997 236:0.065467998 239:0.016736999 313:0.049456999 314:0.083534002 393:0.046206001 551:0.121397 552:0.111351 563:0.118356 582:0.26864001 611:0.112217 670:0.077564001 677:0.066105001 688:0.094144002 731:0.059381001 803:0.068549998 807:0.037592001 835:0.081704997 874:0.053470999 914:0.063524 937:0.062629998 951:0.072535999 1073:0.101903 1092:0.15588801 1448:0.093835004 1469:0.081355996 1628:0.126251 1879:0.1894 1888:0.089919999 1928:0.123689 2038:0.096436001 2930:0.14133 3057:0.146631 3376:0.124932 3436:0.147589 3494:0.113314 3618:0.118356 3703:0.121397 4142:0.118356 4566:0.25636801 4630:0.119323 5719:0.151555 7367:0.156409 9819:0.27542099 9820:0.162668 9821:0.18656801 9822:0.18656801 9823:0.162668 9824:0.18656801 9825:0.162668 9826:0.18656801 9827:0.18656801 #
-0.82419238434591168829257412653533 9:0.084844001 11:0.028522 14:0.113207 16:0.067086004 18:0.084264003 30:0.17758299 31:0.046994999 32:0.065985002 33:0.058324002 35:0.015268 36:0.030732 37:0.077128001 45:0.053114001 46:0.163468 48:0.102435 49:0.092863999 62:0.055027001 69:0.072741002 75:0.042183999 89:0.059659999 94:0.059009001 98:0.047518 113:0.035346001 121:0.046232 126:0.023642 137:0.041609999 138:0.055950001 206:0.057808999 286:0.090620004 297:0.067162 352:0.067143999 385:0.043738 415:0.072082996 426:0.065559 448:0.048877001 543:0.090419002 568:0.082781002 582:0.25861701 583:0.077120997 833:0.091026999 838:0.079150997 880:0.121695 1110:0.081646003 1126:0.059333 1133:0.069788001 1211:0.087591998 1299:0.08777 1405:0.08083 1623:0.083819002 1763:0.21442001 1801:0.11522 1888:0.098430999 2042:0.108798 3376:0.23155101 3669:0.136758 4564:0.14138199 5846:0.202435 5949:0.187721 8581:0.289891 9819:0.424916 9825:0.30149099 11716:0.204227 #
-0.67554216715604797904859424306778 9:0.099113002 10:0.037999 38:0.16990399 55:0.088404 63:0.047313999 121:0.054007001 138:0.065360002 164:0.118051 178:0.092462003 217:0.058095001 232:0.058453999 236:0.095192999 239:0.021402 290:0.056331001 348:0.113087 352:0.078436002 370:0.044867001 442:0.093652003 450:0.078544997 463:0.122879 473:0.109913 484:0.15231 546:0.092903003 661:0.19434901 719:0.079170004 803:0.183961 807:0.048071001 825:0.072674997 838:0.092462003 897:0.124674 914:0.17047299 928:0.143125 937:0.080087997 941:0.106576 951:0.194657 952:0.101303 967:0.232815 1127:0.084097996 1209:0.088912003 1299:0.10253 1709:0.15016399 1756:0.21995001 2304:0.10191 3057:0.28897801 4339:0.34257501 6313:0.219291 12624:0.238573 12625:0.238573 12626:0.238573 #
-0.21028616361732432871178843925009 23:0.102777 27:0.087182999 35:0.026791001 50:0.050402001 60:0.050365999 63:0.041974999 64:0.075386003 65:0.058428001 107:0.078653 115:0.079825997 122:0.042180002 127:0.073946998 139:0.103817 147:0.082551003 182:0.080283001 209:0.073946998 210:0.070235997 219:0.049383 221:0.039549001 241:0.037234001 256:0.053862002 287:0.088660002 327:0.048636999 399:0.097269997 427:0.083085001 474:0.063971996 499:0.093092002 530:0.12810799 570:0.087025002 660:0.113207 671:0.062348001 677:0.074993998 723:0.046434 739:0.083769001 791:0.0766 807:0.072208002 843:0.102897 1142:0.071722999 1217:0.065052003 1303:0.120004 1427:0.081141002 1433:0.088829003 1681:0.087343 1682:0.115605 1868:0.117164 1930:0.20747299 1977:0.106107 1992:0.152474 2088:0.13898601 2184:0.082158998 2555:0.14482 2595:0.132213 2731:0.113207 2788:0.122537 2903:0.14482 2920:0.148351 3063:0.14032 3152:0.39985499 3153:0.16033299 4190:0.14173099 6251:0.14482 6277:0.18454 7712:0.150327 8206:0.44417799 #
-0.77826733281651450102600620084559 1:0.078612998 9:0.194957 11:0.038580999 35:0.020653 37:0.061618999 50:0.065784998 51:0.090746 59:0.066496 81:0.088019997 87:0.109806 108:0.076003 143:0.064772002 145:0.068065003 221:0.087399997 226:0.066114999 241:0.048599001 258:0.181059 261:0.111585 276:0.1185 313:0.073232003 341:0.088395998 399:0.21495999 457:0.207629 473:0.12727299 474:0.083498001 508:0.154689 583:0.10432 600:0.13024899 614:0.12664799 716:0.098654002 765:0.111976 777:0.094860002 894:0.072763003 907:0.133527 974:0.108621 1004:0.077652 1065:0.135915 1312:0.120723 1432:0.120982 1490:0.12369 1731:0.110441 2104:0.16172799 2260:0.32093 3062:0.26654699 6994:0.53289402 #
1.0000000231766961178436758928001 3:0.12779 48:0.118562 57:0.163086 75:0.116511 76:0.080571003 89:0.116916 94:0.11564 103:0.100972 113:0.069268003 121:0.053509999 126:0.027364001 143:0.055422001 144:0.15856101 169:0.061914001 197:0.063952997 204:0.082172997 221:0.044169001 286:0.27369201 323:0.148304 352:0.045899998 370:0.044454001 414:0.083862998 465:0.081266001 492:0.085897997 650:0.080006003 692:0.134703 741:0.085547999 758:0.39162701 759:0.25025401 770:0.092047997 812:0.273799 835:0.103519 840:0.101587 874:0.067746997 885:0.080292001 1236:0.113605 1397:0.088349 1481:0.13025799 1544:0.13760699 2011:0.13760699 2034:0.121321 2888:0.132076 3404:0.262813 4601:0.151181 6554:0.217274 6555:0.31660599 #
1.0000000231766961178436758928001 9:0.090021998 10:0.030353 24:0.074446 41:0.039092999 48:0.056453001 59:0.045869999 69:0.040088002 99:0.038139999 104:0.039560001 126:0.022061 137:0.065739997 199:0.066579998 205:0.041398998 221:0.060291 233:0.077931002 239:0.017095 241:0.033525001 340:0.057599001 350:0.037450999 354:0.046101999 448:0.07722 470:0.051304001 474:0.057599001 533:0.078071997 545:0.069728002 575:0.068415001 579:0.069728002 582:0.114989 652:0.101928 671:0.056136001 676:0.053426001 682:0.142049 716:0.068053998 740:0.073740996 765:0.162104 780:0.049366999 823:0.28484499 1020:0.092110001 1133:0.065119997 1146:0.061108001 1317:0.194934 1321:0.117572 1348:0.060977001 1669:0.071226999 2067:0.107513 2304:0.081403002 2453:0.38124001 2668:0.119948 2807:0.119948 3376:0.12761 3466:0.123999 3482:0.130392 3832:0.10034 3833:0.131925 4478:0.111564 4602:0.125139 5156:0.249446 5694:0.13535 6316:0.28132501 6317:0.175165 6318:0.25524601 6319:0.15480401 6320:0.249446 6321:0.166155 #
1.0000000231766961178436758928001 6:0.055080999 30:0.074585997 31:0.047102001 35:0.015303 38:0.083783001 44:0.030866999 57:0.141223 76:0.033245999 89:0.059796002 112:0.0241 126:0.023695 144:0.110777 189:0.114919 222:0.070285998 286:0.15378 313:0.054260999 354:0.049518999 374:0.101014 466:0.17726 597:0.122458 707:0.13671499 758:0.168984 759:0.070372 780:0.053025998 812:0.237094 874:0.058665 897:0.106968 906:0.13215999 908:0.090029001 1130:0.164726 1147:0.096252002 1150:0.29334 1397:0.076504998 1438:0.132025 1494:0.107777 1544:0.35103399 1731:0.081831001 1874:0.16627701 2182:0.223537 3404:0.28208101 6196:0.42588001 6197:0.18814699 6198:0.161925 #
1.0000000231766961178436758928001 8:0.064861998 11:0.034556001 43:0.15428901 70:0.062205002 73:0.105908 87:0.035229001 98:0.097475998 103:0.105695 112:0.049325 113:0.042824 114:0.048921999 121:0.094838001 144:0.18873 184:0.089915 197:0.066944003 206:0.118587 208:0.052958 218:0.118255 232:0.035806 236:0.041373 239:0.022197001 241:0.043529 244:0.048075002 300:0.064452 312:0.082581997 452:0.057172999 489:0.22983301 527:0.130785 544:0.079258002 595:0.098751999 627:0.092081003 631:0.087108999 637:0.093714997 656:0.081006996 661:0.096047997 705:0.089428 758:0.204272 759:0.085066997 881:0.112885 1097:0.14569201 1151:0.23864099 1298:0.106339 1481:0.13635001 1728:0.17449699 1740:0.324826 2016:0.15129399 2080:0.115744 2306:0.110534 4588:0.20743699 8151:0.20099901 9072:0.24743401 9073:0.24743401 9074:0.24743401 9075:0.24743401 #
1.0000000231766961178436758928001 9:0.106134 11:0.021073001 23:0.071300998 35:0.019099999 36:0.038444001 37:0.056984 41:0.052407999 76:0.041494001 85:0.072507001 86:0.084682003 115:0.056908 134:0.077822998 172:0.15306699 211:0.102835 276:0.041995998 290:0.060322002 351:0.063413002 470:0.068778999 493:0.068108 559:0.087724 671:0.17958499 682:0.079801999 716:0.091233 830:0.33864799 837:0.075467996 902:0.15317801 1149:0.103372 1432:0.111882 1591:0.16207001 1763:0.158418 1896:0.120451 1994:0.111405 2073:0.133507 2517:0.278997 3173:0.28677201 3734:0.16478001 4578:0.18404301 5152:0.214178 5153:0.174804 5154:0.397596 5155:0.214178 5156:0.19750699 5157:0.202099 #
-1.0000000231766961178436758928001 6:0.066082001 37:0.092742004 48:0.072747998 75:0.085882999 87:0.059199002 100:0.228196 104:0.050979 107:0.154512 121:0.055590998 123:0.11527 156:0.077345997 170:0.084017001 217:0.059799001 239:0.037299 299:0.17761 327:0.056430999 328:0.094875999 352:0.080737002 354:0.059409 414:0.087125003 428:0.095025003 450:0.136889 559:0.084324002 669:0.11904 682:0.200166 686:0.108246 758:0.33428001 759:0.084426999 783:0.072475001 1142:0.140898 1146:0.078745998 1159:0.31819901 1276:0.121942 1397:0.091784999 1449:0.351872 1468:0.082921997 1515:0.089606002 1517:0.205823 1938:0.151196 2401:0.128813 3397:0.13594 5070:0.189851 5880:0.214113 8019:0.199486 13439:0.245571 #
