SVM-light Version V6.02
0 # kernel type
3 # kernel parameter -d 
1 # kernel parameter -g 
1 # kernel parameter -s 
1 # kernel parameter -r 
empty# kernel parameter -u 
14598 # highest feature index 
2865 # number of training documents 
747 # number of support vectors plus 1 
1.0911668 # threshold b, each following line is a SV (starting with alpha*y)
-0.1956563905128827773882704832431 2:0.13513701 9:0.193405 15:0.064116001 30:0.136429 31:0.086154997 41:0.076806001 44:0.056460999 69:0.078762002 97:0.135686 104:0.077724002 112:0.044082001 123:0.103798 126:0.043342002 156:0.117924 200:0.47637099 219:0.087357 257:0.122035 280:0.166878 282:0.102746 297:0.123127 313:0.099251002 327:0.086037003 494:0.131475 530:0.107985 759:0.12872 785:0.14465199 906:0.11519 1142:0.26626101 1198:0.15366501 1583:0.158049 1770:0.25071701 1902:0.150969 3173:0.420275 3822:0.25336301 #
-0.1688370544540118978193987686609 11:0.032724999 35:0.017518001 70:0.058908001 76:0.079869002 91:0.058598999 93:0.17667 94:0.067704 98:0.054519001 113:0.040555 119:0.18373799 126:0.027124999 137:0.047741 143:0.054939002 181:0.145537 208:0.050151002 221:0.043784 226:0.056079 229:0.082598001 232:0.033909 239:0.021020001 291:0.097415999 293:0.070616998 308:0.20362499 352:0.045499999 385:0.084968001 392:0.067520998 428:0.090671003 492:0.14417 530:0.114426 544:0.075057 595:0.093517996 650:0.079309002 668:0.064905003 701:0.084122002 764:0.093203999 800:0.247325 811:0.072453 855:0.075873002 1008:0.220679 1057:0.16081101 1069:0.089148998 1203:0.119031 1358:0.119436 1662:0.111678 1784:0.126892 1824:0.207178 1852:0.177504 2199:0.117852 2430:0.109896 2765:0.190345 3150:0.47914901 8628:0.190345 10960:0.215381 12010:0.234319 #
-0.019899638970854713337921282345633 9:0.092275001 12:0.054416001 16:0.058679 35:0.013355 36:0.026881 38:0.043184001 42:0.052572001 44:0.026938001 59:0.072802 63:0.035427 69:0.037578002 76:0.029014001 139:0.087621003 156:0.02681 221:0.033379 232:0.02585 241:0.074991003 281:0.125742 300:0.046530999 352:0.034687001 368:0.090744004 389:0.057342999 390:0.061042 393:0.044241 419:0.038908001 465:0.061414 595:0.071294002 656:0.058483001 807:0.110841 952:0.075851999 953:0.132172 1004:0.050212 1019:0.084448002 1108:0.064649999 1405:0.119706 1432:0.18668 1638:0.15986601 1714:0.344625 1736:0.068481997 1797:0.080536999 1896:0.084221996 1926:0.230745 2710:0.112437 3080:0.15575001 4400:0.13810199 4946:0.116235 4955:0.141313 6722:0.30452999 8250:0.34458399 8251:0.27800801 8252:0.30245399 8253:0.178634 8254:0.178634 8255:0.178634 8256:0.15575001 #
-0.086487186378236990957901753063197 9:0.040615 11:0.016922999 26:0.106982 35:0.015339 36:0.030874001 38:0.049598999 50:0.048858002 70:0.051580001 71:0.085780002 87:0.029211 93:0.059282001 122:0.040888 136:0.208304 137:0.070776999 149:0.066946998 208:0.043912001 221:0.038337 222:0.119283 226:0.049102001 241:0.061112002 248:0.048891999 277:0.162304 278:0.230223 279:0.180866 280:0.091445997 281:0.20354401 282:0.13435601 283:0.11158 284:0.082162 285:0.091036998 286:0.091036998 287:0.085943997 288:0.41045299 289:0.13122 290:0.048443999 291:0.14442 292:0.055234998 293:0.061832 294:0.234641 295:0.10188 296:0.14038301 297:0.067470998 298:0.268592 299:0.087641001 300:0.053443 301:0.120806 302:0.152604 303:0.170908 304:0.099744998 305:0.14780299 306:0.098604999 307:0.11306 308:0.105303 309:0.124612 310:0.090044998 311:0.074052997 312:0.068475999 313:0.092087001 314:0.091862001 315:0.055973001 316:0.075384997 317:0.084054001 318:0.108029 319:0.14038301 320:0.19598299 321:0.073462002 #
-0.11287485873059718843869347892905 9:0.084829003 11:0.020876 12:0.077096 22:0.068644002 23:0.041717999 24:0.098871 32:0.081772 33:0.072277002 35:0.018921001 44:0.038166001 48:0.178911 56:0.071957 57:0.246099 61:0.09172 63:0.050193001 69:0.111732 70:0.063626997 76:0.041106999 80:0.113578 87:0.061011001 94:0.073127002 99:0.050652999 105:0.056961998 107:0.094051003 112:0.029797999 121:0.097005002 139:0.124141 164:0.059673999 199:0.088423997 212:0.16275799 232:0.036625002 244:0.049174 245:0.116891 284:0.101352 292:0.068135999 300:0.111621 352:0.083209001 357:0.098554999 385:0.091773003 392:0.072929002 420:0.191448 463:0.130355 517:0.125284 519:0.114641 560:0.080895998 595:0.101009 631:0.089100003 679:0.106629 682:0.18865301 758:0.25897601 759:0.147322 803:0.092992 807:0.050996002 812:0.099512003 903:0.112805 906:0.131837 910:0.080214001 928:0.089675002 1057:0.102586 1150:0.117781 1198:0.103873 1741:0.111075 2596:0.158096 3768:0.18232401 3822:0.171266 6198:0.200212 8019:0.20559201 9053:0.25308901 9054:0.25308901 #
1.0000000231766961178436758928001 8:0.070423998 11:0.037519999 35:0.020085 41:0.055112001 43:0.070201002 44:0.068594001 59:0.064666003 63:0.053279001 76:0.043634001 91:0.067185 105:0.035712 113:0.046496999 114:0.053118002 115:0.059843998 126:0.052657001 155:0.078120999 169:0.070367999 208:0.13721 218:0.128396 224:0.110662 226:0.064296 232:0.081588 239:0.040805001 241:0.047262002 243:0.087085001 246:0.107402 293:0.080963999 414:0.095314004 431:0.32789499 432:0.15470199 433:0.074098997 434:0.077205002 435:0.108515 436:0.10529 437:0.18179899 438:0.17043 439:0.14610501 440:0.147448 441:0.128042 442:0.29442 443:0.113754 444:0.093979999 445:0.094821997 446:0.17990001 447:0.129116 448:0.108862 449:0.135564 450:0.088448003 451:0.25662401 452:0.062075999 453:0.076996997 454:0.112322 455:0.20769501 456:0.20507701 457:0.084615 458:0.084004998 459:0.103471 460:0.112536 461:0.19081099 462:0.16108 463:0.138372 464:0.085236996 465:0.092362002 466:0.137408 467:0.165407 #
1.0000000231766961178436758928001 5:0.077629 11:0.021756999 23:0.073616996 31:0.060697999 36:0.103576 63:0.052312002 112:0.031056 113:0.045651998 114:0.052152999 126:0.030534999 131:0.070150003 156:0.083079003 183:0.097465001 199:0.092157997 219:0.146862 223:0.077846996 232:0.064629003 248:0.062858 276:0.043359999 284:0.105632 313:0.069923997 322:0.076843001 395:0.171744 397:0.080991 433:0.072754003 443:0.065964997 444:0.156234 491:0.091697 510:0.20750301 538:0.12537301 592:0.074863002 624:0.104054 730:0.096381001 760:0.150391 778:0.19599999 825:0.080352001 837:0.077919997 857:0.13836101 858:0.066666 882:0.25254801 883:0.208665 884:0.36279601 885:0.188031 886:0.43323699 887:0.102716 888:0.111784 889:0.115024 890:0.17013399 891:0.19619399 892:0.13181201 893:0.16356499 894:0.069476001 #
1.0000000231766961178436758928001 6:0.027736001 8:0.045747999 15:0.029885 35:0.022090999 44:0.026317 70:0.043873999 91:0.043644 98:0.040605001 108:0.048013002 109:0.10399 112:0.020547001 126:0.034205999 164:0.041149002 171:0.143306 174:0.072150998 186:0.074251004 210:0.057913002 217:0.042497002 236:0.029181 239:0.015655 241:0.030701 328:0.067424998 330:0.071240999 351:0.073344998 370:0.032821 431:0.213002 523:0.117822 540:0.108217 592:0.049529999 668:0.134955 713:0.072284997 752:0.073669001 778:0.110843 791:0.063160002 874:0.050018001 991:0.053746 1138:0.093344003 1225:0.064303003 1226:0.177168 1227:0.12572201 1228:0.174518 1229:0.27241099 1230:0.160413 1231:0.152162 1232:0.113556 1233:0.29548499 1234:0.068067998 1235:0.122323 1236:0.083874002 1237:0.090207003 1238:0.132202 1239:0.132202 1240:0.085092999 1241:0.29548499 1242:0.174518 1243:0.174518 1244:0.174518 1245:0.160413 1246:0.271602 1247:0.174518 1248:0.152162 1249:0.174518 1250:0.105995 1251:0.174518 #
1.0000000231766961178436758928001 3:0.078057997 9:0.126283 50:0.058216002 63:0.048482999 67:0.128722 88:0.063479997 104:0.050749999 112:0.048734002 114:0.048335999 126:0.0283 142:0.073522002 181:0.151841 187:0.122165 205:0.053109001 232:0.059898999 236:0.040876999 239:0.021931 241:0.043007001 351:0.060681 352:0.080375001 383:0.117734 384:0.111 387:0.077564001 427:0.095967002 436:0.162223 444:0.085519999 447:0.117493 453:0.070065998 491:0.084986001 540:0.151593 544:0.078309 559:0.083944999 650:0.082745001 670:0.101635 701:0.087765999 721:0.092730999 723:0.053633001 778:0.065067999 780:0.063331001 858:0.061787002 928:0.086621001 945:0.097404003 1218:0.099618003 1274:0.114357 1298:0.220489 1404:0.16053399 1405:0.203054 1406:0.15635499 1407:0.178831 1408:0.150517 1409:0.22471 1410:0.22471 1411:0.26473299 1412:0.276669 1413:0.224152 1414:0.22471 1415:0.12461 1416:0.15508801 1417:0.146579 1418:0.1192 1419:0.188999 #
0.3612583667598598391457187517517 8:0.070223004 9:0.089787997 10:0.042668 11:0.046372 23:0.044156998 50:0.063793004 62:0.072178997 81:0.14451601 105:0.060293 112:0.031539999 113:0.078501001 114:0.089680001 126:0.065080002 134:0.081603996 142:0.080564998 156:0.040205002 164:0.13255601 219:0.062503003 232:0.038766 239:0.024031 383:0.203025 419:0.058348 426:0.085993998 431:0.231988 452:0.061898999 453:0.076778002 484:0.17102399 708:0.132201 730:0.097883001 778:0.170145 787:0.152977 810:0.12435 855:0.226348 856:0.113304 896:0.090457 931:0.119671 1209:0.099835999 1212:0.145688 1268:0.086741999 1374:0.106378 1450:0.242117 1693:0.113083 1736:0.102699 1737:0.25847301 1738:0.246235 1739:0.18329599 1740:0.213284 1741:0.11757 1742:0.23356999 1743:0.19925299 1744:0.211918 1745:0.267887 #
-0.92926886031810973509692530569737 9:0.038594 14:0.063827999 15:0.033386 23:0.032136001 33:0.055677 42:0.057376999 45:0.050703999 104:0.068526 114:0.038547002 126:0.038213 138:0.053410999 156:0.049541 169:0.051066 181:0.097695 236:0.091008998 239:0.017488999 282:0.053500999 321:0.069806002 337:0.065753996 350:0.038314998 397:0.059861001 420:0.070272997 491:0.176854 650:0.065987997 656:0.063827999 701:0.14688601 708:0.096212 778:0.123827 828:0.074972004 885:0.066223003 886:0.25752699 887:0.075919002 906:0.059981 938:0.282563 979:0.22100399 1014:0.083113 1032:0.213283 1108:0.119465 1118:0.116895 1119:0.12773199 1298:0.083787002 1348:0.062383 1374:0.077418998 1412:0.17801 1501:0.079728 1618:0.092665002 1693:0.082298003 1863:0.151703 1902:0.078612 2037:0.183575 2630:0.13055199 3742:0.228517 3797:0.140448 10974:0.30341601 12786:0.46523201 #
-0.94870077060223934051208516393672 6:0.038353 10:0.080660999 35:0.018041 43:0.063056998 50:0.057464998 63:0.100435 65:0.066615999 75:0.049844999 114:0.047713 126:0.027935 142:0.042863 156:0.061321001 174:0.099766999 197:0.065288998 205:0.088761002 219:0.056304 221:0.045090999 232:0.034921002 236:0.068319 248:0.057505999 267:0.067129999 276:0.039669 322:0.070300996 383:0.132146 392:0.069536999 419:0.052561 424:0.119088 444:0.142931 465:0.082962997 484:0.090990998 492:0.087692 497:0.041462999 592:0.068489 631:0.084955998 650:0.081678003 723:0.052942 728:0.106603 741:0.087334998 778:0.20535401 891:0.179489 935:0.082962997 937:0.13716 962:0.097814001 1033:0.095037997 1114:0.13067999 1214:0.26830301 1218:0.098333001 1236:0.115978 1427:0.092511997 1450:0.091398001 1477:0.212138 1694:0.112591 1715:0.157021 1724:0.103082 1731:0.096473999 2062:0.112882 2121:0.130134 2750:0.153088 5291:0.61924499 #
-1.0000000231766961178436758928001 9:0.081069998 33:0.069075003 35:0.018083001 41:0.084011003 44:0.036474999 60:0.057557002 68:0.112276 115:0.053879 121:0.054754 137:0.049279999 142:0.042962998 160:0.090012997 198:0.080727004 202:0.081101999 205:0.052545 232:0.059262998 236:0.068476997 239:0.021698 256:0.061553001 276:0.039760001 293:0.072894 350:0.047534999 383:0.055505 392:0.069697998 426:0.077643998 427:0.094949 434:0.069509 436:0.198937 443:0.060488001 452:0.055888999 506:0.120485 510:0.090667002 657:0.26526299 708:0.250498 778:0.135104 787:0.13812201 806:0.203357 858:0.061131001 885:0.139107 979:0.098213002 986:0.105474 1014:0.103114 1344:0.120868 1397:0.090402998 1407:0.17693301 1468:0.081672996 1540:0.089120999 1693:0.214274 1695:0.16744401 1768:0.30871701 1788:0.103949 2560:0.15109099 2691:0.112276 2949:0.179905 3397:0.133893 3420:0.17693301 3493:0.15109099 4553:0.17693301 4711:0.16744401 5075:0.196483 6271:0.24187499 #
-0.39058102405326017292352958065749 18:0.068796001 36:0.042482998 49:0.12837 76:0.045853 82:0.134553 88:0.073307 91:0.070601001 95:0.084187999 98:0.065686002 99:0.056503002 104:0.058605999 108:0.07767 109:0.070495002 111:0.12583099 114:0.117142 127:0.098635003 132:0.145926 137:0.057519998 138:0.130953 163:0.118942 164:0.112705 172:0.099900998 186:0.120114 201:0.113638 208:0.060423002 210:0.24446499 217:0.144272 231:0.083869003 232:0.040854 236:0.047205999 239:0.025326001 247:0.088733003 249:0.124217 279:0.146988 303:0.138896 322:0.13925201 350:0.093939997 351:0.118648 464:0.089570999 538:0.22719499 550:0.114633 557:0.17146599 597:0.080480002 668:0.24081101 676:0.079148002 731:0.089855 759:0.203688 766:0.172621 778:0.127225 789:0.118942 797:0.158804 799:0.107899 995:0.11715 1005:0.16527601 1488:0.156279 1906:0.13006499 3978:0.18904801 6021:0.229333 9692:0.282314 #
-0.10056297533472180472102763815201 11:0.023866 36:0.043540001 88:0.075131997 103:0.123597 109:0.222491 112:0.057679001 113:0.050078001 114:0.057209 115:0.064452 126:0.033495001 142:0.051394001 156:0.113314 162:0.103192 170:0.276364 205:0.062857002 208:0.061926998 219:0.067509003 232:0.041871 236:0.081915997 239:0.025955999 249:0.15779699 256:0.073632002 271:0.088753 315:0.078937002 330:0.118114 353:0.097816996 370:0.054414999 397:0.088840999 434:0.083150998 440:0.093791999 443:0.122514 444:0.101218 448:0.069247 491:0.100585 560:0.092485003 624:0.11414 627:0.107678 648:0.121435 650:0.097933002 668:0.1357 778:0.130392 797:0.096127003 802:0.152936 807:0.058301002 817:0.116669 886:0.18212 945:0.115284 962:0.117281 1375:0.26309901 1433:0.121435 1468:0.097701997 1632:0.172414 2004:0.16167 2078:0.191826 2083:0.16091099 2325:0.193754 4907:0.22369 5131:0.190001 5276:0.211657 11805:0.265957 #
1.0000000231766961178436758928001 11:0.054019 15:0.042978 22:0.16243599 23:0.070044003 44:0.098757997 58:0.086921997 59:0.06041 65:0.069282003 74:0.19248199 85:0.071229003 87:0.099757001 89:0.073316 93:0.12278 99:0.085046001 104:0.052099999 105:0.056485999 114:0.049621999 136:0.180793 147:0.097887002 164:0.124186 194:0.089157 197:0.114967 198:0.199884 217:0.103475 221:0.046895999 239:0.022514001 241:0.074754998 385:0.1128 392:0.072319001 419:0.054664001 457:0.188627 458:0.132871 510:0.094076999 530:0.122558 541:0.179029 560:0.13582399 616:0.161669 668:0.117704 671:0.073930003 722:0.080133997 751:0.27177501 765:0.17224 1019:0.200883 1023:0.190118 1149:0.171939 1288:0.140903 1723:0.13423701 2401:0.13164499 6479:0.45922199 8670:0.190118 #
1.0000000231766961178436758928001 11:0.054428998 35:0.020672999 69:0.122078 87:0.03937 99:0.055344 100:0.107681 112:0.032556999 122:0.055108 124:0.132762 126:0.098576002 142:0.049116999 190:0.113904 216:0.23567 217:0.067336001 219:0.109239 223:0.081610002 232:0.083977997 233:0.113083 236:0.046236999 247:0.086912997 248:0.065895997 263:0.18516999 267:0.076924004 270:0.122426 297:0.090937003 300:0.072029002 312:0.156262 327:0.063543998 336:0.096734002 366:0.14616001 415:0.097599998 452:0.063895002 465:0.160963 539:0.098361999 596:0.087093003 623:0.093928002 637:0.21979301 803:0.101602 976:0.109991 1170:0.135636 2034:0.2403 2252:0.231824 2443:0.175423 2450:0.44653401 2816:0.27730799 2926:0.176856 3340:0.141433 11128:0.231824 #
0.78168953143935682170706513716141 3:0.074960001 6:0.037310999 10:0.063311003 26:0.072300002 35:0.017550999 36:0.035326999 38:0.056754 42:0.069091998 44:0.059942 60:0.055865999 76:0.03813 88:0.060959999 93:0.067832999 94:0.067832999 114:0.046418 126:0.046014 128:0.069611996 134:0.121085 138:0.064315997 145:0.057842001 156:0.084077999 204:0.17127199 208:0.085074 215:0.130559 216:0.136354 219:0.054775 221:0.043866999 236:0.10959 241:0.041299999 314:0.105114 322:0.068392001 327:0.053948 352:0.045586001 370:0.044151001 382:0.107365 383:0.053874001 535:0.134477 546:0.091420002 631:0.139937 668:0.065029003 676:0.111438 721:0.18688101 738:0.06622 741:0.084964 789:0.098908998 838:0.090985999 1338:0.090700999 1353:0.082333997 1374:0.093225002 1427:0.090001002 1433:0.098529004 1595:0.26898399 1604:0.099490002 2210:0.30458501 2212:0.33181301 2607:0.13823199 6302:0.56021798 #
0.84912176778741954574769579267013 31:0.073156998 35:0.023768 45:0.082682997 87:0.045263998 98:0.20650899 105:0.042261001 112:0.037431002 145:0.132625 149:0.103738 156:0.047713999 214:0.080719002 216:0.087986998 236:0.148408 238:0.105986 239:0.028519999 272:0.068706997 324:0.100868 392:0.091610998 393:0.078737997 434:0.091362998 497:0.14253999 547:0.193092 616:0.120956 738:0.089676 771:0.114136 910:0.170605 1004:0.089363001 1019:0.15029401 1026:0.104433 1420:0.216674 1427:0.12188 1600:0.15029401 1647:0.235231 1681:0.13119701 2210:0.349518 2607:0.31694999 2615:0.23256201 3213:0.183072 3491:0.157868 4638:0.18944301 4903:0.212891 14027:0.292225 #
1.0000000231766961178436758928001 6:0.032079998 10:0.054434001 32:0.065217003 35:0.015091 44:0.030439001 52:0.082546003 60:0.048032999 65:0.055721998 70:0.106496 104:0.099992 105:0.026831999 112:0.040238 115:0.044962998 123:0.055959001 128:0.101339 137:0.041126002 208:0.043202002 216:0.055863999 227:0.073652998 236:0.057146002 239:0.018107001 290:0.080696002 327:0.046383999 354:0.048831999 363:0.16519099 371:0.15131 390:0.068976 392:0.058164999 401:0.074270003 419:0.043965001 440:0.110784 494:0.070881002 538:0.095940001 627:0.075117998 634:0.076109998 648:0.084715001 650:0.068319999 783:0.16631 807:0.068862997 955:0.33510399 1061:0.139736 1209:0.075226001 1358:0.102886 1423:0.097010002 1439:0.34211001 1524:0.105879 1778:0.111231 2210:0.143989 2873:0.150135 2945:0.394328 3213:0.116234 6440:0.25420099 7497:0.31413999 9010:0.159679 10117:0.185536 10686:0.175993 #
-1.0000000231766961178436758928001 6:0.03286 9:0.085894004 35:0.015457 36:0.031112 44:0.031179 46:0.097741 87:0.029437 89:0.060398001 114:0.069214001 143:0.048475999 149:0.067464001 163:0.147486 164:0.082539998 186:0.087966003 217:0.050347 232:0.029920001 236:0.090210997 239:0.018547 246:0.173463 272:0.044682 293:0.062309001 313:0.054807998 322:0.101982 383:0.047446001 447:0.099367 452:0.047773 508:0.068377003 530:0.059631001 616:0.078661002 668:0.057270002 730:0.075545996 752:0.087277003 761:0.092998996 778:0.055029999 780:0.090686001 791:0.195255 807:0.04166 896:0.069813997 914:0.070396997 995:0.085795 1140:0.074028999 1340:0.077501997 1353:0.072509997 1523:0.109709 1693:0.087277003 2077:0.209124 2144:0.093874998 2210:0.147486 2212:0.207341 2213:0.400785 2346:0.129152 2607:0.121739 2845:0.14313 3545:0.128206 3610:0.139911 5155:0.173333 7140:0.293477 7397:0.206754 7398:0.206754 7399:0.321771 7400:0.190043 #
-0.11134366086419851538114045297334 11:0.090079002 35:0.034214001 67:0.57501101 105:0.127666 112:0.053881001 126:0.052976999 156:0.116291 217:0.11144 221:0.085513003 229:0.161319 232:0.066225998 236:0.12956201 243:0.14834701 322:0.133321 327:0.105164 385:0.16594701 453:0.131162 456:0.49235699 457:0.34395599 676:0.12830099 719:0.151866 738:0.129087 3057:0.212432 #
-0.31909483893238316243312624465034 9:0.161832 10:0.044199999 31:0.134011 35:0.020747 36:0.041758999 60:0.066036001 75:0.057319999 105:0.036888 112:0.032673001 124:0.07869 126:0.032125 142:0.049291 155:0.080695003 198:0.092618003 217:0.067575 223:0.081899002 225:0.11151 232:0.067993 236:0.046401002 261:0.11209 276:0.045616999 290:0.065522999 370:0.052188002 453:0.079534002 474:0.083875 484:0.24969301 499:0.122055 616:0.105579 723:0.060881 735:0.14242899 737:0.11209 738:0.078276001 778:0.125057 780:0.071888998 797:0.092193998 804:0.105579 851:0.129475 892:0.13867299 906:0.085376002 914:0.094486997 926:0.31919 935:0.095404997 951:0.107891 964:0.115369 1069:0.105579 1146:0.088986002 1219:0.118067 1422:0.100432 1600:0.13118701 1694:0.271718 1724:0.11854 1731:0.110941 1767:0.144484 1768:0.14842799 2016:0.16968 3493:0.293502 4605:0.21952599 8368:0.21952599 11305:0.277504 #
-1.0000000231766961178436758928001 6:0.091061004 22:0.100833 39:0.078206003 44:0.033112001 50:0.088529997 51:0.122121 61:0.079572998 63:0.043545 68:0.101923 81:0.069959998 86:0.072780997 99:0.074405998 180:0.068657003 208:0.079568997 232:0.053799 236:0.087610997 239:0.019696999 272:0.047453001 340:0.066365004 341:0.070257999 351:0.054501999 354:0.053119 383:0.050386999 415:0.077499002 433:0.10254 434:0.063100003 443:0.054910999 452:0.050735001 481:0.196503 559:0.075396001 565:0.118408 637:0.083162002 655:0.088230997 677:0.077799 738:0.061935 811:0.067892998 857:0.115175 882:0.100174 897:0.114744 935:0.075488001 979:0.15095501 1093:0.081596002 1508:0.36452299 1534:0.113495 1679:0.134257 1779:0.104939 1797:0.236228 2210:0.241394 2212:0.130051 2946:0.322979 3213:0.12643901 3466:0.14287201 5124:0.18407799 6062:0.14858501 9383:0.301999 11678:0.21957199 11679:0.21957199 #
-1.0000000231766961178436758928001 6:0.064319998 10:0.109139 44:0.061028998 54:0.30541101 76:0.065732002 112:0.047649 126:0.046849001 143:0.094888002 150:0.140339 179:0.136979 208:0.086617999 219:0.094425 232:0.058564998 236:0.176581 350:0.079535 396:0.151043 508:0.13384201 564:0.37759599 681:0.19030499 719:0.134299 777:0.13896599 833:0.30541101 979:0.16432901 1299:0.29448399 1429:0.203547 2210:0.40687799 7454:0.32014999 #
1.0000000231766961178436758928001 9:0.074327998 21:0.15438101 37:0.049463999 59:0.053378001 62:0.059751 69:0.04665 75:0.096127003 105:0.029478 156:0.033282001 195:0.097749002 205:0.048175 236:0.062781997 352:0.043060999 383:0.106797 384:0.17048 389:0.071186997 390:0.180831 420:0.079933003 436:0.14715301 440:0.071884997 444:0.077575997 447:0.106578 484:0.083617002 491:0.13052601 492:0.080585003 540:0.137511 559:0.076146998 737:0.089573003 778:0.18176 806:0.231094 838:0.085946001 858:0.056047 882:0.171299 945:0.1496 952:0.15943199 964:0.092193998 965:0.119588 967:0.236643 1123:0.279273 1214:0.24655899 1298:0.095303997 1329:0.105984 1349:0.096294999 1450:0.083990999 1461:0.104555 1477:0.157281 1552:0.113034 1693:0.196454 1736:0.085014999 1741:0.097324997 2282:0.115887 2485:0.117671 5290:0.175428 5291:0.34512401 5292:0.171442 #
1.0000000231766961178436758928001 9:0.049722001 10:0.040006001 11:0.020718001 16:0.082506999 23:0.041402001 35:0.018778 38:0.060720999 60:0.059769999 63:0.104537 70:0.063144997 75:0.051881 87:0.035760999 114:0.084085003 138:0.068810999 142:0.093627997 150:0.087099001 156:0.037696 179:0.085014001 208:0.053757999 231:0.074617997 232:0.036347002 236:0.041999001 240:0.049934 278:0.281845 293:0.075695999 370:0.047237001 372:0.164937 373:0.151559 443:0.106352 474:0.075916998 484:0.198755 508:0.083067 657:0.22224 688:0.126744 708:0.20987 719:0.17492101 778:0.15953 885:0.085317001 928:0.150684 1026:0.139697 1037:0.109297 1133:0.085830003 1146:0.080541998 1198:0.103087 1461:0.118423 1529:0.133279 1753:0.154645 1757:0.13904101 1788:0.107945 2658:0.26340699 3492:0.19418199 3493:0.15689901 3770:0.27926201 6322:0.23087201 6323:0.25117299 6324:0.210572 #
1.0000000231766961178436758928001 11:0.022617999 26:0.084449001 35:0.020501001 43:0.150374 50:0.110562 55:0.101611 62:0.073884003 63:0.054382 76:0.044537999 91:0.116109 93:0.079231001 98:0.063800998 109:0.14369801 115:0.14576 121:0.105102 122:0.092526004 123:0.076021001 164:0.064654998 181:0.081156 219:0.063979 239:0.024599001 247:0.145927 250:0.095926002 251:0.12860601 256:0.118152 267:0.12915701 274:0.158757 313:0.072691001 322:0.13525601 331:0.159633 401:0.100895 426:0.088025004 434:0.078803003 445:0.230958 542:0.13370401 647:0.181796 665:0.097286999 668:0.075956002 778:0.174164 793:0.141739 797:0.21739399 804:0.104327 807:0.055252999 856:0.11598 986:0.119576 1004:0.077078 1008:0.123058 1026:0.090075999 1112:0.139771 1268:0.150336 1397:0.102491 1413:0.148496 1420:0.110378 1578:0.146082 1669:0.102491 1736:0.105124 2069:0.131054 2323:0.149129 2326:0.13929699 2513:0.159633 2691:0.215516 3957:0.203959 9375:0.252051 #
1.0000000231766961178436758928001 3:0.073408 5:0.067662001 32:0.19383401 35:0.029101999 75:0.047488 81:0.17480101 91:0.057495002 98:0.053491998 109:0.200064 121:0.088119 124:0.065192997 136:0.165617 205:0.049945001 243:0.074524999 276:0.037792999 300:0.059886001 315:0.062720999 370:0.043237001 393:0.056938998 420:0.082869001 440:0.074524999 545:0.084122002 681:0.108109 778:0.20209201 797:0.076380998 858:0.058106001 909:0.208205 935:0.079040997 1057:0.26016 1176:0.145849 1370:0.092542998 1374:0.091296002 1435:0.098604999 1497:0.114522 1509:0.121053 1580:0.13238899 1731:0.091912001 2169:0.126127 2513:0.22660901 3157:0.150971 5173:0.22990499 5174:0.22990499 5175:0.40448999 5176:0.38926399 #
0.40396830263343558309330205702281 9:0.133504 10:0.041164 23:0.072130002 63:0.12231 69:0.054368 70:0.064974003 88:0.067110002 91:0.109433 97:0.093662001 104:0.053652 112:0.030429 113:0.04473 114:0.051100001 124:0.153799 126:0.029919 136:0.10996 142:0.077725999 156:0.038787998 163:0.303987 164:0.14541601 180:0.080813996 239:0.023185 271:0.079276003 276:0.042484999 300:0.067321002 310:0.113427 352:0.050184999 356:0.13503399 383:0.141528 433:0.071285002 436:0.171499 483:0.091692999 559:0.088744998 592:0.073351003 621:0.114678 733:0.13218801 778:0.219933 783:0.076274998 787:0.087167002 804:0.098329 806:0.128336 964:0.181923 979:0.104942 1069:0.166485 1477:0.227199 1570:0.116521 1632:0.15400399 1693:0.284686 1760:0.21529 2121:0.23597901 2508:0.13506 2921:0.169714 3357:0.257658 11443:0.23755901 #
-1.0000000231766961178436758928001 6:0.040789999 10:0.069213003 11:0.02117 35:0.019188 44:0.065530002 56:0.072970003 70:0.064522997 87:0.036541 94:0.125559 109:0.10851 115:0.05717 124:0.072777003 142:0.108786 156:0.038518999 163:0.25803199 172:0.15377299 180:0.080251999 197:0.069439001 201:0.246526 219:0.059882 236:0.042915002 322:0.12659401 327:0.099858001 350:0.050439 383:0.058897 396:0.095788002 433:0.07079 440:0.140862 453:0.073558003 483:0.091055997 559:0.149215 597:0.215538 778:0.17825399 807:0.051713999 837:0.12836801 857:0.134625 1133:0.087702997 1146:0.082299002 1344:0.128253 1408:0.15801901 1529:0.23058499 1578:0.13672601 2004:0.14340401 2081:0.15112001 2323:0.23632701 2513:0.25297299 2551:0.119747 2816:0.152014 2957:0.215166 4121:0.156931 4543:0.208488 8696:0.223775 10571:0.223775 #
-0.14062002862980868544973134248721 19:0.086810999 36:0.070372 41:0.05666 42:0.081285998 58:0.161965 75:0.096594997 81:0.088003002 87:0.039324 112:0.032519002 114:0.114605 126:0.031973999 134:0.084137 142:0.117071 149:0.090125002 156:0.115725 174:0.11419 209:0.096499003 214:0.070127003 219:0.064443 221:0.05161 239:0.024777001 293:0.083238997 312:0.092183001 338:0.090829998 356:0.085231997 382:0.21386901 385:0.100154 419:0.060159001 434:0.079374 436:0.108248 453:0.079159997 458:0.086364999 484:0.104145 783:0.212707 787:0.15772399 818:0.105242 838:0.107045 859:0.128867 882:0.126009 892:0.13802101 928:0.16569901 937:0.092719004 954:0.22668999 993:0.072345003 1108:0.099959999 1338:0.180675 1374:0.109679 1713:0.132743 1760:0.44878101 2006:0.129538 2143:0.15432601 6590:0.196171 7179:0.25387701 7180:0.231553 #
-1.0000000231766961178436758928001 10:0.092223004 11:0.022758 15:0.079995997 22:0.074832998 30:0.170221 31:0.063488998 35:0.020626999 37:0.12915 44:0.041606002 49:0.074096002 59:0.13937099 75:0.056988999 88:0.071641997 98:0.064195 109:0.179776 163:0.27738601 170:0.159825 180:0.181051 201:0.18803801 204:0.162395 210:0.091558002 236:0.046133999 271:0.084629998 290:0.065145999 299:0.19954801 315:0.075269997 352:0.053574 354:0.066747002 370:0.087853 436:0.183082 634:0.104033 648:0.115795 656:0.090328 668:0.160384 752:0.116467 778:0.226138 894:0.072671004 974:0.108483 992:0.144182 1026:0.15345199 1131:0.107611 1140:0.098788999 1305:0.109929 1477:0.115574 1710:0.18878201 1760:0.229831 2210:0.116241 2339:0.17646 2371:0.165427 2487:0.179526 2513:0.160616 2533:0.17502999 13876:0.25360399 #
-0.38154556154546992452480935753556 11:0.033737998 35:0.018061001 36:0.036352001 37:0.053884 91:0.060412999 98:0.056207001 99:0.048349001 112:0.028441999 113:0.041809998 124:0.115983 131:0.179359 142:0.042909 164:0.096441001 180:0.075538002 194:0.223938 201:0.097240001 208:0.051704001 219:0.095432997 234:0.094830997 271:0.074100003 276:0.039710999 285:0.107191 315:0.111587 323:0.089515999 393:0.059829999 396:0.18921199 397:0.074174002 419:0.052616999 459:0.093042001 540:0.149799 559:0.082951002 583:0.091224 592:0.068562001 597:0.14452399 668:0.066914998 669:0.117102 676:0.067726001 731:0.076889001 737:0.097576998 765:0.097919002 778:0.108866 780:0.062581003 863:0.101976 874:0.117227 885:0.082056999 964:0.100432 1023:0.183 1131:0.159531 1146:0.077463999 1211:0.103609 1217:0.074248001 1338:0.093332 1347:0.115776 1422:0.148029 1458:0.14395 1709:0.257449 1722:0.148736 1738:0.22205 2329:0.121501 2583:0.19623899 3732:0.167236 3979:0.19623899 4335:0.145768 5634:0.210628 5969:0.22205 6675:0.241575 #
-0.4706341766559641870415475750633 6:0.062222999 31:0.053208999 35:0.017286999 36:0.034796 37:0.087327003 63:0.045857999 87:0.032922 109:0.137784 113:0.04002 114:0.045719001 126:0.045322001 138:0.063348003 146:0.070998996 148:0.107065 156:0.034703001 163:0.097420998 164:0.142269 171:0.090478003 197:0.062560998 201:0.093076997 210:0.076733999 217:0.056306999 226:0.055339999 249:0.060090002 322:0.067363001 354:0.055939998 383:0.111359 442:0.153688 445:0.171277 453:0.066271998 483:0.082037002 540:0.14338499 629:0.16657799 668:0.064049996 709:0.123679 728:0.102149 741:0.083685003 906:0.071140997 977:0.082794003 1017:0.1745 1057:0.158692 1125:0.077714004 1178:0.107609 1223:0.108733 1298:0.29275101 1332:0.128594 1353:0.137306 1578:0.123184 1704:0.133872 1724:0.098774001 1814:0.13315301 1847:0.142368 2242:0.14554299 3161:0.42310199 4325:0.121291 6107:0.193854 8088:0.20161 9066:0.231232 9067:0.231232 #
0.88474976379702408024741089320742 16:0.17621 26:0.16520201 35:0.040104002 36:0.080721997 64:0.191062 105:0.071305998 170:0.18352801 236:0.089694999 313:0.240767 497:0.092169002 648:0.225134 723:0.199258 791:0.40742099 951:0.20855799 1353:0.18812899 1427:0.20564801 1779:0.25637099 2210:0.22600301 2212:0.53794903 #
1.0000000231766961178436758928001 22:0.275848 25:0.210181 31:0.151852 35:0.029139001 44:0.058775 51:0.128029 85:0.110617 86:0.129191 169:0.102087 174:0.161135 236:0.155515 292:0.104929 293:0.11746 341:0.124712 350:0.076596998 383:0.151436 397:0.119672 443:0.16503 474:0.117802 594:0.164526 677:0.138099 731:0.124051 837:0.115135 895:0.156885 1033:0.15349799 1236:0.187317 1459:0.181381 1779:0.186272 2210:0.39184701 4885:0.30131701 8876:0.389752 #
1.0000000231766961178436758928001 15:0.046817001 23:0.076301001 36:0.041140001 87:0.065904997 112:0.054499999 115:0.060899001 119:0.082153998 129:0.31008601 156:0.069472 202:0.091669999 205:0.059392001 208:0.152688 209:0.161726 214:0.069413997 232:0.094408996 236:0.045713998 239:0.024525 247:0.085928999 275:0.104489 276:0.044941001 290:0.064553 341:0.087480001 350:0.053729001 371:0.12104 394:0.098544002 452:0.063170999 453:0.078355998 454:0.114304 458:0.085487001 499:0.120247 517:0.135334 671:0.080535002 723:0.101553 787:0.092207 791:0.098944001 807:0.055087 818:0.104172 855:0.231001 859:0.33285201 933:0.073301002 935:0.093990996 986:0.119218 991:0.142556 1014:0.24459299 1017:0.121854 1027:0.123547 1240:0.133303 1397:0.102184 1694:0.12755699 2025:0.196951 2026:0.150655 2027:0.18706401 2028:0.203348 2029:0.28303701 2030:0.23837 #
1.0000000231766961178436758928001 9:0.044883002 11:0.018702 15:0.038826 37:0.085625999 43:0.059245002 65:0.062588997 70:0.057 113:0.082350999 115:0.050505001 121:0.051325001 130:0.118484 138:0.062114 142:0.068186998 151:0.081834003 156:0.057613999 163:0.161735 164:0.053459 169:0.059386 212:0.069476999 217:0.055210002 229:0.079921998 232:0.055551998 235:0.12729099 236:0.079559997 239:0.020338999 249:0.099758998 287:0.22663601 350:0.044558 357:0.088289998 419:0.049383 434:0.065157004 452:0.052389 464:0.071934998 497:0.065958999 581:0.138633 611:0.080544002 628:0.100159 668:0.062802002 676:0.063564003 688:0.114409 730:0.082843997 770:0.088289998 778:0.102175 791:0.13893101 979:0.092061996 1126:0.065869004 1171:0.091580003 1298:0.097439997 1678:0.111889 1693:0.095709004 1888:0.109276 2135:0.175283 2199:0.114034 2200:0.175283 2201:0.19768301 2202:0.19007801 2203:0.22672801 2204:0.22672801 2205:0.20840301 2206:0.22672801 2207:0.19007801 2208:0.18417799 2209:0.22672801 2210:0.161735 2211:0.138633 2212:0.134289 2213:0.18417799 2214:0.19768301 #
1.0000000231766961178436758928001 12:0.080509998 19:0.083070002 22:0.071684003 41:0.054218002 44:0.039856002 45:0.068736002 48:0.078295 76:0.072682001 81:0.142579 83:0.068627998 91:0.066095002 105:0.035131998 121:0.059829999 126:0.051803 138:0.072407 151:0.095394 154:0.18604 162:0.094259001 205:0.057415999 214:0.067103997 217:0.064359002 236:0.074824996 239:0.023708999 256:0.067258 257:0.086144999 276:0.043446001 286:0.198561 293:0.079650998 338:0.182402 401:0.164652 433:0.072898 447:0.127022 482:0.104952 493:0.14786699 579:0.096704997 585:0.10657 588:0.173705 596:0.083241999 657:0.138117 722:0.23559301 735:0.13564999 874:0.075747997 896:0.089244999 906:0.170645 993:0.069227003 1004:0.07429 1012:0.172024 1032:0.121165 1130:0.12562101 1341:0.30226201 1348:0.084569 1547:0.12527999 1663:0.16388801 1757:0.14630499 1805:0.123955 1826:0.27002001 1955:0.18296599 2056:0.248863 2184:0.102593 2868:0.139697 3685:0.18296599 #
-1.0000000231766961178436758928001 9:0.149784 31:0.124034 35:0.019202 36:0.038649999 37:0.097000003 38:0.062091999 62:0.069204003 91:0.108754 102:0.110836 105:0.034141999 126:0.029733 131:0.068306997 142:0.108867 147:0.100177 150:0.089065999 200:0.12523399 214:0.065211996 217:0.105896 236:0.102484 249:0.066745996 353:0.086831003 383:0.058940999 419:0.055943001 434:0.073811002 444:0.089850001 447:0.209003 464:0.081490003 474:0.13144 485:0.24957401 486:0.147902 497:0.074720003 505:0.23864099 547:0.15599699 611:0.091242999 622:0.117178 668:0.071144998 789:0.108211 791:0.221817 804:0.097718 856:0.18393201 931:0.114738 977:0.091964997 1209:0.095720999 1513:0.14218 1693:0.22753499 1779:0.122752 1933:0.127941 1994:0.112002 2210:0.183218 2309:0.167125 4190:0.171992 4293:0.133727 12407:0.223942 13556:0.25684401 13557:0.25684401 #
-1.0000000231766961178436758928001 26:0.081697002 91:0.112325 105:0.092017002 122:0.052866999 137:0.054049 142:0.047120001 143:0.062197998 147:0.103467 156:0.039813001 214:0.067354001 219:0.061895002 221:0.049569 232:0.091606997 236:0.075103 238:0.088436 243:0.085992001 267:0.073795997 272:0.097069003 429:0.102975 452:0.159949 474:0.135757 485:0.122829 497:0.127248 668:0.073481001 775:0.12314 791:0.250525 797:0.088133 907:0.128222 914:0.090324 936:0.14021701 977:0.094984002 991:0.081697002 1004:0.126252 1037:0.115435 1105:0.155303 1129:0.171104 1133:0.09065 1199:0.14021701 1423:0.12749401 1515:0.096796997 1756:0.173531 1779:0.126783 1784:0.143657 1812:0.179515 2210:0.29164401 2268:0.15807401 4083:0.222397 4571:0.33408001 5932:0.20985501 9382:0.21549401 9980:0.243838 #
-1.0000000231766961178436758928001 9:0.12844101 11:0.034726001 35:0.018588999 37:0.055461001 45:0.064666003 65:0.068640001 69:0.052306 105:0.033052001 115:0.055387001 137:0.085775003 138:0.142956 150:0.086222999 208:0.053217001 214:0.063130997 222:0.085380003 236:0.041576002 239:0.022305001 256:0.063276 300:0.064768001 310:0.109126 327:0.057138 392:0.071649 419:0.054157998 434:0.071456 447:0.119501 454:0.103958 491:0.086438 561:0.09307 646:0.49302801 656:0.081404001 716:0.088794999 771:0.089266002 778:0.15792499 783:0.073383003 791:0.27711201 797:0.13986599 804:0.225743 811:0.076883003 855:0.080512002 887:0.16394 920:0.209051 1004:0.069890998 1351:0.13465001 1420:0.169461 1468:0.083959997 1613:0.33418301 1693:0.27388999 1731:0.099404 2369:0.22855 #
-0.13769569309049284333568152760563 44:0.040178001 45:0.180813 49:0.071552999 56:0.128258 75:0.055032998 76:0.043274 91:0.066629998 97:0.096556 99:0.090286002 108:0.073301002 143:0.062469002 160:0.099151999 212:0.081643999 231:0.13401499 232:0.038555998 236:0.093493 248:0.063492 267:0.074118003 367:0.125286 370:0.050106 393:0.065986 447:0.128049 453:0.076361001 544:0.085344002 596:0.218973 597:0.181247 654:0.099437997 699:0.087422997 764:0.179436 770:0.103752 778:0.185047 807:0.053684998 818:0.17188901 882:0.121553 954:0.218674 977:0.095398001 1012:0.139911 1108:0.096424997 1126:0.162443 1269:0.27026001 1326:0.13771801 1370:0.181583 1542:0.121553 1650:0.098169997 2736:0.15780701 3124:0.31619099 3147:0.15261699 4277:0.165213 13804:0.26643401 13805:0.26643401 #
-0.46842462647021915200795660894073 10:0.044611 35:0.035454001 38:0.067711003 60:0.066651002 67:0.147477 76:0.045492001 83:0.123141 100:0.109069 104:0.058143999 109:0.118418 112:0.032977 156:0.071172997 190:0.115373 204:0.097368002 227:0.102201 243:0.090792 248:0.113011 249:0.123238 256:0.071277 290:0.066133998 327:0.064363003 350:0.093199 401:0.103057 454:0.117104 530:0.080782004 541:0.199799 552:0.098732002 568:0.11353 572:0.107708 661:0.108724 722:0.151421 760:0.076094002 778:0.17789599 811:0.086606003 993:0.073362999 1004:0.078729004 1069:0.106562 1146:0.089814998 1176:0.17768499 1344:0.139965 1427:0.107377 1447:0.14180499 1724:0.119644 1767:0.14583001 1805:0.13136099 1978:0.45270601 2081:0.16492 2452:0.17913701 8466:0.221571 8467:0.28008899 8468:0.28008899 #
1.0000000231766961178436758928001 10:0.051621001 22:0.087903999 35:0.02423 94:0.24436 113:0.094973996 126:0.037517998 142:0.057567999 163:0.42048699 172:0.114687 202:0.108672 246:0.129568 290:0.076525003 292:0.147733 303:0.159453 322:0.094416998 350:0.063694 385:0.069411002 440:0.17787901 448:0.131329 483:0.114985 485:0.31492499 523:0.104263 559:0.111288 661:0.21301 668:0.152 731:0.103154 752:0.23164199 759:0.233835 1056:0.178597 1057:0.131368 1060:0.148946 1146:0.103927 1477:0.28491101 1818:0.209042 4905:0.21702801 #
1.0000000231766961178436758928001 6:0.064727001 10:0.064868003 35:0.030448001 36:0.061285999 59:0.098030999 60:0.096914999 82:0.32865101 105:0.054136999 112:0.047951002 113:0.119345 124:0.115486 217:0.099173002 220:0.38903299 232:0.058936 239:0.036534999 240:0.080966003 323:0.150914 327:0.093588002 350:0.080039002 370:0.076591998 464:0.129216 485:0.188572 676:0.193322 699:0.31888801 719:0.28362799 777:0.139847 851:0.190019 896:0.137521 1108:0.147394 1131:0.158847 1146:0.130596 1364:0.18580499 12543:0.407267 #
1.0000000231766961178436758928001 9:0.105801 10:0.050276998 11:0.044085 15:0.054055002 42:0.092899002 44:0.080596 45:0.082093999 52:0.129087 91:0.165665 108:0.086843997 112:0.062925003 137:0.064314 143:0.074010998 164:0.074428 169:0.082680002 170:0.25771201 180:0.098702997 219:0.124699 292:0.084981002 318:0.348802 356:0.097407997 370:0.059363998 393:0.078178003 424:0.15577599 433:0.087064996 434:0.15359101 452:0.072938003 453:0.090469003 525:0.34365001 583:0.1192 656:0.216878 668:0.087435998 778:0.176318 855:0.102211 1014:0.134569 1135:0.14652599 1298:0.32372299 1397:0.117981 1601:0.130025 2329:0.26880801 2949:0.234786 4946:0.205395 #
1.0000000231766961178436758928001 4:0.12790801 6:0.038608 11:0.042050999 35:0.018161001 42:0.071493 43:0.063477002 44:0.062024999 58:0.219543 70:0.061071001 76:0.039455 105:0.054674 108:0.066832997 112:0.028601 113:0.071185999 116:0.069312997 126:0.059016 128:0.072030999 148:0.190441 163:0.102346 169:0.063628003 199:0.084872998 201:0.097782001 216:0.141092 223:0.150456 229:0.085630998 232:0.035154 236:0.068774 239:0.021792 240:0.048294 241:0.042734999 244:0.047199 248:0.098015003 275:0.092844002 315:0.066272996 450:0.079976998 457:0.129544 479:0.120251 597:0.117252 633:0.094446003 676:0.068103999 677:0.086073004 719:0.080613002 722:0.077564001 778:0.064657003 1013:0.08117 1133:0.083011001 1146:0.077896997 1549:0.17430399 1853:0.16105101 1900:0.12468 2367:0.19216999 2659:0.125119 3359:0.19216999 3638:0.16816901 3670:0.35861501 5434:0.187803 9140:0.223289 11160:0.211804 14282:0.24292301 14283:0.24292301 14284:0.24292301 #
1.0000000231766961178436758928001 3:0.080015004 10:0.039914001 11:0.034998 35:0.018735001 36:0.03771 37:0.055895999 43:0.065482996 44:0.03779 50:0.059675999 58:0.182143 59:0.060320001 65:0.069178 87:0.035679001 91:0.106109 99:0.084919997 113:0.091021001 115:0.055822 125:0.102298 126:0.069225997 142:0.044512 155:0.072871 162:0.089373998 163:0.178763 164:0.124001 169:0.065638997 174:0.103605 216:0.14555 223:0.15521 232:0.036263999 236:0.041901998 244:0.048689999 246:0.169627 275:0.095776998 290:0.059170999 300:0.065277003 325:0.104774 350:0.049249001 356:0.077330999 387:0.079507999 392:0.072210997 433:0.069119997 450:0.139691 559:0.086049996 561:0.093800001 597:0.071438998 676:0.070256002 778:0.13997699 780:0.064919002 889:0.109278 907:0.121126 978:0.102298 1013:0.083734997 1146:0.080357999 1333:0.118468 1415:0.12773401 1914:0.305664 1971:0.155394 2004:0.140021 2150:0.265046 2371:0.150254 2864:0.15220299 3000:0.154291 3670:0.21849599 4380:0.321419 7910:0.193737 9979:0.25059801 #
-0.19043879865956181429709204167011 6:0.077958003 8:0.128582 420:0.176807 492:0.178249 1757:0.271532 2196:0.29791901 7664:0.76339 7665:0.41122499 #
-1.0000000231766961178436758928001 10:0.041715 50:0.062368002 60:0.062323999 86:0.086813003 87:0.037289001 88:0.068007 94:0.075673997 99:0.052416999 105:0.034814 113:0.095127001 130:0.136866 134:0.079782002 137:0.053360999 149:0.08546 155:0.076158002 156:0.039306998 163:0.28793299 164:0.129595 172:0.092679001 183:0.096773997 205:0.056896001 214:0.066496998 217:0.063776001 240:0.052067 290:0.061840001 292:0.070509002 293:0.078929998 341:0.083802998 353:0.088541001 405:0.088751003 419:0.057045002 429:0.101664 445:0.092440002 491:0.091045998 616:0.099642999 650:0.088646002 654:0.165501 668:0.18930399 671:0.077150002 723:0.057457998 730:0.095697001 752:0.110557 759:0.090040997 760:0.071153 765:0.106158 777:0.089932002 778:0.069709003 859:0.122196 945:0.104351 952:0.111209 964:0.108883 969:0.151629 1008:0.246657 1015:0.139523 1057:0.25332499 1134:0.112787 1171:0.105788 1196:0.116471 1225:0.096501 1238:0.19839901 1296:0.095434003 1340:0.098174997 1353:0.091852002 1374:0.104002 1533:0.120068 1558:0.136361 2375:0.18357199 2598:0.131725 4299:0.170417 9064:0.26190299 9065:0.207185 #
-0.50483174437926403577137079992099 10:0.043269999 31:0.062513001 33:0.077583 36:0.069215998 50:0.064692996 60:0.064645998 74:0.25824699 105:0.086173996 109:0.114857 115:0.060513999 128:0.080553003 137:0.093716003 142:0.048253998 156:0.069032997 164:0.134425 223:0.13575 225:0.109164 227:0.16783699 229:0.16214 232:0.039313 236:0.045425002 241:0.047791999 247:0.085386001 248:0.13586099 266:0.141967 290:0.064144999 313:0.072015002 322:0.079141997 348:0.128773 352:0.052751001 366:0.143592 443:0.067938 452:0.062771998 457:0.223272 464:0.180885 614:0.124543 665:0.096382 722:0.242162 730:0.099264003 733:0.29159901 735:0.29261401 807:0.114876 811:0.084000997 935:0.093396999 981:0.116752 1217:0.083497003 1234:0.105958 1450:0.102893 1545:0.227751 3957:0.34212199 4349:0.236864 #
-0.68565736131707932798917681793682 11:0.039978001 45:0.060063001 50:0.093116999 56:0.065661997 63:0.045802001 64:0.082258001 87:0.032882001 112:0.027191 113:0.039971001 114:0.045662999 115:0.051444001 116:0.065895997 119:0.069399998 126:0.056106001 169:0.102422 202:0.077437997 206:0.065373003 219:0.053885002 231:0.116166 238:0.076990999 258:0.063431002 338:0.25082701 340:0.069803998 351:0.057325002 448:0.055272002 493:0.104246 544:0.073977001 671:0.068031996 676:0.064746998 699:0.128305 719:0.18288399 874:0.066191003 933:0.061921 1013:0.215437 1130:0.35095999 1131:0.189036 1146:0.074056998 1341:0.18740299 1342:0.087471001 1353:0.080995001 1399:0.11468 1477:0.096741997 1478:0.116156 1663:0.143209 1760:0.113624 2171:0.114323 2184:0.089648001 2189:0.17494901 2535:0.110683 2925:0.159879 3606:0.13761701 12068:0.50656599 12069:0.230948 #
-0.30348914510758673301893395546358 35:0.016765 36:0.033744 38:0.054211002 43:0.122972 44:0.033815999 60:0.053362001 87:0.031927001 99:0.044881001 112:0.044702001 114:0.044337999 123:0.062167998 126:0.025959 135:0.12913001 142:0.067440003 221:0.041901998 232:0.032451 236:0.037496001 239:0.020116 240:0.075480998 248:0.053438 272:0.048462 315:0.061177 317:0.25647601 370:0.042172 426:0.071984999 434:0.064443 519:0.24239101 539:0.16739801 568:0.090893999 589:0.137115 596:0.070628002 635:0.095408 637:0.084931999 650:0.075900003 661:0.087045997 690:0.0889 759:0.077095002 778:0.125256 780:0.058092002 783:0.066180997 889:0.097786002 1026:0.154588 1138:0.41798499 1173:0.14725401 1269:0.108388 1274:0.177606 2154:0.13806599 2443:0.142258 2479:0.173364 2516:0.125296 2517:0.144637 4365:0.151748 8153:0.195519 14235:0.47060299 #
1.0000000231766961178436758928001 1:0.082612 11:0.040544 26:0.089405 35:0.021703999 36:0.043685 43:0.075859003 50:0.069131002 76:0.047150999 85:0.082392998 88:0.12763301 98:0.067546003 105:0.065338001 125:0.118507 126:0.056901 142:0.051564999 147:0.113228 150:0.17044801 169:0.076039001 205:0.106781 209:0.101427 214:0.073707998 219:0.114683 232:0.088164002 239:0.026041999 250:0.101555 256:0.073876999 313:0.130299 354:0.070231996 397:0.089137003 443:0.122922 452:0.067079 497:0.153603 559:0.099684 592:0.082392998 597:0.140122 623:0.098609999 631:0.102202 743:0.115667 791:0.22048999 807:0.058495 895:0.116855 993:0.128746 1133:0.099202998 1163:0.278689 1355:0.169001 1477:0.121606 1540:0.106966 1760:0.142828 2210:0.25668001 4571:0.36559799 5683:0.219915 13365:0.290306 13366:0.290306 #
1.0000000231766961178436758928001 6:0.109236 9:0.182298 10:0.077674001 11:0.023758 35:0.021532999 37:0.108776 38:0.069629997 44:0.043435 63:0.119876 69:0.060591001 76:0.046781 112:0.033911001 142:0.122084 156:0.043226998 180:0.090062998 232:0.087471999 236:0.081542999 239:0.025838001 267:0.080124997 290:0.068007998 370:0.054166999 393:0.071333997 395:0.110761 402:0.142579 436:0.191127 452:0.066552997 491:0.100128 492:0.104666 499:0.126683 513:0.13803899 532:0.118212 533:0.117999 595:0.114953 656:0.094296999 669:0.13962001 767:0.17843799 778:0.076661997 780:0.074615002 791:0.10424 804:0.18553901 974:0.11325 977:0.10313 1037:0.12533399 1038:0.17269599 1093:0.107034 1140:0.10313 1533:0.132045 1693:0.31726801 1704:0.16675401 1979:0.17733601 2210:0.121349 2259:0.149417 2417:0.326563 2767:0.16767401 2785:0.19490901 11665:0.28802699 #
1.0000000231766961178436758928001 2:0.079742998 9:0.091784999 11:0.018224001 15:0.037834 37:0.117596 42:0.110091 50:0.052611999 59:0.053180002 63:0.074187003 76:0.035884 84:0.096547998 87:0.031456001 89:0.109278 104:0.045864999 105:0.029369 142:0.039243001 143:0.051801 164:0.052092999 169:0.057868998 174:0.091340996 200:0.107726 217:0.053800002 232:0.067096002 241:0.038867 276:0.036318 295:0.185752 313:0.058568001 341:0.070694998 433:0.060938001 436:0.086588003 447:0.106183 452:0.086436003 484:0.083306 487:0.28919801 491:0.130041 581:0.32236701 677:0.078282997 775:0.102556 778:0.099564999 791:0.079958998 853:0.118171 878:0.130858 931:0.098696999 952:0.15884 979:0.214075 993:0.057868998 1040:0.100796 1060:0.101536 1108:0.079958998 1209:0.082339004 1693:0.15790901 1694:0.103082 2312:0.28919801 2329:0.11112 2583:0.46832401 2584:0.192633 2585:0.159161 #
1.0000000231766961178436758928001 14:0.070626996 31:0.049640998 35:0.016128 36:0.032462999 41:0.074928999 105:0.060180999 109:0.053867999 112:0.025398999 115:0.114671 130:0.112735 156:0.032377001 160:0.080282003 197:0.058366001 205:0.046865001 206:0.061065 221:0.040309999 236:0.061074998 239:0.019352 244:0.041914999 262:0.114026 271:0.066171996 397:0.066238001 419:0.046987999 479:0.106789 484:0.081343003 528:0.133771 552:0.128754 560:0.11675 579:0.078933999 594:0.091064997 612:0.256015 617:0.080398001 623:0.073276997 665:0.12958799 723:0.047327999 737:0.087136999 778:0.097217999 797:0.121348 804:0.13896599 884:0.17524201 885:0.073276997 929:0.082199 935:0.074166 964:0.151852 976:0.085809 1093:0.080167003 1367:0.122935 1448:0.108501 1607:0.109587 1627:0.115386 1694:0.100652 1697:0.170656 1700:0.120537 1756:0.17491101 1883:0.28073299 1957:0.15540899 1997:0.13685501 2271:0.224887 2417:0.14445899 2438:0.194583 2841:0.19159301 3130:0.14445899 3147:0.123572 3371:0.109587 4146:0.13685501 4629:0.15780701 5424:0.15540899 7596:0.18809199 11764:0.18809199 #
1.0000000231766961178436758928001 9:0.060102999 12:0.092487 26:0.093502998 35:0.022699 43:0.079336002 75:0.062712997 112:0.060524002 142:0.12869 156:0.108735 216:0.084027998 225:0.206567 236:0.085956 239:0.057158001 257:0.207679 290:0.071687996 327:0.069769002 370:0.057099 390:0.217731 419:0.066129997 453:0.087017 737:0.20764101 739:0.120165 775:0.14093401 778:0.080810003 787:0.17337801 896:0.102521 906:0.093409002 933:0.081404001 954:0.35120299 1004:0.085341997 1203:0.154232 1212:0.16511799 1296:0.110633 1540:0.111869 1694:0.14165699 1696:0.234723 1724:0.129693 2022:0.15172 2891:0.179828 3365:0.15320601 3794:0.234723 4996:0.212808 9789:0.25453499 13425:0.27907401 #
-0.6960483881554361262899988105346 31:0.118441 69:0.108277 70:0.19942801 85:0.146082 87:0.073283002 112:0.035792001 115:0.067717001 142:0.053996999 155:0.149672 212:0.093154997 214:0.077183999 219:0.21842 221:0.056804001 232:0.043992002 239:0.027271001 256:0.077362001 257:0.167766 267:0.143185 350:0.101155 356:0.093809001 393:0.075289004 404:0.232869 453:0.14751901 513:0.145693 588:0.24764501 597:0.181869 661:0.118004 665:0.107853 722:0.097065002 723:0.112921 778:0.211136 855:0.098435 859:0.141836 891:0.22611199 986:0.13256399 1014:0.12959699 1026:0.099859998 1116:0.152897 1133:0.17588601 1137:0.15095399 1468:0.10265 1583:0.128327 1804:0.21307699 1805:0.142575 2181:0.22611199 2262:0.16906101 12248:0.265055 #
-0.36299152585520999547696874287794 6:0.042948 9:0.090573996 11:0.022290001 37:0.060275 50:0.064351 61:0.097932003 65:0.074597999 72:0.145726 76:0.043891001 78:0.194672 95:0.080583997 98:0.062873997 112:0.053869002 131:0.071865998 144:0.146246 150:0.093707003 156:0.068668 197:0.073112004 200:0.131761 214:0.068611003 222:0.092790999 232:0.039105002 248:0.064396001 257:0.088078998 352:0.052473001 370:0.086046003 371:0.25107801 385:0.097989 389:0.086746 420:0.097404003 426:0.086746 452:0.149001 453:0.077449001 464:0.204594 492:0.098199002 622:0.123285 651:0.12155 656:0.088469997 753:0.123285 894:0.071176 1151:0.26062599 1171:0.109151 1209:0.10071 1268:0.087500997 1275:0.25100601 1331:0.129149 1367:0.153993 1396:0.28430399 1405:0.181086 1427:0.103597 1523:0.143391 1667:0.161025 1736:0.103597 1756:0.219101 1757:0.149589 3098:0.177451 8221:0.27022901 #
-1.0000000231766961178436758928001 9:0.18049701 11:0.022772999 23:0.045508001 31:0.107565 36:0.041545 65:0.076214001 71:0.115429 76:0.044840999 87:0.039308 105:0.036699001 124:0.078286998 142:0.049038999 156:0.041435 192:0.097823001 197:0.074694999 198:0.092143998 217:0.067229003 219:0.109065 221:0.087346002 223:0.081479996 233:0.112903 239:0.024767 243:0.089493997 290:0.065187998 292:0.074326999 363:0.13344499 370:0.051920999 385:0.059128001 419:0.060134001 436:0.108202 484:0.24841499 574:0.131947 616:0.105038 719:0.091618001 723:0.060568999 730:0.100879 735:0.1417 738:0.077875003 778:0.154212 780:0.071520999 797:0.15529899 804:0.105038 851:0.128812 892:0.137963 906:0.084940001 914:0.094002999 926:0.31755599 927:0.191126 951:0.107339 952:0.117231 964:0.114779 993:0.072314002 1219:0.117463 1693:0.19732501 1694:0.218098 1717:0.13885701 1731:0.110373 1768:0.147668 1853:0.183035 3057:0.12815499 3493:0.17246 8770:0.218402 9059:0.27608401 #
-1.0000000231766961178436758928001 3:0.072361998 9:0.107057 11:0.044608001 22:0.061468001 38:0.054786999 51:0.074445002 65:0.062561996 69:0.100051 70:0.056975 81:0.072208002 99:0.045357998 110:0.152374 113:0.039223999 115:0.050483 126:0.055057999 156:0.057588998 192:0.080300003 214:0.057541002 221:0.042346999 222:0.077820003 236:0.037895001 241:0.039868999 256:0.057673 281:0.094218999 323:0.083977997 352:0.044007 387:0.071904004 414:0.080404997 419:0.049362 420:0.081689 433:0.062509 436:0.186399 451:0.127858 460:0.094933003 491:0.078783996 538:0.107718 607:0.12545399 655:0.091067001 688:0.114359 737:0.154992 767:0.082923003 778:0.060320001 807:0.045665 837:0.113352 919:0.126035 921:0.114359 928:0.080300003 929:0.14621 932:0.160964 1069:0.086222999 1125:0.12896299 1133:0.077443004 1311:0.137646 1338:0.087558001 1468:0.076526001 1557:0.26291701 1693:0.22829001 1694:0.105739 1695:0.15689 1955:0.15689 2148:0.117566 2271:0.139534 2272:0.13504399 2757:0.233055 3357:0.133442 3365:0.114359 3493:0.14156801 3580:0.142647 4413:0.16326299 6254:0.386352 #
-0.91951118925393893199782269221032 9:0.16736799 10:0.051605999 15:0.055484001 35:0.024223 63:0.064255998 73:0.13868199 75:0.066923998 76:0.089101002 87:0.110081 112:0.038146999 113:0.056077 179:0.185679 327:0.074455 350:0.063675001 387:0.102798 397:0.099483997 434:0.15765201 436:0.126983 440:0.105028 572:0.124596 578:0.282554 611:0.115101 677:0.114803 731:0.103125 767:0.118552 933:0.14708599 993:0.084866002 1004:0.154201 1026:0.106432 1142:0.109795 1298:0.139246 1424:0.129751 1555:0.143767 1609:0.255954 1688:0.164039 1693:0.231575 1924:0.181905 2026:0.178545 2519:0.245443 2947:0.230124 4717:0.194268 4880:0.2243 12307:0.32400399 #
1.0000000231766961178436758928001 8:0.138818 11:0.020814 18:0.104115 45:0.111116 65:0.069659002 76:0.069394 81:0.080399998 112:0.02971 114:0.084475003 115:0.05621 116:0.171812 122:0.105535 123:0.069957003 137:0.107895 138:0.069131002 142:0.044822 156:0.064121999 178:0.097797997 206:0.120938 213:0.10071 218:0.120599 219:0.123557 222:0.086648002 224:0.103943 225:0.101398 238:0.176541 239:0.022637 263:0.16897599 275:0.096442997 276:0.041480999 292:0.067934997 299:0.107791 308:0.129513 323:0.093505003 338:0.19802301 357:0.098264001 371:0.11172 396:0.094177999 431:0.12906399 448:0.060391001 465:0.086753003 498:0.09324 510:0.160155 560:0.080656998 585:0.101749 634:0.095147997 878:0.149459 991:0.077711999 1013:0.201205 1064:0.124149 1468:0.085207 1648:0.15536401 1765:0.22671001 2089:0.13843399 2102:0.40115899 3012:0.199619 3512:0.154293 5812:0.181784 7856:0.23194499 #
1.0000000231766961178436758928001 19:0.070619002 35:0.016798001 56:0.10816 59:0.054081999 87:0.031989999 104:0.046643 105:0.029867001 115:0.050048999 121:0.050863001 126:0.026009999 156:0.087991998 158:0.19880199 198:0.126968 239:0.020156 241:0.039526999 243:0.190052 251:0.105376 338:0.073889002 350:0.044156 385:0.100984 393:0.055645999 433:0.061972 441:0.107086 444:0.078598998 544:0.071970999 559:0.077151 671:0.066186003 775:0.104296 799:0.145395 817:0.090597004 874:0.064395003 920:0.188904 928:0.079611003 983:0.128702 991:0.069195002 1060:0.216699 1122:0.251194 1125:0.075512998 1126:0.110521 1130:0.106793 1338:0.086805999 1342:0.085097998 1422:0.137679 1478:0.347994 1542:0.24461 1578:0.119695 1717:0.113006 2321:0.122192 2751:0.123262 3651:0.170204 4390:0.161861 6057:0.475169 #
1.0000000231766961178436758928001 15:0.035638001 27:0.085724004 31:0.1005 35:0.015559 60:0.083849996 95:0.062059999 112:0.024502 114:0.086352997 128:0.147255 149:0.067906998 156:0.031234 199:0.07271 200:0.101473 208:0.075415 221:0.065840997 227:0.075937003 239:0.018669 272:0.044976 276:0.03421 281:0.14649101 308:0.106813 353:0.070355996 390:0.071115002 444:0.072802 656:0.068134002 701:0.074713998 723:0.045657001 783:0.103992 811:0.064350002 986:0.090751 1016:0.19879401 1027:0.28961101 1077:0.090944 1130:0.25811499 1178:0.09685 1260:0.115203 1473:0.115203 1571:0.16398101 1805:0.204833 1821:0.109163 2385:0.106443 2596:0.13 4100:0.15764999 4899:0.18145201 6637:0.278745 13983:0.58099699 #
1.0000000231766961178436758928001 3:0.084902003 6:0.042259999 11:0.061230998 32:0.085913002 42:0.078256004 50:0.107211 60:0.063275002 62:0.071644999 63:0.052733999 76:0.090635002 105:0.059845999 109:0.066396996 147:0.217648 164:0.106153 181:0.13324501 217:0.064750001 243:0.086194001 249:0.0691 267:0.12524199 276:0.091730997 312:0.088747002 328:0.102731 387:0.084363997 456:0.202978 457:0.141799 458:0.083145 483:0.094338 545:0.097292997 592:0.075466998 665:0.246169 730:0.097158998 752:0.267851 791:0.162937 930:0.129651 937:0.089262001 1133:0.090864003 1296:0.164051 1353:0.157893 1471:0.164884 1472:0.179938 1513:0.147194 1666:0.128895 1998:0.128895 1999:0.160447 2182:0.171506 2330:0.14587501 2841:0.139477 4601:0.170064 5967:0.16371401 7015:0.265903 7016:0.244412 7017:0.22292 #
1.0000000231766961178436758928001 10:0.072628997 31:0.061974 33:0.130225 35:0.020135 42:0.079260997 50:0.108589 76:0.043742999 88:0.118407 106:0.132103 109:0.067250997 112:0.031709 115:0.059992 131:0.170918 155:0.078314997 156:0.068437003 160:0.100226 206:0.076234996 217:0.065582 232:0.065987997 237:0.126311 267:0.074920997 276:0.044272002 293:0.081165001 300:0.070152998 311:0.097207002 342:0.13331901 370:0.050648998 383:0.104643 452:0.062229998 491:0.093625002 497:0.07835 633:0.104709 710:0.14127 716:0.096176997 778:0.121369 791:0.20455199 820:0.15592401 888:0.114134 894:0.070937 945:0.107306 967:0.110137 1008:0.20463701 1013:0.089991003 1019:0.12731899 1069:0.102465 1146:0.086360998 1225:0.168018 1331:0.12871499 1348:0.086176999 1558:0.140223 1814:0.262584 1890:0.19401699 1932:0.12836 2184:0.177008 2191:0.138229 2210:0.192118 2937:0.164676 3135:0.184277 3547:0.20031901 3734:0.173711 4014:0.213052 5075:0.218778 #
-1.0000000231766961178436758928001 35:0.020271 36:0.085625999 83:0.070405997 126:0.053144 128:0.136126 142:0.101072 156:0.097106002 169:0.07102 184:0.098530002 211:0.109141 248:0.064613998 254:0.150095 276:0.044571001 336:0.199056 338:0.15097301 371:0.120044 431:0.330933 889:0.118237 958:0.131818 984:0.14065699 1122:0.227871 1126:0.078772999 1130:0.21820401 1131:0.179057 1140:0.164377 1396:0.13593 1478:0.41995001 1760:0.13339899 1924:0.152227 2716:0.36316901 6057:0.34776899 #
-0.97457035518897561221507430673228 23:0.147219 31:0.095622003 35:0.018348999 48:0.123101 56:0.069779001 76:0.039863002 104:0.050949 114:0.082162 170:0.083968997 205:0.053316999 216:0.067924999 219:0.057263002 232:0.060134001 236:0.069482997 239:0.022017 244:0.047685001 273:0.092269003 312:0.081913002 327:0.056398001 393:0.060784001 418:0.103603 443:0.061377 449:0.295531 515:0.161165 544:0.133108 552:0.086514004 619:0.128738 665:0.087073997 730:0.089677997 731:0.13226099 752:0.103603 759:0.084376998 760:0.066678002 783:0.072433002 799:0.288856 817:0.098962002 892:0.122644 1014:0.104629 1126:0.071303003 1146:0.133251 1209:0.091467001 1234:0.095725 1284:0.135245 1368:0.16556799 1811:0.155697 2210:0.103402 2351:0.143682 2658:0.207655 2824:0.138464 3061:0.252386 4537:0.39819199 4932:0.24542899 4933:0.225592 #
-0.22903021382545649120565656176041 10:0.037537001 23:0.038846999 35:0.017619001 94:0.115296 114:0.046597 116:0.067244001 124:0.140247 126:0.046193 143:0.055257 145:0.058065999 190:0.253319 205:0.107445 208:0.085404001 216:0.110435 226:0.095498003 236:0.082699999 239:0.021142 256:0.059974998 297:0.13122401 350:0.046316002 352:0.045763001 356:0.072725996 357:0.091774002 358:0.12987 427:0.092514001 464:0.074772999 474:0.071231999 492:0.085640997 493:0.062829003 637:0.089261003 760:0.064028002 780:0.061051998 807:0.047486998 825:0.211491 855:0.076311998 933:0.063188002 935:0.081023999 1149:0.095360003 1167:0.335116 1170:0.19572601 1178:0.109677 1277:0.161255 1305:0.093900003 1367:0.13430201 1438:0.152009 1549:0.099875003 1683:0.26454601 1788:0.101284 2160:0.172398 3666:0.32214299 4939:0.205483 8901:0.216626 10824:0.23567399 10825:0.23567399 #
-0.02276918392767843940527328072676 3:0.117803 11:0.017974 22:0.154222 26:0.067106999 50:0.051890001 51:0.071579002 56:0.061953999 70:0.054781999 76:0.035392001 95:0.064980999 112:0.025655 121:0.049327999 142:0.081226997 160:0.137301 197:0.058954999 206:0.104435 236:0.076463997 293:0.065669999 352:0.042312 383:0.084665 387:0.069136001 427:0.085538998 441:0.103855 443:0.114361 449:0.109956 452:0.050349999 498:0.136326 508:0.072065003 515:0.14309099 541:0.091806002 594:0.091983996 799:0.141008 832:0.25314301 863:0.091983996 868:0.188704 895:0.087711997 904:0.110693 956:0.087411001 1104:0.107207 1364:0.099413 1405:0.14602201 1415:0.111069 1427:0.083536997 1678:0.225674 1721:0.110322 1736:0.083536997 1741:0.095633999 1760:0.107207 1855:0.317945 2171:0.107867 2189:0.165069 2329:0.109596 2450:0.24966601 7209:0.177011 10552:0.18268099 12086:0.200293 13862:0.36894399 #
-0.66838757952897520642210338337463 19:0.070702001 35:0.016817 43:0.05878 55:0.083353996 75:0.046463002 88:0.098897003 89:0.065713003 91:0.095247 99:0.045021001 113:0.065917999 126:0.026040001 174:0.092998996 236:0.037613001 238:0.074989997 241:0.067001998 272:0.048613999 276:0.062608004 290:0.053112999 312:0.075076997 328:0.086906999 336:0.18777899 393:0.055711001 436:0.088160001 448:0.053835001 460:0.094227999 494:0.078989998 668:0.062309001 676:0.063064002 699:0.073808998 722:0.071823999 778:0.14287201 787:0.075868003 790:0.16731299 799:0.180424 858:0.056853 886:0.14158601 910:0.071294002 960:0.116273 993:0.05892 1004:0.063229002 1012:0.118124 1013:0.075162999 1026:0.12511 1060:0.246691 1069:0.085582003 1104:0.110671 1136:0.253526 1156:0.105777 1219:0.095706001 1413:0.121815 1422:0.081409998 1540:0.082883 1604:0.095328003 1753:0.13849699 1756:0.086906999 1757:0.124522 1824:0.29184499 2144:0.102135 2385:0.115053 2406:0.177948 2445:0.13849699 2651:0.250101 4354:0.19612899 4961:0.17040201 6708:0.206764 7860:0.188583 11417:0.206764 #
1.0000000231766961178436758928001 9:0.081308998 10:0.038637999 30:0.14966699 35:0.018136 37:0.113555 65:0.066967003 75:0.050106999 86:0.080410004 94:0.070092998 121:0.054916002 142:0.043088999 156:0.036408 164:0.057197999 179:0.082107998 232:0.059438001 236:0.040562999 239:0.021762 256:0.061733998 271:0.074410997 290:0.057278998 324:0.076967001 383:0.055668999 387:0.076967001 389:0.077872999 436:0.16097499 440:0.078635998 486:0.13969199 491:0.084331997 559:0.141038 611:0.086177997 681:0.114073 780:0.062843002 807:0.04888 811:0.075010002 817:0.097815998 837:0.071661003 851:0.19163699 1004:0.068187997 1026:0.207939 1093:0.090148002 1140:0.086860001 1209:0.090407997 1298:0.104256 1338:0.093722999 1417:0.24627 1433:0.101812 1450:0.091880001 1693:0.173384 1731:0.096982002 2165:0.103417 2271:0.25288701 2947:0.172298 3397:0.134288 3420:0.17745499 4722:0.17003401 5975:0.187544 7947:0.22298101 9334:0.37753901 9804:0.22298101 9805:0.22298101 #
1.0000000231766961178436758928001 9:0.156665 35:0.059165999 156:0.118775 169:0.20729101 232:0.114525 247:0.248742 420:0.48298901 474:0.2392 721:0.30019099 929:0.510571 1209:0.29494101 1693:0.334075 #
1.0000000231766961178436758928001 9:0.145528 11:0.019691 14:0.078157 23:0.039349999 27:0.098334998 35:0.017847 38:0.057712 46:0.112856 50:0.056848999 58:0.082681 63:0.080160998 69:0.050220001 75:0.049309999 85:0.067754 95:0.07119 104:0.083908997 105:0.031734001 145:0.058818001 149:0.077896997 156:0.100024 197:0.064588003 214:0.060612001 217:0.058132 239:0.021415999 280:0.106403 324:0.075741999 351:0.059255999 370:0.044895999 465:0.082073003 474:0.072154999 539:0.084917001 583:0.090148002 723:0.052372999 778:0.063539997 799:0.091240004 804:0.190607 817:0.096258998 874:0.06842 919:0.224786 1007:0.10097 1018:0.313921 1108:0.146284 1298:0.102596 1338:0.220092 1374:0.16050801 1417:0.242351 1570:0.10763 1693:0.31032601 2034:0.122526 2845:0.165264 2947:0.16955499 2949:0.177563 3694:0.171977 3956:0.404199 3957:0.177563 #
1.0000000231766961178436758928001 2:0.081230998 9:0.075433001 11:0.018564001 17:0.13955601 19:0.070735998 42:0.066234998 44:0.057463001 55:0.175014 56:0.063987002 63:0.044633001 75:0.046486001 94:0.065027997 105:0.029916 112:0.026497999 123:0.062392998 126:0.026053 137:0.045853999 138:0.061657 142:0.039974999 205:0.048891999 212:0.068965003 214:0.057140999 219:0.052510001 232:0.032568 233:0.092036001 239:0.020189 256:0.057273 287:0.15962 328:0.14722 387:0.071405001 420:0.13735101 436:0.149341 447:0.108163 493:0.059999 512:0.097119004 544:0.07209 596:0.120016 665:0.079846002 723:0.049373999 780:0.058302 793:0.11633 804:0.085625 806:0.189217 861:0.110391 926:0.099202998 945:0.089670002 1004:0.107109 1026:0.125172 1125:0.211165 1236:0.108163 1312:0.098348998 1341:0.182623 1512:0.126353 1516:0.227063 1542:0.102676 1616:0.231437 1650:0.174026 1659:0.12760299 1669:0.142423 1693:0.226705 1863:0.10343 2064:0.142773 2329:0.113193 2557:0.196226 2603:0.196226 3797:0.16213 4707:0.188677 6932:0.206866 7924:0.18282101 #
1.0000000231766961178436758928001 35:0.054471999 113:0.126104 114:0.24391501 124:0.206607 434:0.209387 885:0.247492 933:0.195354 1014:0.31061399 3606:0.43416601 3955:0.39625001 6282:0.54193699 #
-0.43836623270458696666196374280844 9:0.043809999 11:0.018254999 12:0.067415997 16:0.072697997 19:0.069559 30:0.21043099 37:0.049362998 44:0.056506 62:0.059629999 63:0.043889999 69:0.078826003 70:0.055638 81:0.070513003 87:0.031509001 88:0.057466 91:0.055344999 95:0.065995999 110:0.14879701 113:0.038302999 169:0.057967 192:0.078414999 198:0.073863 202:0.074206002 236:0.062655002 239:0.019853 241:0.038933001 350:0.073639996 370:0.041620001 389:0.071042001 436:0.146855 440:0.071739003 451:0.124857 510:0.082957998 572:0.178602 676:0.062045 677:0.078414999 688:0.111675 722:0.070662998 837:0.065375999 851:0.2464 921:0.111675 926:0.097551003 933:0.059337001 956:0.088776998 993:0.098146997 1026:0.123088 1125:0.125935 1224:0.155119 1298:0.095110998 1411:0.141543 1417:0.13269299 1513:0.122509 1523:0.117433 1557:0.107591 1693:0.093420997 1756:0.085502997 1765:0.117433 1906:0.101959 2165:0.094346002 2271:0.285954 2329:0.111308 2947:0.157185 3049:0.140396 6116:0.203422 7976:0.179777 8249:0.192959 9334:0.42690501 #
-0.54122010262414965708899217133876 3:0.083944999 6:0.041784 9:0.14529601 31:0.060497001 42:0.131005 61:0.095276996 75:0.054304 83:0.068267003 114:0.088012002 137:0.053564999 164:0.061988998 197:0.120434 239:0.023584999 370:0.049442999 383:0.143969 419:0.057263002 433:0.072513998 443:0.065747999 448:0.15014599 458:0.082207002 474:0.079462998 741:0.095147997 782:0.100328 783:0.077591002 817:0.106009 874:0.12757801 885:0.15120199 931:0.198852 991:0.169917 1015:0.140057 1027:0.20116 1127:0.285386 1174:0.18200301 1461:0.123955 1683:0.295113 1693:0.232905 1769:0.123302 1949:0.142372 2004:0.146898 2035:0.24165601 2551:0.122664 3147:0.15059599 3950:0.16957299 9416:0.22922599 11920:0.22922599 14281:0.262905 #
-0.0067510954384600758981793688917605 2:0.069130003 13:0.076700002 15:0.032798 23:0.053454001 35:0.034169 42:0.056366999 111:0.085367002 142:0.034019999 149:0.062495999 239:0.036056999 284:0.076700002 293:0.057721 303:0.197753 370:0.03602 383:0.074417002 397:0.058807999 414:0.067951001 420:0.116889 493:0.051059999 719:0.063557997 731:0.103215 810:0.088905998 855:0.062018 885:0.065058 915:0.31303301 928:0.114903 929:0.17415 938:0.116327 1019:0.090544 1118:0.114838 1127:0.067515001 1236:0.092050001 1300:0.226767 1408:0.199661 1417:0.274037 1423:0.092050001 1511:0.111498 1826:0.11557 2056:0.31378299 2187:0.110886 2259:0.099358 2371:0.114838 2577:0.119642 3724:0.120553 8046:0.16699401 8733:0.17604899 8734:0.45704499 8735:0.19152901 #
-0.12601799294642782034436834237567 10:0.065894 11:0.020155 19:0.076800004 68:0.113423 69:0.087030999 75:0.050471 83:0.063447997 85:0.069348998 86:0.080992997 105:0.032481 115:0.054428998 121:0.055314001 128:0.072453 137:0.104478 149:0.079731002 150:0.084732004 162:0.087144002 178:0.094700001 194:0.086802997 205:0.053082 212:0.074876003 213:0.097520001 227:0.089158997 232:0.035360001 256:0.062182002 276:0.040167 281:0.29925901 290:0.057693999 291:0.101584 327:0.056150001 389:0.078437001 399:0.112295 443:0.103462 450:0.080444999 452:0.095595002 458:0.076403998 550:0.167988 552:0.086133003 594:0.103146 702:0.139965 721:0.092684001 759:0.084004998 807:0.049235001 810:0.19204199 882:0.111477 937:0.082025997 1064:0.28687099 1098:0.14744 1256:0.114598 1403:0.116139 1450:0.194217 1470:0.188904 1524:0.217011 1583:0.103146 1588:0.150442 1681:0.100835 1784:0.132322 1917:0.132322 2166:0.149406 2255:0.20484801 2396:0.123299 3078:0.169155 4447:0.173547 7019:0.20484801 11388:0.22459701 #
-0.77637213083737299790243469033157 9:0.095826 10:0.067805998 37:0.045247 89:0.059259001 115:0.076508 156:0.030445 216:0.056141999 219:0.04733 221:0.037905 224:0.218043 232:0.029355001 238:0.067625999 239:0.018198 276:0.033346001 322:0.059096001 327:0.046615001 358:0.111785 393:0.050239999 415:0.071598999 434:0.15211999 436:0.134609 443:0.050730001 459:0.16396201 493:0.054079998 721:0.183616 724:0.10137 739:0.080287002 1004:0.057020001 1025:0.095642 1142:0.068741001 1164:0.199946 1296:0.073918 1312:0.088647999 1397:0.075819001 1693:0.20434099 2016:0.124036 2022:0.171634 2420:0.329119 2572:0.110321 3908:0.21967 4903:0.40017 7571:0.34346399 7572:0.39130601 #
1.0000000231766961178436758928001 6:0.140075 11:0.062139999 18:0.20074899 51:0.103704 83:0.081975996 91:0.078950003 94:0.091218002 99:0.132599 106:0.154852 112:0.03717 114:0.062419999 142:0.056076001 143:0.074019998 145:0.077783003 146:0.096933998 181:0.196082 199:0.110299 206:0.151305 226:0.075554997 232:0.045685001 236:0.052788001 238:0.105245 239:0.02832 241:0.055537999 247:0.099225998 249:0.082039997 257:0.1029 315:0.086126998 330:0.12887301 351:0.078362003 352:0.061301999 354:0.076375 383:0.15203799 419:0.068761997 448:0.075554997 453:0.090480998 470:0.084991999 508:0.104407 566:0.170247 621:0.140082 738:0.089050002 799:0.120659 874:0.090480998 904:0.38269401 993:0.082690999 1075:0.156277 1119:0.25636899 2474:0.198709 2658:0.41166401 9288:0.27525699 #
1.0000000231766961178436758928001 6:0.036164999 8:0.05965 9:0.107494 11:0.01877 24:0.088895999 35:0.017012 41:0.046681002 43:0.059461001 89:0.112551 94:0.065748997 103:0.097203001 108:0.062604003 112:0.056225002 120:0.115595 126:0.055282 131:0.102464 133:0.145537 137:0.046363 156:0.071671002 157:0.19743299 164:0.112598 170:0.077853002 181:0.067346998 192:0.080628 197:0.10424 229:0.080213003 241:0.040031999 249:0.059133999 282:0.062445998 286:0.240944 297:0.15704501 311:0.082131997 330:0.092891 340:0.164124 350:0.044721 354:0.055050999 389:0.073046997 431:0.116387 444:0.079603001 449:0.24097399 473:0.177503 493:0.060664002 656:0.074499004 668:0.063031003 682:0.071080998 701:0.081693999 737:0.155624 743:0.090664998 803:0.083609998 810:0.105628 914:0.162599 929:0.086705998 945:0.090664998 1108:0.082354002 1353:0.079805002 1396:0.114078 1618:0.108157 1635:0.12429 1768:0.121711 1860:0.237215 2803:0.137308 3404:0.149427 4222:0.18485001 4289:0.190771 7598:0.198404 7599:0.22755399 7600:0.22755399 7601:0.209162 #
1.0000000231766961178436758928001 3:0.092634 10:0.046209 11:0.070496999 18:0.070698 19:0.091186002 44:0.043749999 51:0.199999 60:0.069038004 83:0.075333998 89:0.084752001 94:0.083826996 99:0.058065001 143:0.068021998 145:0.15001 181:0.14538001 183:0.181504 199:0.17162099 206:0.172342 223:0.085621998 239:0.026025999 300:0.075571001 351:0.121928 354:0.118836 358:0.159872 369:0.15916 370:0.054561 383:0.158871 387:0.092046998 433:0.080020003 443:0.072553001 453:0.083149999 489:0.15916 750:0.146883 780:0.15772501 799:0.23269799 874:0.140784 904:0.38457099 986:0.12651201 1364:0.31584799 1666:0.140634 1784:0.15710901 1948:0.158462 2062:0.135711 4717:0.17395 7499:0.29011899 #
1.0000000231766961178436758928001 12:0.065169998 69:0.094448 73:0.091571003 127:0.074745998 131:0.056896001 138:0.099235997 142:0.090680003 149:0.069807999 179:0.122602 180:0.159633 204:0.074372001 214:0.054318 232:0.064971 236:0.035772 239:0.019192001 248:0.050981998 257:0.069730997 272:0.046234999 280:0.095354997 293:0.064475 357:0.083309002 385:0.045818001 394:0.077114001 434:0.17163999 443:0.112279 452:0.049433 472:0.209713 510:0.080195002 685:0.087177001 724:0.18101101 771:0.076805003 780:0.093837 904:0.108678 906:0.1939 951:0.14083099 1103:0.107601 1121:0.101686 1126:0.062153999 1296:0.077955998 1364:0.204832 1370:0.145806 1371:0.26497301 1372:0.34931299 1610:0.140486 1731:0.144812 1806:0.107955 2024:0.20239399 2187:0.12386 2247:0.13572 3363:0.196647 3364:0.179355 3365:0.107955 3366:0.162064 3367:0.16539501 3368:0.151949 3369:0.14995299 3370:0.196647 #
1.0000000231766961178436758928001 22:0.063623004 35:0.017537 36:0.035298999 38:0.056708001 53:0.242562 64:0.083549999 70:0.058972999 71:0.098075002 83:0.060911 98:0.11454 126:0.027155001 134:0.14996099 138:0.064264998 142:0.070547 150:0.13772701 163:0.09883 197:0.107456 204:0.13807 209:0.081955999 216:0.064920999 236:0.125406 239:0.021043001 246:0.093778998 276:0.038559999 291:0.097521998 322:0.14341301 350:0.046100002 354:0.056749001 387:0.074424997 397:0.072025001 434:0.141472 445:0.231143 458:0.073348999 512:0.101227 525:0.121688 764:0.093305998 807:0.080027997 832:0.129853 838:0.090912998 858:0.059287 896:0.079209 906:0.122193 1126:0.068149999 1268:0.075956002 1296:0.144724 1444:0.314192 1477:0.098261997 1561:0.095757 1977:0.117598 2001:0.134368 3371:0.119162 3982:0.45249599 3983:0.389433 #
-1.0000000231766961178436758928001 7:0.106515 10:0.084831998 35:0.018974001 44:0.038272001 88:0.065900996 105:0.033736002 112:0.029881001 113:0.043924998 114:0.050179999 138:0.069528997 150:0.088008001 181:0.075112998 205:0.055135 208:0.054319002 232:0.062183999 236:0.110736 239:0.022767 241:0.075594999 325:0.10611 350:0.049876999 353:0.085799001 356:0.078317001 397:0.13194001 434:0.190318 443:0.063469 452:0.099290997 472:0.248781 490:0.143896 508:0.083934002 524:0.16369601 557:0.260988 654:0.094720997 665:0.090042002 780:0.15689 906:0.20375 1004:0.071337998 1075:0.125632 1090:0.175695 1217:0.078004003 1364:0.115787 1371:0.443021 1731:0.101462 1950:0.15123101 2022:0.12682401 2210:0.224397 2240:0.206165 2444:0.154144 3369:0.30118999 4131:0.18877 #
-0.22086929385042622375756593555707 6:0.061028998 9:0.094218999 11:0.018707 23:0.078452997 32:0.073275998 35:0.016954999 43:0.059262998 48:0.067185 52:0.092745997 58:0.078547999 70:0.096537001 83:0.05889 85:0.064366996 86:0.075175002 92:0.085262999 94:0.065530002 98:0.052767999 114:0.044840999 121:0.051339999 164:0.053474002 174:0.093763001 183:0.14188699 198:0.075692996 201:0.091289997 208:0.126662 239:0.020345001 244:0.044064999 256:0.057714999 271:0.069567002 315:0.104759 318:0.119415 435:0.091606997 443:0.056717001 444:0.079337001 460:0.095002003 518:0.090060003 637:0.085897997 647:0.31554201 656:0.074249998 690:0.089910001 737:0.155104 780:0.099474996 807:0.045697998 855:0.073435999 869:0.104486 881:0.103469 887:0.088316001 904:0.19506501 908:0.099751003 1109:0.235605 1211:0.097269997 1303:0.12858801 1348:0.072568998 1367:0.129241 1501:0.092745997 1555:0.100633 1569:0.124976 1615:0.173529 2034:0.116402 3123:0.168688 5136:0.15517899 10541:0.55204397 #
-0.46593065220808010939990140286682 6:0.099825002 11:0.087719999 15:0.10756 37:0.140099 58:0.217538 87:0.089427002 113:0.108708 137:0.12797201 145:0.32477099 181:0.390118 186:0.267234 206:0.177793 214:0.159474 324:0.19928101 352:0.121964 428:0.243048 448:0.15032201 760:0.170642 791:0.227318 807:0.126559 825:0.19133399 837:0.185545 961:0.35612401 977:0.224896 #
-0.0070448346599908222287478309908693 6:0.033266999 16:0.068759002 22:0.13547701 50:0.049846001 62:0.095491998 76:0.033996999 105:0.027824 128:0.062066998 156:0.031415001 191:0.105278 226:0.050096001 236:0.073452003 239:0.018777 241:0.077279001 257:0.162807 293:0.063083 294:0.100318 370:0.082612 392:0.060316999 453:0.059992 647:0.138772 740:0.080996998 770:0.240124 941:0.196236 949:0.224832 1240:0.172805 1348:0.113403 1405:0.173859 1479:0.413766 1678:0.246499 1756:0.136925 1906:0.096435003 1942:0.304102 2124:0.350106 2159:0.28095099 2163:0.104936 2439:0.19033401 6707:0.175483 #
-0.85537697419058345005282717465889 6:0.037147999 8:0.061271001 11:0.01928 16:0.129999 19:0.073464997 35:0.017473999 36:0.073813997 41:0.081184 44:0.073971003 54:0.104179 60:0.055620998 69:0.083251998 75:0.081743002 99:0.046780001 108:0.064305 112:0.027519001 126:0.027058 142:0.041517001 164:0.055110998 206:0.13884801 216:0.109527 232:0.057269 241:0.069620997 272:0.085527003 300:0.060883999 337:0.078832 351:0.058017001 368:0.118735 383:0.053638 415:0.082497999 431:0.119549 443:0.058453001 506:0.11643 671:0.068852998 764:0.157415 771:0.083912998 780:0.102521 803:0.145409 811:0.072273001 863:0.098667003 885:0.134426 903:0.104179 904:0.30983099 1100:0.11643 1171:0.159851 1347:0.112019 1517:0.115704 2077:0.112653 3409:0.184902 4772:0.65157402 10594:0.23373599 #
1.0000000231766961178436758928001 2:0.249704 10:0.110191 19:0.217445 35:0.051722001 113:0.119737 114:0.136787 143:0.16220801 475:0.287083 722:0.220898 778:0.184137 787:0.23333301 1234:0.26983401 1334:0.31190899 1424:0.27704901 1515:0.25243899 1549:0.293185 1736:0.265223 2616:0.360203 #
1.0000000231766961178436758928001 11:0.02658 16:0.062518001 19:0.059819002 36:0.02864 41:0.039043002 62:0.051279999 69:0.040036999 89:0.055597998 91:0.047596 112:0.022407999 113:0.03294 114:0.063712999 126:0.037303999 137:0.038777001 169:0.049851 174:0.078685001 181:0.056327 184:0.117099 195:0.083892003 243:0.061694 244:0.036977999 257:0.191029 271:0.058378998 312:0.063520998 315:0.051922001 338:0.192737 392:0.054841999 552:0.067088999 570:0.078253999 592:0.054016002 775:0.149582 783:0.056169 890:0.122756 933:0.107089 991:0.058612999 1122:0.198882 1125:0.166912 1131:0.12568399 1260:0.105355 1398:0.201546 1441:0.13175499 1445:0.108457 1472:0.128791 1686:0.093923002 1689:0.126177 2056:0.179208 2875:0.139222 3818:0.26176801 4207:0.13175499 4246:0.165941 4599:0.367129 5112:0.15055799 6738:0.154604 7875:0.17493901 9790:0.26176801 10323:0.154604 10507:0.190321 10508:0.190321 10509:0.17493901 #
1.0000000231766961178436758928001 9:0.152739 10:0.067569003 11:0.049318001 35:0.031716 44:0.037783999 48:0.074224003 69:0.052708 76:0.040695 94:0.072394997 104:0.052012999 112:0.076977998 114:0.049539998 126:0.060869999 142:0.044505 150:0.086884998 175:0.12859701 179:0.084804997 194:0.089009002 236:0.041894998 239:0.022476999 240:0.049810998 276:0.041187 293:0.075510003 314:0.112184 336:0.28023499 338:0.17291901 436:0.098196998 445:0.14973301 450:0.082488999 453:0.07181 491:0.087100998 706:0.143521 719:0.14077801 789:0.105562 794:0.099330001 894:0.065994002 896:0.084605001 910:0.079411 958:0.12181 960:0.21928 1037:0.109029 1069:0.095325999 1122:0.30898401 1128:0.30960801 1168:0.20999999 1299:0.10768 1425:0.161607 1433:0.105156 1534:0.21928 1540:0.092320003 1693:0.221964 1897:0.138699 2045:0.173453 2129:0.15217701 2585:0.180499 6267:0.230304 #
1.0000000231766961178436758928001 10:0.031394999 11:0.034120999 12:0.060045 35:0.014736 48:0.058391999 69:0.087020002 75:0.085444003 76:0.032015 88:0.051183 99:0.039450001 105:0.026202001 114:0.065986998 195:0.086886004 205:0.089864999 207:0.087076999 231:0.058557998 232:0.048296001 236:0.055805001 239:0.017682999 256:0.050161999 261:0.079617999 270:0.087269001 284:0.078936003 350:0.065589003 370:0.037069999 387:0.062538996 420:0.149106 429:0.076514997 436:0.077252001 458:0.061634999 508:0.065188996 533:0.080753997 654:0.073567003 676:0.055261999 681:0.156937 722:0.062937997 778:0.125195 787:0.112562 850:0.192183 855:0.178186 856:0.08337 858:0.049818002 909:0.10543 914:0.140848 1100:0.098187998 1104:0.096978001 1108:0.071337 1408:0.20548201 1440:0.117456 1515:0.071924001 1756:0.076154999 1896:0.092935003 1941:0.109115 3057:0.091498002 3589:0.171863 3590:0.33374199 3591:0.30887699 3592:0.33374199 3593:0.413665 3594:0.19711301 #
1.0000000231766961178436758928001 2:0.102607 10:0.076664001 11:0.023449 23:0.13082001 30:0.103588 31:0.065416001 37:0.063409001 41:0.058318 43:0.074284002 44:0.042869002 49:0.160219 50:0.067697003 63:0.095457003 64:0.101254 69:0.059803002 71:0.118856 75:0.058719002 88:0.073817 95:0.084775001 99:0.056896001 112:0.056669999 115:0.063325003 127:0.099321999 129:0.22877701 142:0.085495003 205:0.061758 208:0.103018 222:0.097615004 223:0.083898999 232:0.041138999 236:0.080482997 239:0.025502 256:0.072343998 272:0.061437 327:0.065325998 370:0.090520002 393:0.070405997 434:0.13832299 530:0.138823 575:0.102059 671:0.14178801 807:0.057280999 855:0.155855 859:0.34610701 874:0.081476003 933:0.198893 935:0.097735003 1004:0.079907998 1014:0.121192 1126:0.082589999 1200:0.29846799 1223:0.133678 1297:0.14747301 1772:0.152052 1994:0.123966 2184:0.110351 2231:0.19237401 3085:0.29846799 6029:0.199257 8386:0.24786299 #
-0.44153351369160015460479939974903 2:0.091889001 11:0.054795999 15:0.043595999 44:0.038391002 59:0.061280001 69:0.053555999 87:0.036247 124:0.12223 155:0.074029997 184:0.092514001 211:0.102477 214:0.064639002 239:0.022838 257:0.082979999 328:0.098359004 338:0.19978499 341:0.081462003 356:0.078561001 370:0.047878001 397:0.078169003 448:0.060929 453:0.072965004 458:0.079605997 459:0.166017 559:0.087419003 570:0.104677 671:0.074995004 677:0.152731 706:0.246911 778:0.067760997 825:0.077551998 933:0.068259001 964:0.105841 965:0.13729 984:0.223611 991:0.078404002 1060:0.27919599 1122:0.32596099 1125:0.20417801 1128:0.149903 1339:0.139054 1422:0.092137001 1440:0.151702 1441:0.17624301 1442:0.18935899 1443:0.15566599 1444:0.340992 1445:0.145078 1446:0.124133 1447:0.128893 1448:0.12804399 1449:0.130665 1450:0.096423 #
-0.61646128329660521139032880455488 11:0.070997998 23:0.16133 35:0.030663 45:0.106668 48:0.20572001 63:0.08134 112:0.048289999 115:0.091362 123:0.113706 134:0.12494 143:0.096165001 233:0.16772801 236:0.068581 247:0.128912 318:0.215958 352:0.079641998 634:0.154651 671:0.12082 785:0.15846001 825:0.12494 859:0.45664799 933:0.18619201 977:0.146856 1309:0.21679001 1424:0.164248 1595:0.277549 2029:0.25078601 2260:0.227044 2920:0.28748 3085:0.25433001 #
-0.14397829599010941725723000672588 10:0.068035997 44:0.038045 49:0.067754 50:0.060077999 53:0.22942699 60:0.060035001 62:0.067975998 70:0.063426003 73:0.182835 75:0.052111 104:0.124978 113:0.043664999 142:0.106936 163:0.106292 169:0.066082001 216:0.069822997 221:0.079818003 227:0.092056997 239:0.022631999 256:0.064202003 356:0.077853002 383:0.057895001 389:0.080986999 390:0.086211003 393:0.062483002 444:0.088256001 445:0.186874 450:0.083059996 559:0.086630002 560:0.136536 575:0.090572998 656:0.082597002 737:0.172539 751:0.161356 858:0.063763 881:0.19488101 882:0.1151 906:0.077619001 926:0.23337901 928:0.089391999 929:0.096129999 1126:0.073294997 1129:0.162725 1154:0.121943 1405:0.099850997 1412:0.136051 1475:0.109096 1515:0.092056997 1583:0.106498 1997:0.33588001 1998:0.122295 1999:0.15223201 2000:0.44387001 2001:0.14451399 2002:0.181747 #
-1.0000000231766961178436758928001 23:0.068058997 45:0.107382 105:0.054885 112:0.048613001 198:0.233325 205:0.089698002 236:0.06904 354:0.099889003 383:0.160427 394:0.148828 491:0.243027 540:0.43350101 806:0.34714201 967:0.168851 1018:0.22752801 1122:0.27995801 1125:0.234955 1309:0.21824101 1398:0.20835 1693:0.29510701 2077:0.199002 2824:0.232943 #
-0.057290275343795438178773338222527 11:0.03297 16:0.077546999 19:0.12563001 23:0.038913 31:0.054322999 35:0.017649001 36:0.035523999 56:0.067119002 58:0.081762001 63:0.079269998 69:0.084083997 76:0.038343001 92:0.088752002 98:0.054926999 104:0.102847 112:0.047060002 113:0.040858001 114:0.046675999 125:0.096368 131:0.13175599 156:0.059987999 205:0.086833 219:0.093258999 221:0.044112001 223:0.069672003 231:0.070132002 232:0.057842001 239:0.021176999 241:0.041529998 276:0.038807001 294:0.113139 341:0.075538002 350:0.046395 352:0.045839999 354:0.057110999 370:0.044397 375:0.300107 383:0.054173999 384:0.107187 390:0.080669999 530:0.068086997 550:0.095857002 583:0.089146003 623:0.080187999 627:0.087853 668:0.065390997 722:0.075377002 787:0.079620004 806:0.34533399 874:0.067659996 1027:0.106682 1126:0.068584003 1285:0.13384899 1405:0.093433999 1415:0.20373601 1427:0.090502001 1606:0.122024 1816:0.46569699 2153:0.135226 2292:0.156509 3371:0.119922 3924:0.394853 #
1.0000000231766961178436758928001 1:0.057250001 44:0.051367 48:0.059597 75:0.070358001 82:0.095884003 86:0.066684999 87:0.028643001 89:0.058770001 104:0.041763999 105:0.026743 113:0.058954 115:0.075875998 126:0.023289001 142:0.035734002 194:0.071469001 226:0.048147999 236:0.056956001 256:0.051197 323:0.074547999 326:0.077483997 327:0.04623 340:0.060805999 383:0.046167001 443:0.105584 448:0.081520997 493:0.053633001 513:0.096417002 532:0.082569003 572:0.077363998 671:0.059262998 699:0.066012003 731:0.064032003 791:0.17374501 811:0.062206 812:0.079102002 819:0.175409 837:0.059429999 896:0.067932002 1004:0.056549001 1138:0.182191 1353:0.070556 1420:0.080980003 1515:0.073408 1613:0.217457 2077:0.096963003 2128:0.115848 2191:0.103256 2325:0.134718 2711:0.106752 2903:0.13765401 3352:0.23875199 3491:0.099899001 3643:0.133377 3703:0.221642 4009:0.132108 5744:0.16866 6585:0.163425 9385:0.15914799 11423:0.36811501 14293:0.340628 14294:0.20118 14295:0.20118 14296:0.20118 #
1.0000000231766961178436758928001 9:0.051878002 10:0.04174 11:0.045364 23:0.043196999 35:0.019592 36:0.039434999 60:0.062362 76:0.042564001 95:0.078148998 105:0.034836002 124:0.074311003 126:0.051364999 137:0.053394001 156:0.039331 206:0.125599 271:0.080385 275:0.100159 313:0.069470003 316:0.09629 363:0.12666801 497:0.045028001 676:0.073471002 731:0.083410002 737:0.179225 803:0.09629 851:0.25659901 861:0.128543 926:0.115515 932:0.18613 1202:0.14016899 1220:0.162503 1305:0.104415 1596:0.144412 1767:0.231021 1849:0.21970101 2196:0.33402899 3516:0.175487 13673:0.443712 13674:0.443712 #
1.0000000231766961178436758928001 2:0.082929 5:0.067619003 13:0.092010997 59:0.116063 61:0.083265997 68:0.22382399 87:0.032713 94:0.066386998 98:0.053459 105:0.030541999 114:0.045428 126:0.055819001 128:0.068127997 155:0.140213 163:0.20314901 164:0.12927601 170:0.078608997 180:0.071843997 194:0.081621997 205:0.049913999 239:0.020610999 241:0.04042 244:0.044642001 271:0.070477001 313:0.060906999 315:0.062682003 443:0.183709 448:0.054988001 452:0.053089999 453:0.065851003 457:0.072365999 483:0.081515998 523:0.073914997 534:0.141463 546:0.089472003 668:0.18748701 722:0.073362 731:0.073128998 739:0.090935998 760:0.062421001 825:0.069991 858:0.05807 974:0.090341002 975:0.141949 977:0.082268 1090:0.159059 1240:0.11203 1650:0.084657997 1947:0.137762 2450:0.155481 3147:0.131611 3212:0.16318899 8670:0.174051 9385:0.381441 9571:0.211192 9572:0.482182 #
1.0000000231766961178436758928001 11:0.036061 15:0.044217002 61:0.093575001 91:0.064572997 112:0.030401001 113:0.075664997 124:0.073218003 126:0.029890999 156:0.114161 162:0.092087999 181:0.076419003 197:0.118282 219:0.060245 223:0.129025 225:0.103757 232:0.037365999 235:0.14496601 236:0.043175001 239:0.023163 241:0.095328003 248:0.061531998 267:0.121618 276:0.042445 292:0.069514997 300:0.067258999 312:0.086177997 352:0.050138 363:0.124805 397:0.079282001 460:0.108161 464:0.138708 494:0.090671003 597:0.154476 723:0.056648001 735:0.278119 760:0.070150003 777:0.088662997 803:0.094873004 858:0.110494 975:0.094217002 978:0.105404 1011:0.16380399 1017:0.194858 1108:0.093447998 1217:0.079360999 1221:0.131613 1312:0.112837 2121:0.13924401 2196:0.43781799 2306:0.1953 2415:0.29275399 3694:0.186012 6815:0.35514 #
1.0000000231766961178436758928001 6:0.033746999 10:0.03382 27:0.087466002 32:0.068605997 36:0.031953 37:0.080192 38:0.051332999 42:0.062492002 101:0.098566003 105:0.059234999 112:0.025 113:0.03675 122:0.042316001 181:0.062844001 208:0.045446001 236:0.035505001 239:0.019048 272:0.045889001 282:0.09866 284:0.085033 297:0.118231 321:0.076029003 352:0.041232001 383:0.082502998 422:0.186665 433:0.058566999 491:0.073816001 497:0.087061003 575:0.076231003 616:0.080785997 738:0.14292599 767:0.077693999 777:0.072912 785:0.082037002 794:0.084179997 843:0.10323 855:0.068755999 895:0.085472003 928:0.075236998 981:0.091256 991:0.065393001 993:0.13271999 1077:0.092791997 1127:0.07485 1397:0.079364002 1511:0.259415 1599:0.10544 1613:0.109367 1638:0.112235 1987:0.277978 2024:0.118644 2184:0.082424998 3390:0.344506 3837:0.62553102 #
-1.0000000231766961178436758928001 6:0.044075999 9:0.131005 10:0.044171002 11:0.022875 35:0.020733001 44:0.041820999 60:0.065994002 61:0.100503 69:0.122432 75:0.057282999 76:0.045042999 81:0.088361003 89:0.081014 91:0.069353998 94:0.080130003 98:0.064525001 104:0.097475998 112:0.032651 113:0.081266999 121:0.106295 126:0.054357 156:0.087347001 183:0.102472 216:0.076752 232:0.067948997 236:0.078514002 239:0.024878001 248:0.066087998 257:0.090392001 276:0.045588002 284:0.111058 297:0.091201 312:0.092559002 340:0.083820999 350:0.09228 414:0.098390996 444:0.097015001 448:0.112376 560:0.150087 569:0.16628 576:0.163293 594:0.117068 597:0.079057999 791:0.100367 881:0.214221 889:0.120933 895:0.11163 896:0.093644001 929:0.105671 1217:0.085236996 1344:0.138584 1574:0.154228 2196:0.401939 2306:0.39609599 3639:0.165253 4362:0.18975499 4516:0.349251 #
-0.17428322146818975291182596265571 8:0.135427 11:0.042614002 15:0.052251998 23:0.050296001 35:0.022812 50:0.072660998 89:0.089135997 122:0.12761299 126:0.035321999 136:0.36242801 143:0.15013801 151:0.110132 156:0.077536002 162:0.108822 164:0.171681 209:0.1805 217:0.074302003 223:0.090052001 240:0.102707 244:0.059285 350:0.059966002 352:0.141386 470:0.21435601 592:0.086599 722:0.097425997 838:0.118257 846:0.212035 855:0.098801002 858:0.077118002 976:0.28962299 991:0.159104 1097:0.179663 1257:0.17388099 1500:0.329815 1511:0.17763001 1736:0.116976 1788:0.131134 2864:0.185323 3014:0.247866 3165:0.18295 4974:0.190603 #
-0.0032088131488104340571787531644077 4:0.123698 10:0.037418 15:0.040229999 35:0.017564001 41:0.048193 88:0.061003 108:0.064632997 112:0.027659999 119:0.070596002 131:0.062477998 138:0.064360999 142:0.070652999 156:0.035257999 162:0.083786003 199:0.138973 213:0.093760997 216:0.065018997 223:0.069334 239:0.021074999 272:0.050771002 274:0.136013 282:0.064470001 313:0.062277 338:0.13080899 340:0.071006998 353:0.079421997 370:0.044181 401:0.086441003 433:0.064797997 465:0.13675199 596:0.19307999 597:0.066972002 676:0.065862998 812:0.092372 835:0.102884 935:0.080767997 1037:0.102229 1104:0.115583 1121:0.111663 1131:0.15514199 1225:0.086562 1232:0.15286499 1240:0.114549 1250:0.14268599 1321:0.252184 1340:0.088063002 1355:0.13676301 1397:0.087807 1471:0.145678 1863:0.107967 1926:0.116294 2062:0.109895 2089:0.12888201 2165:0.100152 2211:0.143648 3352:0.164665 3701:0.330147 3702:0.234929 3703:0.15286499 3704:0.234929 3705:0.234929 3706:0.234929 3707:0.19084001 #
-0.84761186426894263856723910066648 11:0.038995001 44:0.033971 112:0.026523 124:0.134055 126:0.044153001 128:0.174301 138:0.061714999 142:0.083972 170:0.077072002 221:0.042093001 232:0.104226 240:0.044783998 249:0.058540002 440:0.073022 452:0.16029 464:0.071471997 493:0.101683 523:0.122701 560:0.072003998 575:0.080874003 597:0.13477001 692:0.128372 778:0.184637 780:0.058357 791:0.081527002 792:0.101327 812:0.088574 851:0.25080901 855:0.072943002 874:0.064562999 1199:0.119069 1268:0.072943002 1427:0.086360998 1552:0.114823 1736:0.146221 2121:0.121481 2535:0.107962 2900:0.18885501 3212:0.33577299 3452:0.196412 6164:0.162283 6449:0.57806802 6450:0.18299399 #
-0.47200808590082504734297685899946 38:0.063348003 41:0.053755 60:0.062357001 81:0.083492003 87:0.063169003 98:0.060970001 115:0.058371 124:0.12581 126:0.030335 142:0.046544999 169:0.068636 223:0.16229799 232:0.090489 239:0.039801002 240:0.052095 244:0.106847 247:0.082360998 256:0.066684999 265:0.12971599 290:0.061873 300:0.11557 327:0.060215998 330:0.106969 341:0.083848 370:0.049281001 443:0.065531999 465:0.090089001 494:0.092017002 513:0.125586 523:0.084298998 524:0.169016 670:0.108941 686:0.115506 722:0.083668999 735:0.32093999 737:0.17921001 761:0.117868 812:0.103033 813:0.106029 817:0.105661 855:0.143663 877:0.22847401 930:0.12776899 933:0.167657 975:0.095615998 1077:0.193886 1115:0.147837 1122:0.104938 1149:0.106029 1227:0.188774 1374:0.104057 1540:0.096551999 1805:0.122898 1945:0.163689 2024:0.14641599 3835:0.167595 5298:0.219684 11247:0.26204199 11248:0.26204199 #
1.0000000231766961178436758928001 3:0.084211998 9:0.13623901 10:0.042008001 11:0.021755001 32:0.085213996 35:0.033385001 62:0.071062997 69:0.116435 76:0.042837001 98:0.061365001 105:0.059360001 113:0.095794998 126:0.064074002 142:0.046847001 156:0.094456002 198:0.088025004 219:0.061535999 239:0.040059 240:0.14637899 248:0.062850997 276:0.090985 295:0.13096499 350:0.051832002 365:0.12822001 370:0.049600001 392:0.128677 434:0.12833001 470:0.14901 482:0.104732 570:0.227577 633:0.10254 682:0.22999801 701:0.094685003 759:0.090673998 771:0.094685003 785:0.243155 994:0.136327 1004:0.074134 1013:0.088127002 1136:0.39543 1348:0.084392004 1599:0.13096499 1601:0.10864 1606:0.136327 1693:0.265674 1994:0.11501 2574:0.184861 3034:0.166006 6062:0.17847501 11078:0.263742 11079:0.263742 #
1.0000000231766961178436758928001 11:0.044498999 16:0.074262001 38:0.054653 45:0.140303 49:0.060713001 59:0.054416999 69:0.047557998 87:0.032187998 99:0.045246001 104:0.046930999 112:0.026617 113:0.039127 126:0.026171001 171:0.149774 198:0.075452998 203:0.21857899 205:0.049113002 206:0.063992999 217:0.055050999 232:0.032715 238:0.075365998 241:0.039771002 251:0.106028 271:0.069346003 273:0.084991999 276:0.037163001 315:0.061675999 323:0.083772004 338:0.074345998 340:0.068329997 352:0.043898001 364:0.124579 390:0.077252999 429:0.087756 452:0.052237 505:0.10009 539:0.080416001 621:0.100313 722:0.072183996 731:0.12183 778:0.060171999 889:0.098583996 894:0.059546001 919:0.212872 933:0.102629 964:0.093987003 993:0.10026 1013:0.075539999 1026:0.125737 1075:0.11191 1108:0.081817999 1130:0.107453 1339:0.29466099 1413:0.122426 1450:0.085625 1756:0.087343 1779:0.108046 1784:0.122426 1998:0.109588 2009:0.105208 3061:0.137308 3620:0.18364599 4293:0.117706 4505:0.18364599 5290:0.17884 5362:0.261906 5576:0.154686 8349:0.33374 8351:0.207801 8352:0.207801 #
1.0000000231766961178436758928001 11:0.017498 31:0.048813999 44:0.031989999 55:0.078606002 65:0.058559999 104:0.074561998 142:0.063798003 190:0.087380998 191:0.106693 197:0.097175002 198:0.070800997 205:0.078027003 219:0.049495 236:0.035471 239:0.019029999 267:0.153988 276:0.034871001 297:0.118116 350:0.041689999 383:0.04868 389:0.068097003 401:0.078052998 427:0.083273001 443:0.05305 668:0.058759999 770:0.082607001 778:0.134734 807:0.042744 914:0.072228998 928:0.15774 929:0.08083 1108:0.076773003 1126:0.147066 1178:0.098720998 1213:0.113009 1415:0.108127 1416:0.13457499 1469:0.092505001 1695:0.146854 1768:0.113463 2250:0.117429 2259:0.110046 2521:0.14355101 2712:0.194988 2947:0.25510201 2949:0.157783 3385:0.231665 3493:0.390369 3513:0.172323 4876:0.157783 5259:0.14205199 7745:0.184958 8118:0.17784201 12116:0.194988 12451:0.194988 13951:0.194988 13952:0.21213301 #
1.0000000231766961178436758928001 11:0.043981001 35:0.016705001 36:0.033624001 38:0.054017 45:0.151637 49:0.060006998 62:0.060203999 87:0.031812999 99:0.044720002 104:0.078535996 112:0.026307 113:0.038672 126:0.025866 164:0.052684002 171:0.087429002 181:0.066129997 203:0.21603499 206:0.063248001 214:0.056731001 217:0.054409999 238:0.074488997 251:0.21992201 273:0.084003001 276:0.036729999 315:0.060958002 338:0.073480003 340:0.067534998 364:0.123129 390:0.076353997 395:0.085924998 429:0.086735003 505:0.098925002 539:0.07948 621:0.167868 722:0.071344003 741:0.13691799 778:0.059471998 889:0.097436003 894:0.058853 919:0.210394 933:0.059909001 964:0.092894003 991:0.068813004 993:0.122823 1013:0.074661002 1026:0.073398001 1108:0.13691799 1130:0.106203 1227:0.16096599 1339:0.31846499 1413:0.121001 1450:0.084628001 1756:0.086327001 1779:0.106788 1784:0.121001 2037:0.124262 3620:0.181509 3899:0.16619501 4293:0.116336 5290:0.176759 5362:0.258858 5576:0.152886 8349:0.194818 8350:0.223442 8351:0.205382 8352:0.205382 #
1.0000000231766961178436758928001 7:0.086654998 9:0.085777 15:0.035358001 22:0.056001 42:0.060766 43:0.091349997 59:0.049699001 85:0.058600001 86:0.068439998 87:0.029397 114:0.040824 128:0.061223 138:0.056566 142:0.036674999 148:0.20062999 155:0.060040001 237:0.096836001 239:0.031360999 256:0.052544001 290:0.048751999 311:0.074524 327:0.080334 354:0.049950998 385:0.044220001 436:0.080921002 588:0.191257 594:0.087159 661:0.080147997 722:0.065926 777:0.070899002 778:0.093047999 804:0.078555003 882:0.094198003 910:0.065439999 986:0.090037003 1004:0.058037002 1026:0.067823999 1122:0.082685001 1125:0.117493 1140:0.073928997 1178:0.096088 1199:0.184781 1278:0.117067 1338:0.079770997 1422:0.074725002 1547:0.097871996 1681:0.085206002 1693:0.18291301 1706:0.227474 2197:0.118271 2199:0.103847 2272:0.123034 2318:0.167726 2841:0.108304 3798:0.180024 4820:0.15640999 6136:0.29308 7391:0.180024 7621:0.153574 9180:0.189786 12283:0.20647401 12284:0.189786 12285:0.20647401 12286:0.20647401 12287:0.20647401 12288:0.20647401 #
-0.469936855035660794310814480923 10:0.039439 35:0.018511999 45:0.064397998 58:0.085759997 65:0.068355002 99:0.083908997 113:0.072561003 138:0.067837 156:0.062922001 207:0.109387 214:0.062868997 221:0.046269 239:0.022213001 278:0.116437 313:0.065640002 370:0.046567999 385:0.089789003 390:0.17757399 426:0.079487003 443:0.104846 546:0.096423998 559:0.085026003 722:0.165923 723:0.054324001 732:0.145799 737:0.100017 778:0.111588 817:0.16905101 838:0.095967002 856:0.10473 885:0.084109001 889:0.107978 894:0.065219998 919:0.23315699 928:0.087736003 929:0.159749 935:0.085129999 955:0.33165801 960:0.12799101 975:0.090351999 1026:0.239618 1033:0.097520001 1171:0.20989799 1213:0.13191199 1271:0.13037901 1509:0.220751 1665:0.119343 2006:0.116132 2242:0.155856 2272:0.14755 2496:0.175869 2517:0.27041501 9008:0.201147 10208:0.24761599 #
-0.0042562826274156395287007192962392 9:0.093364999 23:0.062723003 24:0.087796003 30:0.081891999 35:0.016802 36:0.033819001 44:0.057381999 87:0.031998001 99:0.044978999 113:0.038897 126:0.026016001 157:0.092914 164:0.052990001 169:0.099668004 170:0.076889999 221:0.071102001 239:0.034134999 286:0.168842 292:0.060504001 323:0.083278 351:0.055783998 352:0.043639001 354:0.054370001 370:0.042265002 410:0.071229003 422:0.094140999 424:0.110908 435:0.153699 473:0.217289 532:0.092238002 545:0.082231 591:0.109259 592:0.063784003 631:0.079120003 651:0.171158 656:0.073577002 682:0.167521 690:0.089094996 719:0.074579 723:0.049304999 771:0.080683 897:0.117445 903:0.26138499 910:0.071229003 914:0.12956101 945:0.089543 970:0.33498201 1004:0.063170999 1137:0.111597 1258:0.124984 1489:0.127423 1635:0.29292199 1860:0.234281 1876:0.148995 1977:0.112667 2060:0.117445 2062:0.105128 2075:0.120696 2376:0.161901 2803:0.135609 4289:0.188411 4680:0.224739 4681:0.20657501 #
-0.30470063772934025125849188952998 3:0.094678998 10:0.047228999 16:0.097405002 23:0.102575 30:0.257837 31:0.068232998 35:0.022169 42:0.20824499 48:0.148729 69:0.062378 99:0.059346002 114:0.099266 142:0.052669998 199:0.175409 220:0.35107699 231:0.088091001 236:0.138419 267:0.082488 276:0.048744 313:0.078605004 349:0.16414499 350:0.058274999 370:0.11703 415:0.104659 458:0.092719004 575:0.106454 595:0.118344 799:0.27043799 886:0.186639 904:0.25503901 905:0.180096 986:0.218932 993:0.077667996 1001:0.13729601 1012:0.155711 1108:0.107315 1146:0.095085002 1577:0.20065901 1650:0.18498801 1888:0.24197599 2064:0.18811101 2165:0.12641101 3057:0.13764299 #
-1.0000000231766961178436758928001 6:0.044764999 11:0.060625002 15:0.048232999 18:0.068637997 35:0.021058001 44:0.071915999 50:0.067073002 51:0.24143399 55:0.104371 59:0.067796998 70:0.070811003 91:0.119263 98:0.065535001 113:0.102304 114:0.055690002 138:0.077165 145:0.069398001 163:0.30965701 164:0.066412002 171:0.110211 172:0.209171 203:0.129765 217:0.068588004 219:0.065716997 239:0.025266999 248:0.067120999 256:0.121361 322:0.082055002 328:0.10882 370:0.089686997 393:0.118111 396:0.105123 429:0.109335 559:0.096717 561:0.105428 668:0.132098 778:0.178896 791:0.30029699 855:0.091202997 952:0.1196 993:0.073775999 1004:0.079172 1020:0.136142 1033:0.110929 1110:0.112604 1202:0.150653 1368:0.112224 1423:0.135369 1478:0.141664 1826:0.169958 1920:0.161341 2001:0.161341 2008:0.194989 2077:0.13575301 3371:0.14308199 3614:0.20290899 9997:0.281663 #
-1.0000000231766961178436758928001 2:0.103062 3:0.091173001 6:0.045382001 9:0.056526002 11:0.023553001 23:0.047067001 35:0.021348 36:0.042968001 43:0.074614003 91:0.120905 94:0.082503997 95:0.085151002 105:0.037957001 124:0.080968998 156:0.072558999 169:0.074791998 170:0.097693004 219:0.066623002 227:0.176411 236:0.140654 239:0.025614999 315:0.0779 324:0.090594999 327:0.065615997 370:0.0537 393:0.070719004 395:0.109805 452:0.065978996 479:0.141349 575:0.102512 722:0.091173001 741:0.21687301 778:0.25099799 789:0.120303 926:0.125865 1026:0.158813 1125:0.095967002 1140:0.10224 1178:0.132884 1305:0.11377 1333:0.134988 1338:0.186786 1413:0.154631 1450:0.108149 1524:0.14977901 1756:0.231517 1767:0.31199899 2317:0.248964 2474:0.179728 2691:0.13254599 3057:0.13254599 12907:0.28554299 12908:0.28554299 #
