SVM-light Version V6.02
0 # kernel type
3 # kernel parameter -d 
1 # kernel parameter -g 
1 # kernel parameter -s 
1 # kernel parameter -r 
empty# kernel parameter -u 
14598 # highest feature index 
2865 # number of training documents 
699 # number of support vectors plus 1 
0.99232594 # threshold b, each following line is a SV (starting with alpha*y)
-0.28501030862882420491288826269738 11:0.025549 15:0.031328 41:0.037528999 59:0.044034999 151:0.066030003 214:0.046448998 241:0.054490998 261:0.073894002 282:0.085001998 297:0.060162 312:0.061058 316:0.067217998 452:0.100872 474:0.055294 482:0.173356 524:0.117997 561:0.068475999 592:0.051920999 778:0.048691999 783:0.091415003 803:0.067217998 807:0.036862001 936:0.096697003 1004:0.051422998 1107:0.099923 1169:0.095601998 1217:0.056228001 1289:0.154294 1298:0.133119 1342:0.069288999 1425:0.117997 1468:0.061774001 1478:0.193096 1490:0.081909999 1606:0.094562002 1617:0.077376001 2054:0.144721 2086:0.144721 2165:0.077990003 2187:0.105915 2430:0.0858 2526:0.31648701 2642:0.141432 2905:0.117005 2929:0.109012 2930:0.234643 2931:0.182942 2932:0.182942 2933:0.182942 2934:0.53893101 2935:0.15336999 2936:0.168156 2937:0.11186 #
1.0000000231766961178436758928001 10:0.03176 11:0.016448 65:0.055046 83:0.051778 91:0.049867 99:0.039909001 112:0.023476999 115:0.044418 126:0.048443001 127:0.069666997 210:0.066170998 239:0.017888 248:0.047518 261:0.080542997 282:0.174954 311:0.071970999 338:0.193178 419:0.043432001 443:0.049867 454:0.083369002 479:0.098707996 544:0.063873 597:0.096245997 665:0.070744999 783:0.058848999 807:0.040178001 810:0.092560999 909:0.106654 1108:0.122188 1127:0.207068 1317:0.073062003 1321:0.123023 1368:0.189588 1429:0.169806 1501:0.081545003 1540:0.073472001 1571:0.092797004 1722:0.122771 1740:0.093765996 1798:0.098707996 1863:0.15515999 2056:0.232722 2147:0.13219801 2278:0.14586499 3828:0.25575501 5069:0.173859 6068:0.33351901 6469:0.161981 6470:0.16717 7657:0.15774199 12098:0.33761799 12099:0.33761799 #
-0.17428683443657855267616696437472 23:0.074781001 35:0.020032 44:0.040406 112:0.031546999 126:0.031018 138:0.073406003 142:0.099880002 143:0.062822998 156:0.040213 214:0.068030998 221:0.050067 248:0.063851997 256:0.068186998 293:0.080751002 327:0.061572999 401:0.098589003 436:0.105012 450:0.088215001 523:0.086198002 546:0.10434 595:0.106938 676:0.075120002 719:0.15054899 723:0.058784001 737:0.108229 858:0.067720003 906:0.082436003 929:0.172864 1004:0.075315997 1468:0.090476997 1552:0.136576 1650:0.23559199 1656:0.183336 1658:0.58616501 1955:0.18549199 2353:0.22463299 2371:0.16065501 2658:0.13389599 3147:0.153483 5025:0.246289 6522:0.26794499 6523:0.22463299 #
0.50640614203500133871926891515614 10:0.059165001 12:0.066831999 15:0.03757 60:0.052207001 74:0.099377997 114:0.043377999 126:0.025397001 131:0.058346 149:0.071588002 156:0.032926001 180:0.068600997 191:0.110344 223:0.064747997 232:0.031748001 236:0.062112 239:0.019680999 240:0.043616001 241:0.100713 292:0.059064001 293:0.066118002 337:0.155286 340:0.066311002 352:0.042601001 385:0.046985999 390:0.12693501 393:0.054336 418:0.092611998 428:0.084894001 474:0.112274 533:0.089879997 550:0.089083001 574:0.104852 585:0.088463001 595:0.087559998 668:0.102893 690:0.086975001 716:0.078346997 773:0.24883699 835:0.096078999 888:0.092974998 894:0.057785999 951:0.144421 952:0.093157999 958:0.106659 979:0.089083001 1212:0.119314 1317:0.080385998 1321:0.13535599 1422:0.079400003 1446:0.18112101 1450:0.083094001 1617:0.092791997 1741:0.096285999 1768:0.19868299 1863:0.100826 2116:0.31503099 2148:0.238846 2346:0.232039 2812:0.116876 3662:0.160487 3832:0.24242599 4648:0.135077 6174:0.40220001 #
-0.16257315495633792301610753838759 11:0.033078998 43:0.061891999 45:0.129274 52:0.096860997 83:0.061503001 87:0.033723 112:0.027887 113:0.086029001 115:0.052760001 126:0.046424001 138:0.064888999 156:0.035548002 217:0.057675999 232:0.071930997 239:0.021248 243:0.161127 250:0.082856998 273:0.089046001 276:0.038934998 282:0.064998001 323:0.087766998 336:0.14028899 338:0.16346399 387:0.075148001 405:0.080263004 454:0.099027999 459:0.091224 760:0.064347997 858:0.059863001 906:0.152927 954:0.114814 961:0.227377 983:0.37876901 991:0.072943002 1004:0.066577002 1069:0.090112999 1122:0.22634301 1125:0.189959 1129:0.152771 1130:0.236258 1131:0.092381001 1216:0.206513 1317:0.086785004 1337:0.166016 1429:0.119127 1441:0.163969 1445:0.134975 1478:0.2017 1663:0.146872 1681:0.097742997 1736:0.153742 1760:0.11653 1935:0.134975 2585:0.17062899 2817:0.192405 3491:0.117614 6363:0.17062899 #
1.0000000231766961178436758928001 9:0.046889 11:0.041002002 35:0.029983001 59:0.057014 60:0.056364998 85:0.067225002 87:0.057099 89:0.069193996 94:0.068438999 103:0.101179 104:0.049171001 105:0.031486001 112:0.027888 114:0.046831999 156:0.035549 164:0.055849001 183:0.087521002 192:0.083926 199:0.140117 202:0.079420999 208:0.050694998 232:0.034277 240:0.079728998 241:0.041669 248:0.056444999 285:0.105101 340:0.071592003 383:0.092032 443:0.059234999 444:0.17389099 445:0.083601996 456:0.180811 457:0.156561 530:0.068314999 671:0.069774002 682:0.125273 697:0.092090003 699:0.077720001 701:0.085036002 707:0.093437999 709:0.126691 740:0.218716 765:0.096009001 780:0.061360002 783:0.069904998 803:0.087030001 805:0.125686 806:0.117618 807:0.047727 808:0.149088 809:0.39969599 810:0.186161 811:0.073239997 812:0.093133003 813:0.095840998 814:0.17617799 815:0.236863 816:0.20652001 817:0.161709 818:0.152812 819:0.34966901 820:0.137132 821:0.18737601 #
1.0000000231766961178436758928001 10:0.03726 35:0.017488999 56:0.066510998 61:0.084776998 65:0.064577997 75:0.048319999 108:0.064359002 112:0.027543001 113:0.084968001 137:0.047662001 142:0.041552 179:0.166164 232:0.057317 239:0.020985 276:0.065109 292:0.062978998 293:0.119367 324:0.074221 331:0.324972 336:0.138558 337:0.078897998 352:0.045423999 355:0.13197801 390:0.079939 397:0.071828 401:0.086074002 433:0.064522997 539:0.14089 582:0.141156 617:0.087182 783:0.116894 835:0.102447 856:0.098941997 933:0.062720999 993:0.061273001 1110:0.093520999 1146:0.075014003 1312:0.102228 1317:0.263951 1321:0.17888901 1335:0.27419701 1336:0.19002999 1337:0.27761999 1338:0.18967099 1339:0.21633901 1340:0.087690003 1341:0.112113 1342:0.150015 1343:0.163967 1344:0.116899 1345:0.146129 1346:0.139395 1347:0.112113 1348:0.074853003 1349:0.101581 1350:0.20396399 1351:0.126682 1352:0.185057 #
1.0000000231766961178436758928001 9:0.054421 63:0.05452 99:0.055020001 113:0.080559 122:0.114974 131:0.073110998 137:0.056010999 151:0.099224001 156:0.098454997 219:0.108601 232:0.067357004 239:0.024661001 248:0.065512002 271:0.084325001 312:0.15535 315:0.074998997 322:0.080086999 350:0.113381 370:0.0517 383:0.132393 385:0.058876 459:0.222201 508:0.090916999 596:0.086585 607:0.15218 615:0.14587399 622:0.12542 719:0.15446199 737:0.26497701 778:0.15355501 780:0.071216002 818:0.177356 887:0.107052 926:0.121177 991:0.084663004 1121:0.130665 1338:0.10621 1509:0.144749 1612:0.182256 1650:0.29840001 1693:0.196485 1731:0.109903 2501:0.223317 2502:0.23047 2503:0.217473 2504:0.322227 2505:0.23047 #
1.0000000231766961178436758928001 5:0.063110001 11:0.017688001 14:0.070205003 39:0.076378003 69:0.045109998 95:0.108272 104:0.044516001 113:0.037114002 126:0.042029999 147:0.083637998 155:0.062355999 243:0.069512002 267:0.101002 276:0.035250001 292:0.057730999 303:0.105502 350:0.071354002 385:0.077757999 393:0.053109001 464:0.068035997 474:0.109739 482:0.085153997 498:0.079235002 517:0.179729 518:0.272255 523:0.068985 559:0.073633 568:0.147167 575:0.076985002 615:0.19265801 628:0.226054 665:0.076079004 699:0.070362002 701:0.076985002 722:0.068470001 723:0.047045 799:0.13876601 858:0.054196998 906:0.111704 964:0.089149997 1028:0.103948 1217:0.13831501 1218:0.087380998 1338:0.082847998 1344:0.22488301 1353:0.075204998 1364:0.165644 1489:0.121583 1500:0.110448 1533:0.16644999 1701:0.134973 2026:0.118168 2167:0.15230501 2199:0.107853 2409:0.25389099 2616:0.111648 3377:0.37642801 3378:0.186968 3379:0.179775 3380:0.21443801 #
1.0000000231766961178436758928001 15:0.032173999 18:0.045784 35:0.023782 45:0.082731001 48:0.055656999 61:0.068088003 94:0.054285999 112:0.022120001 137:0.038279001 214:0.047702 221:0.035106 234:0.073752999 236:0.053190999 238:0.106048 276:0.030884 284:0.075237997 292:0.050581001 294:0.090043001 312:0.062706001 328:0.122901 336:0.111281 337:0.107289 338:0.147438 339:0.263069 343:0.115676 385:0.068127997 392:0.054138999 452:0.073503003 465:0.064591996 482:0.126321 510:0.070427001 591:0.091339 617:0.118553 654:0.070120998 697:0.073045999 737:0.075888999 782:0.071696997 811:0.058093999 846:0.161823 852:0.079464003 885:0.063818 910:0.100821 937:0.063069999 1125:0.063143998 1133:0.064202003 1135:0.208113 1399:0.093294002 1459:0.087434001 1478:0.094494998 1493:0.122251 1501:0.076831996 1526:0.14524999 1552:0.095765002 1615:0.14375401 1665:0.090552002 1994:0.081928998 2045:0.130064 2191:0.096428998 2577:0.34573799 3036:0.23791499 3377:0.38040799 3384:0.172695 3385:0.20517799 3386:0.163812 3387:0.095121004 3388:0.18787999 #
-0.13015331734718882383816662695608 10:0.040233999 36:0.038012002 49:0.067840002 50:0.060153998 60:0.060112 76:0.041028999 113:0.104328 114:0.049945001 126:0.081638001 142:0.044868998 169:0.066165 207:0.188941 212:0.184718 216:0.205953 219:0.058938 236:0.100793 239:0.022661 370:0.047506001 393:0.062561996 394:0.191084 422:0.105815 449:0.127468 677:0.089505002 699:0.17394599 719:0.141932 723:0.055419002 730:0.092301004 775:0.117258 778:0.207045 785:0.165242 857:0.132504 1026:0.082979001 1126:0.073388003 1127:0.089045003 1135:0.305978 1225:0.093075998 1344:0.126232 1398:0.127468 1424:0.10116 1477:0.179161 1736:0.096841 2060:0.132009 2099:0.15552901 2704:0.393134 4241:0.191358 8248:0.32399699 11128:0.211775 #
0.72374902940442276122468001631205 3:0.072506003 11:0.018731 16:0.126297 33:0.109801 40:0.116145 41:0.046583001 49:0.060984001 75:0.046904001 76:0.088012002 84:0.099234 89:0.066335998 93:0.111092 104:0.047139999 114:0.076018997 123:0.062954001 131:0.060391001 142:0.040335 239:0.020370999 256:0.057788 272:0.083090998 282:0.14870401 324:0.072047003 346:0.109446 350:0.044627 392:0.065435 414:0.080564 433:0.062633 443:0.056788001 459:0.183543 497:0.081881002 504:0.076768003 556:0.111384 618:0.14405701 708:0.112063 721:0.086135 780:0.099601001 853:0.121458 874:0.065081999 912:0.28238699 1019:0.10735 1112:0.115746 1126:0.065972 1271:0.25092199 1321:0.215918 1368:0.215903 1397:0.084873997 1428:0.13981099 2077:0.185307 2148:0.1178 2390:0.18446501 2791:0.152061 3348:0.146466 4386:0.168901 4648:0.23672099 7749:0.32233 11550:0.190373 14272:0.22708 #
-1.0000000231766961178436758928001 26:0.068608001 36:0.033523999 45:0.057937998 76:0.036184002 83:0.057847001 99:0.044587001 105:0.029614 113:0.065283 126:0.043664999 142:0.066999003 183:0.082317002 236:0.063070998 238:0.074267998 239:0.019985 312:0.074353002 331:0.12968899 336:0.21756899 337:0.075135998 350:0.043781999 354:0.053895 355:0.12568501 356:0.116397 364:0.207856 392:0.064195 413:0.100912 415:0.078630999 419:0.048523001 448:0.053316999 453:0.063849002 459:0.145276 498:0.082317002 623:0.075672001 627:0.082906 649:0.094783999 650:0.075402997 738:0.062839001 828:0.085669003 914:0.075852998 1013:0.074438997 1020:0.225977 1026:0.174629 1146:0.071437001 1154:0.107679 1211:0.095546998 1296:0.081177004 1317:0.194786 1321:0.081177004 1339:0.29036599 1427:0.085405 1446:0.183916 1450:0.084376998 1468:0.075225003 1469:0.097147003 1717:0.112047 1805:0.104483 2111:0.13357399 2147:0.147695 3032:0.146291 3340:0.113944 3603:0.150755 3832:0.1173 3880:0.31487101 5722:0.204772 6737:0.186766 7074:0.19423901 7624:0.204772 #
-0.05623324352988998825475519538486 11:0.040355001 18:0.056809999 35:0.029510001 36:0.035080999 43:0.060917001 44:0.035154998 63:0.046232998 76:0.037864 81:0.074277997 111:0.103907 112:0.027448 137:0.047497999 169:0.061062001 211:0.093838997 223:0.068801999 239:0.020912999 282:0.21738 313:0.147471 320:0.131523 419:0.050776999 443:0.139121 481:0.123222 504:0.188069 654:0.22703999 695:0.14455999 888:0.098794997 945:0.092885002 1110:0.093199 1127:0.082176998 1169:0.121828 1553:0.226099 1557:0.113336 1647:0.101876 2542:0.214284 2788:0.228522 3108:0.170534 3183:0.161387 3955:0.126784 4196:0.18022899 4233:0.142545 4903:0.15610901 6949:0.170534 10275:0.214284 12412:0.233126 12413:0.233126 12414:0.233126 12415:0.233126 12416:0.233126 #
-0.78667430599772869559416221818537 1:0.045426 21:0.111129 36:0.024021 38:0.038589999 50:0.064361997 63:0.031658001 81:0.050861001 138:0.043733001 200:0.13178501 206:0.045186002 215:0.088775001 216:0.044179 244:0.031014999 257:0.12416 282:0.074170001 300:0.041581001 340:0.048248 356:0.049260002 390:0.054549001 499:0.070211001 623:0.054223001 723:0.035021 1211:0.068464004 1280:0.129673 1321:0.138804 1331:0.076291002 1342:0.060460001 1346:0.161054 1348:0.086483002 1433:0.066996001 1625:0.129673 1666:0.077380002 1855:0.28753999 2037:0.088775001 2038:0.082511999 2077:0.076936997 2159:0.28502601 3920:0.18493301 4038:0.12627999 4108:0.219556 4671:0.28333101 5653:0.106894 10149:0.14672901 10150:0.409632 13470:0.159631 13471:0.159631 13472:0.159631 13473:0.159631 13474:0.159631 13475:0.159631 13476:0.159631 13477:0.159631 13478:0.159631 #
1.0000000231766961178436758928001 31:0.15752301 35:0.021446999 41:0.058848001 50:0.068313003 56:0.081560999 63:0.119393 64:0.102175 76:0.046592999 155:0.083417997 198:0.095743999 205:0.062320001 212:0.087906003 221:0.053603001 222:0.098503999 239:0.043572001 267:0.079801999 282:0.242422 389:0.092087001 399:0.131836 418:0.121096 561:0.107376 585:0.115671 611:0.101909 668:0.13453899 738:0.080917001 787:0.096752003 840:0.123286 885:0.097442001 1305:0.114298 1617:0.400709 1714:0.173098 1947:0.172001 2148:0.31230599 2163:0.143813 2247:0.181986 2960:0.22177701 3832:0.255743 4023:0.21731099 5105:0.203748 6036:0.21337099 8855:0.24049599 #
1.0000000231766961178436758928001 6:0.045706999 14:0.094154 15:0.083384 23:0.099483997 30:0.104793 31:0.13888 37:0.10861 55:0.18043301 76:0.111464 81:0.091631003 87:0.040945999 91:0.07192 98:0.066913001 105:0.038229 112:0.057330001 125:0.117397 126:0.033291999 145:0.119972 179:0.097338997 197:0.077808 210:0.161586 220:0.162249 221:0.053738002 232:0.041616999 236:0.081418999 239:0.043680999 250:0.100605 256:0.073186003 267:0.135456 272:0.105232 314:0.128765 321:0.102973 322:0.083780997 357:0.11199 427:0.112893 448:0.116535 552:0.101375 591:0.39032501 671:0.084716998 685:0.245933 738:0.081119999 764:0.114392 800:0.14464401 825:0.087605998 936:0.152009 956:0.115364 1004:0.136869 1015:0.15320601 1017:0.128181 1203:0.146091 1278:0.163057 1329:0.137445 1450:0.108923 1618:0.136692 1732:0.15707999 1956:0.17033599 2039:0.14022499 2358:0.18244299 3356:0.179646 4293:0.14973401 #
1.0000000231766961178436758928001 6:0.079304002 9:0.098778002 11:0.024309 27:0.121394 31:0.067814998 36:0.075087003 44:0.093266003 110:0.117028 194:0.104693 229:0.103885 271:0.090397999 282:0.23824801 286:0.22140799 327:0.067722 340:0.15081701 348:0.139696 393:0.12358 414:0.104557 473:0.229886 539:0.10483 661:0.114398 668:0.081632003 699:0.096699998 858:0.074483998 914:0.169898 952:0.125138 1142:0.169089 1199:0.155771 1219:0.263138 1353:0.103356 1422:0.106658 1617:0.21104699 1704:0.17062099 2038:0.15233199 2453:0.41832301 2485:0.15638 2784:0.17670099 3955:0.160274 9687:0.294707 #
1.0000000231766961178436758928001 10:0.061487999 16:0.074896999 22:0.12978099 26:0.070217997 35:0.017046001 36:0.058092002 42:0.067102 44:0.072157003 48:0.114362 56:0.064825997 75:0.047095001 76:0.037032999 83:0.059204999 93:0.065880001 104:0.080141 112:0.026845001 156:0.071813002 170:0.078008004 180:0.17013 188:0.131295 197:0.061687998 210:0.075663 217:0.055521999 232:0.032995 241:0.084178001 249:0.059250999 267:0.063427001 272:0.049275 282:0.13131 313:0.102337 352:0.044273999 396:0.085096002 443:0.057020001 460:0.095509 504:0.077081002 539:0.081104003 541:0.096060999 545:0.083426997 575:0.081855997 592:0.109565 731:0.072570004 738:0.108893 740:0.088228002 771:0.081855997 777:0.078291997 825:0.069456004 827:0.135864 888:0.096625 954:0.187134 1015:0.121465 1108:0.082517996 1146:0.073113002 1212:0.123999 1258:0.1268 1482:0.13670801 1488:0.12621599 1570:0.102796 1592:0.15268099 1729:0.107788 1779:0.108969 1900:0.117024 2841:0.202498 3004:0.169589 3751:0.17627101 5224:0.198797 6433:0.20957699 8174:0.191149 8611:0.191149 13628:0.22800501 13629:0.22800501 13630:0.22800501 13631:0.22800501 #
1.0000000231766961178436758928001 6:0.098111004 11:0.044780999 12:0.078803003 16:0.084977001 44:0.081868999 49:0.069472998 50:0.061602999 51:0.084977001 60:0.104229 76:0.088177003 83:0.067172997 99:0.108655 114:0.051148001 145:0.063738003 205:0.117939 208:0.093745001 216:0.071594998 221:0.048338 239:0.023207 240:0.087076001 256:0.065831997 272:0.055907 323:0.095858999 352:0.105418 394:0.093245998 395:0.099480003 402:0.128057 414:0.091779999 415:0.091306999 417:0.15711901 443:0.064694002 447:0.124329 463:0.133241 535:0.148182 560:0.082687996 568:0.104857 623:0.087871 676:0.072525002 713:0.255689 770:0.100737 771:0.092872001 829:0.361058 834:0.36354101 874:0.074142002 1134:0.111404 1285:0.14667401 1509:0.13621099 1540:0.161387 1713:0.124329 1817:0.169874 2658:0.218877 2750:0.164111 3142:0.17700499 3605:0.17322899 10391:0.258692 #
-0.22365091942066867014560216375685 9:0.111237 24:0.24961001 35:0.020018 38:0.064730003 55:0.099219002 75:0.055307001 80:0.120161 91:0.066960998 103:0.114377 112:0.031525001 113:0.097254001 121:0.060614001 126:0.030996 156:0.040185001 197:0.17287099 199:0.158393 204:0.093082003 232:0.038748 234:0.105109 236:0.093957998 240:0.053231001 241:0.047104999 292:0.072085999 293:0.080695003 295:0.13295899 340:0.16983999 350:0.052622002 352:0.088031001 370:0.050356001 397:0.082213998 422:0.112162 443:0.113375 448:0.064080998 456:0.204395 457:0.14278799 464:0.084953003 473:0.208865 498:0.098936997 543:0.200716 560:0.085585997 656:0.087661996 682:0.14161301 737:0.108153 778:0.071267001 783:0.079023004 885:0.090951003 929:0.102025 931:0.119613 1065:0.131734 1119:0.10361 1151:0.123054 1219:0.113921 1295:0.227277 1312:0.11701 1338:0.103448 1433:0.112376 1618:0.127267 1713:0.128686 1721:0.135562 1737:0.152585 2062:0.12525199 2163:0.134234 2739:0.18119299 4566:0.15418699 5293:0.217509 5294:0.22447599 #
-0.93372762541888520981814281185507 10:0.055373002 19:0.064535998 35:0.025991 49:0.055142999 56:0.058378998 63:0.040720999 87:0.029234 110:0.138054 112:0.057689 113:0.035537001 126:0.040245 142:0.036471002 179:0.069498003 192:0.072752997 195:0.090507999 214:0.109407 239:0.01842 254:0.113664 256:0.052253 272:0.044374999 276:0.033753 290:0.048482001 293:0.06188 313:0.054430999 332:0.13894799 342:0.101642 370:0.038615 389:0.065912999 436:0.080472 441:0.097861998 559:0.070505999 597:0.058534 616:0.078120001 699:0.14139 719:0.142996 784:0.120207 817:0.082794003 889:0.089538001 922:0.133605 993:0.091061004 1013:0.068608999 1026:0.067449003 1032:0.15938 1146:0.065842003 1260:0.113664 1331:0.098131999 1338:0.079328999 1341:0.098406002 1413:0.18826599 1534:0.106134 1617:0.25583801 1756:0.079328999 1863:0.15977199 1910:0.092573002 2297:0.118876 2403:0.109385 2929:0.122352 3377:0.20716099 3459:0.112151 3899:0.32050699 4169:0.155544 4976:0.319556 5407:0.147919 6971:0.17902701 14059:0.20533 14060:0.20533 14061:0.20533 #
-0.53437673555190934315817230526591 10:0.041216999 12:0.078829996 23:0.119085 36:0.038941 41:0.053086001 60:0.061579999 75:0.053452 121:0.099186003 126:0.029957 134:0.078829996 142:0.045965001 205:0.056217 232:0.063405 236:0.043269999 239:0.023213999 240:0.051445998 241:0.045524999 248:0.061668001 272:0.055925999 276:0.072025001 350:0.050857 352:0.050248999 385:0.055420998 394:0.093277 396:0.096580997 415:0.15464699 453:0.074166998 470:0.181794 518:0.102761 539:0.271171 714:0.14901599 740:0.169544 771:0.092903003 780:0.113505 783:0.076373003 822:0.20769 823:0.31108099 824:0.126552 825:0.078829996 826:0.237863 827:0.154201 828:0.237468 829:0.138412 830:0.343027 831:0.159328 832:0.143251 833:0.242055 834:0.293401 835:0.113328 836:0.159328 837:0.076444 #
-0.52265455899095369929341359238606 1:0.055751 10:0.031204 11:0.027361 15:0.033549 35:0.014647 36:0.061868999 41:0.04019 44:0.029544 104:0.068861 112:0.023065999 123:0.054313 126:0.022678999 179:0.066310003 186:0.083353996 213:0.078189999 239:0.017574999 258:0.091104999 270:0.086737998 275:0.074877001 315:0.053447999 318:0.174657 321:0.070147999 327:0.045019999 337:0.066076003 352:0.038042001 354:0.047396 392:0.056453999 397:0.060153998 441:0.093373999 474:0.059215002 491:0.142928 591:0.161264 685:0.135168 701:0.070334002 837:0.057874002 896:0.066154003 933:0.088936999 1013:0.192847 1026:0.064355001 1131:0.12937699 1289:0.097589999 1312:0.085614003 1363:0.123313 1535:0.113424 1701:0.123313 1948:0.107007 1967:0.12636299 2102:0.14841001 2711:0.17601401 3377:0.373247 3580:0.29426101 5576:0.13405 7170:0.164244 7513:0.170816 8916:0.154982 8917:0.27809 8918:0.289217 13321:0.180079 13953:0.180079 14411:0.195913 #
-0.30692094513991668991437222757668 6:0.072557002 9:0.043063998 11:0.037657 21:0.089445002 24:0.14388999 35:0.027536999 37:0.048523001 49:0.058421999 50:0.051803999 56:0.104721 58:0.12756699 70:0.05469 87:0.052441001 91:0.054403 99:0.073716998 108:0.059849001 113:0.063748002 123:0.060309 126:0.042638998 144:0.145925 172:0.076980002 178:0.084311001 197:0.058855999 199:0.076003999 205:0.112774 208:0.078832 210:0.072190002 221:0.040649001 234:0.085395999 248:0.05184 258:0.059748001 292:0.058566 300:0.056666002 340:0.065751001 352:0.100801 383:0.049920999 410:0.068947002 420:0.078411996 450:0.071620002 457:0.068516001 470:0.099160999 494:0.076389998 536:0.119877 543:0.096313 558:0.136926 567:0.162356 623:0.073893003 635:0.092555001 656:0.149464 682:0.067952998 803:0.079930998 809:0.29735601 811:0.067264996 823:0.12461 829:0.34277299 830:0.28836399 833:0.096960001 835:0.095269002 837:0.064262003 868:0.111265 894:0.057298999 914:0.074069999 1257:0.123968 1295:0.109058 1353:0.076292999 1399:0.108023 1422:0.078730002 2104:0.12735499 2416:0.12461 2927:0.13212501 3682:0.27395999 4033:0.18967301 5855:0.18967301 6635:0.199958 #
1.0000000231766961178436758928001 10:0.040771 15:0.043834999 21:0.105251 35:0.019138001 41:0.088910997 55:0.094853997 76:0.070395 87:0.036446001 88:0.066468999 99:0.051231999 102:0.110464 120:0.130035 126:0.029633 142:0.095420003 184:0.093020998 195:0.112834 199:0.089435004 238:0.17908899 239:0.022963 240:0.050889999 282:0.070247002 300:0.066679001 317:0.10487 324:0.081216 336:0.089547999 337:0.206021 339:0.33967 340:0.077370003 350:0.085176997 385:0.092822 387:0.081216 555:0.110464 575:0.091899 585:0.174761 597:0.123555 617:0.095399 723:0.056159001 726:0.121013 846:0.10506 914:0.087158002 979:0.10394 1054:0.119127 1142:0.086744003 1146:0.082084 1217:0.078676 1234:0.099840999 1321:0.19575 1368:0.24338099 1491:0.122339 1605:0.144417 1607:0.130035 1610:0.16809399 1617:0.28251901 2148:0.132792 2485:0.13583 3672:0.16239101 3833:0.177209 4230:0.16239101 5723:0.184407 6185:0.223189 #
1.0000000231766961178436758928001 1:0.092137001 10:0.051569998 11:0.026706999 23:0.139266 31:0.074505001 35:0.040984999 42:0.095288001 45:0.084206 51:0.106357 63:0.064212002 87:0.046099 104:0.067213997 112:0.064544 116:0.24106801 122:0.10925 126:0.037480999 145:0.079774 156:0.115957 208:0.117331 209:0.113122 210:0.107445 221:0.0605 238:0.107938 239:0.029045001 240:0.108984 242:0.244341 244:0.106513 276:0.053224001 321:0.115931 327:0.074403003 337:0.28495401 350:0.063630998 351:0.080366999 627:0.120493 648:0.135887 701:0.116239 738:0.091329001 791:0.117179 828:0.124509 933:0.086810999 1012:0.100419 1133:0.18733101 1136:0.173884 1146:0.103824 1217:0.099514 1317:0.39179999 1468:0.10933 1501:0.13240799 1788:0.139149 1798:0.160276 2116:0.22153901 2144:0.14701 4800:0.226942 5077:0.19797499 #
1.0000000231766961178436758928001 1:0.067335002 10:0.037687998 12:0.072080001 15:0.040520001 18:0.057661999 35:0.017689999 45:0.12914599 51:0.077726997 65:0.110597 76:0.038431998 105:0.031454001 112:0.027859 123:0.065599002 126:0.027392 143:0.055479001 145:0.0583 154:0.16655999 156:0.035512 184:0.22437499 221:0.044213999 239:0.021227 241:0.041627001 273:0.088958003 276:0.065857999 336:0.173713 338:0.203052 364:0.384123 370:0.075345002 387:0.075074002 392:0.068184003 414:0.083949998 427:0.092886001 532:0.097115003 544:0.075795002 569:0.141874 576:0.13932601 583:0.089353003 597:0.067455001 671:0.14628001 699:0.077641003 723:0.051911999 764:0.094120003 810:0.109837 835:0.103625 910:0.074995004 929:0.090161003 1004:0.13958099 1118:0.24021401 1127:0.083410002 1146:0.075875998 1209:0.088184997 1321:0.22499 1326:0.122308 1932:0.112775 2060:0.123654 2278:0.17309099 2551:0.110401 4168:0.15396599 5335:0.175998 6068:0.39577201 #
1.0000000231766961178436758928001 24:0.13868301 57:0.144658 70:0.089248002 99:0.071050003 100:0.13823999 115:0.079077996 149:0.115837 223:0.10477 311:0.128132 312:0.118483 326:0.13672701 337:0.119731 353:0.120014 389:0.113958 534:0.21856999 557:0.21561199 585:0.143143 656:0.19678301 671:0.104574 716:0.126775 780:0.091963999 830:0.37845501 874:0.101745 1317:0.272975 1524:0.186212 2063:0.25213799 2144:0.33826599 3397:0.19651499 5136:0.242902 9401:0.28083101 #
1.0000000231766961178436758928001 1:0.042289998 11:0.020755 35:0.011111 76:0.024138 100:0.097984001 115:0.033103999 127:0.051922001 151:0.053638998 205:0.032285001 251:0.118011 271:0.045584999 336:0.109102 337:0.105188 356:0.04586 413:0.067317002 422:0.062252998 453:0.042592999 497:0.053587001 530:0.042862002 595:0.059312001 611:0.052793998 665:0.052724998 671:0.043777999 770:0.057870999 823:0.085127003 825:0.045271002 993:0.081689999 1125:0.049947001 1317:0.12994 1353:0.05212 1418:0.072462 1446:0.072462 1455:0.098526001 1518:0.066692002 1617:0.062856004 1788:0.063868001 1997:0.094278 2077:0.071626998 2080:0.069518 2191:0.076274998 2385:0.076011002 2430:0.069698997 3369:0.104165 3832:0.078249998 3880:0.184724 3989:0.12459 4433:0.114892 4825:0.17871501 5006:0.25233299 5167:0.120723 6357:0.100567 7366:0.14861301 7367:0.26146501 7368:0.14861301 7369:0.136601 7370:0.14861301 7371:0.14861301 7372:0.14861301 7373:0.14861301 7374:0.14861301 7375:0.28667301 7376:0.14861301 7377:0.204402 7378:0.14861301 7379:0.14861301 7380:0.14861301 7381:0.14861301 7382:0.14861301 7383:0.14861301 7384:0.14861301 7385:0.14861301 7386:0.129575 7387:0.14861301 #
-1.0000000231766961178436758928001 23:0.038238999 35:0.017343 41:0.047589 45:0.060332 50:0.055243 76:0.09832 81:0.073913999 104:0.048158001 110:0.219827 115:0.108446 121:0.12531701 137:0.047265001 138:0.063553996 160:0.086332001 202:0.077785 239:0.020811001 243:0.127323 249:0.060284998 256:0.099955998 257:0.075612999 273:0.208119 282:0.063661002 327:0.053309001 338:0.129169 370:0.043628 392:0.066846997 393:0.057454001 414:0.082304001 419:0.085552 482:0.092120998 493:0.12978899 550:0.094195999 554:0.106093 585:0.15837801 596:0.073064998 697:0.18928 894:0.061103001 921:0.117061 983:0.22499099 986:0.17128 992:0.12123 993:0.102881 1060:0.106613 1133:0.079273 1317:0.221802 1420:0.093378998 1509:0.20681401 1518:0.104107 1617:0.30215001 1728:0.096625999 1819:0.22499099 3377:0.138234 5839:0.29214901 5840:0.361036 #
-0.82043088013771192645862129211309 9:0.083460003 15:0.058249 21:0.082602002 27:0.082753003 35:0.015019 51:0.065991998 59:0.048356 72:0.108337 85:0.096538 87:0.048429001 114:0.039721001 115:0.044750001 126:0.023256 144:0.064213999 145:0.049497999 164:0.047368001 179:0.067997001 238:0.113395 241:0.035342 271:0.061623 313:0.111762 321:0.071932003 337:0.067757003 341:0.064282998 385:0.043024998 410:0.063671999 466:0.102752 568:0.081430003 579:0.124459 671:0.100199 685:0.081863001 686:0.088552997 697:0.078106999 740:0.077738002 765:0.170891 835:0.087980002 914:0.068402998 953:0.087791003 979:0.138116 1136:0.107891 1268:0.065050997 1295:0.170524 1317:0.216847 1348:0.064282998 1462:0.13745899 1518:0.090155996 1601:0.082753003 1617:0.084969997 1662:0.095748998 1763:0.32506901 1945:0.125493 2144:0.154442 2148:0.17645501 2184:0.132037 2282:0.104985 3832:0.22198901 4094:0.14081199 4211:0.14472499 4478:0.117611 4578:0.14472499 5234:0.184659 5681:0.27631301 5907:0.158924 6316:0.29657301 12096:0.20089599 #
-0.027498730492146600257186150884081 14:0.12891699 36:0.059255 76:0.090139002 108:0.063983999 110:0.092353001 116:0.066358 122:0.046348002 160:0.18163399 182:0.088216998 184:0.084513001 188:0.226751 208:0.049775999 239:0.020863 240:0.046234999 249:0.060437001 258:0.063876003 267:0.064696997 272:0.050260998 290:0.054912999 292:0.062611997 308:0.119366 327:0.053443 337:0.164612 338:0.076481998 370:0.043738 399:0.106882 434:0.113161 470:0.062611997 611:0.082618997 671:0.068508998 685:0.247293 731:0.074022003 740:0.089993 741:0.084169 780:0.102009 783:0.068636999 838:0.090135001 895:0.093615003 935:0.079956003 993:0.060915999 1004:0.065371998 1012:0.072130002 1014:0.099146001 1040:0.106103 1125:0.078162998 1130:0.110541 1136:0.1249 1317:0.28142801 1506:0.147539 1507:0.147539 1561:0.094938003 1728:0.096868999 1765:0.123407 1773:0.132532 2639:0.13321801 2651:0.25857699 3832:0.122456 4211:0.167541 4352:0.33012 4353:0.202776 4354:0.202776 4355:0.151329 4356:0.176177 #
-1.0000000231766961178436758928001 5:0.048188001 10:0.044156 12:0.049878001 21:0.067323998 35:0.012241 60:0.038964 76:0.026594 83:0.042516999 87:0.039471 95:0.048827998 112:0.032641001 121:0.037066001 123:0.045394 124:0.046429999 125:0.06684 142:0.069403 169:0.042888001 199:0.057207 206:0.046348002 208:0.059335001 210:0.054336 217:0.067509003 239:0.014689 269:0.116295 282:0.044932999 290:0.038660999 300:0.089507997 311:0.059099 313:0.043405 328:0.107109 337:0.131781 339:0.239659 340:0.138163 343:0.100812 350:0.032179002 387:0.05195 395:0.062965997 429:0.063559003 459:0.063063003 513:0.078473002 585:0.138556 590:0.129529 597:0.046677001 810:0.076006003 846:0.113782 858:0.070068002 914:0.055751 969:0.094797 979:0.11257 1013:0.054712001 1101:0.086213998 1110:0.065458998 1127:0.121128 1146:0.052505001 1164:0.095320001 1268:0.053018998 1317:0.21832401 1321:0.14237601 1338:0.063259996 1368:0.110459 1397:0.061198998 1490:0.073311999 1496:0.099448003 1552:0.083460003 1557:0.079603001 1607:0.14083099 1650:0.060330998 1902:0.066023 2085:0.091058999 2148:0.178258 2265:0.116295 2278:0.119776 2345:0.110802 2380:0.095857002 2387:0.103061 2485:0.086883999 2738:0.124036 2780:0.095320001 3030:0.100118 3032:0.107521 3036:0.098801002 3076:0.089047998 3450:0.101533 3610:0.110802 3832:0.253979 3833:0.270491 6068:0.114767 7377:0.225205 10043:0.25482601 11020:0.15050399 11249:0.142763 #
-0.63310659464704732712903023639228 11:0.020453 30:0.090355001 36:0.037314001 87:0.035305001 95:0.073945001 113:0.042916 114:0.049028002 116:0.119793 126:0.060240999 138:0.11502 208:0.089858003 210:0.082286999 238:0.139963 239:0.022244001 264:0.141306 297:0.081545003 315:0.067648999 321:0.088785999 337:0.083632 356:0.076518998 392:0.071452998 401:0.091237001 425:0.14686801 426:0.134773 429:0.162973 434:0.071259998 460:0.103871 470:0.066757001 523:0.079770997 539:0.088203996 685:0.101043 828:0.095354997 858:0.062670998 878:0.14686801 933:0.066483997 967:0.101404 991:0.076365001 1004:0.118012 1013:0.082855001 1014:0.178983 1027:0.358271 1317:0.37960199 1341:0.33177099 1349:0.18231 1426:0.23856799 1436:0.13921501 1534:0.128172 1772:0.13262901 2144:0.236277 10053:0.21620101 #
1.0000000231766961178436758928001 3:0.089869998 11:0.048721999 35:0.021042001 42:0.082834996 58:0.097480997 126:0.055167001 156:0.042242002 157:0.116365 184:0.10228 223:0.083067 226:0.114052 232:0.068962999 234:0.110488 238:0.093831003 240:0.133526 241:0.083835997 294:0.134892 350:0.093656003 352:0.092537001 422:0.117902 452:0.065035999 459:0.22749799 464:0.151199 497:0.048361 498:0.104 771:0.101047 773:0.13378 885:0.161874 1013:0.19736999 1060:0.21901099 1108:0.101864 1671:0.149942 1948:0.153734 2533:0.178556 3377:0.35197401 3529:0.158793 8916:0.46726999 9928:0.281461 9929:0.235964 #
1.0000000231766961178436758928001 6:0.044537999 9:0.093925998 35:0.043967001 38:0.067745999 60:0.139946 61:0.101557 87:0.039898999 89:0.081863999 91:0.070081003 114:0.093813002 115:0.062422998 156:0.138899 164:0.066073999 199:0.097907998 238:0.093420997 256:0.071314 272:0.060562 284:0.112222 297:0.27148399 326:0.182742 352:0.092133 441:0.226138 445:0.098908998 543:0.21006601 584:0.18963499 682:0.087536 690:0.18810099 701:0.100606 716:0.16944 731:0.187181 777:0.096225999 809:0.160521 937:0.094072998 1026:0.092053004 1268:0.090740003 1295:0.36659199 1317:0.102679 1424:0.112222 1549:0.118758 1587:0.17134801 1617:0.118525 1681:0.195802 3876:0.175052 4566:0.16136999 10102:0.244334 10103:0.244334 #
1.0000000231766961178436758928001 6:0.13748001 10:0.044741001 11:0.039230999 19:0.088289998 26:0.086508997 35:0.021001 38:0.067907996 42:0.082671002 64:0.100051 83:0.1235 84:0.122755 98:0.155964 99:0.056219999 112:0.033073001 113:0.082315996 126:0.068242997 162:0.100183 163:0.118349 170:0.096106 181:0.216939 199:0.098142996 216:0.077743001 217:0.068402998 244:0.054577999 248:0.066940002 272:0.060706999 290:0.066326 327:0.064549997 352:0.054545 404:0.189238 434:0.080725998 443:0.070248999 544:0.089979999 575:0.100847 579:0.102782 633:0.109213 731:0.089406997 765:0.11386 777:0.096455999 874:0.080509 1013:0.196979 1026:0.092274003 1159:0.36398199 1321:0.102358 1347:0.134625 1483:0.145722 1617:0.11881 2538:0.178203 4272:0.181182 9269:0.51399201 9385:0.222216 #
1.0000000231766961178436758928001 6:0.038614001 9:0.100936 11:0.033932 15:0.041606002 23:0.067808002 35:0.018164 41:0.049841002 45:0.063188002 62:0.065463997 84:0.179768 94:0.070201002 105:0.032295998 112:0.068260998 170:0.083125003 213:0.096966997 236:0.068784997 241:0.072369002 272:0.088903002 297:0.079898998 313:0.064406 328:0.093868002 336:0.084992997 337:0.081944004 342:0.12027 410:0.183755 426:0.077992998 448:0.098451003 518:0.25175899 537:0.16441301 554:0.23318399 697:0.246491 721:0.092159003 723:0.053303 784:0.14223699 835:0.180153 837:0.071772002 880:0.24512701 914:0.082725003 970:0.172563 1013:0.137455 1040:0.187677 1151:0.189054 1258:0.13511799 1296:0.088532001 1348:0.077743001 1423:0.116768 1490:0.108784 1496:0.14756501 1618:0.11548 1623:0.099716 1728:0.26407 1900:0.1247 2086:0.19220001 2144:0.110315 2852:0.16819599 2937:0.148559 3512:0.148559 3736:0.156709 #
1.0000000231766961178436758928001 6:0.032345001 11:0.016787 18:0.049594 32:0.065756001 59:0.102806 76:0.105685 87:0.049061 94:0.058804002 98:0.047352001 112:0.023962 125:0.083079003 126:0.023560001 137:0.041466001 150:0.070574 156:0.030544 194:0.072299004 205:0.044213001 208:0.043558002 214:0.051672999 236:0.034030002 240:0.068503998 241:0.110253 244:0.039542001 278:0.095701002 351:0.050517 352:0.039519001 354:0.083362997 365:0.098941997 374:0.17005099 410:0.16831601 439:0.1874 442:0.167661 450:0.067002997 456:0.091756001 485:0.094232 654:0.075957 675:0.137721 697:0.13397101 846:0.083527997 914:0.069294997 960:0.22076701 964:0.08461 1542:0.092849001 1569:0.11215 1621:0.165324 1662:0.096997999 1826:0.20792501 2075:0.109298 2235:0.113182 2304:0.086934999 2350:0.120542 2441:0.15733901 2958:0.27259201 3646:0.17744599 4943:0.203517 4944:0.317678 4945:0.392584 4946:0.13242599 4947:0.137721 4948:0.144548 #
-1.0000000231766961178436758928001 3:0.081485003 10:0.068821996 11:0.044176001 16:0.141938 33:0.15294901 44:0.038484 50:0.060772002 81:0.081312001 97:0.156592 105:0.033923998 114:0.105892 149:0.083273001 154:0.179639 169:0.066845 194:0.090659 205:0.055440001 221:0.047685999 236:0.072250001 239:0.022893 272:0.055153001 282:0.18274701 315:0.069623001 325:0.106699 350:0.050154001 390:0.087206997 393:0.063203998 439:0.138789 450:0.084018998 457:0.080378003 464:0.080968998 477:0.211969 497:0.043848999 518:0.17158499 519:0.115599 536:0.14063101 560:0.081572004 592:0.07243 667:0.21394899 783:0.075317003 858:0.064499997 874:0.073142 910:0.136948 912:0.22608 930:0.124434 1035:0.15824901 1126:0.125533 1171:0.103081 1321:0.25961199 1346:0.25747699 1368:0.21338899 1374:0.101341 1398:0.128777 2539:0.161897 2665:0.1382 2687:0.18981799 3362:0.16322 3395:0.16460399 11613:0.255202 #
-0.12341922277509741190382186459829 6:0.066147998 11:0.034331001 14:0.080479003 23:0.068605997 26:0.075704001 28:0.118817 33:0.070202 35:0.018378001 36:0.062631004 37:0.092836 45:0.063931003 58:0.085137002 59:0.141196 60:0.099042997 76:0.083788998 95:0.073305003 98:0.096840002 102:0.106079 149:0.080211997 181:0.072752997 201:0.098949 222:0.084408998 241:0.112845 244:0.047761001 276:0.084803 322:0.121251 326:0.094677001 353:0.140707 402:0.121685 428:0.095121004 464:0.077992 474:0.074299 534:0.15134899 561:0.092012003 583:0.092827 591:0.119507 627:0.091481 651:0.110571 730:0.089819998 741:0.088964999 803:0.090320997 841:0.170175 869:0.113251 933:0.194161 1057:0.099638999 1099:0.41738299 1149:0.168409 1423:0.118142 1574:0.13670699 1710:0.16819701 1826:0.25114301 1943:0.31989399 4946:0.27082101 5410:0.225952 #
-0.30643980667198605916112796876405 6:0.11548 11:0.021468 18:0.063423999 35:0.019458 41:0.053392 52:0.106435 75:0.053759001 83:0.067581996 87:0.037055999 91:0.065087996 100:0.212696 112:0.030642999 123:0.072154999 126:0.030129001 156:0.039060999 192:0.092219003 199:0.21699201 239:0.023348 240:0.159336 274:0.150683 300:0.067795001 315:0.071005002 327:0.059808001 340:0.078666002 352:0.085569002 370:0.082874 392:0.074997999 404:0.233247 410:0.196845 429:0.10103 448:0.062289 465:0.089478999 493:0.11748 523:0.083728001 559:0.089369997 594:0.109867 597:0.074196003 600:0.122711 661:0.10103 682:0.170616 686:0.114724 699:0.0854 716:0.092945002 726:0.123039 780:0.067423999 809:0.35576099 915:0.25798401 929:0.099170998 1033:0.102502 1142:0.14933001 1399:0.12924001 1433:0.109233 1578:0.138652 1896:0.122711 1913:0.21002699 1955:0.180177 2694:0.218196 2750:0.16511101 8469:0.205891 #
-0.086498630355959310600511003030988 10:0.035613 11:0.038704999 12:0.068112001 36:0.070611 45:0.098458998 68:0.103791 70:0.056212999 99:0.075769998 105:0.029722 116:0.10802 126:0.054320998 174:0.092441 199:0.078120001 233:0.091439001 239:0.020058 240:0.093286 248:0.053284001 276:0.062233001 315:0.061000001 338:0.191875 370:0.04205 385:0.047887001 397:0.068654001 448:0.053512 465:0.076871999 478:0.103529 545:0.081813 699:0.073367 783:0.065989003 818:0.144252 825:0.068112001 828:0.205183 1004:0.062849998 1013:0.178286 1126:0.109986 1130:0.27732101 1154:0.108075 1240:0.109023 1341:0.10716 1426:0.102507 1450:0.084687002 1478:0.190409 1509:0.117731 1549:0.094756998 1663:0.23475499 1666:0.108387 1756:0.086386003 1933:0.11138 2271:0.137666 2272:0.133237 2323:0.121601 2711:0.118646 3030:0.136718 3606:0.133237 4754:0.152991 7102:0.347983 7103:0.37858099 7104:0.19495299 #
-0.10746283624569133441362112080242 9:0.095826 10:0.067805998 37:0.045247 89:0.059259001 115:0.076508 156:0.030445 216:0.056141999 219:0.04733 221:0.037905 224:0.218043 232:0.029355001 238:0.067625999 239:0.018198 276:0.033346001 322:0.059096001 327:0.046615001 358:0.111785 393:0.050239999 415:0.071598999 434:0.15211999 436:0.134609 443:0.050730001 459:0.16396201 493:0.054079998 721:0.183616 724:0.10137 739:0.080287002 1004:0.057020001 1025:0.095642 1142:0.068741001 1164:0.199946 1296:0.073918 1312:0.088647999 1397:0.075819001 1693:0.20434099 2016:0.124036 2022:0.171634 2420:0.329119 2572:0.110321 3908:0.21967 4903:0.40017 7571:0.34346399 7572:0.39130601 #
1.0000000231766961178436758928001 11:0.019544 23:0.066127002 30:0.086337 36:0.060368001 38:0.057278998 50:0.056423001 74:0.18171801 75:0.048939999 76:0.038483001 87:0.033734001 99:0.047421001 105:0.031496 112:0.027896 126:0.027427999 205:0.051472999 206:0.067068003 208:0.085862003 213:0.094563 219:0.144255 236:0.067079 241:0.041682001 244:0.046036001 257:0.077228002 258:0.065076001 276:0.065945998 313:0.062809996 338:0.185937 352:0.046007998 387:0.075173996 419:0.051607002 426:0.076058999 459:0.15450899 460:0.099251002 512:0.102246 623:0.080481999 697:0.092119001 769:0.14206401 825:0.072177 840:0.101828 967:0.096894003 979:0.096207999 1020:0.114523 1040:0.18302301 1121:0.112617 1317:0.25575 1335:0.16402601 1348:0.075815 1571:0.110265 1601:0.097598001 1647:0.103541 1688:0.119958 1979:0.145881 2067:0.133674 2225:0.152824 2456:0.43335801 2682:0.19863699 2777:0.213715 3147:0.135721 4211:0.170689 5475:0.236938 5476:0.236938 #
1.0000000231766961178436758928001 18:0.050647002 59:0.050027002 69:0.043721002 76:0.033757001 100:0.080932997 104:0.043145001 110:0.082532004 112:0.041430999 113:0.035971001 146:0.063814998 160:0.077344999 231:0.104541 236:0.034752 238:0.069287002 239:0.018643999 240:0.069958001 258:0.057082999 260:0.155113 261:0.083949 271:0.063752003 313:0.055094998 315:0.056701001 322:0.060547002 331:0.120991 336:0.15258101 337:0.167272 342:0.102883 355:0.198531 448:0.049741 470:0.055953 493:0.055408001 628:0.091812998 649:0.088426001 697:0.080805004 741:0.075218 765:0.084243 777:0.071365997 858:0.052528001 896:0.070179999 933:0.055725001 993:0.114245 1020:0.17008901 1026:0.068272002 1116:0.104532 1125:0.069851004 1317:0.21259899 1338:0.13595501 1426:0.16132499 1427:0.079677001 1478:0.104532 1617:0.184479 1736:0.190134 3043:0.168832 3377:0.123846 4088:0.44857401 4877:0.142208 5218:0.132926 5407:0.35728601 6001:0.17423999 8786:0.191038 #
1.0000000231766961178436758928001 11:0.035760999 12:0.106551 15:0.035377 24:0.136645 26:0.063621998 38:0.049942002 44:0.031153001 57:0.084182002 59:0.118662 60:0.04916 85:0.099273004 86:0.115942 87:0.049800999 105:0.027461 108:0.056836002 156:0.031005001 214:0.052452002 219:0.048200998 232:0.050616998 239:0.018532 241:0.076269999 243:0.113384 258:0.096069001 270:0.191946 273:0.077666998 282:0.056692 287:0.146521 324:0.065545 396:0.077102996 397:0.107399 405:0.070005998 419:0.044996999 440:0.066965997 452:0.047734998 474:0.062440999 508:0.068322003 559:0.070937 570:0.084941998 583:0.078011997 631:0.072728999 668:0.096887998 782:0.133481 825:0.062931001 830:0.17768499 933:0.093782999 967:0.084482998 984:0.181453 1060:0.19924501 1065:0.101639 1116:0.175924 1317:0.15885399 1321:0.075277001 1338:0.079815 1342:0.078244001 1422:0.074766003 1478:0.103904 1514:0.117726 1591:0.131056 1630:0.136961 1760:0.101639 1941:0.114359 2297:0.119604 7715:0.153658 13527:0.206587 13528:0.206587 13529:0.49297699 13530:0.206587 #
1.0000000231766961178436758928001 10:0.053541001 11:0.016376 12:0.060479 43:0.051879998 69:0.041765999 74:0.089932002 85:0.056348 86:0.065810002 104:0.041214999 112:0.023375999 142:0.059709001 156:0.050450999 160:0.176313 179:0.067198999 190:0.081781 197:0.053716 199:0.069366001 239:0.01781 246:0.079372004 251:0.093115002 271:0.060899999 272:0.042907 328:0.16097499 338:0.13702101 355:0.11201 454:0.083007999 459:0.076467 482:0.078840002 491:0.069018997 505:0.087899998 510:0.074423 529:0.166923 592:0.056348 623:0.067438997 739:0.078578003 825:0.060479 858:0.050179001 885:0.067438997 910:0.062925003 928:0.070347004 929:0.075649999 983:0.238667 984:0.245774 990:0.173757 991:0.128317 1020:0.095964 1060:0.238093 1122:0.16685501 1125:0.112978 1128:0.116902 1146:0.063663997 1317:0.072746001 1396:0.099532001 1445:0.191563 1469:0.146588 1478:0.099855997 1663:0.29378301 1773:0.11314 1940:0.150399 1965:0.118306 2033:0.122239 2128:0.114327 2906:0.16128001 5839:0.25003099 8942:0.173106 9586:0.198539 9587:0.198539 #
-0.1130648111601751243382452116748 2:0.249704 10:0.110191 19:0.217445 35:0.051722001 113:0.119737 114:0.136787 143:0.16220801 475:0.287083 722:0.220898 778:0.184137 787:0.23333301 1234:0.26983401 1334:0.31190899 1424:0.27704901 1515:0.25243899 1549:0.293185 1736:0.265223 2616:0.360203 #
-0.61622730963606020537781660095789 12:0.065145001 19:0.067216001 35:0.015988 36:0.032180998 69:0.076171003 75:0.044172999 89:0.062472999 126:0.024755999 142:0.099122003 150:0.074158996 156:0.094550997 157:0.088413998 169:0.056015 202:0.071707003 213:0.085350998 260:0.094265997 290:0.050494999 300:0.055706002 323:0.079245001 328:0.197163 433:0.058984999 459:0.139457 494:0.075096004 559:0.073432997 582:0.129042 592:0.060695 623:0.072641999 652:0.114385 782:0.081610002 811:0.066125996 889:0.093255997 928:0.075773999 954:0.103666 984:0.34163201 990:0.26378301 992:0.111757 993:0.056015 995:0.088743001 1007:0.090451002 1020:0.26972899 1060:0.206256 1083:0.121868 1133:0.073077999 1312:0.093455002 1317:0.078358002 1396:0.107211 1427:0.138813 1446:0.176551 1666:0.103666 1760:0.105215 1788:0.091908 1933:0.106528 2033:0.131669 2080:0.100037 2198:0.14178 2424:0.22970501 2585:0.154061 2715:0.162002 2716:0.169176 2717:0.33282399 #
-0.33932788036696476252629395276017 2:0.092542 3:0.171804 9:0.050756 23:0.042263001 45:0.066680998 53:0.111102 60:0.061012998 62:0.116967 69:0.053936001 75:0.052958999 81:0.081692003 87:0.036504999 88:0.066575997 94:0.074082002 105:0.034081999 112:0.030187 121:0.121806 126:0.029681001 180:0.080170996 205:0.055698998 216:0.070959002 223:0.075668998 232:0.037103001 239:0.023 244:0.049816001 257:0.083570004 293:0.077270001 297:0.084316999 364:0.23922101 370:0.048218001 382:0.117256 390:0.148344 392:0.073881999 430:0.106593 452:0.059243001 453:0.073484004 464:0.081347004 560:0.081952997 592:0.072768003 622:0.116973 650:0.086781003 668:0.07102 697:0.099684 707:0.171249 758:0.399701 825:0.078102998 835:0.112284 869:0.118123 880:0.258679 885:0.087090999 903:0.239825 1268:0.083021 1299:0.231244 1317:0.093943998 1364:0.198053 1517:0.12692 1617:0.108443 1756:0.27654499 1998:0.124286 2396:0.12937801 2658:0.128124 3678:0.214948 #
-0.044340740228133439237989676939833 32:0.087128997 36:0.085161 42:0.13437399 60:0.108651 62:0.072659001 63:0.053479999 76:0.043799002 123:0.074759997 130:0.14092401 134:0.17239401 142:0.081101 156:0.040472001 210:0.089488 226:0.13544101 233:0.110279 239:0.024191 315:0.124563 322:0.078560002 352:0.052363999 397:0.082800001 415:0.095181003 419:0.058736 510:0.101085 559:0.092597999 588:0.104678 592:0.16061801 596:0.084934004 627:0.100356 630:0.166032 671:0.079438001 723:0.059161 724:0.134757 728:0.119128 771:0.096813001 777:0.092597999 786:0.137454 801:0.178782 807:0.092 811:0.083383001 1016:0.44818801 1116:0.13563 1217:0.140333 1269:0.13034301 1420:0.108548 1424:0.107991 1515:0.098398 1538:0.20848 1721:0.136529 1788:0.196225 2001:0.154469 2009:0.125496 2956:0.189014 3057:0.125177 3371:0.136988 12600:0.26966801 #
-0.71233596893428086094246509674122 14:0.078217 18:0.058219999 31:0.054976001 35:0.017860999 43:0.062429 44:0.036028001 76:0.038803998 83:0.062036999 85:0.067805998 87:0.034015 89:0.118169 91:0.059746999 94:0.11688 99:0.047816001 104:0.13846099 105:0.031757999 115:0.053218 126:0.027657 162:0.085206002 206:0.114503 229:0.084216997 238:0.079645999 243:0.269887 246:0.095512003 247:0.12714 251:0.112049 258:0.065618001 326:0.092015997 338:0.164883 355:0.228214 459:0.15579601 544:0.076527998 650:0.169701 656:0.078217 671:0.070377998 723:0.052414 782:0.091172002 812:0.093938001 813:0.096670002 990:0.123492 1004:0.067155004 1013:0.079829998 1020:0.35560599 1060:0.23042101 1101:0.12579501 1116:0.31355399 1125:0.080294997 1147:0.112344 1217:0.073430002 1317:0.087539002 1341:0.193865 1348:0.076447003 1420:0.096167997 1490:0.10697 1509:0.12579501 1729:0.112943 2033:0.14709599 2050:0.20029201 2375:0.167457 7469:0.208306 #
-0.54047888691573608976881359922118 10:0.030782999 14:0.063274004 23:0.076021001 31:0.093332 45:0.050264001 56:0.054949 70:0.048588 86:0.064061999 89:0.056458998 104:0.067930996 160:0.071924001 169:0.050622001 180:0.060433 181:0.096846998 185:0.15699799 199:0.067524001 217:0.047063001 219:0.076348998 243:0.106074 244:0.037551001 267:0.053764001 276:0.075813003 422:0.080958001 433:0.053307001 634:0.072874002 721:0.073308997 723:0.042399999 770:0.075259998 818:0.15454499 936:0.102154 937:0.064879 984:0.23924901 1026:0.107492 1118:0.11588 1122:0.201961 1269:0.093415998 1305:0.077004001 1312:0.084458001 1321:0.070423998 1353:0.067781001 1412:0.104223 1418:0.094235003 1663:0.31272501 1760:0.095086001 1764:0.11251 1788:0.083059996 2316:0.128131 2350:0.114471 3360:0.115165 3716:0.12575699 3740:0.43971601 3741:0.274335 3742:0.22653399 3743:0.285312 3744:0.17764699 3745:0.152889 #
0.28513007601646889188629074851633 5:0.078837998 11:0.052728001 16:0.087995999 21:0.110144 85:0.076029003 116:0.076434001 134:0.081602998 142:0.047582 150:0.092894003 155:0.077896997 190:0.110345 216:0.074138999 241:0.098899998 256:0.068171002 262:0.14159299 276:0.044036001 313:0.071013004 327:0.061558001 337:0.090349004 352:0.052017 368:0.230405 392:0.077192001 404:0.14559799 498:0.098982997 565:0.14446101 588:0.103985 595:0.106913 596:0.28668699 632:0.153447 685:0.109159 785:0.103496 793:0.138467 828:0.26880899 837:0.079134002 838:0.103821 933:0.071823999 956:0.10746 993:0.070165999 1012:0.083082996 1013:0.187848 1126:0.131771 1268:0.086741 1285:0.151885 1307:0.14631701 1321:0.28755799 1397:0.100124 1428:0.164933 1450:0.171786 1549:0.113524 1671:0.142709 2721:0.190263 3397:0.14828999 4356:0.34358799 #
1.0000000231766961178436758928001 15:0.050701 16:0.097257003 19:0.157561 23:0.11646 35:0.022135001 36:0.044553 44:0.044647999 48:0.087709002 61:0.107298 67:0.155894 69:0.13070901 83:0.076880001 112:0.034859002 116:0.084477998 179:0.100212 223:0.147947 232:0.042845 236:0.049507 239:0.026559999 241:0.088188998 272:0.152689 276:0.048670001 311:0.106864 315:0.13676099 352:0.057491001 370:0.055681001 387:0.093937002 419:0.064488001 426:0.095043004 440:0.095973998 458:0.15674999 470:0.134959 498:0.185231 577:0.15303899 596:0.222525 676:0.083006002 780:0.076700002 786:0.150914 828:0.29709899 933:0.166594 974:0.116414 1012:0.091826998 1013:0.167504 1110:0.118365 1126:0.086015999 1149:0.1198 1211:0.126984 1321:0.22641 1345:0.184948 1348:0.094737999 1468:0.099974997 2150:0.184948 2414:0.16242699 2711:0.157105 4225:0.213291 4257:0.196289 6318:0.234217 #
1.0000000231766961178436758928001 9:0.065205 35:0.024626 38:0.16711 70:0.082809001 73:0.140986 104:0.068378001 112:0.038780998 154:0.231858 156:0.083700001 172:0.116559 205:0.121156 292:0.088676997 327:0.075691998 340:0.099556997 370:0.061946001 393:0.081577003 411:0.14648201 491:0.114506 508:0.108934 510:0.123471 579:0.120522 581:0.20140401 627:0.207546 641:0.26056901 676:0.092344999 777:0.113104 833:0.14681201 1293:0.198754 1473:0.182337 1737:0.187705 2004:0.184044 4527:0.26757199 4977:0.22537699 7985:0.276142 8619:0.30276501 8620:0.32938701 #
1.0000000231766961178436758928001 14:0.077692002 15:0.040638 16:0.077953003 23:0.115234 35:0.017742001 36:0.074942 41:0.048682 43:0.147975 44:0.035785999 59:0.096713997 76:0.038543999 86:0.078659996 106:0.116401 114:0.111966 115:0.052861001 124:0.067291997 145:0.058469001 147:0.15671401 155:0.116838 170:0.081189997 179:0.080320999 194:0.084302999 216:0.065677002 225:0.095357999 227:0.086590998 232:0.034341 239:0.021288 248:0.056550998 272:0.122382 276:0.039009999 393:0.058773 420:0.085538 433:0.110823 485:0.109878 530:0.068443999 533:0.097221002 560:0.075852998 583:0.089612 623:0.080608003 723:0.052062001 776:0.122227 778:0.164818 789:0.099981003 804:0.090286002 855:0.161259 931:0.106011 933:0.063626997 993:0.062158 1014:0.101167 1140:0.084969997 1146:0.076095998 1681:0.097929999 1765:0.12592199 1896:0.111886 1937:0.179768 2451:0.173593 3098:0.15583199 3518:0.17650799 4155:0.166333 6544:0.218128 6545:0.36932299 6546:0.350326 6547:0.198948 6548:0.237308 #
1.0000000231766961178436758928001 11:0.043241002 35:0.023148 36:0.046592001 41:0.063515998 76:0.050287999 83:0.080397002 100:0.120569 131:0.082341999 142:0.115415 150:0.107367 156:0.078677997 239:0.027775001 356:0.095545001 370:0.058228001 415:0.109282 420:0.111603 433:0.085399002 492:0.190501 588:0.203495 596:0.204652 719:0.102747 780:0.080209002 853:0.16560601 889:0.13501599 1125:0.10406 1341:0.148388 1650:0.114083 1659:0.36840999 2077:0.14922801 2085:0.172189 6930:0.48186299 6938:0.40528399 13130:0.26995799 #
-0.30813113798007507604381771670887 109:0.176035 142:0.125219 206:0.199551 596:0.465969 723:0.154661 778:0.39377499 785:0.27236399 797:0.234209 1413:0.38176399 1681:0.492571 #
-0.060358093280491784127228527268016 6:0.063882001 11:0.023523999 12:0.107681 15:0.060534 35:0.012593 37:0.098039001 41:0.034554001 42:0.049571998 44:0.025401 65:0.046498001 76:0.046321001 87:0.023982 107:0.062593997 108:0.046340998 112:0.033578001 114:0.033303998 142:0.029919 143:0.039492998 151:0.060796 272:0.036401998 327:0.065536 330:0.06876 337:0.056809999 394:0.15843 411:0.074906997 415:0.059452001 452:0.038920999 555:0.072687 567:0.074247003 572:0.064773999 573:0.123216 665:0.059760001 671:0.049619 681:0.079205997 713:0.069766998 740:0.065178998 824:0.082373999 834:0.112794 837:0.049757998 839:0.233229 885:0.096873999 896:0.056876998 912:0.071103998 1258:0.093673997 1427:0.064574003 1505:0.116607 1669:0.062955998 2658:0.084172003 3434:0.146863 3435:0.146863 3441:0.123216 3765:0.133249 4240:0.13022099 4611:0.13022099 4630:0.10773 4644:0.13022099 5625:0.16844 5626:0.16844 5627:0.16844 5628:0.16844 5629:0.146863 5630:0.141212 5631:0.16844 5632:0.141212 5633:0.146863 5634:0.146863 5635:0.16844 5636:0.146863 5637:0.16844 5638:0.16844 5639:0.146863 5640:0.28519401 5641:0.16844 5642:0.13683 5643:0.125285 5644:0.16844 5645:0.16844 #
-0.11291496161840089418326726899977 10:0.067597002 15:0.042924002 35:0.01874 36:0.037719 44:0.090200998 91:0.131551 105:0.033319999 112:0.049968001 116:0.150093 122:0.049952999 126:0.029017 142:0.044523001 156:0.115846 197:0.067817003 210:0.083181001 262:0.132489 271:0.076886997 272:0.054171 276:0.069765002 290:0.059184998 315:0.068383001 383:0.057521001 419:0.054595999 443:0.062684998 448:0.059989002 453:0.071840003 596:0.078947 617:0.093415998 676:0.070272997 699:0.082246996 723:0.054990999 737:0.171425 741:0.090715997 777:0.086071 817:0.171128 926:0.110488 928:0.088815004 929:0.095509999 964:0.104209 991:0.077195004 993:0.111163 1012:0.202861 1013:0.199865 1063:0.35597101 1338:0.096841998 1422:0.090715997 1618:0.119139 1987:0.28858501 1988:0.298253 2038:0.21937101 2577:0.156578 2751:0.23282801 3057:0.116354 5331:0.37003601 #
-0.0069672187871406008122243669333784 11:0.032325 15:0.039636001 76:0.037594002 81:0.073747002 87:0.032954 124:0.065632999 126:0.026794 127:0.080867998 137:0.047159001 143:0.054269001 146:0.071069002 164:0.054575 170:0.079189003 205:0.050283 206:0.065517999 222:0.079478003 224:0.095342003 225:0.093007997 239:0.020764001 260:0.214112 271:0.070997998 276:0.038047999 290:0.054652002 292:0.062313002 328:0.151408 336:0.13709299 414:0.082117997 420:0.141259 433:0.063841 464:0.17524099 474:0.069958001 492:0.084109999 497:0.039769001 596:0.123431 628:0.173123 637:0.087664999 665:0.082117997 671:0.068182997 709:0.1238 759:0.079575002 780:0.059960999 792:0.21849 828:0.089008003 855:0.157285 979:0.093984 994:0.11964 1156:0.10884 1307:0.126423 1427:0.088734001 1611:0.175337 1615:0.104598 1998:0.112199 2077:0.111556 2140:0.13966399 2409:0.130583 2777:0.25876999 5130:0.188022 5133:0.178941 6978:0.154994 12566:0.391895 12567:0.23146001 12568:0.23146001 #
-0.2721437951615006678451891275472 7:0.102806 55:0.15368401 59:0.058961999 60:0.058290001 63:0.048579 70:0.061581999 75:0.050595999 90:0.14340401 91:0.103719 97:0.088771999 112:0.02884 114:0.048432 174:0.101272 216:0.114784 232:0.035448 236:0.120661 239:0.037206002 241:0.043093 250:0.085689999 256:0.062336002 325:0.102414 370:0.046066999 442:0.28327101 465:0.084214002 480:0.350476 579:0.089628004 722:0.078212999 858:0.06191 882:0.26667801 928:0.086792998 937:0.139228 941:0.185275 967:0.100173 1115:0.42556801 1268:0.079317003 1583:0.103403 1669:0.15501501 1671:0.220946 2038:0.214378 2164:0.13888501 2167:0.173979 2439:0.131552 3057:0.23862401 3754:0.173979 #
0.92512052515274889596952334613889 23:0.024561999 27:0.103925 35:0.01114 41:0.051755998 50:0.035484001 56:0.042366002 65:0.041134998 75:0.052113 76:0.024202 87:0.035921 126:0.01725 143:0.059154 165:0.073311999 181:0.105238 194:0.052935001 210:0.049449001 212:0.077312998 213:0.059471 243:0.081782997 248:0.060123 272:0.032203 282:0.11416 290:0.059572 337:0.050257001 338:0.082970001 340:0.045038 357:0.058026001 450:0.049058001 460:0.13099401 474:0.094517998 491:0.051801 721:0.14748999 723:0.032690998 738:0.042031001 811:0.046075001 812:0.058589999 818:0.119155 874:0.089625999 914:0.050735999 928:0.052797999 929:0.056777999 964:0.130008 979:0.102445 1007:0.063024998 1020:0.230277 1032:0.068313003 1040:0.067982003 1289:0.074225999 1317:0.160842 1321:0.054297 1339:0.081389003 1445:0.143774 1446:0.17337801 1450:0.056437001 1482:0.089344002 1571:0.069346003 1863:0.068480998 1888:0.071818002 2034:0.129491 2038:0.130411 2148:0.077301003 2149:0.1152 2163:0.074702002 2616:0.077583 2647:0.20494901 3033:0.124923 3450:0.220494 3770:0.097850002 3832:0.21904001 3881:0.104444 4014:0.117878 4066:0.31271499 4067:0.14901 4068:0.124923 4069:0.32684299 4070:0.117878 4071:0.14901 4072:0.25229701 #
1.0000000231766961178436758928001 11:0.037700001 14:0.071303003 15:0.037296001 35:0.016282 91:0.054466002 95:0.064947002 105:0.028951 112:0.053812999 142:0.081184998 181:0.064457998 183:0.080475003 195:0.096000999 205:0.047313999 233:0.089065 236:0.036417 246:0.207772 247:0.068452999 251:0.102144 257:0.070987001 273:0.081878997 290:0.051424 313:0.057734001 323:0.080702998 329:0.14301699 338:0.170912 397:0.113224 426:0.069913 443:0.054466002 448:0.109386 449:0.1099 452:0.050324 529:0.282204 623:0.073978998 671:0.064156003 723:0.047781002 741:0.078821003 769:0.130584 858:0.055045001 956:0.087366 1108:0.078821003 1110:0.087068997 1127:0.129987 1130:0.17527001 1211:0.093409002 1268:0.070522003 1296:0.134369 1339:0.20141301 1341:0.104378 1416:0.138165 1589:0.105881 1788:0.093598999 2246:0.12112 2250:0.120562 2455:0.41572699 2623:0.182586 2682:0.182586 2715:0.164984 2821:0.154687 3030:0.133169 7445:0.18989199 13204:0.182586 13460:0.217792 #
1.0000000231766961178436758928001 9:0.110074 10:0.052306999 11:0.027089 21:0.13503 23:0.054133002 36:0.049419001 112:0.038665999 115:0.073154002 156:0.049288001 199:0.240794 239:0.029461 240:0.137015 243:0.106456 247:0.103221 256:0.083573997 273:0.123466 274:0.19013301 276:0.053985 282:0.090121999 286:0.246727 297:0.107999 310:0.144132 318:0.17291901 443:0.082128003 585:0.224209 682:0.102584 686:0.303794 707:0.219348 757:0.30239999 809:0.188117 861:0.16108599 903:0.146376 910:0.104086 914:0.111819 1257:0.18714701 1317:0.25252801 1604:0.139174 2062:0.153622 2148:0.17036501 2659:0.169149 5860:0.233252 #
1.0000000231766961178436758928001 14:0.189577 31:0.055838 35:0.018142 45:0.063109003 62:0.065381996 65:0.113418 94:0.118713 99:0.048565999 105:0.032256 112:0.02857 113:0.041997999 115:0.054053001 126:0.028091 137:0.04944 142:0.043102 222:0.083324 232:0.059455998 236:0.040575001 239:0.021768 240:0.048241001 251:0.113807 256:0.104555 272:0.052441999 273:0.15446199 276:0.039889 310:0.106498 327:0.055762 338:0.135113 443:0.060683999 452:0.05607 459:0.093459003 512:0.104715 529:0.120495 544:0.077729002 665:0.086092003 670:0.100883 671:0.071482003 701:0.087116003 760:0.065925002 771:0.087116003 807:0.048893999 825:0.125156 928:0.085979998 929:0.156551 1020:0.117289 1069:0.092321999 1147:0.19319899 1278:0.137583 1317:0.088912003 1338:0.093750998 1339:0.31627899 1447:0.122855 1534:0.125429 1669:0.090696 1935:0.138282 1965:0.144596 2037:0.32202899 2124:0.170083 2187:0.140488 2455:0.177507 2750:0.15394001 2824:0.13690101 3149:0.17481001 4346:0.18048801 11185:0.223046 13697:0.242659 #
-1.0000000231766961178436758928001 6:0.067451 31:0.05768 50:0.101065 59:0.060334999 60:0.059648 62:0.067538001 70:0.063015997 87:0.035688002 104:0.052035 112:0.029511999 114:0.049559999 145:0.104566 156:0.037618998 232:0.036272999 236:0.109368 241:0.074662 257:0.138331 282:0.16414499 311:0.090471998 324:0.079527996 352:0.08241 356:0.077349998 365:0.12186 387:0.166898 422:0.104999 452:0.057918001 463:0.129104 688:0.12648501 751:0.27143699 833:0.189162 835:0.18586101 914:0.085346997 951:0.165004 979:0.172328 991:0.077195004 1104:0.25880501 1108:0.090715997 1119:0.096993998 1142:0.084941 1219:0.106646 1234:0.097764999 1317:0.091843002 1433:0.1052 1473:0.13875601 1518:0.112488 1589:0.20632701 1617:0.106018 1902:0.212109 2062:0.117253 2148:0.31029499 2928:0.18643899 3101:0.1646 3543:0.18643899 3701:0.28419599 #
-0.85788569060986152869929810549365 9:0.105968 11:0.035622999 23:0.042045001 31:0.058696002 36:0.038384002 49:0.068502001 50:0.060741998 51:0.083788998 59:0.103955 80:0.114469 87:0.036316998 88:0.066234 98:0.059347998 112:0.030032 115:0.056818999 144:0.081531003 145:0.062845998 157:0.221311 164:0.177175 197:0.069012001 198:0.17866001 211:0.102674 222:0.087586999 233:0.104312 239:0.022882 241:0.075976998 244:0.083912 286:0.27008399 292:0.11627 328:0.098548003 338:0.083883002 340:0.077096 392:0.073500998 419:0.055558 442:0.10013 444:0.089230999 453:0.073105998 466:0.130463 473:0.117515 493:0.068001002 512:0.110073 649:0.108525 655:0.102497 671:0.075139001 697:0.099170998 713:0.105651 825:0.13156 835:0.111706 837:0.075350001 863:0.107675 874:0.073105998 914:0.20725 970:0.18116701 974:0.169811 1020:0.12329 1298:0.185607 1317:0.24388 1321:0.092946 1446:0.124372 1618:0.121238 1729:0.120584 2039:0.124372 2062:0.119318 2063:0.18116701 2064:0.161817 2065:0.18659 2066:0.183755 2067:0.143906 2068:0.151994 #
-0.4245103560038853696134708570753 6:0.103268 35:0.028690999 44:0.057870999 51:0.12606201 76:0.062330998 84:0.28394699 99:0.076807 112:0.045182999 280:0.171048 354:0.092840999 443:0.095972002 529:0.45473799 777:0.13177601 780:0.099416003 1102:0.707982 1533:0.175934 2592:0.252004 #
-1.0000000231766961178436758928001 9:0.095504999 23:0.064159997 24:0.188471 32:0.074276999 36:0.034593999 41:0.079847999 57:0.093676999 59:0.093690999 61:0.083311997 74:0.104133 76:0.037338 112:0.027067 126:0.026613001 144:0.124414 164:0.113754 197:0.148421 198:0.076727003 232:0.033266999 236:0.03844 241:0.068475001 258:0.063139997 297:0.075600997 300:0.059882 317:0.094181001 324:0.072938003 341:0.073559999 443:0.057491001 464:0.072938003 527:0.121511 554:0.105135 555:0.099205002 585:0.092696004 686:0.101333 908:0.101112 914:0.186786 920:0.114154 945:0.091595002 960:0.118828 979:0.093346 1110:0.091904998 1131:0.089663997 1142:0.077901997 1158:0.37840199 1317:0.176772 1321:0.083768003 1348:0.073559999 1491:0.10987 1529:0.121985 1760:0.237359 1798:0.113799 1897:0.127258 2075:0.123461 2144:0.17673001 2497:0.31423599 3057:0.106712 3093:0.157297 3459:0.12556501 3832:0.20494699 6456:0.192728 13364:0.22988901 #
-0.22995554645046323294366175105097 4:0.184322 5:0.060848001 6:0.096800998 10:0.032931 18:0.050383002 22:0.056077 35:0.015457 37:0.078082003 44:0.031179 46:0.097741 49:0.055525001 58:0.071607001 59:0.049766 76:0.080133997 87:0.029437 99:0.086839996 122:0.041203 180:0.064649999 204:0.071874999 208:0.044250999 219:0.048239999 221:0.038633 239:0.018547 241:0.061584 272:0.044682 276:0.033987001 278:0.097222999 282:0.056738 297:0.067992002 337:0.069732003 352:0.067975 365:0.100515 387:0.111067 393:0.051206 433:0.057027001 442:0.081161998 497:0.035523999 504:0.069897003 518:0.082102001 529:0.102666 555:0.089221001 564:0.113933 572:0.079507001 585:0.17495599 597:0.058940001 656:0.067689002 676:0.057964001 677:0.073257998 767:0.075650997 813:0.083658002 838:0.080130003 898:0.394658 912:0.087277003 914:0.070396997 928:0.073257998 1126:0.060067002 1258:0.114982 1317:0.180776 1347:0.167771 1477:0.086607002 1601:0.085165001 1650:0.076181002 1669:0.077276997 1924:0.116078 2064:0.131162 4644:0.33544499 4645:0.180268 4646:0.43389601 4647:0.206754 4648:0.127297 #
1.0000000231766961178436758928001 45:0.097534999 110:0.087957002 112:0.026079001 114:0.043795001 126:0.025641 169:0.058017001 184:0.210035 206:0.062697999 236:0.118415 238:0.073841996 239:0.01987 243:0.071800001 271:0.067942999 287:0.092784002 313:0.14011601 392:0.063826002 434:0.063653998 458:0.117268 482:0.087957002 596:0.069762997 624:0.087376997 640:0.190511 676:0.13032 789:0.093319997 993:0.058017001 1012:0.163932 1037:0.096385002 1131:0.146274 1477:0.157097 1650:0.081614003 2165:0.094426997 2432:0.124964 2731:0.118473 3038:0.20359699 4243:0.16474999 8162:0.57183599 8872:0.18569501 8873:0.34472001 8874:0.221499 8875:0.19312499 #
1.0000000231766961178436758928001 49:0.055032998 52:0.083801001 87:0.029176001 99:0.041012999 113:0.074429996 123:0.056811001 124:0.058107998 232:0.029654 246:0.17192499 256:0.088294998 272:0.044286001 285:0.153953 312:0.1158 316:0.075294003 370:0.038538001 441:0.097667001 452:0.047350001 497:0.059615001 523:0.065922998 547:0.124461 552:0.072235003 572:0.078801997 662:0.126168 723:0.044957001 736:0.12800699 742:0.196721 837:0.060534 905:0.124461 1083:0.116776 1093:0.234503 1121:0.097400002 1296:0.074670002 1399:0.101756 1459:0.095365003 1515:0.074772999 1540:0.075505003 1847:0.126168 2069:0.165821 2452:0.131061 2639:0.28010601 3049:0.129999 3868:0.14186101 4117:0.14554501 4235:0.134565 4280:0.166464 5079:0.16210701 5356:0.25380501 6494:0.140213 6755:0.34696099 6756:0.17867 6757:0.20492101 6758:0.149901 6759:0.17867 6760:0.18835799 #
1.0000000231766961178436758928001 6:0.059937 31:0.086781003 128:0.111825 142:0.066987 317:0.36868799 811:0.116611 833:0.28460199 1420:0.151804 2037:0.209732 2056:0.209732 2891:0.37819901 3459:0.20598701 3672:0.239246 3724:0.23737399 4748:0.57557601 #
1.0000000231766961178436758928001 6:0.044089999 23:0.045727 24:0.22743399 33:0.23338699 44:0.070831001 70:0.069742002 76:0.094558001 83:0.072034001 87:0.066875003 93:0.080155998 101:0.128773 104:0.057588998 105:0.096225999 108:0.076321997 113:0.048013002 116:0.079154 126:0.032113999 142:0.049275 232:0.040144999 257:0.090420999 272:0.059953 338:0.091228999 350:0.054519001 387:0.088016003 419:0.060423002 434:0.079722002 440:0.089924999 450:0.15463801 459:0.106845 465:0.095374003 470:0.126452 496:0.136485 497:0.047665 545:0.171863 554:0.12686899 585:0.111859 596:0.087374002 616:0.105544 617:0.103387 682:0.086654998 757:0.150869 780:0.071865 787:0.093562998 817:0.189393 837:0.081949003 908:0.122015 914:0.094456002 933:0.074378997 1032:0.215332 1108:0.100399 1131:0.1082 1156:0.130449 1305:0.110531 1321:0.101086 1346:0.165305 1667:0.165305 1806:0.139985 2144:0.30057299 2304:0.20063999 2463:0.170801 3076:0.150869 3229:0.20293 3908:0.177426 4210:0.187727 #
1.0000000231766961178436758928001 10:0.035126999 11:0.030801 19:0.069316998 31:0.050749 35:0.016488001 42:0.064906001 43:0.057629 56:0.062702999 63:0.043738 75:0.077128999 104:0.045782998 114:0.043605 118:0.196613 122:0.074415997 137:0.044934001 208:0.047201999 214:0.13361999 225:0.150048 248:0.052556001 276:0.036254 283:0.11994 297:0.072526999 383:0.085689999 395:0.084808998 428:0.144492 441:0.105111 453:0.063207999 463:0.113591 482:0.087577 491:0.076668002 498:0.081490003 596:0.14577299 607:0.122084 628:0.097425997 728:0.097425997 741:0.079815999 778:0.058699999 794:0.087430999 799:0.14271501 855:0.071411997 892:0.110208 894:0.121906 896:0.074469998 975:0.080472998 991:0.067919001 1119:0.144492 1140:0.078965999 1269:0.106598 1338:0.085206002 1632:0.222507 1650:0.137586 1651:0.245591 1825:0.128388 1888:0.106294 2080:0.17467301 2128:0.12699699 2143:0.123227 2888:0.123227 3955:0.11994 4512:0.154581 6079:0.220541 6080:0.220541 6081:0.46283099 #
-0.3862085078797048987020446020324 5:0.066100001 6:0.035696 10:0.035773002 15:0.038461 35:0.016790999 38:0.054296002 44:0.033868998 73:0.096134 85:0.063744001 91:0.134032 113:0.038872 114:0.093194 143:0.05266 174:0.092855997 184:0.17128199 221:0.041967999 232:0.032501999 236:0.104844 244:0.043637998 315:0.103745 327:0.051612001 392:0.064718999 411:0.099881001 433:0.104888 475:0.093199998 588:0.087182999 596:0.119772 623:0.076289997 676:0.062967002 722:0.071713001 778:0.155991 785:0.086773001 787:0.075750001 856:0.094994999 976:0.089336999 993:0.099606 1012:0.069657996 1026:0.073778003 1146:0.072021 1236:0.107943 1413:0.121627 1547:0.106463 1650:0.140117 1651:0.201786 1655:0.14029901 1756:0.086773001 2199:0.112963 2493:0.125494 3591:0.249716 4638:0.133834 6573:0.164296 8161:0.433249 8162:0.52566701 #
-0.10454243871386109665522212708311 11:0.033468999 35:0.017917 36:0.036063001 38:0.057934999 44:0.036139 76:0.038924001 98:0.055759002 112:0.028216001 113:0.041476998 128:0.071060002 164:0.056506 175:0.123 179:0.081114002 229:0.084477 239:0.021498 240:0.047642998 241:0.042160001 312:0.079985 353:0.081018001 383:0.054995 414:0.085023999 452:0.055374999 491:0.141057 496:0.19963101 497:0.114955 595:0.16194201 627:0.21282101 728:0.105868 764:0.22747201 787:0.136852 791:0.086732 806:0.119001 825:0.073003002 837:0.070794001 971:0.2809 974:0.15954299 1058:0.15888099 1146:0.076847002 1151:0.18647701 1225:0.088302001 1240:0.116851 1403:0.113907 1478:0.120533 1816:0.160478 1824:0.35186201 2022:0.119757 2144:0.18423399 2210:0.17095301 2560:0.149701 2766:0.170211 3168:0.178251 4358:0.18958101 4516:0.178251 5093:0.155937 6232:0.194676 #
-0.57614320379178285413956928096013 12:0.074937001 23:0.085097 30:0.089638002 31:0.056607001 36:0.037018001 63:0.048785999 83:0.063877001 101:0.193341 105:0.032699998 108:0.067679003 114:0.048638999 142:0.073982 156:0.062509999 179:0.083261997 214:0.062458001 229:0.086714998 284:0.098513 293:0.074137002 311:0.150334 385:0.110564 397:0.075533003 418:0.103843 485:0.113902 523:0.133992 619:0.12903699 628:0.108672 656:0.080536999 676:0.116771 701:0.088315003 723:0.053969 778:0.065475002 783:0.072600998 799:0.26247901 825:0.12687901 858:0.062173001 928:0.087163001 993:0.109096 1004:0.069146998 1026:0.13681901 1146:0.078883 1223:0.115677 1372:0.28499001 1424:0.20674001 1650:0.23652101 1659:0.139477 1811:0.156059 1825:0.24247099 1826:0.14843699 2145:0.152542 2165:0.104872 2784:0.147496 3147:0.140911 4730:0.194603 6897:0.245998 6898:0.194603 6899:0.245998 #
-0.20105629762986640396427162613691 23:0.056219 44:0.051433001 49:0.091595002 59:0.048487 83:0.052306 95:0.060070001 99:0.040316001 134:0.061363 142:0.060580999 143:0.079967 236:0.033682 241:0.035436999 272:0.043533999 285:0.089382 315:0.054954998 350:0.067028001 351:0.050000999 358:0.28965801 385:0.043141 458:0.062987 518:0.079990998 535:0.115387 665:0.071466997 775:0.093506001 780:0.052184001 807:0.040589001 850:0.115997 909:0.107743 933:0.054009002 954:0.20492101 956:0.080806002 974:0.079204001 995:0.083590001 1156:0.094723001 1374:0.079990998 1512:0.113093 1698:0.216971 1747:0.115997 1756:0.18571401 2033:0.124024 2578:0.163635 2814:0.285932 3105:0.139451 3183:0.139451 3840:0.35163 4290:0.2308 4292:0.143071 4758:0.25368199 5150:0.13489 12219:0.185157 14266:0.20143799 14267:0.20143799 14268:0.20143799 #
-1.0000000231766961178436758928001 4:0.129908 6:0.039212 10:0.066535003 31:0.056774002 44:0.037206002 61:0.151389 63:0.048930001 87:0.035128001 107:0.091684997 170:0.084411003 198:0.082345001 214:0.062642001 219:0.097465999 221:0.046101999 239:0.022133 256:0.062785998 267:0.068634003 282:0.216472 286:0.229747 290:0.058256 300:0.064267002 317:0.101078 323:0.091424003 324:0.078279004 338:0.239021 356:0.076135002 370:0.046399999 444:0.086309001 464:0.078279004 491:0.085768998 512:0.106469 532:0.10126 533:0.21212301 583:0.093167998 611:0.087646998 760:0.067028999 807:0.049713001 811:0.076288998 813:0.099830002 838:0.095620997 964:0.102572 1032:0.113109 1126:0.150425 1127:0.226944 1146:0.079115003 1338:0.095321 1509:0.129908 1650:0.090907998 1665:0.118913 1863:0.295876 2039:0.203685 2056:0.35803899 2064:0.156518 4009:0.16201501 4748:0.15779699 6587:0.22678199 6725:0.172932 #
1.0000000231766961178436758928001 5:0.059875999 9:0.096107997 10:0.032405 11:0.028414 30:0.155581 35:0.025753001 49:0.054637998 92:0.076488003 109:0.086016998 112:0.023954 113:0.073896997 126:0.061457999 131:0.054106999 144:0.065030999 151:0.073432997 164:0.114472 180:0.063616998 198:0.11497 199:0.071082003 202:0.068218 233:0.083200999 241:0.060600001 275:0.077757999 276:0.079807997 282:0.055831999 286:0.090274997 292:0.092739001 300:0.052995998 308:0.104422 315:0.093976997 340:0.061492998 385:0.073775001 390:0.069522999 433:0.056116 494:0.071442999 559:0.069861002 592:0.057742 637:0.077056997 676:0.057039 708:0.100402 722:0.064962 758:0.167962 761:0.091513 777:0.069861002 780:0.052705001 783:0.060044002 797:0.067592002 812:0.19089299 858:0.051419999 885:0.069108002 914:0.165306 1109:0.100712 1142:0.068944 1146:0.065240003 1147:0.09567 1149:0.082322001 1150:0.22593699 1212:0.110646 1298:0.087436996 1317:0.156443 1370:0.081894003 1665:0.098057002 1666:0.098622002 1704:0.24719299 2182:0.131226 2191:0.104422 2199:0.102327 2385:0.104059 2497:0.197319 3404:0.318809 4211:0.146566 5696:0.426967 5697:0.165271 #
1.0000000231766961178436758928001 23:0.031528998 24:0.074722998 35:0.0143 36:0.028782999 80:0.085837997 87:0.064986996 114:0.037819002 126:0.037491001 142:0.033975001 157:0.165957 164:0.0451 232:0.046866 236:0.054152001 238:0.063766003 239:0.017159 241:0.03365 286:0.20253199 300:0.049823999 350:0.037590999 385:0.040964998 419:0.041662 572:0.073555 659:0.126811 686:0.084312998 697:0.074366003 708:0.094393998 758:0.093263999 771:0.116268 812:0.12733901 951:0.074366003 961:0.10845 984:0.168005 1000:0.116956 1040:0.087265 1110:0.076468997 1158:0.22429 1159:0.19932801 1160:0.38587201 1299:0.17251401 1313:0.115417 1317:0.070084997 1556:0.123372 1740:0.089943998 1806:0.096519001 1859:0.120394 2006:0.089708 2085:0.106374 2144:0.18226001 2497:0.26145601 2665:0.103582 3058:0.219157 3404:0.125605 5962:0.147875 6174:0.125605 6742:0.160357 6904:0.160357 6905:0.191276 6906:0.16677301 6907:0.14227 6908:0.175817 #
1.0000000231766961178436758928001 3:0.088362999 9:0.054784 10:0.074630998 11:0.047905002 14:0.153404 23:0.045616999 38:0.066901997 44:0.041733 57:0.112769 69:0.122175 87:0.094024003 88:0.07186 94:0.079962 99:0.055388 104:0.097271003 112:0.032582998 120:0.140582 123:0.076722004 151:0.099886 232:0.067806996 239:0.024826 240:0.055016998 247:0.086981997 271:0.178147 272:0.059808001 323:0.102548 324:0.087803997 354:0.066950999 393:0.116048 402:0.23195 474:0.083645001 492:0.100566 536:0.152501 543:0.25713 555:0.119424 650:0.093668997 656:0.090603001 699:0.15374701 728:0.122254 777:0.095027998 802:0.146276 914:0.094227999 935:0.095142998 1000:0.35511699 1142:0.196807 1154:0.133763 1159:0.232673 1374:0.109895 1518:0.124193 1570:0.12477 1669:0.103436 2068:0.164906 2414:0.151822 3912:0.174189 8518:0.25437599 8939:0.22480799 #
1.0000000231766961178436758928001 9:0.046599999 11:0.019416999 12:0.121414 18:0.057365 21:0.16388001 44:0.035498999 61:0.085311003 64:0.083844997 76:0.038233999 85:0.066811003 86:0.078028999 87:0.033516001 112:0.027716 126:0.057188999 164:0.116483 169:0.104398 172:0.141041 182:0.089291997 198:0.133026 248:0.056097001 272:0.142028 276:0.038697001 282:0.18034799 297:0.184733 327:0.091590002 328:0.090948001 336:0.082349002 370:0.044271 410:0.074608997 420:0.236885 554:0.107657 623:0.079961002 676:0.065995999 697:0.091522999 731:0.074924998 794:0.093323 797:0.078207001 830:0.119582 833:0.220191 835:0.246007 914:0.135709 958:0.114444 994:0.121679 1060:0.108185 1317:0.205826 1321:0.085777998 1348:0.075323999 1420:0.198856 1422:0.085194997 1544:0.13704 1618:0.23480999 2067:0.132808 2148:0.122118 2596:0.14704899 2708:0.16958401 4989:0.175092 7422:0.216378 11607:0.216378 12187:0.235404 #
1.0000000231766961178436758928001 10:0.052090999 35:0.024451001 39:0.116487 49:0.087830998 142:0.058092002 143:0.076681003 212:0.100219 243:0.106015 247:0.102793 282:0.151959 300:0.085190997 354:0.079121001 433:0.090205997 474:0.257943 494:0.19444899 794:0.129655 811:0.101126 980:0.46504599 1374:0.129871 1578:0.41576001 1617:0.360955 2184:0.12695201 3832:0.36138701 8080:0.27418199 #
-1.0000000231766961178436758928001 9:0.044822 15:0.038773 48:0.113566 56:0.064374 75:0.079184003 81:0.072140999 87:0.067652002 121:0.051254999 126:0.062546 143:0.053087 147:0.088310003 156:0.033980999 169:0.059305001 205:0.049187999 208:0.048459999 214:0.097333997 221:0.042307999 239:0.020311 272:0.10269 286:0.210839 300:0.058977999 327:0.088094003 340:0.143618 352:0.043965001 370:0.042580999 420:0.138182 440:0.073394999 492:0.082277998 554:0.175321 690:0.089760996 692:0.12902699 758:0.26344499 761:0.101844 793:0.117034 812:0.089025997 833:0.100917 903:0.100917 1142:0.076725997 1147:0.277825 1150:0.105369 1159:0.23594899 1317:0.082961001 1318:0.139404 1418:0.110399 1422:0.081942998 1617:0.200973 1681:0.15820099 1688:0.114632 1729:0.107037 1769:0.10619 1888:0.109126 2062:0.25274101 2122:0.13108499 2144:0.174062 2193:0.15010899 3404:0.148681 3574:0.153218 4989:0.168409 5111:0.226418 5112:0.179113 5113:0.163111 #
-0.36846210733579287666117352273432 10:0.061003 18:0.093332998 19:0.071098 23:0.037287001 33:0.064600997 69:0.080569997 83:0.058738001 98:0.052632 104:0.046959002 105:0.030068999 112:0.026633 114:0.044725999 127:0.079033002 216:0.105999 272:0.048886001 285:0.169945 286:0.26191601 351:0.095068 370:0.042541001 389:0.072614998 420:0.19457 450:0.074473001 457:0.071245998 465:0.077768996 492:0.082200997 637:0.085676 686:0.099710003 758:0.110296 759:0.131675 812:0.150593 835:0.20789699 840:0.097216003 863:0.095489003 874:0.064832002 903:0.170709 914:0.16163699 1196:0.100597 1209:0.084302999 1316:0.113403 1353:0.079333 1424:0.090586998 1669:0.084547997 1688:0.114526 1762:0.33393899 2034:0.243651 2037:0.1258 2080:0.105815 2535:0.108411 3340:0.115698 3400:0.19723 3404:0.25150499 3881:0.15855201 4158:0.165473 7228:0.20792399 8672:0.226207 8673:0.189641 #
-1.0000000231766961178436758928001 11:0.030241 12:0.065961003 15:0.037080999 21:0.15074401 42:0.063726999 44:0.032653999 88:0.056226 127:0.075653002 149:0.070656002 164:0.051054999 205:0.079645999 217:0.052728001 261:0.087462999 272:0.079232998 282:0.175052 294:0.103776 297:0.120567 323:0.13585401 336:0.075747997 338:0.198798 340:0.065447003 350:0.042555001 351:0.053748 356:0.066820003 365:0.10527 420:0.13214999 512:0.093442 737:0.087462999 833:0.284316 835:0.199008 837:0.063965 858:0.054726999 874:0.062059999 901:0.13427199 914:0.124832 1196:0.096294999 1279:0.130658 1316:0.108554 1321:0.13359299 1408:0.27978399 1447:0.109628 1490:0.096951 1518:0.164529 1721:0.109628 1731:0.086567 1741:0.095032997 2414:0.118791 2444:0.131514 2485:0.19454101 3030:0.13240001 6113:0.188796 7471:0.171295 11055:0.19903401 11788:0.216535 11789:0.19903401 11790:0.216535 11791:0.216535 #
-0.79302464966778396515678650757764 9:0.156665 35:0.059165999 156:0.118775 169:0.20729101 232:0.114525 247:0.248742 420:0.48298901 474:0.2392 721:0.30019099 929:0.510571 1209:0.29494101 1693:0.334075 #
-0.0683689235023033498039879418684 6:0.055080999 30:0.074585997 31:0.047102001 35:0.015303 38:0.083783001 44:0.030866999 57:0.141223 76:0.033245999 89:0.059796002 112:0.0241 126:0.023695 144:0.110777 189:0.114919 222:0.070285998 286:0.15378 313:0.054260999 354:0.049518999 374:0.101014 466:0.17726 597:0.122458 707:0.13671499 758:0.168984 759:0.070372 780:0.053025998 812:0.237094 874:0.058665 897:0.106968 906:0.13215999 908:0.090029001 1130:0.164726 1147:0.096252002 1150:0.29334 1397:0.076504998 1438:0.132025 1494:0.107777 1544:0.35103399 1731:0.081831001 1874:0.16627701 2182:0.223537 3404:0.28208101 6196:0.42588001 6197:0.18814699 6198:0.161925 #
1.0000000231766961178436758928001 1:0.066894002 45:0.061136 48:0.069637999 59:0.135024 87:0.033468999 91:0.058786999 98:0.054694999 104:0.048799999 105:0.031248 113:0.040685002 121:0.053215001 126:0.027213 142:0.041754998 156:0.03528 174:0.097185999 205:0.086465001 217:0.057243001 221:0.043924998 227:0.085776001 239:0.021088 240:0.046732999 241:0.098683998 246:0.093978003 251:0.110249 254:0.130128 258:0.064563997 273:0.088376001 311:0.084845997 338:0.077304997 341:0.075218 352:0.045646001 370:0.044209 385:0.050345 387:0.074583001 397:0.072177999 415:0.082970001 448:0.095255002 452:0.054317001 453:0.067373 459:0.090538003 506:0.117097 627:0.087481998 665:0.083400004 723:0.051571999 737:0.094950996 760:0.063864 767:0.086012997 954:0.113951 991:0.072394997 1060:0.257799 1065:0.115654 1113:0.17484599 1234:0.091686003 1317:0.086131997 1321:0.085657999 1340:0.088118002 1446:0.114619 1477:0.234979 1478:0.118231 1591:0.149128 1630:0.155847 1767:0.122392 1924:0.13197701 1940:0.178075 2338:0.22239 2375:0.164767 2424:0.252496 2658:0.11747 4535:0.235074 4536:0.235074 4537:0.18173499 4538:0.235074 4539:0.18173499 #
1.0000000231766961178436758928001 6:0.041487001 10:0.070395999 23:0.043028001 35:0.040956002 36:0.066509001 44:0.039365001 59:0.106386 60:0.062118001 67:0.137446 87:0.077996999 115:0.058146998 122:0.109174 150:0.090521 209:0.091201998 239:0.023417 241:0.045922 249:0.067836002 276:0.090053 282:0.071635 316:0.201285 322:0.076045997 341:0.083526999 357:0.101651 383:0.142947 410:0.140081 429:0.101329 497:0.075939998 523:0.083976001 575:0.093714997 596:0.082217 665:0.092612997 670:0.108524 686:0.115064 807:0.052598 1013:0.18304899 1033:0.102806 1105:0.152821 1110:0.104358 1126:0.075838 1142:0.088458002 1305:0.104007 1307:0.24140701 1345:0.16306201 1424:0.17699499 1427:0.100074 1460:0.25588399 1540:0.096183002 1549:0.23215701 1558:0.135911 1632:0.15554801 1717:0.131291 1729:0.123404 1769:0.122427 1784:0.141361 1903:0.14655501 1945:0.16306201 1967:0.168369 1972:0.141964 4418:0.194159 4805:0.20650101 11018:0.26103899 #
1.0000000231766961178436758928001 5:0.071162999 6:0.113211 15:0.041407 16:0.079429001 22:0.065582998 37:0.053934 40:0.29512301 43:0.063184999 52:0.098884001 60:0.057539999 69:0.050866999 76:0.039273001 104:0.050195999 105:0.032141998 123:0.067034997 142:0.072719999 149:0.078900002 162:0.086236998 175:0.124105 205:0.110239 229:0.085235998 239:0.021691 256:0.061533999 272:0.052257001 350:0.047520999 394:0.18291 395:0.092984997 402:0.119697 443:0.102385 447:0.116211 452:0.055872001 464:0.076718003 567:0.106584 568:0.16594701 593:0.29493499 671:0.071229003 713:0.16957401 764:0.096179999 829:0.30862501 834:0.161919 837:0.071428999 874:0.069302 897:0.21394899 1103:0.121615 1217:0.074317999 1285:0.137098 1353:0.084802002 1690:0.167394 1713:0.19676299 2113:0.25206801 2338:0.135106 2551:0.191017 3142:0.165448 3616:0.19642401 4931:0.17174 5131:0.158783 #
1.0000000231766961178436758928001 23:0.081653997 44:0.074702002 93:0.143132 99:0.16786499 126:0.120345 150:0.290847 256:0.12606201 353:0.167468 415:0.174843 523:0.26982099 559:0.17009901 560:0.158338 721:0.490316 889:0.36574599 1198:0.20331 1209:0.184615 1225:0.30904001 1274:0.231723 1902:0.199743 #
1.0000000231766961178436758928001 10:0.034890998 18:0.053382002 31:0.050407998 76:0.035580002 99:0.074231997 103:0.093574002 105:0.029119 118:0.115343 119:0.065826997 122:0.043655999 124:0.062116999 131:0.058258001 156:0.101242 181:0.064833 195:0.096560001 205:0.047589 219:0.051111002 243:0.071009003 256:0.055746 392:0.063123003 444:0.076632001 453:0.062784001 460:0.155367 469:0.112828 484:0.173343 485:0.101429 544:0.118807 585:0.088329002 592:0.062171999 650:0.12553801 668:0.186856 721:0.140688 778:0.058304999 882:0.209736 926:0.096560001 964:0.091072001 965:0.118132 992:0.114477 993:0.057378002 995:0.15391 1125:0.073623002 1146:0.070244998 1338:0.084633 1341:0.104986 1468:0.073968999 1656:0.149887 1669:0.081876002 1694:0.102207 1768:0.117168 2083:0.121825 2451:0.160244 2598:0.110177 3365:0.288445 9933:0.21906 9934:0.21906 9935:0.21906 9936:0.21906 9937:0.21906 9938:0.21906 9939:0.21906 9940:0.21906 #
-0.38492470840151854494237682047242 1:0.075331002 11:0.056977998 23:0.043635 32:0.144815 35:0.019791 36:0.083598003 45:0.068846002 64:0.094286002 71:0.110678 88:0.068737999 104:0.054954 122:0.089322001 149:0.086378001 156:0.103671 205:0.057507999 216:0.073262997 224:0.109042 238:0.185202 239:0.023747001 240:0.15503401 248:0.10681 254:0.146539 276:0.139129 297:0.087054998 317:0.10845 321:0.094783999 350:0.088085003 351:0.065707996 392:0.076281004 434:0.076075003 474:0.080011003 485:0.12257 560:0.084614001 697:0.268565 738:0.074670002 780:0.068576999 1013:0.26057601 1142:0.089704998 1225:0.097539 1342:0.100262 1449:0.135867 1944:0.177266 2003:0.172249 2837:0.172249 3152:0.303305 3377:0.411616 10415:0.26471999 10416:0.26471999 #
-0.2634269319691374677816497751337 2:0.070115 6:0.052274 11:0.02713 14:0.063598 21:0.079871997 23:0.083555996 44:0.061477002 55:0.071983002 69:0.040865 76:0.075291 86:0.064391002 98:0.045198001 99:0.065828003 102:0.083829001 104:0.040327001 112:0.022871001 113:0.033620998 116:0.14463399 169:0.050882 190:0.135483 197:0.052556999 216:0.053762998 217:0.080091998 231:0.057709999 239:0.017426001 248:0.078380004 272:0.088104002 318:0.173182 350:0.064639002 443:0.048579998 465:0.066785 482:0.13061 577:0.170011 597:0.055378001 624:0.076631002 634:0.073247001 648:0.081528999 723:0.042617999 780:0.050324 828:0.194931 837:0.057385001 894:0.086631998 933:0.052083999 979:0.188227 1075:0.096161999 1166:0.225674 1217:0.059705999 1256:0.091107003 2026:0.181247 2038:0.170011 3862:0.136159 3917:0.35544899 5272:0.35115799 5989:0.142102 6279:0.30232501 6280:0.162857 6281:0.26019099 6282:0.14448801 6283:0.194258 #
-0.1276967495041729794280627174885 13:0.085607998 41:0.043853 60:0.050870001 69:0.044969998 76:0.034720998 104:0.044378001 105:0.028417001 112:0.025169 142:0.037971001 209:0.074688002 233:0.087421 238:0.071266003 239:0.040245 273:0.168662 312:0.071347997 419:0.046562001 497:0.036729999 538:0.101607 552:0.127588 568:0.181844 569:0.26898801 585:0.086198002 611:0.128581 638:0.18449099 671:0.106621 802:0.112992 811:0.111917 853:0.11434 895:0.086048998 1037:0.157501 1093:0.079439998 1101:0.112559 1217:0.065702997 1425:0.13788299 1483:0.110897 1587:0.130712 1971:0.132559 2358:0.13561501 3639:0.12738299 4046:0.151832 4146:0.13561501 4286:0.179217 4382:0.33269399 6144:0.154001 6494:0.14627001 6756:0.186388 7448:0.29402301 11793:0.361949 11794:0.213773 #
-0.073329427886351744581006073531171 8:0.077459 11:0.063601002 35:0.022090999 56:0.084013 58:0.10234 60:0.070316002 75:0.061035 91:0.073895998 105:0.039278999 123:0.081919 126:0.034207001 128:0.087618001 131:0.078584999 143:0.069282003 156:0.123808 206:0.083641998 208:0.063243002 219:0.144686 239:0.026508 241:0.124047 276:0.048574001 324:0.093751997 350:0.058072001 352:0.097149 401:0.108724 433:0.081501998 460:0.38116801 493:0.078776002 525:0.15328801 526:0.156185 554:0.28359899 560:0.094449997 623:0.169943 676:0.082842 697:0.320728 731:0.094048999 761:0.13291299 778:0.078648001 803:0.108572 837:0.087288998 858:0.12644801 887:0.115067 976:0.117536 1026:0.097065002 1115:0.16670799 1297:0.15328801 1317:0.108269 1617:0.124979 1620:0.21615399 1728:0.208388 2572:0.16069999 4293:0.15384901 11106:0.271608 #
-0.39977168325771289536518793283904 7:0.113768 10:0.043175999 15:0.04642 31:0.14885101 35:0.020266 38:0.065531999 41:0.055608999 50:0.064552002 73:0.34180501 104:0.134285 105:0.036033999 112:0.031916 126:0.031380001 128:0.080379002 131:0.072091997 143:0.063556999 145:0.066789001 164:0.063914999 199:0.094709001 212:0.198222 225:0.184429 231:0.080531001 232:0.039228 236:0.045325998 239:0.041173 273:0.17255101 282:0.156114 297:0.18708099 395:0.104242 433:0.074767999 497:0.046576001 522:0.136338 525:0.140623 526:0.143281 530:0.078183003 560:0.086645998 738:0.076462999 810:0.12583099 858:0.068511002 936:0.143281 1025:0.216396 1040:0.20939299 1093:0.100735 1146:0.086924002 1196:0.12055 1468:0.091534004 1501:0.110855 1588:0.166899 2277:0.176385 3065:0.28460401 3583:0.27024701 4207:0.187659 14285:0.27107501 #
0.12192427596064080164151022245278 4:0.123698 10:0.037418 15:0.040229999 35:0.017564001 41:0.048193 88:0.061003 108:0.064632997 112:0.027659999 119:0.070596002 131:0.062477998 138:0.064360999 142:0.070652999 156:0.035257999 162:0.083786003 199:0.138973 213:0.093760997 216:0.065018997 223:0.069334 239:0.021074999 272:0.050771002 274:0.136013 282:0.064470001 313:0.062277 338:0.13080899 340:0.071006998 353:0.079421997 370:0.044181 401:0.086441003 433:0.064797997 465:0.13675199 596:0.19307999 597:0.066972002 676:0.065862998 812:0.092372 835:0.102884 935:0.080767997 1037:0.102229 1104:0.115583 1121:0.111663 1131:0.15514199 1225:0.086562 1232:0.15286499 1240:0.114549 1250:0.14268599 1321:0.252184 1340:0.088063002 1355:0.13676301 1397:0.087807 1471:0.145678 1863:0.107967 1926:0.116294 2062:0.109895 2089:0.12888201 2165:0.100152 2211:0.143648 3352:0.164665 3701:0.330147 3702:0.234929 3703:0.15286499 3704:0.234929 3705:0.234929 3706:0.234929 3707:0.19084001 #
1.0000000231766961178436758928001 6:0.033241 9:0.041404001 11:0.029211 15:0.035817001 23:0.058373 24:0.081707999 30:0.076214001 31:0.048129 36:0.053289998 54:0.093222998 55:0.13122401 70:0.052581999 87:0.029779 98:0.048664 112:0.024625 145:0.087252997 157:0.18147001 164:0.083498999 239:0.018763 282:0.120454 286:0.22146399 311:0.075492002 338:0.068782002 340:0.164961 352:0.068765 419:0.045556001 420:0.075390004 473:0.16315199 474:0.107036 594:0.088290997 690:0.082918003 776:0.107727 777:0.071819 835:0.19222599 952:0.088812001 1142:0.16913199 1147:0.098352 1150:0.097336002 1317:0.22576299 1397:0.078174002 1617:0.185651 2062:0.097838998 3831:0.192251 5063:0.43517101 5066:0.15844201 5073:0.38586 7421:0.16990399 14542:0.20915601 14543:0.20915601 #
1.0000000231766961178436758928001 3:0.080633998 4:0.13296901 9:0.104913 12:0.076927997 16:0.14045499 23:0.108622 69:0.089947 70:0.063487999 85:0.15041301 97:0.091518998 99:0.050542999 119:0.075887002 121:0.16841 169:0.066146001 187:0.126196 199:0.088230997 202:0.084675997 241:0.093234003 272:0.054575998 315:0.068894997 323:0.093576998 337:0.178745 338:0.23185 385:0.054083999 393:0.131256 448:0.126836 596:0.079538003 650:0.085474998 671:0.15611801 685:0.215958 699:0.082861997 771:0.090662003 840:0.183759 874:0.122546 894:0.066515997 903:0.236215 906:0.077694997 933:0.067708999 974:0.168121 1013:0.084381998 1107:0.137934 1317:0.092529997 1321:0.193115 1346:0.150481 1440:0.150481 1555:0.112055 1617:0.106811 1941:0.13979501 2315:0.30802599 2385:0.129164 3701:0.16910701 3833:0.174824 4163:0.179363 12172:0.232124 #
1.0000000231766961178436758928001 15:0.040201999 16:0.077115998 23:0.038697001 31:0.12891001 33:0.067043997 35:0.017550999 48:0.069545001 56:0.066745996 60:0.055865001 64:0.083616003 69:0.083617002 70:0.059020001 91:0.058708999 99:0.079553001 100:0.091417998 102:0.24174801 114:0.110764 116:0.159843 126:0.027176 152:0.147765 208:0.050244998 210:0.077904999 219:0.054774001 232:0.033973001 244:0.077229001 248:0.055943999 267:0.065306999 284:0.094012998 294:0.112511 340:0.070955999 341:0.075119004 350:0.046137001 387:0.126112 415:0.08286 422:0.098338999 453:0.113921 533:0.229507 596:0.073940001 624:0.19434901 688:0.118462 780:0.060816001 783:0.069284 837:0.069348998 859:0.18545499 933:0.106573 1004:0.065987997 1209:0.087490998 1321:0.204133 1426:0.107625 1599:0.116574 2038:0.205457 2149:0.181494 3096:0.174614 6808:0.177838 8563:0.51493102 8564:0.21578699 #
0.80659155444112051736027524384554 12:0.07102 23:0.038430002 42:0.068613 62:0.062817 94:0.067363001 103:0.16861901 121:0.052777 142:0.070115 186:0.16794699 195:0.102766 197:0.132374 198:0.077812001 201:0.093845002 214:0.059193999 281:0.096926004 286:0.103449 297:0.25320801 311:0.084149003 313:0.104641 385:0.049931001 443:0.13913 444:0.171157 454:0.097475 459:0.089792997 591:0.237863 595:0.093047 697:0.090643004 737:0.094169997 833:0.103913 882:0.106364 976:0.092735 979:0.094665997 1001:0.226541 1012:0.122427 1218:0.095002003 1293:0.140678 1321:0.178284 1998:0.113014 2062:0.22887 2089:0.127901 2432:0.131531 2888:0.13026699 2927:0.36949599 5938:0.170544 7139:0.41018099 #
-1.0000000231766961178436758928001 6:0.070958003 9:0.109548 10:0.041999999 11:0.021751 24:0.174417 32:0.144254 35:0.019714 41:0.054094002 44:0.039765 56:0.074972004 59:0.133203 68:0.122404 76:0.072516002 85:0.074840002 88:0.068471998 98:0.128757 104:0.054740999 112:0.031047 113:0.045637999 134:0.080326997 145:0.110004 151:0.095175996 164:0.062174998 192:0.093433 197:0.120795 198:0.088009 199:0.092129 239:0.023654999 241:0.097352996 245:0.121789 292:0.120198 324:0.083663002 354:0.063793004 370:0.049591001 385:0.095619 410:0.083575003 452:0.060929999 457:0.083053 484:0.099428996 519:0.119445 543:0.116746 545:0.16336299 561:0.167117 635:0.112191 648:0.26409101 649:0.112191 682:0.082369 687:0.147338 1142:0.21323299 1146:0.143167 1258:0.14664701 1317:0.202765 1321:0.096086003 1432:0.195526 1533:0.120889 1617:0.23405901 1618:0.212209 1723:0.141041 1728:0.109833 1896:0.210502 2780:0.15350799 3832:0.235083 4211:0.189963 #
-1.0000000231766961178436758928001 10:0.038176998 49:0.064369999 56:0.143015 70:0.102026 76:0.038929999 84:0.104744 86:0.079449996 106:0.117569 142:0.089346997 150:0.140729 179:0.13736001 236:0.040077999 239:0.021501999 272:0.051800001 285:0.106355 293:0.17237499 328:0.092603996 337:0.080839999 338:0.232207 352:0.046542 356:0.073964998 370:0.045077 415:0.084599003 482:0.161155 512:0.103434 538:0.113925 588:0.093041003 596:0.075492002 671:0.119548 780:0.130308 874:0.068696 887:0.158034 935:0.139523 993:0.062781997 1012:0.15600801 1127:0.084491 1130:0.113925 1217:0.073669001 1312:0.104744 1321:0.25729501 1338:0.092603996 1348:0.129857 1423:0.115196 1574:0.225693 1706:0.15596201 2062:0.112121 2403:0.127689 3630:0.194708 4758:0.30185401 5272:0.18157201 5273:0.23968901 5274:0.23968901 5275:0.23968901 #
-1.0000000231766961178436758928001 9:0.090021998 10:0.030353 24:0.074446 41:0.039092999 48:0.056453001 59:0.045869999 69:0.040088002 99:0.038139999 104:0.039560001 126:0.022061 137:0.065739997 199:0.066579998 205:0.041398998 221:0.060291 233:0.077931002 239:0.017095 241:0.033525001 340:0.057599001 350:0.037450999 354:0.046101999 448:0.07722 470:0.051304001 474:0.057599001 533:0.078071997 545:0.069728002 575:0.068415001 579:0.069728002 582:0.114989 652:0.101928 671:0.056136001 676:0.053426001 682:0.142049 716:0.068053998 740:0.073740996 765:0.162104 780:0.049366999 823:0.28484499 1020:0.092110001 1133:0.065119997 1146:0.061108001 1317:0.194934 1321:0.117572 1348:0.060977001 1669:0.071226999 2067:0.107513 2304:0.081403002 2453:0.38124001 2668:0.119948 2807:0.119948 3376:0.12761 3466:0.123999 3482:0.130392 3832:0.10034 3833:0.131925 4478:0.111564 4602:0.125139 5156:0.249446 5694:0.13535 6316:0.28132501 6317:0.175165 6318:0.25524601 6319:0.15480401 6320:0.249446 6321:0.166155 #
-0.93275156480918086643328024365474 9:0.047947999 12:0.073784001 23:0.067599997 35:0.018107999 45:0.062992997 80:0.108698 83:0.10649 98:0.056356002 112:0.028518001 113:0.070978001 120:0.123042 126:0.028039001 142:0.072843999 156:0.036352001 174:0.100139 219:0.056513 232:0.059347 239:0.021728 244:0.047061 248:0.057720002 261:0.097836003 276:0.103898 282:0.066468999 312:0.080839999 317:0.099230997 327:0.055659998 328:0.158443 337:0.17144001 338:0.134866 351:0.060121998 353:0.081885003 385:0.051874001 399:0.111315 441:0.115441 459:0.093287997 488:0.203061 533:0.099230997 568:0.098177999 596:0.076288 697:0.19762801 848:0.146154 896:0.081788003 951:0.094171003 1126:0.070368998 1217:0.074445002 1218:0.098699003 1317:0.15026499 1321:0.088260002 1368:0.096506 1478:0.121823 1500:0.124754 1604:0.102647 1605:0.13665099 1607:0.20832799 1612:0.16058099 1615:0.109458 1617:0.102446 1694:0.19134299 1731:0.096832998 2006:0.238399 2147:0.16058099 2648:0.159054 3025:0.183484 3701:0.162195 4235:0.159054 4564:0.167679 5491:0.17449 6823:0.177182 13307:0.24221399 #
-1.0000000231766961178436758928001 10:0.031075001 23:0.076742999 35:0.014586 38:0.047166001 97:0.119716 126:0.022585999 154:0.081111997 174:0.080661997 197:0.052786 231:0.057960998 236:0.055236001 256:0.049649999 290:0.046066999 300:0.050820999 340:0.058970001 370:0.036692001 389:0.106042 397:0.101429 444:0.068251997 459:0.075144 508:0.064524002 597:0.055619001 611:0.069310002 650:0.066036001 668:0.054042999 719:0.064745001 723:0.042803001 737:0.078806996 882:0.1868 936:0.103125 941:0.182909 1019:0.092234001 1213:0.175981 1236:0.093768001 1321:0.149197 1422:0.070610002 1523:0.103527 1540:0.071888 1583:0.082359001 1756:0.075378001 1972:0.106106 2004:0.184577 2009:0.090796001 2316:0.12934799 2321:0.106106 2351:0.11422 2409:0.110072 2927:0.118498 3051:0.209564 3356:0.121875 3463:0.140552 3809:0.32230601 3810:0.228686 5293:0.158489 6154:0.147797 6478:0.30364001 7137:0.195104 7138:0.33034 7139:0.16356599 7140:0.16356599 #
1.0000000231766961178436758928001 37:0.057418998 73:0.065076001 75:0.031404 91:0.038022 115:0.033867002 131:0.084854998 144:0.048597001 146:0.046682999 154:0.107021 162:0.054223001 164:0.035847999 192:0.053870998 202:0.050979 247:0.047786999 262:0.080362 271:0.046636 280:0.067764997 282:0.087559998 373:0.091741003 385:0.055131 405:0.051521 419:0.033115 438:0.096450999 440:0.049284 530:0.092024997 539:0.054081 570:0.062513001 614:0.069701001 633:0.100084 656:0.11878 683:0.091741003 697:0.100084 764:0.060476001 807:0.030634999 853:0.081321001 1026:0.049943 1065:0.074800998 1092:0.075029999 1142:0.051521 1206:0.086640999 1217:0.079118997 1484:0.081652001 1702:0.16603699 1780:0.106566 1979:0.158493 2809:0.109528 2952:0.111217 3369:0.22364099 3397:0.084163003 3549:0.127462 3550:0.15203799 3551:0.31907001 3552:0.13975 3553:0.13975 3554:0.120274 3555:0.15203799 3556:0.15203799 3557:0.224447 3558:0.123506 3559:0.123506 3560:0.15203799 3561:0.15203799 3562:0.120274 3563:0.15203799 3564:0.117541 3565:0.15203799 3566:0.13975 3567:0.15203799 3568:0.15203799 3569:0.25742301 3570:0.15203799 3571:0.19147 3572:0.123506 #
1.0000000231766961178436758928001 11:0.014963 44:0.027356001 91:0.045364998 105:0.074257001 114:0.035867002 115:0.040408 130:0.094797999 148:0.083993003 155:0.089313 156:0.027225001 158:0.198945 163:0.076426998 206:0.051348999 243:0.099561997 251:0.144049 267:0.050462998 270:0.080312997 273:0.068199001 276:0.029820001 308:0.093105003 322:0.052847002 324:0.057555001 346:0.087430999 351:0.045026999 352:0.035224002 383:0.041627999 448:0.113287 538:0.086222 548:0.11418 552:0.063945003 570:0.074587002 582:0.10946 668:0.050248001 671:0.053436998 677:0.064274997 742:0.215847 785:0.070084997 797:0.16825099 804:0.144839 818:0.117032 919:0.100883 1004:0.05099 1196:0.080672003 1217:0.055755001 1332:0.100883 1424:0.18956199 1580:0.10446 1811:0.11508 2003:0.118036 2037:0.100883 2171:0.089798003 2180:0.10946 2613:0.110919 2616:0.094448999 2688:0.228451 2691:0.084206 3165:0.108766 3822:0.122756 3828:0.232669 4233:0.187802 4466:0.29431501 4630:0.11602 4728:0.15208 6149:0.14736 6153:0.143503 6268:0.25749299 9302:0.181403 9303:0.181403 9304:0.181403 #
1.0000000231766961178436758928001 3:0.075378999 15:0.040426999 18:0.057528999 22:0.108414 23:0.065886997 30:0.145651 33:0.067419998 35:0.017650001 37:0.089157 44:0.035601001 75:0.048762999 76:0.091499999 83:0.061301 84:0.24618401 87:0.056910001 121:0.090484999 147:0.092078 169:0.061836001 208:0.085550003 220:0.13318899 245:0.109035 282:0.064785004 338:0.162928 352:0.045841001 370:0.044397999 394:0.085095003 443:0.059039 518:0.196738 529:0.36099601 539:0.176232 554:0.18280201 618:0.149765 627:0.087856002 665:0.083756998 671:0.069542997 765:0.095691003 874:0.11456 892:0.117972 903:0.105223 904:0.203051 912:0.099656001 914:0.080381997 995:0.097964004 1296:0.086024001 1348:0.1279 1440:0.14067499 1459:0.109865 1515:0.086142004 1731:0.094379999 2144:0.10719 2437:0.13318899 2507:0.15975501 2917:0.37415299 4431:0.31620401 #
1.0000000231766961178436758928001 13:0.09121 36:0.034274001 37:0.050802998 63:0.045170002 87:0.054905999 110:0.090444997 113:0.066743001 114:0.076246999 123:0.063143 126:0.062918 144:0.123263 147:0.088835001 178:0.088273004 181:0.067408003 203:0.25039899 204:0.079177998 211:0.091679998 216:0.063034996 237:0.106821 238:0.18119 239:0.020431999 244:0.074927002 247:0.071586996 272:0.049222998 290:0.053778999 315:0.062137 321:0.081551999 392:0.065631002 393:0.056409001 395:0.087586001 419:0.083995 428:0.25963399 433:0.106365 453:0.065278001 460:0.161539 554:0.21859699 650:0.077090003 655:0.091522999 738:0.108777 894:0.059990998 899:0.111055 935:0.078304 1547:0.107963 1617:0.29665199 2191:0.116899 2510:0.204629 3377:0.135719 3672:0.14449 4832:0.44494799 7272:0.385636 #
