SVM-light Version V6.02
0 # kernel type
3 # kernel parameter -d 
1 # kernel parameter -g 
1 # kernel parameter -s 
1 # kernel parameter -r 
empty# kernel parameter -u 
14598 # highest feature index 
2865 # number of training documents 
675 # number of support vectors plus 1 
1.0735447 # threshold b, each following line is a SV (starting with alpha*y)
-0.022259331208733690310452857374912 1:0.053477 2:0.114842 3:0.143185 4:0.098948002 5:0.055305999 6:0.050569002 7:0.13353799 8:0.049261 9:0.037200999 10:0.029931 11:0.026245 12:0.096924998 13:0.075255997 14:0.061524 15:0.032180998 16:0.104519 17:0.116529 18:0.045793999 19:0.059064999 20:0.121209 21:0.077266999 22:0.106966 23:0.030975999 24:0.073413 25:0.101341 26:0.057874002 27:0.077408001 28:0.090832002 29:0.43982801 30:0.115941 31:0.073216997 32:0.060717002 33:0.053667001 34:0.179924 35:0.014049 36:0.028279001 37:0.070970997 38:0.045430001 39:0.066932999 40:0.096115999 41:0.065272003 42:0.055305999 43:0.103053 44:0.047982 45:0.08275 46:0.18643799 47:0.163849 48:0.094256997 49:0.050468002 50:0.044751 51:0.061730001 52:0.076849997 53:0.081432 54:0.083759002 55:0.069634996 56:0.090464003 57:0.076576002 58:0.065085001 59:0.045233998 60:0.044718999 61:0.115309 62:0.050634 63:0.037269 64:0.066932999 65:0.051876001 66:0.194552 67:0.098948002 68:0.087232001 69:0.039531998 70:0.047244001 71:0.078569002 72:0.101341 73:0.080435 74:0.085123003 75:0.065720998 76:0.030522 77:0.087453999 78:0.22921599 79:0.13977601 80:0.084333003 81:0.059875999 82:0.089565001 83:0.048797 84:0.082121998 85:0.053335 86:0.062290002 87:0.045301002 88:0.082620002 89:0.054896999 90:0.23088001 91:0.079571001 92:0.070649996 93:0.054297999 94:0.054297999 95:0.05604 96:0.13977601 97:0.068103001 98:0.043724 99:0.037611 100:0.073178999 101:0.087232001 102:0.081093997 103:0.080274001 104:0.039011002 105:0.024979999 106:0.092177004 #
-0.2867425734173458806708367774263 6:0.034373 11:0.030205 23:0.03565 35:0.016169 36:0.032545 38:0.052283999 44:0.032614 45:0.056247 64:0.077031001 69:0.045496002 97:0.078377999 98:0.050321002 99:0.043285001 102:0.093328997 113:0.063377 114:0.042762 126:0.025036 138:0.059250001 142:0.080619 143:0.050708 198:0.122216 232:0.031296998 240:0.072797999 272:0.046739999 287:0.090594999 291:0.089914002 313:0.057332002 315:0.059002999 336:0.22288001 392:0.062321 411:0.162846 426:0.069426 433:0.059652001 497:0.037160002 576:0.21561299 581:0.132241 617:0.080601998 668:0.12572099 702:0.123885 778:0.097464003 855:0.118571 859:0.100907 896:0.073028997 933:0.098180003 945:0.086171001 993:0.095913999 1168:0.18126801 1172:0.20364501 1418:0.105453 1422:0.078272 1805:0.101432 2430:0.101432 4510:0.53413498 4511:0.18131401 4512:0.15159 4513:0.21627399 4514:0.17108899 4515:0.140726 4516:0.160864 4517:0.18131401 4518:0.175687 #
1.0000000231766961178436758928001 23:0.036607999 60:0.052848998 87:0.053537998 95:0.066228002 97:0.080485001 102:0.162268 112:0.026148001 126:0.043529999 131:0.059064001 190:0.154892 206:0.062864996 208:0.047533002 226:0.053151999 232:0.032139 236:0.077932999 241:0.039069999 272:0.047995999 276:0.036508001 352:0.043125 356:0.068533003 415:0.078387 450:0.073117003 637:0.14241999 654:0.082888 723:0.048723001 761:0.099895999 804:0.084495999 825:0.22342999 840:0.095445998 885:0.075438 1110:0.088786997 1166:0.12294 1167:0.132338 1170:0.34829101 1175:0.279688 1333:0.177764 1600:0.22033399 2499:0.17169601 2816:0.131542 2914:0.41748801 3585:0.16246 3779:0.15196 4277:0.137715 4293:0.115632 4748:0.142042 5221:0.165188 5482:0.17169601 5636:0.193638 5915:0.193638 #
-0.10264031816855889722717165568611 23:0.238346 114:0.28589499 122:0.28816301 249:0.375761 392:0.416664 677:0.51234102 1012:0.44846201 #
-0.22766604928229577931020344294666 12:0.065967999 18:0.052772 35:0.01619 36:0.032586999 41:0.044424001 44:0.055291999 45:0.095357999 56:0.06157 69:0.045556001 116:0.104618 119:0.065075003 126:0.052609999 169:0.056722 181:0.064092003 236:0.075990997 238:0.072192997 338:0.22769301 341:0.069293 433:0.059730001 434:0.162394 448:0.051826999 478:0.100269 510:0.081175998 533:0.088719003 545:0.079236999 562:0.118803 731:0.116701 772:0.139677 775:0.17020001 828:0.198722 889:0.094433002 933:0.058061998 954:0.104974 1013:0.122516 1032:0.16809399 1118:0.129843 1127:0.076335996 1131:0.14300901 1234:0.14300901 1348:0.069293 1478:0.184413 1490:0.096960999 1571:0.100779 1736:0.083020002 1788:0.093068004 2056:0.28738701 2197:0.21002799 2456:0.151787 2646:0.13152701 2718:0.132413 4907:0.167419 4936:0.175915 7414:0.153808 13010:0.36666 13011:0.216555 13012:0.216555 #
1.0000000231766961178436758928001 6:0.047724999 10:0.028248001 11:0.024769001 13:0.071024001 26:0.092478998 35:0.013259 36:0.026688 42:0.052196 44:0.045283001 45:0.046124998 60:0.042204 87:0.042753998 105:0.039917 106:0.147293 123:0.049168002 145:0.043698002 148:0.082119003 162:0.063252002 183:0.065532997 216:0.049084999 239:0.01591 290:0.041877002 321:0.063502997 435:0.071638003 448:0.071866997 465:0.060973998 508:0.058653999 517:0.087793998 681:0.245684 699:0.058194 723:0.065879002 741:0.064186998 837:0.088706002 910:0.095174 933:0.132754 1093:0.18399701 1178:0.082535997 1179:0.121352 1180:0.127766 1181:0.108444 1182:0.17735501 1183:0.17735501 1184:0.17735501 1185:0.17735501 1186:0.17735501 1187:0.17735501 1188:0.17735501 1189:0.36900601 1190:0.17735501 1191:0.17735501 1192:0.17735501 1193:0.17735501 1194:0.17735501 1195:0.144071 1196:0.078872003 1197:0.17735501 1198:0.072789997 1199:0.158721 1200:0.109977 1201:0.30028799 #
1.0000000231766961178436758928001 4:0.206946 6:0.036892999 23:0.038263001 36:0.034931 37:0.051777001 38:0.056116998 39:0.082680002 44:0.073463 58:0.136123 76:0.063836001 85:0.065881997 86:0.076944001 93:0.113563 96:0.17265899 99:0.046459001 113:0.040176 116:0.184908 136:0.207266 138:0.107676 150:0.080495998 170:0.079419002 201:0.093438998 205:0.050429001 208:0.049683001 226:0.055555001 352:0.045074999 354:0.056157999 410:0.191982 443:0.058052 448:0.055555001 457:0.073112004 494:0.081514001 499:0.102099 592:0.065881997 635:0.25771701 723:0.050926998 731:0.073882997 910:0.073572002 935:0.079806 1131:0.090539001 1133:0.079324 1171:0.093763001 1225:0.085530996 1490:0.103935 1493:0.15104499 1554:0.232132 1555:0.103001 1556:0.14972401 1557:0.236835 1558:0.120861 1559:0.232132 1560:0.428247 1561:0.094759002 1562:0.232132 1563:0.232132 #
-0.074643034920482811966913061496598 15:0.074496001 35:0.019208999 36:0.065462999 38:0.062112998 45:0.140232 62:0.069228001 65:0.070927002 81:0.081863999 83:0.066716 87:0.036580998 98:0.142654 214:0.18212 221:0.048009999 222:0.088225 240:0.107195 241:0.094857 242:0.114518 282:0.119381 290:0.102717 295:0.127584 300:0.113317 354:0.062158 383:0.058961 403:0.243668 411:0.114261 419:0.055962998 429:0.099734999 433:0.070867002 448:0.061491001 493:0.068497002 497:0.074745998 614:0.11779 654:0.095893003 707:0.101355 731:0.081776999 855:0.083195999 858:0.064937003 863:0.258816 993:0.067298003 1127:0.26681 1142:0.087067001 1461:0.121139 1477:0.107627 1553:0.147175 1601:0.105835 1723:0.13742501 2016:0.157102 2077:0.123834 3073:0.13798501 5000:0.20871501 5329:0.20871501 13358:0.43502599 13359:0.256933 #
0.96242632258884841522927899859496 3:0.103449 8:0.084930003 10:0.051603001 23:0.139357 59:0.077985004 60:0.077097997 65:0.15143199 75:0.066921003 76:0.089097001 87:0.078102 112:0.064585999 115:0.072169997 116:0.28467301 119:0.097359002 125:0.223931 126:0.063502997 146:0.099478997 205:0.070384003 229:0.114207 236:0.054173999 239:0.029064 272:0.070018999 313:0.085886002 352:0.062912002 396:0.12092 419:0.070568003 443:0.170037 445:0.114354 459:0.36760101 477:0.12823001 513:0.155274 541:0.136501 583:0.122345 592:0.091953002 676:0.090832002 716:0.1157 723:0.071079001 724:0.161902 740:0.21226899 760:0.088021003 807:0.065282002 824:0.158443 825:0.098693997 929:0.123451 933:0.14707901 1127:0.114207 1133:0.110713 1156:0.15235101 1217:0.099578999 1313:0.19549701 1348:0.10367 1490:0.145063 1641:0.155274 1747:0.18656699 1977:0.162424 2042:0.172599 #
1.0000000231766961178436758928001 11:0.047842 35:0.020662 37:0.061646 38:0.066813 44:0.041676998 50:0.065814003 55:0.102411 69:0.058139 75:0.057085998 87:0.039349001 95:0.19667201 102:0.119265 112:0.032540001 113:0.047832999 127:0.096560001 156:0.041478999 164:0.065164998 201:0.111248 208:0.059152 212:0.084691003 214:0.070170999 217:0.067299999 223:0.081565998 225:0.111057 230:0.214004 232:0.039995 237:0.12962 239:0.024793001 240:0.093029 244:0.053698 285:0.122633 323:0.102411 336:0.096681997 401:0.10169 427:0.18369301 433:0.076228999 452:0.063860998 462:0.34776101 464:0.148467 465:0.160877 621:0.122633 669:0.133972 708:0.13639 793:0.142857 881:0.12608901 933:0.176827 993:0.072391003 1008:0.124028 1348:0.088434003 1364:0.12608901 1422:0.100023 1547:0.131006 2075:0.14842699 2191:0.141849 2193:0.310233 2194:0.21366499 2195:0.21366499 2196:0.167859 2197:0.15831099 2198:0.183229 #
-1.0000000231766961178436758928001 11:0.020749999 38:0.060814999 39:0.089601003 76:0.040858999 81:0.080153003 116:0.121531 124:0.071333997 126:0.061115 131:0.066903003 142:0.044684 186:0.107031 190:0.28929201 205:0.054650001 206:0.071208999 208:0.053842001 221:0.047006 226:0.060206 236:0.071221001 239:0.022567 240:0.050012 244:0.048877999 317:0.103061 336:0.088003002 350:0.083708003 422:0.105378 433:0.069385998 470:0.11467 533:0.103061 637:0.095279999 676:0.070527002 723:0.13169999 726:0.118925 741:0.091044001 807:0.050689001 811:0.077785999 825:0.213939 894:0.066260003 933:0.188301 974:0.098912999 991:0.131174 1110:0.100571 1134:0.108335 1167:0.31458801 1211:0.107894 1218:0.10251 1358:0.217106 1422:0.091044001 1483:0.130502 2163:0.12611499 3182:0.165194 5010:0.165194 5187:0.25156501 5188:0.25156501 5189:0.219339 5190:0.25156501 5191:0.25156501 #
-1.0000000231766961178436758928001 23:0.050193001 35:0.022764999 44:0.045919001 56:0.086576 59:0.073294997 69:0.064057 75:0.13199601 76:0.049458001 81:0.097020999 114:0.060206 116:0.182335 126:0.035250001 142:0.054087002 171:0.119148 195:0.134223 232:0.044064999 236:0.050916001 275:0.19704901 276:0.050055999 290:0.071898997 293:0.091769002 315:0.083072998 340:0.092036001 341:0.097434998 350:0.101324 385:0.065214001 397:0.093497001 404:0.205137 448:0.20345201 453:0.087273002 560:0.097331002 637:0.115331 655:0.12236 697:0.30892801 699:0.099914998 719:0.17109101 731:0.23127501 906:0.15862 929:0.116027 933:0.261031 935:0.104688 1001:0.140991 1013:0.101748 1075:0.150736 1149:0.20861401 1296:0.110958 1555:0.135115 1924:0.170958 2059:0.20606001 3978:0.203907 13736:0.30450499 #
-1.0000000231766961178436758928001 3:0.158472 10:0.079051003 11:0.024179 23:0.048317999 35:0.021915 76:0.113612 93:0.084697001 100:0.114148 116:0.26741201 119:0.088086002 126:0.033934001 142:0.088156998 156:0.043993998 183:0.108313 203:0.135049 221:0.054774001 222:0.100655 226:0.070153996 231:0.087082997 239:0.026296001 244:0.096431002 272:0.151171 324:0.093002997 327:0.114051 330:0.119661 340:0.088598996 350:0.057608001 353:0.099097997 387:0.093002997 397:0.090005003 433:0.080851004 443:0.073307 445:0.103462 481:0.154939 508:0.096943997 519:0.13278 544:0.093896002 546:0.114148 686:0.12921 699:0.096183002 721:0.18826 723:0.064309001 731:0.093298003 803:0.107705 837:0.146614 874:0.084013 933:0.13307101 1033:0.115445 1312:0.128098 1338:0.23767 1427:0.112377 1469:0.12782601 1481:0.161532 1549:0.324157 1641:0.140486 1932:0.139709 3886:0.21803001 7315:0.25558099 7625:0.23188899 #
-1.0000000231766961178436758928001 1:0.12908 8:0.070226997 88:0.069564998 102:0.24261799 113:0.046367001 114:0.05297 116:0.12942401 126:0.031013001 127:0.15847901 128:0.079438001 131:0.185917 137:0.092418 143:0.062812999 160:0.099698998 190:0.231589 192:0.094924003 201:0.182585 204:0.093131997 210:0.088903002 219:0.105833 232:0.038768001 239:0.024033001 241:0.04713 354:0.064811997 383:0.061478 418:0.11309 445:0.094558001 454:0.112009 464:0.084999003 465:0.092104003 497:0.046030998 559:0.091991998 676:0.127169 723:0.058773998 730:0.097889997 791:0.164162 797:0.089004003 804:0.101926 825:0.081609003 933:0.221195 977:0.095923997 986:0.116824 1077:0.198222 1331:0.12803701 1547:0.215013 2265:0.19027799 3021:0.181291 3928:0.32677099 4012:0.161654 4098:0.267903 4099:0.192996 4100:0.202944 #
-0.91295082945855332567930418008473 23:0.083513997 61:0.076944001 95:0.151088 102:0.155129 112:0.05246 113:0.036747001 144:0.067864999 216:0.058761001 226:0.050813001 232:0.030725 236:0.060109001 244:0.041251998 276:0.091073997 284:0.085024998 336:0.074272998 370:0.039928999 448:0.050813001 462:0.12730201 464:0.067363001 493:0.056603 637:0.136154 725:0.25155401 895:0.085463002 899:0.103524 933:0.148545 975:0.077472001 978:0.086671002 1037:0.092390001 1234:0.14021 1542:0.16400599 1606:0.185816 1913:0.101192 1926:0.105101 1970:0.135792 2009:0.098807 2171:0.105101 2193:0.29540199 2306:0.094847001 2919:0.128114 3480:0.243265 4230:0.228053 4794:0.16083699 6005:0.155312 6251:0.24597099 6823:0.405278 7049:0.185119 7050:0.152953 7051:0.167959 #
1.0000000231766961178436758928001 11:0.019408001 15:0.040293001 23:0.038784001 30:0.145165 31:0.054143 38:0.056880999 41:0.101296 44:0.074463002 70:0.059153002 85:0.066779003 86:0.132052 112:0.027703 126:0.027238 137:0.047938999 149:0.076775998 190:0.096919999 197:0.063658997 205:0.051114999 214:0.15588801 215:0.130852 216:0.13665999 222:0.080793999 223:0.069440998 232:0.05765 272:0.05085 290:0.055555999 303:0.115761 306:0.113082 311:0.084925003 351:0.058403 354:0.096377999 382:0.182192 390:0.080403 415:0.083047003 434:0.114486 443:0.058842 448:0.056311 452:0.054366998 545:0.086093001 546:0.091624998 625:0.15048601 650:0.079639003 771:0.084471002 780:0.060952999 818:0.089653999 828:0.25260201 936:0.124367 1101:0.123889 1133:0.080403 1146:0.075450003 1426:0.107868 1459:0.109499 1756:0.090905003 1888:0.192008 2758:0.388695 3347:0.404484 7625:0.39062101 #
1.0000000231766961178436758928001 6:0.037620001 8:0.105058 11:0.046590999 36:0.035619002 50:0.134509 69:0.049794 92:0.186755 113:0.040966999 122:0.047171999 123:0.065622002 137:0.081656002 142:0.10033 143:0.093966998 204:0.082286999 209:0.082699999 231:0.119062 271:0.072607003 276:0.038911 298:0.129857 311:0.085435003 312:0.079002 327:0.054393999 351:0.058754001 356:0.073044002 357:0.092174999 365:0.115076 395:0.091025002 414:0.083979003 460:0.099154003 497:0.04067 527:0.12511399 633:0.092028998 701:0.14388201 777:0.17057399 787:0.079833999 887:0.092174999 981:0.101728 1420:0.095279999 1501:0.096799001 1513:0.131032 1648:0.14573701 1910:0.106718 1961:0.23807199 2067:0.133542 2319:0.292494 3374:0.137041 3539:0.161961 3625:0.192283 4309:0.192283 4865:0.163865 5335:0.17606001 6978:0.15850601 10065:0.182996 13112:0.217574 13408:0.23670501 13409:0.23670501 13410:0.217574 #
1.0000000231766961178436758928001 10:0.036396999 11:0.049185999 35:0.017084001 36:0.034387 46:0.182909 49:0.06137 50:0.054416999 51:0.075065002 54:0.101852 63:0.076732002 92:0.22418 105:0.030376 113:0.066964 119:0.116267 122:0.045540001 126:0.026454 128:0.114726 137:0.078831002 156:0.034295999 192:0.080968998 212:0.118563 239:0.020500001 241:0.068066001 249:0.059384 300:0.059525002 385:0.048939999 405:0.077436998 419:0.084273003 422:0.095724002 430:0.095003001 433:0.063028999 448:0.14271 450:0.075234003 497:0.039264001 575:0.082038999 620:0.137015 628:0.100949 668:0.063298002 729:0.191577 787:0.077072002 810:0.106075 838:0.088564999 910:0.072425999 1108:0.082703002 1126:0.066389002 1589:0.111095 1647:0.099861003 1761:0.153023 1772:0.206947 2153:0.274703 2510:0.121257 2785:0.15463801 3392:0.148692 4146:0.144968 5411:0.47956699 5412:0.21004701 5413:0.228516 5414:0.228516 #
1.0000000231766961178436758928001 6:0.050859001 11:0.044691999 60:0.07615 87:0.045561001 88:0.083094001 93:0.092463002 105:0.042537998 108:0.088040002 121:0.072440997 122:0.133835 123:0.15020899 143:0.075029999 151:0.115502 164:0.075452998 170:0.109484 181:0.094709001 214:0.081248999 231:0.095067002 248:0.160037 261:0.12925699 306:0.153797 322:0.093225002 350:0.062890001 354:0.131078 383:0.124336 385:0.191332 387:0.10153 420:0.115346 426:0.102725 494:0.268152 497:0.15350001 522:0.16094901 538:0.1521 628:0.141366 728:0.141366 730:0.116928 734:0.176342 743:0.127501 752:0.135084 760:0.18245099 767:0.11709 770:0.26151499 805:0.16980401 1126:0.092969 1217:0.166529 2354:0.193094 3098:0.21013699 5962:0.24739701 8491:0.29414201 #
1.0000000231766961178436758928001 12:0.068862997 19:0.071052 33:0.109308 35:0.028615 63:0.044831999 69:0.047555 70:0.056832001 75:0.079060003 105:0.03005 154:0.22427 156:0.033927001 205:0.049109999 214:0.057395998 216:0.062564 217:0.055048 219:0.052744001 222:0.077624001 232:0.032714002 239:0.020279 241:0.039769001 257:0.19227099 268:0.106023 306:0.259262 370:0.042514 371:0.100085 389:0.072567999 390:0.077248998 392:0.065141 434:0.18136699 491:0.078587003 498:0.083530001 545:0.082714997 552:0.079686999 622:0.103135 754:0.27573499 818:0.086136997 822:0.18143199 887:0.088030003 888:0.162205 921:0.114072 933:0.060610998 937:0.075888 945:0.090070002 986:0.098577999 1119:0.087475002 1131:0.088170998 1133:0.077248998 1212:0.122942 1268:0.073198996 1349:0.098163001 1756:0.087338001 1757:0.12514 1933:0.190661 2034:0.24349301 2430:0.106023 2613:0.234036 3920:0.26189199 9436:0.178831 12176:0.38275501 #
-0.048204591143694450194878697857348 19:0.070702001 35:0.016817 43:0.05878 55:0.083353996 75:0.046463002 88:0.098897003 89:0.065713003 91:0.095247 99:0.045021001 113:0.065917999 126:0.026040001 174:0.092998996 236:0.037613001 238:0.074989997 241:0.067001998 272:0.048613999 276:0.062608004 290:0.053112999 312:0.075076997 328:0.086906999 336:0.18777899 393:0.055711001 436:0.088160001 448:0.053835001 460:0.094227999 494:0.078989998 668:0.062309001 676:0.063064002 699:0.073808998 722:0.071823999 778:0.14287201 787:0.075868003 790:0.16731299 799:0.180424 858:0.056853 886:0.14158601 910:0.071294002 960:0.116273 993:0.05892 1004:0.063229002 1012:0.118124 1013:0.075162999 1026:0.12511 1060:0.246691 1069:0.085582003 1104:0.110671 1136:0.253526 1156:0.105777 1219:0.095706001 1413:0.121815 1422:0.081409998 1540:0.082883 1604:0.095328003 1753:0.13849699 1756:0.086906999 1757:0.124522 1824:0.29184499 2144:0.102135 2385:0.115053 2406:0.177948 2445:0.13849699 2651:0.250101 4354:0.19612899 4961:0.17040201 6708:0.206764 7860:0.188583 11417:0.206764 #
-0.63550304926559164631072462725569 11:0.025348 15:0.052625 36:0.046243999 50:0.073179998 62:0.082800999 63:0.060945 76:0.049913 87:0.043754 92:0.242459 105:0.040849999 145:0.075715996 292:0.082732998 340:0.092882998 385:0.065815002 404:0.098649003 440:0.16866399 448:0.154346 497:0.11081 522:0.154562 682:0.095992997 910:0.204402 1305:0.122442 1429:0.154562 1540:0.113231 1632:0.183119 1706:0.19996101 1866:0.166417 3343:0.215397 3347:0.22138301 4728:0.25763199 9010:0.243103 13016:0.30730799 13017:0.52031702 #
-0.42602018742438418907880759434192 6:0.121984 11:0.024262 38:0.071107 41:0.060339 60:0.069994003 63:0.098765999 64:0.104763 83:0.076375999 85:0.141343 86:0.165076 108:0.080922 113:0.050907001 123:0.081543997 143:0.116766 145:0.122703 170:0.211188 221:0.054961 232:0.072067998 234:0.115463 247:0.092448004 258:0.13678101 312:0.166215 318:0.154872 352:0.057114001 354:0.185682 370:0.055316001 414:0.104354 428:0.192708 443:0.073556997 627:0.109461 635:0.32655299 671:0.086645 731:0.093617998 734:0.162085 767:0.30045801 792:0.132303 858:0.074339002 1104:0.144711 1334:0.13260999 1579:0.139424 1708:0.22775599 2327:0.176358 2328:0.206164 2329:0.250478 3547:0.218776 3673:0.21189301 #
-0.34235021087345973711535407346673 35:0.030548999 44:0.061620001 50:0.097305998 112:0.048110001 122:0.137878 202:0.137012 205:0.088768996 221:0.076352999 272:0.149519 326:0.157378 354:0.098853998 443:0.102188 448:0.20523 465:0.14048199 497:0.118874 681:0.192146 699:0.134077 705:0.14768399 910:0.21927699 1558:0.36021701 2182:0.263558 2274:0.225173 3962:0.282877 13624:0.40861899 13625:0.40861899 #
-0.31188213799244268731314377873787 11:0.019014999 52:0.094270997 76:0.037441 104:0.124874 113:0.039896999 115:0.051350001 142:0.040945999 156:0.082558997 170:0.078869 219:0.053785 221:0.043074999 223:0.068033002 226:0.05517 244:0.044789001 245:0.106469 249:0.101429 303:0.113415 352:0.137843 385:0.049369998 426:0.074000001 433:0.063582003 442:0.090492003 494:0.080949001 512:0.099477999 592:0.065425001 621:0.102287 654:0.086035997 658:0.28135601 690:0.091388002 723:0.085628003 724:0.241751 730:0.084230997 740:0.089202002 780:0.059718002 793:0.119156 828:0.088647 857:0.120919 881:0.10517 910:0.073062003 930:0.1124 993:0.060380001 1093:0.145043 1127:0.137585 1211:0.098869003 1529:0.122322 1741:0.101172 1788:0.099071003 1978:0.133461 2163:0.19567101 2430:0.108115 2559:0.34110901 5058:0.171461 8469:0.53721702 #
-0.099858853881114706396715519076679 8:0.066510998 36:0.064645998 39:0.090370998 63:0.085197002 65:0.070041999 72:0.13682701 88:0.138264 89:0.07412 93:0.073311999 112:0.029873 113:0.043912999 126:0.029371999 131:0.067477003 136:0.107951 137:0.051695 143:0.124845 146:0.077904999 155:0.073780999 181:0.075093001 206:0.071820997 223:0.074882001 232:0.062167 276:0.041708998 284:0.101607 324:0.080500998 348:0.12027 363:0.25737 395:0.097571 452:0.058626998 483:0.188913 493:0.067642003 497:0.043595001 517:0.125599 523:0.081624001 560:0.081100002 595:0.101263 617:0.16010299 627:0.094423003 719:0.084197998 723:0.055663999 734:0.139818 773:0.120597 794:0.100587 797:0.084293999 804:0.096532002 885:0.086185001 977:0.090847999 1077:0.110878 1225:0.158289 1269:0.122638 1340:0.095109999 1419:0.196155 1488:0.14045399 1493:0.165096 1680:0.1531 1789:0.18278299 1964:0.157334 2011:0.147706 2184:0.09849 2401:0.13309 4099:0.383591 4638:0.151191 6907:0.18872 13824:0.233219 #
1.0000000231766961178436758928001 3:0.21025901 11:0.047768001 35:0.020631 59:0.18543699 60:0.065667003 75:0.056999002 83:0.071654998 91:0.069011003 92:0.103745 95:0.082291998 102:0.35080799 113:0.080865003 142:0.049015999 149:0.090043999 164:0.065066002 180:0.086287998 181:0.081671 197:0.156683 198:0.092101 232:0.039933998 234:0.108326 236:0.096833996 239:0.024754999 241:0.14949501 247:0.086733997 350:0.091822997 363:0.13338199 370:0.051897001 442:0.282671 464:0.18374 493:0.073567003 523:0.088775001 594:0.116488 637:0.104517 671:0.081289001 753:0.12589701 811:0.085326999 813:0.111658 863:0.116488 933:0.176557 956:0.110697 964:0.114725 1355:0.16064601 1368:0.109949 1404:0.18121 2305:0.198796 3142:0.319693 4119:0.209043 4946:0.17955901 6418:0.240603 #
1.0000000231766961178436758928001 5:0.069059998 11:0.050508 12:0.071482003 18:0.096819997 23:0.065490998 30:0.223124 36:0.035310999 41:0.048138 48:0.069514997 56:0.112962 62:0.063225999 63:0.046537001 65:0.064778 87:0.033410002 99:0.046964999 112:0.027628001 116:0.140512 124:0.066540003 126:0.057007998 129:0.188844 146:0.121993 164:0.055328999 208:0.050223 219:0.054749999 221:0.092018999 222:0.080576003 240:0.078987002 246:0.19687501 276:0.065311998 300:0.061124001 313:0.062205002 340:0.070924997 419:0.051111002 475:0.097374998 493:0.062558003 523:0.12781499 530:0.067679003 539:0.083470002 600:0.110637 741:0.084926002 797:0.077959999 843:0.114081 894:0.104649 933:0.132036 993:0.061464 1057:0.19960999 1342:0.088876002 1450:0.088876002 1549:0.168374 2121:0.126544 3234:0.13982899 6314:0.30097499 8115:0.397311 8116:0.492457 #
1.0000000231766961178436758928001 10:0.038144998 11:0.019754 19:0.075273 23:0.116294 35:0.030315001 41:0.049129002 69:0.085300997 70:0.060208 82:0.193261 87:0.034097999 94:0.069197997 112:0.028197 114:0.047352001 116:0.17831101 149:0.078146003 183:0.088491999 199:0.083673 204:0.083255 205:0.052026998 217:0.058318 232:0.034657001 233:0.097938001 241:0.042132001 244:0.078785002 249:0.105375 290:0.056547999 350:0.047065999 352:0.046503998 387:0.075984001 389:0.076879002 390:0.081837997 420:0.14616001 443:0.059891999 452:0.055337999 519:0.108482 577:0.123791 624:0.094474003 633:0.093111999 722:0.129473 731:0.076224998 874:0.068639003 885:0.081349 890:0.154471 929:0.091254003 974:0.159436 1126:0.069577001 1200:0.148506 1212:0.130245 1338:0.092527002 1344:0.119677 1398:0.120849 1450:0.23669299 1549:0.242191 1601:0.098650001 1932:0.193261 2022:0.119677 2059:0.42289701 2526:0.378885 4277:0.148506 5989:0.17519 #
1.0000000231766961178436758928001 36:0.046039999 63:0.102735 64:0.108974 81:0.097483002 95:0.091237999 108:0.084174 112:0.036022 113:0.111128 114:0.060493 116:0.147808 119:0.091939002 122:0.060973 137:0.105545 183:0.113051 190:0.126028 221:0.096796997 230:0.13992199 232:0.074964002 240:0.127648 258:0.084031999 267:0.085111998 275:0.116934 276:0.120017 313:0.081105001 354:0.074018002 458:0.161981 464:0.20371599 493:0.171175 538:0.24621999 597:0.087219998 637:0.11588 638:0.15594999 670:0.127198 731:0.097379997 740:0.118391 855:0.16773801 890:0.19734 933:0.214057 937:0.102708 974:0.28706899 1057:0.295935 1276:0.151926 1364:0.139584 1424:0.20745 1549:0.129659 1570:0.13794 2616:0.159297 7312:0.26676199 #
-0.08453092205439499684516135857848 9:0.044838998 10:0.061083 12:0.068999 56:0.064398997 75:0.046785999 105:0.063187003 114:0.044783998 116:0.135629 128:0.067162998 142:0.040233001 156:0.057557002 214:0.097370997 217:0.055156 232:0.032777999 236:0.064126 290:0.090552002 293:0.068262003 352:0.043981999 367:0.297351 368:0.19481701 370:0.042597 372:0.251836 373:0.23141 375:0.20430499 383:0.124036 384:0.215828 386:0.111102 390:0.184701 414:0.080360003 420:0.17133901 433:0.062474001 491:0.078740999 508:0.12683199 545:0.082878001 559:0.077776998 650:0.076664001 723:0.049692001 896:0.076484002 937:0.128741 978:0.092463002 1203:0.115062 1205:0.163173 1213:0.120666 1234:0.088344 1778:0.124817 1994:0.098771997 2444:0.13756999 2942:0.16569 2943:0.171584 3420:0.16569 3495:0.208198 4284:0.19748899 4820:0.171584 6132:0.163173 6926:0.19748899 12515:0.19748899 #
-0.75371722386137507410097668980598 2:0.091646001 6:0.068325996 11:0.020943999 30:0.092522003 31:0.058428001 35:0.018983001 36:0.038208999 65:0.070092998 69:0.090438001 88:0.065931998 108:0.069856003 111:0.113171 114:0.085000999 116:0.18904801 146:0.077962004 195:0.111922 211:0.102206 213:0.101337 232:0.062213 238:0.084647 240:0.120456 256:0.064616002 258:0.14635199 276:0.041738998 354:0.061427001 392:0.073165998 393:0.062885001 419:0.055303998 448:0.060768001 452:0.058669999 458:0.079395004 459:0.16557799 470:0.068357997 621:0.112665 623:0.086248003 654:0.094765 723:0.055705 731:0.080815002 765:0.102919 803:0.093294002 812:0.099835999 813:0.102739 828:0.20491201 894:0.113235 933:0.14286999 1004:0.071370997 1013:0.084841996 1033:0.099999003 1071:0.14864799 1217:0.078039996 1317:0.242768 1333:0.120034 1337:0.17797101 1339:0.234816 1341:0.121689 1342:0.096167997 1446:0.123804 1549:0.182189 1587:0.15525401 1701:0.15981799 1713:0.122031 1808:0.162395 1910:0.114476 1944:0.170028 1961:0.121689 1972:0.138088 5406:0.221385 5407:0.182917 5408:0.23338901 #
-1.0000000231766961178436758928001 5:0.087350003 6:0.047171999 36:0.044663001 45:0.077191003 60:0.119585 64:0.105715 87:0.042257998 109:0.206908 112:0.034945 114:0.058683999 116:0.202088 119:0.089189999 122:0.124132 123:0.082284003 124:0.200838 126:0.058175001 137:0.060472 145:0.073128 205:0.064479001 232:0.042950999 233:0.20550901 248:0.070730001 275:0.113437 276:0.13620999 293:0.15144899 297:0.097606003 306:0.34039599 352:0.057633001 370:0.055817999 414:0.105302 464:0.094168998 470:0.079906002 493:0.079126 583:0.11208 623:0.100818 633:0.115395 710:0.326727 885:0.100818 991:0.091406003 1268:0.096106 1305:0.118257 1398:0.14977001 1549:0.21296699 1555:0.36766899 1788:0.12755699 1906:0.136741 2598:0.14928 12826:0.258784 #
-1.0000000231766961178436758928001 8:0.068435997 36:0.039285999 65:0.072068997 82:0.42279401 86:0.086537004 89:0.076265998 103:0.11152 112:0.030738 116:0.074491002 122:0.088091001 137:0.053192001 205:0.056715999 214:0.139107 232:0.063966997 234:0.215074 236:0.043653 239:0.02342 241:0.045928001 291:0.18377 293:0.078679003 311:0.094230004 327:0.059992999 370:0.049098 382:0.119395 383:0.101437 384:0.118538 393:0.064658001 464:0.281452 476:0.171437 497:0.044856999 597:0.126012 624:0.102987 723:0.057275999 885:0.088679001 887:0.101663 933:0.069998004 981:0.112199 994:0.22848301 1112:0.133072 1217:0.080241002 1268:0.084535003 1751:0.180733 1755:0.16839001 2029:0.159632 2184:0.101341 2319:0.26027301 2535:0.12512 6164:0.18807399 7181:0.34173399 #
-0.30660147170021961882113714636944 9:0.060102999 12:0.092487 26:0.093502998 35:0.022699 43:0.079336002 75:0.062712997 112:0.060524002 142:0.12869 156:0.108735 216:0.084027998 225:0.206567 236:0.085956 239:0.057158001 257:0.207679 290:0.071687996 327:0.069769002 370:0.057099 390:0.217731 419:0.066129997 453:0.087017 737:0.20764101 739:0.120165 775:0.14093401 778:0.080810003 787:0.17337801 896:0.102521 906:0.093409002 933:0.081404001 954:0.35120299 1004:0.085341997 1203:0.154232 1212:0.16511799 1296:0.110633 1540:0.111869 1694:0.14165699 1696:0.234723 1724:0.129693 2022:0.15172 2891:0.179828 3365:0.15320601 3794:0.234723 4996:0.212808 9789:0.25453499 13425:0.27907401 #
1.0000000231766961178436758928001 6:0.038716 9:0.048223998 11:0.064244002 15:0.041715998 28:0.117745 35:0.018212 36:0.036658 37:0.054336 48:0.122185 56:0.069260001 57:0.099265002 63:0.048310999 65:0.067247003 69:0.086765997 71:0.101849 75:0.050317001 92:0.091582999 98:0.056678999 99:0.048755001 108:0.067019999 112:0.048560999 123:0.067534998 126:0.028200001 142:0.043269999 156:0.036559999 164:0.057438001 190:0.169897 216:0.067419 229:0.085871004 241:0.042854998 271:0.074722998 276:0.040043999 300:0.063454002 326:0.093823001 336:0.085217997 385:0.088334002 443:0.103147 518:0.29789001 614:0.111679 624:0.096097 658:0.210959 682:0.076094002 690:0.096574001 767:0.089134 794:0.096574001 807:0.049084999 843:0.11843 858:0.061567999 887:0.094861999 993:0.063807003 1029:0.17549101 1037:0.106004 1109:0.28775901 1163:0.138119 1174:0.168641 1298:0.104692 1334:0.109828 1349:0.105781 1615:0.110086 4167:0.143437 6488:0.21239699 7565:0.21239699 8999:0.21239699 10541:0.445739 #
1.0000000231766961178436758928001 6:0.044296 11:0.048246 15:0.047727998 31:0.064134002 36:0.04194 50:0.066370003 53:0.120772 63:0.055273999 76:0.045267999 87:0.039682001 99:0.055780999 113:0.048237 142:0.049506001 156:0.041829001 160:0.103721 190:0.114805 202:0.093452998 206:0.078892998 208:0.059652001 209:0.097375996 214:0.19755501 217:0.067868002 222:0.095702998 226:0.066702001 231:0.082799003 317:0.114182 383:0.134224 448:0.139983 470:0.075034 483:0.098881997 484:0.105091 497:0.081081003 499:0.122585 517:0.13796701 530:0.168696 597:0.079452999 654:0.10402 657:0.145649 660:0.149073 661:0.108188 676:0.078137003 677:0.16720399 705:0.100732 759:0.095818996 777:0.095702998 791:0.21168301 800:0.14017799 858:0.070441 910:0.149563 993:0.073002003 1007:0.117882 1037:0.12128 1110:0.111423 1220:0.17282601 1221:0.14206301 1306:0.158024 1461:0.13140599 1708:0.127462 2022:0.139275 2227:0.181352 2430:0.130715 2535:0.13357399 3535:0.24300601 3635:0.183019 4064:0.21113101 6087:0.188604 9300:0.22048 #
1.0000000231766961178436758928001 3:0.204588 10:0.036556002 16:0.075392 42:0.067546003 44:0.034611002 64:0.081747003 80:0.102998 104:0.080669999 112:0.045752998 126:0.044985 138:0.062876999 142:0.040766999 154:0.20024399 206:0.064966999 208:0.049121998 221:0.042886 236:0.122699 239:0.020589 241:0.040376 275:0.087719001 293:0.069168001 350:0.045104999 352:0.044566002 368:0.11659 370:0.043163002 419:0.049989998 439:0.124819 443:0.097181 456:0.21715499 470:0.061788999 474:0.069370002 489:0.125911 498:0.084804997 560:0.073361002 561:0.085908003 588:0.089091003 661:0.089091003 693:0.29451099 723:0.085253 726:0.1085 822:0.108793 852:0.097073004 885:0.077959999 954:0.111255 1090:0.158886 1126:0.066679001 1146:0.073596999 1433:0.096325003 1436:0.270417 1481:0.40436801 1557:0.11158 1698:0.117797 1731:0.091755003 1932:0.109387 2065:0.284264 2480:0.200112 2812:0.291767 #
1.0000000231766961178436758928001 6:0.114518 8:0.10856 10:0.038957998 23:0.096210003 31:0.056283999 32:0.079028003 35:0.018285999 36:0.062318999 38:0.059130002 62:0.065903999 69:0.051454 76:0.039726999 126:0.059422001 142:0.073559999 143:0.057348002 149:0.079811998 156:0.062153999 187:0.122228 194:0.086891003 214:0.062102001 216:0.067694001 221:0.045704 239:0.021942001 250:0.085564002 272:0.052859999 276:0.040206999 312:0.081634998 340:0.125172 404:0.20488501 415:0.086331002 419:0.053275 444:0.085564002 530:0.119443 544:0.078349002 561:0.091553003 588:0.19925401 600:0.115322 637:0.15685301 661:0.094945997 899:0.119262 910:0.077522002 930:0.119262 933:0.111037 1170:0.119975 1200:0.15167101 1429:0.12302 1555:0.33421499 1717:0.20829099 1888:0.117887 1948:0.133597 2009:0.192727 2262:0.230312 2263:0.41413501 2264:0.189096 2265:0.173723 2266:0.24459501 #
1.0000000231766961178436758928001 6:0.046739999 13:0.117772 35:0.021987 41:0.102147 50:0.070032999 57:0.202904 76:0.080875002 81:0.093703002 84:0.128517 87:0.041871998 93:0.143874 102:0.126909 112:0.034625001 143:0.068953 156:0.092626996 164:0.069342002 217:0.071613997 232:0.072057001 244:0.05714 292:0.16615701 527:0.15544499 530:0.084821001 544:0.1595 578:0.151473 579:0.107607 627:0.185306 651:0.132283 869:0.13549 993:0.077031001 1218:0.119838 1303:0.28232199 1433:0.123428 1435:0.12613299 1497:0.146495 1731:0.117572 2060:0.153687 2334:0.21513 2424:0.18656801 3150:0.490814 3836:0.189687 9518:0.29409 #
-1.0000000231766961178436758928001 11:0.046549 19:0.084518999 23:0.044325002 35:0.020104 48:0.079659998 57:0.109576 69:0.095779002 76:0.043676 85:0.12921999 87:0.080348 95:0.135773 98:0.105935 102:0.30280399 114:0.053167999 115:0.059900001 156:0.096306004 183:0.099362001 212:0.082401998 221:0.105449 232:0.038913999 244:0.052246999 247:0.084518999 327:0.061794002 350:0.089478001 352:0.052216001 383:0.061709002 385:0.057590999 397:0.082566999 420:0.096927002 452:0.105203 492:0.097718 530:0.162762 539:0.095652997 579:0.098392002 597:0.076658003 637:0.101848 650:0.091016002 671:0.079213999 701:0.096539997 760:0.073055997 807:0.054182999 907:0.129976 933:0.122074 977:0.096284002 1033:0.105905 1149:0.108807 1295:0.32169399 1681:0.11097 2379:0.165564 2508:0.140526 3150:0.52961802 4648:0.165564 13637:0.26890701 #
-0.67991937052932216456468950127601 11:0.036405999 19:0.081932001 23:0.042969 26:0.080279998 35:0.032997001 48:0.130749 57:0.106222 69:0.115082 76:0.042339001 85:0.125265 87:0.077887997 95:0.13161799 98:0.102692 102:0.236074 107:0.096871004 112:0.030691 114:0.051541001 115:0.058067001 156:0.109221 183:0.096321002 212:0.079879999 221:0.102221 232:0.037723001 241:0.045859002 244:0.050648 247:0.081932001 350:0.051229998 352:0.085703 383:0.05982 385:0.055828001 397:0.080039002 401:0.095913999 452:0.101983 492:0.094727002 530:0.157781 539:0.092725001 579:0.161494 592:0.073982999 597:0.074312001 637:0.098731004 650:0.088230997 701:0.093584999 776:0.13426299 933:0.118337 977:0.093336999 1033:0.102663 1149:0.105477 1295:0.311849 1420:0.104929 2379:0.16049699 2508:0.136225 3150:0.465446 4648:0.16049699 7049:0.227283 11763:0.227283 13397:0.239608 #
-1.0000000231766961178436758928001 6:0.061028998 9:0.094218999 11:0.018707 23:0.078452997 32:0.073275998 35:0.016954999 43:0.059262998 48:0.067185 52:0.092745997 58:0.078547999 70:0.096537001 83:0.05889 85:0.064366996 86:0.075175002 92:0.085262999 94:0.065530002 98:0.052767999 114:0.044840999 121:0.051339999 164:0.053474002 174:0.093763001 183:0.14188699 198:0.075692996 201:0.091289997 208:0.126662 239:0.020345001 244:0.044064999 256:0.057714999 271:0.069567002 315:0.104759 318:0.119415 435:0.091606997 443:0.056717001 444:0.079337001 460:0.095002003 518:0.090060003 637:0.085897997 647:0.31554201 656:0.074249998 690:0.089910001 737:0.155104 780:0.099474996 807:0.045697998 855:0.073435999 869:0.104486 881:0.103469 887:0.088316001 904:0.19506501 908:0.099751003 1109:0.235605 1211:0.097269997 1303:0.12858801 1348:0.072568998 1367:0.129241 1501:0.092745997 1555:0.100633 1569:0.124976 1615:0.173529 2034:0.116402 3123:0.168688 5136:0.15517899 10541:0.55204397 #
-0.37708492058120635093132477777544 8:0.13727701 15:0.042732 36:0.037551001 41:0.05119 43:0.065205999 56:0.070947997 63:0.049488001 81:0.079507001 105:0.033171002 114:0.117736 122:0.049729999 128:0.073991999 137:0.050841998 213:0.099592 214:0.063357003 225:0.261655 230:0.114121 236:0.041724999 241:0.043899 292:0.113746 313:0.066150002 335:0.154737 384:0.113301 389:0.135628 427:0.097957 510:0.196303 550:0.101324 722:0.079677001 723:0.114889 760:0.067794003 787:0.084161997 797:0.082902998 804:0.094939001 825:0.076015003 855:0.21084499 978:0.101865 993:0.13716801 1025:0.199202 1125:0.234135 1256:0.245607 1257:0.142202 1364:0.113845 1397:0.093268 1418:0.121672 1596:0.13751 1647:0.109048 1736:0.095664002 2343:0.179766 2661:0.391119 3415:0.15363801 10943:0.229369 13694:0.249538 #
-1.0000000231766961178436758928001 11:0.032724999 35:0.017518001 70:0.058908001 76:0.079869002 91:0.058598999 93:0.17667 94:0.067704 98:0.054519001 113:0.040555 119:0.18373799 126:0.027124999 137:0.047741 143:0.054939002 181:0.145537 208:0.050151002 221:0.043784 226:0.056079 229:0.082598001 232:0.033909 239:0.021020001 291:0.097415999 293:0.070616998 308:0.20362499 352:0.045499999 385:0.084968001 392:0.067520998 428:0.090671003 492:0.14417 530:0.114426 544:0.075057 595:0.093517996 650:0.079309002 668:0.064905003 701:0.084122002 764:0.093203999 800:0.247325 811:0.072453 855:0.075873002 1008:0.220679 1057:0.16081101 1069:0.089148998 1203:0.119031 1358:0.119436 1662:0.111678 1784:0.126892 1824:0.207178 1852:0.177504 2199:0.117852 2430:0.109896 2765:0.190345 3150:0.47914901 8628:0.190345 10960:0.215381 12010:0.234319 #
1.0000000231766961178436758928001 8:0.14915501 11:0.019668 19:0.074943997 36:0.085623004 50:0.056781001 59:0.057394002 82:0.27118799 112:0.028074 114:0.047145002 116:0.068034999 122:0.047518998 137:0.082255997 169:0.062454998 210:0.133973 219:0.055633999 221:0.075438 225:0.095815003 229:0.084051996 232:0.034506001 234:0.158482 235:0.13386901 287:0.16911501 290:0.095325001 340:0.072068997 370:0.044842999 383:0.114832 476:0.26510999 597:0.17737401 611:0.14342 624:0.094061002 722:0.076134004 771:0.085602999 933:0.108245 991:0.124333 1112:0.20578299 1171:0.16307101 1534:0.12325 1751:0.165069 1755:0.260398 1903:0.319451 2165:0.101651 2282:0.124607 2961:0.1999 3529:0.227768 3668:0.207899 8977:0.219172 11780:0.238444 #
1.0000000231766961178436758928001 5:0.094311997 35:0.023957999 45:0.083342999 116:0.191889 121:0.122828 122:0.15239701 315:0.087425999 383:0.073538996 414:0.113694 719:0.106344 858:0.080992997 933:0.085920997 1012:0.09939 1198:0.131523 1217:0.098494001 1419:0.247747 1533:0.14691301 2328:0.22461601 3022:0.20170601 3152:0.455098 3985:0.210435 12631:0.294559 13756:0.32045999 13757:0.32045999 13758:0.32045999 #
0.68621668584667483425931777674123 1:0.076568 8:0.070532002 11:0.022194 18:0.065568 23:0.115733 35:0.020116 38:0.065045998 41:0.055197001 55:0.099702999 62:0.072497003 69:0.056602001 76:0.043701999 82:0.12823901 99:0.053851001 100:0.104777 104:0.13328899 107:0.099987999 116:0.16111501 122:0.090788998 126:0.031148 145:0.066294 147:0.104944 156:0.068371996 219:0.062778004 227:0.098178998 239:0.024137 244:0.088514 248:0.064119004 276:0.044229999 383:0.061744999 393:0.066638 440:0.18303999 458:0.084133998 544:0.086188003 619:0.141137 655:0.10812 701:0.096597001 722:0.085911997 738:0.12850299 818:0.26752901 887:0.104777 910:0.085277997 933:0.122146 975:0.098178998 1077:0.117582 1278:0.152556 1316:0.13488901 1348:0.086096004 1374:0.106846 1533:0.123352 1600:0.26694101 1647:0.199083 1797:0.121308 1919:0.173547 3061:0.276694 4009:0.176687 4012:0.162356 4545:0.234598 4710:0.31171399 4711:0.186268 #
0.69535358819237258476420038277865 11:0.020693 23:0.041352998 45:0.11047 53:0.184063 63:0.049752999 70:0.063069999 112:0.029537 116:0.121198 119:0.075387999 122:0.147284 125:0.10241 127:0.087650999 137:0.086544 156:0.037650999 204:0.147664 211:0.100983 226:0.060040999 227:0.091541 240:0.049874999 261:0.101334 276:0.041239999 290:0.059236001 340:0.15913001 350:0.083477996 371:0.111071 394:0.090428002 435:0.101334 448:0.126002 492:0.091164999 561:0.093904004 723:0.055038001 731:0.079848997 825:0.076421998 894:0.111881 910:0.166866 920:0.124575 933:0.160511 975:0.091541 978:0.10241 991:0.184368 1013:0.083826996 1348:0.080274001 1481:0.138246 1534:0.129675 1540:0.092436999 1600:0.118599 2184:0.097383 2297:0.145244 2439:0.351574 3716:0.16324 3717:0.250875 3718:0.250875 3719:0.250875 3720:0.250875 3721:0.250875 #
1.0000000231766961178436758928001 2:0.094168998 6:0.041466001 10:0.041554999 11:0.051353998 22:0.148506 23:0.043005999 30:0.16096599 32:0.25958699 33:0.177801 34:0.11903 36:0.039260998 37:0.058194999 44:0.082567997 48:0.077289 58:0.090360999 69:0.054885 75:0.053890999 76:0.071748003 93:0.158204 94:0.075384997 99:0.052216999 105:0.034681 108:0.071778998 116:0.12604199 156:0.082174003 197:0.119516 232:0.037755001 239:0.023405001 315:0.071177997 350:0.051274002 354:0.063118003 370:0.049066 440:0.084573001 523:0.083933003 676:0.073145002 723:0.057238001 803:0.095863 817:0.105201 863:0.26281399 885:0.088621996 906:0.080269001 933:0.069953002 1161:0.37033901 1171:0.105384 1405:0.26945201 1438:0.168281 1481:0.14377201 1669:0.097515002 2183:0.239815 2274:0.14377201 2329:0.27538401 3360:0.155467 3711:0.158462 3893:0.201703 4758:0.194058 #
-0.23479995823299304458231517855893 6:0.033728 12:0.064646997 18:0.14437599 22:0.137354 35:0.015866 36:0.05407 37:0.047336001 39:0.075586997 45:0.055192001 86:0.070344001 89:0.061995 91:0.053072002 94:0.061317999 99:0.042474002 104:0.092455 105:0.028209999 119:0.063772 126:0.041595001 162:0.075686 164:0.050037999 194:0.075390004 197:0.057417002 208:0.045421001 219:0.103912 276:0.073210999 282:0.058237001 313:0.056256998 324:0.067332 493:0.095792003 496:0.10441 504:0.171203 539:0.075488001 560:0.067832999 611:0.075390004 657:0.110902 888:0.152273 912:0.15167899 956:0.085129999 962:0.08602 1017:0.198504 1027:0.095903002 1127:0.12666 1135:0.098509997 1422:0.076803997 1477:0.088896997 1531:0.14069501 1604:0.089934997 2042:0.113055 2107:0.14210901 2598:0.106736 5883:0.157847 7311:0.36178499 8961:0.388313 8962:0.50641698 #
-1.0000000231766961178436758928001 10:0.077257 18:0.069811001 23:0.047222 35:0.036263 44:0.043200999 63:0.056814 97:0.103821 112:0.033728998 113:0.049582001 114:0.056642 115:0.063813999 116:0.138399 142:0.121428 206:0.081092 208:0.128675 214:0.072736003 222:0.098370001 227:0.104533 244:0.094242997 290:0.067643002 326:0.110336 327:0.065831997 352:0.055628002 392:0.082551003 396:0.10692 397:0.14893299 419:0.062398002 434:0.214829 448:0.143885 470:0.184044 530:0.139897 532:0.117577 561:0.107231 623:0.097309999 690:0.113572 723:0.062849998 783:0.201756 807:0.057723999 818:0.109158 933:0.183292 1130:0.230547 1146:0.091863997 1220:0.177644 1468:0.096735001 1571:0.31814101 1681:0.118222 2164:0.162429 2282:0.149709 2437:0.161624 3061:0.29460099 3840:0.209562 3958:0.24978 6353:0.22662599 #
-1.0000000231766961178436758928001 3:0.063992001 10:0.031920999 11:0.016531 23:0.055934001 35:0.014983 37:0.044702999 48:0.059370998 70:0.050384998 97:0.072631001 99:0.040111002 104:0.041604999 105:0.026641 126:0.039282002 136:0.144373 156:0.030079 169:0.052494001 190:0.139777 239:0.017979 240:0.039843 290:0.047322001 315:0.054676 351:0.049747001 404:0.179608 410:0.151577 412:0.250624 426:0.064335003 440:0.064966001 452:0.046309002 482:0.079585001 527:0.105932 588:0.077795997 631:0.14807101 687:0.111982 688:0.101131 708:0.098903999 709:0.107196 777:0.068818003 814:0.149068 933:0.053734999 993:0.052494001 1137:0.099518999 1167:0.36775801 1175:0.149068 1200:0.29655901 1348:0.064129002 1435:0.085956998 2989:0.14047401 3779:0.13713001 4335:0.120932 4800:0.14047401 9276:0.16280399 11841:0.168019 13676:0.52297097 #
-0.0050614709875461613708402808242681 2:0.069237001 6:0.030486999 36:0.028866 50:0.045680001 55:0.071082003 74:0.086891003 81:0.061119001 86:0.063584 87:0.027310999 94:0.055426002 122:0.064727001 129:0.091176003 142:0.034072999 182:0.072761998 206:0.054299001 208:0.041056 224:0.079016 226:0.045908999 229:0.14190599 238:0.063948996 284:0.076819003 316:0.070482001 340:0.121676 434:0.055126999 517:0.247786 611:0.11538 624:0.128123 628:0.084740996 630:0.118106 677:0.067969002 738:0.054109 787:0.064696997 838:0.074345 843:0.15789901 858:0.048482001 962:0.077753998 976:0.076301999 1012:0.155246 1133:0.065549999 1176:0.121692 1217:0.058958001 1544:0.111671 1561:0.078305997 1600:0.090683997 1641:0.15565801 2140:0.115749 3152:0.27241999 3153:0.304957 3769:0.136244 4931:0.28592399 5328:0.128454 8868:0.191826 8869:0.50055802 8870:0.176322 #
-0.25387274681150784338967696385225 3:0.091747001 6:0.134532 7:0.120594 10:0.045766 23:0.047364 27:0.11836 31:0.066119999 33:0.19581699 42:0.084564999 44:0.043331001 51:0.094388001 69:0.060446002 87:0.069266997 99:0.057507999 114:0.056813002 142:0.051038001 143:0.18808299 145:0.070795998 146:0.14938 151:0.103711 160:0.106932 204:0.099889003 212:0.088050999 241:0.050549001 324:0.091165997 354:0.14588299 394:0.103572 419:0.062586002 556:0.14094201 661:0.111538 668:0.18992899 669:0.13928699 722:0.155341 738:0.170093 770:0.111893 828:0.110497 838:0.111362 995:0.31113899 1171:0.116063 1196:0.127783 1209:0.107086 1348:0.091943003 1367:0.163744 1423:0.138097 1459:0.13372099 1717:0.144519 1797:0.30913699 2259:0.14906 2719:0.29356301 2919:0.173383 12038:0.26411599 #
1.0000000231766961178436758928001 11:0.022205001 31:0.061946999 36:0.040509999 44:0.068736002 75:0.055606 76:0.091761 87:0.080436997 91:0.160653 93:0.185617 94:0.13169999 102:0.30314201 105:0.035785001 123:0.074633002 137:0.054848999 143:0.10687 145:0.066327997 156:0.040403001 182:0.102114 210:0.089335002 212:0.082493998 217:0.065554 226:0.064428002 231:0.079975002 241:0.047359001 308:0.289965 327:0.104742 419:0.058635999 469:0.138657 497:0.078316003 518:0.106902 544:0.14600401 570:0.110689 650:0.191221 654:0.100473 705:0.097296998 731:0.085683003 752:0.19241001 791:0.097429 807:0.054244 894:0.070906997 933:0.072178997 1138:0.14399 1199:0.240923 1218:0.109698 1307:0.14703999 1374:0.106902 1574:0.14971299 1879:0.161412 2184:0.104499 3150:0.449285 3903:0.23472001 #
1.0000000231766961178436758928001 11:0.021926001 26:0.1718 35:0.019873001 50:0.107177 58:0.092064001 70:0.066827998 87:0.037845999 88:0.069023997 95:0.134215 108:0.073132001 114:0.052558001 123:0.073693998 126:0.030772001 132:0.1374 135:0.15307 136:0.113096 137:0.054159001 156:0.039894 197:0.071918003 208:0.056892999 210:0.088211 220:0.149968 226:0.063616998 232:0.038467001 239:0.040375002 293:0.080109999 340:0.16861001 441:0.126691 452:0.061420999 530:0.12980799 600:0.125329 617:0.099065997 627:0.098924004 638:0.135492 654:0.25887999 669:0.128855 671:0.078304 783:0.078451 791:0.229569 807:0.053560998 825:0.080975004 858:0.067183003 885:0.090291999 956:0.106632 1064:0.13078 1133:0.090834998 1268:0.086073004 1340:0.099642999 1370:0.224549 1654:0.161448 1736:0.101906 1788:0.11424 2259:0.137896 3013:0.191495 3150:0.543562 #
1.0000000231766961178436758928001 8:0.063835002 11:0.034010001 15:0.041701999 35:0.018206 42:0.071667999 87:0.058704 102:0.293376 105:0.054807998 114:0.048147999 137:0.049616002 138:0.066715002 156:0.087214001 226:0.058281001 234:0.161855 239:0.021846 244:0.047315001 275:0.093071997 290:0.13721 293:0.07339 351:0.060446002 352:0.047286 370:0.077541001 371:0.107815 410:0.077180997 440:0.078938 442:0.161855 460:0.102008 469:0.12542699 470:0.065559998 560:0.23969699 633:0.160304 650:0.082423002 760:0.066159002 808:0.15327799 837:0.071937002 933:0.065292001 993:0.063785002 995:0.101052 1149:0.098534003 1221:0.124126 1296:0.088734999 1422:0.088132001 1426:0.189024 1500:0.212366 1788:0.104656 1824:0.215313 2078:0.16144601 2083:0.135428 2926:0.15574799 3150:0.15574799 6991:0.37898999 7690:0.21232399 10015:0.24352001 10016:0.24352001 #
1.0000000231766961178436758928001 1:0.077028997 11:0.022328001 18:0.065963 23:0.044619001 35:0.020237001 36:0.040732998 41:0.094019003 49:0.072695002 70:0.068051003 88:0.070288002 91:0.114615 98:0.062981002 109:0.067592002 112:0.03187 122:0.053945001 137:0.055151001 138:0.074157998 143:0.107458 147:0.105577 156:0.085256003 248:0.064506002 249:0.070343003 306:0.27301601 341:0.086613998 352:0.052561998 470:0.152935 493:0.072163999 530:0.18629999 595:0.108033 600:0.26783299 668:0.074979 671:0.079737999 701:0.097179003 723:0.059385002 743:0.107851 753:0.123494 776:0.13942 780:0.070123002 807:0.054542001 888:0.114713 933:0.21380299 1057:0.109719 1340:0.101468 1423:0.13009401 1523:0.30143201 2060:0.14145701 3150:0.53312498 4892:0.181262 8061:0.22693101 #
1.0000000231766961178436758928001 15:0.04789 35:0.020907 36:0.042082999 60:0.112676 76:0.045421999 91:0.069936 92:0.274349 98:0.16979 105:0.037174001 114:0.055293001 145:0.19236 149:0.091251999 164:0.065939002 179:0.094655 181:0.082767002 221:0.052255999 226:0.066928998 229:0.098578997 244:0.114029 250:0.097829998 265:0.234391 290:0.066032 299:0.202262 311:0.100938 314:0.125213 327:0.064263999 352:0.054303002 414:0.099218003 506:0.235863 575:0.100399 807:0.056349002 837:0.082612 887:0.108901 982:0.174692 1093:0.29012999 1146:0.089676 1211:0.119942 1217:0.085952997 1326:0.14455201 1374:0.111052 1424:0.235026 1427:0.107211 1549:0.248715 1736:0.18152399 1998:0.229526 1999:0.16874599 4329:0.181968 12457:0.27965599 #
-1.0000000231766961178436758928001 6:0.048896998 8:0.080649003 10:0.082969002 15:0.052685998 35:0.023001 36:0.046296999 37:0.068623997 38:0.074377 102:0.224792 105:0.040897001 113:0.090157002 119:0.092451997 122:0.146311 123:0.085294001 126:0.035615999 131:0.081822 145:0.075802997 156:0.07818 186:0.130898 190:0.12673099 209:0.107491 230:0.23823 232:0.044521999 239:0.046730001 240:0.061163999 258:0.084500998 290:0.15245201 321:0.11016 350:0.060463998 392:0.088655002 448:0.235416 497:0.052862 552:0.108451 617:0.11466 668:0.144291 671:0.090630002 767:0.112573 769:0.184469 791:0.111346 896:0.103888 910:0.097511001 933:0.26373801 1057:0.211146 1093:0.114331 1225:0.191937 1276:0.15277401 1327:0.32787901 1468:0.103888 1501:0.125817 13515:0.28279501 13950:0.30766201 #
-0.40636681271045527186203116798424 10:0.040252 35:0.018894 76:0.069499001 91:0.176441 93:0.153244 95:0.075364001 97:0.091587 98:0.058800999 143:0.100326 156:0.064218998 213:0.240688 219:0.058965001 226:0.060483001 240:0.050241999 241:0.044459 248:0.060224 262:0.13358 285:0.18986499 292:0.068038002 341:0.080866002 350:0.049667001 352:0.102985 405:0.085639998 417:0.153493 448:0.12693 470:0.162357 544:0.080952004 976:0.28063899 1221:0.12881599 1268:0.081831999 1491:0.120782 1518:0.113413 1561:0.103165 1686:0.124717 1728:0.105264 1769:0.118526 2533:0.16032401 3000:0.155599 3022:0.15907 3150:0.38570601 4947:0.35890099 5619:0.220348 5620:0.220348 5621:0.21187 #
-0.46691566702908232633362217711692 8:0.167862 11:0.077505998 15:0.109659 30:0.111187 36:0.096362002 44:0.046014 63:0.060513999 107:0.191989 123:0.084592998 124:0.14650001 126:0.074129999 137:0.105262 143:0.071543001 145:0.075180002 162:0.108824 204:0.106075 208:0.065306999 214:0.077473 220:0.172149 221:0.057016 223:0.188988 230:0.13954701 244:0.059285998 256:0.077651002 300:0.079481997 351:0.075740002 452:0.070505999 459:0.117522 510:0.11438 538:0.145032 690:0.204816 701:0.109546 732:0.179667 738:0.086070001 837:0.090138003 851:0.24104799 855:0.167289 869:0.23802 1026:0.100233 1054:0.142002 1457:0.213874 1532:0.29593799 1570:0.232926 2121:0.16455001 2191:0.15661 8061:0.25581101 8597:0.241384 #
-0.27334215990815174945893772928684 9:0.103656 11:0.018100001 23:0.075906001 32:0.120039 36:0.069294997 37:0.048944 38:0.053047001 46:0.103733 49:0.058929 69:0.046160001 76:0.074794002 81:0.069913998 92:0.19685601 93:0.107348 95:0.110792 105:0.029168 126:0.025402 137:0.044707 164:0.123462 204:0.076281004 214:0.055712 226:0.088916004 231:0.065187 244:0.042633999 272:0.099519998 351:0.054466002 363:0.106061 370:0.069870003 459:0.084512003 464:0.069619 468:0.13510101 469:0.23718201 470:0.100022 471:0.52630699 477:0.086846001 478:0.1016 481:0.115982 483:0.077849999 486:0.12635601 497:0.037702002 508:0.072568998 541:0.156528 560:0.070138 633:0.085312001 686:0.096721999 705:0.079305999 758:0.106991 858:0.055458002 962:0.088941999 1151:0.100843 1156:0.103183 1313:0.132405 1467:0.136066 1500:0.191357 1583:0.092628002 1817:0.14409199 2380:0.128461 4293:0.114247 12918:0.37152499 #
-0.58718442914652579922574204829289 11:0.028146001 35:0.015067 36:0.030325999 76:0.096427001 91:0.050399002 93:0.058230001 95:0.060098 102:0.086966999 104:0.041836001 114:0.039845999 122:0.040162001 136:0.085744001 143:0.047251001 145:0.084071003 149:0.065760002 151:0.072738998 156:0.084439002 169:0.052786998 186:0.085744001 206:0.057046 214:0.086635001 219:0.047021002 226:0.048230998 238:0.067184001 239:0.018079 272:0.043554001 308:0.103435 340:0.103133 371:0.089224003 411:0.15174399 426:0.064692996 427:0.079111002 445:0.071130998 448:0.048230998 494:0.070767999 523:0.064833 530:0.098413996 617:0.075107001 627:0.074998997 638:0.102723 677:0.071406998 723:0.044213001 724:0.170513 730:0.073637001 738:0.096248001 791:0.153064 824:0.098555997 910:0.063873 933:0.054033998 993:0.052786998 1057:0.081687003 1093:0.074891001 1269:0.097409002 1329:0.096316002 1347:0.096584998 1436:0.113145 1662:0.096051 2171:0.099761002 2242:0.214773 3637:0.388751 9222:0.27718499 13499:0.48337701 13500:0.34121999 #
1.0000000231766961178436758928001 13:0.160293 18:0.097540997 23:0.19436701 41:0.082111999 69:0.084202997 87:0.056988999 104:0.083093002 114:0.079140998 115:0.089162 116:0.114208 124:0.192176 142:0.120379 195:0.17643601 232:0.098072998 236:0.066928998 327:0.091980003 370:0.075276002 428:0.15488701 434:0.115029 475:0.166098 504:0.13531899 533:0.163983 595:0.15975 690:0.158683 738:0.112905 859:0.52137297 933:0.10732 1014:0.28891799 1140:0.143319 1218:0.163105 2191:0.205439 4357:0.36792001 #
1.0000000231766961178436758928001 9:0.029725 10:0.023916001 11:0.020971 35:0.011226 52:0.061406001 61:0.054418001 94:0.043387 113:0.054540001 114:0.029689001 115:0.033448 126:0.029431 156:0.038157001 169:0.039331 201:0.060442001 208:0.032138001 216:0.041556999 225:0.143985 230:0.068672001 232:0.036791001 235:0.084302999 272:0.077437997 275:0.057390001 276:0.041793 285:0.066628002 327:0.034506001 370:0.028239001 390:0.051312 393:0.037188999 430:0.062426999 453:0.043035999 523:0.081789002 633:0.05838 656:0.04916 657:0.132861 665:0.053273998 690:0.059528001 734:0.082745001 735:0.13048799 737:0.127285 741:0.054343998 783:0.044316001 817:0.060547002 855:0.048620999 877:0.130922 905:0.091200002 906:0.078218997 926:0.13890301 935:0.051624 969:0.086934 978:0.103784 1028:0.072788 1077:0.065618999 1296:0.054715998 1306:0.14414901 1353:0.052662 1358:0.12959 1422:0.092012003 1501:0.061406001 1540:0.055326998 1767:0.07818 1783:0.098604001 1910:0.067699 1994:0.065479003 2165:0.064014003 2259:0.077895999 2438:0.079993002 2930:0.113749 4136:0.221671 4632:0.111687 5749:0.130922 6635:0.13802201 6739:0.28965399 7503:0.21314199 9204:0.130922 9832:0.150158 9833:0.150158 9834:0.150158 9835:0.150158 9836:0.150158 9837:0.150158 9838:0.150158 9839:0.23369101 9840:0.25423899 9841:0.25423899 9842:0.150158 9843:0.150158 #
1.0000000231766961178436758928001 11:0.021880999 19:0.083378002 44:0.104388 49:0.071241997 60:0.063127004 105:0.035262998 126:0.030709 236:0.105849 257:0.086465001 272:0.057330001 315:0.072370999 322:0.162183 325:0.110911 366:0.14021599 443:0.066340998 448:0.13323601 453:0.076030001 465:0.091201998 477:0.104992 560:0.084793001 623:0.090108 681:0.124742 687:0.38677999 799:0.312217 933:0.071125999 935:0.091201998 952:0.112642 1004:0.074565999 1019:0.12540799 1100:0.13214201 1131:0.175184 1219:0.112866 1254:0.172612 1406:0.169664 1450:0.100473 1561:0.10829 1667:0.267643 1721:0.134306 1756:0.10249 1768:0.338588 2658:0.22444899 3476:0.21549401 10205:0.243837 #
1.0000000231766961178436758928001 1:0.069972001 6:0.066166997 9:0.048675999 11:0.020282 15:0.042107001 32:0.079446003 35:0.018383 43:0.064251997 44:0.037080001 60:0.058513001 69:0.051725999 98:0.057211 99:0.049212001 122:0.049001999 123:0.068167999 164:0.057976998 172:0.087012 199:0.085909002 208:0.052627001 239:0.022058001 240:0.082767002 244:0.047775 249:0.063899003 341:0.078679003 351:0.061034001 354:0.15522499 385:0.13741501 419:0.090680003 448:0.14042699 458:0.076885998 470:0.066197999 479:0.121719 494:0.086345002 497:0.042247999 570:0.101101 623:0.083521999 649:0.177131 699:0.080681004 705:0.088869996 777:0.084432997 802:0.129968 974:0.096680999 1004:0.069115996 1008:0.110347 1064:0.120975 1150:0.11443 1152:0.109595 1333:0.116242 1397:0.091903999 1432:0.107683 1532:0.140848 1926:0.121719 2111:0.147431 2191:0.126202 4426:0.52987999 4520:0.161467 5064:0.19009601 5908:0.199743 10624:0.206141 10625:0.24588799 10626:0.24588799 #
1.0000000231766961178436758928001 21:0.094351001 23:0.064043 36:0.034531001 50:0.054644998 56:0.065242998 74:0.103944 75:0.047398001 87:0.032671001 104:0.080655999 108:0.063132003 126:0.026564 156:0.058311 236:0.038369998 241:0.068351001 282:0.062972002 324:0.072806001 340:0.117433 350:0.076357 365:0.11156 397:0.119296 443:0.057387002 454:0.095941 459:0.14964101 460:0.162752 474:0.069357999 533:0.159173 556:0.112557 561:0.085892998 562:0.125889 650:0.077669002 661:0.089075997 699:0.075295001 723:0.050342999 761:0.103217 848:0.138465 859:0.18127599 882:0.104691 928:0.081308 929:0.14804301 960:0.118613 975:0.083732001 977:0.082163997 978:0.093673997 979:0.15776201 1001:0.10625 1140:0.21440101 1219:0.097631998 1297:0.119041 1333:0.108481 1418:0.111888 1721:0.116178 2166:0.33482301 2371:0.13758799 2719:0.138465 3340:0.117368 3651:0.173832 5473:0.167861 5509:0.157012 6552:0.177405 7453:0.186408 7727:0.300372 12910:0.229472 #
-0.9097697816298235817811246306519 3:0.089753002 10:0.093959004 12:0.085628003 13:0.190595 23:0.120907 31:0.064684004 41:0.097634003 42:0.14006899 49:0.075489998 60:0.066891 80:0.126147 83:0.072990999 99:0.056258999 104:0.098801002 105:0.037365999 113:0.04865 115:0.062615 124:0.079709001 138:0.077009 147:0.109637 156:0.042187002 239:0.025216 245:0.12982699 276:0.12900101 297:0.092441 300:0.073220998 322:0.081890002 323:0.104161 357:0.109462 393:0.069618002 401:0.103428 431:0.24342801 452:0.064951003 458:0.14882 498:0.103866 508:0.092963003 519:0.12732799 555:0.121302 571:0.186359 619:0.147447 634:0.105991 648:0.117974 671:0.1402 825:0.085628003 859:0.31296599 910:0.089091003 933:0.075367004 978:0.114748 1014:0.119834 1035:0.17430601 1149:0.113739 1223:0.132181 1285:0.15937699 1340:0.178406 1348:0.15229 1433:0.117974 1468:0.094917998 1515:0.173664 2026:0.1549 2191:0.144273 4713:0.21293899 7006:0.22834399 #
-1.0000000231766961178436758928001 2:0.102607 10:0.076664001 11:0.023449 23:0.13082001 30:0.103588 31:0.065416001 37:0.063409001 41:0.058318 43:0.074284002 44:0.042869002 49:0.160219 50:0.067697003 63:0.095457003 64:0.101254 69:0.059803002 71:0.118856 75:0.058719002 88:0.073817 95:0.084775001 99:0.056896001 112:0.056669999 115:0.063325003 127:0.099321999 129:0.22877701 142:0.085495003 205:0.061758 208:0.103018 222:0.097615004 223:0.083898999 232:0.041138999 236:0.080482997 239:0.025502 256:0.072343998 272:0.061437 327:0.065325998 370:0.090520002 393:0.070405997 434:0.13832299 530:0.138823 575:0.102059 671:0.14178801 807:0.057280999 855:0.155855 859:0.34610701 874:0.081476003 933:0.198893 935:0.097735003 1004:0.079907998 1014:0.121192 1126:0.082589999 1200:0.29846799 1223:0.133678 1297:0.14747301 1772:0.152052 1994:0.123966 2184:0.110351 2231:0.19237401 3085:0.29846799 6029:0.199257 8386:0.24786299 #
-1.0000000231766961178436758928001 10:0.059544001 11:0.018212 36:0.056256 82:0.105234 105:0.02935 116:0.150336 142:0.066404 154:0.091793999 195:0.346962 205:0.047967002 208:0.047256999 210:0.073270999 229:0.077831998 313:0.058531001 327:0.050737999 370:0.041524 419:0.081427 443:0.055217002 454:0.092313997 484:0.083254002 518:0.148453 530:0.063681997 538:0.177689 552:0.077831998 611:0.078437999 613:0.142414 624:0.087099999 720:0.107979 723:0.101657 742:0.12518901 929:0.084132001 933:0.154478 951:0.20485 980:0.131569 1013:0.073778003 1196:0.166252 1199:0.19760001 1200:0.136915 1234:0.086117998 1420:0.150481 1450:0.083627 1549:0.158429 1602:0.167261 1756:0.14443401 1769:0.103554 2464:0.16422801 2711:0.117161 3034:0.23530699 4138:0.14366999 4629:0.161516 6140:0.140072 7701:0.202952 7751:0.220798 7752:0.192513 7753:0.220798 #
-0.18791408380459820315344643404387 5:0.072888002 11:0.034589 18:0.060353 35:0.018516 36:0.063101001 42:0.072888002 44:0.037347998 55:0.155385 58:0.085776001 63:0.049116999 95:0.073856004 112:0.049371 113:0.042863999 156:0.03717 164:0.058396 179:0.083825998 201:0.099691004 212:0.24264701 232:0.035840001 236:0.070115998 239:0.022217 271:0.075969003 307:0.13647699 315:0.067566 356:0.076425999 383:0.056834001 427:0.097222 479:0.122599 523:0.222431 545:0.090620004 560:0.13403399 562:0.135869 597:0.070602998 668:0.068602003 723:0.054334 778:0.172011 787:0.083530001 807:0.049903002 856:0.104751 953:0.108229 960:0.128016 1008:0.111144 1133:0.084631003 1172:0.137733 1296:0.090245999 1333:0.117081 1344:0.123762 1348:0.079246998 1364:0.112991 1398:0.124974 1469:0.107999 1477:0.17565501 1650:0.091255002 1694:0.195648 2338:0.138382 2485:0.131418 2738:0.48956501 3182:0.162633 6184:0.215938 10345:0.227648 #
-0.8755738797150143248870790557703 2:0.082585 23:0.037716001 35:0.017106 44:0.034504 62:0.061650001 105:0.051498 114:0.04524 116:0.192325 122:0.045598999 138:0.062684998 150:0.079343997 162:0.081602998 205:0.049706999 207:0.101078 221:0.072388999 226:0.054760002 290:0.054026 371:0.101302 394:0.082474001 419:0.049837001 443:0.120084 453:0.065577999 475:0.094948001 493:0.060998999 497:0.039314002 505:0.101302 532:0.15899999 723:0.050198 786:0.37288401 858:0.057829 890:0.147581 894:0.10204 977:0.081926003 991:0.14788 993:0.059932001 1127:0.080655999 1133:0.164086 1534:0.11827 1535:0.345671 1540:0.084307 1556:0.24987601 1613:0.11785 1731:0.091472998 2371:0.13719 7621:0.170187 12970:0.54600501 #
1.0000000231766961178436758928001 11:0.038493998 18:0.054189999 62:0.059916999 63:0.044101998 82:0.105986 85:0.10686 86:0.124803 114:0.043968 116:0.10743 122:0.075034998 138:0.10315 141:0.123669 164:0.052432999 170:0.12881701 183:0.082167998 190:0.091600001 205:0.048308998 217:0.054150999 230:0.17219201 240:0.074851997 244:0.090673998 249:0.057788 258:0.103411 290:0.052506998 300:0.057925001 349:0.1231 354:0.053798001 429:0.086320996 443:0.055612002 458:0.069533996 484:0.083849996 497:0.091177002 539:0.079101004 592:0.063112997 611:0.078997999 621:0.098672003 676:0.105558 723:0.048785999 731:0.070777997 759:0.076452002 767:0.17075799 855:0.072006002 993:0.058247 1103:0.111845 1219:0.094613001 1236:0.106875 1349:0.096562997 1599:0.110424 1641:0.27810201 1665:0.107178 2269:0.128745 2383:0.62944698 2598:0.111845 2887:0.13506199 3736:0.14343201 5868:0.242851 #
1.0000000231766961178436758928001 8:0.225686 63:0.087535001 72:0.140582 119:0.18693499 126:0.030177999 128:0.184458 150:0.15305901 156:0.102093 174:0.107777 186:0.23276401 214:0.13890401 221:0.048710998 230:0.28449601 260:0.11491 267:0.122786 281:0.18350101 290:0.061553001 350:0.107517 424:0.217821 464:0.14004 493:0.11767 497:0.131952 885:0.21130601 896:0.088027 906:0.135796 907:0.126004 933:0.14668299 975:0.095122002 977:0.093341 1134:0.112265 1268:0.084412001 1290:0.159399 1293:0.15730201 1296:0.094991997 1396:0.13068999 1645:0.146358 2816:0.26142901 3737:0.20622399 3738:0.227294 3739:0.26068899 #
1.0000000231766961178436758928001 6:0.036409002 11:0.039655998 15:0.03923 22:0.062135 23:0.063936003 32:0.19314399 33:0.156119 35:0.017127 38:0.055381 41:0.046994999 50:0.054552998 87:0.055225 98:0.053302001 102:0.167382 113:0.039648999 114:0.045295 115:0.051029999 126:0.044902001 145:0.056444 146:0.07034 244:0.116147 247:0.072002999 290:0.054090999 292:0.061675001 300:0.059673 321:0.138882 322:0.066738002 350:0.045022 352:0.044484001 358:0.12624 370:0.043083001 385:0.12802599 470:0.061675001 474:0.069241002 478:0.31247699 493:0.103406 497:0.066644996 525:0.118841 526:0.121087 631:0.080650002 637:0.086765997 661:0.088926002 701:0.082244001 750:0.115984 761:0.103044 780:0.059346002 837:0.067672998 941:0.21476801 1147:0.107724 1178:0.106611 1181:0.140076 1348:0.073302999 1491:0.109486 1520:0.097662002 3941:0.21672601 8447:0.21057101 10859:0.48076501 10860:0.35652801 #
1.0000000231766961178436758928001 6:0.081720002 18:0.12530001 35:0.022704 50:0.072318003 113:0.088992 114:0.060045 119:0.091256998 143:0.120557 183:0.112212 197:0.082162999 202:0.172409 214:0.161814 217:0.07395 239:0.027243 244:0.123828 258:0.175042 275:0.116067 290:0.071705997 292:0.081758 300:0.079104997 313:0.080504 336:0.222948 341:0.097172998 350:0.12525 419:0.066146001 448:0.232374 532:0.124639 634:0.114508 657:0.158701 701:0.109026 731:0.096657 750:0.153752 770:0.118258 855:0.25659701 858:0.076752998 910:0.096251003 933:0.137862 1008:0.230749 1105:0.17778701 1151:0.13956501 1172:0.168888 1218:0.123748 1223:0.142803 1367:0.173059 1370:0.122241 1568:0.21285801 1824:0.357196 4602:0.19942001 #
1.0000000231766961178436758928001 26:0.085143998 93:0.079883002 102:0.28469899 105:0.036750998 131:0.073526002 148:0.128011 172:0.097833 175:0.14189801 214:0.118851 240:0.054963 303:0.230303 309:0.167917 470:0.12602299 512:0.202002 518:0.185885 592:0.078465998 630:0.17022 640:0.140444 669:0.134018 904:0.237792 993:0.072415002 1012:0.085745998 1574:0.260326 1961:0.13249999 2153:0.15836599 3172:0.189169 4325:0.14501999 5166:0.241054 9160:0.46810499 9161:0.27647001 #
-0.67842522456580822698413157922914 8:0.155485 11:0.031745002 35:0.016993999 38:0.054951001 50:0.054129001 87:0.032363001 113:0.066610001 135:0.13089301 146:0.069793001 156:0.089019999 182:0.086221002 209:0.134464 214:0.057712998 226:0.054400001 230:0.21815901 239:0.020391 260:0.169645 267:0.13270199 281:0.16000301 350:0.044672001 383:0.052161999 389:0.123545 497:0.039055999 541:0.095766999 592:0.064512998 734:0.212082 739:0.089964002 760:0.061753999 837:0.067147002 905:0.233751 975:0.082942002 1077:0.099333003 1090:0.157359 1137:0.112872 1218:0.092625 1240:0.110832 1269:0.109869 1270:0.17219201 1435:0.097489998 1717:0.114325 1821:0.28452301 2156:0.16627701 3912:0.14307299 4290:0.15381999 4894:0.27725399 5720:0.175731 6050:0.19056299 11685:0.19818801 12529:0.22730701 12530:0.22730701 12531:0.22730701 #
-0.059090274528429125033834878877315 30:0.11245 35:0.023071 36:0.046438001 51:0.101371 59:0.15588699 60:0.073435999 63:0.103623 87:0.092207998 104:0.064062998 105:0.069456004 112:0.061517999 143:0.072355002 145:0.076034002 155:0.15193801 156:0.097197004 170:0.105581 232:0.075612001 239:0.027683999 240:0.061351001 243:0.16937301 249:0.080195002 250:0.107955 256:0.078533001 258:0.20225801 312:0.102997 326:0.118856 350:0.060648002 354:0.074657001 433:0.085118003 452:0.071305998 579:0.112916 600:0.14549901 611:0.109629 631:0.183948 759:0.106095 807:0.062181 843:0.15002801 858:0.077995002 1512:0.17325699 1769:0.144733 2556:0.258715 4298:0.564668 8196:0.258715 8402:0.283658 #
-1.0000000231766961178436758928001 11:0.036435999 15:0.044677 22:0.197548 32:0.26950499 35:0.019505 37:0.098527998 58:0.090356998 76:0.110572 92:0.098082997 98:0.060702 99:0.052214999 100:0.101594 102:0.112583 115:0.058115002 116:0.19424599 121:0.059059002 126:0.030200999 164:0.104153 169:0.068334997 197:0.070584998 205:0.056676999 244:0.085825004 284:0.17689499 290:0.061601002 353:0.149334 369:0.143126 478:0.120798 530:0.075245999 546:0.101594 661:0.101272 687:0.14577299 728:0.115251 777:0.089584 812:0.102581 813:0.105564 822:0.34524801 840:0.112122 863:0.11013 933:0.069949999 941:0.116546 1119:0.100953 1147:0.12268 1200:0.161777 1334:0.117623 1736:0.100017 1972:0.141884 2191:0.133903 2321:0.141884 2329:0.131217 6280:0.21871901 13926:0.44172901 #
-0.060482127537533937611247125687441 11:0.082154997 15:0.081272997 31:0.10921 42:0.33330601 108:0.13057099 202:0.159135 205:0.103103 208:0.101577 232:0.068680003 240:0.094351999 256:0.120776 293:0.14303 443:0.200956 497:0.13806801 640:0.24109 799:0.181389 855:0.260196 993:0.124311 1156:0.22317199 1364:0.21652301 1481:0.44281 10667:0.474599 #
-0.65334617136667116898962603954715 6:0.045641001 8:0.075280003 22:0.077890001 32:0.15710101 35:0.021469999 44:0.043306001 69:0.060412001 92:0.25763601 114:0.056779999 121:0.13643 122:0.057231002 126:0.056287002 132:0.14844 156:0.112467 164:0.067712002 169:0.075220004 211:0.115596 214:0.123454 221:0.090856001 232:0.041558001 235:0.16123 236:0.048018999 261:0.1964 267:0.079888001 271:0.088088997 292:0.13090301 350:0.13467801 351:0.120692 354:0.069475003 356:0.088619001 370:0.054008 433:0.079209 457:0.090448998 465:0.098731004 469:0.14791299 470:0.077313997 474:0.146963 484:0.108284 497:0.049343001 522:0.144437 650:0.097199999 812:0.112916 813:0.116199 852:0.121463 869:0.132305 910:0.091017999 933:0.13036799 977:0.102826 991:0.088440999 1728:0.202526 1892:0.34170601 1902:0.115796 2221:0.26396701 2466:0.19039001 2628:0.217545 2686:0.201287 3795:0.21360099 #
1.0000000231766961178436758928001 11:0.042943001 23:0.120464 31:0.119801 62:0.066841997 63:0.049199 108:0.068250999 112:0.029208001 116:0.119847 122:0.083708003 127:0.086673997 184:0.090149 206:0.070221998 208:0.053096 214:0.062987 219:0.098002002 232:0.093677998 239:0.022253999 244:0.0482 248:0.059117999 257:0.080858998 276:0.04078 350:0.048753999 404:0.23459899 413:0.112372 452:0.057321999 498:0.091665 523:0.135125 530:0.121145 588:0.096298002 933:0.112619 995:0.102944 1004:0.069732003 1012:0.130272 1017:0.110572 1198:0.101817 1223:0.116655 1397:0.092721999 1469:0.10818 1569:0.13670599 1889:0.19624899 2559:0.36708799 3018:0.17388301 3397:0.137328 4563:0.27582201 6287:0.520621 6288:0.248079 #
1.0000000231766961178436758928001 6:0.039189 11:0.042684 22:0.066878997 23:0.040645 26:0.075939 32:0.079669997 33:0.070418999 34:0.112496 35:0.031213 39:0.087825999 44:0.078036003 45:0.064129002 49:0.066220999 51:0.137143 53:0.10685 62:0.066439003 63:0.082797997 64:0.184312 69:0.051872 76:0.04005 87:0.059441999 92:0.092702001 98:0.057372 99:0.117766 102:0.106407 112:0.029031999 116:0.070355996 126:0.028545 134:0.075113997 142:0.043799002 145:0.102865 164:0.058139998 205:0.053568002 208:0.052774999 210:0.081827 217:0.060045 221:0.046075001 222:0.08467 239:0.022120001 272:0.053289 290:0.058222 322:0.15075199 326:0.094970003 338:0.081090003 340:0.074529 387:0.078234002 419:0.053707998 445:0.087031998 448:0.059013002 518:0.097916998 532:0.101202 614:0.113044 622:0.112496 792:0.110913 818:0.093956001 822:0.116883 1181:0.15077201 1200:0.32088399 1784:0.133532 1987:0.13527501 1988:0.139807 2868:0.130334 3177:0.168718 3977:0.16511901 6140:0.264855 7029:0.19506299 7439:0.200306 8446:0.190631 9359:0.41749701 #
1.0000000231766961178436758928001 11:0.070997998 23:0.16133 35:0.030663 45:0.106668 48:0.20572001 63:0.08134 112:0.048289999 115:0.091362 123:0.113706 134:0.12494 143:0.096165001 233:0.16772801 236:0.068581 247:0.128912 318:0.215958 352:0.079641998 634:0.154651 671:0.12082 785:0.15846001 825:0.12494 859:0.45664799 933:0.18619201 977:0.146856 1309:0.21679001 1424:0.164248 1595:0.277549 2029:0.25078601 2260:0.227044 2920:0.28748 3085:0.25433001 #
1.0000000231766961178436758928001 35:0.013594 45:0.080067001 72:0.098054998 75:0.037558001 87:0.025888 89:0.053117 124:0.05156 156:0.027288999 162:0.064847998 205:0.039501 232:0.026312999 233:0.074358001 241:0.083470002 315:0.049605001 323:0.067377001 350:0.035734002 370:0.057898 387:0.057689998 393:0.076246999 401:0.066903003 433:0.084913999 454:0.076021999 595:0.072568998 597:0.051835001 719:0.060339 810:0.14290699 818:0.117306 828:0.14674 874:0.052113 909:0.097254001 1013:0.060756002 1032:0.141138 1127:0.204926 1131:0.070919 1154:0.087886997 1348:0.058180999 1418:0.23134699 1466:0.117279 1482:0.109021 1678:0.089731999 1756:0.118942 1762:0.158536 1926:0.090008996 1935:0.103617 2056:0.212212 2277:0.118313 2338:0.101596 2504:0.12587599 2850:0.12744699 3061:0.110435 4849:0.140572 6464:0.18182901 6465:0.31990501 6466:0.28298 6467:0.307863 6468:0.35074699 6469:0.147705 6470:0.152437 #
1.0000000231766961178436758928001 10:0.037537001 23:0.038846999 35:0.017619001 94:0.115296 114:0.046597 116:0.067244001 124:0.140247 126:0.046193 143:0.055257 145:0.058065999 190:0.253319 205:0.107445 208:0.085404001 216:0.110435 226:0.095498003 236:0.082699999 239:0.021142 256:0.059974998 297:0.13122401 350:0.046316002 352:0.045763001 356:0.072725996 357:0.091774002 358:0.12987 427:0.092514001 464:0.074772999 474:0.071231999 492:0.085640997 493:0.062829003 637:0.089261003 760:0.064028002 780:0.061051998 807:0.047486998 825:0.211491 855:0.076311998 933:0.063188002 935:0.081023999 1149:0.095360003 1167:0.335116 1170:0.19572601 1178:0.109677 1277:0.161255 1305:0.093900003 1367:0.13430201 1438:0.152009 1549:0.099875003 1683:0.26454601 1788:0.101284 2160:0.172398 3666:0.32214299 4939:0.205483 8901:0.216626 10824:0.23567399 10825:0.23567399 #
-0.11364049385856528351368410767464 9:0.054754 11:0.022815 23:0.045591999 30:0.100787 35:0.035011999 44:0.04171 62:0.074525997 63:0.054854002 76:0.044923998 87:0.066676997 112:0.032565001 119:0.083116002 124:0.132797 126:0.032019001 142:0.04913 143:0.064851001 156:0.070285 178:0.107198 184:0.100511 211:0.111336 212:0.143508 219:0.064534999 221:0.108463 244:0.053741001 276:0.045467999 282:0.128516 287:0.115863 290:0.110577 300:0.121988 313:0.15387399 352:0.053707998 365:0.134469 435:0.111722 457:0.14749999 475:0.114777 485:0.128068 497:0.080464996 499:0.121655 592:0.13291401 597:0.165475 600:0.220801 633:0.107537 682:0.181318 701:0.099298999 723:0.060681 767:0.101205 793:0.14297 797:0.155586 933:0.074160002 981:0.118871 993:0.15204 1012:0.085785002 1016:0.26420999 1298:0.118871 1732:0.15107501 3238:0.218806 3666:0.41343099 4337:0.18163 4518:0.224686 #
1.0000000231766961178436758928001 18:0.064799003 23:0.091985002 31:0.12841199 33:0.075939 36:0.095485002 71:0.111175 76:0.043189 94:0.076831996 113:0.046022002 116:0.128461 122:0.089723997 126:0.030781999 149:0.086767003 155:0.077322997 156:0.067570001 214:0.176173 226:0.063639 230:0.121608 276:0.043710999 290:0.062785998 297:0.087445997 321:0.095210999 340:0.080371 354:0.064329997 371:0.117727 428:0.102895 444:0.093020998 448:0.166062 470:0.071588002 475:0.110343 542:0.129655 544:0.085175999 592:0.12778001 634:0.100264 648:0.1116 657:0.13896 723:0.058336999 734:0.146531 843:0.129274 1014:0.11336 1125:0.089368999 1234:0.103713 1349:0.115467 1353:0.093257003 1549:0.236489 1717:0.13373999 1779:0.127085 1998:0.12889799 1999:0.16045199 2060:0.13896 2323:0.144613 2401:0.13948099 4233:0.162591 5068:0.348068 11999:0.26591 12000:0.26591 12001:0.26591 #
-0.8330763948543860042406095089973 6:0.039549001 10:0.039634001 11:0.020525999 14:0.081468001 15:0.042613 23:0.041018002 31:0.13664199 35:0.018603999 58:0.22489201 59:0.176452 87:0.035429001 88:0.064614996 100:0.096901 102:0.343328 112:0.029298 115:0.055431001 122:0.049591001 143:0.098784998 169:0.065178998 180:0.077809997 231:0.125167 239:0.022322999 241:0.128962 244:0.048349001 276:0.040906001 290:0.058756001 337:0.083926998 341:0.079623997 415:0.08783 419:0.054200001 442:0.097684003 474:0.075212002 530:0.071769997 532:0.172921 568:0.100864 614:0.11408 685:0.1014 700:0.109212 807:0.050140001 808:0.156628 832:0.13775 874:0.120754 933:0.112965 1703:0.126839 1805:0.116707 1829:0.17674001 2029:0.25762001 3907:0.35321999 4065:0.196852 11118:0.38727301 11119:0.22872999 #
-0.41929851324262434886236405873206 6:0.040874001 11:0.035918001 35:0.019227 36:0.038701002 44:0.065664999 48:0.076187 60:0.0612 69:0.054102 91:0.108896 131:0.068396002 142:0.095867999 143:0.060299002 149:0.083919004 165:0.126531 169:0.067363001 192:0.091124997 239:0.023071 240:0.051128 244:0.049968999 322:0.074923001 351:0.063836999 397:0.078965999 414:0.191485 416:0.175971 450:0.084670998 475:0.106721 579:0.094102003 596:0.081001997 676:0.230526 690:0.101957 695:0.159476 777:0.088310003 780:0.066624001 974:0.101121 1012:0.079764001 1013:0.085934997 1028:0.124667 1060:0.20011801 1063:0.365233 1119:0.099517003 1121:0.122239 1131:0.100309 1218:0.104798 1374:0.102127 1418:0.12539899 1424:0.245767 1438:0.16588099 1515:0.093842 1549:0.26008099 1579:0.121908 1729:0.12158 2022:0.128517 2401:0.134902 2508:0.134398 4512:0.180262 6830:0.215608 7050:0.18527199 8201:0.20891701 #
-0.47163711766839422345753973786486 8:0.063261002 10:0.065080002 59:0.058088999 60:0.057427 115:0.091017999 126:0.047301002 128:0.210803 131:0.064180002 137:0.049169 138:0.066114001 198:0.080545001 216:0.06679 222:0.082866997 223:0.219326 225:0.16418999 244:0.046889 266:0.35207999 370:0.045384999 371:0.106844 389:0.077468 395:0.092803001 441:0.19474301 453:0.069165997 462:0.144696 546:0.093975 611:0.17991599 658:0.208988 731:0.076810002 733:0.208988 760:0.065563999 780:0.062517002 782:0.092093997 817:0.097309001 825:0.073514 964:0.10033 1217:0.074173003 1219:0.102676 1289:0.120212 1306:0.32651401 1433:0.101284 1471:0.149646 1497:0.120212 1526:0.186571 1647:0.10546 1724:0.103087 1783:0.26831701 1956:0.142937 2424:0.15309601 8217:0.186571 9094:0.202318 #
1.0000000231766961178436758928001 1:0.062532999 6:0.034924999 11:0.050602999 33:0.200645 35:0.016429 44:0.097622 60:0.052292001 69:0.046227001 76:0.035691001 83:0.119748 87:0.065659001 126:0.025438 180:0.068713002 182:0.14113 192:0.077862002 198:0.073342003 208:0.047031999 214:0.055794001 236:0.062213 239:0.019712999 256:0.055922002 300:0.057240002 336:0.076872997 346:0.252736 350:0.043186001 369:0.120554 370:0.041327 393:0.054423999 433:0.060610998 443:0.054954998 458:0.068713002 459:0.1433 530:0.10731 541:0.092582002 588:0.20355301 631:0.16235401 668:0.10306 719:0.072922997 822:0.176365 1119:0.085032001 1459:0.102265 1461:0.103607 1529:0.116604 1669:0.082133003 1717:0.110523 1731:0.087851003 2281:0.166465 2306:0.16621 3461:0.154025 4567:0.15035801 4862:0.28185001 6490:0.18422601 10048:0.52438301 10049:0.21974801 #
1.0000000231766961178436758928001 5:0.12803701 9:0.041037999 11:0.017100001 12:0.106922 35:0.026241001 42:0.061011001 48:0.12887999 49:0.055674002 58:0.071799003 69:0.043609999 86:0.116346 87:0.049973998 92:0.077936999 98:0.048234001 99:0.04149 112:0.041326001 113:0.035879001 121:0.046929002 126:0.023998 131:0.055132002 135:0.119376 181:0.061354 197:0.056086998 202:0.069510996 208:0.044369001 217:0.085472003 231:0.061586 241:0.03647 244:0.068196997 307:0.114237 321:0.074226998 327:0.047637999 340:0.131495 350:0.068980999 352:0.068155997 354:0.050152 385:0.093174003 405:0.19611999 452:0.081102997 473:0.095508002 499:0.15438101 523:0.066690996 530:0.125477 543:0.091782004 579:0.075852998 665:0.073549002 676:0.058118999 703:0.100784 716:0.074031003 723:0.045480002 758:0.241207 759:0.170074 760:0.118195 823:0.118748 840:0.089093 852:0.087681003 858:0.052393999 941:0.092607997 962:0.084027998 1119:0.080218002 1122:0.083017997 1159:0.102941 1340:0.077708997 1429:0.104265 1481:0.23974 1501:0.084776998 1514:0.118136 1515:0.075644001 1579:0.098265998 1686:0.102304 1740:0.165052 1778:0.114237 2011:0.25326601 2041:0.24929699 2333:0.127637 2545:0.14530399 2579:0.118136 3876:0.219258 4334:0.154193 4335:0.12509 4336:0.207306 4337:0.136131 #
1.0000000231766961178436758928001 10:0.034678999 25:0.117414 31:0.050101999 35:0.027561 75:0.044973001 92:0.22852001 97:0.078905001 128:0.13548701 131:0.057904001 146:0.066852003 192:0.077146001 213:0.086896002 223:0.064258002 227:0.079446003 239:0.019532001 248:0.051885001 267:0.060568001 268:0.102114 279:0.113361 281:0.189963 298:0.119446 370:0.040947001 392:0.062739998 428:0.084251001 448:0.052108001 723:0.080876 778:0.057951 783:0.064258002 803:0.079999998 807:0.043871 810:0.101067 933:0.098839998 937:0.073090002 1004:0.061200999 1093:0.13699301 1256:0.102114 1278:0.123448 1422:0.078798003 1424:0.087191999 1467:0.283337 2009:0.212642 2099:0.13405301 2259:0.112948 2537:0.17223901 4171:0.200131 5984:0.16832501 14185:0.64140803 #
1.0000000231766961178436758928001 8:0.14655 10:0.037315 11:0.019324999 60:0.055750001 63:0.046461999 75:0.048390999 101:0.10875 113:0.068653002 115:0.088359997 123:0.064949997 128:0.069467999 137:0.047733001 142:0.041614 156:0.035161 169:0.061365001 206:0.112283 210:0.077744998 213:0.093502 223:0.14510299 227:0.14474 229:0.082584001 239:0.021017 244:0.077071004 281:0.097398996 350:0.046041999 392:0.067509003 483:0.083118998 494:0.082268 497:0.084477 539:0.083336003 572:0.090092003 723:0.051398002 807:0.079926997 976:0.157782 1026:0.076958001 1033:0.092266999 1198:0.096152999 1236:0.236296 1289:0.116701 1306:0.132833 1473:0.12968899 1647:0.10238 1651:0.124315 1681:0.16369399 1788:0.100685 1789:0.16877399 2184:0.090942003 2191:0.120244 2225:0.15110999 2235:0.220599 2866:0.158538 3573:0.196409 3761:0.185333 3813:0.16877399 3928:0.16877399 4724:0.196409 4734:0.162186 5214:0.174256 5783:0.196409 7125:0.215345 13934:0.23428001 13935:0.23428001 #
1.0000000231766961178436758928001 6:0.048051 23:0.104587 31:0.117796 32:0.097686 98:0.070345998 107:0.112354 116:0.18104 126:0.035 129:0.143704 138:0.082829997 146:0.194819 147:0.117923 156:0.095225997 208:0.064709999 212:0.156867 217:0.073623002 221:0.056494001 226:0.151852 239:0.027122 244:0.099460997 258:0.083039001 262:0.159807 280:0.134757 341:0.096743003 352:0.058708001 394:0.108979 419:0.065853 426:0.097053997 443:0.075609997 448:0.245865 458:0.094539002 470:0.194235 497:0.051948 499:0.13297901 519:0.136951 723:0.1392 825:0.092100002 837:0.089313 894:0.16712201 910:0.201098 933:0.211529 974:0.118878 995:0.125461 1027:0.35652599 1033:0.119072 1268:0.097898997 1331:0.14449599 1423:0.145307 1481:0.16660701 1977:0.15157101 2259:0.15684199 3941:0.168933 4974:0.188862 #
-0.076540248219502643456380042152887 33:0.270879 232:0.137261 236:0.158601 588:0.77269 722:0.302858 3057:0.440292 #
-0.14932156065430279845429595297901 12:0.081130996 23:0.043901 26:0.082021996 41:0.054636002 48:0.165576 69:0.056026999 85:0.075589001 87:0.064203002 105:0.035402998 108:0.073273003 112:0.031357002 113:0.046094999 126:0.030831 142:0.080098003 192:0.094368003 194:0.094613999 205:0.057859 209:0.195279 214:0.067621 236:0.106269 241:0.079329997 272:0.057558 311:0.096129 325:0.265719 352:0.051716 370:0.050087001 385:0.057039 430:0.110725 452:0.06154 453:0.076332003 506:0.278418 510:0.20951501 670:0.110725 771:0.095615 780:0.068994999 783:0.133085 799:0.28417501 810:0.123629 811:0.082351997 885:0.153173 906:0.13873599 929:0.101482 933:0.071408004 1329:0.332147 1422:0.202282 1427:0.266431 1523:0.239281 1713:0.128001 1741:0.116888 1798:0.13184001 3130:0.17834599 4462:0.21068899 #
-0.084565482421522120137780120785465 5:0.071716003 6:0.038727999 9:0.101235 11:0.052450001 35:0.018217999 37:0.092027999 44:0.036747001 60:0.057987001 72:0.13141 75:0.050333001 88:0.063275002 104:0.050586 112:0.028689999 113:0.042174999 115:0.054281 123:0.067556001 125:0.208757 126:0.0592 156:0.076750003 163:0.30244401 178:0.159904 180:0.076196 181:0.072120003 208:0.052154001 217:0.059339002 231:0.072392002 232:0.035262998 239:0.02186 323:0.090296999 328:0.197576 336:0.085244998 340:0.154568 350:0.04789 493:0.064963996 519:0.11038 575:0.087482996 583:0.092018999 634:0.091883004 648:0.102271 655:0.097919002 668:0.067498997 735:0.21176 778:0.064857997 787:0.082186997 935:0.083777003 1093:0.090554997 1172:0.135518 1396:0.122163 1693:0.215874 2034:0.12506901 2196:0.436001 2306:0.34804201 2424:0.154588 3374:0.14108001 3794:0.18839 5300:0.18124899 #
-0.62491500192561455495621203226619 6:0.045513 11:0.039994001 35:0.021408999 36:0.043093 37:0.15242399 62:0.130642 69:0.060242001 87:0.106392 98:0.112813 109:0.071507998 134:0.087233998 180:0.089543998 181:0.177865 202:0.096020997 217:0.069733001 219:0.066814996 226:0.068535 229:0.100945 244:0.094205998 249:0.074418001 315:0.078125 385:0.14635199 453:0.082074001 459:0.110294 493:0.076343998 544:0.239363 595:0.19351199 616:0.108951 639:0.20629799 692:0.16319001 697:0.111337 708:0.141321 777:0.098332003 783:0.084514998 787:0.096584 807:0.057702001 828:0.110123 852:0.121121 928:0.101467 931:0.12792701 933:0.076779999 1013:0.16201299 1057:0.116075 1151:0.131607 1348:0.21866 1421:0.165794 1516:0.17064101 1520:0.122082 1532:0.16403601 1788:0.123071 1824:0.37153599 2386:0.19378699 2926:0.183153 3654:0.22139101 #
-1.0000000231766961178436758928001 23:0.12838601 31:0.12767901 55:0.097971 59:0.063639998 63:0.052434001 89:0.077235997 91:0.066119 94:0.076393001 97:0.162231 114:0.052274998 116:0.075438 155:0.076881997 182:0.100288 216:0.073173001 219:0.061687998 229:0.093199 236:0.044209 239:0.023717999 256:0.067282997 276:0.073587 297:0.182468 340:0.223095 350:0.051959999 397:0.081179999 404:0.143701 418:0.111608 433:0.072924003 448:0.132791 498:0.097693004 572:0.101672 579:0.09674 616:0.10059 739:0.104642 751:0.169098 760:0.121618 811:0.081752002 933:0.120024 952:0.112266 1014:0.31466699 1131:0.103121 1142:0.089593999 1217:0.081261002 2018:0.14916299 2718:0.161663 3685:0.18303201 3804:0.16641501 4293:0.137657 4563:0.45304301 6320:0.34608099 #
1.0000000231766961178436758928001 1:0.074432001 6:0.04157 8:0.068565004 10:0.04166 11:0.021575 35:0.019555001 37:0.098780997 63:0.051872998 71:0.109358 72:0.14105301 98:0.060858 114:0.108532 122:0.052126002 131:0.069562003 143:0.061326999 231:0.077703997 239:0.023464 244:0.05082 261:0.105651 279:0.13618401 291:0.18411601 292:0.070418 350:0.051403999 351:0.109927 419:0.056970999 422:0.109566 443:0.065412 453:0.074965 460:0.261457 464:0.23168001 493:0.166398 504:0.23074199 544:0.19993301 633:0.101693 676:0.07333 677:0.092678003 739:0.103522 767:0.095705003 840:0.112411 852:0.110629 855:0.22100499 874:0.074965 920:0.12988199 993:0.068511002 1007:0.110629 1126:0.075989999 1133:0.089381002 1200:0.38703999 1397:0.097762004 1477:0.109566 1500:0.13472 2029:0.159933 4368:0.228056 7228:0.240422 7229:0.240422 #
1.0000000231766961178436758928001 3:0.078171 10:0.038993999 23:0.105304 49:0.065748997 59:0.058929 81:0.078005001 82:0.116684 86:0.081151001 91:0.061225001 95:0.073008001 114:0.048406001 115:0.054535002 128:0.072594002 137:0.049881 142:0.043485999 216:0.067755997 222:0.084066004 226:0.058591999 232:0.059985001 276:0.040245 315:0.066790998 350:0.048114002 370:0.077955998 371:0.183522 382:0.111964 383:0.056182001 393:0.060633998 419:0.053323999 420:0.088246003 433:0.067525998 443:0.061225001 444:0.085643999 464:0.077675998 552:0.086300001 623:0.083159998 624:0.230461 650:0.082864001 665:0.147065 739:0.164059 777:0.084066004 780:0.063422002 817:0.098716997 850:0.14097901 896:0.082668997 909:0.13094699 929:0.093285002 933:0.065641001 981:0.105216 995:0.101592 1051:0.27481401 1112:0.124789 1147:0.115123 1234:0.095487997 1348:0.13263699 1397:0.091504999 1438:0.15790901 1686:0.120818 1703:0.124789 2037:0.136152 2059:0.165672 2150:0.152932 2169:0.13431001 2187:0.14173999 2371:0.146791 3406:0.17908899 3473:0.159302 4984:0.176368 7872:0.225034 8821:0.244821 8822:0.244821 #
1.0000000231766961178436758928001 35:0.01663 38:0.053773999 84:0.097204998 98:0.051755 113:0.038497999 114:0.074464999 116:0.063467003 120:0.112995 122:0.044328999 129:0.105725 137:0.04532 143:0.052152999 156:0.033383999 178:0.086208001 212:0.068163 219:0.051899001 221:0.041563999 239:0.019954 241:0.082121998 260:0.098048002 268:0.104323 276:0.087255001 290:0.088926002 310:0.097622998 354:0.053812999 383:0.107123 396:0.083017997 452:0.051397 460:0.316605 512:0.162523 650:0.075287998 723:0.048799999 767:0.227219 777:0.07638 783:0.111151 893:0.137932 894:0.058587998 933:0.100978 960:0.114976 1077:0.097204998 1107:0.121495 1522:0.153988 2269:0.218044 2430:0.104323 2734:0.162715 2852:0.36746001 3135:0.36319 3387:0.112617 5209:0.431187 #
1.0000000231766961178436758928001 11:0.060848001 76:0.045915999 93:0.138302 104:0.153139 113:0.082842 114:0.094639003 126:0.068678997 131:0.075182997 137:0.057597999 142:0.147927 218:0.22876 221:0.110858 236:0.04727 267:0.078643002 283:0.26031101 290:0.113018 293:0.144252 312:0.094352998 323:0.104755 356:0.18307699 357:0.110086 383:0.064874001 426:0.090749003 441:0.134737 483:0.210485 497:0.048572998 532:0.116026 534:0.17405599 544:0.090554997 657:0.147734 723:0.062020998 780:0.123997 811:0.087412998 836:0.17405599 851:0.223325 855:0.29267001 869:0.130242 896:0.095458999 933:0.197787 956:0.113404 993:0.074046999 1027:0.127753 1422:0.21471401 1423:0.135867 2450:0.191304 3470:0.33996299 #
1.0000000231766961178436758928001 6:0.028786 8:0.099638999 15:0.052515 49:0.048641 131:0.048168998 151:0.110686 221:0.033844002 230:0.140247 233:0.074069001 239:0.016248001 241:0.031863 250:0.13296799 325:0.15891901 327:0.041621 571:0.120078 671:0.053353999 695:0.190161 716:0.064681001 790:0.22809599 807:0.061790999 933:0.115883 1001:0.083861999 1420:0.072906002 1450:0.068599001 1468:0.12834901 1561:0.073936 1581:0.157919 1635:0.098927997 1902:0.073031999 1950:0.107927 2145:0.190161 2659:0.15795 2788:0.104861 3062:0.103214 3094:0.118936 3097:0.207522 3708:0.13720401 4634:0.27804899 6027:0.166482 6377:0.157919 9225:0.151843 9957:0.157919 10842:0.34938201 12383:0.18112101 12384:0.306665 12385:0.306665 #
-1.0000000231766961178436758928001 15:0.045651998 30:0.097139999 31:0.061345 60:0.063437998 87:0.037955999 89:0.077877 103:0.113876 107:0.167734 108:0.073343001 122:0.053126998 128:0.079047002 138:0.073034003 140:0.1804 156:0.095475003 226:0.063800998 276:0.043823 352:0.051764999 357:0.103811 383:0.061175998 393:0.111788 451:0.150401 460:0.34388301 464:0.27933601 538:0.126709 579:0.097543001 583:0.100669 723:0.099025004 760:0.122627 782:0.101733 803:0.097951002 928:0.198231 933:0.242869 977:0.095453002 981:0.193983 1017:0.118821 1370:0.107308 1627:0.241423 2888:0.148954 7912:0.53332001 #
-1.0000000231766961178436758928001 2:0.096270002 11:0.022 16:0.087614998 36:0.040135998 42:0.24172699 95:0.079539001 102:0.19487999 113:0.078160003 114:0.052735999 119:0.080150001 122:0.089997999 126:0.052278001 131:0.169269 206:0.127832 208:0.096654996 221:0.049839001 226:0.10808 234:0.104703 240:0.053025 283:0.145055 336:0.093304999 352:0.051791999 389:0.085620001 433:0.073567003 444:0.093304999 462:0.159922 464:0.26059601 493:0.120394 537:0.180493 546:0.103864 637:0.17104299 654:0.099546 707:0.105217 708:0.131626 741:0.096529998 760:0.072462998 837:0.078791 855:0.241111 910:0.084535003 933:0.121082 993:0.118287 1007:0.191007 1114:0.144439 1170:0.13082901 2029:0.16308799 2193:0.176829 2816:0.331534 3667:0.232555 3668:0.232555 3669:0.178607 #
-0.89829081870447813340518905533827 11:0.022128001 23:0.044220001 31:0.104521 41:0.055032998 63:0.111653 116:0.076545 122:0.12757801 138:0.073495001 197:0.072581001 208:0.097214997 219:0.062592 221:0.050128002 225:0.18252 232:0.038821999 237:0.125818 248:0.108242 250:0.158896 267:0.074628003 290:0.13293201 352:0.052092001 418:0.113245 448:0.108706 458:0.083884999 497:0.109994 650:0.090800002 701:0.096311003 723:0.123513 731:0.14456899 803:0.098569997 894:0.217594 910:0.143961 933:0.187691 956:0.182208 967:0.109707 991:0.082617998 1149:0.108549 1374:0.10653 1471:0.166352 1627:0.242947 1642:0.361166 1648:0.165171 1788:0.115293 1899:0.165171 1969:0.19624101 2884:0.38079599 5345:0.23390301 #
-0.32271111605731406246633241607924 8:0.239031 35:0.040263001 105:0.071589999 112:0.063408002 231:0.15999401 460:0.381969 547:0.32709801 548:0.33898199 549:0.38797501 550:0.21867999 551:0.35043201 552:0.189843 553:0.42603901 #
-0.47380168740998374055095609946875 32:0.093434997 38:0.069909997 41:0.059324 45:0.075208999 63:0.057351001 65:0.079830997 87:0.041173 107:0.107465 115:0.064416997 121:0.065463997 122:0.057631001 124:0.082001999 126:0.033477001 131:0.130216 143:0.114801 145:0.071250997 181:0.085587002 208:0.104795 219:0.067473002 221:0.054035999 232:0.041848 239:0.025942 249:0.075149998 258:0.079425998 327:0.066453002 350:0.056832999 392:0.083330996 394:0.104237 448:0.213127 464:0.155348 484:0.184622 493:0.077095002 497:0.049688 544:0.092632003 597:0.082438998 752:0.29130501 760:0.16487899 782:0.110357 837:0.085427001 855:0.24434499 869:0.133231 888:0.122552 896:0.097649001 906:0.088970996 910:0.091655001 1305:0.115221 1370:0.116404 1601:0.11912 1626:0.163151 1641:0.138594 1728:0.120451 1788:0.124282 1815:0.195693 1994:0.126105 3342:0.195693 4426:0.211542 7741:0.45006001 #
1.0000000231766961178436758928001 11:0.039694 30:0.083557002 31:0.052767001 35:0.017143 36:0.034506999 37:0.086600997 48:0.115016 50:0.054606002 69:0.081675 76:0.037244 85:0.110192 94:0.066256002 114:0.045338999 122:0.045697998 144:0.1241 155:0.1129 164:0.054067001 178:0.186507 221:0.042847998 238:0.076444998 239:0.020571001 244:0.044553999 249:0.059590001 276:0.098361999 300:0.059730999 340:0.069307998 349:0.126937 383:0.052622002 385:0.049109999 392:0.066077001 404:0.154479 410:0.189647 430:0.095333003 434:0.065898001 440:0.125855 448:0.054880001 457:0.072223 470:0.061733998 493:0.061131999 499:0.100857 518:0.154176 557:0.139273 638:0.116882 783:0.067675002 869:0.105645 906:0.070548996 910:0.072678 933:0.061482001 993:0.060063001 1012:0.071119003 1170:0.236046 1298:0.098549001 1353:0.080421001 1426:0.105126 1427:0.087908998 1668:0.16072699 1868:0.126937 2297:0.132759 2304:0.097952999 2323:0.124708 2438:0.12216 2448:0.14547101 2596:0.143242 2777:0.12216 3481:0.32927299 4490:0.15355401 4832:0.24630401 5058:0.170559 7150:0.19993401 7534:0.19993401 7535:0.22930899 #
1.0000000231766961178436758928001 6:0.069611996 9:0.041315999 35:0.015604 37:0.046553001 38:0.050455999 44:0.075106002 48:0.104684 50:0.049701001 52:0.085350998 60:0.049665999 85:0.059234999 96:0.155238 112:0.024573 155:0.060690999 169:0.054668002 179:0.070642002 216:0.057762999 236:0.091064997 239:0.018723 240:0.041492 241:0.036717001 266:0.109069 346:0.26248899 352:0.040527001 404:0.17482799 410:0.138822 476:0.137054 477:0.27280799 536:0.115012 560:0.066711999 634:0.078697003 635:0.088799 648:0.087595001 730:0.076260999 793:0.107882 817:0.084156998 858:0.052749999 863:0.088102996 874:0.059818 899:0.101765 903:0.242743 908:0.091798 974:0.082062997 977:0.074730001 1012:0.109599 1146:0.066926003 1333:0.098665997 1669:0.078008004 1670:0.134618 1932:0.099473 2038:0.107882 2508:0.109069 2595:0.130375 2658:0.104296 3142:0.299696 3348:0.134618 4862:0.26769501 7149:0.35337901 7150:0.30811 #
1.0000000231766961178436758928001 11:0.035429999 15:0.043443002 17:0.15730999 30:0.092441 32:0.081965998 35:0.018966001 36:0.038175002 44:0.038256001 58:0.087862 62:0.068354003 65:0.070031002 87:0.036118999 91:0.063441999 92:0.26626301 94:0.073301002 95:0.128089 102:0.109475 125:0.103559 126:0.049722999 136:0.28164899 164:0.166991 229:0.089426003 239:0.022758 240:0.085391998 244:0.103441 392:0.073101997 441:0.120909 448:0.102798 489:0.292072 568:0.102829 676:0.071122997 690:0.100572 716:0.090594999 730:0.092696004 741:0.091812998 760:0.14464 807:0.051116999 937:0.085161999 993:0.066448003 1005:0.148517 1012:0.078681 1037:0.110392 1217:0.077970996 1467:0.15730999 1509:0.13357601 1520:0.258077 1600:0.20305701 1665:0.12227 1798:0.26354501 2380:0.148517 4531:0.21268 9490:0.25368801 9491:0.25368801 #
1.0000000231766961178436758928001 6:0.035613999 11:0.031295002 13:0.089736 30:0.081652001 36:0.070765004 38:0.054171 92:0.084243998 121:0.085887 122:0.075609997 131:0.059594002 137:0.077301003 143:0.088955998 156:0.056940999 158:0.27943799 231:0.066569999 239:0.034035001 244:0.073716 249:0.058231998 256:0.057025 272:0.048427001 276:0.036835998 448:0.177113 464:0.071096003 497:0.038502 539:0.079708003 595:0.15142199 600:0.10565 611:0.079604 617:0.083511002 628:0.098990001 655:0.090043001 668:0.062070001 723:0.049160998 812:0.088106997 813:0.090668999 824:0.109585 839:0.118904 858:0.056634001 1002:0.131942 1069:0.144347 1171:0.153249 1218:0.091311 1347:0.107393 1426:0.102729 1468:0.075664997 1824:0.22528601 2170:0.19537599 13712:0.53472501 13713:0.22408199 13714:0.22408199 13715:0.22408199 13716:0.22408199 #
1.0000000231766961178436758928001 11:0.02698 27:0.079576001 62:0.109236 70:0.048567001 87:0.027504999 93:0.055819001 123:0.053557001 138:0.052925002 143:0.045295 183:0.071382001 208:0.041347001 209:0.067495003 211:0.077761002 214:0.049049001 240:0.038406 241:0.033985 244:0.037535001 336:0.06758 448:0.046234 459:0.074404001 544:0.061880998 595:0.26868901 627:0.071892999 659:0.128075 730:0.070588 769:0.243082 855:0.062553003 910:0.061228 933:0.051796 994:0.099854998 1115:0.108989 1172:0.107435 1240:0.094194002 1290:0.118123 1305:0.076971002 1309:0.10211 1370:0.077761002 1483:0.100216 1824:0.29618499 2528:0.14935 2529:0.193184 2530:0.40949801 2531:0.43952501 2532:0.339883 2533:0.122554 2534:0.17757 #
-0.29536913858156887968675619049463 6:0.062812001 9:0.046208002 10:0.037177999 11:0.032598998 30:0.202969 35:0.017450999 44:0.059599001 48:0.069149002 83:0.060610998 85:0.066248 88:0.060610998 92:0.087756 95:0.069608003 99:0.046716999 112:0.046532001 113:0.040399 123:0.064712003 126:0.027022 155:0.067877002 169:0.061140001 175:0.119804 200:0.113814 208:0.049959 217:0.056841001 248:0.055624999 276:0.080526002 315:0.107821 327:0.053638998 385:0.049991 405:0.079099998 410:0.073981002 419:0.050841998 430:0.164308 448:0.094586 470:0.1064 477:0.29537401 576:0.13744199 624:0.092079997 634:0.088014998 635:0.16815101 636:0.16159301 671:0.068760999 723:0.051210001 741:0.084477998 846:0.095801003 863:0.166834 874:0.0669 896:0.078818999 908:0.17383 909:0.12485 1064:0.114842 1142:0.18875501 1296:0.085055999 1309:0.123379 1670:0.150557 1731:0.093318 1902:0.094121002 1933:0.116274 3078:0.16159301 3173:0.154752 3174:0.233422 3175:0.233422 3176:0.157958 3177:0.159715 3178:0.18961699 3179:0.233422 3180:0.176824 3181:0.18961699 #
-0.17061318359228572205665841465816 2:0.080890998 5:0.065958001 10:0.060439002 11:0.018486001 18:0.092469998 32:0.072411001 35:0.016755 36:0.033725001 74:0.101518 76:0.061632 98:0.052145001 109:0.055962998 112:0.026387 180:0.118653 229:0.079001002 234:0.087977 248:0.112082 249:0.058240999 315:0.061142001 322:0.065289997 393:0.055505998 401:0.082461998 414:0.079512998 483:0.134627 523:0.122073 544:0.071788996 634:0.084505998 699:0.124509 722:0.150176 723:0.049168002 740:0.086723 759:0.183865 807:0.045157999 935:0.130457 1104:0.110263 1146:0.071865998 1174:0.262692 1353:0.164949 1358:0.114235 1497:0.29131401 1519:0.118922 1520:0.095542997 1732:0.122412 1954:0.25148401 2042:0.119393 2165:0.095542997 2184:0.086995997 2989:0.157087 3142:0.40014899 3897:0.177292 4325:0.199044 9805:0.206002 11720:0.224116 11721:0.206002 #
-0.54244380424445526323040667193709 6:0.081174001 8:0.17810801 10:0.038764 16:0.079945996 41:0.119139 42:0.071626 44:0.108118 46:0.115053 49:0.065360002 54:0.108475 99:0.048709001 126:0.028174 138:0.066675 142:0.073192999 169:0.063747004 239:0.021833001 241:0.089851998 267:0.067703001 272:0.052597001 300:0.063395001 349:0.28273299 350:0.047830001 370:0.045770001 396:0.090833001 443:0.158819 493:0.064882003 651:0.109471 734:0.134114 764:0.23100799 780:0.106749 853:0.33967999 903:0.108475 958:0.118319 995:0.170995 1146:0.078042001 1202:0.130174 1312:0.106355 1333:0.194802 1523:0.129142 1654:0.147816 1798:0.120475 2009:0.113261 2559:0.31671301 2812:0.272091 2868:0.396137 #
-0.084519774099299269098928277799132 8:0.134865 23:0.035537999 35:0.016119 44:0.032512002 50:0.051341001 56:0.061298002 70:0.054202002 105:0.028658999 107:0.080118999 112:0.025384 113:0.063179001 114:0.042628001 126:0.024958 134:0.065676004 141:0.1199 150:0.074763 174:0.15091901 207:0.095242999 232:0.052825 434:0.061958 452:0.118879 464:0.178496 497:0.077740997 512:0.093038 592:0.061190002 650:0.072972998 661:0.083690003 677:0.076392002 741:0.078028001 743:0.085901998 778:0.097159997 787:0.17352 856:0.217603 919:0.1199 953:0.094215997 991:0.066396996 1026:0.070822001 1057:0.087389998 1126:0.062636003 1133:0.073674001 1134:0.092846997 1236:0.17544 1257:0.122862 1275:0.118278 1364:0.098361 1408:0.132742 1557:0.104815 1741:0.094622001 1900:0.110656 2073:0.112668 2176:0.13906001 2298:0.132742 2439:0.242992 2592:0.23971 2661:0.121043 3034:0.135704 4353:0.18798 4950:0.33097801 5799:0.376349 9698:0.215599 #
