SVM-light Version V6.02
0 # kernel type
3 # kernel parameter -d 
1 # kernel parameter -g 
1 # kernel parameter -s 
1 # kernel parameter -r 
empty# kernel parameter -u 
14598 # highest feature index 
2865 # number of training documents 
775 # number of support vectors plus 1 
1.0766657 # threshold b, each following line is a SV (starting with alpha*y)
-0.055028636931651775388019132151385 2:0.089732997 5:0.073167004 10:0.039597999 18:0.060584001 30:0.153385 35:0.018587001 37:0.055454001 48:0.073648997 85:0.14807799 87:0.035397001 95:0.074138001 105:0.055955 116:0.070936002 121:0.056279998 123:0.068924002 147:0.096966997 210:0.139688 221:0.078654997 232:0.035976999 239:0.022302 272:0.090971 300:0.06476 325:0.103944 341:0.079550996 350:0.048859 385:0.11174 387:0.078878999 393:0.061572999 397:0.076335996 410:0.133413 419:0.054150999 457:0.078303002 477:0.098397002 556:0.121946 635:0.179094 657:0.129921 660:0.132976 671:0.153694 682:0.23914599 731:0.079129003 760:0.16117799 809:0.33983099 858:0.062835 899:0.121221 974:0.097753003 1014:0.32638001 1217:0.076412 1296:0.153385 1601:0.173392 1618:0.200074 2260:0.233018 2304:0.106199 2613:0.31902099 4931:0.176578 5328:0.166481 #
-0.4531869955946776773458850584575 11:0.031114001 15:0.064595997 35:0.028201001 42:0.18796501 69:0.079352997 70:0.094833001 89:0.110195 126:0.043667 138:0.103342 145:0.092940003 181:0.29131901 216:0.104398 295:0.18731099 418:0.159234 539:0.28159001 567:0.28152499 757:0.205146 825:0.114908 851:0.175998 976:0.150043 1938:0.23224901 3164:0.264397 3460:0.26791701 3461:0.264397 3627:0.37721601 3628:0.28057101 #
-0.21957288642646163867588882112614 15:0.046817001 23:0.076301001 36:0.041140001 87:0.065904997 112:0.054499999 115:0.060899001 119:0.082153998 129:0.31008601 156:0.069472 202:0.091669999 205:0.059392001 208:0.152688 209:0.161726 214:0.069413997 232:0.094408996 236:0.045713998 239:0.024525 247:0.085928999 275:0.104489 276:0.044941001 290:0.064553 341:0.087480001 350:0.053729001 371:0.12104 394:0.098544002 452:0.063170999 453:0.078355998 454:0.114304 458:0.085487001 499:0.120247 517:0.135334 671:0.080535002 723:0.101553 787:0.092207 791:0.098944001 807:0.055087 818:0.104172 855:0.231001 859:0.33285201 933:0.073301002 935:0.093990996 986:0.119218 991:0.142556 1014:0.24459299 1017:0.121854 1027:0.123547 1240:0.133303 1397:0.102184 1694:0.12755699 2025:0.196951 2026:0.150655 2027:0.18706401 2028:0.203348 2029:0.28303701 2030:0.23837 #
-0.015474081777238817350661470584328 11:0.082154997 15:0.081272997 31:0.10921 42:0.33330601 108:0.13057099 202:0.159135 205:0.103103 208:0.101577 232:0.068680003 240:0.094351999 256:0.120776 293:0.14303 443:0.200956 497:0.13806801 640:0.24109 799:0.181389 855:0.260196 993:0.124311 1156:0.22317199 1364:0.21652301 1481:0.44281 10667:0.474599 #
-0.21031564974932687173136969249754 11:0.050923001 12:0.061069999 23:0.092256002 35:0.014988 62:0.091458 95:0.101223 112:0.023604 204:0.069692999 205:0.043552 213:0.080011003 239:0.017983999 245:0.092592001 290:0.047336001 352:0.038927998 390:0.068507001 393:0.049651001 410:0.13334499 453:0.057457998 458:0.062687002 470:0.053971998 611:0.071218997 614:0.19287901 635:0.085294999 682:0.062623002 737:0.080977 738:0.056549001 863:0.1776 881:0.238666 885:0.068097003 954:0.097180001 961:0.113667 967:0.17205299 1109:0.168028 1421:0.196518 1491:0.16222499 1601:0.08258 4801:0.29595399 7974:0.31200299 8213:0.174795 9332:0.58916497 9333:0.184274 #
1.0000000231766961178436758928001 10:0.032825999 11:0.035675 23:0.033971999 35:0.015408 36:0.031013001 37:0.04597 116:0.140324 134:0.062780999 138:0.056460999 208:0.04411 240:0.069371998 247:0.064777002 258:0.056604002 276:0.088404 292:0.055484001 297:0.067775004 310:0.090449996 313:0.054632999 317:0.177191 374:0.101706 375:0.109792 385:0.044137999 410:0.13708 419:0.044888999 434:0.124294 447:0.09905 448:0.049323998 491:0.071644999 635:0.14846399 682:0.109 853:0.110233 858:0.052088 906:0.063406996 1013:0.116597 1032:0.094483003 1033:0.081166998 1119:0.079749003 1131:0.13609999 1136:0.187401 1137:0.102339 1138:0.231336 1139:0.276043 1140:0.073793001 1141:0.53778899 1142:0.14656401 1143:0.16303501 1144:0.13181201 1145:0.179693 1146:0.066087 1147:0.096911997 1148:0.12874 1149:0.083391003 1150:0.095911004 1151:0.094714999 1152:0.091858 1153:0.206094 1154:0.099615 1155:0.15933099 #
1.0000000231766961178436758928001 5:0.077428997 9:0.088183001 10:0.041905001 18:0.152992 22:0.22815 26:0.081024997 31:0.060541 34:0.203229 35:0.019669 44:0.083261997 49:0.070656002 76:0.072351001 89:0.13013101 94:0.076018997 113:0.045534998 123:0.072939001 144:0.219441 170:0.090012997 209:0.091920003 240:0.052304 257:0.085754 272:0.056857999 278:0.123716 286:0.32591099 293:0.079288997 350:0.051704999 351:0.065305002 354:0.063648999 370:0.049479 385:0.056345999 393:0.110324 414:0.093341999 430:0.109379 450:0.086617999 453:0.075404003 634:0.099202998 648:0.110419 656:0.14583901 662:0.16198599 671:0.077501997 677:0.093221001 726:0.124376 780:0.115398 897:0.13748901 935:0.090451002 1044:0.18686301 1126:0.076435 1146:0.084365003 1156:0.123716 1157:0.26309499 1158:0.248899 1159:0.22119901 1160:0.203399 1161:0.220567 1162:0.21372101 1163:0.14917 #
1.0000000231766961178436758928001 8:0.120068 10:0.043088 15:0.078437001 76:0.043938 87:0.038516 105:0.03596 107:0.10053 108:0.074426003 122:0.053911999 126:0.031316001 156:0.040600002 209:0.16002899 214:0.068685003 223:0.135179 232:0.039147999 239:0.024267999 267:0.075254999 276:0.093324997 292:0.072829999 293:0.081528001 317:0.110828 392:0.20341399 523:0.087027997 546:0.105345 560:0.08647 596:0.23786899 627:0.21127599 705:0.097773001 782:0.103235 797:0.188613 1013:0.090392999 1026:0.088863999 1297:0.14033701 1302:0.270524 1303:0.153382 1304:0.209142 1305:0.107786 1306:0.25969899 1307:0.14776 1308:0.197891 1309:0.14298899 1310:0.226794 1311:0.278193 1312:0.118219 1313:0.16323601 1314:0.248659 1315:0.226794 1316:0.13562 #
1.0000000231766961178436758928001 8:0.16743299 11:0.022078 13:0.107189 15:0.077606998 35:0.020011 39:0.095334999 63:0.089877002 76:0.043474 88:0.069503002 103:0.193588 112:0.031514 114:0.052921999 126:0.030985 128:0.079366997 141:0.252033 156:0.084303997 208:0.149488 226:0.064058997 231:0.079516999 232:0.038734 235:0.15027399 239:0.024010999 245:0.123623 284:0.107189 351:0.066439003 389:0.085922003 448:0.064058997 453:0.076714002 492:0.097266003 497:0.109745 568:0.108493 617:0.099753 671:0.078846999 707:0.105588 760:0.072718002 856:0.19168 887:0.104231 906:0.139429 993:0.070109002 995:0.111071 1012:0.083015002 1026:0.087924004 1156:0.125864 1221:0.13643201 1268:0.146745 1324:0.267663 1325:0.19579799 1326:0.234253 1327:0.168474 1328:0.267663 1329:0.33380699 1330:0.19579799 1331:0.127923 1332:0.148855 1333:0.126535 1334:0.120676 #
1.0000000231766961178436758928001 6:0.039391998 11:0.042904999 15:0.042445 36:0.037298001 37:0.055284999 38:0.059919 39:0.088280998 44:0.037377 45:0.109142 50:0.059023 58:0.085842997 63:0.117299 64:0.149473 76:0.040256999 118:0.13050599 137:0.050500002 143:0.058114 169:0.064920999 178:0.096060999 184:0.21493199 221:0.046314001 226:0.059319001 232:0.035868 250:0.086705998 256:0.063074999 266:0.129526 272:0.053566001 276:0.120028 315:0.067619003 419:0.091406003 426:0.079565004 436:0.097139999 485:0.114763 491:0.086163998 575:0.088982999 596:0.078065 597:0.148284 606:0.17604101 615:0.13152 619:0.272845 628:0.109494 665:0.087935999 730:0.090565003 741:0.089703001 764:0.098589003 778:0.138446 785:0.095760003 791:0.089703001 817:0.099941999 837:0.073218003 1316:0.124257 1531:0.164323 1805:0.116245 1825:0.14429 2069:0.118457 2326:0.125909 2403:0.13204101 2404:0.41966099 2405:0.19607399 2406:0.19607399 2407:0.207793 2408:0.19161899 2409:0.139835 #
-1.0000000231766961178436758928001 1:0.076017 11:0.052579999 15:0.045745 42:0.078616999 91:0.066803999 94:0.130684 97:0.096808001 104:0.055454001 112:0.031451002 115:0.059503999 122:0.111721 142:0.047449 164:0.062985003 208:0.057172999 239:0.023963001 267:0.15594999 276:0.074349001 313:0.119897 392:0.076975003 434:0.076766998 457:0.084135003 482:0.17960399 560:0.085385002 583:0.170794 596:0.142453 624:0.34801701 676:0.074891001 705:0.096546002 716:0.095394999 759:0.091838002 760:0.072572999 785:0.174741 789:0.112545 807:0.053824998 882:0.121871 889:0.116487 945:0.106433 993:0.069968998 1012:0.082849003 1013:0.089258999 1126:0.077606998 1136:0.37435299 1217:0.082102999 1308:0.195408 1418:0.13024899 1515:0.097471997 1689:0.177099 1729:0.126283 1824:0.112545 1863:0.122765 2022:0.133489 2094:0.16224401 2282:0.139597 2304:0.114108 2403:0.142307 2651:0.17541499 3226:0.166867 4893:0.16333701 5010:0.17541499 #
-0.025358310115372210274964359655314 8:0.127416 18:0.069957003 30:0.17711601 31:0.066059999 35:0.021462001 63:0.056933001 70:0.072172001 89:0.083862998 119:0.20585801 123:0.079586998 126:0.033233002 141:0.15965199 143:0.16062 156:0.072949 223:0.084725 226:0.116328 239:0.025753001 267:0.079861 284:0.114964 322:0.083632 389:0.092155002 448:0.226905 493:0.076532997 654:0.107144 723:0.062981002 739:0.113621 740:0.111086 769:0.291437 782:0.109553 797:0.095375001 804:0.109221 855:0.19508 858:0.072555996 885:0.097514004 894:0.12802599 906:0.149543 910:0.154054 933:0.13032299 964:0.11935 1225:0.105777 1268:0.092956997 1303:0.162769 1306:0.34158799 1334:0.129429 1422:0.103897 1426:0.13161001 1570:0.129429 1772:0.25998101 1847:0.176752 2320:0.20681 5131:0.18851499 #
-0.034112554923603870260517822998736 12:0.20194399 26:0.132471 49:0.068227001 75:0.110126 105:0.057179 116:0.202369 131:0.067564003 142:0.076405004 156:0.038128 214:0.064502999 217:0.061864 221:0.047471002 236:0.12514199 239:0.02279 248:0.060541 267:0.070672996 272:0.054903999 281:0.105619 350:0.049927998 356:0.078396998 367:0.31173301 371:0.112478 389:0.171148 390:0.242364 470:0.068396002 491:0.24656001 492:0.092320003 623:0.086295001 633:0.098773003 654:0.094816998 699:0.083360001 807:0.05119 977:0.090965003 991:0.07824 1134:0.109406 1297:0.13179199 2220:0.257909 2259:0.13179199 2630:0.28804201 3537:0.319942 3938:0.171918 5399:0.178069 11323:0.25405201 11324:0.25405201 #
-1.0000000231766961178436758928001 9:0.054131001 11:0.022554999 15:0.079282999 76:0.044413 119:0.139126 122:0.054494001 124:0.077538997 126:0.031654999 142:0.149569 143:0.064112999 162:0.097521998 206:0.18470401 221:0.051095001 223:0.080701001 224:0.112636 239:0.024529999 256:0.069586001 267:0.076067999 272:0.059094999 276:0.117294 290:0.064565003 317:0.112025 326:0.105316 327:0.062835999 387:0.086756997 414:0.097014003 419:0.059558999 434:0.13305099 518:0.18385001 596:0.18074 670:0.19248 799:0.17694899 828:0.105153 837:0.136767 908:0.120269 954:0.132551 1013:0.218033 1033:0.107692 1136:0.248643 1450:0.103566 1640:0.25628999 1681:0.26927501 1693:0.115429 1764:0.26952299 1888:0.13179199 2150:0.28920901 3491:0.135782 3516:0.183108 10414:0.25134301 #
-0.2532475582200402475230305299192 23:0.031528998 24:0.074722998 35:0.0143 36:0.028782999 80:0.085837997 87:0.064986996 114:0.037819002 126:0.037491001 142:0.033975001 157:0.165957 164:0.0451 232:0.046866 236:0.054152001 238:0.063766003 239:0.017159 241:0.03365 286:0.20253199 300:0.049823999 350:0.037590999 385:0.040964998 419:0.041662 572:0.073555 659:0.126811 686:0.084312998 697:0.074366003 708:0.094393998 758:0.093263999 771:0.116268 812:0.12733901 951:0.074366003 961:0.10845 984:0.168005 1000:0.116956 1040:0.087265 1110:0.076468997 1158:0.22429 1159:0.19932801 1160:0.38587201 1299:0.17251401 1313:0.115417 1317:0.070084997 1556:0.123372 1740:0.089943998 1806:0.096519001 1859:0.120394 2006:0.089708 2085:0.106374 2144:0.18226001 2497:0.26145601 2665:0.103582 3058:0.219157 3404:0.125605 5962:0.147875 6174:0.125605 6742:0.160357 6904:0.160357 6905:0.191276 6906:0.16677301 6907:0.14227 6908:0.175817 #
1.0000000231766961178436758928001 6:0.044124 11:0.054646999 26:0.085500002 32:0.089700997 33:0.079286002 35:0.020756001 36:0.041777998 43:0.072545998 65:0.076640002 85:0.078795001 86:0.155812 90:0.162533 91:0.069430001 105:0.036905002 108:0.076380998 112:0.032687001 115:0.061843 123:0.076967999 145:0.14355201 147:0.108284 156:0.070547998 198:0.19445799 208:0.059420001 217:0.067605004 240:0.144024 241:0.048841 243:0.089994997 244:0.091330998 249:0.17216399 258:0.160023 276:0.045637999 290:0.065553002 317:0.113739 330:0.113332 356:0.14505599 414:0.098498002 435:0.11214 442:0.108984 497:0.047702 516:0.166462 519:0.12575699 596:0.087442003 671:0.081782997 719:0.092129998 760:0.075425997 778:0.073894002 780:0.071920998 807:0.094715998 896:0.093745999 974:0.109161 975:0.101303 993:0.072719 1107:0.15164 1164:0.161621 1340:0.10407 1420:0.18921299 1487:0.177564 2777:0.147901 3066:0.166462 3397:0.153686 3745:0.219625 4363:0.25519001 4364:0.27762899 4365:0.18787301 4366:0.242064 #
1.0000000231766961178436758928001 3:0.144076 9:0.052756999 10:0.042447001 16:0.148223 30:0.23173299 50:0.063463002 69:0.056063 84:0.116461 98:0.062006999 114:0.052692998 123:0.073882997 126:0.030851001 149:0.086960003 157:0.11018 221:0.049798001 229:0.093943 232:0.080935001 234:0.177131 236:0.116281 241:0.046884 311:0.096189998 374:0.13151801 382:0.12188 384:0.121004 387:0.084555 429:0.175156 434:0.076586999 448:0.16643301 463:0.137264 465:0.091623001 470:0.15057001 476:0.17500301 477:0.25170001 515:0.17500301 533:0.109181 874:0.076380998 885:0.090524003 952:0.113162 953:0.116461 1028:0.129186 1057:0.108023 1119:0.103124 1126:0.077425003 1203:0.229219 1405:0.27523601 1422:0.096450001 1450:0.21182799 1561:0.22830801 1615:0.203912 2304:0.19274899 3995:0.20603301 4717:0.15979099 #
1.0000000231766961178436758928001 6:0.042911999 9:0.05345 10:0.043005001 15:0.046236999 31:0.130389 35:0.020186 48:0.079985999 58:0.093514003 59:0.11004 98:0.062821999 99:0.054039001 113:0.111513 116:0.077040002 119:0.226513 126:0.052921999 128:0.135555 129:0.128334 130:0.1411 156:0.040523 160:0.100481 170:0.092377 239:0.024220999 256:0.068710998 267:0.075111002 268:0.126632 272:0.098797999 276:0.044385001 327:0.062045999 352:0.052429002 393:0.066871002 395:0.10383 401:0.099347003 413:0.122304 434:0.077592999 493:0.151061 513:0.129402 544:0.086488001 631:0.199485 652:0.144417 660:0.144417 789:0.113756 803:0.099207997 807:0.054405 828:0.10383 843:0.131265 857:0.23979899 908:0.20107301 1126:0.132815 1127:0.095177002 1427:0.103511 1571:0.29984599 2262:0.31512201 2380:0.15807 2628:0.204537 2767:0.15718301 6384:0.22635899 9405:0.22635899 #
1.0000000231766961178436758928001 1:0.063014001 3:0.119712 11:0.018265 15:0.037919998 23:0.087100998 37:0.049391001 43:0.097970001 56:0.062958002 65:0.061128002 70:0.055668999 76:0.035964999 77:0.10305 80:0.099372998 81:0.070554003 87:0.031527001 112:0.026071001 123:0.061388999 125:0.15304901 126:0.025634 195:0.097607002 226:0.052995 227:0.080798998 229:0.078056999 264:0.126188 267:0.0616 276:0.094985001 290:0.052285001 299:0.094589002 322:0.064508997 325:0.092580996 330:0.090392999 352:0.072802 383:0.086037003 385:0.047424 391:0.14828099 397:0.067991003 419:0.048230998 420:0.079815999 436:0.086783998 441:0.178691 444:0.077463001 493:0.059032999 575:0.079497002 614:0.101516 778:0.15379401 928:0.07846 929:0.084375001 964:0.09206 1015:0.117965 1018:0.122024 1033:0.087209001 1122:0.088675998 1199:0.198171 1271:0.116594 1742:0.193069 2040:0.14282501 2187:0.12820099 2351:0.12963501 2750:0.140476 6225:0.17987899 11522:0.37492299 11523:0.46470699 11524:0.22143599 #
1.0000000231766961178436758928001 14:0.078217 18:0.058219999 31:0.054976001 35:0.017860999 43:0.062429 44:0.036028001 76:0.038803998 83:0.062036999 85:0.067805998 87:0.034015 89:0.118169 91:0.059746999 94:0.11688 99:0.047816001 104:0.13846099 105:0.031757999 115:0.053218 126:0.027657 162:0.085206002 206:0.114503 229:0.084216997 238:0.079645999 243:0.269887 246:0.095512003 247:0.12714 251:0.112049 258:0.065618001 326:0.092015997 338:0.164883 355:0.228214 459:0.15579601 544:0.076527998 650:0.169701 656:0.078217 671:0.070377998 723:0.052414 782:0.091172002 812:0.093938001 813:0.096670002 990:0.123492 1004:0.067155004 1013:0.079829998 1020:0.35560599 1060:0.23042101 1101:0.12579501 1116:0.31355399 1125:0.080294997 1147:0.112344 1217:0.073430002 1317:0.087539002 1341:0.193865 1348:0.076447003 1420:0.096167997 1490:0.10697 1509:0.12579501 1729:0.112943 2033:0.14709599 2050:0.20029201 2375:0.167457 7469:0.208306 #
-0.09921841257320108964368188253502 3:0.13050599 19:0.075874001 23:0.094953999 31:0.055548999 44:0.036403 49:0.109767 50:0.057486001 55:0.089451998 56:0.068635002 69:0.050783001 87:0.058194 93:0.069751002 95:0.071988001 97:0.087485 99:0.048314001 101:0.112057 105:0.032088999 112:0.028422 124:0.068452999 126:0.027945001 156:0.086455002 170:0.082590997 180:0.075484 236:0.068342999 278:0.19219799 303:0.118767 312:0.080568999 315:0.111507 351:0.059920002 385:0.0517 393:0.059787001 397:0.074120998 429:0.093705997 443:0.14406 453:0.069187 458:0.12780499 460:0.101121 477:0.200507 496:0.34987801 497:0.115795 504:0.081610002 513:0.115694 539:0.085868999 575:0.086664997 583:0.091159001 677:0.085534997 681:0.113515 731:0.076834001 764:0.096020997 780:0.163185 785:0.093264997 906:0.155863 914:0.13916799 1127:0.203061 1268:0.078166001 1312:0.105492 1338:0.093264997 1397:0.090227 1436:0.13552999 1540:0.088946998 1571:0.112342 1708:0.1104 1731:0.096507996 1818:0.15570299 1935:0.137566 1979:0.14862899 2511:0.17145599 2867:0.26362899 3938:0.163358 5944:0.169203 6132:0.173905 #
-0.28270350851697945149254564967123 6:0.045180999 10:0.045279 11:0.023449 35:0.021252999 45:0.073934004 86:0.159546 94:0.139075 99:0.056896001 138:0.13186499 156:0.072238997 174:0.117531 272:0.061437 276:0.098071001 297:0.093488 326:0.10949 328:0.23049399 338:0.19619501 355:0.27155301 419:0.061919 448:0.068035997 464:0.152714 508:0.094016999 760:0.077233002 807:0.057280999 910:0.090099998 990:0.146943 1039:0.35209799 1060:0.27417901 1119:0.110004 1126:0.082589999 1312:0.124231 1341:0.136244 1478:0.24208701 1760:0.139864 1933:0.141609 2249:0.484635 6590:0.201911 #
-0.28330056582446605517588977818377 11:0.022717999 35:0.020591 36:0.070173003 43:0.071969002 48:0.081589997 50:0.065586999 76:0.044734001 91:0.068876997 98:0.064081997 113:0.080709003 115:0.061351001 124:0.078098997 126:0.066909999 138:0.075453997 142:0.082831003 163:0.116038 180:0.086121 194:0.097842 199:0.096225999 212:0.084398001 216:0.19890399 219:0.064260997 225:0.110673 226:0.065915003 232:0.039856002 292:0.074147999 310:0.120876 315:0.075138003 356:0.084990002 357:0.107251 392:0.079364002 393:0.115492 396:0.102792 401:0.101339 415:0.097211003 485:0.21591701 492:0.100085 529:0.13676301 583:0.104004 627:0.102496 650:0.093220003 661:0.106911 676:0.077215001 719:0.091397002 760:0.074826002 778:0.19128799 780:0.120804 926:0.121402 1001:0.21591701 1007:0.11649 1026:0.090471998 1125:0.156726 1146:0.149534 1348:0.149214 1561:0.34622201 1599:0.13676301 1805:0.271081 2485:0.146145 2613:0.35341799 3466:0.17921101 #
-0.090086854798774887442824876870873 5:0.074786998 10:0.068530001 11:0.035489999 35:0.032166999 36:0.038240001 38:0.061432999 76:0.041274 88:0.065985002 98:0.154285 108:0.069913 112:0.029919 113:0.043981001 127:0.088784002 156:0.064574003 160:0.160119 219:0.124428 236:0.042491 312:0.084812999 363:0.122828 383:0.058315001 419:0.055349998 426:0.081574 448:0.102972 493:0.14217301 631:0.213484 652:0.230132 928:0.188959 967:0.10392 1020:0.34290501 1221:0.129528 1240:0.20979001 1547:0.120456 1728:0.105845 1756:0.206038 1910:0.366303 2210:0.107063 6087:0.17196301 10264:0.20102599 10802:0.46497899 #
-0.45777528850203536014973337842093 26:0.068608001 36:0.033523999 45:0.057937998 76:0.036184002 83:0.057847001 99:0.044587001 105:0.029614 113:0.065283 126:0.043664999 142:0.066999003 183:0.082317002 236:0.063070998 238:0.074267998 239:0.019985 312:0.074353002 331:0.12968899 336:0.21756899 337:0.075135998 350:0.043781999 354:0.053895 355:0.12568501 356:0.116397 364:0.207856 392:0.064195 413:0.100912 415:0.078630999 419:0.048523001 448:0.053316999 453:0.063849002 459:0.145276 498:0.082317002 623:0.075672001 627:0.082906 649:0.094783999 650:0.075402997 738:0.062839001 828:0.085669003 914:0.075852998 1013:0.074438997 1020:0.225977 1026:0.174629 1146:0.071437001 1154:0.107679 1211:0.095546998 1296:0.081177004 1317:0.194786 1321:0.081177004 1339:0.29036599 1427:0.085405 1446:0.183916 1450:0.084376998 1468:0.075225003 1469:0.097147003 1717:0.112047 1805:0.104483 2111:0.13357399 2147:0.147695 3032:0.146291 3340:0.113944 3603:0.150755 3832:0.1173 3880:0.31487101 5722:0.204772 6737:0.186766 7074:0.19423901 7624:0.204772 #
1.0000000231766961178436758928001 27:0.099739999 35:0.018102 36:0.036437001 42:0.071261004 89:0.070735 94:0.118457 97:0.087750003 112:0.059827998 113:0.041907001 114:0.047874998 115:0.053936999 122:0.081702001 142:0.072820999 143:0.056772001 239:0.021721 240:0.048137002 276:0.103864 313:0.13470501 324:0.076824002 350:0.047586001 426:0.077728003 440:0.078489996 482:0.096152 491:0.084174998 523:0.077895001 596:0.076263003 624:0.29414099 719:0.136048 720:0.118414 723:0.053121001 785:0.093548998 861:0.118769 890:0.26442999 894:0.063777 993:0.107383 995:0.17012399 1012:0.195963 1136:0.220174 1176:0.15360799 1217:0.074421003 1226:0.245812 1423:0.116372 1440:0.144284 1650:0.089217998 1671:0.128993 1731:0.096800998 1818:0.26442999 1824:0.17272601 2651:0.15900201 2769:0.271799 3820:0.17443401 3904:0.19154701 4893:0.148054 6159:0.242136 #
1.0000000231766961178436758928001 1:0.068866 3:0.077270001 9:0.047906 11:0.019960999 60:0.057588 63:0.047993999 83:0.062839001 87:0.034455001 98:0.118166 104:0.050237998 105:0.102851 121:0.13072801 143:0.119076 172:0.239076 199:0.14315701 212:0.12556 244:0.079611003 272:0.052299999 324:0.076780997 326:0.093206003 327:0.055610999 337:0.08162 341:0.077435002 352:0.079562999 385:0.087752998 414:0.085858002 470:0.065150999 493:0.064516 530:0.118177 547:0.248862 568:0.098091997 570:0.099503003 663:0.18709099 682:0.15864199 697:0.094088003 713:0.210356 716:0.086421996 785:0.093497001 792:0.108853 807:0.048762001 809:0.33079299 830:0.122934 1435:0.103793 1437:0.21100099 1609:0.112911 1623:0.16816799 1681:0.26059699 1866:0.131052 2085:0.13458399 2387:0.15232199 2883:0.18709099 3049:0.153523 3748:0.163764 7729:0.183323 9573:0.222442 #
1.0000000231766961178436758928001 9:0.083460003 15:0.058249 21:0.082602002 27:0.082753003 35:0.015019 51:0.065991998 59:0.048356 72:0.108337 85:0.096538 87:0.048429001 114:0.039721001 115:0.044750001 126:0.023256 144:0.064213999 145:0.049497999 164:0.047368001 179:0.067997001 238:0.113395 241:0.035342 271:0.061623 313:0.111762 321:0.071932003 337:0.067757003 341:0.064282998 385:0.043024998 410:0.063671999 466:0.102752 568:0.081430003 579:0.124459 671:0.100199 685:0.081863001 686:0.088552997 697:0.078106999 740:0.077738002 765:0.170891 835:0.087980002 914:0.068402998 953:0.087791003 979:0.138116 1136:0.107891 1268:0.065050997 1295:0.170524 1317:0.216847 1348:0.064282998 1462:0.13745899 1518:0.090155996 1601:0.082753003 1617:0.084969997 1662:0.095748998 1763:0.32506901 1945:0.125493 2144:0.154442 2148:0.17645501 2184:0.132037 2282:0.104985 3832:0.22198901 4094:0.14081199 4211:0.14472499 4478:0.117611 4578:0.14472499 5234:0.184659 5681:0.27631301 5907:0.158924 6316:0.29657301 12096:0.20089599 #
1.0000000231766961178436758928001 9:0.037935998 11:0.026764 18:0.046698999 19:0.060231999 41:0.039312001 49:0.087137997 54:0.179252 70:0.048177999 75:0.067019999 81:0.061059002 99:0.091523997 104:0.083488002 105:0.025474001 115:0.042688001 178:0.074271001 205:0.099344999 215:0.106574 216:0.053036999 244:0.037234001 262:0.101292 271:0.058782 286:0.22188701 290:0.045248002 293:0.057753 300:0.049918 350:0.037661999 370:0.036040001 393:0.047460999 430:0.079671003 435:0.13105901 450:0.063092001 463:0.20714 473:0.14948501 493:0.051089 508:0.063377 560:0.061253998 572:0.073693998 631:0.14158399 633:0.074506 637:0.122891 668:0.053082 807:0.038614001 897:0.169561 914:0.065250002 936:0.101292 1037:0.083389997 1295:0.162663 1353:0.067208 1364:0.087429002 1422:0.069355004 1491:0.091587 1515:0.069926001 1689:0.127049 1860:0.247613 2517:0.123604 3058:0.27215001 3340:0.098016001 3662:0.140183 4137:0.209281 4293:0.099776 4346:0.142538 4893:0.198396 9605:0.176147 10201:0.191636 10202:0.191636 10203:0.191636 10204:0.191636 10205:0.176147 10206:0.191636 #
1.0000000231766961178436758928001 11:0.019536 36:0.035641 45:0.061597999 55:0.184185 56:0.067340001 89:0.069190003 91:0.059230998 97:0.085835002 113:0.069406003 114:0.046829998 142:0.042070001 156:0.035546999 162:0.084471002 181:0.070097998 198:0.079049997 204:0.082336999 206:0.067043997 226:0.056683999 231:0.070363 232:0.058031999 236:0.039602999 239:0.021247 247:0.074442998 248:0.056442 276:0.038934 293:0.071379997 317:0.16429099 322:0.068999998 327:0.092152998 336:0.23131201 393:0.058658998 595:0.094527997 627:0.088142999 719:0.078598 722:0.075625002 723:0.087978996 776:0.121991 791:0.085718997 799:0.090522997 823:0.229711 915:0.138659 986:0.103283 1060:0.30388099 1114:0.128262 1136:0.26694301 1172:0.13171899 1489:0.13428999 1604:0.100373 1824:0.31904301 2027:0.16205999 2144:0.182082 2166:0.144822 2184:0.091939002 2508:0.123774 2651:0.37114301 2652:0.23684999 #
-0.17265904606720480773951464925631 11:0.027884001 15:0.034191001 36:0.030045001 38:0.048266999 44:0.050979 45:0.051925998 48:0.059147 55:0.073983997 59:0.048059002 60:0.047511999 87:0.048131 98:0.046455 100:0.077748999 105:0.063332997 126:0.039133999 156:0.029965 158:0.104339 184:0.072554 194:0.185083 208:0.042732999 221:0.037308 232:0.048920002 239:0.017911 240:0.083300002 243:0.13582399 249:0.087848999 251:0.196514 253:0.12769701 258:0.092846997 267:0.055542 272:0.043148998 287:0.218242 338:0.065659001 341:0.063887 352:0.038768999 357:0.077748999 453:0.057223 545:0.073054999 570:0.13899601 631:0.070289999 699:0.065513 738:0.056318 783:0.058924999 794:0.079153001 990:0.103203 1020:0.163397 1037:0.086880997 1053:0.15794501 1058:0.132368 1060:0.218961 1342:0.075621001 1422:0.072259001 1477:0.083636001 1571:0.092915997 1914:0.14383399 2043:0.17408299 2044:0.139945 2045:0.138219 2046:0.19966 2047:0.16219001 2048:0.385142 2049:0.146053 2050:0.167385 2051:0.183522 2052:0.19966 2053:0.183522 2054:0.15794501 2055:0.19966 #
-0.023199491667360613855741746647254 9:0.07869 23:0.108039 35:0.017552 38:0.056756001 41:0.081545003 105:0.081436001 115:0.052297 121:0.089985996 147:0.091569997 172:0.19825099 205:0.051003002 232:0.071299002 239:0.021060999 240:0.079025999 251:0.110109 276:0.065343998 299:0.100287 337:0.079182997 341:0.075122997 409:0.169131 415:0.082865 419:0.051135998 445:0.082865 470:0.107017 530:0.16158301 560:0.075043 565:0.126607 570:0.163442 580:0.15887301 581:0.143553 616:0.089322001 647:0.15564901 656:0.076862998 663:0.181504 664:0.181504 682:0.073335998 713:0.097243004 716:0.141955 792:0.105603 823:0.134482 829:0.12557399 830:0.284596 933:0.062946998 935:0.080715001 937:0.078813002 1019:0.110988 1217:0.072159 1225:0.146466 1340:0.18469 1342:0.088919997 1398:0.20058601 1437:0.20469999 1447:0.118863 1468:0.079276003 2437:0.13245399 2807:0.147773 3359:0.18572401 4406:0.15564901 4848:0.181504 5270:0.18572401 7882:0.2158 #
-0.059378870752303920810266646412856 6:0.072557002 9:0.043063998 11:0.037657 21:0.089445002 24:0.14388999 35:0.027536999 37:0.048523001 49:0.058421999 50:0.051803999 56:0.104721 58:0.12756699 70:0.05469 87:0.052441001 91:0.054403 99:0.073716998 108:0.059849001 113:0.063748002 123:0.060309 126:0.042638998 144:0.145925 172:0.076980002 178:0.084311001 197:0.058855999 199:0.076003999 205:0.112774 208:0.078832 210:0.072190002 221:0.040649001 234:0.085395999 248:0.05184 258:0.059748001 292:0.058566 300:0.056666002 340:0.065751001 352:0.100801 383:0.049920999 410:0.068947002 420:0.078411996 450:0.071620002 457:0.068516001 470:0.099160999 494:0.076389998 536:0.119877 543:0.096313 558:0.136926 567:0.162356 623:0.073893003 635:0.092555001 656:0.149464 682:0.067952998 803:0.079930998 809:0.29735601 811:0.067264996 823:0.12461 829:0.34277299 830:0.28836399 833:0.096960001 835:0.095269002 837:0.064262003 868:0.111265 894:0.057298999 914:0.074069999 1257:0.123968 1295:0.109058 1353:0.076292999 1399:0.108023 1422:0.078730002 2104:0.12735499 2416:0.12461 2927:0.13212501 3682:0.27395999 4033:0.18967301 5855:0.18967301 6635:0.199958 #
-0.078781503091341825717464075751195 9:0.052085001 11:0.036745999 23:0.043370001 35:0.033305001 36:0.039593 41:0.053975001 63:0.05218 80:0.118075 83:0.068319999 87:0.037461001 108:0.072385997 112:0.052450001 115:0.058609001 121:0.059560999 123:0.072942004 126:0.030458 134:0.135704 138:0.072081998 172:0.093106002 178:0.101972 194:0.093469001 213:0.105009 232:0.038075 241:0.046287 248:0.062700003 256:0.066956997 267:0.073192999 323:0.097496003 350:0.108515 353:0.15060399 396:0.098197997 429:0.102133 450:0.086622998 452:0.060795002 454:0.110005 470:0.070834003 475:0.109181 636:0.182145 830:0.34876901 858:0.066497996 861:0.12905701 896:0.088844001 912:0.111067 986:0.194262 1004:0.12522 1069:0.100102 1151:0.120918 1295:0.38857499 1298:0.26983199 1309:0.235467 1311:0.159802 1340:0.098627001 1420:0.105908 1424:0.105365 1681:0.108578 1713:0.126452 1945:0.16435599 3342:0.178048 3512:0.160879 4553:0.192467 #
-0.42686054500553671786633458395954 9:0.106134 11:0.021073001 23:0.071300998 35:0.019099999 36:0.038444001 37:0.056984 41:0.052407999 76:0.041494001 85:0.072507001 86:0.084682003 115:0.056908 134:0.077822998 172:0.15306699 211:0.102835 276:0.041995998 290:0.060322002 351:0.063413002 470:0.068778999 493:0.068108 559:0.087724 671:0.17958499 682:0.079801999 716:0.091233 830:0.33864799 837:0.075467996 902:0.15317801 1149:0.103372 1432:0.111882 1591:0.16207001 1763:0.158418 1896:0.120451 1994:0.111405 2073:0.133507 2517:0.278997 3173:0.28677201 3734:0.16478001 4578:0.18404301 5152:0.214178 5153:0.174804 5154:0.397596 5155:0.214178 5156:0.19750699 5157:0.202099 #
1.0000000231766961178436758928001 10:0.035613 11:0.038704999 12:0.068112001 36:0.070611 45:0.098458998 68:0.103791 70:0.056212999 99:0.075769998 105:0.029722 116:0.10802 126:0.054320998 174:0.092441 199:0.078120001 233:0.091439001 239:0.020058 240:0.093286 248:0.053284001 276:0.062233001 315:0.061000001 338:0.191875 370:0.04205 385:0.047887001 397:0.068654001 448:0.053512 465:0.076871999 478:0.103529 545:0.081813 699:0.073367 783:0.065989003 818:0.144252 825:0.068112001 828:0.205183 1004:0.062849998 1013:0.178286 1126:0.109986 1130:0.27732101 1154:0.108075 1240:0.109023 1341:0.10716 1426:0.102507 1450:0.084687002 1478:0.190409 1509:0.117731 1549:0.094756998 1663:0.23475499 1666:0.108387 1756:0.086386003 1933:0.11138 2271:0.137666 2272:0.133237 2323:0.121601 2711:0.118646 3030:0.136718 3606:0.133237 4754:0.152991 7102:0.347983 7103:0.37858099 7104:0.19495299 #
1.0000000231766961178436758928001 9:0.091522001 10:0.073637001 19:0.37918299 53:0.200339 85:0.13121501 87:0.065825 99:0.092531003 116:0.131915 121:0.104659 137:0.094196998 155:0.35081199 194:0.16424 224:0.32244301 248:0.110174 370:0.086947002 404:0.31145799 434:0.31705001 453:0.132505 465:0.15894701 588:0.179464 656:0.151362 699:0.1517 799:0.176699 882:0.210925 1133:0.157986 1555:0.205143 #
1.0000000231766961178436758928001 1:0.060945999 11:0.017666001 25:0.115496 60:0.050965 65:0.059122998 88:0.094159998 110:0.202948 120:0.18420801 126:0.041978002 138:0.058674 159:0.15666801 190:0.088220999 207:0.094612002 221:0.040019002 225:0.086061001 236:0.035811 240:0.101603 241:0.037677001 244:0.041611999 248:0.051038001 258:0.058823001 264:0.122048 312:0.071480997 317:0.087742001 353:0.072403997 397:0.065760002 401:0.078803003 420:0.13070799 451:0.12083 470:0.097625002 475:0.088872999 492:0.077827998 550:0.086963996 596:0.067455001 627:0.134949 705:0.247485 738:0.060410999 895:0.086208999 945:0.085332997 951:0.140985 964:0.089038998 1000:0.130955 1004:0.101929 1056:0.118021 1125:0.171766 1150:0.09967 1173:0.14063901 1259:0.165576 1269:0.103519 1326:0.110704 1517:0.106019 1722:0.131864 1736:0.139018 1932:0.172829 2068:0.21608 3124:0.150116 3533:0.186735 4096:0.159299 4335:0.129232 6047:0.165576 13532:0.21417101 13533:0.36262301 #
1.0000000231766961178436758928001 11:0.050795 23:0.072022997 31:0.100545 35:0.019293001 38:0.062385999 39:0.091916002 69:0.054287001 76:0.041914999 88:0.06701 98:0.060044002 112:0.030384 119:0.077547997 129:0.122659 142:0.077610999 143:0.102446 145:0.107655 156:0.038731001 184:0.244707 209:0.090162002 221:0.048221 222:0.088613003 238:0.14566299 240:0.086865 276:0.10123 313:0.068410002 324:0.13863 352:0.050110001 354:0.062431999 357:0.100492 411:0.114764 413:0.116895 419:0.056209002 448:0.061760999 457:0.13761801 518:0.33844 624:0.101801 701:0.092647001 773:0.122659 780:0.066852003 805:0.13693599 828:0.236812 892:0.128958 894:0.189762 910:0.081790999 1012:0.080038004 1014:0.186272 1198:0.25274399 1321:0.094035 1342:0.097741 1421:0.149407 1436:0.14488401 1540:0.095086001 1626:0.145592 2250:0.142855 2535:0.123679 5666:0.204147 8286:0.258064 8287:0.258064 #
1.0000000231766961178436758928001 2:0.091646001 6:0.068325996 11:0.020943999 30:0.092522003 31:0.058428001 35:0.018983001 36:0.038208999 65:0.070092998 69:0.090438001 88:0.065931998 108:0.069856003 111:0.113171 114:0.085000999 116:0.18904801 146:0.077962004 195:0.111922 211:0.102206 213:0.101337 232:0.062213 238:0.084647 240:0.120456 256:0.064616002 258:0.14635199 276:0.041738998 354:0.061427001 392:0.073165998 393:0.062885001 419:0.055303998 448:0.060768001 452:0.058669999 458:0.079395004 459:0.16557799 470:0.068357997 621:0.112665 623:0.086248003 654:0.094765 723:0.055705 731:0.080815002 765:0.102919 803:0.093294002 812:0.099835999 813:0.102739 828:0.20491201 894:0.113235 933:0.14286999 1004:0.071370997 1013:0.084841996 1033:0.099999003 1071:0.14864799 1217:0.078039996 1317:0.242768 1333:0.120034 1337:0.17797101 1339:0.234816 1341:0.121689 1342:0.096167997 1446:0.123804 1549:0.182189 1587:0.15525401 1701:0.15981799 1713:0.122031 1808:0.162395 1910:0.114476 1944:0.170028 1961:0.121689 1972:0.138088 5406:0.221385 5407:0.182917 5408:0.23338901 #
-0.35220595487502309728355953666323 10:0.053431001 15:0.057445999 35:0.025079999 44:0.050588001 85:0.095209002 88:0.087108001 112:0.039496001 126:0.038833998 155:0.097548999 209:0.117204 224:0.36057901 236:0.094972998 240:0.066690996 249:0.087176003 275:0.128212 276:0.093368001 313:0.088927999 352:0.110291 397:0.103002 404:0.22599301 426:0.107687 434:0.28400001 498:0.123954 588:0.220479 591:0.16308799 724:0.283833 885:0.113949 894:0.088358998 920:0.16657899 993:0.148773 1013:0.112092 1154:0.162146 1435:0.143878 1868:0.185701 1932:0.15988401 2022:0.16763601 2693:0.419505 2777:0.178711 #
0.93718162647553171495928836520761 11:0.019181 36:0.034991998 38:0.056214999 41:0.047703002 116:0.066349 126:0.026919 137:0.047378 142:0.041304 156:0.034899 216:0.064355999 219:0.054255001 221:0.043451 240:0.046229001 241:0.040908001 243:0.075378001 248:0.055413999 271:0.120769 293:0.070079997 315:0.063438997 327:0.053436 397:0.071399003 436:0.091135003 492:0.084500998 596:0.124005 597:0.112239 650:0.078705996 719:0.077165999 722:0.074248001 760:0.063175 785:0.089840002 807:0.046854999 851:0.108494 853:0.26101699 889:0.101402 933:0.062346999 935:0.079944998 986:0.212804 1004:0.065362997 1011:0.14751799 1012:0.18819401 1013:0.077699997 1026:0.23522501 1142:0.078799002 1397:0.086912997 1518:0.104355 1650:0.08568 1665:0.112075 1721:0.11773 1763:0.14419401 1805:0.109059 2006:0.184654 2414:0.12757 2574:0.34204999 3904:0.183953 4418:0.45132601 5041:0.188897 7039:0.232536 #
-0.44894602004577377485361466824543 6:0.043563999 10:0.043657999 11:0.038281001 18:0.14017799 19:0.086153001 33:0.18679699 35:0.020492001 38:0.066264004 44:0.041335002 55:0.171973 75:0.056616999 104:0.119415 112:0.054641999 123:0.075989999 124:0.077725999 151:0.098934002 170:0.093778998 212:0.083995 216:0.075861 226:0.0656 232:0.039666001 236:0.10937 241:0.048221 293:0.082607001 322:0.079852998 341:0.087706998 346:0.223681 356:0.084585004 370:0.087279998 383:0.062900998 387:0.147247 393:0.067886002 433:0.075603001 448:0.0656 477:0.18368199 542:0.13365 588:0.22329301 595:0.109396 716:0.097886004 807:0.055231001 951:0.223647 974:0.107775 1219:0.116621 1272:0.18355 1297:0.33931699 1517:0.13568699 1606:0.141683 1638:0.144881 1665:0.13211 1736:0.105082 2038:0.141683 2304:0.245721 2665:0.31151 3057:0.26701999 #
-0.072353990491543840324339953440358 1:0.063325003 11:0.038520001 15:0.038107 35:0.016636999 41:0.045650002 58:0.077071004 59:0.053564001 68:0.103296 104:0.078215003 105:0.029580001 110:0.149617 112:0.0262 113:0.038513999 115:0.049569 122:0.044346999 142:0.066923998 152:0.140065 169:0.058286998 181:0.065860003 184:0.080865003 236:0.037209 239:0.019962 240:0.074904002 241:0.039147999 243:0.072134003 246:0.088963002 248:0.053029001 249:0.097911999 273:0.17557 276:0.061935998 327:0.051135998 330:0.090838999 338:0.123905 350:0.043733001 395:0.085573003 450:0.073261999 453:0.063777998 482:0.210868 485:0.103035 767:0.081423 919:0.123754 980:0.13260099 993:0.098687999 1038:0.133424 1060:0.102268 1108:0.080535002 1129:0.243018 1130:0.105769 1171:0.089883998 1296:0.081086002 1422:0.080535002 1448:0.111922 1515:0.081197999 1539:0.113042 1542:0.101523 1578:0.118547 1662:0.106059 2414:0.12208 3065:0.23363499 3230:0.26408699 3742:0.15405101 4293:0.115861 5839:0.431903 6223:0.194022 8581:0.18655699 11701:0.22252899 #
-1.0000000231766961178436758928001 5:0.080297001 11:0.022505 15:0.079108 43:0.120713 50:0.064971998 70:0.068593003 74:0.123588 75:0.056356002 83:0.070846997 85:0.077436 107:0.17166901 109:0.068130001 112:0.032122999 126:0.075369999 127:0.16139901 142:0.082055002 146:0.083774 155:0.079338998 156:0.085933998 184:0.099146999 209:0.095325001 224:0.293268 240:0.129436 256:0.069433004 272:0.099835999 276:0.125212 317:0.189256 321:0.097691998 350:0.053619999 389:0.087583996 397:0.083774 404:0.183805 413:0.123588 430:0.11343 434:0.230984 457:0.085933 493:0.072737001 570:0.112183 665:0.096799001 682:0.085225999 724:0.230848 778:0.122956 794:0.108165 797:0.090645 803:0.100249 828:0.104921 978:0.18857799 986:0.118977 1012:0.084620997 1149:0.110398 1260:0.151035 1533:0.125082 1609:0.215536 1806:0.137677 2026:0.150351 2184:0.10591 3645:0.193785 4632:0.20293701 4688:0.193785 5576:0.18668599 #
1.0000000231766961178436758928001 6:0.096228004 9:0.096701004 11:0.049942002 16:0.094772004 18:0.070306003 24:0.112709 35:0.021569001 41:0.059184998 56:0.138886 85:0.081882998 87:0.114678 88:0.074915998 98:0.067128003 105:0.091518 108:0.13439301 112:0.033968002 124:0.081811003 138:0.079039998 142:0.051245999 155:0.083894998 170:0.098707996 172:0.17286 181:0.085386999 239:0.025882 240:0.057356998 258:0.079241 324:0.091536999 401:0.106156 404:0.092615001 413:0.130686 452:0.066665001 457:0.153855 491:0.100296 530:0.083210997 555:0.124502 572:0.110947 575:0.103577 597:0.082246996 614:0.132266 635:0.12275 668:0.079916 726:0.136391 743:0.114952 765:0.116943 803:0.106007 830:0.34973499 858:0.072917998 874:0.082687996 894:0.075992003 906:0.088762999 908:0.12689599 1040:0.131625 1234:0.112528 1340:0.108149 1348:0.092317 1533:0.132266 1623:0.118411 3156:0.20784201 3235:0.21459299 3469:0.184523 5473:0.21104801 12248:0.25155199 12731:0.28850999 #
1.0000000231766961178436758928001 1:0.064474002 2:0.081776999 10:0.036086999 11:0.031642001 35:0.016938999 42:0.139935 50:0.091352001 63:0.044932999 65:0.062545002 67:0.28467801 75:0.046799 91:0.056660999 94:0.065465003 104:0.047033999 105:0.030118 109:0.095790997 114:0.075847998 126:0.026227999 131:0.060254999 145:0.094517 197:0.12864301 216:0.106169 221:0.042335998 265:0.112156 276:0.078161001 292:0.060997002 317:0.092821002 370:0.042608999 385:0.048523001 428:0.087672003 494:0.079561003 523:0.072888002 556:0.18816499 567:0.099869996 623:0.076959997 668:0.10626 679:0.161622 682:0.070772998 710:0.118845 716:0.136994 721:0.085941002 730:0.082787 837:0.066930003 858:0.057263002 860:0.25959399 928:0.080279 935:0.077894002 1075:0.112156 1126:0.065823004 1142:0.076777004 1198:0.092988998 1347:0.108585 1403:0.107689 1426:0.10387 1741:0.099436998 1779:0.108283 2040:0.146136 2089:0.124296 2169:0.296608 2598:0.113954 2695:0.30810201 3057:0.105171 3584:0.18404999 3585:0.165738 3586:0.226569 3587:0.226569 3588:0.151719 #
1.0000000231766961178436758928001 6:0.085661002 8:0.067323998 11:0.035868 15:0.074465998 26:0.079094999 42:0.075585 62:0.069200002 63:0.050934002 76:0.041714001 88:0.066689 91:0.064227998 93:0.074207999 98:0.059756 109:0.17904 113:0.04445 114:0.050779998 128:0.076154001 143:0.101956 151:0.092698999 171:0.100493 202:0.086116001 205:0.055794001 217:0.062540002 239:0.023039 241:0.045182001 249:0.17415801 276:0.042219002 311:0.092698999 351:0.063749999 385:0.055004001 428:0.099381 429:0.099694997 460:0.107583 464:0.081485003 497:0.092607997 504:0.086824998 668:0.071139999 767:0.093973003 777:0.088188998 829:0.13737001 833:0.114472 888:0.10884 910:0.137821 993:0.067271002 1027:0.116062 1211:0.110152 1435:0.110152 1475:0.111059 1490:0.114992 1518:0.115256 1608:0.160432 1641:0.208404 1824:0.108205 1973:0.237514 2330:0.14089701 2661:0.144191 4163:0.182413 9065:0.20317 9222:0.20863099 10593:0.538984 #
1.0000000231766961178436758928001 6:0.055341002 11:0.040479999 13:0.082356997 19:0.064639002 23:0.033899002 28:0.208609 31:0.047324002 38:0.049717002 45:0.090558998 49:0.055229999 52:0.084101997 53:0.089116 61:0.074529998 63:0.040786002 64:0.073248997 76:0.056554999 87:0.029281 115:0.045811001 157:0.085023999 162:0.073344998 164:0.048489999 197:0.055640999 208:0.044016 211:0.082781002 239:0.018448999 244:0.039958 276:0.033806998 279:0.107076 280:0.091663003 291:0.085499004 311:0.074228004 351:0.051047001 394:0.074129 405:0.205301 470:0.055365998 491:0.121048 493:0.054825999 518:0.081666 530:0.059314001 573:0.15043899 589:0.21291 650:0.069608003 775:0.161633 837:0.060750999 945:0.081940003 1012:0.063782997 1026:0.16120701 1057:0.083359003 1146:0.065945998 1397:0.076866001 1703:0.104826 1910:0.092720002 2006:0.23016401 2104:0.120397 2165:0.087673001 2171:0.101803 2538:0.130466 2579:0.117195 2640:0.17931101 3486:0.15296499 3876:0.128466 4137:0.13264699 4714:0.15043899 4947:0.235632 6764:0.31571299 7418:0.37940201 10364:0.20565601 #
1.0000000231766961178436758928001 11:0.040979002 23:0.039021999 35:0.017697999 36:0.035622999 45:0.061567001 48:0.070128001 60:0.056333002 69:0.084317997 75:0.048898 81:0.075427003 92:0.088999003 98:0.093258999 105:0.082114004 108:0.065128997 112:0.027872 113:0.069371 116:0.067546003 123:0.065628998 126:0.027403999 149:0.077246003 164:0.13319699 178:0.091747999 186:0.10072 217:0.057645999 221:0.044234999 242:0.25178599 244:0.096527003 316:0.086981997 352:0.045968 385:0.106399 399:0.108795 427:0.092928998 428:0.192241 434:0.068030998 448:0.095926002 470:0.063731998 493:0.106856 659:0.15694501 677:0.083879001 716:0.084539004 738:0.14013401 807:0.047699999 843:0.19486199 858:0.059831001 910:0.075029001 1093:0.087972 1149:0.20102 1520:0.100921 1561:0.096637003 1945:0.14787699 2379:0.145753 4832:0.41926399 13942:0.23672999 13943:0.49680501 #
-0.05396203483324829575096259759448 6:0.045513 11:0.039994001 35:0.021408999 36:0.043093 37:0.15242399 62:0.130642 69:0.060242001 87:0.106392 98:0.112813 109:0.071507998 134:0.087233998 180:0.089543998 181:0.177865 202:0.096020997 217:0.069733001 219:0.066814996 226:0.068535 229:0.100945 244:0.094205998 249:0.074418001 315:0.078125 385:0.14635199 453:0.082074001 459:0.110294 493:0.076343998 544:0.239363 595:0.19351199 616:0.108951 639:0.20629799 692:0.16319001 697:0.111337 708:0.141321 777:0.098332003 783:0.084514998 787:0.096584 807:0.057702001 828:0.110123 852:0.121121 928:0.101467 931:0.12792701 933:0.076779999 1013:0.16201299 1057:0.116075 1151:0.131607 1348:0.21866 1421:0.165794 1516:0.17064101 1520:0.122082 1532:0.16403601 1788:0.123071 1824:0.37153599 2386:0.19378699 2926:0.183153 3654:0.22139101 #
-0.52106895545851017459426657296717 11:0.022453999 41:0.055845 44:0.041051999 51:0.151407 58:0.094283 76:0.074862003 83:0.070688002 87:0.08134 88:0.070688002 105:0.061269 112:0.032051001 126:0.053357001 138:0.074579 164:0.064186998 231:0.080872998 240:0.141221 241:0.081086002 243:0.088243999 244:0.052891999 249:0.148462 257:0.08873 258:0.17841899 276:0.075768001 337:0.091813996 363:0.13158 392:0.078443997 436:0.10669 493:0.122878 554:0.29708701 556:0.13352799 568:0.110343 572:0.177247 596:0.08574 622:0.124196 697:0.33839199 731:0.086645 775:0.12636501 783:0.13603 831:0.16760799 894:0.071703002 953:0.118963 1019:0.128693 1149:0.11015 1198:0.111728 1317:0.099745996 1435:0.116756 1601:0.112135 1617:0.115139 1976:0.154348 2085:0.151393 2129:0.16534001 2169:0.149344 2243:0.20622 2837:0.17713401 6412:0.20622 12185:0.27222699 #
-0.075831787370064657194390633776493 1:0.054744001 9:0.090876997 23:0.053691 31:0.044268001 35:0.014382 43:0.085112996 44:0.029011 83:0.049952999 113:0.033295002 114:0.090765998 124:0.14234699 126:0.062171999 127:0.067212999 137:0.039196 150:0.066711001 179:0.065113001 201:0.077436998 216:0.138932 223:0.096129999 293:0.057976998 311:0.069435999 315:0.052483 353:0.110116 392:0.055435002 393:0.047644999 433:0.053061001 434:0.055284999 436:0.127656 452:0.044450998 492:0.118364 527:0.101683 597:0.054841999 743:0.076649003 778:0.086695001 780:0.049835999 787:0.109857 889:0.083889998 951:0.074794002 1026:0.106996 1051:0.12754001 1131:0.075033002 1329:0.155671 1348:0.061556999 1354:0.138587 1426:0.088193998 1427:0.124871 1627:0.102896 1693:0.193786 1741:0.084430002 1898:0.125177 2173:0.128822 2445:0.118445 4094:0.228304 6254:0.264595 6443:0.176828 6446:0.167733 6584:0.140725 6834:0.50199598 6835:0.192377 6836:0.192377 6837:0.192377 #
-0.16035147859626996957871369886561 5:0.059875999 9:0.096107997 10:0.032405 11:0.028414 30:0.155581 35:0.025753001 49:0.054637998 92:0.076488003 109:0.086016998 112:0.023954 113:0.073896997 126:0.061457999 131:0.054106999 144:0.065030999 151:0.073432997 164:0.114472 180:0.063616998 198:0.11497 199:0.071082003 202:0.068218 233:0.083200999 241:0.060600001 275:0.077757999 276:0.079807997 282:0.055831999 286:0.090274997 292:0.092739001 300:0.052995998 308:0.104422 315:0.093976997 340:0.061492998 385:0.073775001 390:0.069522999 433:0.056116 494:0.071442999 559:0.069861002 592:0.057742 637:0.077056997 676:0.057039 708:0.100402 722:0.064962 758:0.167962 761:0.091513 777:0.069861002 780:0.052705001 783:0.060044002 797:0.067592002 812:0.19089299 858:0.051419999 885:0.069108002 914:0.165306 1109:0.100712 1142:0.068944 1146:0.065240003 1147:0.09567 1149:0.082322001 1150:0.22593699 1212:0.110646 1298:0.087436996 1317:0.156443 1370:0.081894003 1665:0.098057002 1666:0.098622002 1704:0.24719299 2182:0.131226 2191:0.104422 2199:0.102327 2385:0.104059 2497:0.197319 3404:0.318809 4211:0.146566 5696:0.426967 5697:0.165271 #
-0.35794635447105638270670624478953 10:0.041939002 35:0.019686 44:0.039708 48:0.132072 61:0.095426001 69:0.055392001 74:0.119274 75:0.054389 76:0.089752004 81:0.083897002 92:0.098993003 95:0.078521997 102:0.238463 108:0.072443001 112:0.031002 113:0.045573 114:0.052062001 116:0.075130999 126:0.030482 138:0.072137997 142:0.098154001 164:0.10512 180:0.082335003 190:0.108463 199:0.091996998 209:0.091996998 217:0.064120002 232:0.038104001 239:0.023621 241:0.046323001 256:0.067009002 276:0.090838 300:0.068589002 350:0.1086 410:0.083454996 453:0.075466998 477:0.104215 482:0.219436 577:0.136106 635:0.26733699 686:0.116067 707:0.103872 723:0.057767998 780:0.068213001 811:0.081418999 813:0.106544 823:0.25537801 830:0.133761 831:0.162121 835:0.115315 840:0.113163 902:0.15787899 906:0.081010997 907:0.12727299 908:0.115814 974:0.103533 977:0.094281003 1037:0.114581 1126:0.076499 1133:0.089979 1491:0.125844 1779:0.125844 2039:0.128389 2335:0.287559 2508:0.137604 3129:0.180168 9733:0.195852 10890:0.26331499 #
1.0000000231766961178436758928001 10:0.061427001 16:0.074823 59:0.054827001 85:0.064646997 88:0.14114 98:0.052997999 116:0.110041 126:0.055337001 134:0.069386996 142:0.105575 155:0.066235997 156:0.034185 184:0.082773 248:0.054281 275:0.087056004 337:0.076823004 363:0.110097 370:0.042837001 404:0.1908 410:0.201544 415:0.080395997 434:0.137372 435:0.092005 654:0.143938 671:0.067097999 676:0.13401499 685:0.092817001 731:0.223253 737:0.15577801 760:0.061882999 780:0.059007 794:0.090301 828:0.148307 858:0.057569001 929:0.086792 965:0.122834 978:0.092983 986:0.099327996 1012:0.119612 1013:0.076109998 1164:0.13260099 1338:0.088001996 1374:0.090451002 1429:0.19397099 1433:0.16186 1601:0.093826003 2165:0.097104996 2414:0.12496 3357:0.134119 3955:0.123876 5509:0.155853 5954:0.19859999 6174:0.149575 6518:0.18019 7670:0.19095901 10954:0.47802001 #
1.0000000231766961178436758928001 15:0.044369001 23:0.125816 31:0.100948 41:0.053151999 61:0.15898301 75:0.053518001 83:0.067279004 87:0.03689 97:0.093897998 112:0.030506 116:0.176414 124:0.073471002 126:0.029994 137:0.052790001 143:0.060749002 184:0.159417 224:0.106727 226:0.104991 232:0.037494998 233:0.105957 244:0.050340999 257:0.084450997 258:0.169815 297:0.25101101 313:0.144142 341:0.082906 404:0.174548 413:0.117364 434:0.074459001 448:0.062008999 452:0.059868999 458:0.081017002 474:0.078312002 497:0.044518001 597:0.073862001 828:0.099637002 945:0.103234 993:0.067864999 1012:0.136059 1040:0.118207 1164:0.15083399 1368:0.103234 1549:0.109802 1569:0.29963699 1609:0.120888 1723:0.138584 1868:0.301 2693:0.36842501 2864:0.15736599 5010:0.17014199 10112:0.225908 10792:0.238158 #
1.0000000231766961178436758928001 23:0.044966001 35:0.034531001 43:0.071281999 76:0.075018004 85:0.077422 87:0.038839001 109:0.068117999 115:0.194281 121:0.061753001 122:0.054364 123:0.128047 155:0.079324998 169:0.071451999 201:0.109806 204:0.094832003 219:0.063648 236:0.045612998 247:0.08574 256:0.069420002 267:0.075886004 276:0.075925 284:0.109243 330:0.111358 401:0.100372 404:0.25797001 441:0.130015 498:0.100797 592:0.077422 656:0.089309998 671:0.168641 690:0.108146 720:0.133406 723:0.059847001 778:0.122934 783:0.13631301 807:0.054965999 825:0.083099 859:0.374946 933:0.073140003 1013:0.091150999 1225:0.100513 1278:0.154668 1300:0.15390199 1647:0.25017601 1671:0.14532401 1681:0.236248 1920:0.156259 2026:0.150324 2691:0.126628 5362:0.186653 6087:0.31255499 6759:0.237847 #
1.0000000231766961178436758928001 10:0.042116001 18:0.064436004 36:0.039790001 37:0.058979001 50:0.062967002 60:0.062922999 63:0.052439999 83:0.068660997 99:0.052921001 107:0.098261997 115:0.099728003 205:0.057443 220:0.149179 221:0.049408998 238:0.088150002 239:0.02372 240:0.052568 248:0.063011996 258:0.072623998 267:0.073558003 280:0.117856 303:0.130092 315:0.12214 354:0.063969001 392:0.076194003 393:0.065488003 394:0.095311001 404:0.27138501 434:0.21214201 448:0.063282996 738:0.156526 804:0.100601 858:0.066830002 936:0.139763 958:0.12855101 978:0.10794 993:0.165273 1004:0.074325003 1012:0.138854 1026:0.26747799 1340:0.099119 1569:0.145711 1647:0.242498 2117:0.170551 3450:0.163965 3628:0.196675 3727:0.333 5897:0.37533301 8437:0.243049 #
1.0000000231766961178436758928001 10:0.077257 18:0.069811001 23:0.047222 35:0.036263 44:0.043200999 63:0.056814 97:0.103821 112:0.033728998 113:0.049582001 114:0.056642 115:0.063813999 116:0.138399 142:0.121428 206:0.081092 208:0.128675 214:0.072736003 222:0.098370001 227:0.104533 244:0.094242997 290:0.067643002 326:0.110336 327:0.065831997 352:0.055628002 392:0.082551003 396:0.10692 397:0.14893299 419:0.062398002 434:0.214829 448:0.143885 470:0.184044 530:0.139897 532:0.117577 561:0.107231 623:0.097309999 690:0.113572 723:0.062849998 783:0.201756 807:0.057723999 818:0.109158 933:0.183292 1130:0.230547 1146:0.091863997 1220:0.177644 1468:0.096735001 1571:0.31814101 1681:0.118222 2164:0.162429 2282:0.149709 2437:0.161624 3061:0.29460099 3840:0.209562 3958:0.24978 6353:0.22662599 #
-0.032188091619580722069215994451952 8:0.059604999 31:0.052322999 50:0.054148 56:0.064649001 64:0.080987997 103:0.097130001 116:0.181126 122:0.076724 200:0.341416 208:0.048666 214:0.057732001 217:0.055369999 219:0.053052999 231:0.114373 239:0.020398 257:0.074114002 325:0.095068 370:0.089741997 384:0.103242 390:0.077701002 393:0.095348999 449:0.114739 723:0.104689 818:0.146695 933:0.12794299 1027:0.245205 1130:0.31838199 1198:0.093323 1221:0.115901 1268:0.124661 1368:0.090597004 1397:0.084987 1549:0.16315401 1571:0.25251299 1897:0.30036601 1942:0.15741199 2124:0.26984799 2129:0.23382901 2165:0.096936002 3415:0.139998 12827:0.227383 12828:0.227383 #
-0.81960377439683140821102824702393 1:0.074028 15:0.075425997 23:0.126322 35:0.019448999 38:0.062889002 44:0.039229002 56:0.125229 63:0.051591001 69:0.054724 88:0.114371 104:0.054003 126:0.030114001 142:0.110264 169:0.068138003 204:0.090434 205:0.095686004 236:0.091284998 239:0.023336001 312:0.086823002 315:0.120163 370:0.082833998 397:0.079875 434:0.126578 634:0.098089002 648:0.109179 707:0.10262 723:0.09663 771:0.093392998 792:0.117012 799:0.23725601 857:0.231038 858:0.156894 859:0.357557 933:0.118094 951:0.10114 1004:0.123807 1014:0.232738 1140:0.093144998 1571:0.35664001 1694:0.121374 2385:0.133054 3145:0.496564 #
-1.0000000231766961178436758928001 14:0.12891699 36:0.059255 76:0.090139002 108:0.063983999 110:0.092353001 116:0.066358 122:0.046348002 160:0.18163399 182:0.088216998 184:0.084513001 188:0.226751 208:0.049775999 239:0.020863 240:0.046234999 249:0.060437001 258:0.063876003 267:0.064696997 272:0.050260998 290:0.054912999 292:0.062611997 308:0.119366 327:0.053443 337:0.164612 338:0.076481998 370:0.043738 399:0.106882 434:0.113161 470:0.062611997 611:0.082618997 671:0.068508998 685:0.247293 731:0.074022003 740:0.089993 741:0.084169 780:0.102009 783:0.068636999 838:0.090135001 895:0.093615003 935:0.079956003 993:0.060915999 1004:0.065371998 1012:0.072130002 1014:0.099146001 1040:0.106103 1125:0.078162998 1130:0.110541 1136:0.1249 1317:0.28142801 1506:0.147539 1507:0.147539 1561:0.094938003 1728:0.096868999 1765:0.123407 1773:0.132532 2639:0.13321801 2651:0.25857699 3832:0.122456 4211:0.167541 4352:0.33012 4353:0.202776 4354:0.202776 4355:0.151329 4356:0.176177 #
-1.0000000231766961178436758928001 2:0.099367 10:0.074243002 15:0.047143999 23:0.095234998 30:0.26177201 31:0.132948 35:0.020582 36:0.041428 43:0.071938999 45:0.150259 59:0.066266999 75:0.056864999 81:0.087716997 89:0.080424003 99:0.055100001 113:0.080674998 114:0.054432999 126:0.066881999 142:0.048900999 155:0.080054998 179:0.093181998 219:0.108757 232:0.039840002 272:0.059496999 276:0.045256 324:0.087347001 350:0.054104999 370:0.051775001 404:0.14963201 419:0.12584101 588:0.180941 594:0.116214 596:0.14681201 676:0.077183001 721:0.104427 731:0.087623999 737:0.111201 778:0.17485701 874:0.078904003 895:0.110817 993:0.122093 1012:0.085385002 1013:0.091990001 1026:0.215803 1032:0.126212 1146:0.08828 1403:0.130853 1428:0.169503 1647:0.20369899 1650:0.101439 1656:0.188372 1740:0.129457 1888:0.132688 1906:0.126835 2703:0.208551 3727:0.42973301 4333:0.25305301 #
-0.13530775958701837802244938302465 4:0.12790801 6:0.038608 11:0.042050999 35:0.018161001 42:0.071493 43:0.063477002 44:0.062024999 58:0.219543 70:0.061071001 76:0.039455 105:0.054674 108:0.066832997 112:0.028601 113:0.071185999 116:0.069312997 126:0.059016 128:0.072030999 148:0.190441 163:0.102346 169:0.063628003 199:0.084872998 201:0.097782001 216:0.141092 223:0.150456 229:0.085630998 232:0.035154 236:0.068774 239:0.021792 240:0.048294 241:0.042734999 244:0.047199 248:0.098015003 275:0.092844002 315:0.066272996 450:0.079976998 457:0.129544 479:0.120251 597:0.117252 633:0.094446003 676:0.068103999 677:0.086073004 719:0.080613002 722:0.077564001 778:0.064657003 1013:0.08117 1133:0.083011001 1146:0.077896997 1549:0.17430399 1853:0.16105101 1900:0.12468 2367:0.19216999 2659:0.125119 3359:0.19216999 3638:0.16816901 3670:0.35861501 5434:0.187803 9140:0.223289 11160:0.211804 14282:0.24292301 14283:0.24292301 14284:0.24292301 #
1.0000000231766961178436758928001 11:0.050443001 23:0.14150199 35:0.021786001 37:0.064998001 56:0.082850002 70:0.073259003 75:0.06019 80:0.13077199 92:0.109553 135:0.16780201 149:0.095085002 164:0.068708003 192:0.17481899 221:0.11427 236:0.082498997 244:0.118819 272:0.062976003 283:0.15847699 293:0.087820001 313:0.077248 326:0.112233 338:0.095830001 340:0.088076003 352:0.095804997 365:0.14166801 442:0.114391 456:0.13137899 457:0.155397 530:0.14230099 539:0.103655 554:0.225641 592:0.082704 635:0.26018801 651:0.131074 682:0.091025002 697:0.27035499 794:0.115524 817:0.1175 822:0.138129 894:0.12995499 907:0.14084899 914:0.16799299 933:0.163965 1013:0.097369999 1134:0.12549099 1227:0.209925 1307:0.159164 1317:0.18077999 1340:0.109233 1348:0.093243003 1617:0.20868 4566:0.284114 #
1.0000000231766961178436758928001 10:0.037849002 11:0.019601 35:0.017766001 44:0.035835002 76:0.038596001 88:0.061705001 91:0.059427001 99:0.047559999 110:0.094364002 112:0.047371 113:0.086312003 121:0.091081001 122:0.047357 156:0.085105002 206:0.067264996 211:0.095652997 226:0.056871999 232:0.072167002 239:0.021317 256:0.10239 267:0.066105001 308:0.206504 327:0.054607 330:0.097005002 350:0.046700999 397:0.15312301 433:0.110975 474:0.071823999 517:0.199169 559:0.171242 596:0.074844003 654:0.088688999 677:0.084198996 732:0.13992099 775:0.110307 777:0.081597999 778:0.107089 794:0.094207004 852:0.100508 896:0.080241002 1125:0.135224 1178:0.110588 1239:0.180013 1338:0.091808997 1447:0.12031 1694:0.187723 1730:0.14248 2026:0.13094901 2688:0.17675 2731:0.127102 2757:0.30288899 2989:0.282011 3365:0.203027 3858:0.193037 4313:0.180013 6800:0.218426 10978:0.23763201 10979:0.23763201 #
1.0000000231766961178436758928001 10:0.032001 11:0.02806 41:0.041216001 44:0.051298998 54:0.089551002 59:0.081882998 63:0.039845999 69:0.042266 87:0.028605999 143:0.047107 155:0.098921001 232:0.069380999 234:0.13353901 236:0.080168001 239:0.018023999 248:0.047878999 256:0.051128998 261:0.081153996 271:0.061629001 272:0.103615 275:0.076788999 281:0.083529003 350:0.066854998 370:0.037785001 390:0.068657003 419:0.043761998 430:0.083529003 442:0.078869998 445:0.070914 452:0.046425 464:0.107931 510:0.075314 533:0.082310997 652:0.107464 677:0.07119 708:0.20807999 709:0.107464 741:0.072714001 778:0.053475998 995:0.083373003 1275:0.18662401 1305:0.080052003 1370:0.136931 1601:0.082760997 1768:0.107464 1902:0.081014 2122:0.116321 2184:0.077991001 2196:0.122028 3371:0.102063 4172:0.35107601 4540:0.389469 4684:0.158939 4685:0.144739 5799:0.350719 10255:0.158939 12182:0.17517801 14081:0.20091601 14082:0.20091601 14083:0.20091601 #
1.0000000231766961178436758928001 1:0.062747002 6:0.059333999 11:0.030794 23:0.036346 36:0.033181001 41:0.045233 42:0.064893 44:0.056299001 75:0.045545001 76:0.035813 83:0.096942 87:0.065883003 92:0.082896002 105:0.029309999 151:0.079585001 163:0.092897996 202:0.073934004 240:0.043834999 247:0.069303997 387:0.11845 397:0.067703001 419:0.048027001 463:0.113569 470:0.059362002 538:0.104803 541:0.092897996 545:0.080679998 572:0.084792003 579:0.080679998 582:0.13304999 661:0.085592002 671:0.064952999 676:0.129731 687:0.123203 764:0.1485 780:0.057121001 822:0.104519 832:0.12206 863:0.093079001 993:0.057755001 1004:0.061979 1099:0.242924 1100:0.109836 1348:0.196971 1447:0.111635 1623:0.090497002 1797:0.099411003 2443:0.139881 4713:0.167033 5848:0.41624099 9721:0.56582302 9722:0.202676 #
1.0000000231766961178436758928001 11:0.030952999 15:0.037953999 30:0.080760002 36:0.033351 39:0.078939997 83:0.057549998 99:0.044358 112:0.026094001 126:0.043441001 156:0.033263002 208:0.047435999 213:0.088454999 222:0.076104 224:0.091293998 234:0.087002002 236:0.037059002 240:0.074602 241:0.038989998 249:0.137439 330:0.090474002 352:0.072866999 354:0.053617999 370:0.041680999 397:0.068051003 419:0.081735 426:0.071145996 433:0.061129998 447:0.18035001 474:0.066987999 489:0.121588 530:0.063923001 545:0.137306 559:0.076104 596:0.118191 637:0.083943002 707:0.08743 791:0.080210999 799:0.202135 811:0.068530001 859:0.17508399 885:0.075282998 889:0.096647002 933:0.059424002 976:0.088157997 986:0.096647002 1012:0.116385 1014:0.094484001 1026:0.173731 1108:0.080210999 1125:0.074487999 1234:0.086443998 1307:0.121055 1312:0.20325699 1488:0.207729 1601:0.091293998 1618:0.105343 1669:0.082837999 2516:0.209674 2517:0.242039 2629:0.18004 3176:0.14997999 3804:0.13950101 4583:0.18580601 5724:0.37783301 5725:0.221633 5726:0.221633 #
-0.65253050861906514157340097881388 11:0.031780001 23:0.115506 35:0.017012 36:0.034242 37:0.050756 39:0.081049003 70:0.057208002 80:0.214307 92:0.085548997 99:0.045543 149:0.074251004 164:0.053654 192:0.16920599 221:0.071992002 236:0.038049001 241:0.040031999 244:0.044211999 283:0.123753 293:0.068577997 294:0.109057 338:0.074832998 340:0.068778001 351:0.056483001 352:0.074813001 422:0.095320001 457:0.071670003 462:0.136437 470:0.14618801 530:0.065629996 532:0.15812799 541:0.095871001 554:0.21839599 596:0.071670003 614:0.104321 635:0.27028501 651:0.173301 682:0.071079999 697:0.149794 770:0.088610999 822:0.107864 874:0.065218002 894:0.059935998 897:0.118916 908:0.100085 914:0.202177 1013:0.128738 1015:0.121224 1140:0.081477001 1317:0.083377004 1348:0.152805 1448:0.114449 1617:0.096244998 2812:0.121224 4137:0.146771 4566:0.131035 10134:0.54301 #
-0.2662518179359413261764188973757 6:0.121984 11:0.024262 38:0.071107 41:0.060339 60:0.069994003 63:0.098765999 64:0.104763 83:0.076375999 85:0.141343 86:0.165076 108:0.080922 113:0.050907001 123:0.081543997 143:0.116766 145:0.122703 170:0.211188 221:0.054961 232:0.072067998 234:0.115463 247:0.092448004 258:0.13678101 312:0.166215 318:0.154872 352:0.057114001 354:0.185682 370:0.055316001 414:0.104354 428:0.192708 443:0.073556997 627:0.109461 635:0.32655299 671:0.086645 731:0.093617998 734:0.162085 767:0.30045801 792:0.132303 858:0.074339002 1104:0.144711 1334:0.13260999 1579:0.139424 1708:0.22775599 2327:0.176358 2328:0.206164 2329:0.250478 3547:0.218776 3673:0.21189301 #
-0.13747419639639102406647452880861 11:0.034169 15:0.041896999 36:0.036816001 65:0.067538999 69:0.051468 85:0.069438003 87:0.058979001 88:0.063529 115:0.054499 124:0.117464 126:0.028322 131:0.065066002 134:0.074529 150:0.08484 155:0.071144 156:0.062169999 178:0.094820999 198:0.24055199 205:0.053149998 222:0.084011003 238:0.081561998 240:0.12692 258:0.067197002 272:0.14761201 275:0.093506999 322:0.120678 351:0.060729001 393:0.060594 401:0.090020999 404:0.078538001 433:0.067482002 588:0.094971001 611:0.086914003 671:0.122027 759:0.084113002 813:0.098995999 858:0.061834998 920:0.121489 1146:0.078454003 1199:0.129318 1279:0.14762899 1353:0.085804 1433:0.102682 1514:0.139422 1681:0.100964 2436:0.12738299 3491:0.121489 3564:0.320252 3649:0.21331801 4832:0.43330601 6166:0.414244 6167:0.24465901 #
-0.22756124481052114605361680332862 3:0.175808 11:0.036642 33:0.157245 35:0.019615 44:0.066990003 60:0.131026 63:0.052033 64:0.093448997 69:0.055193 88:0.068127997 99:0.052510999 105:0.034876 143:0.104155 192:0.092964001 197:0.185231 206:0.074267 214:0.066615 236:0.104688 280:0.116941 315:0.071578003 316:0.096401997 397:0.136399 401:0.096537001 419:0.057147 439:0.14268699 456:0.28227201 458:0.19577099 497:0.125853 530:0.180575 597:0.126638 632:0.150289 676:0.073555999 685:0.106912 699:0.086089 811:0.081127003 836:0.38547799 840:0.19091401 1004:0.073748 1110:0.10489 1348:0.176184 1501:0.107294 1601:0.108074 1804:0.183899 2282:0.137109 2466:0.173943 4520:0.41113201 #
0.15243657964128617954280286994617 10:0.042084001 11:0.021794001 23:0.073740996 36:0.083440997 44:0.039843999 55:0.097906999 62:0.071191996 69:0.055582002 76:0.090061001 91:0.111877 95:0.078791998 104:0.092868999 112:0.031109 116:0.075388998 131:0.070267998 198:0.14930999 221:0.049371 229:0.093138002 232:0.038235001 239:0.023701999 240:0.052528001 247:0.083045997 249:0.068662003 257:0.086120002 276:0.073538996 300:0.068824999 311:0.095366001 315:0.072082996 317:0.33333701 419:0.057549998 434:0.075930998 458:0.082617998 519:0.119684 596:0.083218999 777:0.153615 785:0.102081 837:0.078051999 956:0.10599 974:0.103889 986:0.19508199 1012:0.13874801 1060:0.25483 1063:0.302733 1075:0.130794 1146:0.084725998 1168:0.221453 1299:0.113553 1307:0.144316 1348:0.084545001 1468:0.089218996 1579:0.12524401 1618:0.125585 1698:0.135611 1769:0.123919 1933:0.131615 2104:0.15468299 2150:0.165049 2385:0.13514 3226:0.165049 3343:0.185196 5259:0.17693099 5260:0.214635 #
1.0000000231766961178436758928001 3:0.094678998 10:0.047228999 16:0.097405002 23:0.102575 30:0.257837 31:0.068232998 35:0.022169 42:0.20824499 48:0.148729 69:0.062378 99:0.059346002 114:0.099266 142:0.052669998 199:0.175409 220:0.35107699 231:0.088091001 236:0.138419 267:0.082488 276:0.048744 313:0.078605004 349:0.16414499 350:0.058274999 370:0.11703 415:0.104659 458:0.092719004 575:0.106454 595:0.118344 799:0.27043799 886:0.186639 904:0.25503901 905:0.180096 986:0.218932 993:0.077667996 1001:0.13729601 1012:0.155711 1108:0.107315 1146:0.095085002 1577:0.20065901 1650:0.18498801 1888:0.24197599 2064:0.18811101 2165:0.12641101 3057:0.13764299 #
1.0000000231766961178436758928001 8:0.12963299 10:0.037532002 11:0.032910001 35:0.017617 50:0.095009997 65:0.065049998 76:0.064801998 91:0.099776998 93:0.068085998 112:0.027744001 116:0.16044299 118:0.210076 119:0.119893 122:0.13110299 137:0.081289999 142:0.041855998 160:0.148478 188:0.135693 219:0.093088999 239:0.021139 247:0.074064001 256:0.059967 267:0.156426 291:0.097966 293:0.071015999 326:0.090756997 450:0.131354 485:0.109107 497:0.040488001 510:0.088330999 533:0.096538 591:0.193967 607:0.22086 615:0.125039 628:0.17625199 778:0.131623 782:0.089924 807:0.047481 856:0.099665999 874:0.067535996 933:0.106973 1007:0.099665999 1125:0.188986 1146:0.075562 1367:0.134284 1420:0.094852 1424:0.094365999 1659:0.133605 1731:0.094205 2022:0.117754 2083:0.131047 2338:0.13166501 2409:0.27899599 6926:0.205456 14025:0.235643 14026:0.39897799 #
1.0000000231766961178436758928001 35:0.098770998 113:0.22865701 116:0.37696099 124:0.37463 126:0.15294001 276:0.21717601 1013:0.44145101 1019:0.62456298 #
1.0000000231766961178436758928001 5:0.069234997 23:0.108257 31:0.054134 45:0.061182 56:0.066885002 59:0.056626 63:0.046654999 70:0.059142001 75:0.048592001 76:0.064694002 85:0.066767 86:0.077978 87:0.033493999 89:0.068723001 98:0.054736 100:0.091609001 104:0.048836 134:0.121335 137:0.047931001 142:0.041786 146:0.15158799 155:0.068407997 165:0.115741 194:0.083572 236:0.039336 237:0.110332 267:0.065443002 272:0.050841 273:0.088443004 276:0.038671002 293:0.070897996 308:0.120742 324:0.074639 351:0.058393002 426:0.075516999 671:0.16536801 719:0.13217901 759:0.080877997 771:0.084457003 794:0.093262002 799:0.089910999 811:0.072741002 818:0.089638002 1001:0.18442599 1033:0.092648998 1126:0.14343099 1217:0.151739 1297:0.20662799 2075:0.12634 2268:0.14018101 2736:0.139337 4537:0.181872 7858:0.665887 8542:0.216236 #
1.0000000231766961178436758928001 31:0.134956 123:0.16259199 226:0.140361 249:0.152408 276:0.096408002 322:0.170855 337:0.33491099 352:0.113882 470:0.157892 685:0.404636 695:0.36367401 928:0.20780499 1013:0.195968 1399:0.291226 10629:0.51135302 #
-1.0000000231766961178436758928001 7:0.103933 10:0.039443001 11:0.020427 15:0.042406999 44:0.063229002 60:0.058929998 76:0.040222 88:0.064304002 113:0.089947 114:0.082901999 115:0.055163 116:0.20815501 142:0.043986998 150:0.085874997 187:0.12375 240:0.083356999 248:0.059014 256:0.063019998 276:0.040708002 300:0.064506002 317:0.101454 325:0.103538 350:0.048668001 363:0.119697 370:0.046572 375:0.131925 382:0.113254 393:0.061331999 464:0.078570001 491:0.086088002 499:0.10892 592:0.119001 640:0.21299601 719:0.082179002 739:0.098012 780:0.15308701 894:0.065227002 929:0.094360001 930:0.120747 935:0.144151 947:0.14756501 978:0.171161 993:0.136125 1012:0.161184 1013:0.082746997 1019:0.27936399 1268:0.080187 1329:0.24837901 1374:0.098338 1494:0.130392 1618:0.19929101 1650:0.154493 1658:0.20761099 1662:0.118027 2165:0.105572 2738:0.18759499 3057:0.114953 3097:0.16757999 3385:0.27044201 4661:0.171436 6256:0.181152 #
-0.99371954378660154461044839990791 2:0.10602 10:0.046785001 12:0.089478999 19:0.092324004 38:0.071010999 44:0.09296 75:0.060672998 87:0.087766998 104:0.103245 114:0.058077998 126:0.034003999 156:0.044085 174:0.12144 197:0.13455801 205:0.063812003 229:0.103543 232:0.089206003 236:0.103075 237:0.13776299 239:0.026350001 267:0.081712998 276:0.101333 293:0.088523999 322:0.144887 338:0.096597999 349:0.16260301 350:0.097741 352:0.057037 365:0.142803 389:0.094292998 390:0.100376 453:0.084187001 459:0.113132 637:0.111253 783:0.18192901 799:0.345714 885:0.099776 896:0.099186003 951:0.114203 952:0.124727 1012:0.091101997 1013:0.205979 1026:0.096490003 1126:0.085336998 1333:0.331366 1529:0.155866 2350:0.173979 2658:0.248529 3680:0.38449401 3830:0.183488 #
-1.0000000231766961178436758928001 10:0.041019998 11:0.050693002 16:0.084600002 35:0.019254001 39:0.091729999 69:0.091730997 87:0.036667999 88:0.066875003 110:0.244047 112:0.030322 116:0.073484004 119:0.162414 123:0.071399003 126:0.029813999 138:0.070556 187:0.12869801 202:0.086355001 211:0.103667 239:0.023103001 272:0.094237998 275:0.098430999 276:0.071681 317:0.178644 327:0.059181999 383:0.059101 397:0.079076998 418:0.108716 420:0.092831001 422:0.107882 433:0.120273 451:0.246011 453:0.073812999 465:0.088541999 474:0.077841997 493:0.068659 592:0.073094003 595:0.215709 596:0.170229 615:0.136659 622:0.117497 676:0.072203003 947:0.25983801 996:0.158567 1012:0.079875998 1013:0.20535301 1119:0.099656999 1125:0.22586399 1329:0.123086 1334:0.116113 1344:0.12869801 1650:0.199146 2143:0.14390101 2403:0.2323 3230:0.180516 3233:0.17828999 3779:0.176218 3955:0.140062 4661:0.17828999 #
-1.0000000231766961178436758928001 11:0.042986002 15:0.052707002 35:0.038961001 36:0.046316002 43:0.080426998 44:0.046415001 58:0.1066 59:0.074086003 63:0.061041001 64:0.109627 76:0.049991 95:0.091784999 112:0.036238 113:0.090194002 114:0.060856 126:0.092974998 128:0.091265 129:0.247696 155:0.089501999 169:0.080619 179:0.104177 214:0.20392001 216:0.144228 223:0.090837002 236:0.087137997 239:0.027611 244:0.059801999 275:0.117635 276:0.050595999 293:0.092758998 313:0.081591003 350:0.060488999 426:0.098802999 444:0.107671 448:0.154588 597:0.148561 650:0.176386 719:0.243734 773:0.146293 778:0.081922002 817:0.124107 885:0.104549 964:0.12796 975:0.112309 1013:0.174132 1026:0.282262 1370:0.209769 1647:0.282271 2002:0.22172999 2028:0.22893199 2268:0.183406 2445:0.189503 2659:0.158529 3639:0.183406 #
-0.89472408589686103219662527408218 11:0.021035001 44:0.038456999 76:0.041420002 88:0.06622 104:0.052940998 116:0.072764002 122:0.050822001 179:0.086315997 194:0.153391 209:0.089098997 213:0.10178 221:0.047651999 222:0.087568 232:0.062484 233:0.104289 248:0.060772002 263:0.170771 267:0.070942998 271:0.078225002 275:0.232586 276:0.109391 293:0.130128 315:0.117798 324:0.080912001 327:0.058603 370:0.047959998 415:0.090011001 458:0.079742 465:0.087674998 512:0.11005 523:0.082039997 562:0.13990501 630:0.40971899 740:0.098681003 770:0.16814201 780:0.066064 811:0.078854002 933:0.068375997 1012:0.165987 1013:0.222358 1459:0.20094299 1540:0.093965001 1647:0.111444 1650:0.22422799 1825:0.35426801 1863:0.1172 3233:0.29891601 10470:0.234409 #
1.0000000231766961178436758928001 31:0.118441 69:0.108277 70:0.19942801 85:0.146082 87:0.073283002 112:0.035792001 115:0.067717001 142:0.053996999 155:0.149672 212:0.093154997 214:0.077183999 219:0.21842 221:0.056804001 232:0.043992002 239:0.027271001 256:0.077362001 257:0.167766 267:0.143185 350:0.101155 356:0.093809001 393:0.075289004 404:0.232869 453:0.14751901 513:0.145693 588:0.24764501 597:0.181869 661:0.118004 665:0.107853 722:0.097065002 723:0.112921 778:0.211136 855:0.098435 859:0.141836 891:0.22611199 986:0.13256399 1014:0.12959699 1026:0.099859998 1116:0.152897 1133:0.17588601 1137:0.15095399 1468:0.10265 1583:0.128327 1804:0.21307699 1805:0.142575 2181:0.22611199 2262:0.16906101 12248:0.265055 #
1.0000000231766961178436758928001 35:0.048758 36:0.098140001 236:0.109051 247:0.20498399 256:0.165968 275:0.24925999 315:0.30125099 356:0.201253 422:0.27319199 1429:0.328017 1987:0.35778701 1988:0.369775 7318:0.51592201 #
1.0000000231766961178436758928001 35:0.021269999 43:0.074341998 44:0.102379 63:0.095531002 88:0.073875003 104:0.099997997 105:0.079365999 108:0.078271002 113:0.049240001 137:0.057964999 142:0.050533999 205:0.129706 222:0.097691 227:0.103811 244:0.055277001 303:0.139972 315:0.077615999 350:0.055911999 370:0.053504001 420:0.102548 458:0.088959999 596:0.213827 633:0.110611 699:0.093350999 914:0.096868999 929:0.31935 978:0.116137 1026:0.223012 1032:0.130428 1300:0.16050801 1344:0.142169 1717:0.14309099 2022:0.142169 2440:0.50496399 2662:0.194664 3779:0.194664 4995:0.23110899 5576:0.194664 11444:0.28450099 #
1.0000000231766961178436758928001 2:0.126361 10:0.032933 18:0.050386999 69:0.043497 86:0.068538003 104:0.072677001 105:0.046537001 107:0.076838002 114:0.040881999 124:0.099273004 138:0.056646999 170:0.148461 180:0.064654998 194:0.124369 197:0.117402 199:0.122316 204:0.071879998 221:0.038635999 227:0.075447999 276:0.057549998 341:0.066161998 352:0.067979999 393:0.051210001 394:0.074529998 422:0.146651 458:0.064654998 556:0.17172199 595:0.082523003 682:0.109358 721:0.078431003 771:0.125686 794:0.081972003 817:0.083374001 860:0.236909 952:0.087798998 957:0.23443399 1033:0.081432998 1375:0.111046 1482:0.20991001 1493:0.134542 1501:0.084558003 1570:0.093222 1779:0.235815 1780:0.14492901 2007:0.14685901 2169:0.37462699 3057:0.095981002 3458:0.13846099 3459:0.112937 3460:0.30819899 3461:0.34584299 3462:0.151254 #
1.0000000231766961178436758928001 10:0.059900001 11:0.031020001 28:0.10736 55:0.082305998 67:0.116952 75:0.077679999 86:0.073624998 112:0.026151 145:0.054726001 146:0.115472 164:0.052372001 169:0.058178999 183:0.082071997 205:0.048253 208:0.080490999 222:0.076269999 224:0.091493003 240:0.13008299 242:0.098999999 258:0.061005 271:0.115357 276:0.036511999 289:0.142059 317:0.154071 351:0.055133 354:0.053734999 382:0.10158 410:0.070398003 413:0.100612 458:0.069453001 504:0.075089999 611:0.078906 759:0.076362997 785:0.18009099 803:0.081611998 882:0.101335 914:0.158714 928:0.078700997 1004:0.10571 1013:0.074217997 1107:0.121319 1115:0.212171 1136:0.119287 1146:0.071225002 1150:0.103367 1152:0.098999999 1403:0.105573 1469:0.096858002 1506:0.140908 1507:0.140908 1555:0.098557003 1609:0.103633 1879:0.133177 1950:0.132355 4417:0.157758 4418:0.165209 4419:0.204164 4420:0.204164 4421:0.22211599 4422:0.22211599 4423:0.16001201 4424:0.42846099 #
-1.0000000231766961178436758928001 11:0.022639999 13:0.109917 32:0.088683002 35:0.02052 36:0.041303001 60:0.137072 76:0.044580001 88:0.071272001 91:0.068640999 106:0.13463201 113:0.047504999 121:0.062135 124:0.16333801 182:0.104113 183:0.101419 184:0.20931999 203:0.126454 212:0.259009 221:0.086837001 240:0.13021199 244:0.053328998 248:0.065408997 249:0.071327999 310:0.20396 313:0.072760999 392:0.079092003 443:0.068640999 458:0.085826002 738:0.13108701 759:0.198033 828:0.25187299 910:0.086993001 975:0.100153 977:0.098278001 993:0.121726 1004:0.130629 1012:0.17865101 1116:0.13804901 1126:0.079742 1198:0.112651 1217:0.084361002 1300:0.154852 1353:0.096261002 1490:0.208078 1520:0.198119 1534:0.141875 1601:0.191429 1606:0.141875 1651:0.14564499 1788:0.11796 2117:0.177036 2268:0.163555 2336:0.200782 3022:0.172763 3458:0.183799 #
-0.15966903138182525490051943961589 11:0.037379999 15:0.03252 38:0.045908999 44:0.028638 63:0.037661999 105:0.042741999 113:0.032868002 118:0.307919 122:0.064078003 137:0.038692001 178:0.205474 205:0.041255001 207:0.083892003 236:0.031753998 261:0.076706998 267:0.052829001 311:0.068543002 314:0.085028 316:0.14643399 370:0.035714 394:0.068451002 415:0.067028001 438:0.120474 457:0.059811998 497:0.055245999 508:0.062804997 523:0.061092999 548:0.119531 552:0.066941999 611:0.114225 619:0.099613003 620:0.113864 679:0.080008999 937:0.063749999 979:0.13056 991:0.058485001 1073:0.103726 1085:0.15022901 1092:0.093717001 1142:0.064352997 1453:0.13680699 1469:0.082811996 1506:0.120474 1507:0.120474 1659:0.25693899 1788:0.081615001 2407:0.26956201 2409:0.22484399 2511:0.13488001 3134:0.127167 3377:0.113161 4029:0.13488001 4490:0.127167 5312:0.146815 5681:0.261195 5907:0.15022901 12157:0.189905 12158:0.189905 12159:0.189905 12160:0.189905 12161:0.189905 #
-0.30845128111898961753567505184037 6:0.036029998 9:0.044877999 10:0.061136 15:0.065730996 16:0.074469 23:0.089171998 31:0.052166998 37:0.050565999 44:0.034187 52:0.092708997 70:0.096497998 75:0.046826001 87:0.067736998 104:0.047061998 112:0.026691001 138:0.105157 152:0.142692 162:0.080852002 169:0.059379999 179:0.076730996 182:0.085992001 184:0.082381003 192:0.080325998 217:0.055204 221:0.042360999 236:0.064181998 238:0.075576 244:0.044047002 272:0.048994001 276:0.078207001 353:0.076641001 393:0.056146 404:0.232673 538:0.107752 556:0.111198 570:0.093212001 572:0.087177999 578:0.116765 650:0.076730996 720:0.326601 722:0.072384998 760:0.061590001 855:0.073407002 859:0.31159601 993:0.059379999 1004:0.063722998 1014:0.163635 1054:0.105501 1140:0.170349 1312:0.099068999 1331:0.108346 1340:0.084980004 1555:0.240042 1805:0.106323 1946:0.124926 2067:0.12789901 2548:0.175263 3065:0.140576 4699:0.386475 12324:0.226702 12325:0.226702 #
-0.41084828958924485275971960618335 10:0.034224998 14:0.070349999 36:0.054749001 61:0.077873997 76:0.034901001 85:0.060986001 104:0.044608001 105:0.028564001 112:0.0253 118:0.191568 122:0.089869998 126:0.042118002 137:0.043781001 162:0.076636001 232:0.031096 236:0.075404003 267:0.125448 272:0.078628004 290:0.050737001 311:0.185078 325:0.089841001 354:0.051984999 443:0.053738002 453:0.061586 465:0.073876001 491:0.126479 492:0.078086004 507:0.322752 538:0.21434 544:0.068830997 596:0.067679003 624:0.084766999 671:0.063299 701:0.077143997 732:0.126525 738:0.060612001 753:0.098034002 782:0.082001999 789:0.090533003 794:0.085188001 820:0.124407 965:0.196201 1069:0.081753999 1100:0.107039 1659:0.121834 1731:0.085905999 1747:0.123738 2014:0.147029 2073:0.112294 2200:0.166125 2409:0.338447 2991:0.27061301 5873:0.30501601 12403:0.214882 12404:0.214882 12405:0.197515 #
-0.081470301038204309684864767859835 11:0.025348 15:0.052625 36:0.046243999 50:0.073179998 62:0.082800999 63:0.060945 76:0.049913 87:0.043754 92:0.242459 105:0.040849999 145:0.075715996 292:0.082732998 340:0.092882998 385:0.065815002 404:0.098649003 440:0.16866399 448:0.154346 497:0.11081 522:0.154562 682:0.095992997 910:0.204402 1305:0.122442 1429:0.154562 1540:0.113231 1632:0.183119 1706:0.19996101 1866:0.166417 3343:0.215397 3347:0.22138301 4728:0.25763199 9010:0.243103 13016:0.30730799 13017:0.52031702 #
1.0000000231766961178436758928001 7:0.094994999 9:0.044806998 15:0.038759999 23:0.037308998 38:0.054717999 76:0.077151 87:0.032226 113:0.039174002 115:0.050418999 122:0.094663002 126:0.044364002 142:0.068071 143:0.053068999 147:0.088280998 149:0.073857002 156:0.057516001 160:0.21980099 169:0.059285998 213:0.090334997 214:0.097301997 236:0.037847001 267:0.13214 276:0.062996998 430:0.094099998 523:0.072815001 538:0.107582 539:0.192127 600:0.180687 617:0.084353998 665:0.080302998 671:0.066675998 699:0.074267998 719:0.127175 782:0.086375996 797:0.075196996 804:0.145804 811:0.069986999 825:0.068948999 859:0.105605 964:0.094099998 986:0.098701999 1013:0.075631 1307:0.123629 1405:0.151677 1501:0.092561997 1620:0.165573 1647:0.207578 1650:0.245685 1693:0.095546998 1757:0.125296 2143:0.126469 3493:0.141389 4233:0.13839801 5575:0.33414 7853:0.41756901 9727:0.20805 9728:0.20805 #
1.0000000231766961178436758928001 10:0.038176998 49:0.064369999 56:0.143015 70:0.102026 76:0.038929999 84:0.104744 86:0.079449996 106:0.117569 142:0.089346997 150:0.140729 179:0.13736001 236:0.040077999 239:0.021501999 272:0.051800001 285:0.106355 293:0.17237499 328:0.092603996 337:0.080839999 338:0.232207 352:0.046542 356:0.073964998 370:0.045077 415:0.084599003 482:0.161155 512:0.103434 538:0.113925 588:0.093041003 596:0.075492002 671:0.119548 780:0.130308 874:0.068696 887:0.158034 935:0.139523 993:0.062781997 1012:0.15600801 1127:0.084491 1130:0.113925 1217:0.073669001 1312:0.104744 1321:0.25729501 1338:0.092603996 1348:0.129857 1423:0.115196 1574:0.225693 1706:0.15596201 2062:0.112121 2403:0.127689 3630:0.194708 4758:0.30185401 5272:0.18157201 5273:0.23968901 5274:0.23968901 5275:0.23968901 #
1.0000000231766961178436758928001 10:0.040481001 31:0.058485001 33:0.122895 35:0.019001 38:0.104032 44:0.080435 45:0.066100001 48:0.075291999 69:0.090526 87:0.036187001 99:0.050868001 105:0.033785 112:0.029924 126:0.029422 149:0.082933001 162:0.090645 179:0.086025 191:0.127831 205:0.055213999 219:0.059301 221:0.099665999 232:0.077187002 236:0.089187004 238:0.084729999 244:0.049382001 312:0.084827997 326:0.097888999 338:0.141517 419:0.055358998 426:0.081588 443:0.107617 448:0.060826998 452:0.058727998 565:0.137061 719:0.084342003 723:0.055759002 775:0.117979 780:0.065840997 807:0.051212002 818:0.096844003 828:0.165484 933:0.115379 1013:0.084925003 1032:0.116519 1069:0.096698001 1198:0.104313 1317:0.093125999 1450:0.096262999 1475:0.109906 1540:0.15855999 1753:0.15648501 1756:0.28927299 1757:0.14069401 1773:0.14483599 1935:0.14483599 1941:0.14069401 2437:0.14339 2782:0.213076 2929:0.15144899 3057:0.117979 4774:0.254161 4775:0.43033099 4776:0.23361801 #
1.0000000231766961178436758928001 11:0.033679001 15:0.026795 35:0.019807 36:0.049415 45:0.040695 50:0.063089997 72:0.084381998 88:0.040631 97:0.056706998 107:0.058148 113:0.027082 119:0.079613 143:0.076993003 169:0.040984999 208:0.070281997 209:0.092563003 226:0.063405998 232:0.022644 236:0.026164001 239:0.023766 276:0.025722001 292:0.071324997 312:0.052223999 322:0.045584001 324:0.049644999 327:0.035957001 341:0.105074 354:0.037854999 357:0.103168 365:0.076071002 397:0.048044998 410:0.049593002 419:0.057705 420:0.056400999 428:0.060548 433:0.043159001 434:0.152794 482:0.062135998 529:0.077698998 591:0.076071002 596:0.15176401 615:0.08303 661:0.060740001 668:0.043343 676:0.043868002 692:0.089169003 726:0.073972002 771:0.056175999 783:0.046179999 811:0.048383001 825:0.047665 828:0.15701599 937:0.052528001 978:0.134049 991:0.10113 1013:0.088524997 1027:0.070711002 1146:0.050175998 1217:0.048092999 1260:0.086618997 1345:0.097744003 1515:0.057096001 1539:0.079487003 1570:0.070546001 1650:0.120995 1669:0.058483999 2616:0.081468999 3342:0.105887 3606:0.09324 5976:0.112723 6993:0.131181 9908:0.13643 10784:0.131181 12693:0.500283 12694:0.15647399 12695:0.15647399 12696:0.15647399 12697:0.15647399 12698:0.15647399 12699:0.15647399 12700:0.15647399 12701:0.264934 12702:0.15647399 12703:0.15647399 12704:0.15647399 #
0.78765420256456730729865967077785 1:0.073504999 10:0.041141 23:0.089354001 35:0.019311 45:0.067178003 63:0.086733997 87:0.062268 113:0.044705998 114:0.086470999 115:0.057537999 116:0.073701002 226:0.061818998 232:0.063289002 236:0.073128 248:0.061554 251:0.121144 275:0.098722003 312:0.086209998 338:0.28053701 350:0.085950002 419:0.056260999 436:0.101233 447:0.124142 719:0.085717 731:0.082212999 739:0.102232 760:0.070175 778:0.116404 919:0.24322 926:0.113858 928:0.091522999 929:0.098421998 933:0.069256 935:0.088803999 962:0.104699 993:0.067657001 1013:0.20596001 1026:0.143663 1122:0.10344 1218:0.105255 1413:0.13988 1475:0.111697 1529:0.137063 1618:0.122772 1808:0.16520301 2006:0.25423399 2658:0.129078 2707:0.172969 3039:0.331301 3130:0.362995 3836:0.166604 13984:0.25830299 #
-0.63725986623914232520604628007277 10:0.041064002 49:0.069238 56:0.073301002 70:0.064815998 75:0.053252999 99:0.087366 122:0.086993001 126:0.071220003 142:0.109279 156:0.038693 198:0.086047001 236:0.043109 356:0.079558 370:0.048486002 459:0.099297002 585:0.103957 596:0.25005499 671:0.075947002 719:0.085556 780:0.066788003 885:0.087573998 889:0.235938 952:0.109474 976:0.10255 1026:0.17773101 1037:0.112188 1119:0.099762999 1136:0.13846 1146:0.082672 1300:0.246273 1312:0.112665 1321:0.093944997 1341:0.322422 1415:0.131413 1442:0.324682 1650:0.094994999 2351:0.25555301 2664:0.18573 2711:0.136804 3365:0.130096 5407:0.18573 6938:0.41828999 #
-0.73722671498829195346758069717907 11:0.039978001 45:0.060063001 50:0.093116999 56:0.065661997 63:0.045802001 64:0.082258001 87:0.032882001 112:0.027191 113:0.039971001 114:0.045662999 115:0.051444001 116:0.065895997 119:0.069399998 126:0.056106001 169:0.102422 202:0.077437997 206:0.065373003 219:0.053885002 231:0.116166 238:0.076990999 258:0.063431002 338:0.25082701 340:0.069803998 351:0.057325002 448:0.055272002 493:0.104246 544:0.073977001 671:0.068031996 676:0.064746998 699:0.128305 719:0.18288399 874:0.066191003 933:0.061921 1013:0.215437 1130:0.35095999 1131:0.189036 1146:0.074056998 1341:0.18740299 1342:0.087471001 1353:0.080995001 1399:0.11468 1477:0.096741997 1478:0.116156 1663:0.143209 1760:0.113624 2171:0.114323 2184:0.089648001 2189:0.17494901 2535:0.110683 2925:0.159879 3606:0.13761701 12068:0.50656599 12069:0.230948 #
-1.0000000231766961178436758928001 6:0.043806002 11:0.022735 16:0.090539999 35:0.034889001 41:0.095734 45:0.071682997 49:0.074020997 59:0.066344 65:0.076087996 83:0.071570002 87:0.039243001 112:0.032451998 115:0.146511 123:0.076412 126:0.076140001 131:0.073302001 155:0.080149002 184:0.10016 205:0.059877999 219:0.064309001 238:0.15557601 239:0.024726 248:0.065683 256:0.070142001 276:0.076714002 313:0.073066004 337:0.092960998 338:0.26702201 401:0.101415 413:0.12485 419:0.060033999 428:0.106655 434:0.079209 440:0.089345999 458:0.086185001 470:0.074203998 494:0.096786998 498:0.101844 539:0.098043002 544:0.088289 616:0.104864 671:0.137472 716:0.166655 765:0.111721 786:0.14049099 818:0.105023 828:0.105992 852:0.197383 887:0.107332 1013:0.24032401 1121:0.131006 1217:0.084714003 1468:0.157582 1681:0.19258399 1976:0.156275 1994:0.120192 2026:0.151886 2073:0.14403801 2668:0.17348599 4299:0.179346 5079:0.218041 5232:0.179346 6319:0.22390001 7574:0.275626 #
-1.0000000231766961178436758928001 10:0.025935 11:0.032049999 15:0.027884001 35:0.012173 36:0.024502 45:0.071699999 48:0.048236001 50:0.038775001 56:0.046294998 68:0.075583003 69:0.034253001 75:0.033633001 76:0.026447 77:0.211549 95:0.048556998 104:0.033801999 108:0.147946 112:0.032458998 113:0.073537998 115:0.036270998 126:0.018849 142:0.048969999 154:0.216434 162:0.058072001 181:0.081593998 184:0.05917 191:0.138661 211:0.065543003 232:0.049449999 239:0.014607 257:0.053073 271:0.084565997 272:0.035188999 276:0.026766 313:0.043164 317:0.139994 338:0.112375 340:0.049215 341:0.052102 350:0.032000002 365:0.079159997 373:0.098251998 430:0.067694001 453:0.046668001 454:0.115266 539:0.057920001 596:0.051284 624:0.108755 656:0.053309001 690:0.064552002 732:0.095875002 738:0.077765003 740:0.063006997 757:0.088552997 776:0.083866 807:0.032809 825:0.049601 851:0.15943401 896:0.054981999 915:0.095325001 919:0.090553001 933:0.073918 993:0.042649001 1122:0.065206997 1129:0.105024 1138:0.243139 1146:0.052212998 1178:0.075776003 1297:0.084468998 1338:0.106514 1341:0.16376901 1342:0.18991201 1478:0.138661 1588:0.100252 1663:0.170955 1698:0.083572 1948:0.212229 1998:0.078929998 2006:0.1293 2045:0.112722 2691:0.075583003 2872:0.162829 2873:0.121111 2874:0.162829 2875:0.201672 2876:0.14196999 2877:0.162829 2878:0.12880901 2879:0.275693 2880:0.162829 2881:0.125883 #
-0.18432283938780355536657395987277 9:0.052648 14:0.087070003 41:0.092373997 59:0.108388 98:0.061879002 105:0.059858002 113:0.04603 126:0.073468 155:0.130941 172:0.159345 194:0.15996601 198:0.150289 199:0.092918999 201:0.279347 204:0.092454001 239:0.023858 248:0.063377 258:0.073045 263:0.178092 276:0.114081 290:0.062795997 295:0.132062 300:0.117295 315:0.072555996 327:0.061115 470:0.071598999 494:0.093391001 513:0.12746 523:0.179552 579:0.097312003 614:0.121925 682:0.17434201 700:0.116721 723:0.098788999 906:0.081822999 935:0.091434002 977:0.095225997 1209:0.099115998 1292:0.153147 1296:0.16408201 1342:0.100729 1368:0.105964 1569:0.24814001 1623:0.109153 2136:0.205608 2260:0.30896199 2750:0.168718 4653:0.210388 5232:0.29300201 7076:0.231884 #
1.0000000231766961178436758928001 9:0.047993001 35:0.018124999 36:0.036481999 50:0.057732999 58:0.083966002 85:0.068806998 87:0.058442999 98:0.095508002 100:0.26356399 105:0.032226998 119:0.072852999 122:0.115294 126:0.028065 139:0.118917 155:0.070497997 202:0.081290998 221:0.045301002 239:0.021748999 244:0.112405 276:0.039852999 324:0.076920003 327:0.055711001 350:0.047646001 357:0.094407998 404:0.077825002 426:0.077825002 465:0.083350003 544:0.077657998 568:0.25642601 578:0.12487 617:0.090352997 797:0.080544002 837:0.071617 843:0.19956 1012:0.17942899 1142:0.214378 1299:0.271882 1358:0.123575 1520:0.103354 1533:0.111145 1595:0.164059 1609:0.113115 1977:0.12154 2535:0.11619 3150:0.26253399 3151:0.222844 3152:0.164059 3153:0.183654 3154:0.242439 3155:0.196941 3156:0.174652 3157:0.159201 3158:0.242439 #
1.0000000231766961178436758928001 10:0.076888002 15:0.048824001 36:0.042904001 37:0.063594997 69:0.059978001 76:0.046308 85:0.137008 106:0.13984901 109:0.169891 112:0.033567999 114:0.1471 116:0.137739 126:0.033004999 137:0.058090001 138:0.078110002 155:0.140375 181:0.084381998 184:0.103607 190:0.117443 192:0.101022 204:0.167816 213:0.11379 221:0.053275 224:0.117443 236:0.080718003 238:0.095048003 239:0.025576999 240:0.056681 276:0.046868 310:0.12513 313:0.127969 317:0.116805 325:0.119204 350:0.056031998 357:0.111026 404:0.192073 415:0.100632 434:0.17195 457:0.089799002 572:0.10964 616:0.108474 682:0.089060001 701:0.102358 723:0.105906 780:0.073859997 799:0.108969 837:0.084224001 964:0.118533 993:0.074679002 1012:0.29203701 1119:0.110326 1168:0.14113601 1269:0.28920799 1342:0.107986 1427:0.109303 1647:0.21095601 2089:0.156414 3516:0.19092201 4004:0.225545 12979:0.28511301 #
1.0000000231766961178436758928001 11:0.051158 45:0.141856 60:0.061849002 63:0.051545002 71:0.108666 85:0.073765002 104:0.053955 137:0.052955002 138:0.071203999 155:0.075577997 183:0.096036002 187:0.272567 211:0.104619 219:0.060642 238:0.146704 240:0.123301 243:0.084251001 256:0.066142 276:0.072338998 310:0.23938499 317:0.27785099 338:0.085473001 404:0.083433002 444:0.153943 538:0.123535 554:0.201253 597:0.12545 621:0.115326 676:0.17388 719:0.08625 807:0.052370001 837:0.076778002 857:0.136333 894:0.068457998 916:0.134345 962:0.10535 993:0.115265 1004:0.073057003 1012:0.24823201 1014:0.110801 1168:0.128659 1317:0.095232002 1520:0.187603 1617:0.109929 1896:0.122541 2069:0.124216 2122:0.150474 2199:0.130722 3877:0.25990799 3878:0.187236 3879:0.25990799 3880:0.153942 #
1.0000000231766961178436758928001 3:0.088335998 9:0.054767001 11:0.02282 23:0.045603 30:0.100811 35:0.020683 37:0.061709002 44:0.041719999 62:0.074542999 63:0.054866999 76:0.044934999 87:0.066693 112:0.032573 119:0.083136 124:0.132827 126:0.032026999 137:0.056368001 142:0.049141001 143:0.064865999 156:0.070302002 178:0.107223 184:0.100535 211:0.111362 212:0.14354099 219:0.064549997 221:0.108488 244:0.053753 276:0.045478001 282:0.128546 287:0.11589 290:0.065324001 300:0.072065003 313:0.073339 322:0.080596998 323:0.102516 352:0.053721 365:0.1345 457:0.147534 475:0.114803 485:0.128098 497:0.099757999 499:0.121683 592:0.132945 597:0.16551299 600:0.130439 633:0.107562 682:0.14632 691:0.169163 701:0.099321999 723:0.060695 767:0.101229 793:0.143003 933:0.074176997 981:0.118898 993:0.122693 1012:0.085804999 1016:0.26427099 1131:0.107905 1298:0.118898 2042:0.147384 3238:0.21885701 3666:0.44242001 4518:0.224739 7605:0.241218 #
1.0000000231766961178436758928001 9:0.054754 11:0.022815 23:0.045591999 30:0.100787 35:0.035011999 44:0.04171 62:0.074525997 63:0.054854002 76:0.044923998 87:0.066676997 112:0.032565001 119:0.083116002 124:0.132797 126:0.032019001 142:0.04913 143:0.064851001 156:0.070285 178:0.107198 184:0.100511 211:0.111336 212:0.143508 219:0.064534999 221:0.108463 244:0.053741001 276:0.045467999 282:0.128516 287:0.115863 290:0.110577 300:0.121988 313:0.15387399 352:0.053707998 365:0.134469 435:0.111722 457:0.14749999 475:0.114777 485:0.128068 497:0.080464996 499:0.121655 592:0.13291401 597:0.165475 600:0.220801 633:0.107537 682:0.181318 701:0.099298999 723:0.060681 767:0.101205 793:0.14297 797:0.155586 933:0.074160002 981:0.118871 993:0.15204 1012:0.085785002 1016:0.26420999 1298:0.118871 1732:0.15107501 3238:0.218806 3666:0.41343099 4337:0.18163 4518:0.224686 #
-1.0000000231766961178436758928001 11:0.023355 13:0.113386 15:0.048486002 44:0.042697001 85:0.080357999 88:0.073521003 91:0.070807002 114:0.055982001 134:0.181006 142:0.050292 155:0.082332999 156:0.110885 184:0.102889 199:0.098922998 203:0.13044401 220:0.159739 240:0.134321 272:0.061190002 275:0.227099 276:0.078805 317:0.196399 350:0.055644002 352:0.054979 402:0.140159 404:0.15389 434:0.137767 592:0.080357999 597:0.16938999 600:0.226025 640:0.143831 730:0.103456 765:0.114766 780:0.124189 792:0.12735701 794:0.112247 797:0.094066001 837:0.083640002 857:0.251463 991:0.087196998 993:0.074161999 1012:0.148683 1168:0.140159 1172:0.157461 1219:0.120464 1285:0.16053399 1353:0.099298999 1520:0.120705 1534:0.14635199 1618:0.32113901 1736:0.108546 2088:0.185927 2104:0.165758 3669:0.18959901 3715:0.16053399 #
-0.1307468792480981634174241889923 18:0.11739 23:0.037836999 36:0.058485001 37:0.051199999 63:0.045522999 76:0.037283 85:0.065148003 93:0.066324003 112:0.045759 121:0.051963001 124:0.136599 126:0.026573 142:0.106393 143:0.091124997 155:0.066748999 160:0.085423999 181:0.115025 198:0.160778 202:0.076967001 212:0.07034 216:0.063529 221:0.042892002 223:0.067745 232:0.092735998 239:0.034864999 248:0.054701 287:0.16280299 352:0.075467996 399:0.105492 404:0.073686004 452:0.138403 584:0.155334 592:0.110305 597:0.137327 731:0.073059998 750:0.116215 797:0.076260999 807:0.046252001 839:0.121803 920:0.113983 945:0.091458 1016:0.30903101 1491:0.109705 1609:0.107099 1708:0.104977 2535:0.110011 2695:0.27451599 2936:0.21099199 3057:0.106552 3666:0.27593899 4759:0.35723999 4760:0.229544 4761:0.21099199 4762:0.21099199 4763:0.181587 #
-1.0000000231766961178436758928001 1:0.061760999 60:0.051647 63:0.072876997 69:0.045657001 85:0.061597999 91:0.054276001 108:0.05971 137:0.044220001 142:0.091992997 155:0.063111998 160:0.21076199 174:0.089729004 204:0.180044 216:0.060067002 238:0.072353996 239:0.019470001 258:0.059610002 271:0.066573001 272:0.046905 273:0.081595004 276:0.035677001 310:0.095252998 353:0.073372997 393:0.053752001 404:0.069669999 413:0.098311 434:0.062371001 453:0.062204 458:0.14242201 539:0.130714 568:0.087972 572:0.083461002 596:0.115739 614:0.099499002 616:0.082572997 670:0.090230003 719:0.121945 723:0.047614999 740:0.083982997 785:0.083851002 797:0.072104998 806:0.107772 825:0.111941 837:0.064112999 861:0.106457 979:0.088127002 991:0.06684 993:0.056848001 1012:0.175649 1013:0.072521001 1040:0.099017002 1119:0.083982997 1169:0.113419 1609:0.101262 1693:0.091617003 1866:0.117532 2264:0.16779 2574:0.152124 2691:0.100746 2739:0.146869 3603:0.146869 4418:0.273325 5575:0.493792 5577:0.176305 7853:0.16779 14596:0.21703599 #
-0.53964214124153986329446297531831 10:0.050239999 35:0.023582 85:0.089523003 97:0.114312 99:0.063129999 104:0.15625601 108:0.086779997 113:0.092432998 116:0.152384 126:0.036515001 135:0.181637 143:0.073955998 150:0.109381 155:0.091723002 199:0.186592 232:0.077284999 236:0.110686 238:0.105155 240:0.106174 257:0.102811 271:0.096754 356:0.097337 370:0.059319999 397:0.096850999 404:0.101255 588:0.122441 656:0.21672 676:0.088431999 723:0.069201 780:0.13835201 820:0.18261801 858:0.079720996 978:0.12876201 986:0.32823101 1012:0.205305 1198:0.129458 1217:0.16414601 1456:0.32881999 1558:0.16422901 1599:0.15662999 8106:0.46565101 #
-0.67023531354467713594402766830171 35:0.018405 36:0.037046 38:0.059514001 59:0.100331 69:0.051787999 85:0.1183 87:0.035050999 116:0.118931 119:0.073977999 124:0.166583 126:0.028499 127:0.086011998 137:0.084926002 145:0.060656 155:0.121208 202:0.082546003 209:0.086011998 210:0.081694998 213:0.098252997 219:0.120543 221:0.046000998 225:0.098924004 226:0.058917999 239:0.022084 244:0.080986999 248:0.058665998 257:0.080241002 276:0.084927998 350:0.048381999 404:0.165847 434:0.070748001 440:0.079801999 450:0.081050001 498:0.090965003 554:0.112587 596:0.077537 631:0.086668998 738:0.117574 739:0.097434998 797:0.081788003 825:0.074992999 858:0.06222 992:0.12865099 993:0.064482003 1012:0.160235 1016:0.331431 1317:0.090203002 1511:0.143315 1549:0.104328 1609:0.24105 1806:0.124226 1868:0.230739 1910:0.110991 2026:0.13566101 2067:0.13889 2262:0.13690899 2330:0.135056 2436:0.128176 3943:0.363428 7351:0.28855699 7352:0.194749 #
1.0000000231766961178436758928001 1:0.055751 10:0.031204 11:0.027361 15:0.033549 35:0.014647 36:0.061868999 41:0.04019 44:0.029544 104:0.068861 112:0.023065999 123:0.054313 126:0.022678999 179:0.066310003 186:0.083353996 213:0.078189999 239:0.017574999 258:0.091104999 270:0.086737998 275:0.074877001 315:0.053447999 318:0.174657 321:0.070147999 327:0.045019999 337:0.066076003 352:0.038042001 354:0.047396 392:0.056453999 397:0.060153998 441:0.093373999 474:0.059215002 491:0.142928 591:0.161264 685:0.135168 701:0.070334002 837:0.057874002 896:0.066154003 933:0.088936999 1013:0.192847 1026:0.064355001 1131:0.12937699 1289:0.097589999 1312:0.085614003 1363:0.123313 1535:0.113424 1701:0.123313 1948:0.107007 1967:0.12636299 2102:0.14841001 2711:0.17601401 3377:0.373247 3580:0.29426101 5576:0.13405 7170:0.164244 7513:0.170816 8916:0.154982 8917:0.27809 8918:0.289217 13321:0.180079 13953:0.180079 14411:0.195913 #
1.0000000231766961178436758928001 31:0.075898997 36:0.029314 38:0.047093999 56:0.055385999 75:0.040238 84:0.085129999 87:0.027736001 94:0.056287002 95:0.058092002 112:0.022936 142:0.034602001 149:0.107626 156:0.029237 157:0.080537997 162:0.069476001 236:0.032573 239:0.017476 243:0.063147001 249:0.050624002 276:0.054219 293:0.058708999 327:0.075793996 351:0.048354 370:0.036635999 390:0.066569 401:0.071676999 440:0.132522 459:0.075029001 478:0.090199001 499:0.085681997 523:0.062669002 562:0.106871 592:0.055287998 595:0.077748001 596:0.17129099 622:0.088875003 824:0.095266998 858:0.049235001 882:0.088875003 904:0.098958999 982:0.121688 986:0.143831 991:0.059994001 1002:0.114704 1013:0.065091997 1069:0.074115001 1240:0.094985001 1253:0.16985001 1341:0.222789 2008:0.134859 2171:0.096432 4036:0.29451299 4228:0.20167799 4670:0.40212899 5404:0.15410601 8124:0.163316 8407:0.35644999 8408:0.19480599 8409:0.179061 8410:0.179061 8411:0.19480599 #
1.0000000231766961178436758928001 8:0.061855 9:0.111468 11:0.032954998 14:0.077252999 15:0.040408 24:0.156077 41:0.081959002 45:0.103906 55:0.087438002 58:0.081725001 59:0.056798 74:0.106885 75:0.04874 76:0.038325001 85:0.066969998 86:0.078215003 87:0.033596002 105:0.031367 110:0.093702003 113:0.04084 126:0.057326 184:0.145183 199:0.082442001 204:0.138888 205:0.051261999 221:0.044092 236:0.039455999 238:0.18771601 241:0.041510999 245:0.108983 251:0.18737701 276:0.092561997 292:0.063525997 322:0.068742 337:0.134748 338:0.077598996 352:0.045818999 426:0.075746998 434:0.114815 453:0.067629002 493:0.062907003 596:0.074320003 656:0.077252999 670:0.166098 685:0.26843601 786:0.120275 828:0.15363701 896:0.079677999 993:0.104647 1013:0.16546699 1020:0.114054 1119:0.091307998 1169:0.123312 1307:0.128884 1317:0.285539 1335:0.27658099 1341:0.113088 1348:0.075503998 1617:0.099803001 1650:0.086943999 1736:0.090461001 1779:0.112774 1788:0.10141 2148:0.122409 2184:0.091596 2474:0.148523 2718:0.144282 3078:0.163353 3716:0.15354 5289:0.172611 12456:0.216894 #
1.0000000231766961178436758928001 18:0.047511 31:0.094152004 35:0.014576 44:0.04978 50:0.046427999 57:0.079446003 69:0.041014001 88:0.050625999 91:0.082552999 217:0.047476001 239:0.01749 266:0.101886 276:0.054264002 300:0.050785001 327:0.044801999 336:0.068203002 383:0.044741001 387:0.061857998 393:0.048285998 397:0.15621001 449:0.098382004 460:0.081670001 498:0.072039999 596:0.061406001 607:0.226496 670:0.170103 723:0.102069 753:0.18666799 803:0.071635999 837:0.057594001 894:0.051353 906:0.059983 1013:0.065145999 1026:0.064043999 1540:0.071837001 1601:0.080310002 1736:0.074744001 2006:0.091439001 2077:0.15910099 2396:0.098382004 2409:0.230836 3065:0.120897 3343:0.136655 3951:0.30432999 4029:0.29060501 4672:0.169991 4859:0.150728 5541:0.12925699 7471:0.368045 8423:0.169991 8429:0.179208 8430:0.179208 14322:0.194966 14323:0.194966 14324:0.194966 #
