SVM-light Version V6.02
0 # kernel type
3 # kernel parameter -d 
1 # kernel parameter -g 
1 # kernel parameter -s 
1 # kernel parameter -r 
empty# kernel parameter -u 
14598 # highest feature index 
2865 # number of training documents 
841 # number of support vectors plus 1 
1.0065101 # threshold b, each following line is a SV (starting with alpha*y)
-0.20262383027284872061279941135581 10:0.034451 11:0.017841 14:0.119899 18:0.052708998 23:0.105033 42:0.063657001 44:0.032618001 63:0.042895999 65:0.05971 76:0.035131 114:0.089749999 121:0.048965 125:0.088296004 196:0.155821 219:0.085447997 236:0.061236002 246:0.14641 273:0.137683 323:0.080150001 338:0.120436 340:0.110691 350:0.089208998 351:0.053688999 352:0.042001002 356:0.066747002 427:0.084909 433:0.059659 450:0.071211003 463:0.188628 493:0.057663999 512:0.093340002 533:0.15003601 545:0.079143003 577:0.234633 597:0.104402 652:0.30188999 765:0.087673999 801:0.1434 807:0.043582998 840:0.092958003 874:0.061992001 958:0.105156 990:0.1893 1127:0.076246001 1256:0.101444 1321:0.16540501 1346:0.12888899 1348:0.145247 1404:0.142037 1731:0.086471997 1888:0.10425 2033:0.225483 2277:0.140743 2462:0.35909101 4434:0.147999 4892:0.144842 5211:0.33662701 #
-0.22776846293056776660002071821509 23:0.056219 44:0.051433001 49:0.091595002 59:0.048487 83:0.052306 95:0.060070001 99:0.040316001 134:0.061363 142:0.060580999 143:0.079967 236:0.033682 241:0.035436999 272:0.043533999 285:0.089382 315:0.054954998 350:0.067028001 351:0.050000999 358:0.28965801 385:0.043141 458:0.062987 518:0.079990998 535:0.115387 665:0.071466997 775:0.093506001 780:0.052184001 807:0.040589001 850:0.115997 909:0.107743 933:0.054009002 954:0.20492101 956:0.080806002 974:0.079204001 995:0.083590001 1156:0.094723001 1374:0.079990998 1512:0.113093 1698:0.216971 1747:0.115997 1756:0.18571401 2033:0.124024 2578:0.163635 2814:0.285932 3105:0.139451 3183:0.139451 3840:0.35163 4290:0.2308 4292:0.143071 4758:0.25368199 5150:0.13489 12219:0.185157 14266:0.20143799 14267:0.20143799 14268:0.20143799 #
-0.48576717174825262413051518706197 9:0.040615 11:0.016922999 26:0.106982 35:0.015339 36:0.030874001 38:0.049598999 50:0.048858002 70:0.051580001 71:0.085780002 87:0.029211 93:0.059282001 122:0.040888 136:0.208304 137:0.070776999 149:0.066946998 208:0.043912001 221:0.038337 222:0.119283 226:0.049102001 241:0.061112002 248:0.048891999 277:0.162304 278:0.230223 279:0.180866 280:0.091445997 281:0.20354401 282:0.13435601 283:0.11158 284:0.082162 285:0.091036998 286:0.091036998 287:0.085943997 288:0.41045299 289:0.13122 290:0.048443999 291:0.14442 292:0.055234998 293:0.061832 294:0.234641 295:0.10188 296:0.14038301 297:0.067470998 298:0.268592 299:0.087641001 300:0.053443 301:0.120806 302:0.152604 303:0.170908 304:0.099744998 305:0.14780299 306:0.098604999 307:0.11306 308:0.105303 309:0.124612 310:0.090044998 311:0.074052997 312:0.068475999 313:0.092087001 314:0.091862001 315:0.055973001 316:0.075384997 317:0.084054001 318:0.108029 319:0.14038301 320:0.19598299 321:0.073462002 #
-0.23336971189537314419482072480605 13:0.085607998 41:0.043853 60:0.050870001 69:0.044969998 76:0.034720998 104:0.044378001 105:0.028417001 112:0.025169 142:0.037971001 209:0.074688002 233:0.087421 238:0.071266003 239:0.040245 273:0.168662 312:0.071347997 419:0.046562001 497:0.036729999 538:0.101607 552:0.127588 568:0.181844 569:0.26898801 585:0.086198002 611:0.128581 638:0.18449099 671:0.106621 802:0.112992 811:0.111917 853:0.11434 895:0.086048998 1037:0.157501 1093:0.079439998 1101:0.112559 1217:0.065702997 1425:0.13788299 1483:0.110897 1587:0.130712 1971:0.132559 2358:0.13561501 3639:0.12738299 4046:0.151832 4146:0.13561501 4286:0.179217 4382:0.33269399 6144:0.154001 6494:0.14627001 6756:0.186388 7448:0.29402301 11793:0.361949 11794:0.213773 #
-0.074786416979242029134944402812835 6:0.055707 11:0.035835002 15:0.035450999 22:0.117834 39:0.073734 44:0.052857 58:0.071698003 59:0.049830001 60:0.049263 75:0.04276 76:0.070563003 105:0.027519001 112:0.024374001 115:0.046114001 118:0.18455601 122:0.086580001 126:0.023964999 142:0.036770999 148:0.095853001 150:0.071787 205:0.044973001 206:0.058598999 226:0.049545001 229:0.072973996 239:0.018571001 243:0.067106001 250:0.072419003 258:0.056857999 267:0.120857 313:0.16166601 322:0.060309 340:0.062570997 392:0.059652999 395:0.079608001 434:0.059491999 440:0.067106001 572:0.079608001 596:0.065201998 628:0.19192199 701:0.074321002 765:0.083911002 767:0.075746998 780:0.090801001 797:0.068777002 804:0.078760996 855:0.067033 1178:0.163119 1277:0.141647 1333:0.23353601 1399:0.174051 1756:0.135419 1821:0.108589 2731:0.264227 5075:0.35291699 6410:0.30560899 6737:0.173553 8969:0.32218099 10436:0.207017 10437:0.207017 10438:0.207017 #
1.0000000231766961178436758928001 1:0.053477 2:0.114842 3:0.143185 4:0.098948002 5:0.055305999 6:0.050569002 7:0.13353799 8:0.049261 9:0.037200999 10:0.029931 11:0.026245 12:0.096924998 13:0.075255997 14:0.061524 15:0.032180998 16:0.104519 17:0.116529 18:0.045793999 19:0.059064999 20:0.121209 21:0.077266999 22:0.106966 23:0.030975999 24:0.073413 25:0.101341 26:0.057874002 27:0.077408001 28:0.090832002 29:0.43982801 30:0.115941 31:0.073216997 32:0.060717002 33:0.053667001 34:0.179924 35:0.014049 36:0.028279001 37:0.070970997 38:0.045430001 39:0.066932999 40:0.096115999 41:0.065272003 42:0.055305999 43:0.103053 44:0.047982 45:0.08275 46:0.18643799 47:0.163849 48:0.094256997 49:0.050468002 50:0.044751 51:0.061730001 52:0.076849997 53:0.081432 54:0.083759002 55:0.069634996 56:0.090464003 57:0.076576002 58:0.065085001 59:0.045233998 60:0.044718999 61:0.115309 62:0.050634 63:0.037269 64:0.066932999 65:0.051876001 66:0.194552 67:0.098948002 68:0.087232001 69:0.039531998 70:0.047244001 71:0.078569002 72:0.101341 73:0.080435 74:0.085123003 75:0.065720998 76:0.030522 77:0.087453999 78:0.22921599 79:0.13977601 80:0.084333003 81:0.059875999 82:0.089565001 83:0.048797 84:0.082121998 85:0.053335 86:0.062290002 87:0.045301002 88:0.082620002 89:0.054896999 90:0.23088001 91:0.079571001 92:0.070649996 93:0.054297999 94:0.054297999 95:0.05604 96:0.13977601 97:0.068103001 98:0.043724 99:0.037611 100:0.073178999 101:0.087232001 102:0.081093997 103:0.080274001 104:0.039011002 105:0.024979999 106:0.092177004 #
1.0000000231766961178436758928001 22:0.096456997 23:0.034621999 33:0.059983999 38:0.050776999 44:0.031674001 51:0.116821 52:0.085895002 69:0.044185001 76:0.057762001 92:0.1337 93:0.102756 129:0.099832997 131:0.094578996 145:0.087622002 202:0.070427999 205:0.077257998 239:0.018842001 241:0.036951002 244:0.04081 292:0.095742002 352:0.040785 387:0.066641003 457:0.066154003 473:0.23091701 497:0.075737 499:0.092382997 510:0.078734003 517:0.176044 518:0.199035 519:0.095141999 520:0.310074 521:0.28889099 522:0.178866 523:0.16124301 524:0.13547599 525:0.108961 526:0.11102 527:0.11102 528:0.310803 529:0.33346701 530:0.10257 531:0.13433599 532:0.14595801 533:0.086049996 534:0.12932099 535:0.120315 536:0.115745 537:0.14213599 538:0.099832997 539:0.074713998 540:0.130245 541:0.149832 542:0.102414 543:0.092992999 544:0.067281 545:0.076853998 546:0.081791997 #
1.0000000231766961178436758928001 6:0.038966998 18:0.059746999 22:0.112593 37:0.092593998 43:0.17885999 44:0.077592 49:0.111485 50:0.058385 59:0.059016 62:0.066060998 71:0.102509 75:0.050643001 81:0.078119002 85:0.069585003 99:0.083084002 105:0.055181999 126:0.028383 197:0.066334002 205:0.090182997 219:0.057204999 244:0.047637001 248:0.058426999 261:0.099032998 276:0.040304001 312:0.081830002 324:0.077789001 340:0.155518 350:0.048184 351:0.060858 387:0.077789001 443:0.128676 448:0.058678001 497:0.042126998 504:0.216289 560:0.078368999 623:0.083282001 631:0.205975 699:0.13621201 706:0.140442 707:0.202975 708:0.204862 709:0.131139 710:0.128607 711:0.415126 712:0.37419501 713:0.17194299 714:0.141185 715:0.205547 716:0.087557003 717:0.161001 718:0.199168 719:0.081362002 720:0.119902 721:0.093000002 722:0.078285001 723:0.053789001 #
1.0000000231766961178436758928001 10:0.041216999 12:0.078829996 23:0.119085 36:0.038941 41:0.053086001 60:0.061579999 75:0.053452 121:0.099186003 126:0.029957 134:0.078829996 142:0.045965001 205:0.056217 232:0.063405 236:0.043269999 239:0.023213999 240:0.051445998 241:0.045524999 248:0.061668001 272:0.055925999 276:0.072025001 350:0.050857 352:0.050248999 385:0.055420998 394:0.093277 396:0.096580997 415:0.15464699 453:0.074166998 470:0.181794 518:0.102761 539:0.271171 714:0.14901599 740:0.169544 771:0.092903003 780:0.113505 783:0.076373003 822:0.20769 823:0.31108099 824:0.126552 825:0.078829996 826:0.237863 827:0.154201 828:0.237468 829:0.138412 830:0.343027 831:0.159328 832:0.143251 833:0.242055 834:0.293401 835:0.113328 836:0.159328 837:0.076444 #
1.0000000231766961178436758928001 1:0.100329 9:0.146469 18:0.085915998 20:0.227403 23:0.058115002 24:0.137732 33:0.170477 35:0.026357999 36:0.089827999 87:0.050197002 107:0.131017 113:0.103315 121:0.079811998 139:0.17293499 142:0.062624 144:0.190806 149:0.115043 205:0.076591998 210:0.116998 212:0.108038 242:0.157142 247:0.110813 258:0.16395301 354:0.085294001 370:0.066304997 493:0.093992002 513:0.16896901 532:0.14470001 697:0.13707399 783:0.176175 1163:0.199898 1268:0.114161 1293:0.21274 1294:0.35256499 1295:0.17674901 1296:0.12847 1297:0.182896 1298:0.25654599 1299:0.15152 1300:0.198908 1301:0.28639999 #
-0.37815041505195517990145503972599 1:0.066899002 3:0.075062998 9:0.137097 22:0.187839 33:0.067137003 43:0.104011 44:0.035452001 58:0.081421003 59:0.056586999 63:0.046622999 64:0.083733 69:0.049454998 76:0.038183 80:0.105501 81:0.074904002 82:0.112045 87:0.056671999 88:0.103357 99:0.112278 121:0.111685 126:0.027214 147:0.091692001 244:0.095858 258:0.064567998 323:0.087113 389:0.075466 393:0.058223002 394:0.084738001 427:0.092285 458:0.073509999 473:0.108308 497:0.068391003 545:0.18052 555:0.101449 583:0.088775001 616:0.089442 631:0.082764 671:0.165255 700:0.103176 712:0.315541 833:0.104782 906:0.17259499 1133:0.080334 1149:0.095123 1151:0.108041 1196:0.104547 1218:0.095795996 1219:0.100022 1295:0.247334 1432:0.102954 1601:0.096836999 1711:0.204974 1712:0.197088 1713:0.112985 1714:0.141855 1715:0.15297 1716:0.190971 1717:0.118239 1718:0.197088 1719:0.23509 1720:0.216089 1721:0.20152301 #
-0.52693504780262501174803446701844 6:0.072557002 9:0.043063998 11:0.037657 21:0.089445002 24:0.14388999 35:0.027536999 37:0.048523001 49:0.058421999 50:0.051803999 56:0.104721 58:0.12756699 70:0.05469 87:0.052441001 91:0.054403 99:0.073716998 108:0.059849001 113:0.063748002 123:0.060309 126:0.042638998 144:0.145925 172:0.076980002 178:0.084311001 197:0.058855999 199:0.076003999 205:0.112774 208:0.078832 210:0.072190002 221:0.040649001 234:0.085395999 248:0.05184 258:0.059748001 292:0.058566 300:0.056666002 340:0.065751001 352:0.100801 383:0.049920999 410:0.068947002 420:0.078411996 450:0.071620002 457:0.068516001 470:0.099160999 494:0.076389998 536:0.119877 543:0.096313 558:0.136926 567:0.162356 623:0.073893003 635:0.092555001 656:0.149464 682:0.067952998 803:0.079930998 809:0.29735601 811:0.067264996 823:0.12461 829:0.34277299 830:0.28836399 833:0.096960001 835:0.095269002 837:0.064262003 868:0.111265 894:0.057298999 914:0.074069999 1257:0.123968 1295:0.109058 1353:0.076292999 1399:0.108023 1422:0.078730002 2104:0.12735499 2416:0.12461 2927:0.13212501 3682:0.27395999 4033:0.18967301 5855:0.18967301 6635:0.199958 #
-0.71038690145822447341572569712298 3:0.099854998 5:0.092037998 6:0.049702998 9:0.061907999 10:0.049810998 11:0.043676 12:0.095265001 15:0.053553998 20:0.201712 22:0.20241 30:0.113956 32:0.263666 33:0.26310199 34:0.142676 35:0.02338 36:0.047060002 37:0.166457 40:0.159953 41:0.064153999 44:0.04716 46:0.147842 48:0.272919 68:0.14516801 69:0.111389 73:0.133857 76:0.050794002 87:0.044526 99:0.14936 105:0.116057 112:0.036819998 113:0.054125998 134:0.16129801 137:0.063717 169:0.081914 221:0.058435999 232:0.045256 239:0.028054001 242:0.13938899 259:0.198394 371:0.138458 385:0.066977002 440:0.241909 453:0.089630999 497:0.090979002 541:0.131758 676:0.087676004 707:0.123367 1225:0.30068499 1296:0.113956 1512:0.175577 1773:0.178214 5328:0.209417 #
-1.0000000231766961178436758928001 7:0.094286002 11:0.031374998 16:0.124948 26:0.069186002 34:0.173536 35:0.016796 41:0.078029998 51:0.124948 58:0.163287 60:0.090515003 74:0.101762 75:0.046402998 76:0.061779998 87:0.031985998 94:0.064911999 99:0.044962998 105:0.029863 112:0.026450001 169:0.058844 205:0.048804 208:0.048082002 239:0.020152999 244:0.091603003 292:0.060481001 315:0.061289001 324:0.071277 352:0.043623 370:0.042249002 465:0.077234998 473:0.103501 484:0.084709004 518:0.089211002 522:0.112991 523:0.212906 529:0.311436 531:0.30153501 595:0.089661002 616:0.085472003 687:0.125526 740:0.18243501 780:0.098537996 838:0.14741901 872:0.382985 882:0.102493 885:0.076310001 904:0.114122 908:0.20736501 952:0.095393002 1349:0.165171 1403:0.106779 1669:0.142169 2164:0.12737501 2367:0.177719 2736:0.13306201 4277:0.23586699 12378:0.206497 #
-0.18954199014549510948768329399172 6:0.044151999 9:0.054995 10:0.044248 11:0.04809 22:0.19662 25:0.25365701 28:0.134279 33:0.13433 35:0.020769 36:0.041804999 43:0.122911 44:0.041894 60:0.066109002 63:0.055094998 64:0.098949 69:0.058440998 76:0.045122001 87:0.066969998 89:0.137408 98:0.064638004 105:0.096363001 112:0.055380002 114:0.054928001 126:0.032159999 145:0.115892 197:0.075162001 239:0.024921 244:0.091390997 290:0.065595999 321:0.099471003 353:0.093918003 354:0.067208 385:0.100737 457:0.148148 497:0.100173 631:0.165595 649:0.20012499 676:0.077885002 677:0.098434001 679:0.117044 712:0.463642 858:0.070212997 863:0.117272 868:0.33906999 1064:0.13667899 1149:0.19032501 1347:0.13314199 1469:0.121144 1501:0.113609 1669:0.103834 3605:0.186031 11438:0.27780899 #
1.0000000231766961178436758928001 6:0.052338 8:0.086324997 11:0.064819999 13:0.131878 15:0.095482998 36:0.049555 51:0.108176 63:0.065310001 76:0.149324 104:0.115749 105:0.074118003 112:0.038773 119:0.098958999 122:0.065628 123:0.091297001 126:0.038121998 128:0.097648002 132:0.170221 137:0.067096002 147:0.128443 156:0.049424 169:0.086257003 214:0.083612002 222:0.19146 272:0.1205 293:0.099246003 326:0.126835 327:0.12812901 354:0.079668999 383:0.075571001 419:0.121446 454:0.28894699 497:0.118745 550:0.133718 585:0.132787 592:0.093464002 623:0.11186 777:0.113079 986:0.143604 1008:0.14778601 1026:0.108176 1223:0.154855 1501:0.134672 1540:0.205446 1681:0.230096 2144:0.47806001 4012:0.19871099 5512:0.225327 #
1.0000000231766961178436758928001 8:0.102279 11:0.022834999 36:0.024605 41:0.033542 50:0.038936 87:0.02328 113:0.028299 115:0.036421999 131:0.043483999 137:0.093004003 142:0.049174 143:0.064909004 145:0.096133001 146:0.085003003 156:0.024538999 164:0.038552001 194:0.058084998 216:0.094966002 226:0.039131001 231:0.048574001 245:0.12786099 259:0.103727 271:0.050154001 276:0.026877999 291:0.067975998 298:0.23406699 303:0.080444001 351:0.040585 352:0.053755999 354:0.039556 393:0.084982999 396:0.061023999 414:0.058010001 419:0.035613 438:0.103727 518:0.064929001 550:0.13933 611:0.058084998 665:0.058010001 668:0.045290999 738:0.046121001 881:0.074596003 896:0.055211 992:0.085446 1321:0.059579998 1368:0.065145999 1866:0.088544004 1879:0.098035999 2139:0.254466 2288:0.106392 2360:0.110646 3474:0.123861 3759:0.11779 3876:0.172933 4465:0.224887 4556:0.121616 7734:0.123861 10227:0.27684101 10228:0.27684101 10229:0.254466 10230:0.27684101 10231:0.163507 10232:0.163507 10233:0.163507 10234:0.142561 10235:0.163507 10236:0.27684101 #
1.0000000231766961178436758928001 11:0.03221 15:0.039494 37:0.051442001 50:0.054921001 56:0.065572001 59:0.093992002 63:0.077441998 65:0.107796 68:0.107056 76:0.063423 91:0.12104 93:0.066638 104:0.047876999 112:0.027154 114:0.108815 115:0.086983003 129:0.230048 137:0.046989001 142:0.040964998 160:0.145319 164:0.054379001 180:0.072114997 208:0.049361002 215:0.12826 216:0.063828997 239:0.020688999 241:0.096818998 244:0.044810001 290:0.054455999 293:0.069504999 298:0.126524 310:0.171378 356:0.071168996 442:0.189996 443:0.057675999 444:0.136602 477:0.25483 481:0.121902 497:0.067093998 627:0.085827999 721:0.183589 760:0.062656999 807:0.078681998 852:0.097545996 912:0.097355999 956:0.156643 962:0.158279 964:0.095881999 968:0.154438 1225:0.14387999 1468:0.077876002 1736:0.088416003 2539:0.146309 2687:0.17154101 2998:0.139163 4446:0.42199999 6812:0.201085 12739:0.23063 12740:0.23063 #
1.0000000231766961178436758928001 23:0.238346 114:0.28589499 122:0.28816301 249:0.375761 392:0.416664 677:0.51234102 1012:0.44846201 #
1.0000000231766961178436758928001 18:0.05711 22:0.063565001 35:0.029665999 41:0.048076998 51:0.076984003 69:0.049300998 76:0.064448997 87:0.033367001 93:0.067716002 108:0.064476997 112:0.065844998 113:0.040562 114:0.046337001 120:0.201572 123:0.064971998 145:0.057743002 154:0.164967 157:0.164051 164:0.115966 208:0.105265 210:0.131678 217:0.057069 219:0.092582002 236:0.039186999 239:0.021024 244:0.045534998 257:0.129335 272:0.085754998 282:0.108892 300:0.061046999 310:0.102856 432:0.13495401 433:0.064640999 442:0.27101901 450:0.077156998 481:0.123874 492:0.085164003 504:0.134147 708:0.115655 888:0.099317998 906:0.072103001 912:0.098930001 1020:0.113277 1127:0.13987499 1237:0.121139 1273:0.16426601 1274:0.109628 1296:0.14459001 1422:0.084817 1479:0.177534 1979:0.24431001 2109:0.26852 2143:0.13094801 2247:0.14867499 2510:0.124358 3800:0.177534 7433:0.45207801 #
-0.94194004222131011427876501329592 1:0.061889999 11:0.017938999 18:0.089735001 26:0.066978998 38:0.052577 43:0.096224003 45:0.056563001 50:0.051791001 59:0.05235 68:0.100956 81:0.069296002 93:0.062840998 97:0.078818001 99:0.043528002 113:0.037641998 131:0.057840001 151:0.078498997 156:0.032641001 192:0.130476 205:0.047247 211:0.087544002 221:0.040638998 231:0.064611003 239:0.019509999 240:0.043237001 241:0.038261 244:0.042257 260:0.095867001 276:0.035751998 282:0.059684001 297:0.121098 298:0.119314 310:0.095450997 311:0.078498997 383:0.049908999 427:0.085376002 443:0.054389998 474:0.1113 484:0.082006 497:0.037369002 504:0.17545401 512:0.093852997 639:0.328805 670:0.090418003 707:0.145263 708:0.225242 715:0.18233199 750:0.110111 777:0.074680999 807:0.043823 837:0.064246997 869:0.100199 892:0.108682 894:0.057285 1040:0.099223003 1054:0.101213 1093:0.080821 1105:0.127325 1163:0.208785 1532:0.34779799 1553:0.210933 1604:0.092168003 1627:0.277592 1642:0.122701 1932:0.103656 1979:0.226722 3636:0.148812 14492:0.21748801 #
-0.34977565668758514583203123038402 8:0.203943 35:0.034352999 100:0.17893399 116:0.131108 156:0.14472499 162:0.163877 169:0.120356 219:0.10721 221:0.085860997 330:0.31759101 419:0.100084 474:0.13888299 494:0.161355 671:0.13535801 681:0.21607199 738:0.129612 807:0.092587002 818:0.17508499 933:0.1232 1033:0.180967 1269:0.22209901 1681:0.32105801 2493:0.25674501 4710:0.532332 #
-0.25835197906005347157076812436571 1:0.070263997 9:0.082759 24:0.28415799 36:0.037156001 48:0.073145002 58:0.085515998 60:0.058757 83:0.064115003 87:0.035154998 138:0.067644 198:0.13953 201:0.099389002 232:0.060497999 236:0.041285999 239:0.022150001 272:0.127336 286:0.22992399 312:0.082409002 317:0.17127199 324:0.078339003 328:0.095394999 353:0.083472997 356:0.076194003 419:0.091058001 449:0.21095701 452:0.057053 543:0.109317 623:0.142005 699:0.193332 812:0.097084001 889:0.225961 894:0.065035 897:0.129033 960:0.127628 1142:0.083671004 1312:0.25748301 1338:0.095394999 1449:0.21457 1517:0.122227 1529:0.27495801 1533:0.19165801 1570:0.111321 1613:0.127175 1932:0.117681 2189:0.18704399 2302:0.22695699 4997:0.246914 4998:0.207001 #
-0.096680332043930214402926992534049 11:0.017127 18:0.085670002 23:0.071827002 30:0.15878101 31:0.047779001 154:0.086322002 182:0.133352 186:0.088340998 208:0.044440001 238:0.069219999 239:0.031537 272:0.044872999 282:0.096474998 326:0.079970002 337:0.070029996 474:0.17520399 718:0.16867 721:0.078759998 759:0.071385004 777:0.120717 858:0.052478001 894:0.092597999 979:0.14274999 1020:0.100361 1127:0.073192 1168:0.215703 1258:0.115472 1317:0.224122 1321:0.15878101 1552:0.105835 1617:0.22916199 1713:0.099790998 1728:0.086484998 2067:0.374531 2144:0.246007 2153:0.118937 2445:0.26828599 3450:0.128754 3832:0.37148499 6000:0.174072 7415:0.18103699 11127:0.207636 #
-0.17355504677575894767471709201345 6:0.034373 11:0.030205 23:0.03565 35:0.016169 36:0.032545 38:0.052283999 44:0.032614 45:0.056247 64:0.077031001 69:0.045496002 97:0.078377999 98:0.050321002 99:0.043285001 102:0.093328997 113:0.063377 114:0.042762 126:0.025036 138:0.059250001 142:0.080619 143:0.050708 198:0.122216 232:0.031296998 240:0.072797999 272:0.046739999 287:0.090594999 291:0.089914002 313:0.057332002 315:0.059002999 336:0.22288001 392:0.062321 411:0.162846 426:0.069426 433:0.059652001 497:0.037160002 576:0.21561299 581:0.132241 617:0.080601998 668:0.12572099 702:0.123885 778:0.097464003 855:0.118571 859:0.100907 896:0.073028997 933:0.098180003 945:0.086171001 993:0.095913999 1168:0.18126801 1172:0.20364501 1418:0.105453 1422:0.078272 1805:0.101432 2430:0.101432 4510:0.53413498 4511:0.18131401 4512:0.15159 4513:0.21627399 4514:0.17108899 4515:0.140726 4516:0.160864 4517:0.18131401 4518:0.175687 #
1.0000000231766961178436758928001 9:0.060164001 11:0.025069 15:0.052044999 22:0.17299099 27:0.12518901 34:0.13865501 36:0.045733999 37:0.114778 43:0.079415999 46:0.143675 63:0.060272999 64:0.108248 69:0.063933998 76:0.049362 81:0.096833996 87:0.103257 92:0.19345701 93:0.20955101 94:0.087814003 95:0.090631001 98:0.119727 105:0.10542 137:0.061921999 156:0.045612998 181:0.188765 202:0.101906 208:0.065047003 222:0.104359 236:0.086042002 244:0.099979997 249:0.13372301 258:0.083472997 385:0.065089002 420:0.109548 427:0.119304 458:0.095031999 497:0.052219 541:0.12804499 623:0.103234 631:0.106995 700:0.133384 712:0.46384299 713:0.125882 760:0.082567997 869:0.140018 894:0.080049999 1149:0.122973 1260:0.168239 1334:0.137022 1349:0.22344799 1422:0.109992 1579:0.144062 4009:0.199573 7180:0.25479099 #
1.0000000231766961178436758928001 7:0.122509 11:0.067217998 32:0.094313003 36:0.043924998 38:0.070566997 44:0.044018999 58:0.101097 73:0.124941 75:0.060293 87:0.108448 98:0.16207001 105:0.092592999 112:0.034368001 115:0.065021999 131:0.077629998 155:0.084881999 172:0.33025399 195:0.128668 197:0.165738 198:0.097424001 205:0.063413002 211:0.117498 239:0.026186001 240:0.121784 244:0.056715 249:0.159192 267:0.081202 323:0.108165 352:0.056681 411:0.272425 484:0.110065 523:0.093905002 592:0.082846001 617:0.108786 659:0.19352201 676:0.081836 682:0.091181003 723:0.064038999 797:0.096977003 869:0.227697 907:0.14109001 953:0.127561 1107:0.159436 1368:0.116303 1427:0.111905 1623:0.119803 1669:0.109102 2113:0.179721 2538:0.185179 2927:0.30017701 3345:0.244716 5065:0.244716 #
1.0000000231766961178436758928001 5:0.067172997 9:0.117902 11:0.018827001 12:0.117722 16:0.074975997 24:0.089165002 36:0.034345999 44:0.034419 49:0.061296999 74:0.103388 83:0.059266999 87:0.032497 89:0.066675998 91:0.057078999 99:0.077344999 112:0.026873 119:0.068586998 122:0.045485999 126:0.026422 144:0.072954997 156:0.034255002 205:0.049584001 219:0.053254001 239:0.020475 240:0.045375999 279:0.28357899 284:0.091403 286:0.264274 340:0.068986997 352:0.044319998 354:0.055218 389:0.073269002 453:0.065416001 457:0.071888 474:0.068986997 497:0.066399999 544:0.174465 559:0.078373998 676:0.063988999 682:0.120715 700:0.169606 720:0.11162 765:0.156642 782:0.087100998 791:0.082603998 807:0.045990001 903:0.101731 970:0.16211 1142:0.077344999 1159:0.113338 1349:0.099110998 1574:0.12693299 1669:0.085308999 2259:0.118404 2958:0.305711 3173:0.151319 3397:0.126348 4697:0.15445399 6059:0.172902 8791:0.474886 11566:0.22824401 #
1.0000000231766961178436758928001 9:0.099510998 16:0.069197997 19:0.112104 24:0.172703 30:0.076760001 35:0.015749 37:0.112125 41:0.043214001 48:0.105659 51:0.117162 69:0.044314001 80:0.094535001 86:0.118225 89:0.061538 99:0.071383998 112:0.024801999 121:0.047687002 126:0.024386 147:0.13911299 178:0.171335 180:0.065869004 196:0.15175501 199:0.073599003 205:0.109204 231:0.062581003 239:0.018897001 241:0.037059002 286:0.093471996 299:0.089984 315:0.057470001 337:0.071047999 340:0.063670002 352:0.085842997 354:0.050962001 387:0.066835999 453:0.060375001 458:0.065869004 473:0.16432101 490:0.119438 493:0.056159001 543:0.15791 545:0.130505 627:0.132733 656:0.144734 682:0.111412 897:0.110085 928:0.126377 967:0.086145997 1151:0.096810997 1203:0.10701 1258:0.117151 1295:0.105606 1450:0.079784997 1713:0.101242 1737:0.203253 1798:0.104278 1888:0.101529 1902:0.084941 1926:0.104278 1941:0.116611 2075:0.23741999 2376:0.256944 3768:0.15175501 4163:0.149618 4218:0.171122 6552:0.162857 7176:0.171122 8112:0.35666999 #
1.0000000231766961178436758928001 12:0.16677 15:0.044673 37:0.098520003 44:0.066606998 45:0.067845002 51:0.085693002 60:0.062077999 83:0.067737997 88:0.067737997 99:0.052211002 105:0.072774 123:0.122451 145:0.16771901 164:0.104144 170:0.089250997 181:0.162027 192:0.092432 232:0.090084001 248:0.062166002 293:0.078617997 350:0.051268 351:0.064751998 383:0.059863999 394:0.22438399 401:0.095985003 426:0.14178699 450:0.085885003 452:0.060277998 473:0.120185 530:0.127391 536:0.243397 567:0.194693 617:0.097221002 654:0.097361997 713:0.182946 722:0.083295003 731:0.08303 759:0.089685999 829:0.364097 858:0.065931998 863:0.186451 874:0.074766003 885:0.088610999 920:0.219327 1374:0.103591 1459:0.121402 1512:0.14646 1681:0.107653 1713:0.299182 1731:0.104291 1961:0.21168301 2747:0.260869 #
-0.36339173085362647119822554486746 6:0.044505 9:0.17070401 35:0.020935001 36:0.042137999 37:0.131079 41:0.057445001 44:0.042227998 51:0.091985002 83:0.072713003 87:0.067504004 93:0.080909997 105:0.063024998 113:0.048464999 115:0.062376998 121:0.063391 126:0.054885998 143:0.065655999 202:0.093893997 216:0.077499002 240:0.055670001 251:0.131332 276:0.046032 286:0.124252 346:0.13496301 350:0.055032 354:0.067745 411:0.12453 427:0.109925 473:0.12901001 497:0.081464 544:0.214046 682:0.183567 700:0.122897 728:0.123704 758:0.136537 765:0.113504 832:0.155012 838:0.108528 863:0.118207 1004:0.078712001 1052:0.204841 1104:0.13777 1299:0.120345 1316:0.14038301 1348:0.089602001 1349:0.121596 1405:0.110829 1512:0.157214 1667:0.166862 1681:0.115558 1771:0.159576 1818:0.18061499 3093:0.19160201 3625:0.227474 3654:0.21648701 3822:0.189494 3931:0.208281 4006:0.18564899 4121:0.171222 5004:0.196274 #
-0.71224875321769165470442430887488 6:0.098111004 11:0.044780999 12:0.078803003 16:0.084977001 44:0.081868999 49:0.069472998 50:0.061602999 51:0.084977001 60:0.104229 76:0.088177003 83:0.067172997 99:0.108655 114:0.051148001 145:0.063738003 205:0.117939 208:0.093745001 216:0.071594998 221:0.048338 239:0.023207 240:0.087076001 256:0.065831997 272:0.055907 323:0.095858999 352:0.105418 394:0.093245998 395:0.099480003 402:0.128057 414:0.091779999 415:0.091306999 417:0.15711901 443:0.064694002 447:0.124329 463:0.133241 535:0.148182 560:0.082687996 568:0.104857 623:0.087871 676:0.072525002 713:0.255689 770:0.100737 771:0.092872001 829:0.361058 834:0.36354101 874:0.074142002 1134:0.111404 1285:0.14667401 1509:0.13621099 1540:0.161387 1713:0.124329 1817:0.169874 2658:0.218877 2750:0.164111 3142:0.17700499 3605:0.17322899 10391:0.258692 #
-0.10316630683769981158270923060627 6:0.035613999 11:0.031295002 13:0.089736 30:0.081652001 36:0.070765004 38:0.054171 92:0.084243998 121:0.085887 122:0.075609997 131:0.059594002 137:0.077301003 143:0.088955998 156:0.056940999 158:0.27943799 231:0.066569999 239:0.034035001 244:0.073716 249:0.058231998 256:0.057025 272:0.048427001 276:0.036835998 448:0.177113 464:0.071096003 497:0.038502 539:0.079708003 595:0.15142199 600:0.10565 611:0.079604 617:0.083511002 628:0.098990001 655:0.090043001 668:0.062070001 723:0.049160998 812:0.088106997 813:0.090668999 824:0.109585 839:0.118904 858:0.056634001 1002:0.131942 1069:0.144347 1171:0.153249 1218:0.091311 1347:0.107393 1426:0.102729 1468:0.075664997 1824:0.22528601 2170:0.19537599 13712:0.53472501 13713:0.22408199 13714:0.22408199 13715:0.22408199 13716:0.22408199 #
-1.0000000231766961178436758928001 5:0.071162999 6:0.113211 15:0.041407 16:0.079429001 22:0.065582998 37:0.053934 40:0.29512301 43:0.063184999 52:0.098884001 60:0.057539999 69:0.050866999 76:0.039273001 104:0.050195999 105:0.032141998 123:0.067034997 142:0.072719999 149:0.078900002 162:0.086236998 175:0.124105 205:0.110239 229:0.085235998 239:0.021691 256:0.061533999 272:0.052257001 350:0.047520999 394:0.18291 395:0.092984997 402:0.119697 443:0.102385 447:0.116211 452:0.055872001 464:0.076718003 567:0.106584 568:0.16594701 593:0.29493499 671:0.071229003 713:0.16957401 764:0.096179999 829:0.30862501 834:0.161919 837:0.071428999 874:0.069302 897:0.21394899 1103:0.121615 1217:0.074317999 1285:0.137098 1353:0.084802002 1690:0.167394 1713:0.19676299 2113:0.25206801 2338:0.135106 2551:0.191017 3142:0.165448 3616:0.19642401 4931:0.17174 5131:0.158783 #
-0.10671554236352762123907211844198 10:0.025935 11:0.032049999 15:0.027884001 35:0.012173 36:0.024502 45:0.071699999 48:0.048236001 50:0.038775001 56:0.046294998 68:0.075583003 69:0.034253001 75:0.033633001 76:0.026447 77:0.211549 95:0.048556998 104:0.033801999 108:0.147946 112:0.032458998 113:0.073537998 115:0.036270998 126:0.018849 142:0.048969999 154:0.216434 162:0.058072001 181:0.081593998 184:0.05917 191:0.138661 211:0.065543003 232:0.049449999 239:0.014607 257:0.053073 271:0.084565997 272:0.035188999 276:0.026766 313:0.043164 317:0.139994 338:0.112375 340:0.049215 341:0.052102 350:0.032000002 365:0.079159997 373:0.098251998 430:0.067694001 453:0.046668001 454:0.115266 539:0.057920001 596:0.051284 624:0.108755 656:0.053309001 690:0.064552002 732:0.095875002 738:0.077765003 740:0.063006997 757:0.088552997 776:0.083866 807:0.032809 825:0.049601 851:0.15943401 896:0.054981999 915:0.095325001 919:0.090553001 933:0.073918 993:0.042649001 1122:0.065206997 1129:0.105024 1138:0.243139 1146:0.052212998 1178:0.075776003 1297:0.084468998 1338:0.106514 1341:0.16376901 1342:0.18991201 1478:0.138661 1588:0.100252 1663:0.170955 1698:0.083572 1948:0.212229 1998:0.078929998 2006:0.1293 2045:0.112722 2691:0.075583003 2872:0.162829 2873:0.121111 2874:0.162829 2875:0.201672 2876:0.14196999 2877:0.162829 2878:0.12880901 2879:0.275693 2880:0.162829 2881:0.125883 #
1.0000000231766961178436758928001 1:0.070762001 3:0.079397999 6:0.103127 18:0.102599 35:0.018591 37:0.1164 51:0.081684001 60:0.059174001 65:0.068645 76:0.040387999 87:0.059944998 89:0.122994 94:0.071849003 99:0.084265001 113:0.043037999 120:0.12631901 126:0.048739001 142:0.092693999 143:0.098715998 160:0.156684 183:0.091883004 212:0.076200001 216:0.068820998 232:0.035985 236:0.0704 241:0.043745998 259:0.15775099 283:0.135235 323:0.092143998 325:0.103966 327:0.057142001 336:0.086989 351:0.061723001 352:0.081753999 354:0.060157999 393:0.061586 440:0.080606997 450:0.081867002 453:0.071268998 492:0.090363003 497:0.042725999 556:0.121972 585:0.100267 597:0.070887998 617:0.092673004 668:0.068879001 670:0.10338 745:0.33306399 811:0.076889001 824:0.121607 837:0.073457003 952:0.105589 995:0.103188 1127:0.148413 1171:0.100442 1317:0.091113001 1347:0.119175 1427:0.09533 1477:0.176365 1518:0.111593 1764:0.14476 2009:0.115723 2089:0.136419 2608:0.39531901 6000:0.20847 10972:0.248666 10973:0.248666 #
1.0000000231766961178436758928001 5:0.086724997 21:0.254273 30:0.107378 33:0.084155001 35:0.022031 198:0.098351002 236:0.049272999 247:0.09262 1698:0.39466301 2218:0.233114 3529:0.28148699 3916:0.53268999 3917:0.25693101 3918:0.49893799 #
1.0000000231766961178436758928001 6:0.037080001 11:0.032584 15:0.039953001 22:0.063280001 23:0.038458001 37:0.05204 44:0.05957 51:0.076640002 58:0.080805004 63:0.078341998 64:0.174393 69:0.049079999 75:0.048191 76:0.116693 91:0.058346 93:0.067413002 105:0.052510999 114:0.046130002 126:0.045729 138:0.063918002 146:0.071636997 156:0.035014998 157:0.096458003 208:0.084546998 210:0.077422999 219:0.054435998 222:0.168128 232:0.033762999 242:0.103989 246:0.093272999 250:0.081616998 321:0.083538003 337:0.078689002 338:0.076725997 452:0.053909998 459:0.089859001 485:0.108027 497:0.067873999 545:0.085368 554:0.1067 716:0.083318003 738:0.065810002 767:0.085368 858:0.058967002 892:0.116589 930:0.11376 994:0.120597 1005:0.13658699 1040:0.106442 1202:0.12479 1317:0.17940301 1334:0.105188 1339:0.127434 1448:0.198682 1571:0.108577 1717:0.117345 1797:0.105188 1801:0.222865 1888:0.112448 2144:0.179361 2148:0.121032 2390:0.18952601 2414:0.127995 3618:0.14801 4142:0.14801 4601:0.14921901 4770:0.18456601 11077:0.489629 #
1.0000000231766961178436758928001 3:0.118953 12:0.067027003 18:0.053619001 37:0.083097003 44:0.05618 50:0.088716 63:0.043637 69:0.046287 94:0.063575998 104:0.095858 122:0.092023 123:0.061000001 151:0.079416998 219:0.051337998 244:0.042750999 248:0.052434001 261:0.088875003 272:0.047552001 292:0.14135601 300:0.057314001 313:0.058327999 315:0.060028002 316:0.080845997 354:0.053231001 365:0.10697 393:0.092266999 414:0.078064002 415:0.077661 448:0.089160003 458:0.179533 474:0.066504002 497:0.090216003 579:0.080509 623:0.074739002 633:0.085546002 639:0.26837999 661:0.144613 671:0.064815998 699:0.072196998 713:0.091136001 738:0.105084 858:0.055610999 894:0.057955001 1126:0.063924 1540:0.081073001 1553:0.126037 1615:0.208672 1788:0.160107 1902:0.088721 2616:0.114561 3955:0.119662 4520:0.30322301 6251:0.25490701 6306:0.24947 7797:0.32482201 7798:0.37254599 7799:0.20224801 #
1.0000000231766961178436758928001 11:0.040355001 18:0.056809999 35:0.029510001 36:0.035080999 43:0.060917001 44:0.035154998 63:0.046232998 76:0.037864 81:0.074277997 111:0.103907 112:0.027448 137:0.047497999 169:0.061062001 211:0.093838997 223:0.068801999 239:0.020912999 282:0.21738 313:0.147471 320:0.131523 419:0.050776999 443:0.139121 481:0.123222 504:0.188069 654:0.22703999 695:0.14455999 888:0.098794997 945:0.092885002 1110:0.093199 1127:0.082176998 1169:0.121828 1553:0.226099 1557:0.113336 1647:0.101876 2542:0.214284 2788:0.228522 3108:0.170534 3183:0.161387 3955:0.126784 4196:0.18022899 4233:0.142545 4903:0.15610901 6949:0.170534 10275:0.214284 12412:0.233126 12413:0.233126 12414:0.233126 12415:0.233126 12416:0.233126 #
-0.20954257139441218038555803104828 5:0.106792 19:0.114051 21:0.088119 22:0.098419003 23:0.074135996 27:0.088279001 43:0.094819002 50:0.051034998 69:0.076334 76:0.034809001 105:0.028488001 114:0.088927001 156:0.032164 169:0.056134999 195:0.19825099 205:0.078828998 227:0.078201003 236:0.100043 241:0.037702002 282:0.058812 293:0.064588003 315:0.058467999 350:0.042118002 351:0.053197 354:0.123723 370:0.040305 387:0.177432 454:0.089603998 481:0.113279 622:0.097774997 656:0.118798 676:0.060084 685:0.087329999 719:0.071119003 754:0.15439101 902:0.128499 951:0.083323002 1396:0.107441 1698:0.38332701 2710:0.134895 2929:0.12770601 3916:0.27488101 4086:0.33905399 5259:0.143512 5292:0.165686 5846:0.125466 6070:0.19699199 6298:0.214314 6299:0.31638101 6300:0.214314 #
-0.69520964309397692559855386207346 5:0.066376999 6:0.060690999 15:0.038621999 21:0.092734002 22:0.14597499 23:0.078019999 34:0.24554101 35:0.016861999 43:0.058935001 44:0.034010999 49:0.060570002 63:0.044729002 69:0.047446001 76:0.062022999 89:0.065885998 94:0.065167002 99:0.045139998 105:0.029981 115:0.050239999 156:0.033849001 160:0.083933003 198:0.075274996 221:0.042142998 232:0.032637998 236:0.111097 239:0.020233 241:0.067179002 272:0.082528003 300:0.058749001 351:0.055983 356:0.069597997 387:0.121158 443:0.056403 499:0.099198997 565:0.121626 656:0.073839001 677:0.135306 685:0.155608 741:0.081625 912:0.095206998 914:0.076793 1032:0.17506699 1589:0.18565001 1698:0.35646999 2165:0.096150003 2274:0.124285 2520:0.123731 2601:0.29522401 3916:0.289278 4086:0.149526 6483:0.178418 6585:0.183213 7546:0.396808 13419:0.225539 #
-0.92379001447788233747360209235922 10:0.037108999 16:0.160615 19:0.073229998 23:0.038405001 36:0.03506 42:0.068568997 75:0.048124999 112:0.027431 113:0.040323999 122:0.046432 190:0.095972002 195:0.102699 232:0.070757002 241:0.069398001 244:0.095000997 246:0.093144 282:0.108255 290:0.055013001 368:0.118355 370:0.043816999 415:0.139235 419:0.050747 443:0.122277 448:0.05576 452:0.053835001 458:0.20338801 497:0.067780003 504:0.205534 519:0.105537 527:0.123149 535:0.22596601 595:0.092987001 690:0.092366003 726:0.110143 741:0.142768 783:0.164085 792:0.104799 807:0.046946 840:0.10013 892:0.116428 894:0.061367001 956:0.093461998 1054:0.108427 1146:0.074711002 1163:0.1321 1209:0.147017 1217:0.071608998 1312:0.101816 1321:0.084898002 1342:0.14940999 1398:0.117568 1514:0.132771 1600:0.28741199 1601:0.095972002 2148:0.120865 3835:0.25230101 4413:0.167844 4520:0.25904399 6306:0.15601701 7797:0.34394899 #
-1.0000000231766961178436758928001 6:0.033728 12:0.064646997 18:0.14437599 22:0.137354 35:0.015866 36:0.05407 37:0.047336001 39:0.075586997 45:0.055192001 86:0.070344001 89:0.061995 91:0.053072002 94:0.061317999 99:0.042474002 104:0.092455 105:0.028209999 119:0.063772 126:0.041595001 162:0.075686 164:0.050037999 194:0.075390004 197:0.057417002 208:0.045421001 219:0.103912 276:0.073210999 282:0.058237001 313:0.056256998 324:0.067332 493:0.095792003 496:0.10441 504:0.171203 539:0.075488001 560:0.067832999 611:0.075390004 657:0.110902 888:0.152273 912:0.15167899 956:0.085129999 962:0.08602 1017:0.198504 1027:0.095903002 1127:0.12666 1135:0.098509997 1422:0.076803997 1477:0.088896997 1531:0.14069501 1604:0.089934997 2042:0.113055 2107:0.14210901 2598:0.106736 5883:0.157847 7311:0.36178499 8961:0.388313 8962:0.50641698 #
-0.58774021749642324508045021502767 8:0.068442002 11:0.060123999 43:0.068226002 59:0.14997 60:0.062130999 76:0.042406999 95:0.077859998 98:0.127488 103:0.11153 105:0.034706999 112:0.03074 142:0.046376999 156:0.066345997 164:0.12919401 192:0.156636 219:0.060918 231:0.131329 236:0.043657001 239:0.023422001 241:0.109607 249:0.067850001 291:0.183786 298:0.14323699 337:0.088059001 351:0.064808004 354:0.063165002 385:0.055916999 389:0.083812997 390:0.089220002 460:0.10937 484:0.098448001 492:0.16064399 497:0.094145998 510:0.165711 527:0.138005 550:0.295973 617:0.097305 810:0.121197 824:0.127685 837:0.077128001 928:0.092511997 993:0.115791 1025:0.123101 1135:0.20520499 1209:0.097305 1368:0.21831501 1557:0.302899 1709:0.16433901 2083:0.245847 2339:0.166988 3367:0.201851 3979:0.21209501 4846:0.17864799 8579:0.218889 #
1.0000000231766961178436758928001 6:0.054629002 8:0.090103 14:0.066463999 35:0.025698001 36:0.051724002 54:0.090484001 55:0.075226001 60:0.048308998 75:0.041933 83:0.052715 88:0.052715 99:0.068793997 109:0.050693002 115:0.076566003 164:0.047867 197:0.054924998 205:0.115082 214:0.051543999 239:0.018211 241:0.074950002 244:0.039444 295:0.240557 315:0.055383999 337:0.068470001 370:0.038178999 394:0.190946 395:0.16383401 411:0.090281002 419:0.044218 427:0.079691999 433:0.055994 473:0.196281 532:0.083319999 536:0.11187 566:0.109477 568:0.082286999 579:0.074281 593:0.146248 654:0.075768001 676:0.056915 739:0.080348 764:0.080751002 806:0.100808 829:0.30314001 837:0.101538 840:0.14772201 861:0.099578001 863:0.085697003 874:0.058184002 935:0.069793999 1147:0.161632 1326:0.104935 1484:0.109026 1623:0.083319999 1690:0.29493701 2495:0.144188 2719:0.122498 3559:0.164912 3868:0.14053901 5367:0.17700399 7041:0.20301101 7042:0.20301101 7043:0.315945 7044:0.20301101 #
1.0000000231766961178436758928001 6:0.083379999 8:0.110603 12:0.103696 31:0.046264 37:0.075929001 40:0.174109 76:0.055289 83:0.052205998 87:0.028625 93:0.058092002 105:0.074611001 112:0.023670999 183:0.074289002 192:0.071236998 208:0.072857 224:0.082815997 240:0.039969999 248:0.047911 272:0.043450002 276:0.033050001 312:0.067102 335:0.124671 352:0.039039999 450:0.066192001 494:0.070600003 497:0.034545001 519:0.091069996 536:0.110791 538:0.095560998 556:0.098617002 565:0.108421 593:0.34562299 616:0.076491997 713:0.14099599 743:0.080105998 783:0.059335999 829:0.28060901 837:0.100559 1019:0.095045 1271:0.17923801 1623:0.13971099 1979:0.123786 2163:0.100792 2323:0.10934 2437:0.113428 3096:0.14954101 3482:0.137566 3616:0.163321 3619:0.377942 4387:0.147071 4483:0.14483701 5399:0.14092 6551:0.38782701 6552:0.155433 #
1.0000000231766961178436758928001 9:0.040463999 11:0.016860999 13:0.081857003 15:0.035004001 23:0.057048 35:0.015282 36:0.030758999 44:0.030825 56:0.058116999 59:0.049201999 75:0.042220999 83:0.053077001 88:0.053077001 97:0.074078001 113:0.035378002 121:0.078346997 123:0.056667998 126:0.023662999 143:0.047926001 150:0.120015 155:0.059439 156:0.030678 164:0.101145 174:0.084509 239:0.018337 241:0.060885001 244:0.039714999 256:0.052018002 286:0.216436 315:0.055764999 392:0.058901999 453:0.058584001 484:0.13049901 543:0.090498999 560:0.065335996 565:0.186637 616:0.077768996 697:0.079471998 897:0.10682 903:0.191199 928:0.072426997 953:0.089326002 970:0.245813 1142:0.193378 1223:0.096119002 1338:0.078973003 1405:0.080900997 1432:0.089518003 1488:0.113153 1606:0.105657 1618:0.097156003 1667:0.121803 1806:0.103146 2062:0.200664 2551:0.161477 3216:0.178223 3371:0.103837 4035:0.46506199 4580:0.145181 4852:0.187887 4913:0.187887 6237:0.16170201 7212:0.204408 7213:0.204408 #
1.0000000231766961178436758928001 6:0.037147999 8:0.061271001 11:0.01928 16:0.129999 19:0.073464997 35:0.017473999 36:0.073813997 41:0.081184 44:0.073971003 54:0.104179 60:0.055620998 69:0.083251998 75:0.081743002 99:0.046780001 108:0.064305 112:0.027519001 126:0.027058 142:0.041517001 164:0.055110998 206:0.13884801 216:0.109527 232:0.057269 241:0.069620997 272:0.085527003 300:0.060883999 337:0.078832 351:0.058017001 368:0.118735 383:0.053638 415:0.082497999 431:0.119549 443:0.058453001 506:0.11643 671:0.068852998 764:0.157415 771:0.083912998 780:0.102521 803:0.145409 811:0.072273001 863:0.098667003 885:0.134426 903:0.104179 904:0.30983099 1100:0.11643 1171:0.159851 1347:0.112019 1517:0.115704 2077:0.112653 3409:0.184902 4772:0.65157402 10594:0.23373599 #
1.0000000231766961178436758928001 6:0.055799998 8:0.054358002 15:0.03551 18:0.050531998 21:0.085261002 35:0.015503 37:0.110373 43:0.054186001 54:0.092425004 56:0.058956999 65:0.057243001 87:0.029524 105:0.076954 156:0.081208996 165:0.102021 205:0.076273002 208:0.075144999 224:0.085417002 239:0.018602001 272:0.044814002 276:0.034086999 299:0.088578999 337:0.118415 350:0.068999998 370:0.038998 393:0.051357001 395:0.079742 450:0.068269998 473:0.161754 568:0.084051996 593:0.252929 793:0.107185 829:0.110912 858:0.052409001 930:0.101108 1020:0.100229 1116:0.104295 1119:0.080239996 1435:0.088936999 1444:0.16404 1468:0.070019998 1731:0.082900003 2279:0.136169 2443:0.131549 3401:0.17384399 3612:0.20736399 3613:0.20736399 3614:0.14938401 3615:0.351098 3616:0.168449 3617:0.168449 3618:0.131549 3619:0.41704401 3620:0.168449 3621:0.154236 3622:0.17384399 3623:0.168449 #
-0.96530829955478025805604147535632 6:0.095083997 10:0.039932001 11:0.035014 15:0.042932998 35:0.018743999 36:0.037726998 51:0.17283399 59:0.102177 62:0.067552 76:0.040720999 83:0.065100998 98:0.152218 164:0.059114002 203:0.115506 217:0.061051 221:0.046847001 239:0.022491001 249:0.170011 258:0.116589 315:0.068397999 321:0.15199199 350:0.049272001 392:0.072244003 396:0.093571 426:0.13626599 430:0.104231 446:0.167886 474:0.075778 491:0.087155998 572:0.096412003 616:0.095385998 631:0.23031899 661:0.097321004 738:0.070719004 818:0.095530003 837:0.125397 848:0.151282 990:0.30924401 1037:0.109097 1100:0.124887 1134:0.107968 1505:0.17356201 1517:0.124108 1533:0.114938 1623:0.26850501 1624:0.356047 1723:0.13409799 1801:0.141445 1932:0.202316 2033:0.15436199 8791:0.218596 8792:0.23044901 #
-0.47249612480064367980858719420212 8:0.046145 19:0.055328 35:0.013161 36:0.026489001 43:0.096533 44:0.026546 73:0.075346 105:0.06106 146:0.054049999 151:0.063536003 180:0.093197003 208:0.037675999 239:0.015791001 256:0.044797 257:0.057376001 268:0.082558997 290:0.041563999 293:0.089823999 302:0.130932 367:0.082777001 396:0.065699004 435:0.071103998 453:0.050452001 498:0.065044999 656:0.057631999 679:0.074165002 829:0.094154999 855:0.057 916:0.090989999 967:0.071988001 975:0.064231999 1004:0.083778001 1069:0.066973001 1126:0.107326 1375:0.094538003 1398:0.088827997 1424:0.070494004 1488:0.097446002 1549:0.074600004 1612:0.116705 1736:0.114262 1803:0.115595 2099:0.108382 2279:0.242589 2365:0.25986901 2888:0.098357998 3018:0.123384 3051:0.111673 3598:0.12876999 3619:0.390515 3622:0.147578 3623:0.142997 3737:0.139255 4465:0.142997 6291:0.142997 7352:0.139255 8313:0.153483 8314:0.17603301 8315:0.17603301 8316:0.17603301 8317:0.17603301 8318:0.161805 8319:0.17603301 8320:0.17603301 8321:0.17603301 8322:0.153483 #
-0.39098204557691046412415403210616 6:0.040054999 10:0.040142 35:0.018842001 37:0.095181003 41:0.051701002 42:0.125585 44:0.038006 48:0.17816199 60:0.059974 76:0.040934 105:0.110643 126:0.029176001 132:0.130272 156:0.037825 183:0.093125001 205:0.13065299 208:0.053941 239:0.022608999 256:0.064136997 311:0.090966001 322:0.124314 341:0.080643997 357:0.098141998 367:0.118512 370:0.047398001 393:0.062419001 396:0.24545 397:0.077384003 401:0.092731997 443:0.063028 464:0.079962 552:0.088840999 566:0.135911 817:0.101623 858:0.063698001 887:0.098141998 967:0.103066 1213:0.13426299 1349:0.185297 1420:0.101448 1424:0.100928 1469:0.109902 1488:0.23621801 1804:0.176651 1855:0.154103 2226:0.204731 2259:0.130742 2351:0.249817 2750:0.15988401 3619:0.38102499 3623:0.204731 3950:0.162558 8882:0.19937301 12777:0.252029 #
-1.0000000231766961178436758928001 2:0.155641 3:0.065608002 26:0.1328 33:0.099354997 37:0.045832001 44:0.065026999 46:0.16446801 51:0.114282 54:0.155064 61:0.074464999 69:0.043225002 76:0.033374 79:0.152832 93:0.124595 99:0.086304002 107:0.076357998 119:0.12958001 138:0.095311001 156:0.064717002 180:0.167657 240:0.069164 241:0.086259 271:0.063028 294:0.098476 321:0.124568 338:0.067571998 387:0.065192997 415:0.072524004 473:0.160282 477:0.081324004 481:0.108607 497:0.059776001 631:0.072338 676:0.057606 681:0.096621998 713:0.085106999 738:0.057959002 837:0.060699001 889:0.213817 906:0.063216999 907:0.099316999 912:0.18202899 1312:0.089792997 1326:0.10621 1413:0.111272 1423:0.098752998 1432:0.089984998 1623:0.084331997 1713:0.098752998 2165:0.087596998 2882:0.26366699 3071:0.13493 8796:0.573641 8797:0.188869 #
-0.2095403370090679895376695185405 2:0.070115 6:0.052274 11:0.02713 14:0.063598 21:0.079871997 23:0.083555996 44:0.061477002 55:0.071983002 69:0.040865 76:0.075291 86:0.064391002 98:0.045198001 99:0.065828003 102:0.083829001 104:0.040327001 112:0.022871001 113:0.033620998 116:0.14463399 169:0.050882 190:0.135483 197:0.052556999 216:0.053762998 217:0.080091998 231:0.057709999 239:0.017426001 248:0.078380004 272:0.088104002 318:0.173182 350:0.064639002 443:0.048579998 465:0.066785 482:0.13061 577:0.170011 597:0.055378001 624:0.076631002 634:0.073247001 648:0.081528999 723:0.042617999 780:0.050324 828:0.194931 837:0.057385001 894:0.086631998 933:0.052083999 979:0.188227 1075:0.096161999 1166:0.225674 1217:0.059705999 1256:0.091107003 2026:0.181247 2038:0.170011 3862:0.136159 3917:0.35544899 5272:0.35115799 5989:0.142102 6279:0.30232501 6280:0.162857 6281:0.26019099 6282:0.14448801 6283:0.194258 #
1.0000000231766961178436758928001 1:0.076320998 5:0.078932002 6:0.042624999 14:0.087806001 22:0.214296 23:0.044209 32:0.14672001 33:0.18277401 34:0.207173 41:0.055018999 43:0.070083 44:0.040445 48:0.134523 62:0.072264001 81:0.085454002 105:0.035652 113:0.097415 126:0.031048 142:0.047639001 143:0.062882997 198:0.089512996 205:0.058263998 224:0.110476 236:0.044845998 240:0.053319 297:0.088200003 313:0.071097001 321:0.096031003 322:0.078133002 346:0.129265 350:0.089244001 354:0.064884 357:0.10444 383:0.061547 385:0.137068 387:0.085092999 445:0.094663002 453:0.076867998 493:0.121061 497:0.078024 504:0.15351801 541:0.112996 685:0.22935399 716:0.095778003 721:0.101733 760:0.072864003 811:0.082929999 832:0.251376 906:0.082515001 931:0.119811 949:0.17014401 993:0.14742699 995:0.111294 1125:0.090139002 1140:0.096031003 1477:0.112347 1650:0.098821998 1741:0.199297 1797:0.120918 2099:0.16512901 2117:0.172989 2327:0.160809 2520:0.147136 3062:0.15283699 5177:0.224847 11345:0.26820099 #
1.0000000231766961178436758928001 11:0.018106 12:0.066864997 61:0.079548001 74:0.099427998 95:0.065457001 104:0.045566998 113:0.079726003 137:0.044721998 144:0.070161 164:0.087628998 192:0.077775002 197:0.059386998 216:0.060749002 226:0.052533001 239:0.019691 241:0.118913 256:0.055858999 272:0.047437001 290:0.087752998 311:0.079226002 312:0.073260002 350:0.043138001 351:0.054483999 370:0.041280001 390:0.075007997 393:0.054363001 401:0.080764003 433:0.060543001 454:0.091773003 484:0.082765996 513:0.105198 545:0.080315001 550:0.15090699 617:0.13850699 787:0.125347 811:0.067872003 817:0.088508002 885:0.074560001 914:0.074738003 937:0.073686004 965:0.118371 1004:0.061698999 1110:0.087752998 1127:0.077375002 1135:0.101891 1212:0.119374 1258:0.122071 1342:0.083136 1450:0.083136 1514:0.12508599 1557:0.106713 1617:0.092839003 2083:0.375911 2261:0.17364199 3000:0.13514601 3239:0.14853799 4428:0.17830899 12165:0.49940199 12166:0.371649 #
1.0000000231766961178436758928001 6:0.044893 35:0.021118 45:0.073463 46:0.133535 49:0.075859003 68:0.13112 76:0.045878999 87:0.040217001 91:0.070639998 112:0.033257 124:0.080098003 126:0.032699 143:0.066229001 149:0.092170998 192:0.100086 208:0.060456999 232:0.106665 236:0.13186 239:0.02534 244:0.054883 272:0.061046001 313:0.074879996 396:0.105424 426:0.090676002 433:0.077910997 434:0.13744301 443:0.184332 452:0.13697401 465:0.097112 494:0.099191003 564:0.263551 566:0.152328 622:0.12887 767:0.103355 783:0.083365001 803:0.103788 806:0.140265 810:0.22200599 979:0.194198 993:0.073987 1126:0.138947 1299:0.121396 1343:0.197988 1353:0.099064998 1427:0.10829 1557:0.137326 1561:0.115309 2210:0.28398901 2825:0.20663001 2868:0.149304 3371:0.143492 3385:0.182193 5169:0.21837801 5683:0.21398 12994:0.282471 #
1.0000000231766961178436758928001 11:0.049644001 15:0.083152004 22:0.20297401 35:0.021441 43:0.074940003 44:0.073224999 76:0.046580002 88:0.074469 90:0.167895 98:0.066726997 99:0.057397999 112:0.033766001 121:0.136245 124:0.081321999 126:0.056210998 142:0.106904 144:0.091668002 154:0.119229 156:0.072875001 157:0.118567 162:0.102281 164:0.067620002 170:0.098118998 205:0.105487 208:0.103926 232:0.041501001 272:0.104939 276:0.047143001 350:0.056361999 354:0.117472 385:0.103993 419:0.062465001 442:0.112579 443:0.071719997 450:0.094417997 457:0.090325996 497:0.103411 705:0.103651 740:0.110974 770:0.111678 840:0.123251 874:0.082194999 906:0.088233002 931:0.128114 991:0.088321 1122:0.114847 1133:0.098001003 1276:0.142408 1296:0.104502 1312:0.12532599 1512:0.161011 1533:0.131477 1539:0.145685 1604:0.121536 1913:0.136685 2306:0.128114 2812:0.15278 3062:0.16342901 4006:0.19013201 4358:0.22687 6014:0.213311 7489:0.22687 11759:0.28678799 11760:0.28678799 #
1.0000000231766961178436758928001 8:0.064365 11:0.020253001 35:0.018356999 43:0.16742399 50:0.058471002 69:0.108399 87:0.034959 89:0.071728997 94:0.070946001 103:0.292815 104:0.050972 105:0.032639001 112:0.028909 126:0.059650999 131:0.21565901 137:0.050027002 142:0.043613002 181:0.072668999 186:0.104467 218:0.198689 232:0.035532001 236:0.069514997 257:0.080031 272:0.053064 290:0.057976 293:0.073997997 300:0.063959002 351:0.060947001 452:0.096060999 506:0.12231 550:0.099699996 656:0.080387004 722:0.078400001 737:0.167924 810:0.113977 894:0.064672999 926:0.108231 928:0.086999997 967:0.100412 995:0.10189 1027:0.11096 1126:0.071333997 1135:0.113977 1209:0.091508001 1405:0.097180001 1435:0.10531 1583:0.103649 1589:0.119371 1949:0.132967 2024:0.23229 2153:0.23813801 2272:0.146312 3365:0.26001999 3421:0.147221 3924:0.172102 5509:0.284457 6009:0.199459 7710:0.20584799 7711:0.24553899 #
-0.12937563207636240680820094439696 6:0.048280999 10:0.048385002 22:0.19661801 35:0.038454 48:0.089992002 57:0.123788 59:0.073122002 63:0.060245998 67:0.159953 75:0.062748 76:0.049341001 105:0.040382002 112:0.035767 113:0.052577 142:0.11324 155:0.088336997 169:0.079570003 179:0.102821 216:0.142351 222:0.104313 223:0.089654997 232:0.092257001 236:0.086003996 239:0.027252 293:0.091551997 383:0.069711998 397:0.093275003 443:0.212091 448:0.072702996 508:0.100466 513:0.14559101 545:0.111154 677:0.107638 737:0.122705 739:0.120232 740:0.117551 748:0.210302 791:0.109943 885:0.216552 906:0.158245 1033:0.11964 1093:0.11289 1171:0.122705 1296:0.30903301 1420:0.122281 1523:0.16119599 1540:0.111932 1681:0.12536301 1768:0.27511001 1819:0.17401201 1902:0.122492 1927:0.225953 3022:0.19121 3876:0.18976399 4903:0.20342501 #
-0.526528984645282638332730584807 1:0.081249997 10:0.045476001 11:0.039875001 15:0.048893999 35:0.036141999 41:0.058572002 72:0.153972 75:0.058975 76:0.046374001 103:0.25595501 112:0.033615999 113:0.049415998 115:0.063601002 126:0.033052001 131:0.159354 137:0.058173001 142:0.050714999 143:0.174686 156:0.042851001 170:0.097685002 183:0.1055 190:0.11761 231:0.17800801 256:0.072659999 271:0.087580003 291:0.118702 299:0.121964 336:0.099881001 350:0.095005997 353:0.096524999 420:0.102916 458:0.089279003 550:0.243303 738:0.080536999 787:0.096298002 802:0.150916 858:0.072162002 899:0.139217 954:0.138405 993:0.074786 1140:0.30116701 1305:0.113761 1370:0.114929 1475:0.123466 1517:0.14133801 1535:0.16530301 1540:0.105203 1681:0.247271 1708:0.130577 1850:0.193213 1961:0.136838 3062:0.162707 4004:0.225868 4005:0.23936699 4007:0.231938 #
-0.32991246384601730090579962961783 5:0.090792999 6:0.17086799 11:0.066402003 31:0.169404 36:0.046424001 37:0.164206 44:0.046523001 48:0.091390997 59:0.074258 60:0.073413 62:0.083123997 69:0.064897999 106:0.256212 107:0.114644 114:0.060997002 145:0.22392 151:0.11135 169:0.080806002 239:0.027674999 240:0.103843 244:0.059941001 258:0.084732004 271:0.16022301 303:0.15178099 315:0.084164001 327:0.070892997 383:0.070795998 393:0.160346 419:0.067194998 426:0.099032998 436:0.120908 494:0.108333 546:0.120135 721:0.11702 723:0.067681998 739:0.122101 855:0.26066801 977:0.18702801 993:0.080806002 1026:0.10134 1126:0.250218 1170:0.15132301 1209:0.114974 1217:0.094819002 1219:0.27545699 1299:0.13258401 1475:0.133405 1888:0.148689 1994:0.13452899 4007:0.250608 10946:0.26898399 #
-0.31175439510940144982598098977178 6:0.033617999 10:0.033691 11:0.017448001 15:0.061330002 22:0.057371002 35:0.015814001 36:0.031830002 43:0.055273 44:0.031897999 45:0.055011999 114:0.041823 119:0.063562997 122:0.088466004 142:0.037572 180:0.066142 190:0.087131001 208:0.076653004 236:0.059884999 239:0.018975001 282:0.058047 284:0.084707998 299:0.090356 352:0.069544002 354:0.086643003 383:0.126664 393:0.052386999 394:0.076243997 452:0.102572 497:0.036343999 541:0.089117996 677:0.126899 759:0.072722003 771:0.075939 858:0.053461 887:0.082369998 937:0.071007997 1007:0.089465998 1128:0.124549 1171:0.085440002 1397:0.079060003 1404:0.13890199 1473:0.117093 1615:0.095588997 1797:0.161469 1902:0.178994 2060:0.11054 3441:0.154733 3648:0.177333 4142:0.227202 4690:0.25437099 5512:0.144732 6009:0.360603 8587:0.31226501 9487:0.38704401 10139:0.32919699 #
-0.60015594056511945009191322242259 3:0.160313 22:0.136179 35:0.02217 36:0.044622999 43:0.131198 44:0.044718001 45:0.077120997 62:0.079898998 65:0.081859998 66:0.181319 75:0.103707 76:0.12568 93:0.085681997 113:0.086897001 121:0.067129001 135:0.17075901 142:0.052671999 170:0.212914 179:0.100369 198:0.098971002 210:0.098405004 222:0.101825 232:0.042911999 236:0.118322 241:0.052166998 261:0.119778 300:0.162103 313:0.13309699 351:0.124626 357:0.115475 370:0.055768002 383:0.068049997 434:0.203357 443:0.074157998 545:0.18371101 676:0.083136 679:0.124935 706:0.169861 771:0.10646 780:0.076820001 885:0.100727 1108:0.10732 1133:0.171571 1334:0.13369399 1511:0.172629 1613:0.152734 1728:0.123514 1741:0.130145 2038:0.15327901 2085:0.164913 2323:0.16126999 2705:0.22925299 3339:0.248604 3340:0.15166999 3341:0.296538 #
1.0000000231766961178436758928001 10:0.041232001 11:0.036153998 23:0.042670999 33:0.19291399 35:0.019354001 36:0.038954999 37:0.057742 40:0.132405 41:0.053105 44:0.093156002 50:0.104376 51:0.085037 76:0.100334 83:0.113813 85:0.073471002 88:0.067220002 99:0.087723002 101:0.120166 113:0.044803999 123:0.071768001 126:0.05074 145:0.107992 164:0.061037999 180:0.080945998 182:0.098194003 194:0.091963001 239:0.023223 244:0.105555 278:0.12173 292:0.14625899 369:0.240457 496:0.127362 504:0.148178 545:0.160376 583:0.097755 627:0.096337996 723:0.056793001 777:0.088891 863:0.285153 885:0.087931998 908:0.192782 912:0.109278 914:0.149239 1447:0.131063 1468:0.183446 1812:0.17518 1965:0.40252399 2065:0.189367 2306:0.115644 3387:0.221909 3395:0.166971 3674:0.204787 5028:0.169993 #
1.0000000231766961178436758928001 10:0.035301998 11:0.056299001 26:0.068259001 28:0.107131 35:0.01657 37:0.049438 43:0.057916999 44:0.070143998 51:0.072806999 76:0.060952 86:0.124392 87:0.031557001 89:0.064747997 91:0.055429 105:0.049885001 108:0.060977999 112:0.026095999 143:0.051966999 156:0.033264998 169:0.058054999 202:0.074317999 208:0.113201 221:0.041416001 240:0.044062998 323:0.082130998 352:0.043037999 370:0.041683 383:0.086117998 393:0.054892998 419:0.048276 422:0.092845 440:0.071846999 470:0.059671 477:0.087723002 533:0.090802997 566:0.119526 570:0.154301 576:0.13050599 670:0.092146002 675:0.149987 679:0.093381003 687:0.123843 699:0.152624 707:0.148039 741:0.080215 744:0.136464 775:0.102885 846:0.090967 893:0.13744 912:0.093562998 960:0.24043 1100:0.110407 1112:0.237091 1126:0.064392999 1349:0.096244998 1433:0.093021996 1739:0.151655 1824:0.093381003 2069:0.179353 2388:0.13050599 2609:0.136464 2665:0.120027 3955:0.120539 4224:0.32720199 4339:0.151655 4944:0.164857 6968:0.20373 6969:0.37527499 #
0.20573237187163934125422315446485 7:0.090448 18:0.088918999 21:0.088610001 36:0.068057999 43:0.13438199 61:0.078101002 62:0.058067001 76:0.035002999 87:0.064392999 114:0.072145998 122:0.102488 125:0.087973997 143:0.106041 146:0.066170998 160:0.080201 178:0.141418 205:0.046817999 206:0.061003 212:0.111815 248:0.051357001 250:0.075390004 282:0.154324 294:0.24646699 313:0.096727997 316:0.18895701 320:0.25515899 387:0.068375997 443:0.053895 497:0.037029002 621:0.095625997 744:0.132688 759:0.074092001 912:0.237389 979:0.087507002 1125:0.07243 1140:0.077165 1531:0.24191099 1532:0.123447 1723:0.339573 2535:0.103285 2539:0.13671701 2687:0.16029499 3395:0.13900299 4208:0.17048401 4413:0.32581401 4867:0.15525199 5097:0.17048401 7059:0.28865501 #
1.0000000231766961178436758928001 10:0.067799002 11:0.059448998 33:0.121565 44:0.108686 76:0.069137998 104:0.088367 112:0.050117999 126:0.103414 205:0.092474997 214:0.108078 271:0.13057099 278:0.200167 282:0.197785 293:0.128286 318:0.224133 410:0.134914 415:0.150244 422:0.178312 443:0.106453 465:0.146346 470:0.1146 477:0.35356399 783:0.12562899 858:0.107585 1069:0.161952 3599:0.391271 10409:0.391271 10410:0.391271 #
0.90282079420476224473901538658538 10:0.085313998 16:0.247982 26:0.097427003 36:0.047605 43:0.173484 76:0.051382001 97:0.114648 114:0.174623 142:0.056191999 226:0.075712003 271:0.097038999 282:0.25574899 313:0.17599501 315:0.086305998 351:0.078524999 370:0.059494998 411:0.29524699 443:0.079113998 491:0.186205 497:0.114072 504:0.181081 631:0.23373 782:0.120725 811:0.097819999 885:0.107458 892:0.158088 912:0.372821 1007:0.13380399 1196:0.140687 1321:0.115276 1364:0.144329 1397:0.20020001 1517:0.156602 1721:0.160166 2539:0.200692 3395:0.20404799 3830:0.19761699 #
-1.0000000231766961178436758928001 6:0.062972002 18:0.057025999 22:0.107466 23:0.038573999 35:0.029622 37:0.088376999 41:0.048006002 44:0.035289001 49:0.062845998 51:0.076871 65:0.064599998 76:0.038008999 88:0.060764998 93:0.161351 105:0.031106999 108:0.064381003 112:0.027551999 123:0.064875998 126:0.02709 138:0.064111002 150:0.081148997 156:0.035121001 164:0.055176999 202:0.132855 205:0.050838001 212:0.071709998 219:0.0546 221:0.043726999 244:0.045467999 247:0.073551998 272:0.106135 352:0.04544 363:0.11311 393:0.057957001 453:0.06707 478:0.108353 493:0.10563 497:0.040208001 504:0.133949 560:0.0748 650:0.079205997 730:0.085506998 760:0.063576996 912:0.20731001 991:0.072068997 1105:0.136999 1147:0.186316 1237:0.253849 1303:0.132682 1353:0.13895801 1459:0.18439101 1965:0.33275601 4402:0.19618601 9354:0.610645 #
-1.0000000231766961178436758928001 3:0.072506003 11:0.018731 16:0.126297 33:0.109801 40:0.116145 41:0.046583001 49:0.060984001 75:0.046904001 76:0.088012002 84:0.099234 89:0.066335998 93:0.111092 104:0.047139999 114:0.076018997 123:0.062954001 131:0.060391001 142:0.040335 239:0.020370999 256:0.057788 272:0.083090998 282:0.14870401 324:0.072047003 346:0.109446 350:0.044627 392:0.065435 414:0.080564 433:0.062633 443:0.056788001 459:0.183543 497:0.081881002 504:0.076768003 556:0.111384 618:0.14405701 708:0.112063 721:0.086135 780:0.099601001 853:0.121458 874:0.065081999 912:0.28238699 1019:0.10735 1112:0.115746 1126:0.065972 1271:0.25092199 1321:0.215918 1368:0.215903 1397:0.084873997 1428:0.13981099 2077:0.185307 2148:0.1178 2390:0.18446501 2791:0.152061 3348:0.146466 4386:0.168901 4648:0.23672099 7749:0.32233 11550:0.190373 14272:0.22708 #
-0.75781457421807230101507002473227 5:0.070671 7:0.26298299 23:0.039581999 26:0.15519799 34:0.109554 42:0.070671 44:0.061312001 76:0.081850998 88:0.062353998 89:0.070148997 92:0.090278 93:0.117477 99:0.04806 105:0.054046001 121:0.054359999 138:0.065787002 157:0.168092 164:0.095864996 180:0.075087003 197:0.064969003 205:0.052166998 207:0.10608 241:0.042243998 295:0.119241 303:0.118143 323:0.088981003 350:0.047192 354:0.058093 370:0.045159999 382:0.109819 387:0.076187998 426:0.077085003 490:0.136151 497:0.143785 531:0.15358201 566:0.12949599 622:0.109554 670:0.260506 677:0.085084997 721:0.091086 723:0.052682001 736:0.25397599 777:0.082456 780:0.130549 858:0.060690999 896:0.081084996 912:0.171629 945:0.095675997 1133:0.082056999 1397:0.15196399 1913:0.114449 1965:0.242273 2144:0.184605 2163:0.120384 2306:0.107272 3529:0.13547599 4150:0.175659 11392:0.240132 11393:0.240132 11394:0.240132 #
-1.0000000231766961178436758928001 6:0.038926002 23:0.068355002 33:0.069945 35:0.018310999 52:0.16958401 53:0.106131 54:0.109164 88:0.165953 89:0.071548 93:0.070767 108:0.207499 112:0.028836001 113:0.042389002 206:0.069328003 208:0.052420001 241:0.072952002 282:0.067212 292:0.065936998 300:0.108019 313:0.064925998 341:0.078368999 363:0.118382 366:0.129456 368:0.124417 387:0.13157 415:0.086446002 435:0.098929003 470:0.20305 477:0.28556299 481:0.129456 492:0.150693 497:0.042082001 550:0.09945 594:0.103388 676:0.068664998 721:0.242422 807:0.049350001 863:0.175052 885:0.083194003 903:0.109164 908:0.107724 912:0.103388 1268:0.079305999 1274:0.114569 1347:0.11738 1348:0.078368999 1415:0.26199099 1459:0.11398 1965:0.247104 2164:0.13886601 3529:0.13817801 3931:0.182171 6384:0.20533 6385:0.244921 6386:0.225125 #
-1.0000000231766961178436758928001 11:0.047005001 18:0.058194 22:0.064770997 26:0.073545001 33:0.190396 35:0.017854 37:0.13899601 38:0.057730999 40:0.206806 43:0.105656 46:0.112894 49:0.108588 50:0.096285999 51:0.078446001 76:0.038787 89:0.118118 93:0.069000997 99:0.047795001 112:0.047605999 119:0.071762003 145:0.058839001 152:0.35868901 156:0.035840999 160:0.186507 204:0.083017997 205:0.051879 211:0.096125998 221:0.044622999 223:0.070478998 232:0.034557998 241:0.042011999 244:0.078561001 310:0.17745499 313:0.063304998 352:0.046371002 385:0.107333 387:0.075768001 442:0.093745001 457:0.12735 497:0.041032001 499:0.105035 504:0.192653 530:0.068875998 541:0.100613 545:0.087379001 564:0.131597 566:0.128782 637:0.090448 670:0.099281996 773:0.113506 794:0.094673 825:0.12317 893:0.148083 912:0.100808 956:0.095797002 1017:0.180218 1126:0.069379002 1258:0.132808 1340:0.089516997 1447:0.120905 1662:0.113818 1855:0.14602 2144:0.108429 4385:0.300744 4386:0.177624 4387:0.17468999 4388:0.200205 #
1.0000000231766961178436758928001 6:0.082128003 8:0.080004998 15:0.052264001 54:0.136032 56:0.086773999 59:0.124384 63:0.060527001 75:0.063041002 76:0.049571 87:0.073573001 105:0.040569998 113:0.052822001 126:0.035331 142:0.054211002 156:0.045805 179:0.103301 186:0.129852 210:0.10128 219:0.071208999 227:0.111364 231:0.090668999 232:0.074780002 239:0.027379001 256:0.077667996 293:0.091978997 294:0.14627001 313:0.080906004 383:0.231305 397:0.158666 414:0.108281 491:0.106098 523:0.098183997 778:0.081233002 807:0.061496001 810:0.141672 811:0.094370998 858:0.077136002 887:0.118848 945:0.121602 1004:0.085787997 1140:0.185026 1209:0.113743 1422:0.110456 1669:0.114073 1675:0.25586599 1676:0.36702201 1677:0.30520201 1678:0.42048201 1679:0.186616 1680:0.18416101 #
1.0000000231766961178436758928001 10:0.04439 12:0.14374401 18:0.162066 30:0.101554 43:0.152833 95:0.083109997 99:0.094442002 131:0.20692199 142:0.049502999 143:0.201225 160:0.30553901 223:0.082252003 231:0.082795002 232:0.040330999 234:0.109404 271:0.085487999 298:0.15289401 300:0.072595999 311:0.100592 351:0.117128 352:0.091628 370:0.052413002 389:0.15147699 444:0.097494997 484:0.105087 492:0.101276 515:0.18301199 527:0.14731 651:0.12536 668:0.13070799 803:0.102402 838:0.182882 858:0.119262 967:0.113972 1126:0.137091 1268:0.090242997 1329:0.317846 1420:0.112183 1736:0.180902 1902:0.112377 2653:0.24299601 2888:0.15572201 3625:0.22639599 5481:0.21112201 5482:0.215461 #
1.0000000231766961178436758928001 5:0.074699998 6:0.105265 11:0.054632001 15:0.043465 27:0.104553 41:0.052069001 65:0.070068002 76:0.069801003 105:0.057126999 106:0.1245 112:0.050597999 115:0.056538999 137:0.051713999 142:0.076334998 143:0.100762 238:0.084615998 239:0.038552001 241:0.075603001 250:0.15033799 290:0.059930999 313:0.067285001 321:0.15387601 327:0.058327001 383:0.058247 497:0.043611001 544:0.13766 550:0.103063 556:0.1245 579:0.092872001 616:0.163504 686:0.111882 738:0.071594998 757:0.13803799 787:0.085606001 874:0.12317 930:0.12376 1199:0.13416 1202:0.13576099 1635:0.234732 1708:0.19654 1732:0.13863599 1797:0.114435 2003:0.16515701 2358:0.16102099 2486:0.264597 2493:0.141822 3957:0.18878999 4714:0.185672 11750:0.25382099 11751:0.42975599 11752:0.23330601 #
1.0000000231766961178436758928001 6:0.04143 8:0.143407 31:0.059985999 35:0.019489 36:0.082323 50:0.062077001 63:0.051697999 70:0.065536 99:0.052173 137:0.111462 142:0.046303 143:0.06112 150:0.153055 197:0.070528001 204:0.090622 207:0.115158 217:0.107478 223:0.16145501 226:0.062387999 231:0.13112199 233:0.106604 239:0.023384999 240:0.051824 257:0.084967002 281:0.183496 282:0.071537003 346:0.12564 392:0.127184 492:0.094728999 550:0.105849 560:0.217428 655:0.10475 668:0.122258 723:0.057190001 818:0.099329002 894:0.163847 895:0.104931 956:0.104571 1134:0.112261 1374:0.103517 1508:0.57571203 1698:0.13379499 1731:0.104216 1797:0.36192101 2159:0.16672499 3145:0.19069099 #
1.0000000231766961178436758928001 15:0.070101999 18:0.16890401 22:0.111032 24:0.159922 31:0.159495 33:0.27897701 37:0.091310002 42:0.120478 48:0.28938699 76:0.066489004 89:0.119587 92:0.15390199 99:0.081931002 105:0.054416999 156:0.061438002 183:0.151262 338:0.13462301 385:0.183991 448:0.097971998 494:0.143751 561:0.153229 803:0.15041301 813:0.16564099 981:0.17593201 1126:0.118931 1268:0.13255399 1279:0.247015 1305:0.16310599 1348:0.221784 1694:0.190999 1704:0.237004 2191:0.210108 2329:0.20589299 2882:0.25030899 3387:0.207257 #
-0.65605155657312053119056827199529 1:0.085478999 6:0.047740001 14:0.098342001 15:0.10795 31:0.069121003 36:0.045201 37:0.067000002 42:0.185523 46:0.142002 60:0.071479999 69:0.063189 76:0.082604997 86:0.099567004 98:0.06989 99:0.060118001 122:0.101355 131:0.079884999 137:0.061200999 143:0.119245 145:0.206616 179:0.101669 194:0.106709 217:0.073146001 232:0.043467999 238:0.100138 249:0.078060001 267:0.083561003 271:0.156004 282:0.17299099 297:0.207306 316:0.18686999 352:0.058327001 415:0.106021 458:0.093925998 497:0.087385997 530:0.086635001 579:0.109909 617:0.111946 654:0.112108 738:0.084729001 894:0.079117998 945:0.119682 1012:0.28688699 1121:0.142772 1217:0.092322998 1325:0.219731 1370:0.120911 1374:0.119281 1797:0.135427 1896:0.141624 1945:0.187638 2140:0.181252 2153:0.17206199 2500:0.22342201 2582:0.187638 5221:0.22342201 6029:0.21054199 #
-1.0000000231766961178436758928001 6:0.140075 11:0.062139999 18:0.20074899 51:0.103704 83:0.081975996 91:0.078950003 94:0.091218002 99:0.132599 106:0.154852 112:0.03717 114:0.062419999 142:0.056076001 143:0.074019998 145:0.077783003 146:0.096933998 181:0.196082 199:0.110299 206:0.151305 226:0.075554997 232:0.045685001 236:0.052788001 238:0.105245 239:0.02832 241:0.055537999 247:0.099225998 249:0.082039997 257:0.1029 315:0.086126998 330:0.12887301 351:0.078362003 352:0.061301999 354:0.076375 383:0.15203799 419:0.068761997 448:0.075554997 453:0.090480998 470:0.084991999 508:0.104407 566:0.170247 621:0.140082 738:0.089050002 799:0.120659 874:0.090480998 904:0.38269401 993:0.082690999 1075:0.156277 1119:0.25636899 2474:0.198709 2658:0.41166401 9288:0.27525699 #
-0.35813722246718421304834123475302 11:0.024466 15:0.050794002 18:0.122383 36:0.044635002 48:0.087869003 51:0.097434998 59:0.071396001 70:0.07457 81:0.094507001 83:0.077019997 87:0.088627003 93:0.085703999 95:0.088453002 99:0.059365001 105:0.039429002 112:0.034922998 122:0.059112001 136:0.30114701 143:0.11775 145:0.123737 171:0.116061 181:0.184229 202:0.099457003 217:0.072228998 237:0.139112 242:0.13220499 244:0.057631001 249:0.183938 272:0.108535 282:0.13781799 322:0.086410999 352:0.120872 385:0.15158901 405:0.100514 411:0.22334 448:0.070987999 453:0.085010998 538:0.140982 544:0.095012002 614:0.13598201 617:0.110543 637:0.112342 724:0.148223 752:0.262768 767:0.18375801 771:0.106487 791:0.181756 811:0.091715999 906:0.091256 910:0.094008997 953:0.12962 1149:0.120018 1151:0.136316 1708:0.13565101 1902:0.119601 2040:0.19131599 2791:0.198624 2792:0.272641 #
-0.3775118708751877272256081141677 23:0.098999999 27:0.17553601 31:0.13820501 49:0.067592002 75:0.051987 178:0.097544998 208:0.091206998 210:0.083521999 217:0.061287999 223:0.074280001 241:0.092921004 257:0.082034998 300:0.065559998 351:0.062472999 383:0.057757001 443:0.062941998 444:0.21010301 470:0.067759 475:0.104442 484:0.094902001 517:0.12459 532:0.103298 753:0.114826 803:0.092477001 887:0.098010004 941:0.112434 964:0.177165 1163:0.29947701 1213:0.13408101 1297:0.130565 1662:0.20310301 1797:0.113473 1860:0.36978501 2022:0.125772 2163:0.126177 2294:0.148197 2335:0.340684 5653:0.168539 6669:0.42907 #
-0.24519386247001015433077952820895 11:0.045740001 15:0.094961002 18:0.135132 37:0.123689 52:0.133935 104:0.067989998 108:0.090104997 128:0.097113997 131:0.087100998 142:0.098498002 143:0.130017 145:0.080693997 181:0.25293499 197:0.15003 208:0.118685 221:0.061198 226:0.078382999 231:0.097296998 232:0.047394998 236:0.054763 248:0.132146 249:0.17861401 291:0.136161 306:0.157405 336:0.114572 420:0.19988 435:0.13229001 444:0.298967 450:0.107826 492:0.201511 493:0.147834 523:0.105362 668:0.216484 671:0.096478 739:0.12962499 807:0.065991998 894:0.086264998 930:0.159692 956:0.13138101 1122:0.131157 1211:0.140468 1340:0.122769 1374:0.13005599 1433:0.137455 1494:0.17244799 1515:0.119506 1769:0.153604 2321:0.17811599 2852:0.22673 3392:0.213109 #
0.65619754081802317280391889653401 6:0.065577999 8:0.134066 15:0.041733 18:0.100551 22:0.17248 35:0.030848 39:0.086800002 44:0.077124 52:0.099660002 53:0.105602 75:0.085229002 76:0.067018002 83:0.107143 94:0.070414998 112:0.048581 113:0.042178001 123:0.114392 197:0.13837001 208:0.052159 239:0.021862 241:0.042872 247:0.076596998 282:0.066877 292:0.171202 351:0.060490999 352:0.047320999 450:0.080233 477:0.096453004 498:0.090048 525:0.126422 526:0.128811 529:0.28877199 546:0.094898999 780:0.106891 912:0.245487 929:0.092858002 978:0.099482 1033:0.095977999 1102:0.44959 1131:0.160935 1347:0.116795 1450:0.092301004 1459:0.113412 1965:0.30475399 1983:0.164914 2077:0.198871 2148:0.126422 2731:0.220698 3348:0.157186 5093:0.158573 #
0.29273219093029961834773189366388 3:0.071981996 10:0.060796 18:0.054937001 22:0.061145 35:0.016853999 38:0.054499999 40:0.19522899 44:0.071345001 51:0.074054003 53:0.097689003 58:0.078079 69:0.047425002 76:0.036616001 83:0.12285 85:0.063983001 93:0.110289 99:0.045120001 112:0.026543001 114:0.044574 123:0.10582 142:0.040043999 164:0.090000004 202:0.075590998 239:0.020223999 292:0.060693 313:0.059762001 323:0.083536997 356:0.069568001 370:0.042397 390:0.077036999 394:0.137585 481:0.25006899 497:0.038734999 498:0.083300002 716:0.080507003 721:0.144786 738:0.063589998 807:0.076911002 829:0.120581 838:0.087371998 840:0.16404299 874:0.13559601 912:0.26567799 1198:0.092524998 1202:0.120581 1345:0.140825 1347:0.108044 1459:0.104914 1512:0.126568 1534:0.116528 1817:0.148039 1965:0.320564 2173:0.15096299 2394:0.15425301 2510:0.251046 2580:0.17077699 2592:0.148039 3793:0.19656 4212:0.15096299 4325:0.118253 5654:0.17834 7404:0.164911 10146:0.207219 #
1.0000000231766961178436758928001 6:0.029413 11:0.039834 33:0.052852999 35:0.013836 36:0.027849 44:0.047253001 49:0.084152997 52:0.180603 76:0.030059 87:0.026350001 93:0.12760501 95:0.055188999 99:0.062714003 114:0.036591999 126:0.044961002 148:0.085690998 199:0.064659998 209:0.064659998 241:0.077693 282:0.162379 301:0.184505 313:0.049059998 315:0.050489999 443:0.046282001 453:0.053041998 481:0.233431 504:0.105934 533:0.075819999 545:0.114655 631:0.065154001 782:0.19716901 794:0.073368996 863:0.078124002 892:0.092482001 898:0.229219 908:0.137822 912:0.21810301 1140:0.066266 1240:0.090237997 1271:0.097446002 1321:0.175973 1347:0.21165501 1540:0.068190999 1607:0.094012998 2077:0.089198001 2148:0.162554 2261:0.146404 3234:0.11028 3348:0.20211001 3588:0.12393 4210:0.125238 4400:0.143078 4544:0.125238 4630:0.118366 6149:0.15033901 6150:0.18506999 6151:0.18506999 6152:0.38839099 6153:0.146404 #
1.0000000231766961178436758928001 26:0.128061 38:0.100526 40:0.125614 44:0.037036002 53:0.180189 63:0.048705999 93:0.070961997 94:0.070961997 112:0.028915999 123:0.068086997 187:0.257557 211:0.098857999 241:0.073152997 272:0.053075999 276:0.040371999 282:0.114112 293:0.074014999 311:0.088643998 350:0.048266001 356:0.128319 370:0.096929997 425:0.145464 458:0.076794997 459:0.094590001 481:0.129812 497:0.100697 555:0.105982 595:0.165959 624:0.096882001 710:0.12882499 721:0.26007399 780:0.107722 783:0.072481997 785:0.094884999 837:0.072549999 889:0.18133 956:0.23509599 993:0.064328 1019:0.116103 1054:0.114293 1127:0.181683 1168:0.205843 1338:0.16065501 1364:0.112046 1461:0.115793 1553:0.14068 1930:0.142188 2510:0.36381999 4073:0.24559499 4074:0.24559499 #
1.0000000231766961178436758928001 13:0.096109003 18:0.058483999 22:0.13660599 23:0.066981003 33:0.068539001 35:0.030378999 36:0.036114998 39:0.085481003 40:0.122751 42:0.070630997 60:0.057110999 63:0.047596 76:0.120037 93:0.11741 121:0.054329 123:0.066535003 143:0.05627 162:0.085593 232:0.034729999 272:0.051867001 293:0.072328001 327:0.115738 341:0.076793998 354:0.058061 387:0.076145001 395:0.092290998 419:0.052274 427:0.094210997 432:0.1382 452:0.055454999 464:0.076145001 497:0.041235998 529:0.119173 541:0.101113 560:0.076711997 650:0.081230998 863:0.10131 912:0.24175499 1114:0.12996601 1209:0.151439 1258:0.133469 1347:0.11502 1418:0.11702 1422:0.086856999 1512:0.13474099 1669:0.089700997 1769:0.112558 1983:0.45339999 1998:0.116337 1999:0.144815 2009:0.18910401 2510:0.127349 2788:0.138946 2998:0.144815 3348:0.154797 4329:0.15616199 4402:0.340664 11738:0.239996 #
-0.6920130669576629589556659993832 9:0.097442999 11:0.056995001 16:0.077048004 23:0.038663 28:0.113371 32:0.075783998 33:0.17479201 43:0.103774 44:0.07423 49:0.062991001 50:0.055854999 69:0.049341999 70:0.058967002 94:0.067772001 95:0.069945998 97:0.085003003 99:0.046944 149:0.129586 154:0.165105 197:0.06346 208:0.084997997 239:0.021041 256:0.059689999 292:0.063146003 300:0.061097 316:0.086181998 351:0.058221001 396:0.087540001 410:0.12586799 470:0.063146003 477:0.30658701 497:0.040300999 518:0.28682399 543:0.103845 631:0.082575001 635:0.23813801 649:0.168966 681:0.110295 714:0.135066 720:0.114706 780:0.060761999 822:0.26531401 863:0.099013001 874:0.067224003 1349:0.101851 1978:0.135796 2239:0.18555 3466:0.152621 4872:0.177682 8446:0.38054901 11842:0.215597 13414:0.23455399 #
-0.29686773811065514383500385520165 15:0.074496001 35:0.019208999 36:0.065462999 38:0.062112998 45:0.140232 62:0.069228001 65:0.070927002 81:0.081863999 83:0.066716 87:0.036580998 98:0.142654 214:0.18212 221:0.048009999 222:0.088225 240:0.107195 241:0.094857 242:0.114518 282:0.119381 290:0.102717 295:0.127584 300:0.113317 354:0.062158 383:0.058961 403:0.243668 411:0.114261 419:0.055962998 429:0.099734999 433:0.070867002 448:0.061491001 493:0.068497002 497:0.074745998 614:0.11779 654:0.095893003 707:0.101355 731:0.081776999 855:0.083195999 858:0.064937003 863:0.258816 993:0.067298003 1127:0.26681 1142:0.087067001 1461:0.121139 1477:0.107627 1553:0.147175 1601:0.105835 1723:0.13742501 2016:0.157102 2077:0.123834 3073:0.13798501 5000:0.20871501 5329:0.20871501 13358:0.43502599 13359:0.256933 #
-0.22400642816620261466020735952043 10:0.044142 11:0.02286 12:0.17717101 33:0.220957 35:0.035080999 44:0.070761003 55:0.286699 60:0.065949 75:0.057243999 108:0.129096 112:0.03263 113:0.081212997 123:0.130088 126:0.076558001 149:0.090430997 150:0.096104003 232:0.040105 233:0.113335 239:0.024862001 256:0.070527002 272:0.059893999 282:0.181486 338:0.23782299 350:0.054466002 351:0.068791002 352:0.091116004 354:0.11352 415:0.097818002 418:0.116989 482:0.110052 523:0.089156002 807:0.094549 813:0.112138 837:0.081868 874:0.079429999 885:0.094137996 964:0.115218 979:0.190534 1127:0.205019 1268:0.089737996 1279:0.167228 1321:0.170984 1355:0.161336 1534:0.143252 1542:0.12643801 1728:0.115434 2056:0.43028101 2062:0.12964 2148:0.143769 2165:0.118148 2508:0.14482901 6725:0.194252 #
-0.0075767386588357788640424317350153 10:0.037620001 35:0.017658001 38:0.096679002 49:0.063432001 50:0.056246001 71:0.098752998 81:0.075257003 88:0.061331999 154:0.206076 155:0.14414001 170:0.080810003 183:0.087274998 194:0.083907999 201:0.095074996 202:0.079198003 217:0.057516001 221:0.044135001 232:0.057872001 248:0.056287002 249:0.16016801 261:0.095404997 312:0.078832 322:0.116504 323:0.14819001 370:0.04442 397:0.122792 426:0.075820997 443:0.100011 445:0.21754099 454:0.098752998 483:0.083798997 516:0.14162 592:0.067036003 597:0.067333996 627:0.087899998 634:0.089060999 677:0.1417 723:0.051819 787:0.079662003 962:0.200919 1422:0.203986 1539:0.119985 1570:0.106489 2166:0.14442299 2363:0.161613 2396:0.201801 2419:0.17892601 3392:0.32253599 3736:0.31971601 4515:0.15369 5254:0.186849 9044:0.23619699 9045:0.23619699 #
-1.0000000231766961178436758928001 3:0.083051004 16:0.085441999 36:0.039140999 44:0.093599997 60:0.061896 73:0.111332 76:0.042245999 88:0.067539997 93:0.157721 113:0.045017999 169:0.068129003 205:0.056506 209:0.090875998 236:0.128124 276:0.111572 282:0.071378998 353:0.087932996 356:0.13590001 370:0.048916001 433:0.071741998 460:0.184478 477:0.245658 497:0.044691 510:0.272199 624:0.102606 658:0.22525001 710:0.136436 764:0.103461 780:0.067381002 885:0.088352002 894:0.115997 907:0.12572201 912:0.230424 914:0.088563003 929:0.099109001 930:0.126825 1054:0.121046 1156:0.25668201 1429:0.130821 1561:0.27706701 1731:0.176062 2180:0.156949 2665:0.140856 2868:0.137482 3348:0.167767 3574:0.176015 7434:0.260106 7435:0.23908301 #
1.0000000231766961178436758928001 11:0.059951998 18:0.060123 35:0.031230999 36:0.037126999 37:0.093176998 39:0.087876 44:0.037206002 50:0.058752999 51:0.13722201 57:0.100536 87:0.035128001 114:0.048781998 119:0.074139997 126:0.028561 146:0.075755 164:0.058173001 169:0.064623997 179:0.083508 181:0.073019996 208:0.052806001 226:0.059046999 244:0.047936998 326:0.095023997 341:0.22039799 352:0.047908001 354:0.059687998 365:0.119946 371:0.109233 387:0.13253801 395:0.094876997 420:0.088931002 453:0.119726 457:0.077707998 470:0.066422001 482:0.097974002 497:0.042392001 532:0.10126 567:0.108753 594:0.104149 669:0.119598 682:0.077068001 743:0.098302998 770:0.096075997 780:0.063914999 874:0.070712 976:0.098137997 1104:0.121385 1171:0.099656999 1268:0.079888999 1475:0.106689 1500:0.127076 1558:0.12845799 1626:0.139194 1665:0.118913 1902:0.099483997 3172:0.168815 3376:0.165214 3520:0.18048 3941:0.23341 4006:0.16357 4947:0.166959 10782:0.51777601 10783:0.246723 #
1.0000000231766961178436758928001 6:0.053337999 11:0.077283002 35:0.025091 36:0.050501999 39:0.119535 49:0.090130001 51:0.110243 58:0.116235 59:0.16953 61:0.121625 76:0.13007499 87:0.047782999 89:0.09804 91:0.083929002 92:0.21362799 93:0.096970998 112:0.039514001 113:0.098346002 115:0.074758001 121:0.075972997 142:0.059611998 143:0.165135 145:0.197319 156:0.085281 160:0.124895 169:0.087904997 172:0.11876 208:0.071829997 218:0.160395 219:0.078304 221:0.062711 241:0.154063 244:0.110405 247:0.105484 276:0.115778 313:0.088965997 325:0.14031599 350:0.065955997 440:0.108789 452:0.077546999 457:0.105703 464:0.18028601 499:0.14761101 570:0.137991 575:0.120486 580:0.227108 740:0.12986501 812:0.13195799 837:0.099140003 888:0.142225 956:0.134628 993:0.148837 995:0.33232901 1368:0.133717 1475:0.145126 12596:0.33560801 #
1.0000000231766961178436758928001 6:0.106741 8:0.059762999 12:0.069449 35:0.017044 36:0.034306999 49:0.061225999 69:0.047959998 87:0.032458998 121:0.087383002 142:0.040495001 208:0.048795 223:0.067284003 232:0.032992002 239:0.020452 244:0.044296 247:0.071656004 272:0.083421998 312:0.076090999 323:0.084478997 351:0.056589 366:0.120503 394:0.17245699 426:0.073183998 494:0.080057003 546:0.088779002 566:0.34323001 761:0.102548 764:0.090683997 777:0.078284003 812:0.151775 813:0.092248 834:0.152665 837:0.067346998 931:0.101845 1151:0.32264701 1258:0.30255201 1274:0.180566 1296:0.17433999 1299:0.097979002 1728:0.199283 2039:0.111162 3711:0.138468 4140:0.198778 4170:0.169572 4758:0.169572 6036:0.169572 7296:0.18519799 10719:0.227983 10720:0.209556 10721:0.227983 #
1.0000000231766961178436758928001 6:0.047279999 11:0.068503998 22:0.210546 23:0.102908 24:0.116215 31:0.068455003 34:0.13572 41:0.061027002 42:0.087550998 43:0.077734999 44:0.094145998 52:0.121656 69:0.062581003 76:0.1153 82:0.141784 87:0.042355001 89:0.086903997 94:0.085956 99:0.059539001 121:0.067342997 169:0.077919997 208:0.107803 227:0.108549 232:0.043049999 239:0.026687 282:0.081637003 300:0.077490002 321:0.106517 351:0.073840998 385:0.063711002 387:0.094384998 435:0.120161 443:0.074395999 452:0.068737999 470:0.080089003 497:0.121973 518:0.34800601 530:0.0858 532:0.122095 731:0.094683997 740:0.115114 780:0.130483 789:0.12533499 841:0.205943 1108:0.107664 1179:0.203549 1316:0.14913701 1348:0.16117001 1501:0.121656 1510:0.19534899 1517:0.14726099 1603:0.178368 1604:0.12606999 1623:0.25622901 1731:0.118929 1948:0.162486 2274:0.163932 2321:0.161786 2330:0.163202 2516:0.16621999 #
1.0000000231766961178436758928001 6:0.064742997 8:0.063069001 27:0.099105999 44:0.036281999 45:0.062573001 46:0.317534 57:0.09804 60:0.120153 76:0.039078001 87:0.034255002 105:0.031982001 154:0.100025 231:0.15000001 239:0.021583 272:0.051996 299:0.102774 352:0.079102002 370:0.045247 382:0.18629999 390:0.139204 396:0.089795999 419:0.052404001 426:0.077234 443:0.060168002 465:0.082716003 508:0.16698501 513:0.115308 568:0.16511901 583:0.090853997 594:0.101563 671:0.070873998 721:0.091261998 780:0.062328 882:0.30644 895:0.096845999 929:0.19239099 1123:0.17895401 1126:0.069899 1134:0.103612 1146:0.130628 1198:0.098746002 1212:0.221542 1299:0.175072 1312:0.220649 1540:0.088650003 1561:0.23436999 1731:0.096185997 2259:0.124812 2326:0.12222 2868:0.266882 6089:0.18225899 9301:0.24059699 #
-1.0000000231766961178436758928001 6:0.082423002 10:0.039360002 11:0.05319 15:0.042318001 18:0.101962 35:0.018475 36:0.088739 40:0.126395 51:0.081175998 63:0.049008999 65:0.068218 80:0.18776999 112:0.049263 113:0.042769998 114:0.048861001 115:0.093203001 142:0.043894999 143:0.098102003 145:0.060887001 146:0.128471 164:0.098655 181:0.073137999 211:0.099472001 219:0.057658002 226:0.059142001 239:0.022169 244:0.081294999 247:0.077671997 256:0.062887996 260:0.108929 318:0.130118 326:0.095178001 330:0.170802 383:0.096017003 432:0.142303 442:0.097007997 459:0.095178001 497:0.042459998 529:0.20776799 611:0.087788999 668:0.16334499 811:0.076412 995:0.244706 1227:0.17802501 1506:0.156771 1507:0.156771 1600:0.116824 1948:0.134977 3518:0.31121299 3520:0.306072 5593:0.24712101 5594:0.24712101 5595:0.24712101 5596:0.24712101 #
-1.0000000231766961178436758928001 8:0.214155 22:0.075217001 38:0.067041002 45:0.072122999 60:0.065991998 62:0.074721001 76:0.045042001 92:0.29106501 98:0.064524002 105:0.077362999 119:0.174886 121:0.13174701 122:0.055266 126:0.076606996 137:0.056501999 156:0.099319004 208:0.059354 221:0.051819 223:0.081845 227:0.10119 239:0.024878001 267:0.077146001 272:0.059932001 281:0.115293 290:0.065480001 323:0.102761 327:0.063726999 350:0.054501001 497:0.124337 550:0.112605 592:0.078707002 716:0.099033996 760:0.179787 783:0.081845 825:0.084477998 832:0.153514 837:0.081920996 936:0.14658099 937:0.093094997 1108:0.26189601 1127:0.097755998 1151:0.26746401 1225:0.102181 1305:0.110493 1433:0.116389 1788:0.119182 2009:0.12905701 2039:0.13521799 3776:0.554793 #
-0.49247168631847260122924581082771 7:0.193847 10:0.043449 11:0.053695001 18:0.066476002 22:0.073988996 23:0.044966001 32:0.088138998 35:0.020393999 36:0.041049998 37:0.127694 39:0.097162001 60:0.064915001 75:0.095403001 76:0.044307001 87:0.038839001 91:0.068219997 92:0.24473201 94:0.078821003 115:0.060766 122:0.054364 123:0.075626999 146:0.083760001 208:0.098855004 219:0.063648 221:0.050972998 240:0.054232001 244:0.111231 341:0.087288 371:0.120775 385:0.098918997 415:0.096284002 418:0.115154 448:0.11054 470:0.124347 477:0.107967 497:0.111849 561:0.102108 592:0.184753 720:0.133406 743:0.10869 763:0.18267199 837:0.080583997 858:0.068945996 869:0.21279199 931:0.121863 935:0.093785003 1001:0.12630799 1211:0.116999 1275:0.149655 1348:0.208295 1547:0.129308 1669:0.17263301 1902:0.109996 2445:0.16795699 3387:0.13811199 3941:0.44902399 5567:0.27279401 #
-1.0000000231766961178436758928001 6:0.091061004 22:0.100833 39:0.078206003 44:0.033112001 50:0.088529997 51:0.122121 61:0.079572998 63:0.043545 68:0.101923 81:0.069959998 86:0.072780997 99:0.074405998 180:0.068657003 208:0.079568997 232:0.053799 236:0.087610997 239:0.019696999 272:0.047453001 340:0.066365004 341:0.070257999 351:0.054501999 354:0.053119 383:0.050386999 415:0.077499002 433:0.10254 434:0.063100003 443:0.054910999 452:0.050735001 481:0.196503 559:0.075396001 565:0.118408 637:0.083162002 655:0.088230997 677:0.077799 738:0.061935 811:0.067892998 857:0.115175 882:0.100174 897:0.114744 935:0.075488001 979:0.15095501 1093:0.081596002 1508:0.36452299 1534:0.113495 1679:0.134257 1779:0.104939 1797:0.236228 2210:0.241394 2212:0.130051 2946:0.322979 3213:0.12643901 3466:0.14287201 5124:0.18407799 6062:0.14858501 9383:0.301999 11678:0.21957199 11679:0.21957199 #
-1.0000000231766961178436758928001 3:0.076157004 4:0.125587 6:0.064182997 12:0.12302 13:0.095516004 18:0.058123 23:0.082509004 32:0.077064 44:0.060899999 53:0.174996 54:0.10631 60:0.056758001 88:0.061934002 91:0.100993 108:0.065619998 112:0.028082 126:0.027611 204:0.140389 205:0.051816002 217:0.058081001 232:0.034515999 236:0.095170997 249:0.061983 256:0.060697999 267:0.066350996 295:0.118438 323:0.088382997 383:0.054735001 394:0.205157 442:0.15853 456:0.107535 457:0.127194 473:0.109887 499:0.104907 506:0.118812 541:0.10049 567:0.17801 618:0.15131199 622:0.18424299 655:0.095844001 661:0.092586003 668:0.138651 731:0.18115599 741:0.086322002 753:0.108817 767:0.147765 780:0.061788999 807:0.04806 811:0.073751003 874:0.068360001 885:0.081018001 995:0.236185 1126:0.069293998 1258:0.22458801 2259:0.123732 4450:0.184397 8950:0.19996101 10731:0.238516 10732:0.238516 10733:0.238516 10734:0.238516 #
1.0000000231766961178436758928001 2:0.078658 10:0.058770001 35:0.016293 38:0.052684002 54:0.203844 81:0.069435999 105:0.049049001 114:0.043088999 126:0.025227999 129:0.103582 142:0.038709 156:0.032706998 179:0.073761001 205:0.047343001 206:0.129458 219:0.086090997 231:0.064741001 236:0.061698001 257:0.169503 275:0.083291002 284:0.087272003 300:0.096114002 314:0.097575001 323:0.080753997 331:0.126866 382:0.099665001 397:0.066914 433:0.060109001 453:0.062458999 459:0.083934002 474:0.065867998 564:0.120091 574:0.104153 681:0.102477 741:0.13353901 767:0.16734201 780:0.056455001 787:0.073500998 806:0.227101 858:0.055078998 904:0.110705 1108:0.078869998 1127:0.076820001 1131:0.143915 1156:0.173508 1333:0.103023 1482:0.130666 1583:0.091994002 1763:0.13513499 1788:0.093658 2038:0.112645 2165:0.194971 2274:0.120091 2323:0.118518 2350:0.129077 2658:0.108902 2868:0.115189 3085:0.22880401 3147:0.124832 3542:0.19001099 3543:0.162093 4769:0.39875901 6115:0.17703 9991:0.200314 #
1.0000000231766961178436758928001 3:0.077910997 10:0.038864002 11:0.056189001 16:0.080154002 23:0.084408 26:0.075145997 32:0.23225001 33:0.205283 35:0.018242 76:0.039632 83:0.063359998 84:0.106631 99:0.048836 112:0.028728999 121:0.055236999 126:0.047826 142:0.073384002 145:0.101791 169:0.063911997 170:0.141348 208:0.088422999 232:0.059785999 241:0.042925999 258:0.067016996 292:0.065691002 310:0.181319 316:0.23395 336:0.222739 385:0.109669 410:0.077335998 426:0.078327999 452:0.056380998 478:0.11298 504:0.139669 516:0.146302 588:0.226024 627:0.090806 631:0.20499 699:0.080063999 750:0.25925699 840:0.177553 846:0.100146 856:0.103204 1345:0.15242299 1462:0.28268301 1466:0.26647401 1902:0.098389 2306:0.184558 3539:0.16695701 7739:0.188642 10188:0.24400701 #
1.0000000231766961178436758928001 6:0.031528998 8:0.052002002 11:0.034340002 23:0.032699998 33:0.17446101 35:0.014831 36:0.029851999 50:0.047240999 93:0.057319999 99:0.039703999 105:0.02637 131:0.052758001 143:0.046512 146:0.17005 154:0.082474001 173:0.11192 180:0.18273699 182:0.15791699 205:0.043095998 216:0.054903001 240:0.039438002 241:0.034899 242:0.088420004 316:0.072889999 318:0.176855 324:0.062941 354:0.081257999 365:0.096444003 383:0.045524001 387:0.106568 419:0.043209001 470:0.053406999 477:0.164772 483:0.119167 516:0.118945 544:0.133356 552:0.069929004 560:0.063409001 611:0.070473 643:0.172966 645:0.140899 764:0.13360301 777:0.068118997 837:0.058602002 894:0.052251 1054:0.156312 1073:0.108354 1092:0.097898997 1349:0.086143002 1878:0.123921 1902:0.079990998 2360:0.13424399 2867:0.12795401 3387:0.100436 4335:0.202675 4867:0.142911 6444:0.166311 6903:0.30873701 7284:0.198379 7285:0.198379 7286:0.198379 7287:0.182345 7288:0.198379 7289:0.16114999 7290:0.198379 7291:0.166311 #
1.0000000231766961178436758928001 11:0.032933999 26:0.099205002 55:0.070499003 60:0.045274001 69:0.040022999 75:0.039298002 85:0.053996999 105:0.053073999 107:0.070701003 164:0.044859 169:0.049833 172:0.141288 180:0.100726 236:0.053863 241:0.033470001 366:0.100562 367:0.089464001 370:0.035780001 394:0.191451 414:0.067498997 415:0.067151003 422:0.079696 470:0.086723 536:0.104841 567:0.20012 570:0.078226 649:0.137054 764:0.075676002 822:0.277715 837:0.095158003 842:0.31494701 885:0.109419 974:0.074805997 1054:0.088538997 1459:0.088538997 1932:0.090676002 2113:0.117138 2898:0.16588201 3459:0.103917 4119:0.144123 4795:0.16588201 5388:0.28086299 5392:0.28086299 7355:0.174877 11939:0.190254 11940:0.190254 11941:0.190254 11942:0.190254 11943:0.190254 11944:0.190254 11945:0.190254 #
1.0000000231766961178436758928001 33:0.084159002 35:0.022032 36:0.044344999 41:0.060454 61:0.106797 75:0.060869999 77:0.38286901 113:0.051004 114:0.058265999 126:0.081407003 138:0.080734 156:0.074883997 169:0.077188 182:0.111782 220:0.16625801 239:0.026435999 272:0.177799 350:0.098058999 385:0.10686 444:0.10309 446:0.197337 448:0.070528001 458:0.156019 539:0.104825 624:0.11625 690:0.116828 705:0.106508 881:0.134446 885:0.1001 1054:0.137142 1112:0.31523201 1296:0.107382 1347:0.141234 1420:0.118621 1557:0.14326701 1570:0.278826 1601:0.121389 1681:0.205906 2016:0.18019 3101:0.193515 4457:0.219191 4520:0.327649 #
-1.0000000231766961178436758928001 10:0.033581 11:0.029445 12:0.064225003 16:0.069256999 23:0.034752999 24:0.13945501 33:0.16809399 37:0.047026999 41:0.043251 44:0.031794 48:0.062456999 63:0.041813001 75:0.043549001 76:0.071864001 83:0.114891 84:0.092134997 85:0.059838001 89:0.061590999 94:0.060919002 99:0.042197 105:0.028026 149:0.068796001 217:0.051339999 354:0.051006 383:0.048381999 394:0.075994998 450:0.069412999 457:0.112432 470:0.056761 493:0.095167004 504:0.071276002 546:0.082101002 561:0.078916997 566:0.271314 593:0.151885 686:0.092933998 740:0.081583999 765:0.085459001 771:0.075691 780:0.054618001 858:0.053286001 898:0.154228 908:0.092731997 912:0.089000002 969:0.122063 1218:0.085913002 1517:0.104367 1561:0.086066 1650:0.077684 1669:0.078801997 1682:0.115158 1814:0.121408 1932:0.100485 1983:0.142673 2330:0.115665 2393:0.142673 2624:0.35001901 2864:0.12805299 3646:0.183827 3835:0.13484401 4365:0.142673 4386:0.156818 4387:0.154228 8949:0.183827 9369:0.183827 10688:0.21083499 10689:0.21083499 10690:0.21083499 10691:0.21083499 #
-0.35352144186816519821903170850419 6:0.039863002 11:0.035029002 12:0.076405004 26:0.077243999 31:0.057716001 50:0.059728 59:0.1267 62:0.067580998 76:0.13024899 87:0.085216999 113:0.043409999 123:0.069535002 126:0.049160998 157:0.17557301 183:0.092678003 198:0.141737 221:0.046867002 232:0.036295999 241:0.141076 245:0.115843 257:0.138419 276:0.069810003 322:0.073068999 336:0.14856 370:0.047169998 383:0.057558 385:0.053716999 390:0.085708998 420:0.153074 508:0.082950003 585:0.26390699 668:0.069476001 669:0.29013401 682:0.20444401 721:0.095140003 881:0.29859701 908:0.110318 1065:0.20893499 1110:0.16977701 1147:0.117944 1172:0.139488 1349:0.108914 1678:0.123778 1688:0.126986 1732:0.136997 1801:0.141505 1913:0.202402 2034:0.12873299 2065:0.183477 2306:0.189711 2414:0.1376 5769:0.21027499 7056:0.203749 #
-0.39180196426409918952771249678335 9:0.15314899 10:0.105325 11:0.047970001 12:0.084415004 16:0.091029003 24:0.108257 36:0.041700002 37:0.061811 55:0.102686 60:0.065943003 77:0.218352 87:0.066803001 91:0.069301002 104:0.13727701 144:0.21136899 149:0.090423003 257:0.152931 314:0.124075 352:0.05381 385:0.059347998 457:0.087279998 533:0.113529 555:0.119584 671:0.081630997 677:0.098187998 705:0.26134899 710:0.14535899 719:0.091959998 720:0.13552 723:0.060795002 759:0.095270999 810:0.12863401 830:0.140771 835:0.121358 907:0.13394301 912:0.116979 960:0.242525 1054:0.27064201 1250:0.168308 1321:0.17096899 1501:0.113325 1524:0.14535899 1784:0.150067 1888:0.133561 1902:0.111739 2077:0.133561 2191:0.14222901 2463:0.288881 3880:0.164133 8720:0.23232 #
-1.0000000231766961178436758928001 10:0.02946 16:0.060759 19:0.058134999 23:0.030489 26:0.056963 31:0.042562 32:0.059762001 36:0.027834 42:0.092166997 63:0.062107999 95:0.055158 113:0.032012001 122:0.036860999 169:0.082029 205:0.040181998 239:0.016593 258:0.121227 271:0.056736 282:0.132451 313:0.083017997 383:0.042445999 387:0.099362001 504:0.149216 546:0.072026998 560:0.059122 575:0.066404 677:0.065536998 706:0.179389 707:0.153125 708:0.154549 713:0.129714 777:0.063513003 892:0.092428997 906:0.056906 1268:0.059891999 1428:0.113881 1468:0.062456999 1477:0.077480003 1531:0.207624 1778:0.101926 1798:0.091560997 2516:0.103349 3390:0.300093 3395:0.201995 3441:0.22908799 3801:0.150253 4413:0.22560801 4808:0.142996 4867:0.22560801 5097:0.247742 7680:0.35679501 7681:0.31532201 7682:0.184964 #
-0.3373003535067183311646488164115 6:0.060552999 10:0.035840999 23:0.037092 26:0.117336 33:0.108808 35:0.028484 43:0.058800999 44:0.033934001 88:0.058431 92:0.084599003 95:0.067105003 105:0.029913001 108:0.061909001 112:0.044858001 115:0.050126001 123:0.062385 132:0.116315 143:0.052760001 182:0.14452 201:0.090579003 205:0.048884999 206:0.063697003 232:0.032563999 237:0.105537 241:0.067027003 244:0.091753997 248:0.053624 282:0.061751999 292:0.060580999 293:0.067815997 313:0.059652001 350:0.044224001 385:0.134543 470:0.12713701 491:0.078226998 496:0.18745001 497:0.065463997 504:0.21238101 552:0.079322003 610:0.182796 611:0.079939999 623:0.076435998 665:0.079836003 685:0.091695003 705:0.081329003 744:0.138547 745:0.178013 750:0.113928 751:0.30203399 945:0.089658 978:0.091858998 1092:0.111049 1097:0.132498 1140:0.13642 1196:0.100072 1405:0.089061998 1436:0.12633599 1601:0.092692003 1604:0.095362999 1797:0.264736 2185:0.128234 3016:0.15772501 3147:0.12889799 3562:0.178013 6136:0.18865199 6137:0.206839 8365:0.206839 8665:0.18865199 8970:0.22502699 #
1.0000000231766961178436758928001 6:0.044764999 11:0.060625002 15:0.048232999 18:0.068637997 35:0.021058001 44:0.071915999 50:0.067073002 51:0.24143399 55:0.104371 59:0.067796998 70:0.070811003 91:0.119263 98:0.065535001 113:0.102304 114:0.055690002 138:0.077165 145:0.069398001 163:0.30965701 164:0.066412002 171:0.110211 172:0.209171 203:0.129765 217:0.068588004 219:0.065716997 239:0.025266999 248:0.067120999 256:0.121361 322:0.082055002 328:0.10882 370:0.089686997 393:0.118111 396:0.105123 429:0.109335 559:0.096717 561:0.105428 668:0.132098 778:0.178896 791:0.30029699 855:0.091202997 952:0.1196 993:0.073775999 1004:0.079172 1020:0.136142 1033:0.110929 1110:0.112604 1202:0.150653 1368:0.112224 1423:0.135369 1478:0.141664 1826:0.169958 1920:0.161341 2001:0.161341 2008:0.194989 2077:0.13575301 3371:0.14308199 3614:0.20290899 9997:0.281663 #
1.0000000231766961178436758928001 9:0.080265 11:0.019753 15:0.041009001 18:0.058355998 35:0.017903 44:0.061144002 48:0.070941001 56:0.068085998 69:0.085294999 74:0.108474 80:0.181958 85:0.067965999 95:0.071413003 104:0.104328 126:0.027721999 156:0.060851999 164:0.056464002 183:0.088486001 197:0.064790003 217:0.058313999 241:0.042128 272:0.051752999 286:0.179911 290:0.056543998 383:0.054954 385:0.051286999 397:0.124495 404:0.13015699 458:0.074879996 460:0.100313 484:0.090296 565:0.12914 624:0.094466999 656:0.078400999 671:0.070542999 699:0.078575999 707:0.15994699 719:0.079467997 897:0.26262999 928:0.084850997 941:0.106978 951:0.093105003 962:0.097066998 991:0.073749997 1033:0.094313003 1037:0.104206 1054:0.111444 1069:0.191204 1103:0.120444 1107:0.13079999 1108:0.086668 1142:0.137399 1149:0.16406099 1268:0.077542 1338:0.15665001 1342:0.090700001 1375:0.128608 1396:0.120053 1417:0.143584 1432:0.17756701 1450:0.090700001 1501:0.097930998 1542:0.109253 1555:0.106259 1571:0.111444 1757:0.13256399 1933:0.119288 3941:0.13380501 4257:0.158764 4386:0.178119 7850:0.200763 13888:0.239473 13889:0.239473 #
1.0000000231766961178436758928001 11:0.039393999 28:0.28703499 33:0.064992003 34:0.103826 35:0.017014001 49:0.061117001 51:0.074755996 76:0.077570997 83:0.059092999 87:0.032400999 89:0.066481002 93:0.065756001 105:0.030251 108:0.106009 115:0.050694 126:0.026345 131:0.060523 146:0.069876 164:0.112609 208:0.048707999 211:0.091605 221:0.071998999 232:0.032933 239:0.020415001 244:0.074865997 278:0.224581 292:0.103735 300:0.059280001 324:0.072204001 327:0.052296001 335:0.141118 351:0.095642999 354:0.055055998 358:0.125407 363:0.109999 414:0.080739997 435:0.091922998 439:0.123765 440:0.073770002 465:0.07824 497:0.066206001 522:0.240208 530:0.065637 555:0.098205999 559:0.078144997 561:0.085183002 623:0.077302001 763:0.25802401 767:0.083269998 802:0.120288 975:0.083039999 1107:0.124302 1126:0.111944 1133:0.077767 1163:0.21847001 1318:0.29405099 1533:0.104331 1626:0.128392 1943:0.141118 4970:0.17239501 4971:0.227576 4972:0.227576 4973:0.198423 4974:0.142159 4975:0.198423 #
1.0000000231766961178436758928001 10:0.028649 15:0.030802 23:0.029649001 27:0.074091002 31:0.041390002 35:0.013447 36:0.027067 38:0.043483 42:0.052935999 69:0.037838001 126:0.043698002 150:0.105608 208:0.038497001 219:0.100146 239:0.016136 256:0.077500999 257:0.058626998 267:0.050037 272:0.081578001 323:0.066651002 352:0.034926999 364:0.099119 375:0.201093 383:0.115234 433:0.049612001 546:0.070042998 592:0.051049002 722:0.120527 807:0.036242999 811:0.055617001 944:0.156828 1004:0.050558999 1101:0.264402 1118:0.107847 1127:0.107353 1156:0.084581003 1209:0.067033999 1268:0.058242001 1273:0.126074 1405:0.07119 1468:0.060736001 1949:0.097406 2018:0.101478 2056:0.100031 2153:0.245865 2165:0.076679997 2791:0.120447 3018:0.126074 6468:0.48705399 6839:0.377478 6840:0.17986999 6841:0.17986999 6842:0.27993199 6843:0.17986999 #
