SVM-light Version V6.02
0 # kernel type
3 # kernel parameter -d 
1 # kernel parameter -g 
1 # kernel parameter -s 
1 # kernel parameter -r 
empty# kernel parameter -u 
14598 # highest feature index 
2865 # number of training documents 
951 # number of support vectors plus 1 
0.81643386 # threshold b, each following line is a SV (starting with alpha*y)
-0.27668550691852022982430980846402 11:0.050923001 12:0.061069999 23:0.092256002 35:0.014988 62:0.091458 95:0.101223 112:0.023604 204:0.069692999 205:0.043552 213:0.080011003 239:0.017983999 245:0.092592001 290:0.047336001 352:0.038927998 390:0.068507001 393:0.049651001 410:0.13334499 453:0.057457998 458:0.062687002 470:0.053971998 611:0.071218997 614:0.19287901 635:0.085294999 682:0.062623002 737:0.080977 738:0.056549001 863:0.1776 881:0.238666 885:0.068097003 954:0.097180001 961:0.113667 967:0.17205299 1109:0.168028 1421:0.196518 1491:0.16222499 1601:0.08258 4801:0.29595399 7974:0.31200299 8213:0.174795 9332:0.58916497 9333:0.184274 #
-0.14476753574419165548903265516856 18:0.065208003 36:0.096088 44:0.084683999 87:0.038098 107:0.099439003 108:0.124647 109:0.14022601 110:0.179913 111:0.311221 112:0.031505 113:0.046312001 114:0.052907001 115:0.059606001 116:0.076350003 117:0.49593601 118:0.14089499 119:0.22448599 120:0.32437301 121:0.158067 122:0.148876 123:0.125605 124:0.075878002 125:0.109233 126:0.052448001 127:0.093489997 128:0.134342 129:0.127186 130:0.139837 131:0.071163997 132:0.13831501 133:0.171142 134:0.081513003 135:0.154089 136:0.113849 137:0.05452 138:0.073308997 139:0.131253 140:0.181078 141:0.14881299 142:0.047529999 143:0.062739998 144:0.085530996 145:0.111628 146:0.082162 147:0.104368 #
0.18606982482206035900418328310479 11:0.031073 38:0.053787 42:0.065480001 45:0.057863999 50:0.052983001 63:0.044124998 105:0.062068 126:0.025756 131:0.18221299 179:0.075305998 221:0.041574001 239:0.019959001 292:0.101418 300:0.057955001 304:0.108166 367:0.292083 395:0.085559003 462:0.22587 650:0.075305998 701:0.135242 721:0.084394999 769:0.133403 787:0.075039998 842:0.23898201 858:0.056232002 906:0.068452001 991:0.068520002 995:0.092326 1117:0.26078799 1218:0.090663001 1353:0.078029998 2630:0.25226 2785:0.150562 3144:0.319484 3537:0.43183199 4137:0.143507 5800:0.180738 8264:0.186527 10379:0.20451 12167:0.22249199 #
-0.36877544152951768907655605289619 9:0.040615 11:0.016922999 26:0.106982 35:0.015339 36:0.030874001 38:0.049598999 50:0.048858002 70:0.051580001 71:0.085780002 87:0.029211 93:0.059282001 122:0.040888 136:0.208304 137:0.070776999 149:0.066946998 208:0.043912001 221:0.038337 222:0.119283 226:0.049102001 241:0.061112002 248:0.048891999 277:0.162304 278:0.230223 279:0.180866 280:0.091445997 281:0.20354401 282:0.13435601 283:0.11158 284:0.082162 285:0.091036998 286:0.091036998 287:0.085943997 288:0.41045299 289:0.13122 290:0.048443999 291:0.14442 292:0.055234998 293:0.061832 294:0.234641 295:0.10188 296:0.14038301 297:0.067470998 298:0.268592 299:0.087641001 300:0.053443 301:0.120806 302:0.152604 303:0.170908 304:0.099744998 305:0.14780299 306:0.098604999 307:0.11306 308:0.105303 309:0.124612 310:0.090044998 311:0.074052997 312:0.068475999 313:0.092087001 314:0.091862001 315:0.055973001 316:0.075384997 317:0.084054001 318:0.108029 319:0.14038301 320:0.19598299 321:0.073462002 #
-0.026024148667985188415618935664497 2:0.083525002 3:0.12510601 5:0.068104997 6:0.036779001 9:0.045809999 11:0.04555 12:0.168218 24:0.090402998 26:0.071267001 44:0.034897 45:0.060183998 46:0.109398 48:0.068553001 56:0.065793999 57:0.094297998 75:0.047798999 83:0.060090002 85:0.065678 87:0.055785 101:0.10742 105:0.085878 112:0.027246 121:0.052386001 126:0.026789 144:0.073968001 232:0.056699999 239:0.035149001 241:0.040709998 256:0.05889 346:0.111534 385:0.049561001 452:0.090535 513:0.110906 545:0.084673002 546:0.090113997 555:0.099862002 572:0.088990003 623:0.078605004 649:0.206624 650:0.078326002 656:0.075762004 671:0.068168998 799:0.211055 807:0.046627998 881:0.221563 906:0.071195997 1109:0.114554 1149:0.093635999 1326:0.119616 1468:0.078140996 1613:0.119191 1669:0.086493 1713:0.111218 1717:0.11639 1913:0.110293 2306:0.103377 2878:0.183065 3098:0.151961 3101:0.257292 4163:0.164361 5846:0.22938199 6339:0.48564601 6340:0.23141301 #
-0.18748770735562697575815604977834 271:0.212736 293:0.209012 352:0.13467 417:0.42122701 617:0.25846899 624:0.27358699 633:0.26964101 737:0.28013501 1274:0.324422 5856:0.563384 #
1.0000000231766961178436758928001 8:0.239031 35:0.040263001 105:0.071589999 112:0.063408002 231:0.15999401 460:0.381969 547:0.32709801 548:0.33898199 549:0.38797501 550:0.21867999 551:0.35043201 552:0.189843 553:0.42603901 #
1.0000000231766961178436758928001 10:0.058327001 11:0.046553001 18:0.052705999 35:0.016170001 49:0.058084998 70:0.092064999 77:0.211234 87:0.030794 128:0.064133003 164:0.107023 182:0.082041003 214:0.092978999 217:0.052668002 229:0.076242 250:0.075662002 314:0.096840002 327:0.049702 385:0.046321001 443:0.054088999 445:0.076338999 454:0.090428002 458:0.06763 491:0.157792 508:0.071529999 597:0.061657999 633:0.084090002 670:0.089919001 679:0.091123998 689:0.34997201 1018:0.119186 1019:0.102248 1020:0.104542 1021:0.17109901 1022:0.198806 1023:0.343844 1024:0.33660701 1025:0.101975 1026:0.071047999 1027:0.20512 1028:0.104844 1029:0.155812 1030:0.216287 1031:0.36620501 1032:0.099155001 1033:0.085180998 1034:0.216287 #
0.45208942911358346306016642301984 8:0.057165001 9:0.043168999 12:0.066430002 21:0.27611399 27:0.152091 62:0.058757 63:0.043248001 75:0.117538 84:0.16135199 95:0.065030999 105:0.049081001 114:0.043117002 134:0.066430002 143:0.051130001 160:0.081155002 186:0.092781 194:0.077468999 208:0.079025 234:0.085605003 248:0.051966999 350:0.042856999 351:0.054129001 352:0.101047 367:0.244701 370:0.041010998 375:0.116173 390:0.074519001 433:0.060148001 486:0.12557501 491:0.12835599 611:0.077468999 623:0.074074 634:0.082226001 648:0.091522999 665:0.077367999 741:0.078923002 935:0.074972004 967:0.150994 991:0.067158997 1069:0.082966998 1127:0.076871 1202:0.40647799 1203:0.110778 1204:0.172511 1205:0.26598999 1206:0.124271 1207:0.218072 1208:0.190136 1209:0.081271 1210:0.36922699 1211:0.093529001 1212:0.118597 1213:0.116173 1214:0.1432 #
1.0000000231766961178436758928001 8:0.050556 36:0.029022001 59:0.046422999 70:0.115702 75:0.067449003 95:0.097378001 112:0.022707 128:0.096826002 156:0.049008001 209:0.067382 219:0.094434999 236:0.054600999 241:0.071203001 267:0.053651001 291:0.135758 294:0.092431001 311:0.069610998 375:0.102743 464:0.061190002 723:0.042312 733:0.098642997 739:0.129241 743:0.076843001 807:0.038860999 935:0.066306002 938:0.117137 967:0.078869998 1077:0.20111901 1103:0.097001001 1108:0.11818 1112:0.206304 1115:0.303765 1252:0.13518099 1253:0.168156 1254:0.125493 1255:0.131963 1256:0.090452999 1257:0.109905 1258:0.107256 1259:0.149102 1260:0.106762 1261:0.35580099 1262:0.192863 1263:0.177275 1264:0.192863 1265:0.300152 1266:0.192863 1267:0.12235 1268:0.105736 1269:0.093220003 1270:0.146099 1271:0.101549 1272:0.12914801 1273:0.13518099 1274:0.090217002 1275:0.105805 #
-1.0000000231766961178436758928001 2:0.071027003 10:0.031342998 11:0.016232001 59:0.047366999 68:0.091346003 75:0.040647 81:0.062698998 84:0.085995004 105:0.044289999 131:0.109829 150:0.068239003 160:0.073233001 183:0.072711997 214:0.049963001 226:0.047095999 232:0.028477 239:0.017653 282:0.113329 292:0.052978002 294:0.094310999 367:0.27259901 383:0.045157999 386:0.096524 387:0.062435001 390:0.067244999 395:0.075673997 419:0.042862002 420:0.148857 452:0.045469999 492:0.150071 572:0.075673997 734:0.10844 858:0.084209003 914:0.113446 941:0.14884099 967:0.080473997 979:0.135289 1004:0.055314001 1126:0.05717 1212:0.10702 1213:0.177498 1214:0.12922201 1361:0.18088 1362:0.18088 1366:0.13793001 1397:0.073550999 1861:0.115204 2037:0.109437 2299:0.28520799 2351:0.115204 2630:0.13177399 2785:0.133165 3125:0.381937 3127:0.164975 3601:0.146368 4496:0.18088 6086:0.17157599 8536:0.18088 11636:0.196785 11637:0.196785 #
-0.48085289529387420515149642596953 2:0.082754001 8:0.16779 9:0.045387 36:0.09003 45:0.059629001 56:0.065187 62:0.061776001 99:0.045887999 105:0.030477 112:0.026993999 122:0.11923 126:0.026542 131:0.060975 138:0.062812999 150:0.079506002 155:0.066670999 186:0.097548001 210:0.076085001 214:0.098563001 219:0.090573996 223:0.142004 231:0.068112999 232:0.056177001 235:0.21794599 300:0.059723001 371:0.101509 389:0.073600002 445:0.169829 460:0.295755 479:0.113496 483:0.21226101 510:0.085945003 595:0.091504999 722:0.073206998 723:0.050299998 811:0.070894003 935:0.078823999 991:0.148182 1115:0.21901099 1268:0.1257 1290:0.140191 1740:0.107813 1910:0.103369 2282:0.119816 2396:0.115695 10714:0.192215 10715:0.481163 10716:0.229277 10717:0.19990601 10718:0.229277 #
-0.3635431256866608618061320612469 4:0.27544999 21:0.215096 27:0.127271 63:0.061275002 105:0.086193003 156:0.078512996 217:0.075237997 219:0.072089002 241:0.092031002 250:0.18300501 352:0.101582 354:0.074748002 375:0.164599 390:0.178765 391:0.206899 497:0.053087998 542:0.25507599 591:0.254327 611:0.18584201 693:0.31987301 1126:0.15198299 1198:0.126809 1877:0.25098899 2312:0.238867 2510:0.16395 2958:0.24442001 4051:0.25098899 12861:0.30897301 #
-0.074474164172520784799047532942495 5:0.094311997 35:0.023957999 45:0.083342999 116:0.191889 121:0.122828 122:0.15239701 315:0.087425999 383:0.073538996 414:0.113694 719:0.106344 858:0.080992997 933:0.085920997 1012:0.09939 1198:0.131523 1217:0.098494001 1419:0.247747 1533:0.14691301 2328:0.22461601 3022:0.20170601 3152:0.455098 3985:0.210435 12631:0.294559 13756:0.32045999 13757:0.32045999 13758:0.32045999 #
-0.97579603745158460803565958485706 10:0.046048999 23:0.047656 35:0.021615 36:0.043506 56:0.082199998 63:0.120328 70:0.072683997 74:0.13096 92:0.108693 105:0.038431998 112:0.03404 116:0.082492001 137:0.058905002 208:0.061879002 214:0.073404998 217:0.070401996 219:0.067456 221:0.054023001 223:0.179065 226:0.117153 239:0.025936 247:0.09087 276:0.113411 290:0.068264998 357:0.112584 389:0.092808001 460:0.35677201 464:0.091729 497:0.049674999 550:0.117394 552:0.101913 592:0.082055002 627:0.107593 671:0.144199 676:0.081055 723:0.151357 760:0.13299 783:0.14446899 797:0.16262899 804:0.186239 933:0.131247 991:0.150754 1004:0.081266001 1027:0.130652 1108:0.104634 1119:0.111874 1225:0.106527 1237:0.149441 1348:0.09251 1501:0.118232 2004:0.161542 2269:0.28340501 2888:0.33901399 2917:0.175596 8621:0.289114 #
1.0000000231766961178436758928001 31:0.050097998 45:0.056620002 63:0.043175999 71:0.091022998 76:0.074207999 112:0.025632 119:0.110769 127:0.076063998 146:0.113181 149:0.071038999 150:0.075494997 156:0.055321999 198:0.072662003 208:0.078893997 219:0.050795998 221:0.040681001 223:0.064251997 288:0.50954503 290:0.051405001 350:0.042785998 411:0.096818 415:0.076842003 464:0.069073997 508:0.071999997 546:0.202306 737:0.229468 760:0.059147 926:0.20139199 964:0.18994699 975:0.13450301 991:0.067047 1004:0.061195001 1027:0.098384 1104:0.181355 1217:0.066914 1218:0.088714004 1351:0.117897 1640:0.120516 1721:0.110223 1955:0.15071499 2192:0.15071499 2237:0.26554799 2343:0.156837 3737:0.172224 3803:0.18251801 3955:0.1184 4977:0.25221699 12124:0.21771 #
1.0000000231766961178436758928001 2:0.096270002 11:0.022 16:0.087614998 36:0.040135998 42:0.24172699 95:0.079539001 102:0.19487999 113:0.078160003 114:0.052735999 119:0.080150001 122:0.089997999 126:0.052278001 131:0.169269 206:0.127832 208:0.096654996 221:0.049839001 226:0.10808 234:0.104703 240:0.053025 283:0.145055 336:0.093304999 352:0.051791999 389:0.085620001 433:0.073567003 444:0.093304999 462:0.159922 464:0.26059601 493:0.120394 537:0.180493 546:0.103864 637:0.17104299 654:0.099546 707:0.105217 708:0.131626 741:0.096529998 760:0.072462998 837:0.078791 855:0.241111 910:0.084535003 933:0.121082 993:0.118287 1007:0.191007 1114:0.144439 1170:0.13082901 2029:0.16308799 2193:0.176829 2816:0.331534 3667:0.232555 3668:0.232555 3669:0.178607 #
1.0000000231766961178436758928001 35:0.017309999 38:0.055973999 75:0.047825001 81:0.073771998 100:0.215156 102:0.169173 114:0.045779999 123:0.06419 126:0.026803 131:0.061577 136:0.27501801 137:0.047175001 164:0.054593001 194:0.082253002 210:0.076834999 212:0.070951 219:0.054021999 239:0.020771001 248:0.055176001 249:0.060169 292:0.130816 299:0.098904997 307:0.127591 340:0.069982 356:0.071448997 405:0.078460999 426:0.074326001 544:0.074166 568:0.158903 650:0.078368001 655:0.15752999 682:0.072324999 743:0.092252001 770:0.090163 825:0.070532002 894:0.060984999 976:0.092097998 980:0.137969 1005:0.13555001 1006:0.129371 1017:0.103199 1120:0.148085 1221:0.118019 1334:0.104389 1412:0.124861 1429:0.116453 1484:0.124347 1485:0.179002 1486:0.140627 1487:0.148085 1488:0.26898199 1489:0.13127799 1490:0.103669 1491:0.232227 1492:0.231538 1493:0.150658 1494:0.121913 1495:0.152043 1496:0.140627 1497:0.115336 1498:0.172217 1499:0.231538 1500:0.119255 #
1.0000000231766961178436758928001 1:0.141003 35:0.037044 36:0.074561998 85:0.14062899 107:0.18413299 142:0.18470301 232:0.121405 239:0.04445 294:0.49835801 418:0.20916399 452:0.114492 458:0.154936 624:0.195464 761:0.222876 786:0.252563 825:0.150939 894:0.13051 1896:0.23361699 2492:0.362461 2772:0.40250799 #
1.0000000231766961178436758928001 11:0.045740001 15:0.094961002 18:0.135132 37:0.123689 52:0.133935 104:0.067989998 108:0.090104997 128:0.097113997 131:0.087100998 142:0.098498002 143:0.130017 145:0.080693997 181:0.25293499 197:0.15003 208:0.118685 221:0.061198 226:0.078382999 231:0.097296998 232:0.047394998 236:0.054763 248:0.132146 249:0.17861401 291:0.136161 306:0.157405 336:0.114572 420:0.19988 435:0.13229001 444:0.298967 450:0.107826 492:0.201511 493:0.147834 523:0.105362 668:0.216484 671:0.096478 739:0.12962499 807:0.065991998 894:0.086264998 930:0.159692 956:0.13138101 1122:0.131157 1211:0.140468 1340:0.122769 1374:0.13005599 1433:0.137455 1494:0.17244799 1515:0.119506 1769:0.153604 2321:0.17811599 2852:0.22673 3392:0.213109 #
-0.0074546924452782818704132949960695 11:0.044916999 31:0.048020002 39:0.074327998 44:0.031468999 91:0.109521 97:0.075626999 98:0.115865 109:0.109357 112:0.024569999 163:0.229423 164:0.049203999 169:0.05466 180:0.065252997 194:0.074134 197:0.056460001 206:0.059069999 217:0.050816 239:0.018719999 246:0.083426997 282:0.057266999 300:0.054358002 350:0.041012 369:0.114484 394:0.075220004 426:0.066988997 445:0.12471 453:0.059810001 493:0.055633001 497:0.035856001 597:0.059489999 771:0.074919 837:0.061646 958:0.101453 962:0.084586002 974:0.138927 1008:0.24437401 1097:0.122875 1268:0.067571998 1340:0.078225002 1557:0.101453 1558:0.108652 1899:0.21754301 2060:0.109054 2257:0.31849301 2334:0.15265299 2993:0.161332 3239:0.14121699 3675:0.18195 4396:0.191816 4717:0.12512299 5362:0.14278699 5483:0.208683 5484:0.38184199 5485:0.208683 5486:0.208683 5487:0.191816 #
-0.11034125127208602168416007316409 8:0.064861998 11:0.034556001 43:0.15428901 70:0.062205002 73:0.105908 87:0.035229001 98:0.097475998 103:0.105695 112:0.049325 113:0.042824 114:0.048921999 121:0.094838001 144:0.18873 184:0.089915 197:0.066944003 206:0.118587 208:0.052958 218:0.118255 232:0.035806 236:0.041373 239:0.022197001 241:0.043529 244:0.048075002 300:0.064452 312:0.082581997 452:0.057172999 489:0.22983301 527:0.130785 544:0.079258002 595:0.098751999 627:0.092081003 631:0.087108999 637:0.093714997 656:0.081006996 661:0.096047997 705:0.089428 758:0.204272 759:0.085066997 881:0.112885 1097:0.14569201 1151:0.23864099 1298:0.106339 1481:0.13635001 1728:0.17449699 1740:0.324826 2016:0.15129399 2080:0.115744 2306:0.110534 4588:0.20743699 8151:0.20099901 9072:0.24743401 9073:0.24743401 9074:0.24743401 9075:0.24743401 #
-0.12614275013228512523077995410858 11:0.017108001 12:0.063179001 18:0.085574001 31:0.047726002 35:0.015506 60:0.049353998 63:0.041131999 81:0.066082001 87:0.029529 94:0.059927002 99:0.041510001 122:0.069982 162:0.073968001 179:0.118857 181:0.061383002 184:0.17985 208:0.04439 221:0.038754001 239:0.018606 244:0.084568001 251:0.097271003 256:0.052779999 267:0.121081 276:0.088964999 308:0.106449 327:0.047660001 328:0.080130003 370:0.039005 393:0.051366001 394:0.074758001 414:0.073582999 448:0.049637001 453:0.059441999 517:0.102668 597:0.059124999 627:0.130684 660:0.110933 701:0.074459001 723:0.045501001 894:0.092494003 947:0.259361 1009:0.16407 1013:0.117338 1060:0.095316 1063:0.14035 1326:0.107205 1424:0.216731 1433:0.087044999 1549:0.148817 1824:0.087380998 1998:0.100537 1999:0.125148 2145:0.128609 2409:0.117011 2731:0.110933 4329:0.13495401 4859:0.16034199 5478:0.15171701 6056:0.16407 7702:0.20740201 7703:0.53221899 7704:0.20740201 #
-0.13917386836035028352398512652144 1:0.072534002 2:0.091999002 11:0.050170999 35:0.019056 44:0.065081 45:0.17298099 50:0.060697999 60:0.060655002 85:0.072342001 86:0.084489003 87:0.036291 91:0.063743003 95:0.076011002 113:0.044114999 124:0.072278 169:0.066763997 184:0.156828 217:0.062068999 239:0.022865999 243:0.13989601 248:0.060741 256:0.064865001 276:0.041900001 323:0.094451003 336:0.089166999 350:0.050092999 370:0.047936 393:0.063128002 430:0.105969 492:0.092625 498:0.094182998 508:0.084297001 550:0.175238 555:0.109994 561:0.095407002 671:0.12713 813:0.103136 906:0.078419998 933:0.068341002 983:0.146006 1026:0.083728999 1122:0.28496701 1125:0.20442399 1209:0.094994001 1211:0.109321 1217:0.132644 1353:0.089392997 1445:0.37902901 1461:0.120177 1468:0.086069003 2056:0.141752 2875:0.18645599 3029:0.207057 3030:0.155854 3579:0.207057 6372:0.22224 9476:0.234291 14288:0.25489199 #
-0.45469638183796273755987726872263 1:0.064841002 6:0.036214001 10:0.036292002 11:0.039443001 23:0.063593 26:0.070173003 41:0.046743002 91:0.056983002 93:0.065838002 95:0.067948997 104:0.047302 105:0.051284 108:0.062688001 115:0.085937999 122:0.045409001 123:0.063170001 131:0.102602 151:0.082241997 164:0.053725999 197:0.16086701 198:0.076049 208:0.048767999 226:0.054533001 236:0.0381 239:0.020440999 249:0.100257 272:0.049244002 292:0.061344001 388:0.16948099 457:0.071765997 463:0.117361 497:0.136436 552:0.080320999 575:0.081803001 723:0.049989 920:0.113147 974:0.089592002 1023:0.531542 1065:0.235264 1069:0.086691 1309:0.120438 1348:0.072910003 1420:0.155294 1587:0.235898 1669:0.085165001 1717:0.114603 1954:0.107147 2436:0.20086899 2438:0.121387 4348:0.16668101 4636:0.27792799 5356:0.16668101 7657:0.180254 7850:0.191026 9222:0.18509801 #
1.0000000231766961178436758928001 11:0.01771 36:0.032308999 54:0.162027 62:0.097948 70:0.053977001 88:0.094393998 103:0.091714002 112:0.025279 113:0.037159 114:0.042451002 128:0.107791 131:0.057100002 137:0.043745 143:0.050340001 156:0.032223001 170:0.154157 218:0.102612 227:0.078342997 232:0.052606001 239:0.01926 256:0.054637998 257:0.118488 267:0.059726998 393:0.053174 410:0.068048 418:0.090632997 452:0.04961 459:0.14001 473:0.098916002 491:0.074638002 497:0.062461 510:0.080481999 550:0.147608 559:0.073724002 570:0.088279001 591:0.10438 722:0.068553999 728:0.094847001 739:0.084976003 760:0.058329999 811:0.066388004 945:0.085545003 995:0.186974 1004:0.060350001 1008:0.163138 1127:0.075682998 1171:0.086723 1375:0.339681 1397:0.080247998 1403:0.102049 1424:0.085979998 2083:0.20216601 2888:0.334914 2917:0.130402 3105:0.25165901 3347:0.154671 3973:0.145291 5453:0.187199 10211:0.19735 10723:0.21470299 10724:0.21470299 10725:0.21470299 #
1.0000000231766961178436758928001 8:0.214155 22:0.075217001 38:0.067041002 45:0.072122999 60:0.065991998 62:0.074721001 76:0.045042001 92:0.29106501 98:0.064524002 105:0.077362999 119:0.174886 121:0.13174701 122:0.055266 126:0.076606996 137:0.056501999 156:0.099319004 208:0.059354 221:0.051819 223:0.081845 227:0.10119 239:0.024878001 267:0.077146001 272:0.059932001 281:0.115293 290:0.065480001 323:0.102761 327:0.063726999 350:0.054501001 497:0.124337 550:0.112605 592:0.078707002 716:0.099033996 760:0.179787 783:0.081845 825:0.084477998 832:0.153514 837:0.081920996 936:0.14658099 937:0.093094997 1108:0.26189601 1127:0.097755998 1151:0.26746401 1225:0.102181 1305:0.110493 1433:0.116389 1788:0.119182 2009:0.12905701 2039:0.13521799 3776:0.554793 #
1.0000000231766961178436758928001 8:0.16589101 11:0.03387 31:0.055806998 38:0.058628999 39:0.086379997 44:0.061921999 70:0.060970001 75:0.050092999 105:0.032237999 112:0.028554 119:0.072876997 123:0.067234002 127:0.084732004 137:0.049412001 142:0.043076999 156:0.036398001 162:0.086493 169:0.063523002 202:0.081317998 205:0.052685998 219:0.095806003 223:0.121186 229:0.085488997 232:0.073651001 239:0.021756001 243:0.078613997 322:0.070651002 327:0.05573 354:0.058671001 356:0.074837998 365:0.117903 370:0.045609001 445:0.223364 494:0.085161999 497:0.099436 597:0.117058 660:0.12971599 690:0.096144997 723:0.053206 760:0.065888003 783:0.071574003 811:0.074988998 858:0.061294001 881:0.110643 892:0.121191 979:0.20666 1146:0.077767998 1236:0.116556 1374:0.096304998 1396:0.121581 1397:0.090645 1403:0.115271 1781:0.21145301 1782:0.17471001 1783:0.269642 1784:0.13133299 1785:0.35802001 1786:0.410622 1787:0.24252 1788:0.104227 1789:0.17471001 #
1.0000000231766961178436758928001 3:0.085391 14:0.087554999 35:0.019994 36:0.040243998 73:0.114468 91:0.066880003 97:0.164097 101:0.12414 104:0.116509 105:0.099246003 115:0.059572 122:0.053296 130:0.13975599 142:0.047502998 162:0.095377997 206:0.075700998 210:0.088747002 217:0.136667 221:0.049972001 232:0.100987 239:0.023991 244:0.051961001 250:0.093553998 256:0.068057001 267:0.074395999 270:0.118402 293:0.080596998 312:0.089258 322:0.077909 352:0.051929999 445:0.094392002 452:0.061795 465:0.091943003 563:0.16965701 572:0.102842 634:0.100839 648:0.11224 782:0.102056 797:0.150434 803:0.098263003 804:0.17227399 807:0.053886 936:0.14135601 962:0.1084 978:0.10917 995:0.110976 1004:0.075172 1223:0.212924 1234:0.104308 1339:0.146072 1515:0.097584002 1751:0.185138 1998:0.129637 2196:0.162429 2396:0.134949 2691:0.296235 3881:0.18744899 4325:0.14027999 4351:0.18744899 4734:0.185138 6564:0.267434 6565:0.267434 #
1.0000000231766961178436758928001 5:0.070540003 7:0.100594 16:0.205451 21:0.098549999 65:0.066165999 105:0.053946 128:0.169596 137:0.082684003 151:0.086511001 212:0.073448002 217:0.098821998 226:0.136885 231:0.071204998 276:0.082686 282:0.065775 352:0.046542 356:0.125231 474:0.072444998 497:0.13167 591:0.197294 611:0.085147001 699:0.078645997 737:0.096813999 753:0.10935 882:0.10935 885:0.17085899 907:0.115852 941:0.107073 978:0.097842999 1117:0.16592801 1331:0.114551 1370:0.096478999 1415:0.29153699 1534:0.123892 1650:0.088315003 1651:0.127184 1929:0.164 2299:0.145575 2341:0.220313 2351:0.237582 3115:0.30742201 8285:0.220313 12508:0.239685 12509:0.239685 12510:0.239685 #
-0.062768515519102632826964338619291 8:0.16456699 11:0.068887003 35:0.022365 65:0.08258 75:0.061790001 87:0.042591002 105:0.067327999 108:0.082300998 109:0.12647501 112:0.035220999 119:0.15220299 123:0.082933001 126:0.034630001 156:0.076016001 206:0.084677003 212:0.155209 217:0.072844997 249:0.131623 267:0.083218001 272:0.064649999 300:0.077922001 312:0.099841997 322:0.087148003 323:0.110849 325:0.125072 327:0.144264 350:0.058789998 369:0.164112 370:0.056258999 429:0.116121 433:0.082510002 445:0.105585 493:0.135029 494:0.17785899 497:0.087026 510:0.112135 559:0.10272 736:0.186866 760:0.081271999 778:0.079621002 783:0.088285998 807:0.060276002 935:0.102845 981:0.128563 1008:0.134247 1108:0.18330701 1218:0.121898 1641:0.14336801 1688:0.151453 1713:0.14377099 1724:0.127785 1808:0.19132499 1815:0.202434 1930:0.173191 1951:0.19132499 1954:0.140668 1972:0.162688 2024:0.167147 2166:0.18291301 3162:0.23127 3163:0.26082501 #
-0.61940665729531874106328359630425 31:0.053257 35:0.017302999 36:0.034827001 38:0.055950001 42:0.068112999 62:0.062359001 63:0.045899 64:0.082433999 70:0.122107 104:0.100829 113:0.084063001 126:0.026791999 131:0.061551001 142:0.041110002 151:0.083535001 221:0.073221996 232:0.056706998 236:0.038699001 239:0.043570999 257:0.180013 267:0.064383 324:0.073430002 368:0.117569 370:0.043526001 387:0.073430002 392:0.066690996 434:0.112613 445:0.31779799 597:0.065977998 623:0.078615002 779:0.201793 789:0.165097 804:0.088054001 858:0.058494002 887:0.090125002 892:0.115655 905:0.140568 909:0.12379 937:0.077693999 1004:0.065054998 1099:0.31604099 1223:0.108831 1225:0.085276999 1234:0.152839 1785:0.52656603 1805:0.18378399 2022:0.115655 3639:0.13791101 8771:0.201793 8772:0.23144101 #
-0.057052020763191935159852619108278 11:0.032724999 35:0.017518001 70:0.058908001 76:0.079869002 91:0.058598999 93:0.17667 94:0.067704 98:0.054519001 113:0.040555 119:0.18373799 126:0.027124999 137:0.047741 143:0.054939002 181:0.145537 208:0.050151002 221:0.043784 226:0.056079 229:0.082598001 232:0.033909 239:0.021020001 291:0.097415999 293:0.070616998 308:0.20362499 352:0.045499999 385:0.084968001 392:0.067520998 428:0.090671003 492:0.14417 530:0.114426 544:0.075057 595:0.093517996 650:0.079309002 668:0.064905003 701:0.084122002 764:0.093203999 800:0.247325 811:0.072453 855:0.075873002 1008:0.220679 1057:0.16081101 1069:0.089148998 1203:0.119031 1358:0.119436 1662:0.111678 1784:0.126892 1824:0.207178 1852:0.177504 2199:0.117852 2430:0.109896 2765:0.190345 3150:0.47914901 8628:0.190345 10960:0.215381 12010:0.234319 #
-0.49903598205905719265018660735223 2:0.081179 10:0.035822999 12:0.068512999 21:0.241311 105:0.029897001 112:0.026481001 126:0.026036 128:0.066689998 195:0.099138997 227:0.082068004 236:0.063675001 239:0.020176001 276:0.036972001 313:0.155579 370:0.071616001 385:0.048168998 389:0.072199002 390:0.076857001 443:0.056246001 444:0.078679003 450:0.074046999 465:0.077324003 492:0.138383 529:0.189096 552:0.079282001 560:0.071889997 633:0.148055 634:0.084806003 648:0.094393998 654:0.14212599 671:0.066253997 677:0.13493 737:0.190653 780:0.098650999 926:0.099138997 951:0.244122 953:0.098286003 978:0.091812 1019:0.106325 1108:0.13781901 1920:0.128833 2299:0.231289 2338:0.212777 2339:0.143848 2340:0.177922 2341:0.35003099 2342:0.19610099 2343:0.27433401 2344:0.167289 2345:0.152199 2346:0.140495 2347:0.224912 #
-0.62699514561175728744046864449047 2:0.249704 10:0.110191 19:0.217445 35:0.051722001 113:0.119737 114:0.136787 143:0.16220801 475:0.287083 722:0.220898 778:0.184137 787:0.23333301 1234:0.26983401 1334:0.31190899 1424:0.27704901 1515:0.25243899 1549:0.293185 1736:0.265223 2616:0.360203 #
1.0000000231766961178436758928001 5:0.114794 6:0.036612999 9:0.045604002 11:0.019002 21:0.160377 24:0.089996003 33:0.13806801 60:0.092818998 63:0.045687001 69:0.048462 99:0.046107002 105:0.030623 121:0.05215 126:0.026667999 144:0.073636003 151:0.083149001 199:0.080487996 205:0.050046999 223:0.067988999 231:0.068438001 239:0.020666 265:0.114039 280:0.10268 281:0.095775001 304:0.111997 311:0.140784 327:0.052937999 340:0.069629997 350:0.076655999 352:0.044732999 390:0.078722 394:0.083038002 405:0.20370799 444:0.19230901 450:0.075845003 463:0.2009 580:0.155894 582:0.139008 589:0.140861 591:0.18962801 650:0.077973999 812:0.090580001 823:0.13196 833:0.10268 835:0.100888 837:0.068053 882:0.105101 951:0.151649 1370:0.092730001 1730:0.138127 2040:0.148589 2060:0.120389 2220:0.28987601 2572:0.125286 3073:0.20947801 4251:0.26395199 4792:0.18224099 9090:0.327003 11554:0.230372 #
1.0000000231766961178436758928001 6:0.035209998 11:0.018274 15:0.037937999 23:0.112456 31:0.15018199 35:0.016563 36:0.056446001 38:0.053557999 63:0.043937001 73:0.094825998 75:0.077480003 112:0.044163998 114:0.043804001 142:0.039351001 172:0.164525 191:0.111426 192:0.164738 199:0.131055 205:0.048129 212:0.067888997 239:0.019874001 246:0.14996099 272:0.047878999 350:0.073719002 383:0.050840002 441:0.17877799 445:0.132396 448:0.053020999 449:0.189282 575:0.079535998 600:0.104454 637:0.176093 760:0.060189001 770:0.086271003 783:0.110704 810:0.102839 887:0.086271003 937:0.074371003 938:0.227825 939:0.289994 1004:0.062272999 1020:0.107083 1119:0.14514901 1170:0.108668 1284:0.122083 1426:0.213147 2081:0.130448 6437:0.42735699 10855:0.18573201 12486:0.221544 12487:0.221544 12488:0.221544 #
1.0000000231766961178436758928001 5:0.131782 6:0.042032 11:0.021814 22:0.12145 23:0.043593001 33:0.075526997 43:0.069107004 44:0.039882001 48:0.078345001 49:0.071024001 75:0.092491001 76:0.072728001 85:0.075058997 86:0.087661996 87:0.063753001 94:0.076415002 104:0.054901 105:0.035154998 142:0.046976 160:0.098420002 180:0.082695998 198:0.088266999 200:0.128951 205:0.097277001 217:0.064400002 226:0.063294001 236:0.092803001 239:0.023724001 240:0.052576002 241:0.046525002 256:0.067302004 271:0.081122003 351:0.065645002 385:0.056639999 390:0.090373002 393:0.065499 470:0.071199 480:0.15856899 497:0.076936997 661:0.102659 693:0.27379599 699:0.086777002 723:0.058019999 738:0.074597999 744:0.16283 783:0.078051001 887:0.102986 889:0.242024 894:0.069657996 928:0.093707003 941:0.118143 967:0.108152 987:0.161708 1116:0.31741101 1217:0.081284001 1342:0.100166 1415:0.134802 1490:0.118412 1600:0.12502401 1737:0.150709 1756:0.17299899 2104:0.154827 2551:0.208921 2917:0.16062599 3071:0.173666 3144:0.18095601 3354:0.20921201 10874:0.26446599 #
1.0000000231766961178436758928001 23:0.038369 44:0.073665 45:0.060538001 60:0.055390999 63:0.046163 65:0.064257003 69:0.048967 86:0.16192099 99:0.046587002 104:0.11531 105:0.030942 112:0.027406 114:0.046023 126:0.026946001 150:0.080718003 151:0.084014997 156:0.034935001 169:0.060970001 205:0.085619003 239:0.020881001 284:0.093216002 286:0.103285 293:0.118775 314:0.104221 328:0.089930996 336:0.081427999 351:0.057778001 392:0.067074001 393:0.097608998 419:0.050700001 440:0.075453997 444:0.081427999 535:0.13333499 543:0.21627399 560:0.156142 676:0.065257996 723:0.051066998 738:0.065658003 837:0.068761997 838:0.15274499 928:0.139645 929:0.21165 1054:0.108326 1217:0.071543001 1219:0.099035002 1338:0.089930996 1422:0.084242001 1524:0.122098 1540:0.085767001 1669:0.18258099 1741:0.102159 2056:0.219179 2272:0.138704 2326:0.200206 2927:0.141376 3639:0.138704 4478:0.136272 5833:0.343629 5836:0.213958 7972:0.195144 13204:0.195144 13577:0.23277099 13578:0.23277099 #
1.0000000231766961178436758928001 1:0.12908 8:0.070226997 88:0.069564998 102:0.24261799 113:0.046367001 114:0.05297 116:0.12942401 126:0.031013001 127:0.15847901 128:0.079438001 131:0.185917 137:0.092418 143:0.062812999 160:0.099698998 190:0.231589 192:0.094924003 201:0.182585 204:0.093131997 210:0.088903002 219:0.105833 232:0.038768001 239:0.024033001 241:0.04713 354:0.064811997 383:0.061478 418:0.11309 445:0.094558001 454:0.112009 464:0.084999003 465:0.092104003 497:0.046030998 559:0.091991998 676:0.127169 723:0.058773998 730:0.097889997 791:0.164162 797:0.089004003 804:0.101926 825:0.081609003 933:0.221195 977:0.095923997 986:0.116824 1077:0.198222 1331:0.12803701 1547:0.215013 2265:0.19027799 3021:0.181291 3928:0.32677099 4012:0.161654 4098:0.267903 4099:0.192996 4100:0.202944 #
-0.69585537793046337018409985830658 5:0.053831998 15:0.053034998 18:0.044574 31:0.042091001 35:0.023154 76:0.029709 105:0.024315 128:0.113824 142:0.055011 169:0.047911 191:0.15576699 219:0.042677999 220:0.103196 221:0.034178998 232:0.044817999 236:0.090102002 300:0.047646999 350:0.035948001 356:0.056444999 370:0.034400001 418:0.077215001 426:0.058718 443:0.045743998 464:0.121792 506:0.091116004 541:0.077064998 568:0.074142002 585:0.073756002 661:0.071004003 671:0.053883001 760:0.049694002 787:0.061691999 825:0.055720001 838:0.070891999 936:0.096683003 1018:0.100797 1025:0.086240999 1027:0.082661003 1108:0.066198997 1366:0.12820899 1515:0.066744 1650:0.067396998 1662:0.087178998 1741:0.080278002 1956:0.10834 2129:0.111096 2228:0.136052 2372:0.32466 2444:0.111096 2675:0.23461001 3492:0.23943201 3493:0.193462 3724:0.19493601 4658:0.32466 4800:0.12820899 4841:0.141412 6115:0.148589 8463:0.159484 9675:0.30970401 9676:0.30970401 9677:0.182916 #
-0.093811266794126393908648253727733 8:0.116793 10:0.033815 31:0.048854001 35:0.015872 45:0.055213999 50:0.050556999 59:0.051102001 88:0.055128001 105:0.073642001 112:0.024995999 119:0.13388599 122:0.042309001 156:0.031863 170:0.072636001 218:0.101465 230:0.097093001 239:0.032246001 260:0.093581997 267:0.099996999 293:0.063982002 325:0.088762999 350:0.041723002 370:0.039926998 389:0.068152003 418:0.089620002 497:0.036478002 541:0.089446001 592:0.060254999 676:0.059519999 730:0.077574 783:0.062656999 807:0.042778 894:0.094679996 907:0.102617 937:0.071269996 975:0.077467002 1001:0.098301001 1069:0.080773003 1077:0.25900999 1119:0.082152002 1223:0.099832997 1240:0.103517 1269:0.102617 1291:0.258955 1539:0.107848 1542:0.096858002 1583:0.15174 1647:0.092776999 1821:0.111363 2156:0.155302 2234:0.177986 2250:0.117524 3117:0.321394 3246:0.29200301 3598:0.155302 3601:0.157911 3973:0.143667 4290:0.143667 4894:0.152943 5719:0.172462 5720:0.164132 5721:0.36193001 #
-0.22303968899557097271824090967129 11:0.016897 35:0.015315 56:0.058242001 109:0.107349 122:0.120264 124:0.058088001 126:0.023714 143:0.04803 147:0.135279 164:0.048301 171:0.080155 179:0.069334999 198:0.143482 204:0.071213 209:0.071571 239:0.018377 256:0.052131001 267:0.056986 271:0.062835999 290:0.048369002 315:0.094622999 324:0.064994 326:0.078897998 370:0.038525 385:0.043871999 392:0.059029002 418:0.086474001 454:0.085647002 478:0.094850004 485:0.094850004 539:0.123375 583:0.077356003 611:0.072772004 619:0.181934 630:0.12612499 637:0.077587001 665:0.072678 759:0.147799 791:0.125526 961:0.116147 1124:0.143583 1305:0.081619002 1329:0.097902998 1344:0.17332201 1375:0.110015 1397:0.129636 1580:0.117962 1811:0.12995499 3534:0.152367 3764:0.14757399 4825:0.145495 4908:0.15837 5170:0.425372 7635:0.15837 8813:0.18829399 8814:0.178609 8815:0.204851 8816:0.204851 8817:0.178609 8818:0.29077601 #
0.52172709661212834930665849242359 5:0.05762 35:0.014637 43:0.122084 91:0.082901001 105:0.080144003 112:0.023050999 182:0.074265003 214:0.129714 232:0.059459001 241:0.034442998 290:0.078272 293:0.059004001 326:0.075406998 353:0.066188999 367:0.25702399 370:0.077271998 372:0.128566 373:0.118139 378:0.30470201 383:0.076072 384:0.088895999 386:0.201538 387:0.130362 390:0.066904001 420:0.070570998 428:0.075759999 452:0.076596998 491:0.068062 723:0.042952999 807:0.066794999 926:0.086300999 1218:0.079781003 1289:0.097526997 1355:0.19297899 1805:0.091824003 1994:0.085376002 2011:0.113976 4249:0.27790999 4820:0.25111699 7395:0.145625 9260:0.30470201 9261:0.33149499 9262:0.41088 #
-0.18914673969020795452067318365152 6:0.111706 11:0.077676997 32:0.248328 33:0.219494 44:0.044417001 69:0.104909 83:0.076481998 88:0.076481998 105:0.039152998 107:0.109455 113:0.050976999 114:0.058235999 115:0.065609999 123:0.194855 126:0.057730999 155:0.085648999 169:0.077148996 180:0.092099003 192:0.104363 208:0.063040003 229:0.103826 232:0.042622998 267:0.081936002 322:0.085805997 354:0.120647 385:0.185829 393:0.12351 414:0.104498 418:0.124334 430:0.122452 433:0.081239998 452:0.068057999 497:0.085685998 546:0.194199 676:0.13981301 699:0.096644998 777:0.101139 807:0.100485 1069:0.11206 1217:0.090526998 1225:0.183751 1462:0.34122601 1515:0.107474 1736:0.112917 1961:0.14116099 2039:0.14361501 2393:0.19931699 2566:0.197235 6771:0.23300301 7635:0.227709 11635:0.294541 #
1.0000000231766961178436758928001 11:0.018780001 15:0.038989 35:0.017022001 62:0.061347 88:0.059121002 91:0.056938998 105:0.084494002 126:0.026357001 128:0.067511998 156:0.057856001 213:0.090869002 221:0.042544 232:0.032947998 233:0.093108997 241:0.040054001 244:0.074900001 248:0.091866001 250:0.079648003 276:0.037427001 311:0.082177997 326:0.087691002 327:0.05232 348:0.107925 350:0.044746 452:0.052609 457:0.071709998 483:0.080778003 538:0.108218 552:0.168431 594:0.096111998 658:0.116452 665:0.080778003 669:0.110368 722:0.123089 730:0.083192997 733:0.27788901 738:0.064222999 759:0.132533 811:0.119199 895:0.091647997 977:0.081523001 1002:0.22698601 1004:0.063997999 1217:0.069977999 1422:0.082401 1483:0.199981 1513:0.126037 1542:0.17587399 1665:0.109736 2075:0.122276 2088:0.14951099 2338:0.12721699 2644:0.20928 2664:0.27771199 3512:0.13921601 3666:0.130419 4154:0.154074 6144:0.164021 6508:0.16655099 6820:0.17602099 7970:0.198515 13696:0.35434201 #
1.0000000231766961178436758928001 11:0.04033 35:0.021589 56:0.172304 60:0.068719 75:0.059648 76:0.079414003 87:0.041115001 89:0.084360003 104:0.059948001 105:0.038387001 108:0.079448 109:0.122092 115:0.064326003 121:0.065371998 124:0.228607 128:0.085626997 131:0.214405 201:0.11624 207:0.12757 216:0.079921998 229:0.101795 232:0.041788999 236:0.048285998 239:0.025905 241:0.050802 265:0.14295 271:0.088578999 276:0.080374002 312:0.096381001 314:0.129297 324:0.091622002 327:0.066359997 352:0.056074001 385:0.061845999 445:0.101925 597:0.082323 650:0.097741999 723:0.107267 739:0.114293 783:0.085225999 797:0.095939003 807:0.098518997 861:0.141647 937:0.096941002 1234:0.190703 1277:0.19758999 1374:0.114674 1397:0.107934 1424:0.195802 1493:0.187903 1549:0.122379 2282:0.15091 2595:0.180389 2691:0.134048 3672:0.18319701 3813:0.20803399 5244:0.26543701 5245:0.28877699 5246:0.26543701 #
1.0000000231766961178436758928001 7:0.091564 35:0.016310999 36:0.03283 61:0.079063997 65:0.101971 95:0.065058999 99:0.043664001 113:0.105414 138:0.059769001 163:0.25661001 164:0.051440999 172:0.077202 197:0.16478699 208:0.046693999 241:0.038380001 279:0.11359 299:0.093194 356:0.067322999 383:0.050065 434:0.106155 448:0.088404998 487:0.470873 492:0.079279996 545:0.079827003 741:0.078956999 764:0.086778998 811:0.067459002 817:0.087970003 874:0.062527999 907:0.105451 960:0.26910099 1007:0.15623499 1008:0.097906999 1020:0.105451 1056:0.120223 1105:0.127722 1110:0.14767499 1115:0.123084 1126:0.107316 1128:0.217502 1133:0.074552 1721:0.110455 1876:0.144639 1976:0.123697 2165:0.093006998 2184:0.084687002 2229:0.143264 3371:0.110827 3457:0.17722499 4766:0.24996801 10717:0.19022 14225:0.21816801 #
1.0000000231766961178436758928001 23:0.034309998 31:0.047897 35:0.015562 36:0.031321999 37:0.046427999 42:0.061259001 50:0.049566999 63:0.069893003 64:0.074137002 65:0.057459999 81:0.066320002 85:0.059075002 95:0.062072001 116:0.059390999 118:0.18556499 126:0.024095999 138:0.057025 143:0.048803002 145:0.051284999 155:0.060527001 156:0.065559 170:0.071213998 184:0.158737 239:0.018673001 247:0.065421999 271:0.063847996 276:0.095523998 290:0.049146999 297:0.14365301 313:0.055178002 403:0.159263 404:0.113132 426:0.066817999 448:0.049814999 630:0.12815601 676:0.058355 682:0.065018997 685:0.084817998 686:0.091750003 723:0.045665 738:0.058713 751:0.13312601 756:0.147838 787:0.070202999 791:0.075331002 831:0.12815601 959:0.181485 961:0.118017 995:0.086374998 1012:0.064557001 1126:0.060472 1174:0.144096 1318:0.12815601 1426:0.095425002 1431:0.13312601 1456:0.12815601 1587:0.12727299 1729:0.098401003 1868:0.115224 1897:0.115224 1913:0.099205002 2306:0.092984997 2409:0.117432 2436:0.108374 2693:0.260295 3152:0.140855 3666:0.201875 8632:0.16908599 11373:0.181485 11374:0.496705 #
1.0000000231766961178436758928001 23:0.044135001 31:0.061613999 36:0.040291999 63:0.089907996 76:0.043489002 84:0.117009 87:0.038121998 89:0.078217998 103:0.24003001 104:0.055583999 110:0.22313599 112:0.031525001 122:0.090346999 126:0.030996 131:0.071208 138:0.153942 156:0.068039 165:0.131733 186:0.192883 197:0.072442003 205:0.058168001 219:0.062472001 232:0.038747001 236:0.075804003 239:0.024019999 240:0.053229999 276:0.105032 297:0.21012101 313:0.070978999 351:0.066462003 371:0.118544 397:0.082212999 419:0.058320001 443:0.06696 447:0.27005899 459:0.174606 523:0.086136997 560:0.085584 579:0.097971 592:0.075993001 705:0.096772999 760:0.123165 817:0.107964 833:0.119342 1069:0.21378499 1125:0.23482101 1334:0.120717 1408:0.164855 2083:0.25211999 2767:0.155873 3039:0.202832 3234:0.27014199 3580:0.168532 3583:0.157657 4668:0.233455 #
-0.24541889525874227562241003397503 26:0.071957 35:0.017468 36:0.035160001 42:0.068764001 60:0.055601001 75:0.048262 99:0.046762999 104:0.048503999 128:0.069282003 137:0.080603004 139:0.114607 150:0.081023999 198:0.132036 208:0.119334 209:0.081634 227:0.085257001 232:0.033812001 236:0.101948 239:0.020959999 247:0.073438004 256:0.100675 310:0.102545 312:0.077982999 351:0.057996999 371:0.103446 382:0.106856 392:0.067327999 393:0.057867002 443:0.098934002 449:0.117903 494:0.082047999 591:0.113592 634:0.088101 648:0.098062001 650:0.1339 661:0.090697996 721:0.088628002 722:0.074603997 783:0.144714 789:0.098440997 807:0.079713002 837:0.069022 882:0.106598 920:0.116023 1061:0.27386901 1169:0.122103 1341:0.111979 1353:0.081944004 1423:0.112294 1469:0.101889 2210:0.274822 2945:0.43666101 3213:0.227808 5744:0.19588301 5800:0.189803 6440:0.36471599 #
-0.25980921347736329884980932547478 5:0.105955 19:0.066831999 23:0.059344001 36:0.031996999 69:0.044730999 87:0.051258001 97:0.077059001 114:0.042041998 151:0.076747 194:0.127896 205:0.046193 239:0.019075001 275:0.081267998 297:0.118395 304:0.103374 309:0.129145 340:0.167704 411:0.160105 429:0.082539 497:0.061859 499:0.15834799 523:0.068405002 535:0.1218 561:0.07959 737:0.14542 765:0.086188003 811:0.065747999 825:0.064773001 835:0.093120001 915:0.26124099 937:0.071379997 1054:0.20766699 1540:0.078346997 2116:0.145491 2148:0.26322201 2321:0.115639 2672:0.274744 2833:0.255705 3073:0.114195 3076:0.115639 3101:0.236414 4405:0.42031899 4456:0.168209 4457:0.15815599 4458:0.155544 4459:0.17273 #
-0.11859239602348242703655500918103 6:0.037306 8:0.061531998 10:0.037386999 35:0.017549001 36:0.035323001 58:0.081297003 113:0.040626001 114:0.046411 116:0.1134 122:0.046778999 144:0.12703601 149:0.076594003 181:0.069471002 186:0.099869996 197:0.063507996 219:0.054768 231:0.069734 239:0.021057 257:0.076508999 265:0.116197 276:0.065332003 327:0.053939998 337:0.166144 351:0.058265001 353:0.079355001 383:0.053865999 392:0.067639999 399:0.107876 410:0.074395999 419:0.051127002 424:0.115839 434:0.114214 458:0.073398001 470:0.106997 489:0.128775 575:0.084270999 650:0.079448998 682:0.15387601 685:0.20073301 700:0.174427 760:0.063772 767:0.145421 846:0.096339002 1007:0.168098 1012:0.072802 1122:0.094001003 1133:0.080211997 1149:0.094979003 1340:0.087990001 1348:0.075108998 1608:0.14662901 1896:0.110672 1945:0.14662901 2500:0.174593 2582:0.14662901 2693:0.139873 3666:0.429892 4481:0.21575999 5336:0.190681 6181:0.162499 7581:0.196789 8489:0.21575999 8490:0.21575999 #
-0.13348547987383524437987603050715 11:0.033737998 35:0.018061001 36:0.036352001 37:0.053884 91:0.060412999 98:0.056207001 99:0.048349001 112:0.028441999 113:0.041809998 124:0.115983 131:0.179359 142:0.042909 164:0.096441001 180:0.075538002 194:0.223938 201:0.097240001 208:0.051704001 219:0.095432997 234:0.094830997 271:0.074100003 276:0.039710999 285:0.107191 315:0.111587 323:0.089515999 393:0.059829999 396:0.18921199 397:0.074174002 419:0.052616999 459:0.093042001 540:0.149799 559:0.082951002 583:0.091224 592:0.068562001 597:0.14452399 668:0.066914998 669:0.117102 676:0.067726001 731:0.076889001 737:0.097576998 765:0.097919002 778:0.108866 780:0.062581003 863:0.101976 874:0.117227 885:0.082056999 964:0.100432 1023:0.183 1131:0.159531 1146:0.077463999 1211:0.103609 1217:0.074248001 1338:0.093332 1347:0.115776 1422:0.148029 1458:0.14395 1709:0.257449 1722:0.148736 1738:0.22205 2329:0.121501 2583:0.19623899 3732:0.167236 3979:0.19623899 4335:0.145768 5634:0.210628 5969:0.22205 6675:0.241575 #
-0.27156315614586262752183642987802 1:0.064175002 7:0.094648004 36:0.033936001 53:0.097723 63:0.044725001 85:0.064005002 98:0.052471001 104:0.046815999 163:0.22673 169:0.059069999 170:0.077156998 174:0.15786199 191:0.113425 201:0.090777002 203:0.103898 214:0.057257999 216:0.062414002 236:0.037709001 325:0.094287999 370:0.042412002 393:0.094567001 397:0.069243997 443:0.056398001 465:0.077532001 472:0.130564 562:0.12372 579:0.082516998 679:0.095013 689:0.139842 723:0.049476001 802:0.119201 818:0.085929997 882:0.102887 885:0.076603003 910:0.071475998 938:0.231911 953:0.098550998 1116:0.113425 1154:0.109004 1305:0.089854002 1339:0.29393801 1342:0.085414 1477:0.15994699 1667:0.13438199 2001:0.38055199 2038:0.116569 2346:0.140873 2354:0.136079 3804:0.141947 3840:0.27931601 4004:0.17840099 4213:0.189064 4429:0.18319599 4430:0.174348 4431:0.17840099 #
1.0000000231766961178436758928001 8:0.18323199 11:0.020652 35:0.018719001 50:0.100951 64:0.089178003 65:0.117026 70:0.062945999 99:0.050110999 105:0.033282001 113:0.090940997 119:0.157896 122:0.119069 126:0.028984001 137:0.107057 222:0.085974 223:0.155074 260:0.110364 267:0.069651 281:0.104092 292:0.114129 303:0.123183 313:0.066372 433:0.069058999 497:0.120101 542:0.122082 550:0.172134 651:0.112621 669:0.121369 701:0.089887001 741:0.190165 753:0.114228 855:0.17014 1033:0.098607004 1133:0.179554 1260:0.13860001 1270:0.189668 1422:0.090613998 1907:0.20339 1972:0.13616601 2319:0.147425 3977:0.16766199 5215:0.189668 5868:0.161493 6304:0.230141 7168:0.51684397 #
1.0000000231766961178436758928001 8:0.153065 10:0.065989003 50:0.05827 63:0.082165003 70:0.196683 99:0.136722 105:0.032527 112:0.02881 141:0.355097 199:0.085492 217:0.059586 227:0.089286 281:0.101729 290:0.097824 322:0.071285002 346:0.117935 370:0.077915996 383:0.056152999 389:0.078548998 414:0.086814001 464:0.077636003 484:0.092265002 497:0.071185999 507:0.154018 508:0.137018 510:0.155303 523:0.078718998 592:0.145744 595:0.165351 701:0.148739 719:0.081201002 739:0.096845999 874:0.070130996 894:0.064451002 953:0.106932 1069:0.093096003 1103:0.12307 1135:0.192316 1237:0.21415199 1256:0.114762 1268:0.079232998 1349:0.106255 1638:0.129337 1778:0.134841 2832:0.28036201 2887:0.354646 10181:0.24469499 10182:0.24469499 #
1.0000000231766961178436758928001 1:0.072196998 11:0.035432 14:0.083061002 52:0.103752 76:0.11504 91:0.063446999 113:0.04391 115:0.056513999 122:0.120653 143:0.059485 151:0.091572002 239:0.022759 240:0.085399002 244:0.049293999 267:0.197035 276:0.041705001 303:0.21134099 323:0.094012 330:0.103567 350:0.049860001 352:0.128553 353:0.085770003 401:0.093350001 433:0.069977 497:0.043591999 515:0.166601 606:0.180196 634:0.161972 716:0.090602003 723:0.055659998 741:0.091819003 771:0.091082998 800:0.12760299 852:0.107307 887:0.098796003 965:0.13681699 977:0.090841003 993:0.066453002 1093:0.22498199 1100:0.126379 1211:0.108813 1217:0.077977002 1218:0.103383 1497:0.126379 1515:0.092574999 1741:0.111347 1803:0.166601 2009:0.118069 2227:0.165084 4013:0.206095 4153:0.206095 5516:0.180196 6890:0.212696 7668:0.253708 7669:0.22120699 7670:0.212696 7671:0.253708 #
1.0000000231766961178436758928001 8:0.057909999 10:0.035186999 11:0.018222 18:0.053833999 26:0.068034999 32:0.071377002 41:0.076732002 93:0.063831002 94:0.063831002 103:0.094368003 104:0.077648997 105:0.070076004 122:0.092393003 126:0.043299999 148:0.102288 149:0.072085001 207:0.097592004 236:0.036938999 239:0.019818 241:0.038864002 244:0.042923 276:0.036315002 282:0.102646 300:0.057544999 313:0.058561999 324:0.070091002 370:0.041545998 383:0.085836001 389:0.070915997 435:0.089233004 492:0.135924 504:0.074685 523:0.071069002 591:0.18184499 676:0.129977 760:0.060017999 770:0.086026996 836:0.136016 894:0.058187999 991:0.162351 1131:0.086163998 1234:0.145889 1368:0.088019997 1511:0.12860601 1627:0.200064 1771:0.125892 1821:0.243187 1888:0.180277 2077:0.277839 2078:0.24798 2080:0.17497 2194:0.28917301 4894:0.15914699 7425:0.32612801 8986:0.203061 13989:0.220916 13990:0.220916 #
1.0000000231766961178436758928001 8:0.147892 35:0.034030002 60:0.063973002 113:0.078778997 141:0.35676599 194:0.095501997 218:0.39565501 239:0.024116 284:0.107658 322:0.164358 352:0.052202001 424:0.132668 465:0.092423998 497:0.136075 560:0.145491 676:0.127611 731:0.204183 765:0.184499 811:0.083126001 855:0.147387 952:0.114153 975:0.098095 1219:0.27294201 1283:0.22537801 1424:0.107658 1469:0.117231 1583:0.19214401 1662:0.12812801 2136:0.207836 2436:0.13997 4953:0.30802 12212:0.247106 #
-1.0000000231766961178436758928001 8:0.14356001 31:0.06005 35:0.019509999 38:0.063087001 39:0.092946999 50:0.13041499 70:0.183156 99:0.124633 112:0.030725 113:0.045164999 114:0.051596999 120:0.13256501 122:0.109141 125:0.18036699 141:0.145127 146:0.080127001 217:0.063546002 230:0.119345 248:0.062187001 267:0.072595 290:0.061616998 316:0.201224 346:0.12577499 351:0.064774998 370:0.049077 383:0.101394 389:0.083769999 390:0.089175001 395:0.100352 453:0.074791998 484:0.166602 497:0.148081 507:0.39196101 592:0.12540101 614:0.20256101 677:0.092464 719:0.086599 739:0.17487399 894:0.068735003 1105:0.15277401 1127:0.091989003 1135:0.121135 1237:0.13488799 1256:0.12239 1260:0.144458 1268:0.084499002 1293:0.157465 1305:0.103975 1892:0.353075 2184:0.101298 2887:0.15849601 3079:0.22753 #
-0.84903848979045704048473908187589 16:0.18087301 41:0.091131002 50:0.105788 55:0.097222999 60:0.105713 104:0.152059 119:0.078842998 122:0.052288 124:0.0744 126:0.030373 142:0.046604 146:0.080560997 169:0.068723001 218:0.26315501 225:0.105431 230:0.119991 239:0.023537001 244:0.050978001 322:0.129416 346:0.214109 351:0.065126002 370:0.049343001 390:0.089658 464:0.083245002 497:0.076329 592:0.074464999 651:0.118017 677:0.092965998 723:0.13735799 739:0.103843 741:0.094956003 773:0.124707 780:0.067969002 782:0.100125 858:0.066312 889:0.114413 903:0.116943 977:0.197153 978:0.181344 995:0.25981 1127:0.15659501 1212:0.14269 1234:0.102334 1260:0.14524101 1403:0.124707 1415:0.133736 1450:0.099374004 3674:0.20755699 4950:0.32496399 6314:0.19875599 6353:0.20755699 8943:0.26237401 #
-0.59240241429776696602260699364706 6:0.057661001 8:0.095104001 11:0.042176999 14:0.070152998 15:0.062128998 18:0.052216999 39:0.076320998 42:0.063061997 51:0.070387997 54:0.227906 62:0.057735 70:0.05387 99:0.072612002 114:0.071732998 128:0.13334 137:0.043657999 142:0.038061 221:0.040038999 240:0.042599 247:0.067349002 249:0.055684 258:0.058851998 281:0.150832 282:0.058803 310:0.094042003 326:0.082529001 327:0.049240001 383:0.049173001 389:0.068784997 392:0.061746001 410:0.067914002 419:0.046672001 448:0.051282 482:0.085089996 492:0.077867001 550:0.14731599 560:0.115966 660:0.114611 783:0.063239999 825:0.065274 837:0.063299 855:0.069384001 890:0.138209 894:0.173802 937:0.071932003 952:0.090986997 960:0.110759 963:0.17964099 991:0.065990999 995:0.15055101 1119:0.082915999 1133:0.073223002 1256:0.170155 1276:0.106403 1535:0.124057 1616:0.130144 1723:0.114611 1910:0.096607 2121:0.115554 2402:0.154365 3066:0.12847801 3977:0.143488 4021:0.146616 6303:0.55914599 6304:0.19696 6305:0.152191 #
-0.62676272643548680552072482896619 10:0.041134 11:0.036068 19:0.13743401 22:0.118598 35:0.019307001 60:0.061455 62:0.16604801 63:0.051217001 81:0.13932 103:0.110317 113:0.044697002 114:0.086455002 195:0.113836 205:0.056104001 210:0.085701004 221:0.048257001 234:0.17164899 236:0.103046 239:0.023166999 272:0.055812001 290:0.060977999 310:0.113343 370:0.082232997 385:0.093647003 419:0.056251001 420:0.093088001 432:0.14871401 433:0.071231999 452:0.101036 464:0.22875001 484:0.097378001 550:0.104864 624:0.101876 723:0.095930003 803:0.16066299 892:0.21850701 894:0.068021998 951:0.100407 1004:0.072591998 1108:0.093465 1126:0.075029001 1225:0.095156997 1358:0.13163701 1374:0.102553 1433:0.108388 1450:0.097813003 1731:0.103245 1824:0.18422399 2083:0.14362299 2364:0.41056299 3420:0.188916 3507:0.204299 5019:0.225172 9353:0.225172 12672:0.258255 #
-0.48371375207014527530802183719061 8:0.13883001 10:0.032326002 15:0.034756001 31:0.079075001 56:0.057704002 65:0.056026999 112:0.023895999 113:0.035126999 123:0.056267001 128:0.101895 208:0.043439001 212:0.062194001 213:0.081001997 222:0.069692001 223:0.18445501 232:0.029370001 239:0.018207001 248:0.081890002 285:0.090057001 393:0.050266001 395:0.078047998 427:0.079672001 444:0.149 508:0.067121997 661:0.078783996 679:0.085509002 733:0.175761 739:0.136007 797:0.067428 804:0.077216998 887:0.079034001 935:0.069776997 936:0.107277 977:0.072671004 1025:0.162019 1332:0.112871 1635:0.110856 1651:0.107696 1724:0.14679 1783:0.31803599 1811:0.30724701 1971:0.125853 2117:0.130908 2309:0.132062 2452:0.129807 2692:0.24406999 3387:0.102755 3638:0.140503 4841:0.15690701 6599:0.17695899 9324:0.202959 9325:0.202959 9326:0.202959 9327:0.202959 9328:0.202959 9329:0.202959 #
1.0000000231766961178436758928001 1:0.063833997 6:0.035650998 9:0.12397 32:0.072476 35:0.01677 46:0.106044 53:0.25364399 69:0.047187999 87:0.031938002 99:0.044895001 121:0.085978001 214:0.119524 216:0.062082 222:0.077026002 232:0.068124004 236:0.037508 247:0.070504002 256:0.057085 257:0.153439 311:0.080963999 322:0.065348998 323:0.083121002 327:0.051546998 329:0.309129 364:0.123612 419:0.048859 449:0.191651 465:0.077119 508:0.074185997 545:0.082076997 622:0.102339 656:0.073439002 780:0.058109999 817:0.153144 818:0.14471801 906:0.069013 941:0.100207 953:0.098026 976:0.089226 1271:0.19998001 1299:0.096404001 1364:0.102339 1368:0.151326 1405:0.088780999 1450:0.143849 1515:0.081850998 1533:0.102837 1855:0.23223101 2001:0.128492 2124:0.26620999 3676:0.31840801 5004:0.15722799 7819:0.224317 7820:0.224317 7821:0.20618699 #
1.0000000231766961178436758928001 19:0.086810999 36:0.070372 41:0.05666 42:0.081285998 58:0.161965 75:0.096594997 81:0.088003002 87:0.039324 112:0.032519002 114:0.114605 126:0.031973999 134:0.084137 142:0.117071 149:0.090125002 156:0.115725 174:0.11419 209:0.096499003 214:0.070127003 219:0.064443 221:0.05161 239:0.024777001 293:0.083238997 312:0.092183001 338:0.090829998 356:0.085231997 382:0.21386901 385:0.100154 419:0.060159001 434:0.079374 436:0.108248 453:0.079159997 458:0.086364999 484:0.104145 783:0.212707 787:0.15772399 818:0.105242 838:0.107045 859:0.128867 882:0.126009 892:0.13802101 928:0.16569901 937:0.092719004 954:0.22668999 993:0.072345003 1108:0.099959999 1338:0.180675 1374:0.109679 1713:0.132743 1760:0.44878101 2006:0.129538 2143:0.15432601 6590:0.196171 7179:0.25387701 7180:0.231553 #
1.0000000231766961178436758928001 11:0.021214999 35:0.019229 76:0.041774999 81:0.138753 113:0.044514999 126:0.050413001 169:0.067368999 208:0.093206003 216:0.071183003 221:0.04806 232:0.037220001 236:0.120065 246:0.102825 257:0.20005099 313:0.115442 325:0.182074 433:0.070942 434:0.155118 445:0.34248 452:0.059431002 453:0.073716 454:0.107536 464:0.081603996 597:0.124145 650:0.087054998 654:0.095994003 685:0.104807 783:0.075907998 825:0.07835 920:0.37624499 967:0.105182 1127:0.090664998 1225:0.094769001 1234:0.100317 1268:0.14101 1329:0.122924 1405:0.213632 1491:0.122924 1532:0.14733 1666:0.124678 1736:0.098603003 1910:0.11596 2193:0.170518 4235:0.168897 5150:0.172233 9379:0.257204 9380:0.236415 9381:0.257204 #
0.98745849399173402094476159618353 10:0.026539 11:0.013744 21:0.115999 36:0.025074 48:0.083575003 50:0.039678998 76:0.027062999 81:0.053089999 105:0.046482999 114:0.032945 131:0.115633 142:0.029596999 184:0.060550001 214:0.042305999 224:0.163785 239:0.025308 292:0.044859 299:0.071176998 350:0.032745998 354:0.040311001 367:0.18697301 443:0.041669998 458:0.052102 459:0.064175002 491:0.057925001 592:0.047290001 636:0.115351 737:0.113955 770:0.064885996 829:0.089123003 1127:0.058736 1130:0.079198003 1146:0.053431001 1365:0.236517 1427:0.108156 1509:0.087733999 1736:0.063878998 1769:0.13231499 1919:0.107473 1972:0.090617999 2075:0.089486003 2286:0.218108 2299:0.171349 2439:0.23350801 2920:0.116791 3125:0.295746 3339:0.139691 3476:0.135355 3487:0.118346 3489:0.120036 3616:0.28405899 3619:0.120036 5076:0.126224 5979:0.107473 7024:0.218108 8322:0.14528 10906:0.139691 11982:0.25931901 13041:0.16662601 13042:0.16662601 13043:0.16662601 13044:0.16662601 #
1.0000000231766961178436758928001 35:0.015705001 41:0.043093 76:0.081417002 112:0.024733 126:0.024318 142:0.037312999 156:0.053380001 179:0.149212 206:0.059462 213:0.083838001 216:0.058137 231:0.062406 239:0.031906001 244:0.040814001 276:0.034531001 283:0.114242 340:0.063492 374:0.24737699 410:0.066578001 433:0.057939999 442:0.25393599 458:0.065684997 464:0.066647999 497:0.036093 579:0.076862 728:0.092798002 734:0.115758 807:0.042327002 914:0.150103 916:0.108581 935:0.122278 968:0.39270899 973:0.35811299 1093:0.078063004 1124:0.147238 1171:0.084849998 1604:0.089022003 1686:0.103666 2235:0.34415001 2271:0.21898399 5336:0.170643 9693:0.21006501 9694:0.35567099 #
-0.4283358825484274157169295449421 3:0.191953 11:0.035184 35:0.018835001 44:0.037990998 58:0.147732 63:0.049961999 76:0.040918 87:0.035868999 104:0.052297998 108:0.069310002 115:0.056118 121:0.13609 142:0.044748001 156:0.037810002 202:0.084472999 205:0.054729 206:0.071310997 215:0.140104 216:0.069723003 232:0.036456998 241:0.075038999 244:0.048948001 248:0.060035001 370:0.047378 374:0.124325 385:0.091352999 386:0.123572 392:0.072595 443:0.063001998 445:0.23202901 450:0.174062 618:0.15982001 661:0.097792 811:0.077898003 874:0.122252 1134:0.108492 1164:0.146659 1171:0.101759 1196:0.112035 1420:0.17169701 1488:0.36390799 1497:0.327465 1729:0.119097 1910:0.19231001 1973:0.32835999 2414:0.138208 2691:0.116942 4638:0.15011901 8705:0.231566 14175:0.251928 #
-0.17472171797535124282418905750092 10:0.126499 147:0.182955 175:0.240753 182:0.177928 221:0.087650001 238:0.156377 240:0.157892 247:0.147434 256:0.119371 271:0.143884 482:0.186271 720:0.229396 730:0.171397 1140:0.16795599 1268:0.151888 1351:0.25402099 1609:0.21885701 1681:0.193574 1779:0.22418299 2073:0.245131 2326:0.238286 3985:0.308027 10500:0.40898699 #
0.39041809284364997756355819547025 10:0.090769 12:0.15267199 22:0.064773999 39:0.08506 41:0.048990998 49:0.064135998 50:0.056869999 63:0.047362 105:0.053750001 112:0.028117999 121:0.14107101 138:0.065425999 144:0.160197 150:0.082814001 156:0.085529 174:0.167171 180:0.126436 211:0.096129999 214:0.127249 217:0.058154002 221:0.044624001 232:0.034559 236:0.083802998 367:0.34582001 370:0.044913001 372:0.265524 373:0.24398801 386:0.117141 390:0.19474 391:0.27076799 420:0.145749 434:0.068631001 499:0.105039 508:0.133726 545:0.087382004 723:0.052393001 770:0.19516499 926:0.105268 933:0.064030997 1127:0.142535 1213:0.127224 1236:0.194333 1872:0.165327 4047:0.18091001 5299:0.32846799 8486:0.23881701 #
-0.10021942667233170454199608911949 8:0.049626999 11:0.015616 31:0.073761001 35:0.033775002 41:0.038837001 50:0.045083001 56:0.053826001 76:0.030749001 97:0.068608999 105:0.025165999 108:0.088187002 114:0.037432 139:0.092860997 191:0.095218003 207:0.083632998 237:0.088789999 239:0.016983001 248:0.045115001 276:0.065310001 338:0.130656 352:0.036761001 396:0.16860899 399:0.087004997 428:0.073256999 482:0.196173 518:0.075177997 554:0.086580999 578:0.097508997 591:0.092037998 650:0.064078003 764:0.158034 812:0.074437998 1012:0.180813 1116:0.095218003 1119:0.073256999 1137:0.094007999 1150:0.088104002 1515:0.144972 1640:0.1048 1650:0.069756001 1682:0.103405 1722:0.116561 1764:0.110211 2358:0.120101 2737:0.165066 2868:0.100066 5848:0.31429699 8101:0.45408499 8702:0.36519301 8703:0.32054299 8704:0.189318 #
-0.2331554458218024483695529625038 3:0.117803 11:0.017974 22:0.154222 26:0.067106999 50:0.051890001 51:0.071579002 56:0.061953999 70:0.054781999 76:0.035392001 95:0.064980999 112:0.025655 121:0.049327999 142:0.081226997 160:0.137301 197:0.058954999 206:0.104435 236:0.076463997 293:0.065669999 352:0.042312 383:0.084665 387:0.069136001 427:0.085538998 441:0.103855 443:0.114361 449:0.109956 452:0.050349999 498:0.136326 508:0.072065003 515:0.14309099 541:0.091806002 594:0.091983996 799:0.141008 832:0.25314301 863:0.091983996 868:0.188704 895:0.087711997 904:0.110693 956:0.087411001 1104:0.107207 1364:0.099413 1405:0.14602201 1415:0.111069 1427:0.083536997 1678:0.225674 1721:0.110322 1736:0.083536997 1741:0.095633999 1760:0.107207 1855:0.317945 2171:0.107867 2189:0.165069 2329:0.109596 2450:0.24966601 7209:0.177011 10552:0.18268099 12086:0.200293 13862:0.36894399 #
1.0000000231766961178436758928001 8:0.114533 11:0.036038999 22:0.16701899 23:0.042536002 31:0.059381001 32:0.217565 69:0.054285001 76:0.041912999 87:0.036741 92:0.164261 105:0.058079001 109:0.109102 114:0.051022001 119:0.077545002 121:0.098908 122:0.122719 143:0.060504001 146:0.079233997 150:0.089484997 156:0.065573998 164:0.060844999 186:0.109792 208:0.055231001 214:0.065518998 231:0.076661997 232:0.037342999 244:0.050138 268:0.121027 284:0.10334 290:0.060931001 292:0.117627 385:0.055266 393:0.063910998 452:0.059627 457:0.081276 497:0.075071998 525:0.133867 526:0.136397 592:0.073238999 665:0.091553003 752:0.108932 772:0.281813 906:0.079392001 975:0.094159998 991:0.079471998 1305:0.102817 1647:0.112769 1680:0.155711 1728:0.107484 1772:0.138024 1892:0.38179001 2888:0.144187 3245:0.20413899 3392:0.16791099 4977:0.176568 7002:0.43992099 #
1.0000000231766961178436758928001 6:0.042826999 8:0.070637003 11:0.073406003 59:0.15478 60:0.108571 63:0.053440999 112:0.031725999 113:0.046638001 137:0.054901998 142:0.047864001 143:0.06318 146:0.082739003 180:0.176828 186:0.27358499 194:0.16208 202:0.090354003 205:0.058540002 212:0.082574002 226:0.109192 231:0.19103 234:0.10578 256:0.068573996 281:0.112028 298:0.14783099 304:0.13100401 352:0.088593997 389:0.086502001 405:0.269003 460:0.112878 493:0.15076099 550:0.109417 757:0.248127 777:0.092528999 821:0.21316899 824:0.13178 833:0.120105 991:0.082987003 1008:0.28856999 1138:0.14413001 1211:0.115572 1326:0.292308 1495:0.17694999 1514:0.153559 1682:0.147183 1926:0.225852 2548:0.208325 #
1.0000000231766961178436758928001 6:0.049091 8:0.047821999 31:0.041979 35:0.013639 60:0.043412 63:0.036180001 76:0.02963 92:0.116125 112:0.021478999 122:0.094869003 126:0.021119 137:0.037168998 150:0.063261002 156:0.027379001 164:0.043014001 209:0.063738003 221:0.034088001 239:0.034345001 278:0.223851 284:0.073055997 290:0.072931997 316:0.067029998 322:0.053146001 341:0.058373999 356:0.056295 357:0.071039997 434:0.088766001 440:0.059136 489:0.100082 497:0.065780997 498:0.067408003 760:0.083916999 811:0.056409001 840:0.078401998 893:0.113124 903:0.081312001 953:0.079722002 1008:0.081868999 1099:0.118705 1225:0.113811 1345:0.113958 1370:0.124333 1397:0.115448 1626:0.102922 1892:0.24682599 2721:0.12957101 2915:0.12629201 6894:0.25895199 12877:0.182431 12878:0.476042 12879:0.182431 12880:0.50930297 #
1.0000000231766961178436758928001 10:0.035027001 16:0.072240002 54:0.233904 69:0.046263002 81:0.070069999 95:0.065581001 106:0.10787 116:0.163738 194:0.078125 198:0.073399 207:0.16449 214:0.155882 236:0.062261 241:0.081191003 293:0.066276997 370:0.070026003 384:0.238277 394:0.079268999 424:0.183754 443:0.054997001 523:0.070748001 723:0.048246998 739:0.207702 778:0.172435 807:0.044312 874:0.063028999 935:0.075607002 951:0.144767 1004:0.061815999 1134:0.094705999 1203:0.111715 1344:0.230629 1433:0.15627401 1740:0.103412 1906:0.101318 1935:0.212189 2395:0.184368 2396:0.187892 2397:0.34225801 2398:0.202143 2399:0.219917 2400:0.332919 2401:0.115356 2402:0.158427 #
1.0000000231766961178436758928001 8:0.188392 23:0.076866001 35:0.02059 38:0.066581003 61:0.16899399 62:0.125645 105:0.061987001 112:0.032426 122:0.115186 146:0.143181 183:0.101766 206:0.077959999 223:0.137623 275:0.105262 281:0.114501 351:0.115748 354:0.13982899 370:0.051794998 383:0.063202001 434:0.079148002 448:0.111602 474:0.083244003 492:0.100083 497:0.080122001 552:0.097084001 592:0.078166001 723:0.102304 727:0.25315401 760:0.074823998 811:0.085160002 825:0.083897002 894:0.152238 895:0.110861 921:0.13897599 977:0.098614 979:0.111831 991:0.084818996 1370:0.110861 1374:0.109367 1424:0.110293 1515:0.100495 2385:0.140866 2598:0.138521 2660:0.18637399 3246:0.223728 5656:0.604101 #
-0.93470277196536488695244315749733 8:0.146892 11:0.029991001 76:0.034878999 86:0.071181998 92:0.136695 105:0.048331998 112:0.042808998 126:0.042091001 148:0.099431001 156:0.054568999 161:0.174445 209:0.075028002 231:0.108016 236:0.035907999 239:0.019264 241:0.079282001 291:0.151161 293:0.135818 385:0.045991 418:0.090650998 444:0.075122997 458:0.067148998 474:0.064906999 512:0.092670001 527:0.113507 655:0.086291999 737:0.146864 739:0.084992997 782:0.138753 926:0.264263 937:0.072089002 991:0.066134997 1103:0.108007 1211:0.092102997 1219:0.154696 1305:0.085561998 1678:0.105976 1686:0.105976 1756:0.140475 2075:0.24202999 2083:0.119426 2304:0.091732003 2510:0.23913699 5150:0.143801 8208:0.334209 8209:0.187236 8337:0.19738901 8338:0.19738901 11595:0.36359599 11596:0.214746 #
-0.087909581326755886765411673877679 6:0.054262001 11:0.039691001 15:0.034531001 22:0.054692 23:0.102356 35:0.015075 39:0.071820997 48:0.059735 69:0.042419001 87:0.02871 99:0.040358 104:0.041859999 105:0.026805 106:0.098908 112:0.056653999 114:0.083669998 151:0.072780997 164:0.080500998 169:0.052816998 197:0.054556001 217:0.083137996 219:0.047047999 232:0.049407002 239:0.018089 241:0.035473999 251:0.094572 273:0.12835599 313:0.090506002 324:0.063977003 352:0.039154999 433:0.055617999 443:0.050427999 493:0.053757999 497:0.034646999 556:0.098908 583:0.076145999 738:0.15879101 764:0.080208004 791:0.072977997 803:0.074091002 813:0.138146 919:0.112141 954:0.097746998 958:0.098031998 1060:0.092670999 1397:0.075368002 1515:0.073578 1863:0.15690599 1896:0.095072001 1910:0.090911999 3406:0.147506 3651:0.152753 6036:0.149984 6434:0.185349 6518:0.15951701 8932:0.185349 11897:0.34141701 11898:0.31382301 11899:0.31382301 11900:0.42317799 11901:0.201646 #
-0.54414827300595414172335040348116 22:0.067667 32:0.080608003 35:0.018652 38:0.060313001 45:0.064884 76:0.040522002 92:0.15880799 98:0.058047999 112:0.049734 113:0.04318 121:0.147374 122:0.049718998 126:0.028881 144:0.13502 183:0.092185996 192:0.088399 208:0.11206 214:0.063344002 236:0.041715998 239:0.037893999 256:0.063490003 267:0.069403 300:0.064986996 312:0.083267003 350:0.049031001 351:0.061926998 352:0.048445001 353:0.084343001 383:0.057252001 385:0.12750299 392:0.071891002 483:0.088514 497:0.072578996 541:0.105111 546:0.16449299 638:0.127167 679:0.105111 719:0.082791001 812:0.098095998 833:0.233363 1033:0.098255999 1056:0.232776 1119:0.096539997 1150:0.116104 1217:0.076679997 1219:0.27698401 1225:0.091926001 1399:0.123886 1540:0.091926001 1728:0.175945 1994:0.108793 2184:0.096844003 2926:0.159564 3392:0.16233701 3672:0.158271 4103:0.158271 4977:0.170706 5799:0.43550199 6547:0.209157 7168:0.19736201 #
-0.40059504329004702594119180503185 11:0.037799999 63:0.053677 64:0.096401997 89:0.079066999 98:0.106625 105:0.085855 115:0.060291 122:0.053939 126:0.05305 209:0.094563 221:0.050574999 244:0.12548999 292:0.072866999 300:0.070501998 327:0.062196001 351:0.067183003 395:0.218428 405:0.091718003 414:0.096026003 433:0.074653 592:0.076816998 634:0.172795 770:0.294245 800:0.230487 975:0.098761 976:0.107659 1196:0.120365 1374:0.181978 1469:0.118027 1669:0.101162 1723:0.144767 2095:0.61381298 2659:0.139405 2816:0.16031 3953:0.24878401 6682:0.24878401 #
-0.014569174467697667760268664949308 6:0.031831 15:0.034297001 17:0.124193 23:0.055897001 42:0.058943 85:0.056841999 87:0.028515 105:0.026622999 115:0.075537004 129:0.095195003 142:0.035574999 155:0.058239002 164:0.047223002 190:0.082498997 199:0.069973998 205:0.043508999 244:0.038913999 276:0.069092996 374:0.098838001 404:0.064291999 442:0.078621 457:0.150529 458:0.062625997 459:0.184073 474:0.060534999 479:0.099142998 485:0.092734002 504:0.067708999 539:0.071241997 549:0.144282 554:0.091594003 637:0.075856 655:0.080480002 657:0.104664 665:0.071056999 723:0.043939002 786:0.102087 791:0.072484002 838:0.077621996 888:0.178122 933:0.128142 1026:0.065789998 1057:0.081180997 1142:0.067869 1144:0.128094 1198:0.082199998 1285:0.113556 1397:0.074856997 1520:0.085382 1580:0.115331 1609:0.093445003 1866:0.108459 2080:0.093686998 2436:0.104278 2841:0.105056 5366:0.154837 5375:0.17462499 5797:0.38872299 11488:0.439302 13969:0.20028099 13970:0.20028099 13971:0.20028099 13972:0.20028099 #
1.0000000231766961178436758928001 6:0.038353 10:0.080660999 35:0.018041 43:0.063056998 50:0.057464998 63:0.100435 65:0.066615999 75:0.049844999 114:0.047713 126:0.027935 142:0.042863 156:0.061321001 174:0.099766999 197:0.065288998 205:0.088761002 219:0.056304 221:0.045090999 232:0.034921002 236:0.068319 248:0.057505999 267:0.067129999 276:0.039669 322:0.070300996 383:0.132146 392:0.069536999 419:0.052561 424:0.119088 444:0.142931 465:0.082962997 484:0.090990998 492:0.087692 497:0.041462999 592:0.068489 631:0.084955998 650:0.081678003 723:0.052942 728:0.106603 741:0.087334998 778:0.20535401 891:0.179489 935:0.082962997 937:0.13716 962:0.097814001 1033:0.095037997 1114:0.13067999 1214:0.26830301 1218:0.098333001 1236:0.115978 1427:0.092511997 1450:0.091398001 1477:0.212138 1694:0.112591 1715:0.157021 1724:0.103082 1731:0.096473999 2062:0.112882 2121:0.130134 2750:0.153088 5291:0.61924499 #
1.0000000231766961178436758928001 18:0.11739 23:0.037836999 36:0.058485001 37:0.051199999 63:0.045522999 76:0.037283 85:0.065148003 93:0.066324003 112:0.045759 121:0.051963001 124:0.136599 126:0.026573 142:0.106393 143:0.091124997 155:0.066748999 160:0.085423999 181:0.115025 198:0.160778 202:0.076967001 212:0.07034 216:0.063529 221:0.042892002 223:0.067745 232:0.092735998 239:0.034864999 248:0.054701 287:0.16280299 352:0.075467996 399:0.105492 404:0.073686004 452:0.138403 584:0.155334 592:0.110305 597:0.137327 731:0.073059998 750:0.116215 797:0.076260999 807:0.046252001 839:0.121803 920:0.113983 945:0.091458 1016:0.30903101 1491:0.109705 1609:0.107099 1708:0.104977 2535:0.110011 2695:0.27451599 2936:0.21099199 3057:0.106552 3666:0.27593899 4759:0.35723999 4760:0.229544 4761:0.21099199 4762:0.21099199 4763:0.181587 #
1.0000000231766961178436758928001 10:0.030003 45:0.04899 69:0.039627001 85:0.053461999 87:0.02682 112:0.022178 113:0.068419002 126:0.021806 142:0.056651 149:0.061466001 150:0.110599 169:0.049339999 214:0.080977999 227:0.068735003 236:0.031497002 239:0.016898001 256:0.047936998 273:0.070818998 300:0.049068 350:0.037020002 357:0.073353998 401:0.069310002 420:0.067899004 443:0.047107998 585:0.12860399 597:0.090921998 719:0.062509999 780:0.048799001 782:0.071884997 794:0.126441 810:0.148049 874:0.128832 915:0.186718 1018:0.103803 1127:0.158453 1146:0.060403999 1213:0.100351 1293:0.113665 1397:0.119208 1731:0.075306997 2004:0.105252 2056:0.29246101 2129:0.114409 2338:0.178207 2485:0.23852199 2786:0.124885 3449:0.123697 3724:0.118566 9032:0.36336699 9033:0.36336699 10637:0.188371 10638:0.318941 10639:0.188371 10640:0.188371 #
1.0000000231766961178436758928001 6:0.040867001 10:0.069343001 50:0.061232001 52:0.105154 56:0.073106997 63:0.086341999 87:0.03661 91:0.108876 98:0.059827 104:0.090379 109:0.153218 112:0.063533999 128:0.181942 170:0.087972999 205:0.055860002 248:0.061276 276:0.042268999 292:0.14527699 300:0.066978998 352:0.049929999 356:0.079347998 370:0.048356999 385:0.055069 397:0.078952 410:0.081496 597:0.215941 670:0.106901 689:0.159447 723:0.056412 736:0.160623 771:0.092312999 803:0.094478004 819:0.22419401 858:0.110034 910:0.13798501 978:0.104966 1176:0.276191 1269:0.124285 1305:0.102451 1312:0.112367 1396:0.128907 1647:0.112367 1665:0.12393 1736:0.098576002 1788:0.110507 1978:0.355243 2018:0.145068 3398:0.160623 7338:0.236351 8196:0.215569 12576:0.25713399 12577:0.25713399 #
1.0000000231766961178436758928001 5:0.058026001 10:0.031404 30:0.187473 36:0.050235 49:0.052949999 59:0.047458 98:0.045874 105:0.055002 112:0.023213999 113:0.057776999 126:0.022824001 127:0.068885997 138:0.091456003 170:0.067456 213:0.07869 232:0.028532 236:0.069187 239:0.017687 257:0.134866 273:0.125504 300:0.051357999 313:0.052266002 338:0.064838998 370:0.037080001 383:0.045246001 387:0.062555 415:0.069590002 448:0.047187001 452:0.095608003 654:0.073586002 780:0.051075999 818:0.075126998 1126:0.057280999 1129:0.12717099 1296:0.071843997 1312:0.14588299 1450:0.074676 1523:0.104621 1647:0.086161003 1650:0.072648004 1651:0.104621 1741:0.146511 1855:0.28768399 2013:0.24049 2037:0.109649 2067:0.111235 2165:0.084054001 2225:0.12717099 4729:0.37219599 4730:0.155972 5947:0.39444 6351:0.197165 6352:0.197165 6353:0.155972 6354:0.197165 6355:0.197165 6356:0.197165 #
-0.32578885894454590044233555090614 9:0.074327998 21:0.15438101 37:0.049463999 59:0.053378001 62:0.059751 69:0.04665 75:0.096127003 105:0.029478 156:0.033282001 195:0.097749002 205:0.048175 236:0.062781997 352:0.043060999 383:0.106797 384:0.17048 389:0.071186997 390:0.180831 420:0.079933003 436:0.14715301 440:0.071884997 444:0.077575997 447:0.106578 484:0.083617002 491:0.13052601 492:0.080585003 540:0.137511 559:0.076146998 737:0.089573003 778:0.18176 806:0.231094 838:0.085946001 858:0.056047 882:0.171299 945:0.1496 952:0.15943199 964:0.092193998 965:0.119588 967:0.236643 1123:0.279273 1214:0.24655899 1298:0.095303997 1329:0.105984 1349:0.096294999 1450:0.083990999 1461:0.104555 1477:0.157281 1552:0.113034 1693:0.196454 1736:0.085014999 1741:0.097324997 2282:0.115887 2485:0.117671 5290:0.175428 5291:0.34512401 5292:0.171442 #
-0.33651531069590240319300278315495 8:0.065793999 11:0.020702999 15:0.042980999 35:0.018764 36:0.037769001 59:0.060415 62:0.067626998 75:0.051842999 81:0.079971001 122:0.084689997 126:0.029054999 128:0.12601 137:0.051137999 151:0.090591997 155:0.072985001 201:0.10103 223:0.19329301 226:0.060068998 231:0.126248 232:0.086672999 239:0.022515999 241:0.044155002 246:0.100342 249:0.065224998 352:0.082519002 353:0.084852003 414:0.089047998 418:0.105951 419:0.054669 448:0.101705 452:0.098195001 597:0.071551003 617:0.15837701 743:0.100003 765:0.101736 813:0.101558 858:0.063436002 922:0.16331699 978:0.102458 991:0.077297002 1033:0.098848999 1077:0.109683 1209:0.093539998 1306:0.29864901 1342:0.199499 1446:0.20720901 1552:0.12793399 1571:0.24512801 1760:0.259148 1788:0.107868 1789:0.306144 1806:0.126652 2198:0.1664 2319:0.25022501 3347:0.180813 3466:0.16331699 5232:0.16331699 5869:0.18668599 #
-0.93242445793421124822231149664731 8:0.14655 10:0.037315 11:0.019324999 60:0.055750001 63:0.046461999 75:0.048390999 101:0.10875 113:0.068653002 115:0.088359997 123:0.064949997 128:0.069467999 137:0.047733001 142:0.041614 156:0.035161 169:0.061365001 206:0.112283 210:0.077744998 213:0.093502 223:0.14510299 227:0.14474 229:0.082584001 239:0.021017 244:0.077071004 281:0.097398996 350:0.046041999 392:0.067509003 483:0.083118998 494:0.082268 497:0.084477 539:0.083336003 572:0.090092003 723:0.051398002 807:0.079926997 976:0.157782 1026:0.076958001 1033:0.092266999 1198:0.096152999 1236:0.236296 1289:0.116701 1306:0.132833 1473:0.12968899 1647:0.10238 1651:0.124315 1681:0.16369399 1788:0.100685 1789:0.16877399 2184:0.090942003 2191:0.120244 2225:0.15110999 2235:0.220599 2866:0.158538 3573:0.196409 3761:0.185333 3813:0.16877399 3928:0.16877399 4724:0.196409 4734:0.162186 5214:0.174256 5783:0.196409 7125:0.215345 13934:0.23428001 13935:0.23428001 #
-0.99354516772979917238473035467905 8:0.059604999 31:0.052322999 50:0.054148 56:0.064649001 64:0.080987997 103:0.097130001 116:0.181126 122:0.076724 200:0.341416 208:0.048666 214:0.057732001 217:0.055369999 219:0.053052999 231:0.114373 239:0.020398 257:0.074114002 325:0.095068 370:0.089741997 384:0.103242 390:0.077701002 393:0.095348999 449:0.114739 723:0.104689 818:0.146695 933:0.12794299 1027:0.245205 1130:0.31838199 1198:0.093323 1221:0.115901 1268:0.124661 1368:0.090597004 1397:0.084987 1549:0.16315401 1571:0.25251299 1897:0.30036601 1942:0.15741199 2124:0.26984799 2129:0.23382901 2165:0.096936002 3415:0.139998 12827:0.227383 12828:0.227383 #
-0.55431117437882193588194468247821 35:0.015730999 69:0.074946001 105:0.027970999 108:0.057890002 114:0.087310001 139:0.103211 162:0.075043999 214:0.053424999 232:0.030449999 236:0.059571002 246:0.247814 251:0.098686002 257:0.116123 313:0.094443001 331:0.20740101 350:0.041352998 352:0.040858999 383:0.081757002 387:0.066760004 435:0.084991999 449:0.179776 452:0.04862 453:0.060307 465:0.072341003 592:0.101114 595:0.083979003 650:0.071220003 753:0.095997997 829:0.29368201 838:0.081550002 885:0.17055801 906:0.064737 967:0.180585 1019:0.168423 1146:0.067474 1171:0.084991999 1296:0.076673999 1450:0.079696 2006:0.30389801 2085:0.198131 2371:0.213613 2658:0.105149 3030:0.27000901 9272:0.27543101 12802:0.210418 12803:0.210418 12804:0.210418 12805:0.210418 #
1.0000000231766961178436758928001 8:0.068442002 11:0.060123999 43:0.068226002 59:0.14997 60:0.062130999 76:0.042406999 95:0.077859998 98:0.127488 103:0.11153 105:0.034706999 112:0.03074 142:0.046376999 156:0.066345997 164:0.12919401 192:0.156636 219:0.060918 231:0.131329 236:0.043657001 239:0.023422001 241:0.109607 249:0.067850001 291:0.183786 298:0.14323699 337:0.088059001 351:0.064808004 354:0.063165002 385:0.055916999 389:0.083812997 390:0.089220002 460:0.10937 484:0.098448001 492:0.16064399 497:0.094145998 510:0.165711 527:0.138005 550:0.295973 617:0.097305 810:0.121197 824:0.127685 837:0.077128001 928:0.092511997 993:0.115791 1025:0.123101 1135:0.20520499 1209:0.097305 1368:0.21831501 1557:0.302899 1709:0.16433901 2083:0.245847 2339:0.166988 3367:0.201851 3979:0.21209501 4846:0.17864799 8579:0.218889 #
1.0000000231766961178436758928001 8:0.165665 31:0.088197999 36:0.057675999 63:0.044893999 70:0.13580599 81:0.072126999 119:0.177507 122:0.076383002 164:0.090372004 186:0.22983199 209:0.079089999 276:0.097103 346:0.109105 389:0.072668001 392:0.065231003 498:0.083645001 595:0.15297 607:0.212172 739:0.213799 782:0.086387001 874:0.064879999 920:0.112409 991:0.069715001 1103:0.238938 1375:0.121573 1483:0.117433 1604:0.162429 1800:0.150079 2117:0.247216 2198:0.150079 2510:0.203381 3212:0.27222699 5112:0.179078 5369:0.189781 9047:0.226373 9048:0.226373 9049:0.208077 9050:0.226373 9051:0.226373 #
1.0000000231766961178436758928001 11:0.033073999 38:0.057250001 76:0.080720998 112:0.027882 119:0.071163997 121:0.053610001 122:0.047194999 172:0.14188901 205:0.051447 208:0.050686002 226:0.056676999 244:0.046011999 247:0.074432999 267:0.065879002 290:0.055916999 316:0.14732701 342:0.117229 389:0.076021001 393:0.058651999 419:0.051580999 433:0.065319002 474:0.071578003 482:0.159224 508:0.078319997 561:0.088642001 583:0.187674 628:0.104616 669:0.114796 677:0.083910003 719:0.078587003 723:0.051955 753:0.108042 833:0.25187999 855:0.076682001 874:0.067873001 894:0.183755 978:0.096671999 979:0.096159004 1027:0.107019 1077:0.28891701 1256:0.111068 1329:0.113181 1415:0.12071 1500:0.121975 1583:0.099968001 1634:0.361433 1635:0.219008 1910:0.106769 2165:0.100958 2250:0.13109399 2739:0.160256 3639:0.14111499 4922:0.31528401 5967:0.145807 7238:0.19853701 12513:0.20648099 #
1.0000000231766961178436758928001 6:0.080127999 10:0.047426999 11:0.024560999 15:0.050992001 16:0.097814001 19:0.093590997 36:0.075866997 41:0.061085001 62:0.080231003 63:0.059053998 104:0.14750899 112:0.035059001 114:0.058874998 122:0.059342001 126:0.058364 128:0.088293999 142:0.052891001 145:0.15396599 174:0.123107 212:0.26880601 219:0.069475003 236:0.084302001 239:0.026712 276:0.048948999 321:0.106618 327:0.115855 353:0.170443 354:0.072036996 392:0.085804 448:0.120661 497:0.133506 719:0.098814003 730:0.108803 760:0.080898002 767:0.30417201 858:0.075258002 868:0.1523 904:0.151264 1093:0.110655 1147:0.140021 1217:0.23881599 1225:0.109716 1236:0.14311001 1374:0.118245 1426:0.136511 1765:0.158005 1979:0.18333501 2184:0.115587 2510:0.158005 2559:0.184645 3583:0.36795101 11528:0.29776999 #
1.0000000231766961178436758928001 23:0.038433999 35:0.017432 44:0.035162002 45:0.060640998 57:0.095013 62:0.062825002 69:0.04905 86:0.184432 89:0.115328 94:0.11407 95:0.069532 108:0.064149 112:0.027453 126:0.026992001 134:0.071028002 142:0.041416001 156:0.091315001 183:0.086156003 184:0.084730998 191:0.117273 192:0.082617 195:0.17401899 200:0.29666701 202:0.078181997 205:0.050654002 208:0.049904 219:0.054402001 232:0.033741999 236:0.066012003 276:0.038329002 283:0.12680601 322:0.067927003 338:0.182978 350:0.045823999 383:0.053507 429:0.090510003 443:0.058311 474:0.070474997 489:0.12791599 492:0.177817 493:0.105248 512:0.100619 513:0.111747 529:0.115783 656:0.076337002 699:0.076507002 857:0.122306 887:0.090797998 889:0.101677 906:0.071736 990:0.252931 1125:0.078364998 1126:0.067740001 1353:0.081773996 1736:0.089388996 1933:0.116147 2037:0.33836901 2128:0.39554101 2159:0.149128 12892:0.214322 13146:0.23316801 #
-0.58867115161411853740958122216398 10:0.037859 23:0.039179999 42:0.069954 64:0.084660999 76:0.038605999 86:0.188012 91:0.100645 105:0.053497002 113:0.069654003 114:0.098627999 115:0.052947 126:0.027516 134:0.072407 142:0.04222 156:0.035673 164:0.056045 199:0.083045997 219:0.055459 226:0.056885999 232:0.058239002 293:0.071634002 338:0.16404299 383:0.092354998 397:0.072982997 426:0.076301999 443:0.059443001 448:0.135748 493:0.063368 529:0.28165501 624:0.093765996 650:0.080452003 699:0.077992998 783:0.147218 803:0.087335996 818:0.090570003 825:0.072407 928:0.142598 990:0.122863 991:0.073201999 1007:0.100534 1020:0.114889 1128:0.139957 1154:0.114889 1221:0.121157 1234:0.156969 1240:0.115897 1589:0.115557 1979:0.146347 2037:0.13218901 2060:0.124215 2128:0.35716599 2164:0.13476899 2354:0.242842 2616:0.123757 2681:0.173876 2736:0.14078499 2848:0.23769499 2849:0.19927201 2850:0.166604 2851:0.23769499 #
-0.56704351562255861374239884753479 10:0.053036999 35:0.014703 114:0.038885001 126:0.047779001 142:0.034933001 169:0.051513001 198:0.137752 204:0.068369001 221:0.036749002 232:0.02846 239:0.017643001 241:0.034598 282:0.09138 350:0.038651001 508:0.065041997 523:0.107123 533:0.080572002 537:0.13308699 585:0.20693099 835:0.086127996 979:0.16758899 1035:0.121953 1118:0.28139001 1127:0.14548901 1147:0.092479996 1209:0.073294997 1321:0.071663998 1374:0.078097001 1397:0.17541 1490:0.088056996 1617:0.217058 1678:0.16432901 2037:0.109373 2056:0.32220301 2062:0.219533 2077:0.094788 2148:0.102024 2150:0.122852 3459:0.10742 3529:0.30976 4509:0.15558 5011:0.15558 6725:0.137849 7550:0.180774 12247:0.17147499 12248:0.17147499 12249:0.196669 12250:0.196669 12251:0.196669 #
-0.42995874167659697828725029467023 10:0.068035997 44:0.038045 49:0.067754 50:0.060077999 53:0.22942699 60:0.060035001 62:0.067975998 70:0.063426003 73:0.182835 75:0.052111 104:0.124978 113:0.043664999 142:0.106936 163:0.106292 169:0.066082001 216:0.069822997 221:0.079818003 227:0.092056997 239:0.022631999 256:0.064202003 356:0.077853002 383:0.057895001 389:0.080986999 390:0.086211003 393:0.062483002 444:0.088256001 445:0.186874 450:0.083059996 559:0.086630002 560:0.136536 575:0.090572998 656:0.082597002 737:0.172539 751:0.161356 858:0.063763 881:0.19488101 882:0.1151 906:0.077619001 926:0.23337901 928:0.089391999 929:0.096129999 1126:0.073294997 1129:0.162725 1154:0.121943 1405:0.099850997 1412:0.136051 1475:0.109096 1515:0.092056997 1583:0.106498 1997:0.33588001 1998:0.122295 1999:0.15223201 2000:0.44387001 2001:0.14451399 2002:0.181747 #
-0.085886209160513593552366273797816 12:0.065145001 19:0.067216001 35:0.015988 36:0.032180998 69:0.076171003 75:0.044172999 89:0.062472999 126:0.024755999 142:0.099122003 150:0.074158996 156:0.094550997 157:0.088413998 169:0.056015 202:0.071707003 213:0.085350998 260:0.094265997 290:0.050494999 300:0.055706002 323:0.079245001 328:0.197163 433:0.058984999 459:0.139457 494:0.075096004 559:0.073432997 582:0.129042 592:0.060695 623:0.072641999 652:0.114385 782:0.081610002 811:0.066125996 889:0.093255997 928:0.075773999 954:0.103666 984:0.34163201 990:0.26378301 992:0.111757 993:0.056015 995:0.088743001 1007:0.090451002 1020:0.26972899 1060:0.206256 1083:0.121868 1133:0.073077999 1312:0.093455002 1317:0.078358002 1396:0.107211 1427:0.138813 1446:0.176551 1666:0.103666 1760:0.105215 1788:0.091908 1933:0.106528 2033:0.131669 2080:0.100037 2198:0.14178 2424:0.22970501 2585:0.154061 2715:0.162002 2716:0.169176 2717:0.33282399 #
-0.41638158026121435684174798552704 1:0.064065002 18:0.054861002 31:0.051805001 35:0.016830999 36:0.033877 45:0.05855 115:0.050147999 119:0.114543 122:0.044865001 126:0.044126 156:0.070906997 206:0.063726 207:0.099453002 208:0.048184 209:0.078656003 213:0.089850001 225:0.090464003 235:0.126394 271:0.069055997 312:0.075138003 356:0.069472 383:0.087471999 394:0.081147999 418:0.095034003 494:0.079054996 497:0.065494001 505:0.16876 622:0.102709 701:0.080822997 723:0.049389999 777:0.077303998 782:0.14546201 807:0.076805003 855:0.072897002 894:0.182603 937:0.075575002 979:0.091412999 1103:0.191714 1126:0.065404996 1209:0.083902001 1234:0.087807 1305:0.15187301 1340:0.08439 1424:0.215137 1469:0.098172002 1669:0.084145002 1683:0.14925399 2191:0.115547 2430:0.22158299 2486:0.13861001 3354:0.178094 3581:0.152346 3869:0.162182 4001:0.16745 4638:0.13415 4922:0.37267801 5541:0.14925399 5736:0.20693301 6357:0.152346 6358:0.178094 6359:0.18288 6360:0.22512899 #
1.0000000231766961178436758928001 3:0.080353998 23:0.098987997 30:0.091701001 35:0.018813999 56:0.071549997 66:0.153877 75:0.051980998 91:0.062935002 105:0.033452999 112:0.029629 113:0.091406003 116:0.150691 126:0.029131999 127:0.087925002 128:0.074620999 214:0.063895002 217:0.061280999 232:0.076426998 256:0.064042002 267:0.070006996 276:0.086816996 323:0.093253002 324:0.079844996 350:0.049458001 352:0.048866998 448:0.126396 498:0.092987999 594:0.106233 597:0.071741 600:0.118652 783:0.074271001 789:0.106027 799:0.16285101 857:0.13200501 858:0.063603997 859:0.246411 874:0.072126001 910:0.079760998 933:0.067474 1004:0.070738003 1014:0.107284 1108:0.091077998 1130:0.119614 1140:0.090108 1154:0.121639 1338:0.204043 1340:0.094333999 1353:0.149435 1468:0.084977001 1490:0.112677 1549:0.180572 1571:0.345011 1737:0.14341 1764:0.146502 1788:0.108154 2026:0.138678 2613:0.26053599 4257:0.166842 10685:0.231318 11773:0.231318 12311:0.25165799 #
1.0000000231766961178436758928001 7:0.169624 26:0.05931 33:0.115421 36:0.02898 59:0.046356 91:0.048161998 98:0.044808999 113:0.033332001 149:0.062840998 157:0.134809 169:0.050443999 187:0.096238002 205:0.041838001 219:0.044934001 223:0.056837 232:0.027868999 239:0.017276 241:0.088407002 256:0.049008999 276:0.053601999 290:0.045472998 353:0.065107003 356:0.059429001 374:0.095040001 387:0.061101999 395:0.074059002 415:0.067974001 420:0.117534 452:0.044500001 459:0.074174002 470:0.051848002 491:0.066949002 505:0.203466 559:0.066128999 592:0.114707 650:0.065183997 656:0.063051 708:0.095040001 723:0.042250998 730:0.070368998 771:0.069140002 778:0.133757 806:0.161917 885:0.065416999 895:0.077519998 927:0.133322 953:0.08416 967:0.078757003 1146:0.061755002 1348:0.12932301 1408:0.118573 1500:0.099192999 1534:0.16854601 1603:0.115471 1618:0.091536999 1669:0.15106 1687:0.167915 1693:0.081295997 1736:0.073830999 1806:0.097180001 1824:0.081138998 2281:0.24701101 3493:0.120302 3836:0.124217 3951:0.143244 4436:0.14888801 4984:0.13873801 5007:0.16145401 7471:0.152349 11458:0.167915 11459:0.50253999 #
1.0000000231766961178436758928001 8:0.066476002 14:0.083024003 15:0.043427002 35:0.032099999 36:0.038160998 88:0.111493 92:0.161423 107:0.094238997 112:0.050553001 115:0.056488998 126:0.029356999 131:0.067442 137:0.087481998 138:0.069475003 192:0.089855 201:0.102078 214:0.064387001 219:0.100181 232:0.077014998 239:0.022748999 272:0.054804999 290:0.059877999 293:0.1294 363:0.122574 370:0.047692001 433:0.069945998 452:0.099212997 460:0.106228 464:0.080458999 483:0.089970998 597:0.122403 617:0.094509996 651:0.114068 885:0.14584699 896:0.085630998 961:0.143783 1077:0.23256899 1256:0.20137499 1260:0.14038099 1422:0.091778003 1446:0.20935699 1449:0.13015699 1824:0.25495699 1926:0.125534 1930:0.146819 2235:0.141031 2691:0.117716 2785:0.171608 2866:0.171608 3466:0.16501001 4099:0.182688 4145:0.206003 4722:0.17774799 4723:0.233098 4724:0.21260101 4725:0.21260101 4726:0.221108 #
1.0000000231766961178436758928001 8:0.066510998 36:0.064645998 39:0.090370998 63:0.085197002 65:0.070041999 72:0.13682701 88:0.138264 89:0.07412 93:0.073311999 112:0.029873 113:0.043912999 126:0.029371999 131:0.067477003 136:0.107951 137:0.051695 143:0.124845 146:0.077904999 155:0.073780999 181:0.075093001 206:0.071820997 223:0.074882001 232:0.062167 276:0.041708998 284:0.101607 324:0.080500998 348:0.12027 363:0.25737 395:0.097571 452:0.058626998 483:0.188913 493:0.067642003 497:0.043595001 517:0.125599 523:0.081624001 560:0.081100002 595:0.101263 617:0.16010299 627:0.094423003 719:0.084197998 723:0.055663999 734:0.139818 773:0.120597 794:0.100587 797:0.084293999 804:0.096532002 885:0.086185001 977:0.090847999 1077:0.110878 1225:0.158289 1269:0.122638 1340:0.095109999 1419:0.196155 1488:0.14045399 1493:0.165096 1680:0.1531 1789:0.18278299 1964:0.157334 2011:0.147706 2184:0.09849 2401:0.13309 4099:0.383591 4638:0.151191 6907:0.18872 13824:0.233219 #
1.0000000231766961178436758928001 11:0.040208001 15:0.083475001 27:0.118592 35:0.021524001 41:0.059060998 50:0.116081 60:0.068510003 95:0.085855 105:0.03827 108:0.079207003 131:0.076566003 137:0.058658 151:0.103914 181:0.085207 188:0.165786 200:0.237681 210:0.095539004 216:0.079680003 217:0.070106998 222:0.098858997 225:0.24278501 232:0.087434001 236:0.048140001 239:0.025827 241:0.050648 248:0.068608001 249:0.074817002 256:0.073266 290:0.067979001 312:0.096088998 384:0.13072 389:0.092418998 393:0.071303003 445:0.172052 450:0.094784997 454:0.120371 515:0.18905599 561:0.107763 650:0.16498999 656:0.15959001 723:0.106942 783:0.084968001 803:0.105784 811:0.089022003 933:0.077192001 962:0.116697 1001:0.133304 1004:0.080926001 1130:0.326543 1217:0.088486999 1374:0.114326 1518:0.12920099 1632:0.171555 1910:0.12980101 2124:0.201795 2164:0.276382 2396:0.14527801 4095:0.19930799 9908:0.251021 #
-1.0000000231766961178436758928001 35:0.019065 36:0.038373999 63:0.050572999 77:0.118675 87:0.036307 88:0.066216998 112:0.063009001 113:0.044135999 114:0.050420001 126:0.029521 131:0.067818999 137:0.123984 143:0.05979 149:0.083209999 154:0.25298899 155:0.15561999 194:0.090590999 201:0.215418 214:0.064746 231:0.158986 232:0.036903001 239:0.022876 444:0.089207999 452:0.058924001 475:0.10582 483:0.153185 597:0.123086 628:0.112653 650:0.086312003 701:0.155008 719:0.084624 739:0.100928 907:0.123258 935:0.14844 1025:0.20356999 1077:0.188682 1256:0.202499 1374:0.101264 1397:0.095312998 1446:0.12434 1558:0.132772 1859:0.16051 2319:0.150153 2862:0.222342 2866:0.362149 4099:0.183708 8306:0.213788 11176:0.35073999 #
-0.059230250789410382461497306394449 9:0.099510998 16:0.069197997 19:0.112104 24:0.172703 30:0.076760001 35:0.015749 37:0.112125 41:0.043214001 48:0.105659 51:0.117162 69:0.044314001 80:0.094535001 86:0.118225 89:0.061538 99:0.071383998 112:0.024801999 121:0.047687002 126:0.024386 147:0.13911299 178:0.171335 180:0.065869004 196:0.15175501 199:0.073599003 205:0.109204 231:0.062581003 239:0.018897001 241:0.037059002 286:0.093471996 299:0.089984 315:0.057470001 337:0.071047999 340:0.063670002 352:0.085842997 354:0.050962001 387:0.066835999 453:0.060375001 458:0.065869004 473:0.16432101 490:0.119438 493:0.056159001 543:0.15791 545:0.130505 627:0.132733 656:0.144734 682:0.111412 897:0.110085 928:0.126377 967:0.086145997 1151:0.096810997 1203:0.10701 1258:0.117151 1295:0.105606 1450:0.079784997 1713:0.101242 1737:0.203253 1798:0.104278 1888:0.101529 1902:0.084941 1926:0.104278 1941:0.116611 2075:0.23741999 2376:0.256944 3768:0.15175501 4163:0.149618 4218:0.171122 6552:0.162857 7176:0.171122 8112:0.35666999 #
-0.12267756778335608958130364953831 8:0.066702001 53:0.110261 71:0.18012699 81:0.081073999 87:0.036228001 88:0.066073 91:0.063634001 113:0.044039 137:0.051844001 164:0.059996001 201:0.102424 221:0.047545999 241:0.044764001 257:0.140425 258:0.14666501 300:0.139098 312:0.084925003 325:0.106386 336:0.089013003 356:0.078520998 448:0.103108 461:0.30599499 464:0.19265001 497:0.043719999 555:0.109805 617:0.094829999 707:0.100377 767:0.093103997 858:0.064310998 878:0.25517601 894:0.067020997 992:0.45182899 1104:0.12518901 1126:0.073925003 1133:0.086951002 1209:0.199012 1397:0.095105 1418:0.124069 1708:0.116369 1723:0.28561899 1731:0.101726 1733:0.19671801 3770:0.167091 4009:0.167091 10587:0.25445399 #
-0.21610725941055888843500554230559 6:0.031095 11:0.038511001 18:0.047678001 87:0.027856 105:0.054581001 124:0.132392 156:0.061623 164:0.046131998 209:0.068357997 217:0.047642998 232:0.028313 240:0.101498 249:0.086087003 258:0.112773 276:0.067496002 317:0.209161 352:0.037992001 370:0.036795001 372:0.21753401 373:0.32959199 392:0.056379002 444:0.068443999 448:0.046824999 465:0.067264996 483:0.069415003 552:0.068967998 596:0.061623 597:0.13309699 600:0.156188 619:0.102629 646:0.138963 807:0.039423 855:0.063353002 912:0.082590997 937:0.065679997 1085:0.15477701 1092:0.096554004 1136:0.105075 1217:0.060134999 1269:0.094568998 1354:0.336344 1647:0.085500002 1662:0.093249999 2265:0.138963 2428:0.15893599 2574:0.137137 2767:0.113899 3387:0.099056996 5407:0.140948 6009:0.15893599 7616:0.16402701 9803:0.17984 12254:0.195654 12255:0.195654 12256:0.195654 12257:0.195654 12258:0.195654 12259:0.195654 #
-0.8035626308767361836160603161261 11:0.018106 12:0.066864997 61:0.079548001 74:0.099427998 95:0.065457001 104:0.045566998 113:0.079726003 137:0.044721998 144:0.070161 164:0.087628998 192:0.077775002 197:0.059386998 216:0.060749002 226:0.052533001 239:0.019691 241:0.118913 256:0.055858999 272:0.047437001 290:0.087752998 311:0.079226002 312:0.073260002 350:0.043138001 351:0.054483999 370:0.041280001 390:0.075007997 393:0.054363001 401:0.080764003 433:0.060543001 454:0.091773003 484:0.082765996 513:0.105198 545:0.080315001 550:0.15090699 617:0.13850699 787:0.125347 811:0.067872003 817:0.088508002 885:0.074560001 914:0.074738003 937:0.073686004 965:0.118371 1004:0.061698999 1110:0.087752998 1127:0.077375002 1135:0.101891 1212:0.119374 1258:0.122071 1342:0.083136 1450:0.083136 1514:0.12508599 1557:0.106713 1617:0.092839003 2083:0.375911 2261:0.17364199 3000:0.13514601 3239:0.14853799 4428:0.17830899 12165:0.49940199 12166:0.371649 #
1.0000000231766961178436758928001 10:0.052021999 31:0.075158 69:0.068709001 75:0.067464001 81:0.104066 114:0.064577997 156:0.082996003 216:0.090393998 257:0.18024901 346:0.157419 364:0.37771699 371:0.144604 383:0.074951999 385:0.069949999 449:0.164813 480:0.195834 508:0.108017 723:0.071654998 731:0.17601299 737:0.131927 895:0.13147099 951:0.215005 964:0.135787 1004:0.091807999 1028:0.158326 1119:0.126386 1213:0.173998 1289:0.162697 1482:0.46731699 2006:0.153183 2294:0.192316 2299:0.198374 3529:0.184268 3920:0.223481 #
1.0000000231766961178436758928001 10:0.06013 11:0.062493 35:0.028224001 38:0.053902 43:0.098649003 50:0.053096 56:0.133039 75:0.046055 103:0.095245004 114:0.074643001 122:0.075235002 126:0.025812 137:0.045428999 150:0.077319004 156:0.033464 213:0.088987999 214:0.056612 223:0.065805003 256:0.096072003 271:0.068393998 290:0.125631 292:0.060028002 313:0.100076 370:0.041932002 393:0.055222001 394:0.136077 505:0.16714101 592:0.063281998 611:0.134113 655:0.089596003 668:0.061760999 670:0.092697002 743:0.088839002 807:0.044927001 853:0.25027901 855:0.072198004 894:0.058729 976:0.088689998 984:0.195842 1114:0.120745 1239:0.168906 1542:0.101724 1552:0.113651 2080:0.1043 2279:0.247905 2319:0.13128699 3908:0.29927301 3912:0.140343 4020:0.23949499 4949:0.194407 6368:0.172378 6440:0.16584399 7542:0.20494799 7543:0.432219 #
1.0000000231766961178436758928001 5:0.073395997 49:0.14055599 70:0.062697999 83:0.064758003 87:0.060118999 105:0.086506002 115:0.055553 128:0.217847 131:0.066325001 143:0.058472998 147:0.097269997 227:0.217153 244:0.048455 248:0.059431002 249:0.064809002 250:0.087242998 271:0.12952299 300:0.064962 352:0.048425999 395:0.095904 427:0.097898997 448:0.059686001 452:0.057626002 457:0.078547999 499:0.10969 552:0.209782 559:0.085635997 561:0.093349002 624:0.098379999 671:0.124387 777:0.085635997 981:0.10718 1019:0.117898 1119:0.096502997 1198:0.102356 1374:0.099032998 1459:0.19650701 1475:0.182595 1583:0.105276 1588:0.25997999 1601:0.102728 1635:0.136217 1822:0.174803 1853:0.16533899 1977:0.125026 2122:0.14438599 2339:0.159504 2659:0.128451 3473:0.162275 4210:0.168764 6039:0.19280399 7351:0.29231799 10439:0.22923499 13421:0.249392 #
1.0000000231766961178436758928001 35:0.014169 38:0.045816999 41:0.038879 43:0.049523 100:0.073802002 105:0.042654999 108:0.052141 129:0.090080999 143:0.044436 151:0.068405002 206:0.053647 221:0.035413001 248:0.045164 276:0.031153999 280:0.084472001 290:0.044748999 325:0.079237998 337:0.063919999 352:0.036800999 383:0.043492001 385:0.040589001 410:0.101703 475:0.078644998 497:0.032563999 552:0.066807002 611:0.141293 677:0.067152001 696:0.247021 785:0.073221996 807:0.038187999 853:0.101369 888:0.080316 962:0.076820001 964:0.078791998 976:0.158204 1021:0.14992601 1092:0.093528003 1133:0.064763002 1137:0.094109997 1169:0.099041 1332:0.105399 1349:0.172709 1448:0.095321 1469:0.082644999 1591:0.120231 1607:0.096275002 1615:0.204376 1637:0.158886 1686:0.093528003 1701:0.11929 1729:0.089594997 1997:0.120231 2171:0.093817003 2180:0.193626 2363:0.129677 3139:0.14992601 3458:0.126911 3747:0.201976 3757:0.126911 3758:0.122241 4137:0.122241 4490:0.126911 4491:0.14992601 4492:0.189522 4493:0.165244 4494:0.17420401 4495:0.165244 4496:0.17420401 4497:0.140966 4498:0.17420401 4499:0.189522 4500:0.17420401 4501:0.165244 #
1.0000000231766961178436758928001 5:0.072867997 10:0.039436001 26:0.129106 35:0.018510999 69:0.052085999 75:0.107328 87:0.059687 99:0.083903 105:0.032912999 112:0.029151 142:0.074463002 162:0.088303998 212:0.075871997 231:0.073555999 233:0.101254 239:0.037606999 241:0.043558002 304:0.203807 313:0.065635003 367:0.116429 370:0.046564002 383:0.18166199 385:0.089782 393:0.061321001 459:0.095361002 491:0.205396 494:0.086944997 508:0.081885003 916:0.12798201 928:0.087729998 945:0.16703101 951:0.096263997 952:0.105135 967:0.101254 995:0.102744 1004:0.069596 1018:0.28633499 1027:0.11189 1037:0.107742 1108:0.15172 1127:0.087278999 1211:0.106193 1913:0.118007 2144:0.11242 2269:0.242708 2293:0.173545 2299:0.150381 2306:0.110607 3099:0.227586 3100:0.201132 3101:0.50068301 #
-1.0000000231766961178436758928001 15:0.038908001 33:0.064885996 44:0.034263 53:0.098454997 56:0.064599 59:0.05469 65:0.062720999 75:0.079460002 76:0.036903001 84:0.099289 97:0.082340002 105:0.078810997 125:0.092749 126:0.026302001 127:0.134405 156:0.057735 205:0.049359001 209:0.079382002 214:0.097672999 217:0.055326998 231:0.067497998 232:0.069000997 239:0.020382 241:0.083883002 267:0.063204996 276:0.063238002 290:0.053647 370:0.042729001 384:0.174668 389:0.12349 394:0.13866299 452:0.110176 480:0.28589299 568:0.15593 591:0.110459 620:0.13622899 654:0.143576 935:0.078112997 1305:0.090526998 1348:0.072701 1370:0.091456003 1468:0.076720998 1736:0.087104 1923:0.16620401 2026:0.125204 2295:0.20884299 2396:0.19412 2841:0.11918 3908:0.14531501 3910:0.415737 3913:0.179737 4146:0.144137 5686:0.20884299 10009:0.22720701 10010:0.22720701 10011:0.22720701 #
-0.52068017635654972874448276343173 11:0.015156 59:0.044227 65:0.050721001 100:0.071548998 143:0.043079998 151:0.066317998 170:0.062862001 206:0.05201 221:0.034333002 241:0.032322999 248:0.043784998 280:0.081894003 337:0.061969999 352:0.035677999 385:0.039349999 410:0.058233999 419:0.04002 475:0.076245002 570:0.075547002 696:0.100357 785:0.070987001 807:0.037021998 853:0.098275997 962:0.074474998 964:0.076387003 1133:0.062786996 1137:0.091237999 1178:0.085506998 1252:0.128785 1349:0.167438 1368:0.073206998 1607:0.093336999 1615:0.198139 1686:0.090673998 1701:0.11565 2180:0.18771701 2355:0.168888 2359:0.168888 3458:0.123038 3747:0.195812 3757:0.123038 3758:0.11851 4177:0.149257 4611:0.142048 4630:0.117514 6105:0.149257 6203:0.142048 6204:0.160201 6205:0.160201 6206:0.18373799 6207:0.18373799 6208:0.18373799 6209:0.168888 6210:0.18373799 6211:0.18373799 6212:0.168888 6213:0.142048 6214:0.160201 6215:0.154037 6216:0.18373799 6217:0.154037 6218:0.14534999 6219:0.18373799 6220:0.18373799 #
-0.74878215701232131440434613978141 16:0.062547997 35:0.014235 69:0.040056001 75:0.039329998 81:0.060669001 112:0.022419 114:0.037648 126:0.022042001 148:0.088164002 156:0.028577 205:0.041365001 216:0.052698001 231:0.056566998 232:0.046654001 236:0.066817001 239:0.017081 241:0.033498 257:0.16195001 293:0.057385001 364:0.17765801 384:0.086456001 397:0.122696 449:0.096083999 656:0.062339 775:0.088386998 780:0.049327001 817:0.076778002 926:0.083931997 929:0.072554 937:0.063920997 941:0.085060999 951:0.176659 952:0.080853 1101:0.100259 1209:0.070963003 1257:0.108509 1398:0.096083999 1424:0.076252997 1480:0.40269101 1481:0.104928 1482:0.297914 1665:0.155385 1694:0.15042 1906:0.087724999 2006:0.089303002 2294:0.112117 2551:0.088840999 4258:0.16602001 4630:0.121782 5293:0.154678 6149:0.154678 6153:0.15063 9344:0.27028099 9345:0.190412 9346:0.190412 9347:0.16602001 9348:0.28109601 9349:0.190412 #
