SVM-light Version V6.02
0 # kernel type
3 # kernel parameter -d 
1 # kernel parameter -g 
1 # kernel parameter -s 
1 # kernel parameter -r 
empty# kernel parameter -u 
14598 # highest feature index 
2865 # number of training documents 
885 # number of support vectors plus 1 
1.0060122 # threshold b, each following line is a SV (starting with alpha*y)
-0.69273513514892925968524650670588 1:0.053477 2:0.114842 3:0.143185 4:0.098948002 5:0.055305999 6:0.050569002 7:0.13353799 8:0.049261 9:0.037200999 10:0.029931 11:0.026245 12:0.096924998 13:0.075255997 14:0.061524 15:0.032180998 16:0.104519 17:0.116529 18:0.045793999 19:0.059064999 20:0.121209 21:0.077266999 22:0.106966 23:0.030975999 24:0.073413 25:0.101341 26:0.057874002 27:0.077408001 28:0.090832002 29:0.43982801 30:0.115941 31:0.073216997 32:0.060717002 33:0.053667001 34:0.179924 35:0.014049 36:0.028279001 37:0.070970997 38:0.045430001 39:0.066932999 40:0.096115999 41:0.065272003 42:0.055305999 43:0.103053 44:0.047982 45:0.08275 46:0.18643799 47:0.163849 48:0.094256997 49:0.050468002 50:0.044751 51:0.061730001 52:0.076849997 53:0.081432 54:0.083759002 55:0.069634996 56:0.090464003 57:0.076576002 58:0.065085001 59:0.045233998 60:0.044718999 61:0.115309 62:0.050634 63:0.037269 64:0.066932999 65:0.051876001 66:0.194552 67:0.098948002 68:0.087232001 69:0.039531998 70:0.047244001 71:0.078569002 72:0.101341 73:0.080435 74:0.085123003 75:0.065720998 76:0.030522 77:0.087453999 78:0.22921599 79:0.13977601 80:0.084333003 81:0.059875999 82:0.089565001 83:0.048797 84:0.082121998 85:0.053335 86:0.062290002 87:0.045301002 88:0.082620002 89:0.054896999 90:0.23088001 91:0.079571001 92:0.070649996 93:0.054297999 94:0.054297999 95:0.05604 96:0.13977601 97:0.068103001 98:0.043724 99:0.037611 100:0.073178999 101:0.087232001 102:0.081093997 103:0.080274001 104:0.039011002 105:0.024979999 106:0.092177004 #
1.0000000231766961178436758928001 3:0.065141 6:0.032423999 11:0.028493 33:0.058263 41:0.041852001 44:0.073416002 48:0.060437001 60:0.048548002 69:0.072665997 85:0.057902001 87:0.049180999 88:0.052976001 93:0.058947999 99:0.097437002 104:0.042351998 105:0.064714998 121:0.046184 122:0.040658001 142:0.086474001 155:0.059324998 180:0.063793004 197:0.055197001 205:0.044321001 219:0.047600999 221:0.038121998 226:0.048826002 236:0.071590997 239:0.018301999 247:0.064122997 282:0.094792999 327:0.098387003 351:0.050639998 352:0.039615002 387:0.064728998 404:0.065490998 545:0.074648999 559:0.070054002 616:0.077619001 670:0.084817 676:0.057197001 723:0.044757999 857:0.107015 858:0.051562998 991:0.062830001 1169:0.106615 1353:0.071549997 1609:0.095187001 1855:0.124745 1866:0.110481 1902:0.082263 1949:0.187061 2080:0.095434003 2185:0.19684599 2639:0.116863 3002:0.171037 3091:0.13959301 3147:0.116863 3350:0.161391 3492:0.15772399 3493:0.127441 5328:0.13661601 6449:0.187526 6541:0.31319499 8039:0.28959 8867:0.17788 12106:0.17788 12107:0.187526 12108:0.187526 12109:0.187526 12110:0.187526 13613:0.317509 #
-0.040946368450142024697502307617469 1:0.073709004 6:0.041166 11:0.021365 41:0.053135999 87:0.077394001 98:0.060265999 105:0.034430999 126:0.029984999 134:0.078902997 145:0.063818999 147:0.101026 171:0.101351 192:0.091776997 197:0.070078999 221:0.0484 239:0.023236001 240:0.051493999 244:0.105615 248:0.061725002 258:0.071140997 383:0.100641 385:0.093924001 419:0.095523 448:0.16176 497:0.075352997 499:0.113925 516:0.155304 544:0.14048 592:0.073513001 595:0.17503101 635:0.110203 655:0.104083 659:0.17172299 668:0.071746998 671:0.076301001 682:0.080909997 697:0.100705 743:0.103202 760:0.070370004 764:0.103029 787:0.087360002 894:0.068223998 910:0.138997 933:0.069448002 937:0.086952001 975:0.094512999 1004:0.072806999 1017:0.115448 1065:0.127435 1150:0.120541 1151:0.20154899 1225:0.095439002 1342:0.098103002 1788:0.18847799 1824:0.28476399 7654:0.210411 12868:0.438559 12869:0.25902 12870:0.25902 #
-0.1785660976996612248068885264729 44:0.042580999 58:0.097795002 113:0.048870001 136:0.25211999 164:0.066578001 182:0.107106 313:0.074851997 354:0.115661 394:0.101779 403:0.26778901 405:0.095684998 470:0.076018997 508:0.093382999 575:0.101372 676:0.079163 739:0.111756 1163:0.160097 1172:0.157032 1500:0.246243 1540:0.104041 1902:0.192775 2336:0.206554 2337:0.206554 2736:0.167244 3057:0.131072 5136:0.193204 11928:0.223373 12068:0.54468399 12447:0.28236699 #
-0.11316650276239012540280270968651 38:0.056363001 63:0.046238001 105:0.073957004 114:0.046098001 116:0.112635 126:0.02699 162:0.083150998 169:0.061069001 208:0.049901001 214:0.141259 215:0.12966099 216:0.168377 217:0.174833 236:0.081813999 239:0.020915 250:0.081560999 292:0.062767997 351:0.057872001 367:0.35052699 368:0.118437 369:0.216564 370:0.074239001 371:0.216626 372:0.153102 373:0.14068399 374:0.115058 375:0.124205 376:0.214306 377:0.23315001 378:0.214306 379:0.214306 380:0.23315001 381:0.23315001 382:0.25444099 383:0.053502999 384:0.10586 385:0.104789 386:0.19362999 387:0.073972002 388:0.17341501 389:0.074842997 390:0.079671003 391:0.15612499 392:0.067183003 393:0.057743002 394:0.084039003 395:0.089658 396:0.087016001 397:0.071586996 #
1.0000000231766961178436758928001 9:0.040782001 11:0.016992999 23:0.033957999 32:0.112699 37:0.077802002 44:0.031067001 69:0.043338001 98:0.047933001 99:0.041230999 105:0.057470001 157:0.085171998 164:0.101939 174:0.144208 194:0.123913 240:0.069343999 249:0.053536002 257:0.067148 258:0.056582 273:0.216223 287:0.086296 290:0.048643 313:0.054611001 354:0.049839001 385:0.092592001 532:0.084551997 545:0.075378999 631:0.122798 649:0.087650001 652:0.110189 782:0.078616999 807:0.070283003 818:0.078497998 938:0.26258501 984:0.106871 1004:0.057907 1035:0.127746 1036:0.172711 1037:0.089645997 1038:0.123521 1039:0.1507 1040:0.093988001 1041:0.127746 1042:0.18936101 1043:0.206012 1044:0.14632 1045:0.206012 1046:0.206012 1047:0.206012 1048:0.206012 1049:0.18936101 1050:0.206012 1051:0.13658001 1052:0.1507 1053:0.162971 1054:0.095872998 1055:0.206012 1056:0.192213 1057:0.083503999 1058:0.13658001 1059:0.179621 #
1.0000000231766961178436758928001 22:0.068502001 37:0.056334998 38:0.061057001 40:0.129179 50:0.060144 51:0.082964003 76:0.041021001 84:0.11037 93:0.123559 94:0.072976001 112:0.029735999 137:0.107991 205:0.054866999 214:0.064125001 216:0.069899 236:0.071502998 282:0.069309004 341:0.080815002 383:0.057957999 387:0.080132 432:0.145437 434:0.072581001 442:0.25871199 448:0.060444999 452:0.058359001 457:0.13468499 464:0.20909999 481:0.133496 496:0.296518 497:0.043395001 504:0.085383996 525:0.221836 526:0.226028 560:0.16941801 771:0.090672001 914:0.085995004 991:0.077780999 1007:0.106823 1018:0.13917699 1107:0.13795 1108:0.191825 1109:0.12502401 1110:0.10097 1111:0.18194599 1112:0.217968 1113:0.187856 1114:0.28703099 1115:0.241256 1116:0.127028 1117:0.174844 1118:0.15143301 1119:0.097731002 #
1.0000000231766961178436758928001 11:0.026892001 21:0.079171002 23:0.031739 38:0.046549 63:0.038187001 121:0.043589 131:0.051208999 143:0.045147002 206:0.054505002 213:0.161276 221:0.035980001 239:0.017273 276:0.053592999 365:0.196454 396:0.071865 405:0.110478 425:0.114048 470:0.051839001 519:0.087220997 539:0.115969 545:0.070455 570:0.079171002 658:0.098485 682:0.060146999 780:0.049881998 822:0.091273002 846:0.079028003 882:0.087847002 887:0.074982002 888:0.081601001 953:0.084145002 1004:0.054124001 1353:0.114338 1483:0.099889003 1547:0.091273002 1703:0.098146997 1779:0.092026003 1831:0.192553 1832:0.156417 1833:0.17699 1834:0.399836 1835:0.14586499 1836:0.17699 1837:0.13330001 1838:0.156417 1839:0.140854 1840:0.138714 1841:0.13676099 1842:0.134964 1843:0.208514 1844:0.14586499 1845:0.17699 1846:0.192553 1847:0.200728 1848:0.140854 1849:0.16142701 1850:0.130302 1851:0.192553 1852:0.14586499 1853:0.127657 #
1.0000000231766961178436758928001 5:0.082056999 15:0.047745999 35:0.020845 44:0.100334 50:0.066395998 61:0.101044 63:0.055295002 81:0.15041301 104:0.057881001 105:0.037062999 111:0.124272 137:0.158593 179:0.094370998 213:0.111278 219:0.214845 229:0.098283999 232:0.068314999 236:0.130154 244:0.054173 293:0.084027998 340:0.084271997 393:0.069053002 401:0.102589 434:0.080126002 472:0.161422 479:0.13801999 523:0.151869 699:0.091486 721:0.179067 731:0.088743001 739:0.110351 775:0.219135 791:0.21176501 1125:0.093707003 1344:0.139329 1501:0.114021 1721:0.14116199 2212:0.27960899 2239:0.22056501 2240:0.226493 2241:0.27881801 2242:0.175495 2243:0.21121299 2244:0.27881801 2245:0.25628299 #
1.0000000231766961178436758928001 6:0.071493998 11:0.021915 31:0.061136998 44:0.040065002 45:0.069096997 50:0.063267998 57:0.183305 62:0.121205 63:0.052689999 69:0.094631001 99:0.053174 122:0.126348 126:0.030756 164:0.062643997 183:0.166217 217:0.064696997 221:0.049644999 231:0.078929 239:0.023833999 290:0.106215 316:0.097620003 322:0.13104901 340:0.236564 354:0.15337899 383:0.060968999 419:0.057868998 443:0.066441998 486:0.152992 497:0.077292003 504:0.152077 617:0.099016003 765:0.107691 767:0.097213 888:0.112593 1276:0.131929 1513:0.147073 1613:0.136842 1741:0.116603 1902:0.18138599 2219:0.181789 2230:0.186222 2250:0.147073 2496:0.188702 2660:0.37730801 2661:0.38923001 2662:0.181789 2663:0.19435 2664:0.191397 #
-0.11972850548138333492964591187047 16:0.17621 26:0.16520201 35:0.040104002 36:0.080721997 64:0.191062 105:0.071305998 170:0.18352801 236:0.089694999 313:0.240767 497:0.092169002 648:0.225134 723:0.199258 791:0.40742099 951:0.20855799 1353:0.18812899 1427:0.20564801 1779:0.25637099 2210:0.22600301 2212:0.53794903 #
-0.23892608698390754851104134104389 9:0.048119001 11:0.042077001 15:0.041625001 22:0.111626 23:0.118034 24:0.094958 36:0.036578 42:0.071537003 44:0.062063001 51:0.079847001 56:0.069109999 76:0.094210997 85:0.068986997 95:0.072485998 99:0.082369998 104:0.105896 105:0.054708 126:0.028139001 156:0.036481 187:0.121467 194:0.14620399 202:0.081504002 211:0.097842999 221:0.045419998 236:0.068815999 240:0.048323002 247:0.076398998 258:0.066761002 272:0.052531 299:0.103832 338:0.135344 352:0.047199 385:0.109249 410:0.077040002 413:0.110105 433:0.067043997 450:0.080026001 458:0.12869 470:0.065439999 508:0.080388002 512:0.104894 580:0.278503 635:0.103418 671:0.071603999 682:0.12855799 741:0.087971002 765:0.098526001 767:0.088940002 874:0.069665998 1026:0.079847001 1149:0.098353997 1152:0.227365 1154:0.117489 1295:0.121858 1368:0.096848004 1421:0.140728 1477:0.101821 2059:0.164489 5886:0.175109 6937:0.197456 7567:0.223427 7568:0.243073 7569:0.411558 7570:0.243073 #
-0.79226236849959330577064520184649 23:0.081653997 44:0.074702002 93:0.143132 99:0.16786499 126:0.120345 150:0.290847 256:0.12606201 353:0.167468 415:0.174843 523:0.26982099 559:0.17009901 560:0.158338 721:0.490316 889:0.36574599 1198:0.20331 1209:0.184615 1225:0.30904001 1274:0.231723 1902:0.199743 #
-0.26942702606284785193935249481001 11:0.021214999 35:0.019229 76:0.041774999 81:0.138753 113:0.044514999 126:0.050413001 169:0.067368999 208:0.093206003 216:0.071183003 221:0.04806 232:0.037220001 236:0.120065 246:0.102825 257:0.20005099 313:0.115442 325:0.182074 433:0.070942 434:0.155118 445:0.34248 452:0.059431002 453:0.073716 454:0.107536 464:0.081603996 597:0.124145 650:0.087054998 654:0.095994003 685:0.104807 783:0.075907998 825:0.07835 920:0.37624499 967:0.105182 1127:0.090664998 1225:0.094769001 1234:0.100317 1268:0.14101 1329:0.122924 1405:0.213632 1491:0.122924 1532:0.14733 1666:0.124678 1736:0.098603003 1910:0.11596 2193:0.170518 4235:0.168897 5150:0.172233 9379:0.257204 9380:0.236415 9381:0.257204 #
-0.24480949694095263668991435679345 11:0.052248999 35:0.018147999 51:0.079740003 59:0.098931 73:0.103902 75:0.050140001 76:0.039427001 97:0.148949 105:0.054634999 112:0.028580001 113:0.042013001 156:0.061684001 160:0.090337001 217:0.100084 219:0.056637 226:0.058095999 236:0.040589999 240:0.048259001 257:0.079121001 273:0.191521 327:0.055782001 396:0.090598002 448:0.12192 454:0.101491 474:0.073370002 532:0.099628001 631:0.179346 650:0.082162 665:0.145818 752:0.215046 783:0.071640998 825:0.073945999 928:0.086011 984:0.125927 1025:0.11445 1040:0.30917799 1041:0.31589401 1052:0.177571 1073:0.132588 1116:0.12209 1127:0.252078 1131:0.094678998 1198:0.099628001 1268:0.078602001 1418:0.20040201 1515:0.088574998 1774:0.341133 4742:0.20350701 11375:0.21165 13380:0.24274699 #
1.0000000231766961178436758928001 11:0.070987001 15:0.147374 52:0.20786101 59:0.122346 76:0.082556002 87:0.12253 114:0.100498 160:0.18915699 180:0.158935 223:0.15000901 241:0.089418001 244:0.098756999 250:0.177809 298:0.27884701 324:0.161266 385:0.184312 799:0.19426399 962:0.206026 1001:0.235346 1475:0.219796 1888:0.244978 1913:0.24225301 2306:0.227062 10883:0.508286 #
1.0000000231766961178436758928001 22:0.289859 25:0.34038001 35:0.047189001 69:0.13278 90:0.36951801 91:0.157848 93:0.182375 95:0.188225 105:0.083903 197:0.170771 308:0.323957 315:0.172197 497:0.227596 592:0.17914 799:0.241237 863:0.266444 1057:0.25584301 2329:0.31745899 #
1.0000000231766961178436758928001 6:0.042948 9:0.090573996 11:0.022290001 37:0.060275 50:0.064351 61:0.097932003 65:0.074597999 72:0.145726 76:0.043891001 78:0.194672 95:0.080583997 98:0.062873997 112:0.053869002 131:0.071865998 144:0.146246 150:0.093707003 156:0.068668 197:0.073112004 200:0.131761 214:0.068611003 222:0.092790999 232:0.039105002 248:0.064396001 257:0.088078998 352:0.052473001 370:0.086046003 371:0.25107801 385:0.097989 389:0.086746 420:0.097404003 426:0.086746 452:0.149001 453:0.077449001 464:0.204594 492:0.098199002 622:0.123285 651:0.12155 656:0.088469997 753:0.123285 894:0.071176 1151:0.26062599 1171:0.109151 1209:0.10071 1268:0.087500997 1275:0.25100601 1331:0.129149 1367:0.153993 1396:0.28430399 1405:0.181086 1427:0.103597 1523:0.143391 1667:0.161025 1736:0.103597 1756:0.219101 1757:0.149589 3098:0.177451 8221:0.27022901 #
1.0000000231766961178436758928001 2:0.115519 7:0.134324 10:0.050976999 22:0.086806998 34:0.146016 35:0.023928 43:0.14160199 76:0.051982999 90:0.18737 114:0.063281 149:0.104434 157:0.27768901 199:0.111821 210:0.106209 232:0.097198002 236:0.053516001 241:0.14692301 368:0.34119999 382:0.14636999 389:0.10274 442:0.12563799 443:0.080039002 682:0.099974997 683:0.193123 699:0.105017 838:0.124041 941:0.142975 962:0.129729 1196:0.142332 1211:0.13726901 1450:0.20524301 1501:0.130885 2144:0.145319 2396:0.161502 4339:0.37078401 8976:0.294186 9690:0.27905399 #
1.0000000231766961178436758928001 1:0.046829 6:0.026154 11:0.035420001 20:0.106141 33:0.079571001 34:0.12711599 35:0.012303 36:0.024762999 37:0.036706001 38:0.039781999 44:0.024816001 46:0.13171799 48:0.048749 55:0.060977999 76:0.063781001 100:0.1085 102:0.071013004 104:0.034162 105:0.037037998 126:0.039979 134:0.050129 138:0.045083001 181:0.048703 211:0.112154 221:0.030749001 226:0.039384 229:0.058008 244:0.031973001 258:0.076526001 300:0.072577 306:0.079089001 354:0.067405999 371:0.072857 470:0.044303 477:0.110276 478:0.181823 541:0.069332004 687:0.091948003 722:0.052544001 744:0.101319 773:0.078217 896:0.055567 1330:0.25262699 1405:0.065130003 1420:0.066239998 1491:0.078648001 2146:0.17675699 2441:0.127222 2444:0.099947996 3062:0.093777001 4439:0.211068 4644:0.127222 5105:0.11688 5106:0.12466 5907:0.220414 6280:0.13796 9763:0.233587 11061:0.133679 11250:0.143481 11773:0.360953 11774:0.27862701 11775:0.256107 11776:0.164561 11777:0.151261 11778:0.164561 11779:0.164561 #
-0.32246410833388305938740359124495 11:0.049644001 15:0.083152004 22:0.20297401 35:0.021441 43:0.074940003 44:0.073224999 76:0.046580002 88:0.074469 90:0.167895 98:0.066726997 99:0.057397999 112:0.033766001 121:0.136245 124:0.081321999 126:0.056210998 142:0.106904 144:0.091668002 154:0.119229 156:0.072875001 157:0.118567 162:0.102281 164:0.067620002 170:0.098118998 205:0.105487 208:0.103926 232:0.041501001 272:0.104939 276:0.047143001 350:0.056361999 354:0.117472 385:0.103993 419:0.062465001 442:0.112579 443:0.071719997 450:0.094417997 457:0.090325996 497:0.103411 705:0.103651 740:0.110974 770:0.111678 840:0.123251 874:0.082194999 906:0.088233002 931:0.128114 991:0.088321 1122:0.114847 1133:0.098001003 1276:0.142408 1296:0.104502 1312:0.12532599 1512:0.161011 1533:0.131477 1539:0.145685 1604:0.121536 1913:0.136685 2306:0.128114 2812:0.15278 3062:0.16342901 4006:0.19013201 4358:0.22687 6014:0.213311 7489:0.22687 11759:0.28678799 11760:0.28678799 #
-1.0000000231766961178436758928001 6:0.038497001 11:0.047678001 22:0.137876 32:0.078263 33:0.069176003 36:0.036449999 42:0.120701 43:0.063295998 44:0.061847001 52:0.099056996 60:0.097594999 83:0.062898003 90:0.39589199 98:0.095423996 99:0.082083002 105:0.054517999 107:0.090014003 108:0.066641003 123:0.067152999 149:0.079039 180:0.075741999 181:0.071689002 205:0.052622002 221:0.045262001 228:0.14811 232:0.035053 312:0.080844 352:0.079636998 383:0.055585999 385:0.051876999 442:0.095086999 452:0.055969998 456:0.18490499 457:0.160106 530:0.182301 574:0.115766 649:0.103058 799:0.156748 802:0.128032 837:0.071555004 869:0.111596 887:0.094324999 1032:0.111048 1136:0.130087 1342:0.091743 1349:0.105183 1397:0.090535 1405:0.095868997 1741:0.106308 2022:0.121044 2075:0.130087 2388:0.142626 5114:0.196769 5117:0.22264899 5846:0.33839399 11171:0.19161899 11259:0.196769 11348:0.242227 #
-0.39281307699106360331597898039035 3:0.086520001 22:0.154236 32:0.087549999 33:0.131023 35:0.020258 37:0.06044 41:0.055587001 43:0.070805997 44:0.040862001 61:0.098200001 63:0.053739 75:0.055969998 76:0.074516997 84:0.20049199 105:0.075590998 121:0.12873 126:0.053111002 146:0.0832 156:0.119803 180:0.084729001 210:0.15224899 229:0.161725 232:0.102322 236:0.045309 239:0.041157 241:0.10004 275:0.103563 351:0.067259997 353:0.091605999 370:0.106944 393:0.067110002 444:0.094791003 452:0.062611997 475:0.26832199 582:0.34313399 767:0.099146999 783:0.13540199 811:0.083786003 887:0.105518 906:0.083365999 941:0.28885701 1151:0.12453 1484:0.246393 1736:0.103881 1756:0.17725401 1840:0.195206 1888:0.13059901 2488:0.205268 2711:0.30174699 8708:0.236258 #
-0.94916549770664460083935409784317 11:0.021880999 19:0.083378002 44:0.104388 49:0.071241997 60:0.063127004 105:0.035262998 126:0.030709 236:0.105849 257:0.086465001 272:0.057330001 315:0.072370999 322:0.162183 325:0.110911 366:0.14021599 443:0.066340998 448:0.13323601 453:0.076030001 465:0.091201998 477:0.104992 560:0.084793001 623:0.090108 681:0.124742 687:0.38677999 799:0.312217 933:0.071125999 935:0.091201998 952:0.112642 1004:0.074565999 1019:0.12540799 1100:0.13214201 1131:0.175184 1219:0.112866 1254:0.172612 1406:0.169664 1450:0.100473 1561:0.10829 1667:0.267643 1721:0.134306 1756:0.10249 1768:0.338588 2658:0.22444899 3476:0.21549401 10205:0.243837 #
-0.33864646019260807863204831846815 10:0.042252 22:0.230041 23:0.074036002 31:0.103355 32:0.085709997 33:0.075758003 35:0.019832 37:0.100184 56:0.075421996 61:0.20175301 76:0.072950996 88:0.068883002 92:0.099730998 112:0.031233 131:0.070548996 183:0.098020002 232:0.100172 236:0.075102001 248:0.063216001 257:0.086465001 324:0.084164999 351:0.065846004 385:0.056813002 390:0.153483 434:0.181918 452:0.061296001 508:0.087730996 623:0.090108 624:0.104646 739:0.30929601 907:0.12822101 964:0.110286 1014:0.11309 1108:0.096005999 1126:0.077068999 1225:0.097744003 1433:0.111334 1860:0.16332801 2075:0.14246599 2240:0.21549299 2274:0.146182 2510:0.238332 3710:0.243836 3920:0.18151 3955:0.14426801 6722:0.21549299 10892:0.243836 12146:0.26527601 12147:0.243836 #
1.0000000231766961178436758928001 1:0.092274003 6:0.051534999 11:0.056131002 23:0.05345 35:0.024242001 37:0.12246 42:0.095431 63:0.064306997 74:0.14688 93:0.15863401 104:0.067313999 112:0.080119997 131:0.086236 137:0.066065997 143:0.076026998 205:0.070442997 219:0.075655997 242:0.34488401 243:0.105111 247:0.101917 257:0.10569 273:0.34033301 276:0.09025 282:0.088983998 290:0.076563999 300:0.084463999 336:0.113433 352:0.106608 414:0.115043 497:0.164129 560:0.103646 616:0.123368 623:0.186489 668:0.15207601 740:0.12547401 777:0.188522 1033:0.12770499 1069:0.123368 1121:0.15412199 1140:0.19657999 1225:0.285108 1269:0.15673099 1312:0.141702 1433:0.13609 1490:0.14518499 1515:0.118319 1601:0.133568 1681:0.13381299 6552:0.25068599 #
1.0000000231766961178436758928001 9:0.042753 11:0.030161999 12:0.065788999 16:0.070942998 31:0.049697001 33:0.061677001 75:0.07553 92:0.081193 97:0.078267001 104:0.094088003 112:0.025427001 113:0.037377998 114:0.042700998 126:0.042330001 131:0.120536 137:0.044002 144:0.069031 147:0.084233999 156:0.054878999 170:0.12510499 200:0.105304 205:0.046916999 221:0.040355001 232:0.031252999 239:0.019374 257:0.070393004 272:0.097949997 294:0.103504 340:0.136989 352:0.041935999 375:0.115052 439:0.117452 465:0.074248999 484:0.137879 722:0.068957999 723:0.04738 741:0.078161001 771:0.077533998 806:0.27984101 807:0.043515999 858:0.054584 874:0.104801 900:0.16063599 979:0.244819 1027:0.097597003 1135:0.16973799 1234:0.084233999 1271:0.113715 1285:0.12245 1561:0.14927 1731:0.086340003 1806:0.108979 1816:0.34510499 2066:0.155582 2085:0.120106 2153:0.123709 2864:0.13117 3494:0.13117 3924:0.317678 5008:0.16063599 12757:0.215968 12758:0.215968 12759:0.215968 #
1.0000000231766961178436758928001 9:0.171473 11:0.046360001 18:0.080891997 80:0.14896899 87:0.080022 91:0.083015002 99:0.066436999 112:0.039083 115:0.073942997 124:0.22462 126:0.091698997 145:0.081788003 179:0.112355 208:0.071047001 238:0.187369 239:0.050418999 242:0.147955 244:0.064496003 257:0.108197 258:0.154367 272:0.121465 321:0.118857 322:0.096704997 352:0.064457998 433:0.091558002 497:0.09657 518:0.131818 530:0.249828 728:0.146642 738:0.22343799 787:0.111958 806:0.16483501 807:0.113248 858:0.083897002 906:0.102128 1127:0.117014 2171:0.27822199 4453:0.215996 9167:0.33195099 9168:0.30512199 9169:0.33195099 #
1.0000000231766961178436758928001 6:0.036451001 10:0.036529999 15:0.039275002 21:0.094301 22:0.062206 38:0.055445001 41:0.047049001 50:0.054616001 51:0.12756 75:0.113046 76:0.063070998 236:0.100071 239:0.020574 241:0.040348001 256:0.058364999 267:0.063800998 294:0.109918 313:0.158649 324:0.072766997 350:0.045072999 394:0.082668997 415:0.080949999 434:0.065909997 443:0.057356 452:0.111215 564:0.126385 572:0.088197 591:0.111501 731:0.123596 791:0.14053901 945:0.091380998 951:0.21278401 953:0.100226 1004:0.064466998 1033:0.090325996 1110:0.091689996 1305:0.091380998 1468:0.077444002 1508:0.30719301 1523:0.1217 1552:0.116903 1623:0.159376 1669:0.085721999 1768:0.122672 1779:0.109612 1788:0.098567002 1797:0.17507599 1900:0.117714 1924:0.128764 1972:0.12473 2142:0.14023601 2210:0.230583 2343:0.165223 2607:0.13504399 2920:0.16075499 3182:0.150607 4502:0.28883299 4903:0.26003501 9383:0.18630899 10055:0.22935 #
1.0000000231766961178436758928001 23:0.100001 35:0.021612 44:0.121703 50:0.068839997 56:0.082190998 95:0.086207002 105:0.038426999 114:0.057156999 116:0.13965601 138:0.079196997 142:0.086939998 208:0.061872002 217:0.070394002 224:0.36669299 226:0.069185004 236:0.048337001 239:0.025932999 241:0.106727 247:0.090860002 248:0.068889 337:0.204613 352:0.056134 385:0.14773899 434:0.25582701 441:0.137779 450:0.095174 457:0.091049001 614:0.13252801 623:0.098194003 676:0.081046 685:0.24721099 699:0.094853997 721:0.286134 723:0.063421004 731:0.092009 828:0.111167 852:0.122269 889:0.12605999 891:0.215018 974:0.27123699 1014:0.123239 1119:0.111862 1340:0.108363 1398:0.145873 1540:0.106515 1665:0.139329 1932:0.137779 2430:0.135579 7742:0.28908199 #
-0.64135840842058278177262309327489 1:0.076791003 6:0.072614998 11:0.037687 15:0.110272 22:0.21561299 44:0.130106 51:0.150085 52:0.110354 56:0.076723002 76:0.091980003 89:0.078829996 113:0.079076998 126:0.031238001 137:0.054979999 138:0.073927999 142:0.047931999 143:0.063270003 145:0.066486999 156:0.084991999 160:0.17003199 162:0.096239999 206:0.12932999 226:0.064581998 229:0.095123 241:0.047472 350:0.053033002 354:0.065283 410:0.085525997 435:0.108998 457:0.084991999 493:0.071939997 497:0.120988 544:0.086438999 592:0.076586999 699:0.088542998 707:0.10645 728:0.119208 753:0.123112 806:0.39474401 807:0.054373 910:0.14480899 962:0.109379 1065:0.132763 1093:0.100279 1816:0.37922099 2009:0.21262699 2193:0.178902 2871:0.24803901 2986:0.213471 6066:0.204419 6334:0.219208 #
-0.41963311839081252063721194645041 1:0.087086 6:0.155506 11:0.025242999 23:0.050445002 37:0.068260998 87:0.043570999 88:0.079465002 91:0.076531999 112:0.036031 122:0.060988002 124:0.22644401 126:0.035427 137:0.062352002 142:0.054358002 156:0.045929 190:0.126059 232:0.044286001 240:0.12767901 244:0.059459999 257:0.32942599 258:0.176393 267:0.085133001 350:0.060143001 352:0.059424002 392:0.088183999 453:0.087710001 457:0.096386999 493:0.081586003 523:0.098449998 676:0.085796997 713:0.126756 738:0.086322002 741:0.110756 767:0.111976 770:0.119171 797:0.213368 811:0.094627 855:0.099092998 945:0.121932 974:0.31399 993:0.080158003 994:0.15818501 1124:0.21450201 1475:0.13233501 1496:0.18587001 1665:0.147497 1888:0.147497 2184:0.118793 2230:0.36318299 2432:0.172654 2551:0.142784 3715:0.17351399 #
-0.14615281687975906210752441438672 7:0.10092 9:0.047602002 10:0.0383 65:0.066380002 85:0.068246 87:0.034235999 95:0.071707003 112:0.028310999 115:0.053564001 131:0.063950002 155:0.069922999 163:0.282832 182:0.091210999 213:0.16249099 221:0.044932 224:0.20786799 239:0.021570999 241:0.042302001 256:0.061193001 276:0.039528001 287:0.100727 324:0.076292001 343:0.14805 385:0.051499002 404:0.227396 434:0.164901 497:0.069954 498:0.088850997 611:0.085423 637:0.091073997 670:0.099969998 723:0.052754 740:0.093047999 785:0.157297 833:0.107177 858:0.060773998 975:0.087742001 986:0.104858 993:0.062983997 1121:0.114292 1142:0.13796601 1285:0.136338 1405:0.095170997 1468:0.081197001 1609:0.112192 1667:0.143287 1681:0.099232003 1765:0.12759601 1769:0.112776 2116:0.16453101 2719:0.145096 2735:0.170788 3094:0.157903 3509:0.146047 4357:0.221027 4886:0.16854399 5006:0.15646499 5342:0.201592 6715:0.16854399 9854:0.209658 9923:0.195335 9924:0.209658 #
-0.73791005332534931326904370507691 9:0.058524001 11:0.024386 22:0.20923699 35:0.022102 36:0.075323999 37:0.11165 41:0.060647 42:0.087006003 43:0.077252001 50:0.070400998 63:0.099270001 69:0.105299 76:0.048016999 93:0.085421003 104:0.128796 105:0.082473002 108:0.081335001 121:0.066924997 123:0.08196 137:0.060233999 142:0.052512001 156:0.105879 160:0.18628 180:0.24122199 197:0.079985999 206:0.083683997 217:0.12189 231:0.087826997 236:0.083697997 241:0.109146 245:0.13654201 272:0.063891001 330:0.120683 352:0.097197004 419:0.064392999 433:0.081542 452:0.068310998 655:0.118796 668:0.081890002 806:0.35031301 810:0.13723201 832:0.163654 894:0.077868 956:0.118593 993:0.162507 1211:0.12679601 1728:0.123138 1741:0.129749 1816:0.47241199 1824:0.124555 2659:0.15227 6311:0.257765 #
-0.097675877838958063970054013225308 10:0.047008999 35:0.022065001 37:0.20272601 91:0.073808998 104:0.061269 112:0.034749001 143:0.069200002 145:0.18975499 146:0.090622 179:0.099895999 203:0.135975 204:0.102602 212:0.090442002 232:0.042709999 240:0.099345997 244:0.120344 260:0.130096 273:0.232861 276:0.082145996 282:0.080994003 290:0.069688 321:0.105678 350:0.058003001 392:0.085046999 393:0.073096 397:0.090622 413:0.28056499 427:0.115859 434:0.23679 452:0.068196997 454:0.123398 465:0.171802 470:0.079457998 497:0.106423 738:0.21723901 786:0.254715 858:0.074593998 1013:0.166977 1170:0.144769 1198:0.121133 1223:0.138786 1344:0.147487 1979:0.18171699 2143:0.16491 2153:0.28624699 3509:0.179258 11099:0.29514301 #
1.0000000231766961178436758928001 6:0.070197999 15:0.044673 22:0.19753 35:0.019502999 43:0.14305601 44:0.039338998 56:0.074169002 60:0.062077999 70:0.065582998 86:0.08647 95:0.077793002 105:0.106786 112:0.030714 114:0.051578999 121:0.059053998 122:0.088022999 156:0.120565 221:0.048744999 236:0.073854998 327:0.059946001 352:0.050655 393:0.064608 401:0.095985003 410:0.082680002 427:0.102405 448:0.062433001 470:0.070230998 541:0.109907 559:0.089576997 561:0.165327 634:0.098364003 690:0.103419 719:0.086568996 752:0.110121 765:0.105739 851:0.121714 951:0.101424 995:0.108251 1017:0.19686601 1225:0.09612 1515:0.095187999 1681:0.107653 1896:0.122995 1922:0.21870001 1947:0.156413 2069:0.124676 3520:0.190828 3708:0.197616 5317:0.211913 7293:0.30577099 8554:0.21870001 9929:0.21870001 14308:0.260869 14309:0.260869 14310:0.239785 #
1.0000000231766961178436758928001 3:0.24054 11:0.042346999 22:0.195467 26:0.127561 33:0.118289 35:0.018289 44:0.062461998 49:0.065699004 69:0.087134004 76:0.067275003 84:0.106906 87:0.058972999 88:0.133311 90:0.143218 91:0.061179001 93:0.070684999 105:0.068245001 180:0.182539 207:0.10807 239:0.021946 241:0.072867997 352:0.080430001 370:0.046007 387:0.077616997 498:0.090392999 515:0.16064399 731:0.077863 817:0.098641999 874:0.070114002 885:0.083097003 897:0.12784301 974:0.096189 1108:0.18580399 1289:0.12186 1888:0.199634 1904:0.193525 2259:0.12690701 2274:0.32169199 2393:0.280294 2493:0.13669001 3459:0.13361999 3608:0.18531901 4648:0.15062 9144:0.205091 13573:0.41420501 #
1.0000000231766961178436758928001 3:0.130179 6:0.03827 9:0.100037 10:0.038353 12:0.124196 22:0.137062 26:0.12556 35:0.018002 41:0.049396999 44:0.076205999 46:0.113835 49:0.064668 76:0.039110001 87:0.081812002 88:0.062527001 99:0.081598997 100:0.093768999 105:0.054196 121:0.092294 145:0.059328999 169:0.10679 205:0.052310999 214:0.061138 239:0.021601001 313:0.063832998 318:0.126789 335:0.149317 370:0.045285001 387:0.16033199 393:0.059636999 450:0.079277001 519:0.109074 545:0.088106997 625:0.154008 649:0.26733801 671:0.070932999 799:0.240151 832:0.133297 894:0.063423999 906:0.074083999 1146:0.077215001 1196:0.107086 1295:0.120718 1340:0.189428 1720:0.22133601 1837:0.28224501 2039:0.19879299 2442:0.158124 2890:0.150418 2910:0.19048899 4478:0.140971 5001:0.22133601 5002:0.399762 #
1.0000000231766961178436758928001 2:0.15384001 6:0.040008999 15:0.043109 18:0.103866 22:0.068278 36:0.037881002 37:0.16541301 42:0.074086003 56:0.071572997 60:0.059904002 62:0.067828 63:0.049924001 89:0.073538996 99:0.050383002 105:0.056658 163:0.222578 164:0.059354998 171:0.166776 178:0.097563997 181:0.074504003 198:0.14225499 202:0.084408 208:0.053879 239:0.038236 261:0.101682 267:0.070028998 287:0.178543 290:0.100639 321:0.090135999 383:0.09781 389:0.080810003 415:0.088852003 424:0.124231 427:0.098820001 493:0.113629 494:0.088398002 496:0.123852 545:0.092110001 559:0.086441003 575:0.090374999 665:0.089312002 713:0.104268 785:0.097258002 799:0.096212 803:0.092495002 1004:0.070759997 1008:0.191277 1432:0.110244 1445:0.24289 1533:0.115407 1612:0.166894 2077:0.121329 3226:0.157251 3371:0.12787899 3545:0.1561 3912:0.15844899 5714:0.204494 7976:0.34623799 12916:0.25173599 12917:0.25173599 #
1.0000000231766961178436758928001 9:0.071176 10:0.033822998 22:0.057597 35:0.026881 37:0.047366001 41:0.043563001 53:0.092018999 99:0.042500999 105:0.028228 112:0.025002001 115:0.047302999 149:0.069292001 198:0.148739 232:0.03073 236:0.074516997 246:0.084895998 286:0.26305699 314:0.095080003 352:0.069816999 370:0.083811 385:0.077003002 390:0.072566003 393:0.052593 395:0.081661999 450:0.069913 474:0.064184003 508:0.07023 665:0.075341001 677:0.075243004 679:0.24977399 696:0.115988 882:0.096882001 885:0.12213 1038:0.127325 1131:0.082824998 1156:0.169072 1171:0.085775003 1212:0.115488 1218:0.086531997 1299:0.23814601 1347:0.172317 1405:0.142304 1469:0.092602 2388:0.125038 2599:0.33048999 2812:0.26995701 3392:0.40705699 3936:0.15298 4369:0.17250399 10901:0.19519299 10902:0.212356 #
-0.40423293313189473385804717509018 9:0.082984999 12:0.060849 19:0.062783003 26:0.061517 35:0.014934 49:0.053645 55:0.193147 76:0.032444 91:0.104834 105:0.026552999 127:0.069789998 157:0.173311 170:0.068341002 197:0.054044001 205:0.043395001 232:0.048943002 236:0.056552 239:0.017919 257:0.110237 370:0.037565999 389:0.064121999 390:0.068259001 393:0.049472 410:0.107193 433:0.055094998 442:0.16455901 443:0.049954001 459:0.076934002 490:0.113256 498:0.073808998 561:0.074767999 648:0.083834998 665:0.070868999 753:0.091132 780:0.051747002 817:0.16903099 825:0.060849 863:0.22003201 874:0.057250001 887:0.077785 951:0.077661999 1033:0.078668997 1171:0.080683999 1375:0.225132 1671:0.18017399 1736:0.076577999 1906:0.092027999 2038:0.17481899 2329:0.21084 3543:0.25155899 4339:0.23141401 5603:0.15801901 6552:0.15442801 9823:0.174164 11152:0.199752 11153:0.199752 11154:0.199752 11155:0.199752 11156:0.199752 11157:0.199752 11158:0.199752 #
-0.61019637196294473913127376363263 16:0.13247401 105:0.090765998 192:0.142893 194:0.14326499 219:0.094094001 232:0.058359999 243:0.22134 247:0.126754 249:0.104801 267:0.112187 341:0.21848699 390:0.13780899 426:0.129458 474:0.121892 512:0.17403001 572:0.155083 764:0.160412 785:0.155808 869:0.18579599 953:0.17623401 1211:0.17296501 1523:0.362322 1896:0.321935 1922:0.338094 2551:0.18816 3545:0.25007299 4714:0.29500601 #
-0.81664942971123843928893393240287 1:0.077206999 9:0.053709 11:0.022379 19:0.085275002 23:0.044721998 36:0.069126002 48:0.13608301 49:0.072862998 69:0.096634999 83:0.07045 113:0.079504997 126:0.074947998 142:0.048191 144:0.086721003 202:0.154029 231:0.080600999 238:0.236017 239:0.041209001 248:0.064654 276:0.116379 287:0.192426 290:0.064061001 297:0.089222997 312:0.090552002 327:0.062346 338:0.089222997 352:0.052683 354:0.065637 385:0.151623 402:0.22739699 410:0.085989997 474:0.082004003 572:0.104333 575:0.097402997 596:0.085451998 616:0.103223 635:0.115433 649:0.115433 656:0.15039299 682:0.143493 700:0.119073 728:0.119854 765:0.109972 799:0.103694 863:0.29885599 977:0.097144999 1000:0.165894 1133:0.092712 1142:0.091939002 1158:0.151595 1285:0.15382899 1296:0.098862 1317:0.099409997 1353:0.095151 1468:0.091614 1561:0.110753 1599:0.13472299 1609:0.12658601 1951:0.17352299 2039:0.13228901 2224:0.198467 2304:0.115895 2380:0.15883499 2890:0.169479 3170:0.169479 5218:0.17352299 #
-0.18411062446855425145386675467307 9:0.121568 11:0.040738001 44:0.060089 56:0.066910997 63:0.079024002 93:0.142704 105:0.052967999 113:0.040731002 122:0.0469 126:0.027244 144:0.12736499 156:0.059801999 183:0.086958997 201:0.094729997 208:0.050368998 211:0.160393 239:0.021112001 240:0.046785999 244:0.045724999 248:0.056081999 276:0.038686 282:0.135534 286:0.219148 290:0.094085 315:0.064204 341:0.075304002 405:0.079750001 473:0.108424 483:0.083494999 544:0.222076 583:0.088869996 617:0.087706998 637:0.089134999 654:0.087834001 699:0.07722 780:0.060966 863:0.099344999 906:0.072405003 974:0.092533998 1075:0.116498 1146:0.075466 1171:0.16094901 1299:0.101141 1433:0.098770998 1449:0.120789 1604:0.099734001 1613:0.20523299 1932:0.112165 2360:0.159256 2616:0.122531 2912:0.191175 3219:0.41405299 3520:0.17215399 3765:0.18617199 6350:0.205193 7835:0.205193 13185:0.21631999 14050:0.235341 #
-0.41313478922395074910411949531408 22:0.05816 32:0.117307 33:0.103686 35:0.016031001 44:0.032336999 75:0.044291999 76:0.058970001 80:0.096230999 81:0.068323001 93:0.14785101 95:0.134198 104:0.093419999 105:0.05982 143:0.050276998 236:0.093562998 241:0.079167001 352:0.041639 368:0.10893 370:0.040327001 385:0.077757001 389:0.068834998 419:0.046705998 442:0.084177002 470:0.05773 477:0.143696 478:0.099287003 486:0.12348 499:0.094315 522:0.107851 531:0.287817 588:0.245212 637:0.081216998 693:0.131116 708:0.22208001 807:0.043207001 882:0.097829998 885:0.072838001 951:0.08337 1126:0.062298 1256:0.10057 1348:0.068613999 1433:0.15237699 1489:0.121581 2306:0.228589 3801:0.36556199 4051:0.174192 4601:0.137146 4862:0.27503499 10307:0.19710299 12217:0.19710299 13196:0.214434 13197:0.214434 #
1.0000000231766961178436758928001 11:0.054125998 15:0.047088999 22:0.194619 37:0.061335001 39:0.097942002 43:0.121661 44:0.041467 49:0.073848002 61:0.099653997 69:0.057847001 83:0.071402997 87:0.039151002 89:0.13601001 99:0.055034999 107:0.102187 113:0.047591999 114:0.054368999 122:0.054800998 145:0.114713 156:0.098481998 160:0.102334 205:0.059737999 217:0.066960998 237:0.128967 263:0.184138 290:0.064928003 322:0.135635 352:0.053396001 443:0.068768002 457:0.181757 497:0.047247 504:0.24258 530:0.13428301 574:0.131421 617:0.102481 791:0.099518999 792:0.20942201 838:0.106573 1005:0.16098399 1149:0.26551101 1217:0.084515996 1353:0.096438996 1477:0.19503 1681:0.113477 1896:0.129649 1948:0.150195 2104:0.16098399 2143:0.15364601 2184:0.106742 2493:0.15364601 2559:0.170515 2637:0.19809601 3421:0.164875 5059:0.27498299 5060:0.27498299 #
1.0000000231766961178436758928001 11:0.03297 16:0.077546999 19:0.12563001 23:0.038913 31:0.054322999 35:0.017649001 36:0.035523999 56:0.067119002 58:0.081762001 63:0.079269998 69:0.084083997 76:0.038343001 92:0.088752002 98:0.054926999 104:0.102847 112:0.047060002 113:0.040858001 114:0.046675999 125:0.096368 131:0.13175599 156:0.059987999 205:0.086833 219:0.093258999 221:0.044112001 223:0.069672003 231:0.070132002 232:0.057842001 239:0.021176999 241:0.041529998 276:0.038807001 294:0.113139 341:0.075538002 350:0.046395 352:0.045839999 354:0.057110999 370:0.044397 375:0.300107 383:0.054173999 384:0.107187 390:0.080669999 530:0.068086997 550:0.095857002 583:0.089146003 623:0.080187999 627:0.087853 668:0.065390997 722:0.075377002 787:0.079620004 806:0.34533399 874:0.067659996 1027:0.106682 1126:0.068584003 1285:0.13384899 1405:0.093433999 1415:0.20373601 1427:0.090502001 1606:0.122024 1816:0.46569699 2153:0.135226 2292:0.156509 3371:0.119922 3924:0.394853 #
1.0000000231766961178436758928001 11:0.034745999 19:0.078195997 32:0.224411 33:0.16954599 34:0.29618099 35:0.0186 51:0.081725001 76:0.040408 88:0.135574 93:0.121712 114:0.083287001 121:0.05632 126:0.068726003 138:0.115402 144:0.079521999 169:0.065164998 239:0.022318 240:0.103797 272:0.112836 300:0.064805001 336:0.087031998 385:0.053282 392:0.071690001 419:0.054189 477:0.098467 492:0.090407997 497:0.042746998 631:0.148297 676:0.069748998 726:0.117613 771:0.151227 773:0.118251 780:0.064450003 874:0.071304001 885:0.084508002 903:0.110889 914:0.084710002 1026:0.138372 1119:0.096270002 1198:0.172885 1217:0.076466002 1274:0.116378 1591:0.157829 2011:0.144832 2282:0.130013 2665:0.46951401 3180:0.31909901 3476:0.20209999 12760:0.24879 #
1.0000000231766961178436758928001 5:0.077991001 7:0.111219 11:0.052161001 22:0.071875997 26:0.081611998 34:0.1209 35:0.019812001 36:0.039878 41:0.054363001 44:0.067662001 45:0.068920001 50:0.063106 51:0.182684 87:0.063882999 104:0.093144 112:0.031200999 114:0.052395999 138:0.0726 142:0.112324 145:0.110549 146:0.081367001 150:0.091894999 156:0.039772 197:0.071696997 212:0.081206001 244:0.051488001 248:0.063151002 282:0.072722003 310:0.116304 318:0.139533 324:0.084077999 342:0.131181 354:0.064110003 358:0.14603101 383:0.060812999 385:0.096092999 392:0.076361999 493:0.070648 497:0.095555 592:0.075211003 668:0.124284 676:0.074294001 723:0.058138002 738:0.126562 786:0.135076 792:0.119199 828:0.101906 1054:0.123325 1065:0.401492 1133:0.090556003 1172:0.24952701 1532:0.151797 1557:0.218133 1651:0.140617 1681:0.109358 1773:0.151014 1824:0.111648 4727:0.204873 11557:0.23105399 11937:0.24358299 13030:0.26500201 #
1.0000000231766961178436758928001 6:0.040934 9:0.050985999 11:0.035971001 22:0.069857001 23:0.089096002 32:0.24515 33:0.191936 35:0.019255999 36:0.038757998 37:0.097269997 76:0.070828997 87:0.062089 115:0.057372 121:0.098719001 126:0.050482001 156:0.113874 221:0.048126999 232:0.037271999 239:0.023104999 241:0.045310002 248:0.103921 261:0.104034 267:0.071649 312:0.085961998 324:0.17149299 350:0.050616998 354:0.105499 385:0.13162901 395:0.099045001 497:0.074928001 631:0.090673998 633:0.100137 705:0.22213501 712:0.3457 738:0.07265 1126:0.074827 1211:0.110465 1397:0.096266001 1462:0.29838401 1533:0.118077 1555:0.114284 1604:0.229063 1680:0.155413 1715:0.16759001 5004:0.180528 9375:0.496831 #
-1.0000000231766961178436758928001 6:0.044151999 9:0.054995 10:0.044248 11:0.04809 22:0.19662 25:0.25365701 28:0.134279 33:0.13433 35:0.020769 36:0.041804999 43:0.122911 44:0.041894 60:0.066109002 63:0.055094998 64:0.098949 69:0.058440998 76:0.045122001 87:0.066969998 89:0.137408 98:0.064638004 105:0.096363001 112:0.055380002 114:0.054928001 126:0.032159999 145:0.115892 197:0.075162001 239:0.024921 244:0.091390997 290:0.065595999 321:0.099471003 353:0.093918003 354:0.067208 385:0.100737 457:0.148148 497:0.100173 631:0.165595 649:0.20012499 676:0.077885002 677:0.098434001 679:0.117044 712:0.463642 858:0.070212997 863:0.117272 868:0.33906999 1064:0.13667899 1149:0.19032501 1347:0.13314199 1469:0.121144 1501:0.113609 1669:0.103834 3605:0.186031 11438:0.27780899 #
-0.50702115797244562411805191004532 6:0.047279999 11:0.068503998 22:0.210546 23:0.102908 24:0.116215 31:0.068455003 34:0.13572 41:0.061027002 42:0.087550998 43:0.077734999 44:0.094145998 52:0.121656 69:0.062581003 76:0.1153 82:0.141784 87:0.042355001 89:0.086903997 94:0.085956 99:0.059539001 121:0.067342997 169:0.077919997 208:0.107803 227:0.108549 232:0.043049999 239:0.026687 282:0.081637003 300:0.077490002 321:0.106517 351:0.073840998 385:0.063711002 387:0.094384998 435:0.120161 443:0.074395999 452:0.068737999 470:0.080089003 497:0.121973 518:0.34800601 530:0.0858 532:0.122095 731:0.094683997 740:0.115114 780:0.130483 789:0.12533499 841:0.205943 1108:0.107664 1179:0.203549 1316:0.14913701 1348:0.16117001 1501:0.121656 1510:0.19534899 1517:0.14726099 1603:0.178368 1604:0.12606999 1623:0.25622901 1731:0.118929 1948:0.162486 2274:0.163932 2321:0.161786 2330:0.163202 2516:0.16621999 #
-0.31092049814205957591894957658951 19:0.082874998 36:0.039678 38:0.063743003 62:0.071044996 69:0.055468 114:0.052134 127:0.092123002 137:0.053723 143:0.061822999 146:0.226023 156:0.067002997 216:0.072975002 219:0.104164 223:0.077817999 229:0.092946999 231:0.078331999 239:0.023654001 248:0.106389 294:0.126369 311:0.095169999 375:0.23783299 387:0.083658002 484:0.099422 491:0.091663003 497:0.14962301 508:0.087201998 550:0.32970101 560:0.084280998 575:0.094662003 597:0.075167 722:0.084191002 723:0.057847001 738:0.156085 739:0.104359 888:0.111742 895:0.106136 937:0.088514999 991:0.081203997 1056:0.246016 1134:0.113551 1135:0.122396 1218:0.107445 1268:0.085378997 1715:0.171571 1903:0.310669 2153:0.15103801 3924:0.184815 4977:0.30546999 7690:0.229899 11435:0.263677 #
-0.20013069338775354988335664074839 1:0.066899002 3:0.075062998 9:0.137097 22:0.187839 33:0.067137003 43:0.104011 44:0.035452001 58:0.081421003 59:0.056586999 63:0.046622999 64:0.083733 69:0.049454998 76:0.038183 80:0.105501 81:0.074904002 82:0.112045 87:0.056671999 88:0.103357 99:0.112278 121:0.111685 126:0.027214 147:0.091692001 244:0.095858 258:0.064567998 323:0.087113 389:0.075466 393:0.058223002 394:0.084738001 427:0.092285 458:0.073509999 473:0.108308 497:0.068391003 545:0.18052 555:0.101449 583:0.088775001 616:0.089442 631:0.082764 671:0.165255 700:0.103176 712:0.315541 833:0.104782 906:0.17259499 1133:0.080334 1149:0.095123 1151:0.108041 1196:0.104547 1218:0.095795996 1219:0.100022 1295:0.247334 1432:0.102954 1601:0.096836999 1711:0.204974 1712:0.197088 1713:0.112985 1714:0.141855 1715:0.15297 1716:0.190971 1717:0.118239 1718:0.197088 1719:0.23509 1720:0.216089 1721:0.20152301 #
-0.44272161368066170750168453196238 3:0.091747001 6:0.134532 7:0.120594 10:0.045766 23:0.047364 27:0.11836 31:0.066119999 33:0.19581699 42:0.084564999 44:0.043331001 51:0.094388001 69:0.060446002 87:0.069266997 99:0.057507999 114:0.056813002 142:0.051038001 143:0.18808299 145:0.070795998 146:0.14938 151:0.103711 160:0.106932 204:0.099889003 212:0.088050999 241:0.050549001 324:0.091165997 354:0.14588299 394:0.103572 419:0.062586002 556:0.14094201 661:0.111538 668:0.18992899 669:0.13928699 722:0.155341 738:0.170093 770:0.111893 828:0.110497 838:0.111362 995:0.31113899 1171:0.116063 1196:0.127783 1209:0.107086 1348:0.091943003 1367:0.163744 1423:0.138097 1459:0.13372099 1717:0.144519 1797:0.30913699 2259:0.14906 2719:0.29356301 2919:0.173383 12038:0.26411599 #
1.0000000231766961178436758928001 8:0.059142999 10:0.060844 11:0.051955 23:0.078047998 33:0.19841699 36:0.033950999 37:0.050324999 40:0.19538499 41:0.046284001 44:0.071401998 76:0.036644999 87:0.032122999 95:0.067281 105:0.071567997 108:0.062072001 114:0.044608999 126:0.026117999 156:0.057332002 180:0.070548996 192:0.079942003 194:0.080150001 204:0.078433 208:0.048289001 239:0.034269001 354:0.054582998 369:0.20957001 383:0.051775001 402:0.111686 443:0.056423001 453:0.064663999 493:0.060148999 532:0.092598997 544:0.17245901 572:0.086762004 574:0.107829 588:0.228535 620:0.135278 764:0.089744002 797:0.074956998 969:0.130623 1514:0.128572 1603:0.135278 1717:0.113476 1801:0.215518 1902:0.090975001 2274:0.124329 2338:0.126065 2607:0.13284799 3360:0.134443 3793:0.19671699 4233:0.137955 4292:0.160246 5028:0.25085101 11431:0.382007 11432:0.22562 11433:0.22562 11434:0.22562 #
1.0000000231766961178436758928001 3:0.10235 4:0.099684 11:0.032772001 12:0.057670999 22:0.051348999 44:0.048339002 49:0.050843 63:0.063570999 76:0.030749001 81:0.060320999 90:0.289215 91:0.123545 105:0.070257999 112:0.03774 137:0.038573001 142:0.033628002 156:0.074143 205:0.041127998 216:0.052395999 221:0.035376001 236:0.031656001 241:0.079476997 271:0.058072001 352:0.036761999 356:0.058421999 370:0.060283002 385:0.06865 390:0.168815 393:0.079388 410:0.143186 442:0.074317999 452:0.043745 454:0.079154 463:0.097511001 490:0.28009999 497:0.032529 508:0.10601 654:0.119635 682:0.14112 723:0.041533999 753:0.086372003 783:0.055874001 787:0.063851997 889:0.082557 914:0.064461 974:0.126036 1119:0.073257998 1196:0.084192999 1212:0.10296 1225:0.069757 1268:0.12864999 1305:0.075430997 1433:0.079456002 1481:0.248953 1635:0.103406 1778:0.104326 1860:0.116563 2064:0.120103 2376:0.32545599 2416:0.108445 2888:0.105782 3421:0.113513 3835:0.121084 4600:0.153791 11735:0.39390001 12550:0.17401899 13924:0.18932 #
1.0000000231766961178436758928001 6:0.028759999 23:0.029828001 32:0.058467001 54:0.080655001 59:0.043556999 80:0.081207998 87:0.025764 94:0.088528 121:0.040964 122:0.036063001 123:0.050167002 126:0.035468001 142:0.032141998 156:0.027158 164:0.042667001 180:0.095803998 181:0.127801 184:0.065757997 197:0.048958998 202:0.060676001 240:0.035975002 241:0.031835001 257:0.099864997 258:0.084151 282:0.118501 301:0.106551 313:0.047970001 327:0.041583002 351:0.076050997 354:0.074123003 385:0.065618001 403:0.21338899 410:0.14966001 427:0.071036004 432:0.104204 448:0.043308001 491:0.062907003 497:0.031091999 596:0.056993999 635:0.183723 685:0.073738001 705:0.065402001 706:0.21753301 707:0.149808 723:0.039700001 750:0.091617003 945:0.072099999 1040:0.082557999 1056:0.099717997 1152:0.080655001 1321:0.065939002 1539:0.19291399 2777:0.096401997 3172:0.20964099 3520:0.13237301 3899:0.13459601 4113:0.11997 4401:0.434035 6140:0.114798 6176:0.25984401 8074:0.143151 9531:0.157777 12247:0.157777 13331:0.180958 13332:0.180958 13333:0.180958 13334:0.180958 #
1.0000000231766961178436758928001 6:0.039586 9:0.083484001 11:0.060524002 14:0.171131 15:0.072218001 22:0.067556001 23:0.041056 35:0.031528998 36:0.063460998 44:0.063596003 48:0.19253901 59:0.059953 69:0.088715002 70:0.062618002 83:0.064676002 87:0.035463002 88:0.064676002 91:0.062289 98:0.057953 99:0.104616 126:0.028834 149:0.081274003 206:0.070504002 211:0.100259 221:0.046541002 236:0.087402001 241:0.043818001 249:0.064727001 257:0.17037401 271:0.076401003 273:0.09364 313:0.111794 321:0.089183003 338:0.081909999 383:0.057158001 419:0.091854997 440:0.136704 464:0.079025 512:0.181986 526:0.131652 631:0.087687001 652:0.31790799 671:0.073371999 713:0.103166 753:0.113634 757:0.13545799 807:0.050186999 863:0.105142 904:0.126527 914:0.084807001 990:0.217985 1040:0.19239999 1340:0.093365997 1446:0.121447 1520:0.106183 1592:0.16678999 1624:0.168551 1698:0.127838 1799:0.155589 2184:0.096685 2329:0.125274 4121:0.257862 4168:0.16207001 5217:0.24907599 5218:0.269721 #
1.0000000231766961178436758928001 6:0.041102 9:0.107439 11:0.021331999 23:0.042629 35:0.032736 41:0.14811 48:0.076612003 49:0.069453001 101:0.120047 105:0.034377001 109:0.064577997 121:0.099123999 126:0.029937999 136:0.110031 156:0.081454001 164:0.060977001 181:0.129593 182:0.20586701 221:0.048324 222:0.088803001 239:0.039280001 290:0.061062999 303:0.12723599 356:0.079805002 385:0.055385999 405:0.14838199 410:0.081965998 433:0.071331002 452:0.101177 457:0.081453003 470:0.069623999 493:0.068944998 494:0.090814002 578:0.133202 615:0.137228 665:0.091752999 700:0.113501 703:0.125728 760:0.070260003 858:0.065361999 980:0.15410399 1006:0.244661 1093:0.096105002 1198:0.106141 1449:0.132734 1500:0.133202 1638:0.136695 1788:0.111144 2156:0.189179 2191:0.132734 2438:0.13777199 2493:0.144501 3876:0.161548 4133:0.171454 5199:0.533849 5666:0.204584 #
-0.046342906562742217091432905817783 5:0.068736002 6:0.037119001 32:0.23237801 38:0.056462001 63:0.046319 75:0.048241999 99:0.046744 105:0.031045999 172:0.082647003 197:0.13260999 202:0.132594 205:0.085906997 214:0.059299 219:0.054492999 231:0.069384001 232:0.033798002 239:0.020951999 272:0.120447 280:0.104099 300:0.060837001 304:0.192248 340:0.070592001 383:0.15789001 384:0.106045 385:0.084691003 405:0.188862 410:0.176641 419:0.050871 428:0.090374999 443:0.098893002 452:0.053966001 614:0.107072 624:0.155995 671:0.068800002 775:0.183561 794:0.092591003 810:0.108414 915:0.136731 1127:0.082328998 1590:0.180562 1638:0.123449 1815:0.331682 1842:0.16370299 2034:0.119872 2220:0.140036 2253:0.13833299 3101:0.259675 3449:0.153368 3494:0.14185201 3525:0.30571699 3876:0.14589401 4251:0.158048 4277:0.14482599 5169:0.180562 #
-0.018163166123363744253182971988281 8:0.203943 35:0.034352999 100:0.17893399 116:0.131108 156:0.14472499 162:0.163877 169:0.120356 219:0.10721 221:0.085860997 330:0.31759101 419:0.100084 474:0.13888299 494:0.161355 671:0.13535801 681:0.21607199 738:0.129612 807:0.092587002 818:0.17508499 933:0.1232 1033:0.180967 1269:0.22209901 1681:0.32105801 2493:0.25674501 4710:0.532332 #
-0.14241430821981440613122060767637 2:0.085703 9:0.079585999 12:0.072332002 23:0.039140001 44:0.075144999 48:0.119098 49:0.063767999 57:0.16382401 75:0.083042003 81:0.075654998 104:0.049291998 121:0.053752001 126:0.027488001 131:0.063147999 142:0.042176001 169:0.062194001 180:0.074247003 198:0.079249002 200:0.115777 241:0.041772 244:0.046135001 276:0.039032999 292:0.13415401 328:0.155325 340:0.071768001 350:0.046665002 352:0.046107002 370:0.044654999 385:0.050852999 386:0.116469 392:0.068421997 433:0.065491997 443:0.059381001 498:0.087737001 508:0.078528002 686:0.104665 705:0.085818999 758:0.27627799 759:0.081634 771:0.085245997 812:0.195931 858:0.060012002 903:0.105833 908:0.219172 926:0.104665 935:0.081634 953:0.103764 1110:0.160725 1149:0.096077003 1618:0.360838 1740:0.111656 2062:0.111073 3421:0.142369 5008:0.176612 6198:0.31803799 6554:0.36954001 6909:0.23744699 #
-0.58724651385673598547043638973264 9:0.15949599 11:0.035193998 23:0.087173998 35:0.01884 36:0.037921 44:0.064342998 59:0.060658 63:0.049977001 91:0.132256 98:0.099275 100:0.098131999 105:0.033498 114:0.049825002 126:0.049392998 149:0.082227997 192:0.08929 219:0.058797002 221:0.047088001 241:0.093037002 272:0.12996 273:0.226078 275:0.096313 300:0.111141 312:0.084106997 322:0.073413998 336:0.088155001 418:0.106377 422:0.105561 493:0.067181997 527:0.13319901 530:0.12306 544:0.080720998 560:0.080549002 572:0.096906997 720:0.20866001 792:0.113351 801:0.167069 805:0.133719 928:0.08929 953:0.110124 1065:0.26019001 1107:0.137642 1172:0.140145 1209:0.093915999 1612:0.167069 1653:0.247024 2282:0.13169099 2645:0.190898 2868:0.13319901 3113:0.23407499 3227:0.14752901 5491:0.18154 13469:0.42667499 #
-0.1167724564843954510040546779237 11:0.053546 22:0.063066997 35:0.017384 36:0.034991 58:0.136355 76:0.037767 91:0.058150001 95:0.069340996 108:0.063971996 121:0.052638002 142:0.041301999 149:0.075874001 171:0.090984002 182:0.088201001 197:0.132025 208:0.084262997 210:0.077163003 212:0.071254 244:0.045178998 248:0.093819998 295:0.115464 325:0.097217999 352:0.045150999 383:0.05336 385:0.084316999 410:0.073697001 517:0.115105 586:0.165152 698:0.157352 807:0.046852998 832:0.128718 885:0.078983001 1057:0.094250999 1126:0.114379 1135:0.107936 1217:0.071466997 1268:0.075291999 1405:0.092030004 1440:0.138558 1906:0.107127 1941:0.128718 2095:0.188889 2559:0.144188 3610:0.157352 5364:0.31981599 6820:0.377258 11113:0.194939 11711:0.487982 11712:0.232526 #
1.0000000231766961178436758928001 9:0.045214001 14:0.074776001 15:0.039113 19:0.071787998 22:0.104888 25:0.12317 33:0.065227002 36:0.058192998 43:0.059682999 45:0.059401002 69:0.081350997 85:0.064823002 87:0.032519002 101:0.106022 105:0.084761001 108:0.062836997 115:0.086143002 123:0.063320003 142:0.068690002 145:0.095280997 226:0.054662 232:0.033052001 240:0.045407001 248:0.054428998 328:0.088243 348:0.108266 358:0.125862 385:0.082822002 409:0.16453899 430:0.16077299 452:0.052774999 458:0.071418002 465:0.078523003 474:0.069034003 530:0.065875001 611:0.081138998 614:0.104709 631:0.080408998 649:0.164533 683:0.13781901 712:0.34858701 713:0.094603002 716:0.081565 740:0.088381 764:0.153822 799:0.208308 922:0.25163099 1032:0.104709 1149:0.092417002 1309:0.120725 1349:0.099179 1358:0.11642 1448:0.114875 1497:0.113773 1703:0.11642 1932:0.108857 2338:0.127619 2511:0.162222 2551:0.18043 2788:0.13223299 4293:0.118918 4466:0.176577 4605:0.180682 8742:0.209941 9506:0.19148099 13190:0.22840101 #
1.0000000231766961178436758928001 15:0.055989999 22:0.088680997 35:0.024444001 36:0.049201 50:0.077859998 62:0.088096 69:0.068781003 87:0.078818999 105:0.091210999 149:0.106688 170:0.189401 197:0.149777 198:0.109125 219:0.076286003 232:0.047315001 233:0.133709 248:0.131923 261:0.223608 297:0.107523 316:0.20340601 394:0.117853 439:0.17781501 448:0.078249998 497:0.056178 649:0.362997 740:0.12651899 799:0.21157999 863:0.32935601 868:0.39906001 1234:0.127525 1347:0.156698 1797:0.14741001 2113:0.201307 11677:0.32696 #
1.0000000231766961178436758928001 7:0.094286002 11:0.031374998 16:0.124948 26:0.069186002 34:0.173536 35:0.016796 41:0.078029998 51:0.124948 58:0.163287 60:0.090515003 74:0.101762 75:0.046402998 76:0.061779998 87:0.031985998 94:0.064911999 99:0.044962998 105:0.029863 112:0.026450001 169:0.058844 205:0.048804 208:0.048082002 239:0.020152999 244:0.091603003 292:0.060481001 315:0.061289001 324:0.071277 352:0.043623 370:0.042249002 465:0.077234998 473:0.103501 484:0.084709004 518:0.089211002 522:0.112991 523:0.212906 529:0.311436 531:0.30153501 595:0.089661002 616:0.085472003 687:0.125526 740:0.18243501 780:0.098537996 838:0.14741901 872:0.382985 882:0.102493 885:0.076310001 904:0.114122 908:0.20736501 952:0.095393002 1349:0.165171 1403:0.106779 1669:0.142169 2164:0.12737501 2367:0.177719 2736:0.13306201 4277:0.23586699 12378:0.206497 #
1.0000000231766961178436758928001 5:0.092488997 9:0.18327001 11:0.025922 12:0.095732003 18:0.076582 22:0.203401 23:0.051801998 26:0.096782997 36:0.047290999 38:0.075972997 44:0.047391001 65:0.086754002 82:0.149781 89:0.091805004 91:0.078592002 93:0.090804003 98:0.153451 105:0.133564 122:0.062628999 126:0.03638 208:0.067262001 211:0.1265 232:0.045478001 237:0.14738999 257:0.244433 287:0.131643 316:0.11547 358:0.173178 399:0.144427 420:0.113277 426:0.100882 452:0.072614998 457:0.098981 458:0.098266996 493:0.083780997 497:0.113319 504:0.106243 508:0.103933 671:0.092574999 712:0.200995 740:0.121606 742:0.178183 848:0.18963 906:0.096685998 993:0.082314998 1015:0.167418 1054:0.14625099 1149:0.30344099 1532:0.180015 1748:0.26346499 2864:0.190872 3098:0.206367 5846:0.183981 #
1.0000000231766961178436758928001 10:0.038835999 11:0.020112 14:0.079827003 16:0.080095001 22:0.066133 43:0.107877 44:0.062256001 59:0.05869 60:0.058022 63:0.048356 87:0.034715001 98:0.056731999 114:0.048209 121:0.055195998 126:0.028225999 149:0.079561003 151:0.088005997 156:0.036594 170:0.083420999 171:0.095406003 180:0.076242 236:0.069030002 248:0.058104999 249:0.063363001 265:0.120699 280:0.108677 285:0.108191 350:0.047919001 351:0.060522001 414:0.086506002 442:0.29475001 453:0.069881998 457:0.076796003 470:0.065642998 486:0.140406 530:0.119069 594:0.102927 665:0.086506002 668:0.067538999 738:0.068777002 740:0.094350003 803:0.089589 895:0.098146997 906:0.075015999 937:0.081851996 1133:0.083319999 1353:0.085511997 1493:0.158655 1579:0.115578 2026:0.134363 2339:0.155945 2401:0.12789799 3588:0.163276 4113:0.161651 6008:0.49037999 10738:0.243828 10739:0.243828 10740:0.243828 10741:0.243828 #
-1.0000000231766961178436758928001 3:0.087927997 11:0.047669001 12:0.083887003 15:0.047157999 22:0.208519 41:0.056492001 43:0.071958996 44:0.041528001 69:0.098085001 75:0.056880999 84:0.120341 88:0.071506999 89:0.080445997 91:0.068866998 93:0.079567999 97:0.099798001 99:0.055114999 105:0.076821998 107:0.102335 112:0.032421999 121:0.14876001 132:0.142343 134:0.083887003 144:0.14903399 145:0.114879 205:0.12554801 208:0.058938999 221:0.051456999 239:0.024704 248:0.065623999 258:0.075634003 292:0.074138001 322:0.080224998 351:0.068354003 452:0.063630998 474:0.083232999 526:0.145556 532:0.113022 649:0.345155 670:0.114487 799:0.22087701 840:0.118349 885:0.093539998 897:0.14390901 908:0.20507599 962:0.111621 1260:0.15244099 2064:0.174698 2146:0.174698 2165:0.117398 3397:0.15244099 4272:0.17761999 5218:0.176126 8435:0.230866 10115:0.275381 10116:0.275381 #
-0.99236419270462716823999471671414 9:0.108288 15:0.075576 18:0.063519001 22:0.070698 30:0.094981 32:0.084218003 33:0.074440002 34:0.118919 36:0.039223999 38:0.063014001 43:0.068112001 44:0.039308 81:0.083051004 85:0.073978998 87:0.062835999 93:0.127519 99:0.109482 105:0.072714999 108:0.071712002 112:0.030688999 138:0.07141 144:0.083315998 151:0.094080999 156:0.03912 172:0.092239 211:0.104922 221:0.048705999 239:0.023383001 242:0.116179 244:0.050645001 261:0.105286 282:0.071530998 287:0.109188 292:0.070174001 323:0.096588001 352:0.050613999 353:0.088119999 385:0.055824 403:0.32885 448:0.062383 531:0.28226501 541:0.109819 649:0.110901 685:0.106215 760:0.119901 785:0.100705 1033:0.102657 1064:0.128242 1142:0.088329002 1151:0.119792 1152:0.116179 1217:0.080114 1708:0.119207 1728:0.10857 1741:0.114398 1956:0.154387 2435:0.201515 3734:0.284659 6008:0.39407301 7518:0.21852399 8063:0.211742 #
-1.0000000231766961178436758928001 3:0.061852001 6:0.030787 9:0.080476001 11:0.044608001 15:0.033172 17:0.12012 22:0.052540001 32:0.062587999 35:0.014482 75:0.040011998 76:0.031463001 88:0.050299998 90:0.113405 91:0.048443999 98:0.076311998 105:0.067193002 107:0.071985997 120:0.098403998 126:0.022425 145:0.047727998 169:0.106481 261:0.078244999 271:0.059418999 354:0.046863999 357:0.075433001 385:0.108257 394:0.069824003 430:0.080534004 458:0.060571998 530:0.117249 546:0.075433001 623:0.065798998 649:0.19667201 656:0.063419998 713:0.080234997 742:0.109832 799:0.20669 848:0.116887 863:0.13845199 869:0.089244999 907:0.093630999 1429:0.097428001 1596:0.106747 1860:0.119267 2329:0.097428001 2364:0.146743 2376:0.33300599 2443:0.122889 2695:0.110389 4749:0.134102 5259:0.21963 6030:0.178056 6031:0.193712 6032:0.193712 6033:0.193712 6034:0.193712 6035:0.193712 6036:0.14408199 6037:0.193712 6038:0.193712 6039:0.14975899 6040:0.193712 6041:0.193712 #
-1.0000000231766961178436758928001 5:0.070904002 6:0.038290001 13:0.096479997 15:0.069853999 22:0.137134 26:0.074196003 32:0.077841997 35:0.018012 42:0.070904002 45:0.062657997 58:0.17511199 73:0.103121 87:0.089509003 93:0.117864 97:0.087311 98:0.133766 112:0.028365999 197:0.065182999 205:0.052338999 229:0.084926002 241:0.042383999 242:0.107382 258:0.06617 271:0.073900998 276:0.067055002 284:0.096479997 292:0.064861 310:0.105736 351:0.059801999 352:0.079209 354:0.058285002 392:0.069424003 430:0.100161 470:0.064861 474:0.123293 497:0.041395001 649:0.173554 699:0.188642 705:0.087075002 712:0.15408801 799:0.193239 840:0.103541 874:0.069049999 956:0.096644998 1065:0.118532 1069:0.091660999 1149:0.23262499 1399:0.119634 1405:0.095353 1468:0.081352003 1604:0.1021 2077:0.116118 2518:0.16886701 2788:0.139483 3062:0.28812501 3905:0.240924 3906:0.50560498 #
-0.55079618127673557470558307613828 3:0.092634 10:0.046209 11:0.070496999 18:0.070698 19:0.091186002 44:0.043749999 51:0.199999 60:0.069038004 83:0.075333998 89:0.084752001 94:0.083826996 99:0.058065001 143:0.068021998 145:0.15001 181:0.14538001 183:0.181504 199:0.17162099 206:0.172342 223:0.085621998 239:0.026025999 300:0.075571001 351:0.121928 354:0.118836 358:0.159872 369:0.15916 370:0.054561 383:0.158871 387:0.092046998 433:0.080020003 443:0.072553001 453:0.083149999 489:0.15916 750:0.146883 780:0.15772501 799:0.23269799 874:0.140784 904:0.38457099 986:0.12651201 1364:0.31584799 1666:0.140634 1784:0.15710901 1948:0.158462 2062:0.135711 4717:0.17395 7499:0.29011899 #
1.0000000231766961178436758928001 2:0.089732997 5:0.073167004 10:0.039597999 18:0.060584001 30:0.153385 35:0.018587001 37:0.055454001 48:0.073648997 85:0.14807799 87:0.035397001 95:0.074138001 105:0.055955 116:0.070936002 121:0.056279998 123:0.068924002 147:0.096966997 210:0.139688 221:0.078654997 232:0.035976999 239:0.022302 272:0.090971 300:0.06476 325:0.103944 341:0.079550996 350:0.048859 385:0.11174 387:0.078878999 393:0.061572999 397:0.076335996 410:0.133413 419:0.054150999 457:0.078303002 477:0.098397002 556:0.121946 635:0.179094 657:0.129921 660:0.132976 671:0.153694 682:0.23914599 731:0.079129003 760:0.16117799 809:0.33983099 858:0.062835 899:0.121221 974:0.097753003 1014:0.32638001 1217:0.076412 1296:0.153385 1601:0.173392 1618:0.200074 2260:0.233018 2304:0.106199 2613:0.31902099 4931:0.176578 5328:0.166481 #
1.0000000231766961178436758928001 9:0.13562299 12:0.067772001 33:0.107575 38:0.053784002 44:0.033550002 46:0.105174 62:0.059944 76:0.075833 86:0.073744997 99:0.044527002 107:0.082675003 108:0.061207999 113:0.038504999 115:0.049557999 146:0.11566 214:0.056487001 229:0.078423999 232:0.076826997 238:0.125577 239:0.019958001 290:0.052531 337:0.075034998 370:0.041839998 389:0.071416996 440:0.122106 452:0.107883 465:0.076486997 513:0.106624 532:0.091310002 541:0.093732998 559:0.076393999 608:0.162745 615:0.118053 668:0.061625 752:0.15901101 753:0.1015 880:0.13257 887:0.086635001 896:0.075124003 937:0.074685 941:0.168275 991:0.068516001 1057:0.090177998 1069:0.084643997 1110:0.088941999 1112:0.316587 1202:0.201478 1209:0.082914002 1268:0.072039001 1529:0.118053 1698:0.114187 1728:0.092666 1935:0.126782 1976:0.126141 2330:0.206652 2538:0.141137 3581:0.150552 4782:0.158015 8340:0.222478 8341:0.222478 8342:0.222478 8343:0.222478 8344:0.222478 8345:0.204496 #
1.0000000231766961178436758928001 8:0.049577001 9:0.037439 10:0.051003002 11:0.043552 15:0.032387 32:0.061106998 58:0.065502003 60:0.076200999 62:0.121602 68:0.087791003 73:0.211237 76:0.030718001 83:0.049109999 87:0.064255998 89:0.055249002 93:0.092524 95:0.056398999 98:0.074506 99:0.037852 102:0.081614003 105:0.042566001 108:0.052032001 112:0.046730001 113:0.078110002 119:0.056832999 121:0.042814001 126:0.021894 138:0.087728001 143:0.044342998 144:0.126865 145:0.046597999 146:0.121868 156:0.074066997 164:0.075502999 186:0.080466002 192:0.067011997 197:0.051169001 198:0.063121997 208:0.040479001 219:0.044126999 221:0.03534 226:0.09499 231:0.134075 232:0.046339002 236:0.031624001 239:0.016966 240:0.063661002 242:0.084296003 248:0.076309003 257:0.104373 261:0.076393001 300:0.049263999 312:0.063121997 321:0.067717999 350:0.062932 351:0.046944998 352:0.036724001 354:0.045754001 383:0.043400999 385:0.085003003 411:0.084106997 448:0.045263 458:0.059138 460:0.079223998 484:0.071313001 543:0.083733 560:0.060451999 583:0.071418002 617:0.070483997 656:0.061918002 668:0.052386999 671:0.055712 677:0.113462 680:0.26578099 682:0.195108 705:0.115735 723:0.041492 738:0.053346999 741:0.068447001 758:0.092216 759:0.065021001 761:0.085069999 762:0.214431 764:0.075227998 827:0.112697 858:0.047800001 881:0.086283997 896:0.063862003 931:0.084486999 1057:0.07666 1069:0.071955003 1131:0.073765002 1156:0.088933997 1217:0.058129001 1353:0.066327997 1555:0.083919004 1740:0.21222199 1741:0.083003998 1824:0.134913 1902:0.07626 1913:0.235213 2196:0.194489 2306:0.22046401 2423:0.136246 2432:0.1067 2463:0.197157 3459:0.103301 4748:0.12096 13348:0.173841 #
1.0000000231766961178436758928001 9:0.092275001 12:0.054416001 16:0.058679 35:0.013355 36:0.026881 38:0.043184001 42:0.052572001 44:0.026938001 59:0.072802 63:0.035427 69:0.037578002 76:0.029014001 139:0.087621003 156:0.02681 221:0.033379 232:0.02585 241:0.074991003 281:0.125742 300:0.046530999 352:0.034687001 368:0.090744004 389:0.057342999 390:0.061042 393:0.044241 419:0.038908001 465:0.061414 595:0.071294002 656:0.058483001 807:0.110841 952:0.075851999 953:0.132172 1004:0.050212 1019:0.084448002 1108:0.064649999 1405:0.119706 1432:0.18668 1638:0.15986601 1714:0.344625 1736:0.068481997 1797:0.080536999 1896:0.084221996 1926:0.230745 2710:0.112437 3080:0.15575001 4400:0.13810199 4946:0.116235 4955:0.141313 6722:0.30452999 8250:0.34458399 8251:0.27800801 8252:0.30245399 8253:0.178634 8254:0.178634 8255:0.178634 8256:0.15575001 #
1.0000000231766961178436758928001 6:0.037202999 10:0.037284002 18:0.057043001 22:0.133241 33:0.113187 35:0.029631 36:0.035225 37:0.124595 38:0.056589 41:0.048020002 44:0.059767999 51:0.076894 56:0.066554002 85:0.066436 99:0.04685 101:0.10866 105:0.081197001 112:0.046664 113:0.040514 121:0.089721002 126:0.027098 143:0.054884002 169:0.061313 179:0.079230003 214:0.059432998 221:0.043740001 232:0.033875 236:0.039140999 247:0.073573999 248:0.055783 276:0.038479999 312:0.13228001 324:0.074268997 354:0.05663 385:0.084881999 579:0.085651003 616:0.089059003 633:0.091009997 676:0.065627001 679:0.098622002 681:0.3073 705:0.177549 713:0.096956998 744:0.144124 745:0.185178 793:0.120997 858:0.059161998 995:0.16446701 1140:0.083815001 1144:0.14971399 1148:0.14622401 1540:0.086250998 1604:0.208185 1896:0.186866 2143:0.130794 2658:0.116975 3836:0.15098301 11786:0.60068798 #
-1.0000000231766961178436758928001 6:0.047223002 11:0.041496001 24:0.116075 33:0.178076 36:0.044712 41:0.103202 44:0.106922 51:0.16525599 64:0.105829 70:0.074698001 76:0.048259001 87:0.042304002 88:0.077152997 93:0.085851997 101:0.137923 105:0.066873997 123:0.082373001 138:0.081400998 164:0.070058003 181:0.087938003 182:0.112705 197:0.080389 222:0.102027 239:0.026653999 241:0.088503003 244:0.05773 248:0.14859501 311:0.107244 321:0.106388 336:0.103941 351:0.073752001 352:0.057696 387:0.094270997 450:0.097822003 459:0.114437 460:0.124464 465:0.172957 470:0.208735 477:0.19911 498:0.109789 504:0.170075 519:0.13459 616:0.113044 676:0.141041 697:0.11552 721:0.190826 731:0.094570003 780:0.076972 858:0.075096004 906:0.091413997 1032:0.136216 1069:0.113044 1140:0.106388 1156:0.13971899 1321:0.108269 1358:0.15144999 1533:0.136216 1542:0.135556 1713:0.142801 2144:0.32193199 3835:0.190034 5028:0.195113 6949:0.217351 #
-0.35382732998027294213372329068079 11:0.040874001 15:0.084857002 22:0.13440099 35:0.017653 36:0.035532001 44:0.092914999 74:0.106956 76:0.038350999 83:0.061312001 87:0.080223002 104:0.102868 105:0.065870002 112:0.027799999 126:0.027334001 156:0.060001001 164:0.094264001 192:0.083664 194:0.083880998 197:0.063883997 198:0.133432 216:0.065348998 239:0.021182001 241:0.041538998 247:0.074215002 271:0.072428003 272:0.051029 314:0.105721 318:0.210503 385:0.106125 393:0.058479 443:0.059048999 457:0.074368998 491:0.082084 496:0.11617 497:0.040569998 510:0.088510998 614:0.108249 616:0.089835003 681:0.111032 685:0.096216999 700:0.103629 722:0.075392999 740:0.091369003 791:0.085455 932:0.167706 945:0.094079003 1083:0.13455699 1119:0.091369003 1149:0.200504 1211:0.101271 1468:0.079731002 1524:0.123856 1553:0.135254 2338:0.223381 2439:0.126809 2613:0.244452 3094:0.155053 3421:0.14157499 4503:0.205874 6460:0.182546 6479:0.491276 8670:0.17886899 #
-0.092766438258705896657829725882038 6:0.066620998 10:0.039432999 11:0.020421 16:0.081326 18:0.060330998 26:0.076245002 35:0.018509001 62:0.066707 68:0.114923 69:0.052081 76:0.068084002 87:0.035248999 93:0.071534999 99:0.049550001 114:0.048951 145:0.060998999 156:0.062912002 165:0.121805 199:0.086498998 239:0.022209 240:0.049219001 241:0.103933 248:0.058998 271:0.075940996 286:0.109854 315:0.114359 352:0.048074 401:0.091094002 439:0.22797 442:0.097186998 484:0.093351997 498:0.091480002 519:0.112145 576:0.145776 583:0.093489997 633:0.096254997 651:0.111361 682:0.077335 699:0.081234999 721:0.224096 793:0.12797099 894:0.06521 979:0.100528 1014:0.105544 1108:0.089601003 1209:0.092266999 1312:0.183183 1317:0.19037201 1321:0.090213999 1347:0.118653 1446:0.253335 1540:0.091222003 1972:0.134643 2148:0.378351 2166:0.151381 3832:0.340161 4946:0.16109399 10065:0.191401 12171:0.247577 #
-1.0000000231766961178436758928001 6:0.081754997 15:0.109184 18:0.12535401 22:0.196638 23:0.050078999 31:0.069911003 37:0.17683201 39:0.108211 40:0.15539201 43:0.079388998 44:0.045814998 48:0.090002 76:0.049346 81:0.096800998 87:0.073238999 94:0.087784 95:0.090599999 99:0.060805999 104:0.063069999 115:0.067676 122:0.060547002 156:0.045596998 184:0.110403 206:0.085998997 234:0.119263 238:0.101283 239:0.027254 282:0.083374001 293:0.091560997 297:0.099912003 316:0.11163 341:0.164598 392:0.087545998 397:0.093285002 477:0.203592 481:0.160586 497:0.10955 504:0.173903 525:0.157607 526:0.160586 539:0.10807 676:0.085175999 912:0.33465901 914:0.103445 1007:0.1285 1134:0.13083699 1540:0.111944 1998:0.147273 2144:0.13794599 2304:0.129779 2414:0.166674 2463:0.187057 3931:0.38261101 4880:0.210324 #
-0.42162858256581664528894748400489 9:0.17535999 11:0.026172999 15:0.054336999 23:0.109764 37:0.119833 41:0.11021 44:0.047850002 57:0.129298 59:0.076375999 60:0.075507 87:0.13308699 99:0.063506 121:0.121618 137:0.064649001 143:0.074395999 164:0.074814998 198:0.222247 199:0.11086 205:0.116712 221:0.059289999 239:0.059735999 240:0.063080996 241:0.094512999 248:0.12802701 256:0.080747999 327:0.072915003 352:0.12930299 354:0.076762997 370:0.059673 392:0.091433004 457:0.099937998 464:0.100673 493:0.084591001 530:0.091516003 682:0.099115998 686:0.139865 697:0.29438499 780:0.082199 791:0.114836 809:0.30774 835:0.291621 920:0.157562 937:0.106518 977:0.113613 1007:0.134205 1134:0.136646 1149:0.12839 1422:0.114836 1459:0.14766499 3397:0.175649 8019:0.25775701 13263:0.317305 #
1.0000000231766961178436758928001 6:0.080167003 11:0.068603002 13:0.119304 23:0.049107 35:0.022273 44:0.044925999 45:0.077480003 49:0.080007002 71:0.124557 76:0.048386998 87:0.071817003 92:0.112002 93:0.14574599 122:0.100524 126:0.082296997 142:0.052917 149:0.097211003 170:0.101926 209:0.104086 221:0.055667002 226:0.071299002 239:0.045249999 244:0.098004997 292:0.13579801 322:0.146947 327:0.068460003 350:0.099131003 351:0.073948003 354:0.072072998 385:0.166491 411:0.224319 448:0.22795901 493:0.079421997 497:0.086668 530:0.085924 575:0.106954 750:0.316535 863:0.212929 868:0.152375 869:0.137253 910:0.15987 1427:0.114211 1468:0.100597 1561:0.121613 1601:0.122716 1933:0.14839999 2329:0.149838 5967:0.183424 6573:0.21792801 7351:0.34919399 12233:0.297916 #
1.0000000231766961178436758928001 1:0.060591001 11:0.017563 14:0.069709003 15:0.061735 18:0.051886 22:0.13780899 23:0.035096999 30:0.077586003 35:0.015918 36:0.054249 43:0.094203003 76:0.058554001 88:0.055287998 105:0.047922 113:0.036851 122:0.042433001 134:0.064861 162:0.075937003 239:0.019100999 244:0.041370001 267:0.059232 271:0.065311998 272:0.077910997 315:0.058088001 327:0.048928998 330:0.086917996 351:0.052850999 354:0.051511001 440:0.069020003 458:0.066578001 497:0.061942 575:0.076440997 611:0.128069 707:0.083994001 716:0.076036997 743:0.084835 783:0.062839001 799:0.081377998 993:0.055771001 1007:0.15247899 1032:0.097612999 1348:0.068131 2184:0.082650997 2185:0.28954399 2559:0.13203201 2788:0.208717 3062:0.121336 3442:0.285189 4329:0.138546 4453:0.138546 7844:0.168437 9225:0.17850401 9226:0.21292201 9227:0.594428 9228:0.195713 #
1.0000000231766961178436758928001 1:0.056224 6:0.031401001 11:0.016297 22:0.11246 23:0.032566998 44:0.029795 56:0.095110998 58:0.068429001 60:0.047015999 62:0.053235002 64:0.070372 76:0.054333001 80:0.088665999 87:0.047628999 89:0.057716999 97:0.071602002 98:0.04597 105:0.044468001 121:0.093863003 134:0.060185999 144:0.132533 150:0.068512999 169:0.051750999 205:0.042922001 221:0.036917999 239:0.017724 240:0.039278999 248:0.047083002 284:0.079121001 354:0.047798 385:0.071644001 414:0.070096999 430:0.082139999 452:0.045653 466:0.17109901 649:0.084060997 656:0.10952 682:0.104495 686:0.14745601 699:0.064828999 707:0.185987 712:0.12636399 738:0.055730999 799:0.158471 908:0.147135 991:0.060846999 1158:0.231677 1160:0.25862101 1225:0.17372 1298:0.084911004 2686:0.138484 4335:0.119219 4742:0.165638 4931:0.140328 6683:0.138484 7564:0.17226601 13463:0.197576 13464:0.515562 13465:0.197576 13466:0.197576 #
1.0000000231766961178436758928001 11:0.032809999 16:0.077170998 19:0.07384 30:0.144942 33:0.113596 36:0.035351999 44:0.035427 69:0.117932 80:0.105428 98:0.114712 105:0.087182999 126:0.027195999 127:0.082079999 149:0.076658003 154:0.097668998 158:0.12277 205:0.086411998 214:0.059648 219:0.092807002 249:0.061051 272:0.050771002 276:0.065387003 297:0.077257998 343:0.30355099 353:0.079421997 365:0.114213 368:0.119341 397:0.072134003 452:0.11392 633:0.091338001 799:0.152025 812:0.156399 892:0.117397 904:0.202062 933:0.062988997 1013:0.078498997 1156:0.231837 1348:0.127278 1900:0.120577 1906:0.22714099 1942:0.27536601 2128:0.283905 2400:0.14903601 4729:0.443483 9435:0.234929 #
1.0000000231766961178436758928001 3:0.062476002 11:0.016140001 19:0.061499 22:0.138483 37:0.043644 50:0.046595 58:0.067767002 63:0.038803998 64:0.069692001 75:0.040415999 76:0.053808 85:0.094025001 86:0.109813 93:0.056536 95:0.058348998 105:0.044038001 121:0.044294 122:0.093051001 126:0.022651 156:0.029366 186:0.14095201 226:0.046828002 232:0.028315 239:0.017553 370:0.062304001 392:0.056382999 433:0.053969 459:0.07536 474:0.05914 484:0.073778003 497:0.070554003 504:0.066147998 541:0.082437001 559:0.067186996 707:0.130688 799:0.126618 855:0.063357003 906:0.060199 937:0.065683998 952:0.083084002 1101:0.103025 1127:0.144747 1296:0.071298003 1556:0.213682 1728:0.13799 1741:0.085873999 1920:0.11208 2009:0.091058001 2074:0.154787 2439:0.17792 4592:0.30451599 4593:0.465826 5512:0.22668 13228:0.195667 13229:0.41062799 13230:0.195667 #
-0.091635188625685454200109347766556 35:0.015865 53:0.155692 70:0.053348999 87:0.030213 122:0.071603 128:0.150152 137:0.043235999 138:0.058136001 150:0.073586002 170:0.072601996 239:0.032230999 248:0.050569002 290:0.084835999 294:0.101701 368:0.18251801 370:0.067570001 375:0.113048 383:0.048696999 389:0.068120003 392:0.061147999 444:0.074234001 452:0.102902 464:0.113995 497:0.036460999 592:0.101973 607:0.11747 611:0.075384997 722:0.142195 723:0.078824997 743:0.084550001 782:0.13711201 858:0.090807997 916:0.109688 931:0.094797 1027:0.162367 1135:0.20672099 1156:0.278579 1558:0.110486 1650:0.078189 1751:0.146905 1771:0.204749 1906:0.097764999 2886:0.15523 3136:0.24059699 3356:0.132558 8214:0.19505399 8215:0.21220601 8216:0.21220601 8217:0.277771 8218:0.177903 8219:0.35929501 #
-1.0000000231766961178436758928001 3:0.099854998 5:0.092037998 6:0.049702998 9:0.061907999 10:0.049810998 11:0.043676 12:0.095265001 15:0.053553998 20:0.201712 22:0.20241 30:0.113956 32:0.263666 33:0.26310199 34:0.142676 35:0.02338 36:0.047060002 37:0.166457 40:0.159953 41:0.064153999 44:0.04716 46:0.147842 48:0.272919 68:0.14516801 69:0.111389 73:0.133857 76:0.050794002 87:0.044526 99:0.14936 105:0.116057 112:0.036819998 113:0.054125998 134:0.16129801 137:0.063717 169:0.081914 221:0.058435999 232:0.045256 239:0.028054001 242:0.13938899 259:0.198394 371:0.138458 385:0.066977002 440:0.241909 453:0.089630999 497:0.090979002 541:0.131758 676:0.087676004 707:0.123367 1225:0.30068499 1296:0.113956 1512:0.175577 1773:0.178214 5328:0.209417 #
-0.28226103779379380087632966933597 11:0.050923001 12:0.061069999 23:0.092256002 35:0.014988 62:0.091458 95:0.101223 112:0.023604 204:0.069692999 205:0.043552 213:0.080011003 239:0.017983999 245:0.092592001 290:0.047336001 352:0.038927998 390:0.068507001 393:0.049651001 410:0.13334499 453:0.057457998 458:0.062687002 470:0.053971998 611:0.071218997 614:0.19287901 635:0.085294999 682:0.062623002 737:0.080977 738:0.056549001 863:0.1776 881:0.238666 885:0.068097003 954:0.097180001 961:0.113667 967:0.17205299 1109:0.168028 1421:0.196518 1491:0.16222499 1601:0.08258 4801:0.29595399 7974:0.31200299 8213:0.174795 9332:0.58916497 9333:0.184274 #
-0.078288774961282017739172545134352 26:0.076347001 37:0.093624003 38:0.143013 42:0.072959997 44:0.037385002 60:0.123804 83:0.153612 93:0.121281 105:0.055796001 112:0.029188 122:0.08365 157:0.215092 164:0.098968998 241:0.073841996 272:0.053576 292:0.140064 310:0.108802 324:0.078654997 351:0.104188 370:0.046622001 383:0.11939 402:0.122719 448:0.124512 458:0.077518001 465:0.08523 474:0.074929997 497:0.11115 519:0.112295 560:0.079241 572:0.095333003 595:0.098940998 699:0.081344001 716:0.149895 721:0.22439501 722:0.079155996 840:0.106542 858:0.062656 874:0.071052 910:0.13303401 912:0.104649 929:0.094461001 971:0.29057801 1340:0.092928 1403:0.117831 1642:0.139863 1962:0.247908 1963:0.273121 1964:0.366835 1965:0.250117 1966:0.247908 #
-0.61234126842643876731386853862205 3:0.072131 9:0.044720002 10:0.035980999 12:0.068815999 18:0.055050001 22:0.12858599 31:0.109093 35:0.016889 37:0.050388999 44:0.034067001 50:0.053796001 69:0.047522999 75:0.046661999 81:0.071978003 87:0.032164 95:0.067367002 105:0.030029001 114:0.044666 121:0.086585999 134:0.068815999 146:0.069362998 156:0.057404999 162:0.080567002 202:0.075746998 216:0.062521003 241:0.039742 293:0.068080999 324:0.071673997 371:0.100016 497:0.092624001 513:0.108267 543:0.100016 592:0.064115003 633:0.08783 660:0.12083 661:0.087691002 679:0.095177002 732:0.13301601 811:0.069852002 905:0.137206 906:0.069502003 928:0.080044001 951:0.08783 1100:0.11253 1223:0.106228 1296:0.082317002 1299:0.097085997 1312:0.098719999 1424:0.153173 1501:0.092382997 1549:0.162094 1556:0.14570799 1688:0.114373 1728:0.224536 1736:0.086604998 1920:0.129402 1967:0.14570799 2009:0.10513 2199:0.11362 2247:0.24264801 3938:0.152871 4293:0.117619 4591:0.178708 4592:0.35157701 4593:0.41676 4594:0.225905 #
1.0000000231766961178436758928001 6:0.038926002 23:0.068355002 33:0.069945 35:0.018310999 52:0.16958401 53:0.106131 54:0.109164 88:0.165953 89:0.071548 93:0.070767 108:0.207499 112:0.028836001 113:0.042389002 206:0.069328003 208:0.052420001 241:0.072952002 282:0.067212 292:0.065936998 300:0.108019 313:0.064925998 341:0.078368999 363:0.118382 366:0.129456 368:0.124417 387:0.13157 415:0.086446002 435:0.098929003 470:0.20305 477:0.28556299 481:0.129456 492:0.150693 497:0.042082001 550:0.09945 594:0.103388 676:0.068664998 721:0.242422 807:0.049350001 863:0.175052 885:0.083194003 903:0.109164 908:0.107724 912:0.103388 1268:0.079305999 1274:0.114569 1347:0.11738 1348:0.078368999 1415:0.26199099 1459:0.11398 1965:0.247104 2164:0.13886601 3529:0.13817801 3931:0.182171 6384:0.20533 6385:0.244921 6386:0.225125 #
1.0000000231766961178436758928001 5:0.07762 11:0.051913001 35:0.033385001 38:0.063759997 39:0.093938999 41:0.091606997 44:0.094908997 56:0.074987002 87:0.063579001 93:0.076205999 99:0.089373998 108:0.072561003 126:0.030532001 154:0.109649 184:0.095841996 208:0.118464 210:0.087522998 216:0.072994001 222:0.090563998 232:0.038167 248:0.062850997 271:0.080900997 282:0.20206 370:0.049601 371:0.116769 443:0.138419 460:0.11048 477:0.291419 496:0.27231401 506:0.131378 625:0.16868301 777:0.090563998 780:0.115683 858:0.066657998 885:0.089587003 906:0.21173801 912:0.18850499 914:0.15204699 930:0.128599 962:0.106905 1140:0.15989199 1439:0.187324 1459:0.12274 1540:0.097179003 1571:0.12274 1805:0.123696 2016:0.161267 2520:0.14469001 2785:0.178477 2824:0.14879701 2867:0.288028 2868:0.139405 2869:0.214248 2870:0.196171 #
1.0000000231766961178436758928001 8:0.065304004 10:0.083269998 18:0.060706999 22:0.067567997 23:0.126453 35:0.018625 44:0.037567001 69:0.052406002 76:0.068507999 81:0.079374 88:0.064687997 93:0.121874 151:0.089915998 197:0.16083699 221:0.046549998 272:0.053838 309:0.151305 350:0.048958998 415:0.087927997 435:0.100625 442:0.097792998 453:0.071399003 519:0.112844 560:0.25458899 633:0.096855 661:0.096702002 669:0.12076 676:0.069842003 721:0.094494998 722:0.079543002 797:0.082764 863:0.105161 912:0.32383701 960:0.128768 1110:0.099592999 1146:0.079884 1728:0.217759 1965:0.47461501 1998:0.12076 2592:0.163589 3136:0.16682 3385:0.16068099 5050:0.36776301 5051:0.20885 #
1.0000000231766961178436758928001 1:0.064466 6:0.036003999 11:0.039214998 19:0.120557 20:0.146117 23:0.037342001 24:0.088499002 33:0.13577101 35:0.016936 37:0.085555002 41:0.046472002 44:0.071693003 60:0.053908002 65:0.062537 70:0.056953002 74:0.102615 76:0.036795001 79:0.16849899 85:0.064295001 87:0.054611001 105:0.030114001 108:0.062325001 112:0.026672 126:0.026225001 169:0.059337001 178:0.087797999 180:0.119936 183:0.083706997 214:0.057518002 232:0.055505998 241:0.067477003 246:0.090566002 248:0.053985 290:0.053490002 369:0.12428 387:0.071874999 393:0.094994999 415:0.079957999 426:0.072720997 450:0.074583001 465:0.077882998 470:0.103263 539:0.136438 545:0.14034501 566:0.122166 571:0.150189 572:0.087116003 579:0.082889996 588:0.087936997 649:0.096383996 662:0.139479 676:0.063510999 725:0.102859 759:0.077882998 805:0.120208 835:0.099210002 853:0.121169 906:0.069697 908:0.099638999 935:0.077882998 974:0.089073002 1240:0.110458 1292:0.13045099 1601:0.093314998 1713:0.108876 1728:0.19802099 2144:0.102859 2321:0.123202 2939:0.16849899 3000:0.139479 3955:0.123202 5028:0.38818201 8046:0.197519 8369:0.38356501 #
1.0000000231766961178436758928001 1:0.086551003 6:0.081844002 9:0.060208999 10:0.048443001 11:0.025087999 23:0.105212 31:0.1185 33:0.22665399 37:0.067841001 45:0.133929 51:0.27892199 59:0.073210001 87:0.090876997 94:0.08788 95:0.090699002 112:0.060631 126:0.035209 142:0.091470003 145:0.12688001 156:0.045646999 160:0.191643 197:0.139327 205:0.111873 216:0.084175996 217:0.074063003 244:0.059094001 248:0.122718 282:0.083465002 351:0.075494997 354:0.073579997 393:0.075327002 419:0.066246003 452:0.118991 456:0.287772 512:0.222225 530:0.148525 561:0.113844 679:0.128141 697:0.11825 760:0.082630001 783:0.2142 807:0.061283998 967:0.12438 1171:0.122852 1340:0.11401 1348:0.097321004 1397:0.113679 1933:0.15150499 1972:0.165409 2242:0.191439 2432:0.171592 7594:0.26518601 9702:0.30414799 #
-1.0000000231766961178436758928001 10:0.041232001 11:0.036153998 23:0.042670999 33:0.19291399 35:0.019354001 36:0.038954999 37:0.057742 40:0.132405 41:0.053105 44:0.093156002 50:0.104376 51:0.085037 76:0.100334 83:0.113813 85:0.073471002 88:0.067220002 99:0.087723002 101:0.120166 113:0.044803999 123:0.071768001 126:0.05074 145:0.107992 164:0.061037999 180:0.080945998 182:0.098194003 194:0.091963001 239:0.023223 244:0.105555 278:0.12173 292:0.14625899 369:0.240457 496:0.127362 504:0.148178 545:0.160376 583:0.097755 627:0.096337996 723:0.056793001 777:0.088891 863:0.285153 885:0.087931998 908:0.192782 912:0.109278 914:0.149239 1447:0.131063 1468:0.183446 1812:0.17518 1965:0.40252399 2065:0.189367 2306:0.115644 3387:0.221909 3395:0.166971 3674:0.204787 5028:0.169993 #
-0.27659097100258223100865961896488 10:0.066788003 18:0.060350999 19:0.077840999 23:0.069118999 33:0.119751 44:0.078377001 49:0.066509999 50:0.058975998 56:0.070413001 76:0.095987998 80:0.111141 87:0.059702002 88:0.064308003 98:0.057622999 125:0.17117301 144:0.134031 149:0.080811001 180:0.077440001 212:0.075891003 240:0.049235001 241:0.043568999 286:0.109891 315:0.067565002 351:0.061473001 354:0.101444 370:0.111143 383:0.056832999 470:0.112889 477:0.205704 493:0.157553 496:0.121846 508:0.081905 518:0.098344997 592:0.070289001 661:0.229406 676:0.069431998 699:0.081262 709:0.132465 780:0.064157002 874:0.070979998 897:0.12942199 914:0.142774 929:0.094365999 1158:0.23429599 1268:0.080192 1298:0.18020999 1349:0.107542 1399:0.122978 1415:0.12623499 1662:0.118036 1731:0.099009 1736:0.094944 2592:0.38808101 2867:0.27046099 3076:0.228045 3171:0.187609 3950:0.159739 5926:0.20118099 #
-0.2058005873630452953193525900133 17:0.111785 33:0.051481999 35:0.013477 36:0.045929998 37:0.040210001 38:0.043579999 41:0.036981001 44:0.046027999 51:0.059216999 83:0.046810001 104:0.063363001 108:0.104083 112:0.021225 114:0.035643 145:0.075203001 160:0.067087002 258:0.049511999 335:0.111785 370:0.033902001 389:0.057868998 443:0.076330997 453:0.051667001 504:0.103187 529:0.249907 532:0.12527101 557:0.109489 579:0.065961003 658:0.092202999 730:0.065870002 744:0.110992 863:0.212447 912:0.15970001 956:0.12244 1209:0.067184001 1221:0.091886997 1342:0.068277001 1348:0.137648 1511:0.104944 1600:0.178847 1835:0.13656101 1893:0.157178 1947:0.301754 1965:0.22543301 2106:0.124797 2108:0.12635501 5821:0.157178 10191:0.165701 10192:0.180271 10193:0.50327402 10194:0.180271 10195:0.180271 #
-0.74747657356248908833151745056966 5:0.056194 6:0.030346001 9:0.079324 11:0.026666 19:0.101611 23:0.066050999 32:0.061691999 33:0.092325002 34:0.087111004 35:0.014275 44:0.048751999 63:0.037866998 69:0.040167 76:0.052508 88:0.10405 100:0.074354 149:0.062304001 162:0.068097003 204:0.066376999 209:0.066711001 256:0.048590999 272:0.041265 300:0.049736001 323:0.070753001 385:0.040893 387:0.06058 450:0.062862001 463:0.23468 465:0.065644003 470:0.087035 477:0.21097501 498:0.070552997 533:0.078224003 543:0.084535003 545:0.069863997 627:0.071056999 658:0.097659998 726:0.090264998 799:0.123559 818:0.072754003 837:0.056403998 874:0.054724 901:0.1184 906:0.058743998 908:0.142193 1110:0.076334 1126:0.055472001 1152:0.250709 1198:0.078365996 1268:0.061827 1462:0.221204 1517:0.094518997 1798:0.094518997 2038:0.167106 2227:0.124242 2364:0.2449 2501:0.15510599 2665:0.216997 2867:0.20852 3108:0.236489 3360:0.113777 3364:0.16007499 4770:0.316989 5028:0.125384 6821:0.19093899 6822:0.19093899 6823:0.13967399 #
-0.30597419138744141875463355972897 6:0.038373001 11:0.019916 33:0.179929 35:0.030563001 37:0.091185004 44:0.076411001 60:0.057456002 69:0.050792001 83:0.106152 87:0.034375999 105:0.032095 112:0.028426999 126:0.02795 180:0.075498 182:0.192201 197:0.065324999 205:0.052452002 208:0.051677 221:0.045116 236:0.084725998 264:0.137592 370:0.095293 444:0.084463999 448:0.057785001 456:0.335217 477:0.200545 497:0.098995999 519:0.109368 541:0.101725 588:0.15868901 676:0.067690998 679:0.101725 726:0.114142 743:0.096201003 764:0.096038997 777:0.082907997 780:0.062547997 874:0.069200002 906:0.193838 914:0.139194 1033:0.095090002 1054:0.112363 1126:0.070146002 1218:0.098387003 1236:0.116041 1348:0.077257998 1529:0.216924 1717:0.121437 1731:0.096525997 1933:0.120272 2016:0.147633 2665:0.22138201 4878:0.22193301 5653:0.16168199 6245:0.196136 7144:0.241448 7145:0.241448 7146:0.241448 #
1.0000000231766961178436758928001 3:0.079915002 11:0.020645 18:0.060991 48:0.155599 50:0.059601001 56:0.071160004 65:0.069091998 69:0.052650999 83:0.064989999 86:0.082961999 87:0.085035004 95:0.074637003 99:0.084813997 113:0.043318 115:0.055752002 131:0.066561997 160:0.093142003 170:0.08563 216:0.069268003 224:0.103096 229:0.149379 272:0.054090001 275:0.095657997 292:0.114087 328:0.096697003 350:0.049187999 352:0.048599999 404:0.080343999 434:0.071925998 454:0.104643 457:0.078828998 458:0.078261003 477:0.099058002 497:0.072811998 530:0.072186001 555:0.108006 575:0.089854002 592:0.071033999 614:0.24079899 661:0.097153999 668:0.069328003 671:0.073728003 682:0.078180999 700:0.109845 723:0.054908998 780:0.109779 787:0.084413998 920:0.124282 931:0.111808 945:0.099721998 1093:0.093009003 1142:0.084813997 1174:0.17326599 1299:0.107564 1344:0.125071 1574:0.13919 1601:0.103096 1670:0.161433 1732:0.136705 1913:0.119287 1956:0.148242 2065:0.18308599 2069:0.119617 2165:0.180657 2166:0.153037 2306:0.111808 2414:0.232481 3086:0.355268 3187:0.19349501 3893:0.19349501 4277:0.1552 #
1.0000000231766961178436758928001 6:0.041746002 8:0.068855003 9:0.109122 11:0.051702 32:0.143693 41:0.091233 59:0.13268501 81:0.083691001 87:0.078483 98:0.061115 105:0.059117999 112:0.030926 113:0.045460999 123:0.07282 126:0.051484 147:0.102449 213:0.104832 221:0.049081001 239:0.023562999 241:0.110268 242:0.117074 244:0.051034998 247:0.082557999 256:0.066844001 311:0.094806001 352:0.051004 354:0.063545004 403:0.118701 404:0.084319003 408:0.294846 414:0.093189999 494:0.092237003 579:0.096110001 665:0.157785 697:0.214316 723:0.057626002 738:0.074091002 771:0.094300002 783:0.077520996 785:0.101481 802:0.13883699 807:0.052926 825:0.080013998 975:0.095844001 1004:0.073831998 1012:0.081464998 1057:0.106468 1142:0.15070701 1146:0.084228002 1198:0.107804 1468:0.088694997 1512:0.147469 1520:0.267212 1579:0.124508 1669:0.098174997 1729:0.124174 1736:0.100698 1741:0.115279 3912:0.16532999 4243:0.195371 4244:0.241438 4246:0.229019 4344:0.26266801 4345:0.26266801 #
1.0000000231766961178436758928001 6:0.085166 9:0.10608 15:0.091765001 18:0.077124998 32:0.102258 33:0.090384997 35:0.023661001 37:0.070593998 39:0.236571 44:0.047727 45:0.082310997 46:0.14962 51:0.103965 72:0.17067499 83:0.082181998 87:0.045061 89:0.092455998 98:0.20558199 99:0.063343003 105:0.123938 112:0.037262999 115:0.070500001 170:0.108282 232:0.0458 239:0.028392 244:0.061492998 256:0.080541998 314:0.141707 324:0.100415 341:0.17146701 419:0.116718 427:0.12424 444:0.110716 497:0.05438 636:0.219101 661:0.122855 894:0.083361998 935:0.108809 986:0.13801301 1149:0.39435801 1405:0.12526301 1468:0.10687 1522:0.219101 1540:0.116615 1655:0.197703 3633:0.20242099 5303:0.27595001 11012:0.31649399 #
1.0000000231766961178436758928001 6:0.041251998 9:0.051383 11:0.036249999 32:0.141994 35:0.019405 41:0.053247001 59:0.131116 81:0.082700998 87:0.062570997 105:0.034503002 113:0.044923 123:0.121837 126:0.050875001 147:0.101237 213:0.103593 221:0.048501 239:0.048865002 240:0.051601999 241:0.108964 242:0.11569 244:0.050430998 256:0.066054001 321:0.092937998 325:0.108522 327:0.059645999 354:0.062794 403:0.279906 404:0.083322003 408:0.36113399 579:0.094972998 697:0.240814 723:0.056945 738:0.073215 760:0.070517004 783:0.076604001 791:0.093938001 802:0.13719501 807:0.052299999 825:0.079067998 858:0.065600999 975:0.094710998 1004:0.072958998 1012:0.080502003 1057:0.10521 1142:0.087957002 1146:0.083232 1468:0.087646 1520:0.28874499 1579:0.123036 1669:0.097014003 1680:0.15662099 1736:0.099506997 3512:0.15871 3912:0.16337501 4242:0.17208201 4243:0.19306099 4244:0.238583 4245:0.25956199 4246:0.226312 #
1.0000000231766961178436758928001 11:0.044976 12:0.063653 15:0.035783 18:0.121511 51:0.068640001 63:0.041439999 65:0.057682998 73:0.089438997 76:0.033939 86:0.069262996 91:0.088477999 94:0.060376 99:0.041820999 108:0.057487998 113:0.036164999 115:0.046546001 126:0.024188999 138:0.057246 142:0.037115999 145:0.051484 163:0.088036999 164:0.083420001 170:0.071491003 180:0.110628 217:0.050882999 223:0.12942 241:0.036759999 248:0.049795002 249:0.054302 251:0.098001003 256:0.053176001 258:0.057390999 265:0.103438 318:0.110024 385:0.044752002 433:0.057634 437:0.141403 443:0.052255999 445:0.073752999 489:0.114635 543:0.194149 597:0.059569001 621:0.092719004 622:0.095331997 676:0.058582 713:0.086548999 767:0.19950999 791:0.128043 797:0.069421001 858:0.052811999 928:0.074038997 993:0.114861 1299:0.089803003 1331:0.099866003 1353:0.073283002 1506:0.132561 1507:0.132561 1604:0.088552997 1618:0.099319004 1924:0.117315 2042:0.111318 2144:0.094875999 3001:0.27393001 3977:0.23691501 5639:0.308474 7482:0.158292 9811:0.32520199 12194:0.19206899 12799:0.35379699 #
-0.091641069984324155517363408307574 11:0.020966999 15:0.073702 18:0.061944 30:0.092625 36:0.038251001 63:0.050411999 122:0.050657999 126:0.061753999 137:0.051789999 146:0.163794 173:0.143409 219:0.100417 222:0.14778499 226:0.14517 231:0.127858 249:0.13862801 267:0.070712 276:0.041785002 300:0.066212997 342:0.26406899 350:0.049956001 352:0.175962 530:0.15385699 607:0.14071199 644:0.18054099 777:0.14778499 805:0.134882 896:0.085832998 991:0.078282997 1196:0.113043 1237:0.131391 1288:0.142711 1769:0.119216 2197:0.145605 2788:0.147166 3034:0.159996 7238:0.21310399 7487:0.20649 7964:0.233648 11398:0.25419301 11399:0.25419301 11400:0.233648 11401:0.25419301 11402:0.25419301 #
-0.48703786586204461661608888789488 6:0.037859999 9:0.047157001 35:0.030153999 36:0.035847001 41:0.048868001 65:0.065760002 87:0.033916 93:0.116539 95:0.071037002 105:0.082629003 108:0.065536998 112:0.028046999 121:0.053925999 126:0.046691 134:0.072564997 138:0.065260999 143:0.055852 151:0.085979998 186:0.101351 214:0.060481999 240:0.047357999 244:0.046284001 282:0.065370999 296:0.162993 306:0.114487 348:0.112917 353:0.080532998 354:0.057629999 385:0.107066 403:0.25688499 404:0.182477 405:0.080723003 408:0.4409 410:0.158445 413:0.25749001 433:0.111246 453:0.068273 474:0.071999997 499:0.104774 583:0.089955002 661:0.092468999 671:0.070171997 682:0.074410997 700:0.17701399 740:0.092178002 792:0.10715 863:0.100558 1001:0.110298 1154:0.115141 1218:0.097069003 1274:0.111432 1340:0.15119 1342:0.090222999 1368:0.094912 1435:0.102168 1579:0.112917 1638:0.125911 1866:0.12900101 4293:0.124028 10237:0.403332 #
-0.057237886884227713590878039440213 18:0.058679 35:0.018002 53:0.104343 70:0.060536999 76:0.039110001 85:0.068341002 97:0.087265 105:0.032009002 113:0.041675001 116:0.068705998 126:0.027875001 127:0.084128998 149:0.078571998 152:0.151563 155:0.070019998 160:0.089611001 162:0.085878 208:0.108156 221:0.044994 224:0.16793901 226:0.057629 239:0.045332 290:0.119319 300:0.062723003 341:0.077049002 383:0.093560003 404:0.162218 427:0.160045 434:0.117165 591:0.117065 597:0.16380601 654:0.152163 723:0.12606201 724:0.120329 773:0.114451 803:0.088474996 896:0.081308998 991:0.074157 1012:0.074681997 1017:0.107325 1027:0.25966901 1569:0.13269199 1708:0.110123 1764:0.14017799 1771:0.13722 1868:0.133296 2269:0.13940901 2711:0.127773 3063:0.15964 4021:0.16475999 4596:0.190487 4602:0.158122 5838:0.166697 8650:0.240796 8651:0.240796 8652:0.407702 #
-0.32485635829998704693366562423762 11:0.040979002 23:0.039021999 35:0.017697999 36:0.035622999 45:0.061567001 48:0.070128001 60:0.056333002 69:0.084317997 75:0.048898 81:0.075427003 92:0.088999003 98:0.093258999 105:0.082114004 108:0.065128997 112:0.027872 113:0.069371 116:0.067546003 123:0.065628998 126:0.027403999 149:0.077246003 164:0.13319699 178:0.091747999 186:0.10072 217:0.057645999 221:0.044234999 242:0.25178599 244:0.096527003 316:0.086981997 352:0.045968 385:0.106399 399:0.108795 427:0.092928998 428:0.192241 434:0.068030998 448:0.095926002 470:0.063731998 493:0.106856 659:0.15694501 677:0.083879001 716:0.084539004 738:0.14013401 807:0.047699999 843:0.19486199 858:0.059831001 910:0.075029001 1093:0.087972 1149:0.20102 1520:0.100921 1561:0.096637003 1945:0.14787699 2379:0.145753 4832:0.41926399 13942:0.23672999 13943:0.49680501 #
-0.20942860306134380987685972286272 6:0.043278001 10:0.073435001 11:0.066169001 13:0.109048 15:0.046631001 76:0.044227999 112:0.032060999 115:0.060658 130:0.24094 212:0.141284 232:0.066720001 239:0.051265001 240:0.091659002 243:0.149454 247:0.144913 256:0.11733 310:0.11951 313:0.072186001 327:0.062574998 348:0.218548 393:0.160934 452:0.106534 600:0.128388 625:0.17416 723:0.10115 760:0.073980004 783:0.13607 807:0.054868001 811:0.084198996 818:0.103758 851:0.26662999 896:0.091949999 1057:0.32515699 1178:0.126725 1501:0.111359 1509:0.242763 1524:0.142837 1680:0.16431201 2121:0.40996099 2691:0.214018 3715:0.154393 7289:0.221204 #
1.0000000231766961178436758928001 2:0.188879 3:0.098686002 6:0.049121 10:0.049228001 22:0.14193501 23:0.050946001 32:0.26058 33:0.26002201 37:0.068939 43:0.22547001 44:0.078914002 62:0.083277002 76:0.119791 88:0.080255002 89:0.090287998 100:0.120356 105:0.086221002 112:0.036389001 137:0.10662 139:0.151601 156:0.046386 169:0.080954999 201:0.124409 227:0.112777 232:0.075727999 239:0.046944 244:0.060051002 385:0.112074 387:0.098061003 433:0.085248001 443:0.077293001 452:0.071415998 465:0.106258 470:0.198559 494:0.108532 497:0.053105 541:0.130216 552:0.108949 622:0.14100599 632:0.17704099 638:0.157539 654:0.115352 780:0.080066003 894:0.081407003 949:0.196072 1026:0.101527 1093:0.114855 1140:0.110665 1213:0.164652 1547:0.146505 2038:0.270493 2169:0.28708601 3606:0.18416999 3618:0.196072 #
1.0000000231766961178436758928001 3:0.106259 5:0.097940996 11:0.027450001 22:0.18942501 23:0.153143 31:0.076578997 33:0.095039003 35:0.042125002 37:0.074229002 44:0.084969997 68:0.154478 70:0.141656 89:0.097217001 93:0.096156001 112:0.066339999 113:0.120874 121:0.075335003 156:0.049945999 194:0.118222 205:0.072296001 232:0.081538998 246:0.13304301 257:0.10847 290:0.078576997 370:0.062586002 385:0.198975 440:0.107876 452:0.200655 464:0.105586 470:0.089593001 494:0.116861 497:0.096813999 504:0.112506 592:0.094449997 617:0.124025 688:0.16792899 723:0.073009998 726:0.157324 728:0.14701299 818:0.214699 906:0.102386 956:0.22603001 993:0.147587 1108:0.12044 1152:0.148329 1797:0.314872 2616:0.173269 2868:0.175901 3340:0.170212 3529:0.187751 7399:0.305893 #
1.0000000231766961178436758928001 9:0.14096899 11:0.019074 12:0.070442997 16:0.075962 33:0.066040002 35:0.017287999 69:0.048645999 89:0.067553997 97:0.141893 99:0.046282001 112:0.027225999 121:0.088633999 144:0.073914997 145:0.056976002 150:0.080190003 156:0.034706 169:0.060570002 205:0.085058004 221:0.04321 236:0.065467998 244:0.117242 258:0.177313 286:0.286459 311:0.083465002 350:0.045446001 351:0.057399999 393:0.057271998 410:0.124094 419:0.050368 443:0.097915001 444:0.080894999 450:0.076132998 454:0.096683003 497:0.039733 519:0.104748 705:0.14150999 758:0.29422399 835:0.101271 840:0.099381998 908:0.10171 967:0.094567001 1067:0.156486 1274:0.108172 1298:0.168268 1405:0.091523997 1630:0.25957701 1669:0.146341 1902:0.157875 2478:0.169159 3404:0.151852 4600:0.18785 5510:0.182934 7510:0.48529801 #
1.0000000231766961178436758928001 3:0.13922501 9:0.050980002 10:0.041018002 16:0.143233 18:0.062757 32:0.083206996 33:0.205322 34:0.19893 35:0.019253001 41:0.052829999 44:0.065753996 51:0.084595002 55:0.095427997 60:0.061283 74:0.116653 75:0.053194001 76:0.099813998 83:0.113223 95:0.161167 112:0.030321 156:0.100856 180:0.080527 217:0.062711 241:0.045304999 256:0.065536 316:0.094623998 387:0.081707999 393:0.13385101 397:0.079072997 477:0.26596901 533:0.105505 545:0.094228998 579:0.094228998 656:0.084312998 661:0.23855001 670:0.107065 688:0.129951 708:0.12708899 723:0.095660001 767:0.094228998 808:0.34017599 816:0.224539 874:0.073808998 908:0.11327 912:0.108711 930:0.125569 1279:0.155395 1296:0.093840003 2085:0.14321899 2659:0.132642 2665:0.29267401 3001:0.16087 3108:0.18838499 3109:0.2159 #
1.0000000231766961178436758928001 3:0.078566 9:0.04871 11:0.020296 22:0.213377 26:0.15902901 34:0.19007 49:0.066081002 59:0.059227999 76:0.095367998 87:0.035032999 93:0.071097001 105:0.055380002 114:0.082373001 143:0.057691999 169:0.064450003 198:0.214297 205:0.053454999 239:0.022073001 272:0.053176999 285:0.109181 315:0.067129001 325:0.102876 353:0.083185002 385:0.052698001 392:0.070904002 401:0.090535998 419:0.053594001 444:0.086076997 463:0.126735 497:0.11803 530:0.070968002 532:0.100988 572:0.094622001 649:0.104689 807:0.04958 952:0.104482 956:0.098706 1137:0.122184 1211:0.105533 1218:0.100266 1268:0.079674996 1405:0.097386003 1475:0.106403 1481:0.135593 1605:0.13882001 1781:0.21453901 1952:0.21453901 2686:0.17246801 2807:0.15487701 3605:0.278981 3711:0.14944699 3835:0.157373 3895:0.179995 4436:0.190229 4979:0.450234 #
-0.56106168388074850739144494582433 6:0.060552999 10:0.035840999 23:0.037092 26:0.117336 33:0.108808 35:0.028484 43:0.058800999 44:0.033934001 88:0.058431 92:0.084599003 95:0.067105003 105:0.029913001 108:0.061909001 112:0.044858001 115:0.050126001 123:0.062385 132:0.116315 143:0.052760001 182:0.14452 201:0.090579003 205:0.048884999 206:0.063697003 232:0.032563999 237:0.105537 241:0.067027003 244:0.091753997 248:0.053624 282:0.061751999 292:0.060580999 293:0.067815997 313:0.059652001 350:0.044224001 385:0.134543 470:0.12713701 491:0.078226998 496:0.18745001 497:0.065463997 504:0.21238101 552:0.079322003 610:0.182796 611:0.079939999 623:0.076435998 665:0.079836003 685:0.091695003 705:0.081329003 744:0.138547 745:0.178013 750:0.113928 751:0.30203399 945:0.089658 978:0.091858998 1092:0.111049 1097:0.132498 1140:0.13642 1196:0.100072 1405:0.089061998 1436:0.12633599 1601:0.092692003 1604:0.095362999 1797:0.264736 2185:0.128234 3016:0.15772501 3147:0.12889799 3562:0.178013 6136:0.18865199 6137:0.206839 8365:0.206839 8665:0.18865199 8970:0.22502699 #
