SVM-light Version V6.02
0 # kernel type
3 # kernel parameter -d 
1 # kernel parameter -g 
1 # kernel parameter -s 
1 # kernel parameter -r 
empty# kernel parameter -u 
14598 # highest feature index 
2865 # number of training documents 
623 # number of support vectors plus 1 
1.0805855 # threshold b, each following line is a SV (starting with alpha*y)
-0.57619710611308028180843621157692 1:0.057686001 6:0.032217 9:0.040128998 15:0.034713998 23:0.033413999 35:0.015155 36:0.051647998 43:0.05297 44:0.064153001 65:0.094747998 85:0.120739 104:0.042082001 105:0.026946001 114:0.04008 115:0.045155 155:0.123706 156:0.030423 240:0.0403 249:0.052678999 270:0.089748003 300:0.052802999 306:0.097424999 326:0.078074001 337:0.20141 404:0.181667 405:0.068692997 410:0.064248003 414:0.071919002 470:0.054574002 477:0.19145299 494:0.071183003 543:0.089748003 588:0.078688003 615:0.107565 635:0.086246997 668:0.056150001 677:0.071826003 726:0.095830999 780:0.052514002 869:0.093392 874:0.058098 888:0.14545199 1171:0.081880003 1609:0.094580002 1866:0.109776 1868:0.112215 1976:0.114935 2304:0.086592004 2728:0.16036101 2729:0.153561 3371:0.102976 3990:0.56125802 4138:0.13190199 4640:0.153561 5199:0.16036101 6359:0.16467001 6881:0.169945 7712:0.143977 10065:0.156717 12640:0.202713 12641:0.202713 #
-0.18533564430235172082461758691352 6:0.096061997 10:0.040343001 11:0.035374001 38:0.061232999 41:0.051959999 49:0.068023004 60:0.060274001 69:0.053282999 75:0.052317999 83:0.065770999 87:0.036063001 105:0.070660003 112:0.029821999 115:0.056421999 116:0.072270997 126:0.029322 151:0.091421999 194:0.089980997 240:0.085258 246:0.101261 249:0.111447 250:0.088606998 258:0.117788 261:0.10231 270:0.112141 274:0.146643 276:0.041637 337:0.085427999 352:0.083274998 365:0.12314 396:0.094534002 404:0.170636 415:0.089400001 493:0.067525998 523:0.081483997 527:0.13388 569:0.151869 583:0.095647998 648:0.106304 671:0.126332 685:0.103213 710:0.22495501 743:0.10092 787:0.085427999 838:0.098165996 896:0.085528001 1057:0.102668 1142:0.085832 1289:0.12617201 1340:0.094947003 1375:0.13602901 1459:0.117875 1468:0.085528001 1497:0.213627 1555:0.11239 1596:0.139578 1800:0.167925 1834:0.18839701 1847:0.155949 1950:0.150931 2370:0.20575701 2837:0.164813 3209:0.19581901 3491:0.12577499 4365:0.17140301 6056:0.200372 8667:0.23281901 9570:0.23281901 #
-0.19166240351013436038485338031023 5:0.052848 10:0.028601 11:0.014812 14:0.058789998 15:0.030750999 17:0.111351 35:0.044337001 50:0.072402 60:0.042732 62:0.048384 75:0.037090998 89:0.052457999 112:0.021142 115:0.039999999 116:0.051236998 122:0.035785999 137:0.061946999 146:0.093354002 162:0.064043 206:0.050829999 216:0.049697999 240:0.060444001 247:0.056439999 300:0.046774998 308:0.092165001 321:0.064296998 352:0.034869 399:0.17319 419:0.039112002 434:0.051605001 465:0.061735999 518:0.199074 634:0.067709997 677:0.107729 685:0.19094101 686:0.079154 709:0.096046999 739:0.071070999 776:0.092490003 807:0.036183 825:0.114797 858:0.045384999 896:0.060635999 937:0.060281001 976:0.120937 1001:0.083145 1007:0.075951003 1012:0.055693001 1016:0.21260899 1069:0.068319999 1107:0.098081999 1137:0.089169003 1292:0.17508 1331:0.085821003 1342:0.115155 1348:0.057459 1426:0.214818 1429:0.15291899 1431:0.241023 1487:0.114849 1524:0.094192997 1540:0.066165 1615:0.081148997 1706:0.197835 1772:0.096046999 1821:0.19767401 1868:0.23720799 2319:0.105734 2718:0.109799 3335:0.138826 4638:0.181172 5285:0.254893 6460:0.138826 7734:0.28547499 13372:0.179571 #
-0.15027075817015420056144137106457 8:0.062334999 11:0.033209998 23:0.093535997 31:0.114835 35:0.017778 44:0.035859998 50:0.056627002 58:0.082359001 63:0.098970003 86:0.078822002 87:0.033856999 89:0.117617 104:0.049364999 112:0.027998 114:0.098669998 116:0.11488 142:0.042238001 210:0.078911997 221:0.044434 239:0.021331999 244:0.096960999 267:0.112004 282:0.065256998 314:0.106471 327:0.054644 352:0.046174999 356:0.073380999 428:0.092015997 434:0.163073 575:0.085371003 761:0.106962 771:0.085371003 807:0.047915 828:0.191907 837:0.070246004 843:0.242614 850:0.136933 894:0.13144401 916:0.122915 933:0.107951 1017:0.105989 1209:0.088621996 1237:0.122915 1426:0.109017 1490:0.106471 1756:0.32016599 1902:0.095884003 1948:0.129884 2081:0.23706999 6181:0.16462 6715:0.166675 11117:0.56745201 #
-0.3017323342891229387419116392266 11:0.030449999 31:0.050172001 37:0.048632 41:0.075730003 69:0.045866001 76:0.035413001 81:0.069468997 87:0.065146998 98:0.050730001 109:0.054444 111:0.097180001 113:0.063891999 121:0.049357001 138:0.059732001 181:0.109257 214:0.055358 221:0.040741 242:0.16453899 249:0.05666 262:0.115244 276:0.035840999 292:0.058697999 346:0.105085 348:0.103351 352:0.042337 385:0.097994998 390:0.074506 403:0.166825 404:0.146882 410:0.069103003 426:0.069990002 428:0.142848 450:0.071782 452:0.050379999 493:0.058125999 544:0.146568 555:0.094088003 665:0.077353999 682:0.115314 752:0.24016701 767:0.079777002 837:0.064407997 1017:0.097180001 1142:0.073884003 1152:0.097180001 1326:0.112699 1512:0.207257 1533:0.099955998 1609:0.17223901 1662:0.103916 1782:0.157069 1806:0.110021 1853:0.303352 1924:0.122409 2438:0.116152 2510:0.115694 7491:0.182788 10948:0.45756501 10949:0.218032 10950:0.218032 #
1.0000000231766961178436758928001 11:0.089181997 35:0.047741 123:0.17703301 131:0.169826 247:0.200707 326:0.24594399 405:0.21639299 568:0.438247 723:0.140095 1120:0.691504 1121:0.303516 #
-0.1439568975432253816748584540619 18:0.086530998 23:0.082493 31:0.081710003 35:0.015679 38:0.050700001 62:0.056506999 87:0.050556 99:0.088087 105:0.047201999 116:0.142794 126:0.050949998 169:0.054931998 170:0.071751997 206:0.059363998 239:0.018813999 241:0.036894001 248:0.049977001 315:0.057215001 324:0.066538997 331:0.122089 338:0.144738 350:0.041216001 383:0.048126999 397:0.064393997 440:0.067982003 448:0.050191998 458:0.065577 597:0.059785999 719:0.146054 740:0.081152998 783:0.16151001 818:0.167702 828:0.16925 904:0.106536 933:0.095206 958:0.101958 1013:0.070076004 1126:0.127866 1131:0.081798002 1154:0.282996 1297:0.18420599 1450:0.079430997 1756:0.17004099 2658:0.177443 2850:0.146997 7654:0.17036299 8423:0.182855 13456:0.35508901 13457:0.50045699 13458:0.209721 #
1.0000000231766961178436758928001 12:0.097235002 15:0.032283999 38:0.045575 69:0.039659001 86:0.062490001 116:0.053791001 131:0.050136998 142:0.056697 143:0.044202 156:0.028294001 160:0.070157997 165:0.092752002 179:0.063809 212:0.057769999 232:0.027282 236:0.031523 241:0.033165 267:0.052444 300:0.049107 315:0.051431999 325:0.078821003 338:0.061997 351:0.046794999 370:0.074405 383:0.043263 387:0.101274 390:0.109076 397:0.057884999 402:0.093323 414:0.066885002 434:0.091730997 458:0.058949001 539:0.067060001 541:0.079426996 651:0.14357699 655:0.075755 719:0.105925 783:0.094204001 807:0.037987001 818:0.071833998 896:0.063658997 933:0.050547 965:0.101665 1011:0.119597 1021:0.14913601 1101:0.099265002 1121:0.089606002 1126:0.092734002 1140:0.067501999 1154:0.154284 1260:0.10436 1466:0.205882 1542:0.086009003 1753:0.24359199 1754:0.44987401 1755:0.205882 1756:0.072835997 1757:0.21901201 1758:0.18852399 1759:0.18852399 1760:0.24202999 1761:0.21374699 1762:0.27830899 1763:0.116902 1764:0.109749 #
0.052543330178783799466746273765239 6:0.033732999 10:0.070946001 11:0.029642999 16:0.069721997 22:0.057567999 56:0.060346 64:0.075599 70:0.05336 85:0.06024 105:0.028214 108:0.058394 116:0.102539 126:0.024571 142:0.037701 151:0.076609001 155:0.061719999 156:0.031854998 178:0.082261004 213:0.143427 224:0.148031 226:0.050797001 232:0.030715 240:0.042196002 241:0.03734 276:0.034890998 293:0.063965999 297:0.069799997 370:0.039917 397:0.065171003 404:0.177793 434:0.15916599 458:0.066367999 567:0.093558997 568:0.086033002 588:0.13950001 596:0.17444199 600:0.100072 710:0.111335 719:0.070435002 724:0.179584 828:0.081620999 969:0.122883 1012:0.065829001 1013:0.148837 1169:0.110919 1326:0.109711 1419:0.34436399 1427:0.137771 1609:0.099030003 1655:0.132586 1825:0.123561 2014:0.145229 2015:0.44543299 2016:0.12978099 2017:0.138109 2018:0.119746 2019:0.167906 2020:0.21225099 2021:0.17794099 2022:0.106065 2023:0.172419 2024:0.118595 #
1.0000000231766961178436758928001 7:0.176313 10:0.066912003 11:0.020466 12:0.075581998 19:0.077985004 35:0.018549999 44:0.037416 48:0.15425301 49:0.066633999 62:0.066853002 69:0.052195001 75:0.05125 76:0.040298998 88:0.13520899 89:0.072481997 94:0.071690999 98:0.05773 99:0.049658999 116:0.240554 134:0.075581998 142:0.092490003 149:0.080962002 169:0.064989001 202:0.083195001 205:0.053902 224:0.28532901 232:0.035905 238:0.082716003 240:0.083517 244:0.048207998 248:0.059126999 275:0.094829999 293:0.074776001 300:0.109429 350:0.082561001 353:0.083880998 356:0.076566003 426:0.079648003 434:0.18606301 452:0.057331 470:0.066798002 493:0.111996 516:0.14876799 579:0.090786003 592:0.070418999 596:0.078147002 722:0.079223998 731:0.206071 805:0.343555 906:0.12924799 933:0.20486 1017:0.110589 1019:0.117296 1142:0.084080003 1146:0.079562999 1164:0.14444201 1312:0.108428 1340:0.093007997 1427:0.19962101 1450:0.093974002 1540:0.154791 1618:0.117932 1669:0.22129799 1731:0.099192999 2670:0.28428501 #
-1.0000000231766961178436758928001 9:0.091522001 10:0.073637001 19:0.37918299 53:0.200339 85:0.13121501 87:0.065825 99:0.092531003 116:0.131915 121:0.104659 137:0.094196998 155:0.35081199 194:0.16424 224:0.32244301 248:0.110174 370:0.086947002 404:0.31145799 434:0.31705001 453:0.132505 465:0.15894701 588:0.179464 656:0.151362 699:0.1517 799:0.176699 882:0.210925 1133:0.157986 1555:0.205143 #
-1.0000000231766961178436758928001 10:0.044163 35:0.02073 60:0.065981999 62:0.12649401 75:0.096970998 88:0.071998999 108:0.076283999 112:0.032646 116:0.243628 123:0.076870002 124:0.078625001 126:0.054347001 142:0.083388999 156:0.041614 212:0.14386199 239:0.024874 240:0.055123001 241:0.048779 276:0.04558 300:0.122289 315:0.075645 370:0.052145001 393:0.068671003 434:0.167224 435:0.111998 447:0.225629 458:0.086700998 559:0.095210001 592:0.219696 597:0.079043999 699:0.090980001 719:0.21957 723:0.060830999 731:0.149423 761:0.12472 780:0.071829997 926:0.122221 947:0.165223 978:0.113188 993:0.072626002 1012:0.085996002 1013:0.194435 1019:0.36594301 1305:0.110476 1370:0.11161 1669:0.103635 2171:0.13725699 2316:0.183826 2492:0.20283 5576:0.189721 6790:0.381365 #
-1.0000000231766961178436758928001 23:0.100001 35:0.021612 44:0.121703 50:0.068839997 56:0.082190998 95:0.086207002 105:0.038426999 114:0.057156999 116:0.13965601 138:0.079196997 142:0.086939998 208:0.061872002 217:0.070394002 224:0.36669299 226:0.069185004 236:0.048337001 239:0.025932999 241:0.106727 247:0.090860002 248:0.068889 337:0.204613 352:0.056134 385:0.14773899 434:0.25582701 441:0.137779 450:0.095174 457:0.091049001 614:0.13252801 623:0.098194003 676:0.081046 685:0.24721099 699:0.094853997 721:0.286134 723:0.063421004 731:0.092009 828:0.111167 852:0.122269 889:0.12605999 891:0.215018 974:0.27123699 1014:0.123239 1119:0.111862 1340:0.108363 1398:0.145873 1540:0.106515 1665:0.139329 1932:0.137779 2430:0.135579 7742:0.28908199 #
-0.73725583629231494775524424767355 1:0.089564003 10:0.050129998 26:0.096928999 35:0.023530001 36:0.047362 56:0.089484997 60:0.074896 62:0.084803 69:0.066210002 76:0.051120002 113:0.114317 116:0.15205 122:0.149676 156:0.112719 195:0.29114801 202:0.105533 221:0.058811001 236:0.052627001 238:0.177652 248:0.075002998 276:0.051738001 300:0.081983998 312:0.105045 341:0.100709 348:0.252601 352:0.061115 365:0.15301199 434:0.090448998 453:0.152731 539:0.111955 570:0.129409 596:0.167841 682:0.098314002 731:0.23904701 792:0.14157 933:0.26980299 951:0.122367 993:0.13958099 1012:0.097615004 1013:0.105167 1014:0.134176 1057:0.267728 1110:0.125826 1142:0.106655 1146:0.100925 1450:0.119206 1475:0.13610099 1542:0.143591 2304:0.134445 2443:0.19966599 6515:0.27441901 #
-1.0000000231766961178436758928001 10:0.061427001 16:0.074823 59:0.054827001 85:0.064646997 88:0.14114 98:0.052997999 116:0.110041 126:0.055337001 134:0.069386996 142:0.105575 155:0.066235997 156:0.034185 184:0.082773 248:0.054281 275:0.087056004 337:0.076823004 363:0.110097 370:0.042837001 404:0.1908 410:0.201544 415:0.080395997 434:0.137372 435:0.092005 654:0.143938 671:0.067097999 676:0.13401499 685:0.092817001 731:0.223253 737:0.15577801 760:0.061882999 780:0.059007 794:0.090301 828:0.148307 858:0.057569001 929:0.086792 965:0.122834 978:0.092983 986:0.099327996 1012:0.119612 1013:0.076109998 1164:0.13260099 1338:0.088001996 1374:0.090451002 1429:0.19397099 1433:0.16186 1601:0.093826003 2165:0.097104996 2414:0.12496 3357:0.134119 3955:0.123876 5509:0.155853 5954:0.19859999 6174:0.149575 6518:0.18019 7670:0.19095901 10954:0.47802001 #
1.0000000231766961178436758928001 13:0.115138 15:0.049235001 26:0.088545002 35:0.021495 43:0.157667 56:0.081744999 87:0.069309004 98:0.066895999 101:0.133461 105:0.038219001 115:0.064044997 127:0.100452 142:0.051068999 145:0.148663 198:0.201381 204:0.099949002 208:0.061535999 232:0.041606002 240:0.159573 241:0.050579999 244:0.055861998 245:0.132791 249:0.126505 250:0.100579 258:0.20605899 271:0.088192001 290:0.067887001 342:0.142325 353:0.097199 414:0.102005 435:0.116133 452:0.066434003 464:0.091220997 491:0.169229 497:0.049400002 533:0.117789 570:0.248089 572:0.110563 578:0.148086 668:0.079640001 761:0.129325 776:0.148086 778:0.160597 787:0.096969999 837:0.084932998 838:0.11143 856:0.121605 977:0.102946 1004:0.080816001 1420:0.115731 1518:0.12902699 2171:0.142325 2273:0.199039 2338:0.160648 3066:0.172388 8092:0.264276 9113:0.233557 12330:0.287514 #
1.0000000231766961178436758928001 6:0.045717999 11:0.040174 15:0.117549 35:0.036412001 37:0.064162999 98:0.113322 104:0.059716001 107:0.106897 109:0.071829997 111:0.21708301 119:0.086441003 122:0.057326999 137:0.099233001 142:0.142645 156:0.090602003 208:0.061567001 212:0.149248 237:0.134912 242:0.128213 244:0.055890001 276:0.047286998 322:0.083801001 350:0.11864 352:0.13329101 369:0.267196 392:0.082891002 435:0.196729 497:0.083683997 517:0.142396 539:0.214736 560:0.091945998 578:0.14816099 716:0.102726 728:0.127076 760:0.078151003 764:0.11442 771:0.103272 777:0.098775998 837:0.084974997 874:0.082443997 899:0.140259 910:0.091170996 975:0.104963 981:0.123626 1131:0.112196 1334:0.129691 1540:0.105991 1645:0.16150001 2009:0.13386901 2197:0.164775 2788:0.16654 6808:0.21790899 8323:0.44768301 #
1.0000000231766961178436758928001 5:0.130695 9:0.041889999 11:0.036630001 48:0.062687002 60:0.050354999 63:0.041965999 100:0.082402997 108:0.058217999 114:0.041839 136:0.152437 147:0.082534 181:0.062628001 232:0.030622 234:0.083067998 236:0.035383001 237:0.208276 272:0.045731999 275:0.080876 280:0.094316997 291:0.148954 292:0.056968998 293:0.063772999 304:0.102876 307:0.325544 352:0.069571003 405:0.121412 483:0.127114 491:0.073563002 512:0.091316 530:0.15925901 556:0.103796 568:0.085772999 570:0.087007001 585:0.14446899 665:0.075075999 682:0.15773401 738:0.059689 739:0.083751999 812:0.083203003 874:0.060648002 976:0.14251401 1001:0.097979002 1217:0.065039001 1316:0.106085 1424:0.177839 1549:0.089676999 2268:0.126094 2304:0.153047 2551:0.098731004 2914:0.15244301 3073:0.113645 3516:0.141701 3824:0.194507 6978:0.141701 9717:0.30037001 12558:0.21161 12559:0.329328 12560:0.21161 #
1.0000000231766961178436758928001 70:0.098701 82:0.39268601 114:0.077624999 128:0.116414 138:0.107558 232:0.056814 290:0.092699997 393:0.097234003 508:0.12984 523:0.12630101 546:0.15288299 1014:0.167371 1090:0.27178901 1156:0.31257999 1219:0.16703799 1470:0.30352101 1497:0.195567 1924:0.22041801 2711:0.497127 3685:0.27178901 #
1.0000000231766961178436758928001 44:0.024940001 59:0.067400999 65:0.045655001 70:0.041577999 76:0.026861001 93:0.080908 109:0.132036 122:0.032958999 136:0.14766701 145:0.068991996 164:0.038995001 209:0.057782002 216:0.045770999 226:0.039579999 243:0.053610001 271:0.085892998 325:0.117074 368:0.084013 374:0.081615999 426:0.089887999 460:0.069278002 464:0.052471999 530:0.047699001 544:0.126416 701:0.059374001 707:0.065240003 723:0.036283001 731:0.12561101 853:0.088458002 855:0.12778901 1107:0.090332001 1217:0.050831001 1234:0.064505003 1297:0.085794002 1500:0.085182004 1778:0.091135003 1798:0.081868 2334:0.120979 8628:0.227468 10410:0.257386 12889:0.280018 12890:0.165383 12891:0.431557 12892:0.152016 12893:0.165383 12894:0.165383 12895:0.280018 12896:0.280018 12897:0.165383 12898:0.280018 #
-0.88360225275680270851097475315328 35:0.017309999 38:0.055973999 75:0.047825001 81:0.073771998 100:0.215156 102:0.169173 114:0.045779999 123:0.06419 126:0.026803 131:0.061577 136:0.27501801 137:0.047175001 164:0.054593001 194:0.082253002 210:0.076834999 212:0.070951 219:0.054021999 239:0.020771001 248:0.055176001 249:0.060169 292:0.130816 299:0.098904997 307:0.127591 340:0.069982 356:0.071448997 405:0.078460999 426:0.074326001 544:0.074166 568:0.158903 650:0.078368001 655:0.15752999 682:0.072324999 743:0.092252001 770:0.090163 825:0.070532002 894:0.060984999 976:0.092097998 980:0.137969 1005:0.13555001 1006:0.129371 1017:0.103199 1120:0.148085 1221:0.118019 1334:0.104389 1412:0.124861 1429:0.116453 1484:0.124347 1485:0.179002 1486:0.140627 1487:0.148085 1488:0.26898199 1489:0.13127799 1490:0.103669 1491:0.232227 1492:0.231538 1493:0.150658 1494:0.121913 1495:0.152043 1496:0.140627 1497:0.115336 1498:0.172217 1499:0.231538 1500:0.119255 #
-1.0000000231766961178436758928001 11:0.038929999 35:0.035285 39:0.099284001 42:0.082037002 100:0.227801 126:0.032269001 147:0.108722 149:0.090957001 151:0.100611 208:0.059659999 240:0.055417001 247:0.087613001 313:0.073894002 340:0.14265101 353:0.094237 560:0.089098997 567:0.122871 568:0.23711701 578:0.30130401 669:0.135123 670:0.115888 928:0.098768003 952:0.118363 977:0.099808 993:0.153226 1026:0.155036 1142:0.094460003 1155:0.21550199 1217:0.085675001 1269:0.134734 1431:0.17828099 1468:0.15936799 1665:0.134349 1706:0.18137901 1978:0.38510901 2169:0.152924 2508:0.145671 2597:0.21550199 3491:0.138418 5302:0.200811 12006:0.27875099 #
-0.476718020831517874658089795048 1:0.061870001 9:0.04304 11:0.030363999 14:0.18573999 15:0.063037999 91:0.092059001 93:0.062820002 100:0.084664002 102:0.15885501 107:0.080794998 109:0.151565 126:0.052818999 145:0.053568002 174:0.089887001 204:0.075580999 237:0.101968 241:0.038247999 244:0.071523003 249:0.056499999 272:0.046987001 295:0.25762701 306:0.104492 350:0.042727999 433:0.059967998 440:0.119328 442:0.085348003 556:0.314163 568:0.18494301 578:0.189602 579:0.079552002 722:0.069420002 752:0.239489 760:0.10001 792:0.097795002 837:0.064226002 1219:0.092502996 1484:0.116763 1977:0.108996 1978:0.125874 2024:0.28988999 2326:0.110445 6178:0.52921999 13522:0.217417 #
-0.25189370015005613234748693685106 11:0.036318 35:0.032917 36:0.066256002 65:0.121545 70:0.110691 98:0.102444 109:0.186151 134:0.134124 151:0.15891799 156:0.066079997 180:0.137675 204:0.153061 249:0.193728 322:0.21717601 570:0.37992099 668:0.206495 733:0.225197 910:0.13954701 931:0.19668899 988:0.53790802 992:0.23009001 1146:0.141187 1374:0.174841 1427:0.16879401 2184:0.170912 #
-0.71342917920871373738123111252207 5:0.056848001 11:0.033436999 18:0.047070999 55:0.121189 59:0.078722 60:0.045965001 70:0.048560999 114:0.038192 205:0.041963 212:0.141248 216:0.053459 231:0.057383999 232:0.027953001 261:0.078022003 290:0.045609001 347:0.12354 350:0.079666004 352:0.037508 370:0.036325999 405:0.110827 415:0.068177 417:0.117318 454:0.080758996 465:0.112438 509:0.33205801 561:0.072301 568:0.078295 638:0.098457001 651:0.086883999 670:0.080305003 964:0.080305003 1054:0.188648 1069:0.124429 1120:0.209172 1257:0.110075 1403:0.091810003 1485:0.313391 1491:0.092316002 1640:0.106927 1711:0.16841599 1817:0.12684201 2184:0.074979998 2298:0.118927 2475:0.300616 2656:0.16841599 3385:0.124588 3512:0.118108 3633:0.209172 3859:0.32738101 5727:0.32704899 #
1.0000000231766961178436758928001 10:0.093617998 35:0.020939 36:0.042146001 38:0.067708001 64:0.099756002 85:0.134588 104:0.058141999 116:0.190698 142:0.049748 143:0.065668002 155:0.137895 184:0.101777 199:0.097852997 221:0.052333999 224:0.195335 232:0.04053 236:0.079292998 256:0.071273997 276:0.046039999 313:0.074244998 320:0.158012 350:0.055043001 354:0.067757003 371:0.20995 404:0.152226 434:0.273489 459:0.107871 475:0.116222 493:0.126422 504:0.16031501 518:0.111219 928:0.099238001 993:0.073360004 1150:0.220686 1209:0.10438 1425:0.180649 1426:0.2174 1555:0.39733601 1868:0.26250699 1897:0.15504099 2004:0.15649199 2693:0.16689301 2731:0.149804 3063:0.185683 4078:0.201766 #
0.64836703746403956394317447120557 6:0.035032999 10:0.059443999 11:0.018182 36:0.056162 62:0.059392001 65:0.060849998 70:0.055415999 71:0.156041 81:0.070233002 109:0.055041999 112:0.025953 116:0.131991 142:0.039152998 143:0.087506004 145:0.054310001 198:0.073569 208:0.047178 224:0.299869 240:0.043822002 242:0.166348 276:0.036235001 317:0.090305001 322:0.064216003 399:0.101303 404:0.119806 430:0.091641001 434:0.195071 497:0.037873998 518:0.148205 654:0.082268 724:0.110152 738:0.062176999 785:0.085161999 1004:0.061960001 1013:0.073654003 1164:0.12832201 1209:0.082149997 1353:0.077306002 1514:0.125614 1713:0.105939 2009:0.102582 2409:0.12436 2670:0.35595199 2748:0.373218 2749:0.52600801 2750:0.139837 #
1.0000000231766961178436758928001 1:0.058857001 2:0.074652001 10:0.032942999 41:0.042429 44:0.03119 56:0.058805 75:0.089656003 76:0.056878 81:0.065899998 87:0.029448001 91:0.051724002 95:0.061678 114:0.069239996 116:0.123848 122:0.086502001 138:0.095939003 156:0.099246003 160:0.076971002 208:0.074951001 224:0.281369 272:0.044698998 275:0.165894 276:0.057565998 317:0.084734 327:0.080472998 370:0.081629999 382:0.094589002 385:0.141624 386:0.171772 418:0.147827 419:0.045049999 427:0.081192002 434:0.1963 440:0.067045003 443:0.051724002 444:0.072353996 596:0.110297 661:0.080286004 701:0.074253999 716:0.073861003 719:0.068636 731:0.06583 737:0.17532501 771:0.074253999 780:0.053580001 789:0.087140001 926:0.091169 945:0.082408004 947:0.123246 1012:0.13462099 1013:0.117014 1032:0.09482 1126:0.060089 1344:0.103356 1424:0.082827002 1450:0.078336 1469:0.090191998 1542:0.159767 1618:0.098306999 1630:0.13712201 1650:0.076209001 1760:0.101758 1933:0.216216 2171:0.102385 2271:0.127344 2282:0.108086 2577:0.380611 3077:0.180335 7316:0.19011299 7317:0.20682999 7318:0.163618 #
0.088120899877893094087610847964243 2:0.098622002 10:0.091332003 13:0.109422 15:0.046790998 35:0.020428 83:0.070950001 89:0.079820998 114:0.054025002 115:0.060865 116:0.132002 121:0.061854001 122:0.15202001 134:0.083235003 143:0.064064004 222:0.093823999 224:0.29369599 238:0.091090001 239:0.024511 240:0.091972999 241:0.048069 258:0.127064 261:0.110367 270:0.120972 275:0.104431 276:0.094261996 321:0.097834997 386:0.13402499 404:0.209307 419:0.059514001 434:0.23132101 572:0.105074 588:0.179583 698:0.184902 731:0.086966999 828:0.17790601 869:0.125884 914:0.093034998 974:0.107435 1040:0.124658 1142:0.156772 1198:0.18987501 1275:0.1499 1348:0.14803299 1432:0.119661 8136:0.40336999 8494:0.25115499 14598:0.27323899 #
1.0000000231766961178436758928001 7:0.103933 10:0.039443001 11:0.020427 15:0.042406999 44:0.063229002 60:0.058929998 76:0.040222 88:0.064304002 113:0.089947 114:0.082901999 115:0.055163 116:0.20815501 142:0.043986998 150:0.085874997 187:0.12375 240:0.083356999 248:0.059014 256:0.063019998 276:0.040708002 300:0.064506002 317:0.101454 325:0.103538 350:0.048668001 363:0.119697 370:0.046572 375:0.131925 382:0.113254 393:0.061331999 464:0.078570001 491:0.086088002 499:0.10892 592:0.119001 640:0.21299601 719:0.082179002 739:0.098012 780:0.15308701 894:0.065227002 929:0.094360001 930:0.120747 935:0.144151 947:0.14756501 978:0.171161 993:0.136125 1012:0.161184 1013:0.082746997 1019:0.27936399 1268:0.080187 1329:0.24837901 1374:0.098338 1494:0.130392 1618:0.19929101 1650:0.154493 1658:0.20761099 1662:0.118027 2165:0.105572 2738:0.18759499 3057:0.114953 3097:0.16757999 3385:0.27044201 4661:0.171436 6256:0.181152 #
-1.0000000231766961178436758928001 11:0.023355 13:0.113386 15:0.048486002 44:0.042697001 85:0.080357999 88:0.073521003 91:0.070807002 114:0.055982001 134:0.181006 142:0.050292 155:0.082332999 156:0.110885 184:0.102889 199:0.098922998 203:0.13044401 220:0.159739 240:0.134321 272:0.061190002 275:0.227099 276:0.078805 317:0.196399 350:0.055644002 352:0.054979 402:0.140159 404:0.15389 434:0.137767 592:0.080357999 597:0.16938999 600:0.226025 640:0.143831 730:0.103456 765:0.114766 780:0.124189 792:0.12735701 794:0.112247 797:0.094066001 837:0.083640002 857:0.251463 991:0.087196998 993:0.074161999 1012:0.148683 1168:0.140159 1172:0.157461 1219:0.120464 1285:0.16053399 1353:0.099298999 1520:0.120705 1534:0.14635199 1618:0.32113901 1736:0.108546 2088:0.185927 2104:0.165758 3669:0.18959901 3715:0.16053399 #
-1.0000000231766961178436758928001 15:0.044369001 23:0.125816 31:0.100948 41:0.053151999 61:0.15898301 75:0.053518001 83:0.067279004 87:0.03689 97:0.093897998 112:0.030506 116:0.176414 124:0.073471002 126:0.029994 137:0.052790001 143:0.060749002 184:0.159417 224:0.106727 226:0.104991 232:0.037494998 233:0.105957 244:0.050340999 257:0.084450997 258:0.169815 297:0.25101101 313:0.144142 341:0.082906 404:0.174548 413:0.117364 434:0.074459001 448:0.062008999 452:0.059868999 458:0.081017002 474:0.078312002 497:0.044518001 597:0.073862001 828:0.099637002 945:0.103234 993:0.067864999 1012:0.136059 1040:0.118207 1164:0.15083399 1368:0.103234 1549:0.109802 1569:0.29963699 1609:0.120888 1723:0.138584 1868:0.301 2693:0.36842501 2864:0.15736599 5010:0.17014199 10112:0.225908 10792:0.238158 #
-0.37795548868210682158519375661854 9:0.054131001 11:0.022554999 15:0.079282999 76:0.044413 119:0.139126 122:0.054494001 124:0.077538997 126:0.031654999 142:0.149569 143:0.064112999 162:0.097521998 206:0.18470401 221:0.051095001 223:0.080701001 224:0.112636 239:0.024529999 256:0.069586001 267:0.076067999 272:0.059094999 276:0.117294 290:0.064565003 317:0.112025 326:0.105316 327:0.062835999 387:0.086756997 414:0.097014003 419:0.059558999 434:0.13305099 518:0.18385001 596:0.18074 670:0.19248 799:0.17694899 828:0.105153 837:0.136767 908:0.120269 954:0.132551 1013:0.218033 1033:0.107692 1136:0.248643 1450:0.103566 1640:0.25628999 1681:0.26927501 1693:0.115429 1764:0.26952299 1888:0.13179199 2150:0.28920901 3491:0.135782 3516:0.183108 10414:0.25134301 #
-1.0000000231766961178436758928001 23:0.041738 35:0.018929999 36:0.038102999 53:0.230266 70:0.063657999 87:0.036051001 104:0.052565001 113:0.043823998 114:0.050065 121:0.057321001 126:0.049630001 142:0.044976 156:0.079751998 198:0.084510997 219:0.14098001 224:0.104302 238:0.084412999 239:0.022715 240:0.050338998 247:0.079585999 248:0.060341001 272:0.054722 273:0.16117901 276:0.099326998 290:0.059788 317:0.17564 392:0.072963998 394:0.09127 404:0.137624 413:0.114697 434:0.072766997 450:0.083364002 470:0.143061 482:0.10055 544:0.19355001 665:0.188529 719:0.084027 720:0.12383 738:0.071424 761:0.113895 783:0.074730001 800:0.127354 828:0.164866 837:0.126647 946:0.195757 976:0.100718 1004:0.071174003 1013:0.084608003 1149:0.173473 1171:0.102277 1292:0.14580999 1353:0.088803001 1520:0.182769 1555:0.112354 1682:0.138303 1972:0.137707 2073:0.132324 2122:0.146597 2191:0.12996 2658:0.126533 3063:0.28423101 4611:0.195757 7952:0.25321099 7953:0.22077399 #
-0.18819676171939339615057917853846 23:0.073425002 27:0.183486 41:0.053970002 44:0.039673999 48:0.077936001 75:0.092008002 82:0.12538899 83:0.068314001 93:0.076016001 98:0.061213002 104:0.054614998 114:0.052017 116:0.157534 205:0.057153001 217:0.134446 219:0.061383002 232:0.038072001 239:0.023600999 244:0.086547002 272:0.096267 275:0.10055 300:0.068529002 350:0.108506 352:0.051086001 452:0.127575 493:0.070137002 498:0.097211003 578:0.13550501 722:0.14222901 731:0.17572799 780:0.068154 818:0.16972999 825:0.19124199 852:0.111274 874:0.15823901 933:0.16832501 974:0.103443 1126:0.160402 1167:0.328996 1338:0.101643 1348:0.084182002 1421:0.257891 1731:0.105177 2026:0.144976 3061:0.41695699 3583:0.262283 13801:0.263087 #
1.0000000231766961178436758928001 10:0.044611 35:0.035454001 38:0.067711003 60:0.066651002 67:0.147477 76:0.045492001 83:0.123141 100:0.109069 104:0.058143999 109:0.118418 112:0.032977 156:0.071172997 190:0.115373 204:0.097368002 227:0.102201 243:0.090792 248:0.113011 249:0.123238 256:0.071277 290:0.066133998 327:0.064363003 350:0.093199 401:0.103057 454:0.117104 530:0.080782004 541:0.199799 552:0.098732002 568:0.11353 572:0.107708 661:0.108724 722:0.151421 760:0.076094002 778:0.17789599 811:0.086606003 993:0.073362999 1004:0.078729004 1069:0.106562 1146:0.089814998 1176:0.17768499 1344:0.139965 1427:0.107377 1447:0.14180499 1724:0.119644 1767:0.14583001 1805:0.13136099 1978:0.45270601 2081:0.16492 2452:0.17913701 8466:0.221571 8467:0.28008899 8468:0.28008899 #
1.0000000231766961178436758928001 1:0.074846998 2:0.094934002 15:0.045040999 45:0.068405002 52:0.107561 55:0.097462997 100:0.26726601 108:0.072361998 113:0.045522001 147:0.173694 148:0.121784 156:0.082842 170:0.089988001 216:0.072792999 219:0.061368 221:0.049146999 226:0.062948003 239:0.023595 276:0.043235999 396:0.098164998 419:0.096997999 433:0.072545998 497:0.045192 556:0.218438 563:0.28251401 568:0.31406799 578:0.39908499 701:0.094426997 723:0.057703 760:0.120987 785:0.17205399 807:0.052997001 825:0.080122001 837:0.163057 1026:0.086398996 1142:0.21269 1146:0.084342003 1424:0.178339 1549:0.111464 1654:0.159748 1736:0.100833 1740:0.123681 2211:0.160825 2358:0.166858 4325:0.13796601 11902:0.26302099 #
1.0000000231766961178436758928001 9:0.049462002 11:0.020609999 56:0.071038999 60:0.100671 100:0.31108299 102:0.257296 108:0.068741001 139:0.122557 144:0.079864003 182:0.094775997 202:0.083779 232:0.061220001 248:0.059542 275:0.095495 284:0.100059 307:0.137687 393:0.061880998 405:0.08467 415:0.088188998 428:0.096684001 452:0.057734001 492:0.153732 499:0.109896 568:0.241676 571:0.16565 648:0.25023699 710:0.131062 725:0.113447 734:0.137687 846:0.173628 919:0.138954 1134:0.107601 1142:0.08467 1297:0.12961701 1805:0.117184 2075:0.28160599 2081:0.24909601 2463:0.153837 2508:0.13057201 3105:0.17297199 3397:0.13831399 6262:0.17513099 6770:0.20947 7162:0.24986 #
1.0000000231766961178436758928001 6:0.036371998 10:0.036451001 14:0.074924998 35:0.028968999 36:0.034437999 41:0.046948001 65:0.063175999 76:0.037170999 85:0.064952001 100:0.248798 102:0.098759003 113:0.039609 115:0.050979 121:0.087716997 126:0.044856001 145:0.056387 156:0.072081 206:0.064781003 212:0.070129 217:0.055729002 239:0.02053 276:0.037620001 327:0.052590001 330:0.093422003 354:0.055365998 370:0.04304 389:0.073464997 465:0.078680001 559:0.078584 568:0.27327201 572:0.088007003 578:0.28128201 623:0.077737004 631:0.136415 655:0.091962002 682:0.071487002 738:0.064553998 764:0.154129 771:0.082161002 776:0.117874 837:0.067605004 899:0.111588 1004:0.064328 1142:0.077551998 1447:0.115867 1475:0.236155 1501:0.093589999 1669:0.085538 1788:0.098353997 2024:0.127873 2379:0.14090499 3150:0.14636999 3227:0.13398001 3516:0.15324999 3585:0.16741 3631:0.41875499 4083:0.191862 4711:0.15843099 5105:0.162545 5232:0.148913 9974:0.228856 #
1.0000000231766961178436758928001 5:0.21271101 9:0.044751 11:0.018646 44:0.034090001 48:0.066968001 70:0.056832001 75:0.046693999 85:0.064158998 87:0.054494999 89:0.111813 94:0.065318003 100:0.088030003 121:0.051174 147:0.088170998 151:0.081592999 155:0.065736003 194:0.080306999 202:0.075799003 208:0.048383001 216:0.105931 232:0.032713 241:0.039769001 280:0.170598 287:0.094695002 304:0.186079 383:0.051876001 385:0.048413999 405:0.16076399 428:0.087475002 452:0.088440999 465:0.077719003 492:0.082148001 568:0.091629997 589:0.32984599 634:0.085239001 638:0.115227 725:0.102642 783:0.066716999 846:0.15708999 881:0.103134 887:0.088030003 893:0.14017899 915:0.13234299 976:0.089919001 1057:0.091629997 1075:0.111904 1206:0.128823 1276:0.112253 1342:0.085620001 1423:0.108646 1485:0.174767 1495:0.14844599 1640:0.211879 1669:0.084492996 1700:0.126311 1815:0.15297601 2253:0.133894 2330:0.124017 3073:0.205557 3880:0.133894 4362:0.154678 4405:0.17124701 4748:0.144582 5436:0.17124701 7667:0.20779 9113:0.18363699 #
-0.62277053270903892645549149165163 11:0.018338 41:0.045607001 60:0.052903999 63:0.044089999 75:0.045921002 76:0.036109 83:0.057728 85:0.063097 100:0.206588 102:0.201335 104:0.046151999 109:0.14486 145:0.054776002 150:0.077092998 155:0.064646997 156:0.033365998 239:0.019943001 256:0.095790997 270:0.098428003 276:0.036545999 317:0.091078997 327:0.051088002 341:0.071137004 353:0.075158 393:0.055059999 404:0.120833 430:0.092426002 433:0.061319001 523:0.071520001 559:0.076338999 567:0.20565499 568:0.152575 572:0.085492 578:0.29879799 616:0.084582999 650:0.075246997 668:0.061581001 719:0.073775001 785:0.085891999 833:0.099090002 993:0.058231 1004:0.062491 1127:0.132688 1131:0.086710997 1142:0.127556 1468:0.075070001 1681:0.091743998 1992:0.160157 1994:0.096946001 2008:0.153905 2385:0.113709 3093:0.152117 3460:0.33137399 3461:0.371847 3585:0.162628 3666:0.12734701 5121:0.193838 8167:0.204349 8442:0.22231799 #
-1.0000000231766961178436758928001 9:0.047993001 35:0.018124999 36:0.036481999 50:0.057732999 58:0.083966002 85:0.068806998 87:0.058442999 98:0.095508002 100:0.26356399 105:0.032226998 119:0.072852999 122:0.115294 126:0.028065 139:0.118917 155:0.070497997 202:0.081290998 221:0.045301002 239:0.021748999 244:0.112405 276:0.039852999 324:0.076920003 327:0.055711001 350:0.047646001 357:0.094407998 404:0.077825002 426:0.077825002 465:0.083350003 544:0.077657998 568:0.25642601 578:0.12487 617:0.090352997 797:0.080544002 837:0.071617 843:0.19956 1012:0.17942899 1142:0.214378 1299:0.271882 1358:0.123575 1520:0.103354 1533:0.111145 1595:0.164059 1609:0.113115 1977:0.12154 2535:0.11619 3150:0.26253399 3151:0.222844 3152:0.164059 3153:0.183654 3154:0.242439 3155:0.196941 3156:0.174652 3157:0.159201 3158:0.242439 #
-1.0000000231766961178436758928001 33:0.270879 232:0.137261 236:0.158601 588:0.77269 722:0.302858 3057:0.440292 #
-0.83433485227286452445838449420989 5:0.068571001 6:0.077711999 15:0.039898999 16:0.076536 42:0.163629 45:0.127166 60:0.093874998 75:0.081483997 76:0.037843 88:0.0605 94:0.067321002 108:0.064101003 123:0.064593002 143:0.054629002 145:0.057406001 169:0.061028 178:0.090300001 181:0.068957001 203:0.107342 240:0.097207002 258:0.134296 338:0.076622002 397:0.071539998 411:0.217448 413:0.105539 523:0.074954003 543:0.103155 546:0.090729997 568:0.225363 676:0.065320998 785:0.090016998 1041:0.14447799 1217:0.071611002 1348:0.19454201 1420:0.158793 1426:0.106815 1433:0.097786002 1435:0.099928997 1459:0.108429 1524:0.122215 1671:0.21015801 1956:0.13800099 2220:0.139699 2243:0.17649999 2260:0.128977 3585:0.28857499 4152:0.40671301 5295:0.15160599 6005:0.17043699 11672:0.23299401 11673:0.23299401 #
-0.60938780593495722737173991845339 2:0.067256004 3:0.059496999 11:0.01537 42:0.130863 45:0.048461001 67:0.098113 76:0.030265 80:0.083622001 82:0.088809997 100:0.072562002 102:0.080410004 109:0.046528999 147:0.072677001 205:0.040479999 231:0.055357002 266:0.097377002 271:0.057156999 276:0.051863 282:0.051135 293:0.095081002 307:0.102682 383:0.042761002 434:0.053548999 483:0.06611 512:0.080410004 556:0.154752 567:0.082135998 568:0.075529002 578:0.095973998 634:0.070261002 638:0.199324 679:0.078506 682:0.058205999 686:0.082135998 736:0.116399 771:0.066895999 846:0.076476999 855:0.060336001 914:0.063446 1014:0.079437003 1065:0.091675997 1120:0.119176 1131:0.123053 1142:0.106912 1435:0.079919003 1484:0.100072 1486:0.113174 1488:0.10315 1500:0.095973998 1600:0.088088997 1608:0.116399 2169:0.214531 2438:0.099266998 2578:0.15136801 3460:0.36947799 3461:0.34081 4154:0.213498 5105:0.132346 6154:0.141156 6262:0.13060699 6312:0.171277 6770:0.156216 8008:0.147406 10590:0.18633699 10591:0.171277 10592:0.18633699 #
1.0000000231766961178436758928001 6:0.043945 8:0.072481997 31:0.063626997 35:0.020671999 39:0.098484002 50:0.111485 63:0.054836001 65:0.076329 76:0.044909999 112:0.032554999 119:0.083089001 122:0.16233 124:0.21889099 126:0.054195002 138:0.075750999 219:0.15394799 225:0.111108 228:0.16906799 238:0.15607101 240:0.05497 244:0.090961002 257:0.090124004 267:0.076918997 268:0.12967999 272:0.101176 276:0.076958001 349:0.153062 350:0.054340001 370:0.052000001 404:0.15028401 482:0.18590701 592:0.078474998 600:0.130366 775:0.217316 828:0.106329 838:0.107163 843:0.134424 977:0.099004 978:0.112872 1012:0.17997 1013:0.156432 1110:0.110541 1133:0.094485998 1368:0.110168 1496:0.167937 1535:0.271043 1601:0.113896 1606:0.142923 1613:0.241129 1825:0.16096599 1906:0.127388 1944:0.185156 2011:0.16096599 3152:0.18711101 14031:0.276503 #
1.0000000231766961178436758928001 1:0.070791997 15:0.042601001 23:0.086056001 35:0.018599 36:0.063382998 37:0.055489 38:0.060139999 44:0.063518003 59:0.101386 64:0.088606 76:0.040405001 84:0.108713 102:0.225292 113:0.072899997 114:0.049187001 119:0.074755996 124:0.119438 126:0.060435999 129:0.118242 138:0.068153001 143:0.058327999 150:0.086266004 169:0.065159999 175:0.127682 182:0.094362997 184:0.090401001 197:0.067305997 221:0.046484001 240:0.083737001 241:0.043763999 248:0.059282999 272:0.150093 350:0.082777999 404:0.24591701 544:0.16723099 570:0.26690999 594:0.105014 625:0.159107 670:0.103424 676:0.069743998 720:0.35839501 759:0.085527003 799:0.160983 855:0.080553003 859:0.30287501 895:0.100137 896:0.084002003 941:0.111131 993:0.110326 1014:0.106054 1101:0.130987 1137:0.123531 1146:0.079772003 2718:0.15211099 3062:0.141765 3063:0.164928 3064:0.248771 3065:0.15426099 3066:0.149159 #
1.0000000231766961178436758928001 1:0.067985997 2:0.086230002 6:0.037969999 23:0.102761 31:0.115372 32:0.077189997 35:0.017860999 36:0.085789002 41:0.049010001 70:0.060061999 88:0.062036 98:0.055587001 113:0.041349001 116:0.19030599 119:0.071791999 122:0.099918 125:0.097525999 126:0.05804 132:0.12349 137:0.048675999 156:0.093562998 203:0.18636 206:0.067625999 240:0.047495998 257:0.203197 261:0.096500002 313:0.063331999 324:0.075799003 340:0.122261 350:0.046952002 404:0.200122 448:0.057177 474:0.072209001 730:0.087295003 838:0.194315 857:0.12531701 910:0.128205 933:0.064055003 941:0.223975 976:0.095028996 1127:0.084215 1398:0.120555 1533:0.109526 1555:0.27662101 1825:0.139079 3450:0.14814501 4686:0.200289 4832:0.256614 9348:0.35268801 10075:0.23890799 10076:0.219598 10077:0.219598 #
1.0000000231766961178436758928001 30:0.157931 31:0.168864 36:0.065220997 45:0.11272 64:0.15437201 71:0.181209 72:0.23372801 143:0.10162 308:0.222451 338:0.14253201 340:0.130999 350:0.144219 410:0.137367 453:0.124219 723:0.095086001 731:0.13794801 1012:0.134423 3832:0.386392 4690:0.307834 9355:0.43341601 9356:0.43341601 #
1.0000000231766961178436758928001 11:0.059794001 13:0.11125 23:0.119491 35:0.020769 36:0.041804001 37:0.061965 41:0.056988999 61:0.100677 85:0.133495 86:0.092083 91:0.069472998 95:0.082842998 107:0.103235 112:0.032708 126:0.032159001 138:0.15972 143:0.065135002 155:0.080782004 203:0.127987 217:0.067648001 239:0.024921 276:0.045667 297:0.091357999 341:0.088891 348:0.13168301 383:0.063750997 402:0.137518 404:0.26270899 410:0.088048004 413:0.125837 419:0.060508002 434:0.13517199 452:0.064190999 458:0.086865999 470:0.074790001 482:0.110316 493:0.074060999 494:0.097552001 530:0.080123 583:0.104905 597:0.079195 616:0.105693 738:0.24130701 828:0.10683 858:0.070211999 994:0.143595 1142:0.159391 1149:0.112407 1374:0.110316 1435:0.119148 1516:0.165538 1609:0.219457 1698:0.142583 1713:0.133514 1806:0.140182 2262:0.154495 2736:0.16454101 10239:0.41010901 10240:0.27780399 #
-1.0000000231766961178436758928001 11:0.018407 31:0.051350001 39:0.079480998 82:0.106356 106:0.109457 112:0.044484999 114:0.044121999 122:0.044472001 124:0.063277997 143:0.052320998 197:0.060375001 203:0.268273 205:0.048478 219:0.052065998 234:0.087599002 240:0.044362999 243:0.072336003 244:0.043357 267:0.062077999 276:0.036683001 393:0.055266999 404:0.17094 410:0.070726 441:0.22319999 470:0.060077 539:0.079378001 595:0.089060999 668:0.061811998 740:0.146203 851:0.176284 859:0.24845199 941:0.099687003 1004:0.106203 1014:0.161073 1140:0.190668 1307:0.121886 1338:0.086214997 1348:0.071404003 1512:0.125284 1555:0.16765 1605:0.12589701 1618:0.106065 1731:0.089212 1950:0.132973 3647:0.53250802 3648:0.316755 3649:0.194566 #
-0.32334684347079811761460632624221 18:0.19549499 19:0.085593 30:0.31726301 31:0.1061 35:0.020359 43:0.071160004 69:0.057287 88:0.070712 94:0.078685001 113:0.047132 150:0.094433002 156:0.097529002 204:0.16028801 205:0.059160002 216:0.127609 238:0.153712 244:0.052910998 342:0.22824501 356:0.084035002 375:0.14507399 404:0.148012 436:0.106728 458:0.085152 523:0.087606996 541:0.114733 722:0.086952001 778:0.072481997 855:0.149299 889:0.20106401 915:0.159426 1026:0.24973699 1032:0.124845 1133:0.15756001 1149:0.110189 1427:0.104399 1540:0.169891 1647:0.31053501 1662:0.21975499 2440:0.20255201 2487:0.30002001 2577:0.170111 4648:0.167667 #
-0.49950640169638310661426316983125 6:0.132836 11:0.020874999 15:0.043338001 35:0.018920001 36:0.038082998 48:0.074970998 69:0.09014 87:0.094024003 105:0.033640999 113:0.074161999 115:0.056373999 126:0.069911003 134:0.077092998 138:0.069333002 142:0.094338 146:0.077706002 149:0.08258 156:0.037981998 197:0.068471 203:0.197412 217:0.061627001 221:0.047288999 229:0.089210004 232:0.036623001 239:0.022702999 258:0.069509 276:0.041602001 326:0.097471997 327:0.138777 351:0.062817998 354:0.061225001 404:0.170491 419:0.055123001 448:0.12710799 544:0.081065997 600:0.119321 621:0.112295 633:0.098393999 668:0.070101 671:0.074551001 716:0.090377003 723:0.055521999 802:0.13376699 807:0.086340003 896:0.085455999 910:0.168331 977:0.090616003 1140:0.090616003 1305:0.100834 1316:0.126873 1555:0.112295 1609:0.118078 4832:0.41894299 8177:0.232622 8178:0.575791 #
-0.096612284408602644436570017205668 11:0.099850997 428:0.46842501 497:0.207995 621:0.53714001 1012:0.37544599 1910:0.54577202 #
-0.073513543640967529690932735775277 1:0.061345 10:0.034334999 11:0.017781001 41:0.044222999 58:0.074662 69:0.045348998 72:0.116252 76:0.035013001 88:0.055977002 90:0.213681 100:0.083945997 150:0.074754 154:0.089621998 241:0.064211003 300:0.056152999 340:0.065157004 370:0.040541999 442:0.23625 450:0.070972003 452:0.049810998 490:0.206947 690:0.085461996 716:0.161559 722:0.116543 740:0.14123701 780:0.094554 789:0.090824001 974:0.14351401 1126:0.062628999 1443:0.131813 1459:0.16986001 1703:0.109881 1805:0.101104 1812:0.14588 2538:0.136757 2601:0.16666 2602:0.187958 2824:0.121621 2882:0.131813 3605:0.144356 3862:0.31709799 4133:0.142919 4167:0.126932 4338:0.397699 6131:0.19814999 6673:0.19814999 12511:0.187958 12512:0.19814999 #
1.0000000231766961178436758928001 15:0.060153998 35:0.026262 102:0.151586 109:0.087715 112:0.041358002 179:0.118895 210:0.116569 232:0.050833002 240:0.069834001 300:0.19202501 321:0.12577599 341:0.19031 413:0.159117 445:0.123984 452:0.081166998 546:0.13679001 588:0.136356 743:0.13995899 792:0.158005 1142:0.119036 1168:0.173888 1172:0.195354 1450:0.133045 1609:0.163894 1910:0.158372 2574:0.246214 7273:0.49861801 7274:0.49861801 #
1.0000000231766961178436758928001 5:0.058091 6:0.031371001 10:0.031438001 12:0.060128 19:0.105041 24:0.077109002 31:0.045419998 37:0.044027001 42:0.058091 44:0.029766001 60:0.046969999 88:0.051254001 105:0.026238 114:0.039027002 169:0.051701002 172:0.069848001 178:0.12952401 197:0.053403001 203:0.090937003 205:0.042879999 219:0.046053998 238:0.065802 239:0.017707 240:0.039239999 244:0.064933002 246:0.078910001 258:0.054212 276:0.054937001 285:0.087582998 313:0.052324001 327:0.045357998 337:0.112716 341:0.063158996 351:0.048994001 352:0.038327999 354:0.047752 392:0.056876998 394:0.071147002 404:0.16534001 413:0.24960899 439:0.107346 450:0.064984001 470:0.05314 527:0.10433 545:0.072222002 570:0.137412 588:0.129729 624:0.131835 635:0.14218999 676:0.055337999 699:0.064765997 792:0.150325 825:0.060128 830:0.16977 835:0.086442001 869:0.153969 874:0.056570999 1040:0.090052001 1075:0.097709 1122:0.079044998 1353:0.069224 1517:0.097709 1670:0.21555801 1866:0.180981 1989:0.125218 2893:0.14438801 3348:0.127312 3509:0.119883 4295:0.14438801 4848:0.320243 7616:0.16547801 7924:0.27148199 13257:0.181431 13562:0.197384 13563:0.197384 13564:0.197384 #
1.0000000231766961178436758928001 11:0.029960001 15:0.050182 23:0.028529 32:0.055920001 35:0.012939 36:0.026044 42:0.050935999 43:0.045226 44:0.044190999 45:0.045012001 61:0.062723003 87:0.024642 93:0.119335 105:0.023007 122:0.034492001 144:0.055321001 145:0.072200999 164:0.040809002 169:0.045333002 172:0.12853099 197:0.079283997 202:0.058033001 208:0.037043002 219:0.040382002 279:0.152574 282:0.099675 298:0.16076399 300:0.045083001 301:0.172547 313:0.045880001 351:0.042959999 370:0.055110998 382:0.079153001 385:0.037067 387:0.054912999 399:0.079540998 404:0.15510701 410:0.054855 413:0.078397997 419:0.063827999 426:0.055558998 428:0.066972002 448:0.041421 457:0.054512002 470:0.046595 474:0.052312002 497:0.087605 504:0.058511 518:0.068728 545:0.063327998 567:0.076289997 588:0.113752 611:0.061484002 668:0.047940999 676:0.082156003 678:0.118424 681:0.17079701 713:0.150443 750:0.087626003 766:0.105827 767:0.16525 840:0.074382 851:0.080752 858:0.043742999 874:0.049603999 892:0.086488001 978:0.070652001 1064:0.085152 1126:0.050282001 1348:0.055380002 1374:0.068728 1423:0.083181001 1432:0.075796001 1491:0.082717001 1500:0.089143999 1574:0.096252002 2089:0.094949998 2306:0.077316999 4006:0.114744 5907:0.136916 6132:0.124683 7721:0.150904 9423:0.57892698 9925:0.159087 13031:0.173076 13032:0.173076 #
1.0000000231766961178436758928001 11:0.016695 12:0.061657 18:0.1177 35:0.015132 44:0.030523 95:0.060359001 99:0.040509 109:0.15564001 114:0.040019002 144:0.154384 169:0.053015999 170:0.069248997 205:0.074449003 315:0.055218998 560:0.064695999 625:0.129453 632:0.11594 670:0.084147997 716:0.072281003 722:0.064626999 789:0.085276 803:0.074368998 820:0.117183 837:0.059790999 894:0.053312 901:0.26339599 928:0.071717001 993:0.053015999 1004:0.096329004 1057:0.138909 1097:0.119178 1484:0.30346701 1497:0.170709 1824:0.085276 1932:0.096468002 1978:0.117183 1995:0.186046 2017:0.13170201 2494:0.29879999 2672:0.124619 3157:0.13291299 3371:0.102819 3584:0.345054 3723:0.115343 4315:0.153328 4325:0.253353 5901:0.176476 6193:0.29879999 6194:0.169687 #
1.0000000231766961178436758928001 10:0.033961002 35:0.015941 69:0.044854999 85:0.060516 100:0.17425101 104:0.074945003 112:0.025103999 120:0.108315 122:0.071947001 123:0.059112001 126:0.024683001 133:0.136372 155:0.062003002 156:0.054182 165:0.104904 205:0.078428 221:0.039841998 240:0.042389002 241:0.037510999 325:0.089148 327:0.082960002 370:0.040100001 383:0.048930999 392:0.061441999 393:0.052808002 397:0.065468997 404:0.068447001 410:0.067579001 411:0.160549 465:0.17492899 468:0.13128 552:0.075162001 560:0.068154 568:0.18137699 590:0.168676 611:0.075746998 668:0.140939 700:0.093579002 726:0.1008 773:0.101346 906:0.0656 941:0.095252 974:0.083838001 1103:0.107242 1130:0.212686 1142:0.072255 1267:0.135267 1399:0.105879 1429:0.107242 1540:0.078564003 1583:0.15239701 1659:0.120894 1671:0.11359 1703:0.108683 1863:0.097990997 2695:0.28995401 2758:0.147609 3209:0.16484299 3377:0.215124 3635:0.140017 4152:0.155975 4154:0.144289 5105:0.256414 8008:0.168676 8870:0.19599 9733:0.158595 13518:0.21322399 #
-0.6214458485902004669654274948698 9:0.048861999 12:0.127306 17:0.153056 21:0.101487 24:0.096423998 32:0.167363 35:0.018453 38:0.059670001 41:0.050634 48:0.073119998 60:0.058736 65:0.115366 67:0.129963 75:0.050983001 85:0.070052996 116:0.070427001 144:0.25224501 169:0.064650998 180:0.077179998 190:0.101672 219:0.05759 233:0.100939 291:0.102616 321:0.088377997 323:0.091462001 350:0.048508 353:0.083443999 354:0.059712999 370:0.046418998 374:0.121808 404:0.166281 453:0.070742004 465:0.143677 477:0.312336 543:0.109279 567:0.108799 624:0.27182901 661:0.095812 671:0.072709002 699:0.080989003 705:0.089208998 764:0.098178998 773:0.117318 840:0.222616 858:0.130917 874:0.14846 1054:0.114867 1142:0.083641998 1150:0.114867 1449:0.126684 1501:0.100939 1579:0.117 1670:0.334104 2330:0.13541 2867:0.15920199 4567:0.16888601 5443:0.226877 #
-0.32419801163599237803225605603075 6:0.070710003 9:0.088073999 10:0.041852999 11:0.045487002 15:0.076188996 23:0.043313999 35:0.019645 38:0.063524999 41:0.113126 44:0.039625999 48:0.077843003 57:0.107076 76:0.042679001 82:0.125239 87:0.078515001 100:0.102326 105:0.034929998 109:0.183183 112:0.030937999 123:0.072848998 126:0.030418999 143:0.061609998 172:0.28634501 197:0.071093999 202:0.088109002 204:0.091348 212:0.080522001 221:0.049100999 237:0.12324 239:0.023573 242:0.117121 246:0.105051 247:0.082590997 284:0.10523 325:0.109864 354:0.063570999 410:0.083283 497:0.076444 568:0.106511 572:0.101049 635:0.1118 655:0.10559 780:0.068071999 859:0.122602 869:0.20497499 894:0.069211997 906:0.080844 1142:0.089045003 1151:0.120763 1225:0.16393299 1398:0.132597 1432:0.115077 1630:0.29496399 1806:0.132597 1945:0.16414499 2022:0.131311 2063:0.186634 2247:0.16670001 2497:0.15052 5131:0.172554 8728:0.44491199 #
-0.61871255590883289521286769740982 6:0.042911999 9:0.05345 10:0.043005001 15:0.046236999 31:0.130389 35:0.020186 48:0.079985999 58:0.093514003 59:0.11004 98:0.062821999 99:0.054039001 113:0.111513 116:0.077040002 119:0.226513 126:0.052921999 128:0.135555 129:0.128334 130:0.1411 156:0.040523 160:0.100481 170:0.092377 239:0.024220999 256:0.068710998 267:0.075111002 268:0.126632 272:0.098797999 276:0.044385001 327:0.062045999 352:0.052429002 393:0.066871002 395:0.10383 401:0.099347003 413:0.122304 434:0.077592999 493:0.151061 513:0.129402 544:0.086488001 631:0.199485 652:0.144417 660:0.144417 789:0.113756 803:0.099207997 807:0.054405 828:0.10383 843:0.131265 857:0.23979899 908:0.20107301 1126:0.132815 1127:0.095177002 1427:0.103511 1571:0.29984599 2262:0.31512201 2380:0.15807 2628:0.204537 2767:0.15718301 6384:0.22635899 9405:0.22635899 #
-0.083221858585727628843109471290518 10:0.038192999 35:0.030354001 36:0.061096001 41:0.049191002 45:0.062364001 49:0.064397998 63:0.047556002 64:0.085408002 76:0.038947001 112:0.028232999 113:0.041501999 114:0.047412001 128:0.071102999 208:0.086897001 236:0.040096 239:0.021511 248:0.057142999 256:0.061023001 272:0.051823001 276:0.039418001 282:0.17171299 310:0.10524 327:0.055103 338:0.165492 354:0.058012001 370:0.045095999 389:0.076976001 572:0.092212997 585:0.16371 656:0.078506 677:0.084964998 738:0.114522 760:0.065146998 803:0.088106997 811:0.074146003 910:0.075999998 1025:0.113058 1127:0.084527999 1130:0.113975 1317:0.209664 1321:0.22800601 1341:0.114923 1663:0.14869399 1760:0.117976 1761:0.44828501 1863:0.110202 2039:0.116921 2123:0.170313 2351:0.14038301 3770:0.157464 4509:0.189694 5197:0.209075 5867:0.209075 10517:0.239794 10518:0.239794 10519:0.239794 #
-0.82820039931874667171740611593123 10:0.047922 35:0.022493999 36:0.045276001 69:0.063293003 73:0.12878101 105:0.039995 116:0.239666 126:0.03483 162:0.107304 184:0.185119 202:0.100884 236:0.085179999 238:0.21049599 240:0.101275 257:0.166042 258:0.139915 276:0.103795 413:0.230753 458:0.094080001 475:0.124852 546:0.117163 585:0.25459999 719:0.099844001 807:0.060624 858:0.076041996 980:0.179285 993:0.078806996 1013:0.170219 1225:0.23265199 1374:0.119477 1617:0.30366999 1948:0.27824599 2711:0.15965199 3377:0.37624899 14023:0.30087301 #
1.0000000231766961178436758928001 2:0.095835 10:0.042291 36:0.039955001 41:0.054469001 45:0.14491799 56:0.075491004 85:0.17982601 99:0.053141002 112:0.031261001 114:0.052498002 142:0.047162998 152:0.167124 155:0.18424501 184:0.096487001 209:0.092767 221:0.049614001 239:0.023819 240:0.052786 248:0.063274004 272:0.097157001 275:0.10148 276:0.104155 357:0.103396 370:0.049934 397:0.171092 402:0.131437 404:0.23795301 414:0.15949801 415:0.093716003 436:0.104061 457:0.083627999 559:0.091173001 570:0.109172 588:0.103068 617:0.098954 719:0.149186 734:0.14631601 787:0.089552 799:0.17182 801:0.17603099 889:0.115785 958:0.12908401 986:0.115785 1004:0.074634001 1012:0.17282 1014:0.191653 1015:0.141449 1026:0.087219998 1104:0.130633 1142:0.089975998 1269:0.12833799 1285:0.150544 1340:0.099529997 1540:0.097833 1570:0.119709 1647:0.116031 1650:0.165646 3628:0.197492 3716:0.172769 4304:0.23150501 4305:0.26551899 #
1.0000000231766961178436758928001 23:0.082057998 35:0.017734 42:0.069812 45:0.061693002 69:0.049901001 83:0.061595999 84:0.103662 97:0.085966997 99:0.080384001 114:0.046902001 162:0.084600002 209:0.082878001 212:0.152549 219:0.093709998 233:0.164248 236:0.083240002 239:0.02128 324:0.075262003 329:0.15577 393:0.058749001 453:0.067987002 508:0.078450002 535:0.135879 596:0.178286 662:0.14605001 668:0.065706998 719:0.078717999 789:0.099941 799:0.23657601 818:0.189686 859:0.110677 895:0.095484003 945:0.094513997 1012:0.17556199 1032:0.25950801 1108:0.08585 1340:0.088919997 1366:0.16626699 1367:0.135179 1450:0.152119 1542:0.183236 1650:0.087403998 1678:0.245671 1941:0.131313 1949:0.12845901 2187:0.137335 2450:0.160523 2850:0.16626699 3147:0.32424799 6721:0.206826 7653:0.19269601 7654:0.19269601 #
1.0000000231766961178436758928001 3:0.074097998 11:0.019142 23:0.038252998 45:0.060354002 61:0.084100999 63:0.046023 99:0.046445999 142:0.069792002 160:0.086361997 169:0.127563 187:0.115967 199:0.081078999 202:0.077812999 209:0.081078999 221:0.043363001 243:0.075226001 257:0.128069 272:0.050152998 290:0.054795001 350:0.045607001 393:0.057473999 404:0.126131 430:0.163353 434:0.066689998 441:0.187269 447:0.111532 482:0.092152998 539:0.082548 588:0.090081997 597:0.066156 699:0.15979999 719:0.214994 799:0.247613 818:0.088425003 851:0.108275 852:0.098153003 894:0.061124001 904:0.199599 951:0.090225004 993:0.060784999 994:0.119953 1007:0.098153003 1012:0.121863 1069:0.088290997 1126:0.067419998 1218:0.094563998 1269:0.189918 1435:0.099531002 1459:0.182855 1610:0.15239 1897:0.128463 2239:0.18358099 2278:0.16975801 2658:0.243369 2850:0.162659 3147:0.13293 3481:0.158786 3727:0.172609 7454:0.18358099 7538:0.23206601 7539:0.23206601 #
1.0000000231766961178436758928001 23:0.102777 27:0.087182999 35:0.026791001 50:0.050402001 60:0.050365999 63:0.041974999 64:0.075386003 65:0.058428001 107:0.078653 115:0.079825997 122:0.042180002 127:0.073946998 139:0.103817 147:0.082551003 182:0.080283001 209:0.073946998 210:0.070235997 219:0.049383 221:0.039549001 241:0.037234001 256:0.053862002 287:0.088660002 327:0.048636999 399:0.097269997 427:0.083085001 474:0.063971996 499:0.093092002 530:0.12810799 570:0.087025002 660:0.113207 671:0.062348001 677:0.074993998 723:0.046434 739:0.083769001 791:0.0766 807:0.072208002 843:0.102897 1142:0.071722999 1217:0.065052003 1303:0.120004 1427:0.081141002 1433:0.088829003 1681:0.087343 1682:0.115605 1868:0.117164 1930:0.20747299 1977:0.106107 1992:0.152474 2088:0.13898601 2184:0.082158998 2555:0.14482 2595:0.132213 2731:0.113207 2788:0.122537 2903:0.14482 2920:0.148351 3063:0.14032 3152:0.39985499 3153:0.16033299 4190:0.14173099 6251:0.14482 6277:0.18454 7712:0.150327 8206:0.44417799 #
1.0000000231766961178436758928001 35:0.022023 41:0.060428999 113:0.106993 116:0.08405 126:0.057737 169:0.077156998 184:0.107045 204:0.102403 216:0.081525996 272:0.1336 276:0.081987001 315:0.080362998 354:0.071263999 370:0.055397999 371:0.130417 385:0.063087001 458:0.25714701 470:0.079304002 475:0.122237 592:0.199503 595:0.117565 596:0.157087 637:0.18890201 676:0.082585 731:0.15874401 770:0.114709 828:0.31624401 909:0.157557 933:0.18847001 1012:0.218013 1234:0.241115 1268:0.095383003 1338:0.192693 1665:0.141975 1788:0.126597 1906:0.135712 2711:0.156308 3357:0.173448 5170:0.45980799 #
-0.84293143817464988298837624824955 19:0.108408 23:0.119314 35:0.025785999 36:0.051902 38:0.083382003 43:0.090127997 44:0.052012999 45:0.234073 49:0.092629001 56:0.098063998 59:0.083021998 69:0.072557002 95:0.102855 126:0.039928 137:0.070274003 142:0.10373 155:0.100297 169:0.090342999 219:0.080475003 232:0.084509999 236:0.057673 240:0.068570003 276:0.056697998 315:0.094097003 370:0.064865999 404:0.11072 458:0.10785 596:0.227979 597:0.16648 699:0.19161899 731:0.26196599 778:0.19265801 811:0.10665 1012:0.106973 1013:0.115249 1026:0.1133 1032:0.158123 1146:0.110601 1456:0.21235999 1650:0.127087 1767:0.179581 1906:0.26904899 2038:0.17828301 2516:0.192719 2577:0.364797 6981:0.28915799 #
-0.077293561356009385376886200447188 3:0.073026001 5:0.067309998 6:0.061544999 11:0.039590999 18:0.094365001 31:0.089107998 32:0.12511601 33:0.110589 37:0.051013999 44:0.03449 91:0.057195999 99:0.077503003 102:0.098696001 123:0.107355 156:0.034325 173:0.129032 180:0.071515001 182:0.086753003 241:0.084438004 282:0.062762998 368:0.116182 385:0.082934 414:0.081142999 418:0.096546002 538:0.108707 588:0.088780001 600:0.107832 677:0.170066 681:0.300246 682:0.071442001 687:0.127791 757:0.124382 928:0.081037998 1268:0.155417 1405:0.090520002 1462:0.156491 1698:0.246347 1764:0.225431 1882:0.176816 2067:0.129032 2306:0.10217 2345:0.154769 3492:0.176816 3493:0.142868 3529:0.27078801 6321:0.199412 10680:0.337634 13634:0.22871 13635:0.22871 #
-0.74007986706431438950204437787761 5:0.094311997 35:0.023957999 45:0.083342999 116:0.191889 121:0.122828 122:0.15239701 315:0.087425999 383:0.073538996 414:0.113694 719:0.106344 858:0.080992997 933:0.085920997 1012:0.09939 1198:0.131523 1217:0.098494001 1419:0.247747 1533:0.14691301 2328:0.22461601 3022:0.20170601 3152:0.455098 3985:0.210435 12631:0.294559 13756:0.32045999 13757:0.32045999 13758:0.32045999 #
-0.072380338505243460578419956163998 9:0.054421 63:0.05452 99:0.055020001 113:0.080559 122:0.114974 131:0.073110998 137:0.056010999 151:0.099224001 156:0.098454997 219:0.108601 232:0.067357004 239:0.024661001 248:0.065512002 271:0.084325001 312:0.15535 315:0.074998997 322:0.080086999 350:0.113381 370:0.0517 383:0.132393 385:0.058876 459:0.222201 508:0.090916999 596:0.086585 607:0.15218 615:0.14587399 622:0.12542 719:0.15446199 737:0.26497701 778:0.15355501 780:0.071216002 818:0.177356 887:0.107052 926:0.121177 991:0.084663004 1121:0.130665 1338:0.10621 1509:0.144749 1612:0.182256 1650:0.29840001 1693:0.196485 1731:0.109903 2501:0.223317 2502:0.23047 2503:0.217473 2504:0.322227 2505:0.23047 #
-0.98974208480278225152915183571167 11:0.015141 14:0.060095001 16:0.060297001 19:0.057693001 31:0.042238999 49:0.049295999 59:0.044183001 63:0.036403 81:0.122737 85:0.10933 100:0.071479 114:0.036293 115:0.040888 145:0.045226 150:0.063652001 155:0.112016 175:0.159513 178:0.071139999 197:0.049662001 214:0.046604998 221:0.07198 236:0.030693 239:0.016465999 341:0.058735002 351:0.045561999 404:0.164501 413:0.083145998 445:0.064787999 453:0.052609 470:0.128951 568:0.074401997 570:0.075473003 581:0.190033 588:0.120641 967:0.075065002 976:0.123621 993:0.048078999 1012:0.119474 1040:0.14179 1041:0.113823 1127:0.064704001 1250:0.188761 1364:0.083742999 1609:0.085642003 1623:0.21032 1670:0.118394 1866:0.099403001 2273:0.12707201 2304:0.078409001 2675:0.13905001 3218:0.125596 3412:0.117398 4195:0.160044 4583:0.36721799 4848:0.240272 5263:0.183558 5264:0.14911 5265:0.183558 5266:0.183558 5267:0.183558 5268:0.183558 5269:0.183558 5270:0.145208 5271:0.183558 #
1.0000000231766961178436758928001 23:0.037058 35:0.016807999 43:0.123285 77:0.104623 108:0.061850999 110:0.15115499 112:0.026469 131:0.059788998 203:0.103575 222:0.077197 232:0.055084001 239:0.020168001 248:0.053574 256:0.096867003 258:0.061747 276:0.096435003 326:0.086586997 397:0.14486399 413:0.17242099 475:0.093291 579:0.13927799 670:0.15825 697:0.087406002 705:0.137574 719:0.074605003 741:0.081363 797:0.074689999 807:0.045299001 825:0.068484001 828:0.086452998 894:0.059215002 921:0.113444 993:0.123578 1012:0.069725998 1013:0.179259 1121:0.106856 1125:0.127931 1217:0.069098003 1342:0.085148998 1374:0.089275002 1420:0.090493999 1549:0.161312 1617:0.304014 1650:0.082836002 2022:0.19021501 2430:0.105439 2719:0.22968499 2767:0.130876 2910:0.177846 3078:0.155634 3377:0.133964 3731:0.188475 4430:0.173805 5848:0.177846 5849:0.206645 5850:0.38064599 #
1.0000000231766961178436758928001 5:0.056506999 11:0.015837001 19:0.060346998 31:0.044181999 75:0.039659001 89:0.056088999 95:0.057255998 112:0.022606 114:0.037962001 121:0.043464001 124:0.054444999 126:0.053038999 144:0.128794 195:0.084633 205:0.041710999 231:0.057039998 239:0.017224001 280:0.144895 300:0.050012998 313:0.050898001 340:0.121787 360:0.246263 386:0.159457 389:0.061634 405:0.065063 415:0.067768 498:0.070945002 550:0.077962004 585:0.077418998 650:0.064985998 705:0.069394 761:0.086363003 769:0.115121 807:0.065503001 810:0.089125 935:0.066009998 941:0.085771002 962:0.077825002 1220:0.119059 1640:0.33981901 1832:0.15597001 1842:0.39645299 2039:0.093617998 2080:0.152069 2253:0.113721 2803:0.115855 3022:0.120851 4257:0.215524 5336:0.15597001 5729:0.14843699 5730:0.50101697 #
1.0000000231766961178436758928001 6:0.043806002 11:0.022735 16:0.090539999 35:0.034889001 41:0.095734 45:0.071682997 49:0.074020997 59:0.066344 65:0.076087996 83:0.071570002 87:0.039243001 112:0.032451998 115:0.146511 123:0.076412 126:0.076140001 131:0.073302001 155:0.080149002 184:0.10016 205:0.059877999 219:0.064309001 238:0.15557601 239:0.024726 248:0.065683 256:0.070142001 276:0.076714002 313:0.073066004 337:0.092960998 338:0.26702201 401:0.101415 413:0.12485 419:0.060033999 428:0.106655 434:0.079209 440:0.089345999 458:0.086185001 470:0.074203998 494:0.096786998 498:0.101844 539:0.098043002 544:0.088289 616:0.104864 671:0.137472 716:0.166655 765:0.111721 786:0.14049099 818:0.105023 828:0.105992 852:0.197383 887:0.107332 1013:0.24032401 1121:0.131006 1217:0.084714003 1468:0.157582 1681:0.19258399 1976:0.156275 1994:0.120192 2026:0.151886 2073:0.14403801 2668:0.17348599 4299:0.179346 5079:0.218041 5232:0.179346 6319:0.22390001 7574:0.275626 #
1.0000000231766961178436758928001 10:0.063570999 36:0.074444003 38:0.056988001 44:0.060189001 87:0.033562999 91:0.099813998 94:0.068112001 104:0.048935998 112:0.027753999 116:0.067261003 137:0.048029002 138:0.18029501 169:0.104543 170:0.136554 205:0.107472 216:0.065241002 224:0.097102001 232:0.057758 236:0.110041 239:0.021147 248:0.056175999 266:0.293966 299:0.100696 315:0.13496301 317:0.096574999 327:0.054170001 354:0.057029001 418:0.099509001 434:0.142168 597:0.067201003 760:0.064043 807:0.047499001 937:0.079134002 1019:0.11144 1171:0.095216997 1353:0.082672998 1417:0.141341 1520:0.100495 1609:0.109985 1753:0.145138 1757:0.130493 2122:0.13647699 2659:0.121415 4837:0.27630699 8275:0.21667901 8699:0.191493 13903:0.235732 13904:0.56252497 #
1.0000000231766961178436758928001 9:0.048521999 10:0.081931002 23:0.084790997 33:0.07 35:0.018324999 44:0.036963001 55:0.090827003 69:0.051562998 76:0.039811 83:0.063647002 93:0.119914 97:0.088829003 108:0.067434996 112:0.028859001 116:0.19524901 126:0.028375 138:0.067151003 149:0.079980999 155:0.071276002 202:0.082188003 208:0.052460998 217:0.059687 223:0.072339997 232:0.035471 240:0.048728999 244:0.047623999 248:0.058410998 260:0.108044 264:0.139681 265:0.121336 272:0.052972 290:0.057875 297:0.13648 352:0.047596 353:0.082865 385:0.052494999 387:0.077767998 440:0.079455003 443:0.061298002 481:0.21936101 499:0.107808 522:0.123281 579:0.089685999 656:0.080247998 661:0.095146999 668:0.067895003 669:0.118817 686:0.226742 693:0.149875 812:0.096376002 837:0.072407 850:0.141147 933:0.111272 972:0.28084099 1142:0.083061002 1149:0.099179 1152:0.10925 1196:0.109004 1313:0.147903 1427:0.093967997 1481:0.13507099 1517:0.205439 1549:0.103875 1666:0.118817 1932:0.116823 2042:0.13057899 2444:0.148872 2736:0.145179 3013:0.176578 3108:0.17930201 4362:0.167714 4563:0.16095699 5259:0.16413601 7735:0.245113 #
-0.012042603595753277254121194062009 7:0.19711199 36:0.070674002 37:0.104758 109:0.117276 163:0.33502799 164:0.18749601 248:0.111921 327:0.107925 354:0.113621 428:0.18173701 445:0.165768 497:0.080697 738:0.132477 776:0.241901 785:0.18145201 807:0.094633996 5698:0.39374 8164:0.469659 8165:0.43169901 #
-0.17948009962479311019123429105093 5:0.114418 11:0.01894 21:0.159852 35:0.017167 36:0.034552999 61:0.140893 87:0.032692 89:0.067077003 99:0.096444003 105:0.051679999 119:0.068999998 126:0.045006 143:0.053837001 239:0.020598 280:0.173282 293:0.117166 311:0.082877003 340:0.145647 350:0.045125999 356:0.070857003 386:0.190697 405:0.077809997 443:0.057422999 498:0.084844001 677:0.17074101 723:0.050375 765:0.093071997 767:0.142252 769:0.137675 910:0.072774999 914:0.078181997 926:0.171369 962:0.157585 1019:0.10855 1461:0.10826 1517:0.113665 1590:0.177517 1798:0.113665 1832:0.186526 1842:0.33775601 3057:0.106586 3076:0.21143299 3529:0.129544 4251:0.263087 4404:0.42014799 4405:0.29450899 #
-0.10819222615972913514870157314363 10:0.035615001 11:0.054335002 15:0.038291 22:0.060648002 44:0.080466002 49:0.060051002 50:0.053247999 51:0.124365 59:0.091130003 89:0.065321997 105:0.029724 108:0.061517999 123:0.061990999 145:0.055093002 158:0.116853 164:0.052723002 184:0.081256002 187:0.26664299 236:0.037388999 240:0.075266004 241:0.066604003 282:0.061363 312:0.07463 320:0.12615301 337:0.075415999 338:0.226445 351:0.055503 354:0.054095998 355:0.12615301 411:0.168367 419:0.048703998 443:0.055920001 481:0.11819 499:0.098348998 545:0.081817001 564:0.29403901 566:0.120584 570:0.15566701 706:0.128085 933:0.101509 983:0.128085 1103:0.112464 1122:0.187922 1125:0.179333 1217:0.116363 1268:0.072403997 1317:0.081931002 1422:0.080926001 1450:0.084691003 1897:0.123781 1998:0.108392 1999:0.13492601 2094:0.229946 2380:0.130906 2388:0.131662 2929:0.13324299 3065:0.23476601 7804:0.19496199 8063:0.18164299 11068:0.22360601 11069:0.22360601 #
-0.99391755233569389904602076057927 1:0.062854998 7:0.092699997 10:0.035179999 11:0.043476 15:0.037824001 19:0.069422998 35:0.016512999 37:0.049267001 38:0.053397 49:0.059317999 76:0.035875 91:0.055236999 112:0.044031002 119:0.066372998 122:0.044018 126:0.025568999 137:0.045001999 138:0.060511999 184:0.16844399 208:0.047274001 219:0.051534999 221:0.041271999 225:0.088756002 240:0.043910999 267:0.061443999 272:0.047734998 276:0.086643003 310:0.096937999 397:0.114828 434:0.063474998 475:0.091655999 508:0.073048003 596:0.117788 628:0.097574003 670:0.091826998 689:0.13696399 738:0.062302999 761:0.099350996 806:0.109679 828:0.143813 947:0.222846 1004:0.062086001 1012:0.068503998 1013:0.073803999 1226:0.132434 1318:0.13599201 1342:0.083656996 1424:0.088453002 1448:0.111091 1477:0.092523001 1549:0.28824899 1669:0.082555003 1771:0.12586901 2011:0.128583 2022:0.110376 2094:0.134152 2120:0.17076001 2415:0.147907 2577:0.13797399 2711:0.117203 2769:0.14643499 3491:0.109679 4036:0.159119 6222:0.203025 6457:0.185173 6458:0.22087701 6459:0.37397701 6460:0.17076001 6461:0.17473 #
-0.1541535710974923922833568212809 10:0.035613 11:0.038704999 12:0.068112001 36:0.070611 45:0.098458998 68:0.103791 70:0.056212999 99:0.075769998 105:0.029722 116:0.10802 126:0.054320998 174:0.092441 199:0.078120001 233:0.091439001 239:0.020058 240:0.093286 248:0.053284001 276:0.062233001 315:0.061000001 338:0.191875 370:0.04205 385:0.047887001 397:0.068654001 448:0.053512 465:0.076871999 478:0.103529 545:0.081813 699:0.073367 783:0.065989003 818:0.144252 825:0.068112001 828:0.205183 1004:0.062849998 1013:0.178286 1126:0.109986 1130:0.27732101 1154:0.108075 1240:0.109023 1341:0.10716 1426:0.102507 1450:0.084687002 1478:0.190409 1509:0.117731 1549:0.094756998 1663:0.23475499 1666:0.108387 1756:0.086386003 1933:0.11138 2271:0.137666 2272:0.133237 2323:0.121601 2711:0.118646 3030:0.136718 3606:0.133237 4754:0.152991 7102:0.347983 7103:0.37858099 7104:0.19495299 #
1.0000000231766961178436758928001 2:0.099367 10:0.074243002 15:0.047143999 23:0.095234998 30:0.26177201 31:0.132948 35:0.020582 36:0.041428 43:0.071938999 45:0.150259 59:0.066266999 75:0.056864999 81:0.087716997 89:0.080424003 99:0.055100001 113:0.080674998 114:0.054432999 126:0.066881999 142:0.048900999 155:0.080054998 179:0.093181998 219:0.108757 232:0.039840002 272:0.059496999 276:0.045256 324:0.087347001 350:0.054104999 370:0.051775001 404:0.14963201 419:0.12584101 588:0.180941 594:0.116214 596:0.14681201 676:0.077183001 721:0.104427 731:0.087623999 737:0.111201 778:0.17485701 874:0.078904003 895:0.110817 993:0.122093 1012:0.085385002 1013:0.091990001 1026:0.215803 1032:0.126212 1146:0.08828 1403:0.130853 1428:0.169503 1647:0.20369899 1650:0.101439 1656:0.188372 1740:0.129457 1888:0.132688 1906:0.126835 2703:0.208551 3727:0.42973301 4333:0.25305301 #
1.0000000231766961178436758928001 10:0.033762999 11:0.017485 18:0.051656 22:0.137197 35:0.015848 39:0.075501002 42:0.062385 43:0.055390999 44:0.031966001 48:0.062795997 69:0.044592999 70:0.053291 75:0.043784998 76:0.034428999 81:0.067539997 85:0.060162 97:0.076820999 113:0.036688 122:0.110234 126:0.024538999 137:0.043189 142:0.037652001 155:0.061640002 160:0.078886002 239:0.019016 250:0.074153997 256:0.053943999 267:0.058968998 276:0.058998998 290:0.050051 300:0.093488999 310:0.093032002 314:0.094911002 404:0.115213 449:0.106965 457:0.066763997 485:0.098149002 565:0.114313 596:0.159319 607:0.117343 615:0.112481 676:0.059429001 688:0.106965 707:0.083621003 859:0.098902002 993:0.116521 1007:0.188154 1012:0.111314 1013:0.070830002 1014:0.090368003 1178:0.098649003 1209:0.079000004 1217:0.065151997 1338:0.081896998 1450:0.080286004 1561:0.086531997 1650:0.078105003 1659:0.120187 1732:0.115781 1863:0.097419001 2354:0.12790801 2403:0.112926 3234:0.126313 3621:0.157667 3622:0.177711 3915:0.29155299 4685:0.152707 6097:0.157667 8723:0.40890199 9241:0.18482199 12956:0.21197701 12957:0.21197701 12958:0.21197701 #
1.0000000231766961178436758928001 11:0.019083999 14:0.128252 35:0.017297 36:0.034816001 41:0.080362 45:0.060173001 105:0.052074 108:0.063653998 113:0.040043999 123:0.064143002 134:0.070479997 145:0.057006001 239:0.043558002 244:0.044953998 273:0.086983003 276:0.038033001 295:0.114889 322:0.067403004 337:0.078033999 393:0.057301998 419:0.050393999 470:0.062289 497:0.039754 508:0.076517001 552:0.138089 568:0.158786 596:0.072871998 611:0.139164 631:0.081453003 638:0.117932 665:0.138983 685:0.094279997 697:0.188778 700:0.101543 723:0.050758999 771:0.083062999 777:0.079447001 778:0.104266 780:0.059937 806:0.19452401 1015:0.123257 1092:0.193322 1169:0.120909 1289:0.115251 1601:0.095303997 1615:0.104556 1706:0.150548 1736:0.088698998 1971:0.242916 2385:0.118338 2639:0.27813101 4046:0.278234 4167:0.136232 4377:0.31822401 4578:0.166677 5150:0.15493301 6144:0.166677 6336:0.23136801 6337:0.23136801 #
1.0000000231766961178436758928001 8:0.065302998 10:0.067180999 15:0.042660002 18:0.102786 30:0.090774998 31:0.097060002 50:0.059323002 63:0.049405001 65:0.068769999 69:0.052406002 75:0.051456001 76:0.068507999 85:0.070703 99:0.049858999 104:0.051715001 121:0.134573 142:0.044248998 155:0.072440997 178:0.251939 184:0.090526998 200:0.205662 211:0.100276 225:0.16949099 226:0.05962 240:0.049525 267:0.069301002 312:0.083144002 370:0.04685 404:0.167824 426:0.1354 516:0.149367 539:0.088614002 561:0.093245998 572:0.095798001 588:0.202939 665:0.088382997 741:0.090158999 825:0.075887002 837:0.073591001 839:0.13218901 893:0.154476 894:0.065615997 906:0.076642998 935:0.085646003 975:0.090899996 976:0.099090002 982:0.155616 986:0.108633 1037:0.108403 1140:0.089198001 1156:0.117144 1305:0.099257 1456:0.25969499 1461:0.117454 1473:0.137903 1493:0.16209801 1515:0.090899996 1609:0.116231 1777:0.217205 1843:0.159329 1899:0.15338001 2403:0.13271201 2718:0.15232401 4310:0.20236699 4832:0.15803801 14290:0.249118 #
1.0000000231766961178436758928001 3:0.066160999 6:0.055757999 10:0.055879001 35:0.026229 38:0.050092001 49:0.055647001 68:0.096184 85:0.058807999 105:0.057804 126:0.040612999 128:0.061441001 142:0.036805 143:0.048583001 147:0.080817997 162:0.073899001 206:0.099307999 214:0.052609999 217:0.050457001 223:0.061152998 232:0.071553998 236:0.034646999 239:0.018588001 292:0.164335 346:0.099868 350:0.040722001 370:0.038968001 389:0.066515997 397:0.063621998 433:0.057151999 443:0.087737001 479:0.102572 517:0.102572 592:0.058807999 611:0.07361 627:0.077111997 734:0.114183 736:0.219154 811:0.064070001 885:0.070384003 1069:0.078833997 1098:0.12503099 1198:0.085042 1284:0.19332901 1364:0.16005901 1450:0.13287701 1669:0.077445999 1935:0.11808 2165:0.088335 2198:0.32781199 2328:0.145235 2380:0.121306 2661:0.116332 3104:0.232592 5299:0.168322 5737:0.15412 5973:0.54069602 5974:0.19046099 5975:0.160192 #
-1.0000000231766961178436758928001 10:0.042116001 18:0.064436004 36:0.039790001 37:0.058979001 50:0.062967002 60:0.062922999 63:0.052439999 83:0.068660997 99:0.052921001 107:0.098261997 115:0.099728003 205:0.057443 220:0.149179 221:0.049408998 238:0.088150002 239:0.02372 240:0.052568 248:0.063011996 258:0.072623998 267:0.073558003 280:0.117856 303:0.130092 315:0.12214 354:0.063969001 392:0.076194003 393:0.065488003 394:0.095311001 404:0.27138501 434:0.21214201 448:0.063282996 738:0.156526 804:0.100601 858:0.066830002 936:0.139763 958:0.12855101 978:0.10794 993:0.165273 1004:0.074325003 1012:0.138854 1026:0.26747799 1340:0.099119 1569:0.145711 1647:0.242498 2117:0.170551 3450:0.163965 3628:0.196675 3727:0.333 5897:0.37533301 8437:0.243049 #
-1.0000000231766961178436758928001 10:0.076888002 15:0.048824001 36:0.042904001 37:0.063594997 69:0.059978001 76:0.046308 85:0.137008 106:0.13984901 109:0.169891 112:0.033567999 114:0.1471 116:0.137739 126:0.033004999 137:0.058090001 138:0.078110002 155:0.140375 181:0.084381998 184:0.103607 190:0.117443 192:0.101022 204:0.167816 213:0.11379 221:0.053275 224:0.117443 236:0.080718003 238:0.095048003 239:0.025576999 240:0.056681 276:0.046868 310:0.12513 313:0.127969 317:0.116805 325:0.119204 350:0.056031998 357:0.111026 404:0.192073 415:0.100632 434:0.17195 457:0.089799002 572:0.10964 616:0.108474 682:0.089060001 701:0.102358 723:0.105906 780:0.073859997 799:0.108969 837:0.084224001 964:0.118533 993:0.074679002 1012:0.29203701 1119:0.110326 1168:0.14113601 1269:0.28920799 1342:0.107986 1427:0.109303 1647:0.21095601 2089:0.156414 3516:0.19092201 4004:0.225545 12979:0.28511301 #
-0.74461787458262451711021867595264 12:0.062297001 15:0.035021 41:0.041951999 50:0.048698999 51:0.067178003 71:0.085502997 85:0.098272003 88:0.089910999 105:0.027185 126:0.023674 142:0.061503999 145:0.050386999 155:0.100688 202:0.068572 214:0.051922999 221:0.038213 239:0.018346 256:0.088115998 266:0.106871 272:0.044195998 313:0.054212 402:0.101234 404:0.156656 426:0.111152 572:0.078643002 579:0.074827999 580:0.13839 611:0.07265 616:0.077806003 686:0.21511 765:0.082892999 787:0.068974003 793:0.105707 812:0.080410004 813:0.082748003 822:0.096938998 823:0.117143 837:0.060412001 912:0.146166 914:0.069632001 1019:0.096678004 1126:0.059413001 1142:0.117336 1151:0.093984999 1152:0.091150001 1169:0.106871 1317:0.126871 1321:0.074519001 1348:0.065436997 1353:0.071722001 1446:0.099715002 1468:0.069054998 1617:0.086496003 1666:0.099133 1765:0.108516 1932:0.097469002 1971:0.126812 2892:0.122618 4046:0.42789301 4225:0.14732499 5481:0.154919 6144:0.14732499 6203:0.158103 6348:0.178308 6557:0.17144699 6758:0.149597 11251:0.39449 #
-1.0000000231766961178436758928001 35:0.036495999 41:0.23897099 48:0.144614 69:0.102693 104:0.10134 126:0.118595 198:0.27586201 261:0.197181 351:0.121172 404:0.37394699 523:0.15704399 797:0.274598 1154:0.235955 1305:0.194502 1420:0.196499 1561:0.199277 2639:0.586833 #
-0.096393121967738859545704599440796 16:0.062547997 35:0.014235 69:0.040056001 75:0.039329998 81:0.060669001 112:0.022419 114:0.037648 126:0.022042001 148:0.088164002 156:0.028577 205:0.041365001 216:0.052698001 231:0.056566998 232:0.046654001 236:0.066817001 239:0.017081 241:0.033498 257:0.16195001 293:0.057385001 364:0.17765801 384:0.086456001 397:0.122696 449:0.096083999 656:0.062339 775:0.088386998 780:0.049327001 817:0.076778002 926:0.083931997 929:0.072554 937:0.063920997 941:0.085060999 951:0.176659 952:0.080853 1101:0.100259 1209:0.070963003 1257:0.108509 1398:0.096083999 1424:0.076252997 1480:0.40269101 1481:0.104928 1482:0.297914 1665:0.155385 1694:0.15042 1906:0.087724999 2006:0.089303002 2294:0.112117 2551:0.088840999 4258:0.16602001 4630:0.121782 5293:0.154678 6149:0.154678 6153:0.15063 9344:0.27028099 9345:0.190412 9346:0.190412 9347:0.16602001 9348:0.28109601 9349:0.190412 #
1.0000000231766961178436758928001 3:0.158472 10:0.079051003 11:0.024179 23:0.048317999 35:0.021915 76:0.113612 93:0.084697001 100:0.114148 116:0.26741201 119:0.088086002 126:0.033934001 142:0.088156998 156:0.043993998 183:0.108313 203:0.135049 221:0.054774001 222:0.100655 226:0.070153996 231:0.087082997 239:0.026296001 244:0.096431002 272:0.151171 324:0.093002997 327:0.114051 330:0.119661 340:0.088598996 350:0.057608001 353:0.099097997 387:0.093002997 397:0.090005003 433:0.080851004 443:0.073307 445:0.103462 481:0.154939 508:0.096943997 519:0.13278 544:0.093896002 546:0.114148 686:0.12921 699:0.096183002 721:0.18826 723:0.064309001 731:0.093298003 803:0.107705 837:0.146614 874:0.084013 933:0.13307101 1033:0.115445 1312:0.128098 1338:0.23767 1427:0.112377 1469:0.12782601 1481:0.161532 1549:0.324157 1641:0.140486 1932:0.139709 3886:0.21803001 7315:0.25558099 7625:0.23188899 #
1.0000000231766961178436758928001 8:0.149297 11:0.033333 35:0.017843001 38:0.057698 42:0.070240997 57:0.097254999 104:0.083889 112:0.047578 122:0.080532998 234:0.093690999 236:0.039907999 239:0.02141 248:0.056876 276:0.082336001 282:0.065497003 291:0.099225 293:0.187693 309:0.144959 313:0.063268997 354:0.057739999 387:0.075723998 392:0.068774998 420:0.086029001 422:0.099977002 452:0.055148002 497:0.139342 504:0.192542 669:0.115695 887:0.092941001 1225:0.087940998 1237:0.29439101 1558:0.124265 1601:0.098311998 1632:0.14221901 1641:0.19367 1731:0.095416002 2022:0.119267 4095:0.165226 4103:0.15141 6046:0.20009001 7093:0.66631198 #
1.0000000231766961178436758928001 9:0.034120001 27:0.070997998 35:0.012886 36:0.025937 42:0.050726 94:0.104515 100:0.067119002 104:0.035781 113:0.077843003 116:0.103208 119:0.051794 122:0.058159001 126:0.033783 137:0.035117999 146:0.052923001 162:0.061471 181:0.086370997 224:0.14899801 239:0.015462 240:0.034265999 267:0.081183001 276:0.059461001 358:0.094981 419:0.063564003 432:0.099252999 434:0.083866 606:0.25691101 622:0.078635 628:0.076141998 794:0.068331003 888:0.073044002 933:0.078244999 947:0.102707 958:0.083795004 1006:0.096306004 1013:0.120865 1019:0.081482001 1298:0.15545399 1349:0.126724 1449:0.088463999 1505:0.119321 1555:0.129492 1651:0.091458999 1659:0.097726002 1704:0.23812599 1761:0.115419 2067:0.097240999 2184:0.066905998 2405:0.13635001 4167:0.101488 4458:0.126084 4630:0.110237 4811:0.12820099 4812:0.172361 4813:0.29183301 4814:0.13325199 4815:0.172361 4816:0.172361 4817:0.172361 4818:0.172361 4819:0.172361 4820:0.130568 4821:0.268246 4822:0.172361 4823:0.172361 4824:0.172361 4825:0.122419 #
1.0000000231766961178436758928001 8:0.053211998 10:0.032331999 11:0.028349999 18:0.083755001 23:0.033459999 31:0.098027997 35:0.015176 75:0.041928999 94:0.058653001 107:0.075434998 112:0.040465999 113:0.059485 116:0.098066002 119:0.060998999 138:0.094159 156:0.030464999 209:0.070922002 221:0.037930999 276:0.070028 297:0.113027 311:0.073266998 324:0.064405002 340:0.061354 341:0.064952999 354:0.049109001 404:0.155497 437:0.288279 448:0.048581 450:0.066831 452:0.046905 470:0.092529997 493:0.091627002 532:0.083313003 556:0.099569 638:0.103469 686:0.089478001 723:0.044534001 729:0.17017999 730:0.12558401 751:0.129829 857:0.106479 858:0.051304001 887:0.079048 933:0.054426 991:0.062514998 1012:0.062958002 1065:0.099871002 1149:0.082135998 1200:0.125875 1340:0.076091997 1396:0.101765 1398:0.102432 1426:0.157566 1431:0.129829 1557:0.098687001 1897:0.11237 2080:0.094956003 2179:0.150985 2693:0.12096 3152:0.288279 3666:0.19687501 3941:0.113422 5209:0.27919701 5945:0.18658701 6176:0.13889401 7053:0.34369701 7054:0.20299301 7055:0.18658701 #
1.0000000231766961178436758928001 10:0.041939002 35:0.019686 44:0.039708 48:0.132072 61:0.095426001 69:0.055392001 74:0.119274 75:0.054389 76:0.089752004 81:0.083897002 92:0.098993003 95:0.078521997 102:0.238463 108:0.072443001 112:0.031002 113:0.045573 114:0.052062001 116:0.075130999 126:0.030482 138:0.072137997 142:0.098154001 164:0.10512 180:0.082335003 190:0.108463 199:0.091996998 209:0.091996998 217:0.064120002 232:0.038104001 239:0.023621 241:0.046323001 256:0.067009002 276:0.090838 300:0.068589002 350:0.1086 410:0.083454996 453:0.075466998 477:0.104215 482:0.219436 577:0.136106 635:0.26733699 686:0.116067 707:0.103872 723:0.057767998 780:0.068213001 811:0.081418999 813:0.106544 823:0.25537801 830:0.133761 831:0.162121 835:0.115315 840:0.113163 902:0.15787899 906:0.081010997 907:0.12727299 908:0.115814 974:0.103533 977:0.094281003 1037:0.114581 1126:0.076499 1133:0.089979 1491:0.125844 1779:0.125844 2039:0.128389 2335:0.287559 2508:0.137604 3129:0.180168 9733:0.195852 10890:0.26331499 #
-0.10359614904196554063808832779614 5:0.068216003 8:0.14499301 10:0.062508002 70:0.058272999 77:0.107869 103:0.167643 104:0.081471004 105:0.030812001 112:0.02729 115:0.051631998 137:0.079960003 149:0.075634003 156:0.034786999 209:0.16995201 219:0.091567002 226:0.093924999 232:0.033543002 239:0.035206001 257:0.075549997 287:0.097094998 314:0.103782 325:0.09691 373:0.139864 389:0.125982 438:0.147045 484:0.087398998 497:0.117324 505:0.102622 508:0.12979101 551:0.150822 552:0.081707001 560:0.074088998 592:0.065784998 611:0.082341999 665:0.082235999 677:0.082129002 696:0.12660301 730:0.084693998 773:0.110171 783:0.068407997 957:0.155215 975:0.14320201 1256:0.108709 1450:0.25862199 1469:0.101077 1506:0.147045 1507:0.147045 1641:0.111087 1900:0.118966 2388:0.136481 2595:0.14479101 3134:0.155215 4490:0.155215 5310:0.202097 5311:0.23179001 5312:0.179197 5313:0.213056 5314:0.179197 5315:0.213056 5316:0.194322 5317:0.188291 #
-0.059383124283651542163475767210912 3:0.204588 10:0.036556002 16:0.075392 42:0.067546003 44:0.034611002 64:0.081747003 80:0.102998 104:0.080669999 112:0.045752998 126:0.044985 138:0.062876999 142:0.040766999 154:0.20024399 206:0.064966999 208:0.049121998 221:0.042886 236:0.122699 239:0.020589 241:0.040376 275:0.087719001 293:0.069168001 350:0.045104999 352:0.044566002 368:0.11659 370:0.043163002 419:0.049989998 439:0.124819 443:0.097181 456:0.21715499 470:0.061788999 474:0.069370002 489:0.125911 498:0.084804997 560:0.073361002 561:0.085908003 588:0.089091003 661:0.089091003 693:0.29451099 723:0.085253 726:0.1085 822:0.108793 852:0.097073004 885:0.077959999 954:0.111255 1090:0.158886 1126:0.066679001 1146:0.073596999 1433:0.096325003 1436:0.270417 1481:0.40436801 1557:0.11158 1698:0.117797 1731:0.091755003 1932:0.109387 2065:0.284264 2480:0.200112 2812:0.291767 #
-0.28755071819678107436502045857196 5:0.075923003 10:0.041088998 11:0.021279 35:0.019286999 36:0.081468001 37:0.057542 43:0.067410998 44:0.065867998 63:0.051162001 65:0.071214996 91:0.064515002 113:0.044649001 169:0.067570999 184:0.093745999 271:0.079131 276:0.042406999 282:0.070794001 287:0.108064 321:0.092370003 410:0.081762999 579:0.094393 596:0.081252001 635:0.109759 676:0.072324999 716:0.092125997 722:0.082370996 777:0.088583 778:0.116257 807:0.051980998 937:0.086600997 958:0.12541699 1069:0.166181 1140:0.092370003 1221:0.131494 1659:0.146268 1756:0.099668004 2731:0.28957301 2788:0.14935599 2998:0.155664 4313:0.19542401 4811:0.191881 5882:0.23712499 5883:0.324882 5884:0.436791 5885:0.257976 5886:0.185844 5887:0.257976 #
-0.10092726156087519773230098962813 8:0.070990004 35:0.020245999 36:0.085522003 38:0.110847 65:0.195077 93:0.078248002 105:0.035999 127:0.094616003 129:0.128718 137:0.093422003 164:0.063853003 208:0.057960998 212:0.082985997 239:0.024294 256:0.068916999 292:0.072907999 322:0.078893997 327:0.062231001 370:0.050930001 441:0.129071 454:0.113225 469:0.139484 482:0.107539 491:0.224654 492:0.206525 494:0.16101301 497:0.097649999 508:0.089561999 559:0.092991002 572:0.104141 668:0.075014003 770:0.105457 858:0.068444997 894:0.199136 903:0.120704 945:0.226441 975:0.207377 977:0.164177 1004:0.076122001 1171:0.109387 1237:0.29376599 1305:0.1079 1334:0.122095 1427:0.10382 1641:0.129788 1648:0.397883 1682:0.147917 1892:0.25997499 2002:0.19509199 #
-0.023206119312127973519643830968562 23:0.083513997 61:0.076944001 95:0.151088 102:0.155129 112:0.05246 113:0.036747001 144:0.067864999 216:0.058761001 226:0.050813001 232:0.030725 236:0.060109001 244:0.041251998 276:0.091073997 284:0.085024998 336:0.074272998 370:0.039928999 448:0.050813001 462:0.12730201 464:0.067363001 493:0.056603 637:0.136154 725:0.25155401 895:0.085463002 899:0.103524 933:0.148545 975:0.077472001 978:0.086671002 1037:0.092390001 1234:0.14021 1542:0.16400599 1606:0.185816 1913:0.101192 1926:0.105101 1970:0.135792 2009:0.098807 2171:0.105101 2193:0.29540199 2306:0.094847001 2919:0.128114 3480:0.243265 4230:0.228053 4794:0.16083699 6005:0.155312 6251:0.24597099 6823:0.405278 7049:0.185119 7050:0.152953 7051:0.167959 #
1.0000000231766961178436758928001 3:0.063992001 10:0.031920999 11:0.016531 23:0.055934001 35:0.014983 37:0.044702999 48:0.059370998 70:0.050384998 97:0.072631001 99:0.040111002 104:0.041604999 105:0.026641 126:0.039282002 136:0.144373 156:0.030079 169:0.052494001 190:0.139777 239:0.017979 240:0.039843 290:0.047322001 315:0.054676 351:0.049747001 404:0.179608 410:0.151577 412:0.250624 426:0.064335003 440:0.064966001 452:0.046309002 482:0.079585001 527:0.105932 588:0.077795997 631:0.14807101 687:0.111982 688:0.101131 708:0.098903999 709:0.107196 777:0.068818003 814:0.149068 933:0.053734999 993:0.052494001 1137:0.099518999 1167:0.36775801 1175:0.149068 1200:0.29655901 1348:0.064129002 1435:0.085956998 2989:0.14047401 3779:0.13713001 4335:0.120932 4800:0.14047401 9276:0.16280399 11841:0.168019 13676:0.52297097 #
1.0000000231766961178436758928001 10:0.040522002 23:0.10943 39:0.090616003 45:0.066165999 56:0.072333999 60:0.060541 62:0.068549 63:0.050455 76:0.069963999 87:0.036222 91:0.063624002 94:0.073509999 95:0.075868003 115:0.056671999 121:0.057592999 126:0.049865998 137:0.051835001 143:0.059650999 169:0.066638 216:0.119216 224:0.17743701 232:0.036816001 236:0.072026998 239:0.022823 240:0.050577998 244:0.083694004 258:0.069876 272:0.115386 280:0.113395 317:0.104228 352:0.049401999 370:0.047846001 392:0.073311001 404:0.21311 434:0.123791 485:0.24721199 508:0.084138997 523:0.138576 533:0.104228 652:0.136078 721:0.163394 723:0.055815 778:0.14210799 813:0.102942 855:0.082379997 859:0.28325701 958:0.123685 1014:0.108459 1269:0.12297 1279:0.153515 1307:0.13896 1413:0.13777301 1822:0.178323 2006:0.20202599 2022:0.127134 2080:0.119009 2154:0.15663999 2191:0.130578 2330:0.13957199 2535:0.121929 2592:0.16706499 2689:0.22182199 3233:0.17612401 5952:0.21328799 7471:0.20126 #
1.0000000231766961178436758928001 3:0.102303 23:0.089420997 31:0.175937 35:0.023954 39:0.114119 50:0.076297998 65:0.088448003 69:0.067400999 71:0.133958 81:0.102086 108:0.088147998 112:0.037723001 122:0.063851997 184:0.116431 198:0.106936 205:0.069605 212:0.098182 224:0.22345901 248:0.076352999 292:0.086258002 392:0.092326 404:0.102852 434:0.193233 444:0.112083 450:0.105485 470:0.086258002 498:0.20045 529:0.1591 572:0.123211 597:0.154649 616:0.1219 719:0.106324 783:0.094558999 797:0.18022799 828:0.123211 888:0.13578101 1012:0.208542 1026:0.105248 1131:0.124967 1171:0.129417 1540:0.199885 1671:0.170687 1698:0.164446 2026:0.17656 4234:0.253461 4293:0.16681901 8174:0.26861 13727:0.320402 #
1.0000000231766961178436758928001 35:0.018159 56:0.116923 85:0.068934999 88:0.063069001 98:0.095683999 112:0.028596999 155:0.070629001 221:0.045384999 393:0.060155001 404:0.163627 414:0.086172 458:0.075948 470:0.065389998 635:0.103339 676:0.068094999 682:0.07587 687:0.28480801 699:0.079696 777:0.083402 837:0.07175 1142:0.082307003 1555:0.107774 1670:0.37384 5303:0.21177299 5710:0.42732999 5880:0.35856199 6582:0.48590899 8412:0.20362499 #
0.31153905194246500620636197709246 10:0.061802998 63:0.076953001 81:0.123632 83:0.17059401 116:0.110714 151:0.14005101 224:0.270621 240:0.161887 248:0.092467003 276:0.107997 300:0.101073 351:0.096313998 383:0.089043997 404:0.297234 434:0.290977 523:0.348488 561:0.145239 730:0.141781 857:0.20353501 1171:0.15673099 1331:0.18544599 1547:0.183929 1574:0.21579 1896:0.182945 2304:0.28063899 3057:0.180117 6845:0.32530001 #
-0.7895255565220529181402753238217 23:0.12838601 31:0.12767901 55:0.097971 59:0.063639998 63:0.052434001 89:0.077235997 91:0.066119 94:0.076393001 97:0.162231 114:0.052274998 116:0.075438 155:0.076881997 182:0.100288 216:0.073173001 219:0.061687998 229:0.093199 236:0.044209 239:0.023717999 256:0.067282997 276:0.073587 297:0.182468 340:0.223095 350:0.051959999 397:0.081179999 404:0.143701 418:0.111608 433:0.072924003 448:0.132791 498:0.097693004 572:0.101672 579:0.09674 616:0.10059 739:0.104642 751:0.169098 760:0.121618 811:0.081752002 933:0.120024 952:0.112266 1014:0.31466699 1131:0.103121 1142:0.089593999 1217:0.081261002 2018:0.14916299 2718:0.161663 3685:0.18303201 3804:0.16641501 4293:0.137657 4563:0.45304301 6320:0.34608099 #
-1.0000000231766961178436758928001 6:0.035340998 23:0.036653999 30:0.081028 35:0.028147999 42:0.065444 68:0.103222 71:0.092970997 99:0.044505 112:0.026180999 142:0.039498001 197:0.060162999 198:0.177104 199:0.077692002 203:0.102448 209:0.077692002 216:0.061542999 217:0.054149002 229:0.078386001 232:0.032179002 236:0.037182 239:0.019948 272:0.081367999 310:0.097593002 313:0.058947999 314:0.099564001 315:0.060665 370:0.041820001 393:0.055073 404:0.23574699 410:0.070478 419:0.048434 452:0.051382001 453:0.063731998 470:0.059866 482:0.088303 539:0.079099 555:0.095959999 588:0.14614999 597:0.063391998 600:0.177514 760:0.060412999 778:0.059186 780:0.057606 797:0.073876999 799:0.20280699 811:0.068758003 828:0.144785 858:0.056201998 859:0.103751 909:0.118938 935:0.076449998 941:0.099336997 974:0.087434001 993:0.098617002 995:0.092275001 1140:0.079621002 1555:0.31546801 1632:0.132506 1808:0.142221 1868:0.123096 1924:0.124845 1950:0.132506 2165:0.094797999 2197:0.12737601 2928:0.165397 4084:0.20439699 7860:0.186424 7913:0.222369 7914:0.222369 7915:0.20439699 7916:0.20439699 7917:0.20439699 #
-1.0000000231766961178436758928001 10:0.036630999 11:0.032118998 85:0.065273002 92:0.086462997 109:0.149856 112:0.027078001 115:0.051229998 142:0.040851001 155:0.066877 178:0.089134 182:0.20817199 205:0.049961999 206:0.065099999 222:0.078971997 239:0.020631 241:0.068503 250:0.080453999 257:0.074961998 276:0.064011 280:0.26748499 396:0.085835002 404:0.154935 410:0.072892003 414:0.081595004 434:0.15771601 440:0.12622599 475:0.095435999 477:0.091023996 504:0.077749997 508:0.076059997 524:0.148339 588:0.15115499 597:0.137591 640:0.116829 670:0.161888 685:0.093716003 707:0.090723999 731:0.073200002 807:0.046340998 837:0.067938 863:0.097084001 976:0.091480002 1133:0.078589998 1198:0.094391003 1274:0.107582 1278:0.13039701 1307:0.125617 1351:0.124544 1587:0.29511601 1668:0.1612 1669:0.085959002 1670:0.148339 1671:0.122519 1672:0.482649 1673:0.21139599 1674:0.151023 #
-0.5970977289244465691098184834118 11:0.039694 30:0.083557002 31:0.052767001 35:0.017143 36:0.034506999 37:0.086600997 48:0.115016 50:0.054606002 69:0.081675 76:0.037244 85:0.110192 94:0.066256002 114:0.045338999 122:0.045697998 144:0.1241 155:0.1129 164:0.054067001 178:0.186507 221:0.042847998 238:0.076444998 239:0.020571001 244:0.044553999 249:0.059590001 276:0.098361999 300:0.059730999 340:0.069307998 349:0.126937 383:0.052622002 385:0.049109999 392:0.066077001 404:0.154479 410:0.189647 430:0.095333003 434:0.065898001 440:0.125855 448:0.054880001 457:0.072223 470:0.061733998 493:0.061131999 499:0.100857 518:0.154176 557:0.139273 638:0.116882 783:0.067675002 869:0.105645 906:0.070548996 910:0.072678 933:0.061482001 993:0.060063001 1012:0.071119003 1170:0.236046 1298:0.098549001 1353:0.080421001 1426:0.105126 1427:0.087908998 1668:0.16072699 1868:0.126937 2297:0.132759 2304:0.097952999 2323:0.124708 2438:0.12216 2448:0.14547101 2596:0.143242 2777:0.12216 3481:0.32927299 4490:0.15355401 4832:0.24630401 5058:0.170559 7150:0.19993401 7534:0.19993401 7535:0.22930899 #
-0.83362933201006073069549984211335 9:0.052046999 10:0.041875999 11:0.036719002 35:0.019656001 36:0.066987 37:0.13994201 38:0.063560002 49:0.070607997 76:0.089616999 89:0.076805003 111:0.374668 112:0.030955 113:0.045504 119:0.079006001 126:0.030436 156:0.039459001 208:0.056272 219:0.061344001 223:0.16283999 224:0.183367 225:0.275684 239:0.023585999 248:0.062654004 341:0.084128 351:0.065260999 371:0.116403 429:0.102058 445:0.24214999 483:0.093278997 493:0.118676 516:0.15764099 682:0.172352 723:0.057681002 733:0.13447399 767:0.096201003 771:0.094388999 794:0.104231 811:0.081295997 837:0.077666998 855:0.085133001 1016:0.148331 1217:0.080807999 1650:0.096874997 1724:0.190155 1930:0.257725 1953:0.159685 1954:0.123632 2423:0.189404 2426:0.19232599 2439:0.14119899 4325:0.13791101 4853:0.207987 11243:0.26291701 #
1.0000000231766961178436758928001 2:0.089096002 10:0.039317001 36:0.037145998 50:0.058782998 55:0.091470003 70:0.130236 87:0.035145 88:0.064098001 112:0.029062999 113:0.042723 126:0.028576 131:0.065647997 137:0.050294001 209:0.086244002 232:0.060481999 236:0.086621001 266:0.336613 283:0.13424601 294:0.118303 370:0.046422999 383:0.135175 397:0.12832899 429:0.095820002 532:0.101311 576:0.145347 728:0.109047 778:0.19355001 817:0.099533997 896:0.083352998 1026:0.081087001 1146:0.079154998 1156:0.19653299 1268:0.07993 1292:0.14214499 1370:0.25927901 1450:0.093493 1618:0.117327 2077:0.20143799 2396:0.124561 2572:0.22729801 2711:0.221775 3830:0.15419701 4150:0.180571 4228:0.15093499 5680:0.177828 7232:0.206945 7233:0.215225 7234:0.246847 7235:0.226896 #
1.0000000231766961178436758928001 6:0.04995 11:0.061861999 35:0.023497 37:0.118693 38:0.075978003 60:0.074789003 63:0.062329002 83:0.081609003 87:0.075763002 94:0.090810001 99:0.062900998 105:0.041777998 112:0.037002999 113:0.054395001 115:0.118535 121:0.071145996 124:0.089120001 137:0.064034 142:0.094518997 149:0.102552 184:0.114208 194:0.111649 250:0.109944 276:0.134813 419:0.068455003 458:0.098274 493:0.083787002 494:0.110363 552:0.110786 592:0.089198999 634:0.118505 648:0.13190299 665:0.111504 671:0.092580996 764:0.125012 771:0.112831 899:0.15324201 933:0.084265999 977:0.112532 1004:0.088342004 1013:0.105016 1016:0.42311701 1093:0.116792 1125:0.105628 1223:0.25022599 1351:0.170196 1539:0.27031699 2025:0.38334599 2069:0.150205 3397:0.173978 3522:0.248623 #
1.0000000231766961178436758928001 9:0.058072001 10:0.046723999 11:0.050781 76:0.047646999 88:0.076173998 91:0.073362 99:0.099408001 104:0.060897999 109:0.215794 113:0.085964002 121:0.139364 123:0.081326999 126:0.071267001 150:0.17223801 165:0.144327 180:0.091728002 182:0.23352 223:0.086576998 240:0.12239 247:0.092202999 276:0.081648 307:0.16165499 313:0.077765003 314:0.131346 315:0.13550401 321:0.105037 350:0.057652 370:0.055169001 539:0.104349 559:0.100731 570:0.31474301 579:0.107338 640:0.14902 650:0.099290997 665:0.104077 710:0.153877 743:0.116882 759:0.100854 760:0.079697996 792:0.131952 837:0.086658001 851:0.231741 858:0.074142002 889:0.127923 931:0.13104799 974:0.115344 986:0.127923 993:0.130098 1140:0.105037 1268:0.094989002 1342:0.111107 1449:0.150564 1475:0.126854 1540:0.108089 1879:0.17589 2024:0.163911 2304:0.12531 2344:0.21819501 2430:0.137583 2579:0.167171 #
1.0000000231766961178436758928001 5:0.063078001 11:0.017679 15:0.036703002 23:0.059818 31:0.049320001 35:0.033628002 63:0.042505998 76:0.034812 87:0.030516 89:0.062611997 100:0.083462998 105:0.028491 113:0.062808 124:0.060777001 179:0.122828 204:0.074509002 221:0.040049002 231:0.063672997 233:0.148404 268:0.100522 336:0.126949 338:0.070485003 346:0.103301 350:0.071318999 370:0.040307999 385:0.045903001 393:0.053082 397:0.065810002 427:0.084137 474:0.064782001 493:0.05714 544:0.068654999 568:0.086875997 570:0.149211 580:0.14504001 585:0.146327 767:0.078423999 771:0.076947004 850:0.123422 858:0.054170001 859:0.100001 975:0.186626 1011:0.13597 1014:0.091371998 1017:0.200481 1065:0.105449 1101:0.112854 1133:0.073241003 1217:0.065875001 1303:0.121523 1305:0.085396998 1338:0.140204 1435:0.091925003 1770:0.14352401 2485:0.113731 2526:0.142096 4710:0.146653 4806:0.14504001 7772:0.52933902 8149:0.17968599 13546:0.362896 #
1.0000000231766961178436758928001 5:0.052544001 11:0.014727 14:0.058451999 15:0.072958 18:0.043506999 37:0.039822999 41:0.076862998 42:0.052544001 65:0.083448 76:0.049098 93:0.051587 99:0.035732999 114:0.035300002 134:0.054386999 137:0.036375999 160:0.066441998 170:0.061083 189:0.169715 208:0.038212001 231:0.053040002 270:0.079044998 313:0.047329001 322:0.052012 351:0.044316001 419:0.038887002 426:0.120276 434:0.051307999 442:0.147083 457:0.056232002 485:0.082666002 530:0.051493 549:0.217769 565:0.096280001 683:0.107731 771:0.108525 807:0.035974 937:0.059935 1087:0.145032 1093:0.066347003 1094:0.14967801 1114:0.096684001 1221:0.154083 1288:0.100236 1353:0.062615 1491:0.085327998 1519:0.226071 1539:0.090695001 1580:0.10281 1601:0.073542997 1740:0.083954997 2021:0.14967801 2091:0.13524801 2498:0.14123701 2535:0.085565999 2659:0.091957003 2883:0.138028 3073:0.095882997 3157:0.11724 3227:0.104522 3509:0.108437 4454:0.138028 5362:0.122161 8589:0.17853799 8590:0.17853799 8591:0.17853799 8592:0.17853799 8593:0.16410799 8594:0.17853799 8595:0.37468201 8596:0.16410799 8597:0.14123701 8598:0.17853799 #
-0.088141519029936998830265793003491 11:0.037785001 133:0.139605 137:0.044473 206:0.061787002 209:0.076261997 238:0.072768003 244:0.071806997 284:0.087412 292:0.058765002 316:0.080201998 385:0.079150997 448:0.052239999 468:0.13439199 497:0.063501 539:0.077643998 568:0.088476002 582:0.13171101 640:0.110883 682:0.068182997 730:0.079756998 835:0.095592 910:0.069181003 964:0.090746999 1007:0.092321999 1012:0.114623 1013:0.072935998 1073:0.119223 1217:0.067088 1348:0.069844 1349:0.094783999 1363:0.13739 1565:0.362376 1606:0.112827 1997:0.138473 2142:0.133467 2861:0.142031 2956:0.15299501 3227:0.12778699 3229:0.33509099 4146:0.234456 5366:0.168751 5468:0.18299399 7544:0.3994 8995:0.30022001 10784:0.18299399 #
-0.35419678135677729047259276740078 9:0.047612999 11:0.019839 35:0.017982 58:0.083301999 69:0.050597001 76:0.039065 108:0.066170998 112:0.028317999 122:0.081156999 199:0.084032997 232:0.034805998 238:0.13576099 240:0.080959998 242:0.107203 248:0.097046003 275:0.091925003 276:0.082974002 307:0.27814999 338:0.079097003 350:0.047269002 352:0.046704002 353:0.13767301 483:0.085332997 494:0.177248 530:0.14558101 655:0.096648999 671:0.070850998 682:0.075130999 703:0.116931 722:0.076797001 731:0.076553002 759:0.082690001 825:0.15376 986:0.104883 993:0.062999003 1012:0.126303 1142:0.081505001 1168:0.119062 1169:0.125692 1196:0.106962 1209:0.089636996 1349:0.104442 1863:0.110536 1896:0.1134 2006:0.31492099 2177:0.17889699 2304:0.102742 2937:0.147066 4228:0.147066 6108:0.195382 9418:0.42316499 9545:0.195382 9716:0.24052 9717:0.20163999 #
-0.29251085508897439746434088192473 9:0.076085001 10:0.061216999 15:0.038872998 35:0.028734 43:0.059317 44:0.05796 56:0.064539999 64:0.080853 74:0.102825 98:0.089427002 104:0.047123998 113:0.039287999 115:0.050565999 142:0.105215 145:0.05593 179:0.130089 181:0.067183003 239:0.020364 244:0.044105001 275:0.182074 293:0.115831 315:0.104856 370:0.072282001 424:0.112024 435:0.091691002 458:0.070981003 474:0.068611003 491:0.078914002 575:0.081496 634:0.085593998 721:0.086106002 778:0.102299 789:0.16193099 850:0.221324 954:0.110038 993:0.059457999 1004:0.063807003 1037:0.098779999 1146:0.072792001 1176:0.144008 1198:0.157745 1338:0.087701999 1645:0.127446 1693:0.095825002 1767:0.11819 1876:0.15049601 2060:0.118628 2321:0.123453 2385:0.116105 2535:0.108792 2659:0.27900401 4257:0.15049601 5617:0.38434899 5618:0.497913 #
