SVM-light Version V6.02
0 # kernel type
3 # kernel parameter -d 
1 # kernel parameter -g 
1 # kernel parameter -s 
1 # kernel parameter -r 
empty# kernel parameter -u 
14598 # highest feature index 
2865 # number of training documents 
729 # number of support vectors plus 1 
1.039997 # threshold b, each following line is a SV (starting with alpha*y)
-0.33477398094829668995231486405828 45:0.043529999 50:0.039857998 65:0.046204999 85:0.047504 86:0.055481002 98:0.038943999 137:0.034102 160:0.062289 203:0.077111997 270:0.176834 276:0.057742 370:0.031477999 393:0.041453 397:0.087015003 530:0.048273999 544:0.053615 645:0.201281 668:0.046363 722:0.090487003 922:0.10891 1011:0.106182 1067:0.113265 1069:0.063680001 1121:0.079554997 1250:0.101658 1374:0.066466004 1399:0.083113998 1457:0.198636 1469:0.072988003 1577:0.113265 1706:0.10891 1824:0.070518002 2039:0.081611998 2057:0.124495 2088:0.109911 2117:0.182789 2143:0.158346 2346:0.104555 2464:0.210788 2663:0.122438 2905:0.10705 3078:0.115871 3244:0.140321 3369:0.117318 4088:0.129399 4169:0.126793 4170:0.124495 4171:0.15384901 4172:0.112082 4173:0.16737799 4174:0.16737799 4175:0.15384901 4176:0.16737799 4177:0.135966 4178:0.15384901 4179:0.140321 4180:0.16737799 4181:0.16737799 4182:0.16737799 4183:0.28339499 4184:0.13240799 4185:0.16737799 4186:0.16737799 4187:0.140321 #
-1.0000000231766961178436758928001 18:0.065208003 36:0.096088 44:0.084683999 87:0.038098 107:0.099439003 108:0.124647 109:0.14022601 110:0.179913 111:0.311221 112:0.031505 113:0.046312001 114:0.052907001 115:0.059606001 116:0.076350003 117:0.49593601 118:0.14089499 119:0.22448599 120:0.32437301 121:0.158067 122:0.148876 123:0.125605 124:0.075878002 125:0.109233 126:0.052448001 127:0.093489997 128:0.134342 129:0.127186 130:0.139837 131:0.071163997 132:0.13831501 133:0.171142 134:0.081513003 135:0.154089 136:0.113849 137:0.05452 138:0.073308997 139:0.131253 140:0.181078 141:0.14881299 142:0.047529999 143:0.062739998 144:0.085530996 145:0.111628 146:0.082162 147:0.104368 #
-0.15853798199841837024415269752353 6:0.031005999 9:0.081046999 12:0.124717 24:0.076213002 41:0.040020999 42:0.057415001 44:0.029418999 45:0.050737001 46:0.15615299 58:0.067566998 64:0.11765 65:0.053854998 76:0.031686001 87:0.027775999 99:0.066109002 100:0.128627 115:0.043457001 121:0.074775003 157:0.080655999 164:0.077882998 206:0.093500003 221:0.036454 233:0.079781003 258:0.090722002 276:0.03207 292:0.052521002 419:0.042491999 470:0.052521002 551:0.126941 566:0.178128 611:0.069305003 636:0.13505501 665:0.069214001 705:0.070509002 792:0.087751999 807:0.066555999 840:0.175953 846:0.080068998 976:0.077598996 1120:0.124773 1234:0.076090999 1295:0.165594 1349:0.143433 1353:0.068419002 1432:0.085436001 1512:0.109528 1544:0.11357 1615:0.210379 1686:0.096275002 1900:0.100129 1943:0.120973 2142:0.119287 2180:0.117718 2639:0.111749 2728:0.154329 2729:0.14778499 2952:0.142709 3000:0.120115 3747:0.122794 3764:0.140541 4138:0.126941 4146:0.209547 4329:0.126941 6988:0.17009699 11695:0.40941501 11696:0.303617 #
-0.2613077710679785892189386231621 12:0.091949001 18:0.124542 86:0.100053 121:0.068331003 158:0.15774 171:0.118108 209:0.10546 221:0.056402002 232:0.043680999 242:0.134537 244:0.058646999 248:0.071930997 276:0.084012002 447:0.145069 450:0.099376 579:0.18700001 616:0.11484 716:0.107793 722:0.163184 1218:0.122999 1305:0.120266 1312:0.131907 1353:0.10586 1976:0.171142 2044:0.21156999 2401:0.15833201 3001:0.188554 3975:0.25305399 3976:0.238783 3977:0.42418799 3978:0.20212799 3979:0.24519999 3980:0.30184701 3981:0.26317999 #
-0.073933607147487853672451763031859 1:0.066679999 18:0.057101 26:0.122183 31:0.053920001 35:0.017518001 50:0.055799998 63:0.046470001 94:0.067704998 114:0.046330001 122:0.079065003 142:0.15146101 202:0.078569002 214:0.100731 222:0.13623101 226:0.117688 232:0.033909 241:0.069794998 244:0.045527 268:0.109896 279:0.122 290:0.11611 294:0.1123 297:0.077058002 316:0.086096004 354:0.056688 403:0.25268599 418:0.098913997 419:0.051036999 440:0.212052 448:0.094949998 497:0.084491998 499:0.103062 504:0.079216003 679:0.098722003 701:0.084123001 731:0.126275 767:0.14516599 770:0.091247 812:0.155994 878:0.138786 894:0.061717998 910:0.125743 916:0.121119 928:0.083025001 993:0.061375 1007:0.099106997 1110:0.093676999 1349:0.10175 1626:0.223829 1732:0.127985 1949:0.126892 2129:0.142317 2165:0.099893004 4428:0.190346 5732:0.36467299 5733:0.234321 5734:0.234321 5735:0.18536501 5736:0.21538199 #
1.0000000231766961178436758928001 35:0.025474999 63:0.067576997 109:0.085087001 128:0.059675001 137:0.086052001 148:0.157774 171:0.187914 192:0.071309 204:0.069962002 216:0.094306 223:0.059395 256:0.051215 290:0.047518998 313:0.090328999 322:0.187451 350:0.039551999 399:0.092490003 419:0.043834999 454:0.084142998 483:0.071401 485:0.157774 491:0.118456 634:0.075884998 708:0.099316999 722:0.064259 807:0.068659 855:0.110336 899:0.098128997 976:0.080050997 1196:0.151535 1313:0.121437 1334:0.090735003 1424:0.136457 1497:0.169737 1538:0.26343399 1539:0.102234 1540:0.074153997 1541:0.18498699 1542:0.23958901 1543:0.201253 1544:0.117159 1545:0.40261701 1546:0.285669 1547:0.095397003 1548:0.201253 1549:0.085288003 1550:0.201253 1551:0.201253 1552:0.102582 1553:0.11528 #
1.0000000231766961178436758928001 10:0.036630999 11:0.032118998 85:0.065273002 92:0.086462997 109:0.149856 112:0.027078001 115:0.051229998 142:0.040851001 155:0.066877 178:0.089134 182:0.20817199 205:0.049961999 206:0.065099999 222:0.078971997 239:0.020631 241:0.068503 250:0.080453999 257:0.074961998 276:0.064011 280:0.26748499 396:0.085835002 404:0.154935 410:0.072892003 414:0.081595004 434:0.15771601 440:0.12622599 475:0.095435999 477:0.091023996 504:0.077749997 508:0.076059997 524:0.148339 588:0.15115499 597:0.137591 640:0.116829 670:0.161888 685:0.093716003 707:0.090723999 731:0.073200002 807:0.046340998 837:0.067938 863:0.097084001 976:0.091480002 1133:0.078589998 1198:0.094391003 1274:0.107582 1278:0.13039701 1307:0.125617 1351:0.124544 1587:0.29511601 1668:0.1612 1669:0.085959002 1670:0.148339 1671:0.122519 1672:0.482649 1673:0.21139599 1674:0.151023 #
-0.2138236754906402692366640394539 11:0.018123999 35:0.016426999 41:0.045074999 59:0.12620901 62:0.059202999 63:0.043575998 98:0.107289 105:0.029208001 112:0.025869999 113:0.079807997 126:0.025436001 127:0.12998 134:0.113328 155:0.063894004 204:0.076384 206:0.062197 229:0.077454001 240:0.073959999 243:0.071226001 249:0.096679002 250:0.076865003 321:0.078674003 322:0.064011 335:0.136251 357:0.085564002 426:0.070533998 427:0.086254001 433:0.060605001 479:0.108769 493:0.058577999 544:0.119169 631:0.20185301 655:0.088293001 662:0.13528401 703:0.106822 738:0.061978001 778:0.15260699 797:0.072999001 804:0.083596997 838:0.085157998 995:0.091178998 1067:0.14869 1083:0.125214 1125:0.073847003 1146:0.070458002 1198:0.090180002 1225:0.080960996 1426:0.100732 1505:0.15211099 1520:0.1586 1579:0.104154 1580:0.12652799 1595:0.14869 1624:0.14869 1774:0.24912401 1896:0.103597 1957:0.15829 2639:0.26413599 2651:0.14428701 2797:0.163431 3149:0.15829 3941:0.122772 4242:0.14567199 6296:0.17382 9986:0.201967 11565:0.191579 11898:0.201967 13576:0.219726 #
0.61828500377246720098867172055179 3:0.095954999 9:0.059491001 12:0.091545001 23:0.049536001 24:0.117401 36:0.045221999 44:0.045318998 63:0.059599001 81:0.095752001 87:0.042787001 91:0.179341 109:0.17907199 172:0.25376901 205:0.065286003 232:0.103777 241:0.089512996 248:0.071615003 256:0.076476999 276:0.049401 352:0.058355 385:0.064360999 393:0.074428 397:0.092274003 418:0.12685899 445:0.276784 457:0.16025899 459:0.115745 470:0.080906004 472:0.173987 538:0.142839 559:0.24624699 594:0.12685899 650:0.101717 737:0.121387 812:0.118162 813:0.121599 859:0.140214 885:0.10208 908:0.13217901 1013:0.100416 1211:0.12889101 1268:0.164759 1555:0.41063401 1949:0.162742 1950:0.37580901 #
-0.34307970078650407153020296391333 9:0.114253 11:0.047605999 15:0.098834999 108:0.158785 115:0.217676 145:0.371066 164:0.13608401 208:0.123527 271:0.177036 285:0.256093 671:0.17001601 797:0.191745 804:0.219583 933:0.154745 1093:0.214477 1608:0.36052799 2122:0.334144 2490:0.45657 #
-1.0000000231766961178436758928001 6:0.039675001 15:0.042748999 27:0.102828 35:0.018663 37:0.055681001 59:0.060088001 60:0.10058 109:0.174024 112:0.029391 126:0.028898001 128:0.125328 131:0.066389002 137:0.12137 150:0.086566001 155:0.072590999 156:0.078625001 169:0.065385997 206:0.070661999 212:0.076495998 239:0.022394 241:0.043915998 293:0.075231999 322:0.152619 429:0.164069 493:0.066551 634:0.159372 648:0.17738999 668:0.069146998 733:0.30468199 742:0.14153799 874:0.071546003 894:0.065752 896:0.084293 916:0.129034 975:0.15422601 1015:0.13298699 1106:0.189105 1125:0.083898999 1422:0.090345003 1724:0.223785 1814:0.14375 1953:0.151618 1954:0.36148399 2510:0.13246299 3045:0.192992 3062:0.142257 3633:0.159659 3785:0.16101301 3941:0.13948201 4293:0.12997299 4857:0.343346 #
-1.0000000231766961178436758928001 10:0.043269999 31:0.062513001 33:0.077583 36:0.069215998 50:0.064692996 60:0.064645998 74:0.25824699 105:0.086173996 109:0.114857 115:0.060513999 128:0.080553003 137:0.093716003 142:0.048253998 156:0.069032997 164:0.134425 223:0.13575 225:0.109164 227:0.16783699 229:0.16214 232:0.039313 236:0.045425002 241:0.047791999 247:0.085386001 248:0.13586099 266:0.141967 290:0.064144999 313:0.072015002 322:0.079141997 348:0.128773 352:0.052751001 366:0.143592 443:0.067938 452:0.062771998 457:0.223272 464:0.180885 614:0.124543 665:0.096382 722:0.242162 730:0.099264003 733:0.29159901 735:0.29261401 807:0.114876 811:0.084000997 935:0.093396999 981:0.116752 1217:0.083497003 1234:0.105958 1450:0.102893 1545:0.227751 3957:0.34212199 4349:0.236864 #
-1.0000000231766961178436758928001 10:0.070644997 11:0.051562998 35:0.019585 44:0.039503999 59:0.106762 83:0.068021998 91:0.110921 104:0.054381002 105:0.058959 108:0.122026 109:0.156096 112:0.030843001 113:0.045338999 128:0.13151801 155:0.128977 199:0.154965 217:0.063790001 227:0.161843 232:0.037909001 236:0.104526 239:0.023499999 244:0.050898001 256:0.066665001 276:0.043062001 292:0.070524998 300:0.068236999 317:0.107321 323:0.097070999 327:0.060198002 354:0.063375004 385:0.094990999 399:0.31415099 418:0.110582 440:0.178207 444:0.091640003 453:0.07508 597:0.074679002 654:0.097769998 661:0.101687 665:0.092940003 710:0.13741 722:0.083644003 740:0.101368 752:0.110582 807:0.052784 808:0.164886 1033:0.10317 1057:0.106182 1098:0.15807 1133:0.089516997 1171:0.105812 1375:0.238203 1609:0.122224 2184:0.101687 2401:0.13741 2661:0.147073 3358:0.51782697 6524:0.173673 #
-1.0000000231766961178436758928001 1:0.074453004 11:0.021581 41:0.053672001 49:0.070263997 59:0.062976003 60:0.062259 81:0.083361 86:0.086723 87:0.037250001 93:0.075595997 98:0.103069 109:0.170478 115:0.058279999 155:0.128815 170:0.089512996 192:0.15696 197:0.119851 201:0.105314 208:0.094811 217:0.063709997 226:0.062615998 238:0.087220997 239:0.023469999 241:0.046027001 322:0.129051 326:0.100767 341:0.083717003 352:0.050804 419:0.056986 445:0.22036199 544:0.14189699 559:0.089838997 597:0.074584998 652:0.13993999 654:0.097646996 668:0.072471 670:0.108771 735:0.22736099 760:0.071079999 765:0.106049 974:0.174178 995:0.108569 1008:0.117413 1060:0.120239 1172:0.145502 1196:0.116351 1824:0.23132899 1998:0.126826 2196:0.158906 2306:0.116877 2771:0.198195 3412:0.16733401 3941:0.14618701 4299:0.170241 6933:0.21934099 9002:0.44298401 #
-0.99868104015365721792818476387765 10:0.040070999 15:0.043081999 18:0.17115401 44:0.037937999 49:0.067564003 91:0.062914997 104:0.124627 108:0.069214001 109:0.062821001 113:0.043542001 124:0.18615399 127:0.087897003 128:0.156552 150:0.087241001 206:0.071213 219:0.058699001 223:0.12571301 232:0.061641999 239:0.022569001 250:0.088008001 272:0.054370001 370:0.047313001 428:0.164828 617:0.158749 723:0.055193 797:0.19945 804:0.20087101 811:0.077790998 812:0.098918997 1004:0.070716001 1075:0.124537 1112:0.128235 1135:0.19772799 1170:0.123401 1198:0.103254 1211:0.107901 1234:0.098123997 1332:0.41216499 1424:0.170581 1724:0.33093601 2011:0.146457 2037:0.139911 2691:0.116781 2692:0.30254 3639:0.149912 8453:0.25158101 #
1.0000000231766961178436758928001 26:0.132387 35:0.032138001 36:0.135754 48:0.127345 62:0.115826 69:0.090429999 71:0.179729 77:0.47738501 87:0.146051 145:0.105914 156:0.064516 186:0.182896 214:0.109144 221:0.080325 241:0.075623997 242:0.45721501 244:0.21794599 321:0.153919 352:0.141331 354:0.103997 385:0.15587901 448:0.174191 497:0.073861003 544:0.288975 690:0.17042001 760:0.116788 787:0.14498501 896:0.145155 1601:0.177072 #
1.0000000231766961178436758928001 6:0.067394003 11:0.057672001 14:0.081993997 33:0.121099 43:0.065443002 76:0.085366003 87:0.035657998 89:0.073161997 105:0.033291999 108:0.116662 122:0.084505998 126:0.049088001 145:0.061705999 156:0.078881003 164:0.099982999 169:0.065599002 202:0.083976001 204:0.087063998 205:0.092119999 208:0.090756997 221:0.079235002 244:0.126976 272:0.054125 278:0.117768 279:0.13039599 292:0.067424998 298:0.32786599 351:0.062165 403:0.27007601 450:0.082454003 452:0.057868998 453:0.071778998 457:0.165539 474:0.075696997 530:0.072232999 631:0.088169999 770:0.097525999 842:0.15888099 843:0.121757 846:0.102789 894:0.065966003 1119:0.096910998 1126:0.072760001 1134:0.107854 1219:0.106556 1298:0.107633 1340:0.093879998 1552:0.127657 7404:0.31019101 8615:0.19812199 9923:0.344464 10341:0.218364 11879:0.25044701 11880:0.25044701 #
1.0000000231766961178436758928001 15:0.039025001 22:0.061810002 42:0.067068003 55:0.084444001 69:0.047940001 75:0.047070999 76:0.037013002 105:0.063573003 109:0.056905001 110:0.189913 120:0.115764 121:0.087346002 137:0.046431001 155:0.066266999 206:0.109219 217:0.055493001 222:0.078252003 239:0.020443 240:0.045304999 243:0.125075 249:0.10027 258:0.062590003 287:0.095459998 300:0.059361 397:0.069972001 402:0.112809 433:0.062856004 465:0.078346997 650:0.077133 654:0.085052997 668:0.063124001 782:0.086965002 807:0.045917999 811:0.070464998 812:0.089603998 813:0.092208996 861:0.11178 894:0.060024001 921:0.114994 991:0.070182003 998:0.23134799 1000:0.235927 1005:0.133413 1056:0.125579 1116:0.19406401 1122:0.25477701 1221:0.116158 1226:0.136638 1278:0.129209 1445:0.12986501 1515:0.083154 1650:0.083967999 2026:0.125579 2039:0.111116 2466:0.15108299 2765:0.185121 2766:0.16185699 2767:0.132664 2768:0.18027601 2769:0.15108299 2770:0.20946901 2771:0.17263199 2772:0.185121 2773:0.17263199 2774:0.17618001 2775:0.227888 #
1.0000000231766961178436758928001 13:0.090582997 14:0.125385 56:0.064310998 59:0.054446001 76:0.036738999 94:0.065357 104:0.046957001 105:0.030068001 112:0.026632 114:0.044723 115:0.050386 122:0.076324001 198:0.075493999 201:0.091049999 238:0.075407997 239:0.020292001 240:0.044969 243:0.124147 264:0.128901 267:0.062923998 313:0.143088 350:0.075267002 352:0.043923002 396:0.084421001 428:0.087527998 523:0.20315 555:0.097611003 570:0.093005002 575:0.081206001 583:0.085417002 595:0.090276003 596:0.071243003 607:0.12521499 619:0.11865 692:0.128901 760:0.061453 787:0.076289997 811:0.069941998 818:0.14593001 824:0.110619 921:0.114141 922:0.147183 934:0.242961 937:0.075933002 945:0.090124004 1002:0.133187 1004:0.063580997 1168:0.111972 1368:0.090124004 1583:0.095484003 1591:0.242961 1623:0.092836 1903:0.126993 1958:0.17487299 2044:0.158545 2145:0.14026301 2321:0.123015 2346:0.141297 2436:0.117771 3031:0.17487299 4674:0.168244 5262:0.20791499 10526:0.382985 10527:0.226197 #
1.0000000231766961178436758928001 10:0.037702002 11:0.019525001 25:0.21613 35:0.017697001 36:0.03562 43:0.129807 60:0.056327999 70:0.059509002 95:0.070588998 131:0.164269 172:0.083764002 197:0.064043 214:0.0601 221:0.074888997 239:0.021235 246:0.094632 271:0.072608002 290:0.094632 292:0.152071 314:0.105984 315:0.064577997 354:0.057264999 385:0.050694998 395:0.091026999 403:0.329409 448:0.118888 494:0.083122 522:0.310664 537:0.38224301 631:0.14109699 676:0.066362999 863:0.099922001 868:0.204989 1163:0.13421001 1405:0.15862399 1569:0.130441 1788:0.24275699 3636:0.161964 9109:0.21757799 11928:0.31705001 13599:0.23671 #
-0.40538189034957899936628678005945 6:0.033188999 9:0.041338999 15:0.03576 26:0.134965 34:0.095270999 35:0.015612 37:0.046579 41:0.042838998 43:0.092390999 45:0.054310001 55:0.077381 76:0.033916999 87:0.070949003 89:0.103288 94:0.102161 97:0.075678997 98:0.082266003 105:0.027759001 126:0.024173999 202:0.070019998 239:0.018733 240:0.041515 241:0.036736999 242:0.157591 266:0.109129 271:0.064055003 315:0.05697 321:0.126599 348:0.098986 350:0.069486 351:0.051833998 354:0.050519999 403:0.290604 405:0.119815 419:0.045483999 440:0.114613 444:0.073051997 494:0.07333 513:0.100081 631:0.124475 677:0.073991999 738:0.058904 780:0.054097001 802:0.110378 857:0.109538 1056:0.115075 1062:0.142885 1146:0.066963002 1449:0.10718 1505:0.24476901 1540:0.076944001 2113:0.128572 2227:0.13587999 2615:0.152758 2986:0.165196 4427:0.191947 5130:0.169636 5438:0.27970201 11928:0.394207 13327:0.20882501 13328:0.20882501 13329:0.20882501 #
-0.40266310256424342473025035360479 8:0.095562004 10:0.058063999 13:0.145989 14:0.119351 15:0.062428001 38:0.088129997 62:0.098224998 70:0.091649003 99:0.072962001 112:0.042920999 113:0.063093998 122:0.072650999 137:0.074275002 142:0.064753003 206:0.103191 214:0.194245 223:0.182165 231:0.183369 244:0.070831001 389:0.19814 403:0.393125 448:0.087246999 453:0.104482 496:0.17935599 497:0.106054 519:0.165131 550:0.148026 706:0.208821 707:0.243489 708:0.179905 738:0.174106 787:0.122953 910:0.115542 1007:0.15418901 1256:0.170975 1257:0.207744 1736:0.13975701 6609:0.27115199 7816:0.29613799 #
-0.58508133073226298304092551916256 1:0.073169 9:0.13282099 23:0.088946 31:0.059167001 32:0.083076 35:0.019223001 44:0.081372999 55:0.095278002 56:0.073105 58:0.089052998 87:0.061983999 93:0.074293002 112:0.030273 126:0.029765001 164:0.060626 172:0.25401601 197:0.069565997 198:0.1453 239:0.023065999 241:0.045233998 244:0.084586002 246:0.102794 353:0.086925998 370:0.048356 385:0.093236998 403:0.116196 410:0.081492998 434:0.12511 497:0.115282 522:0.12932201 544:0.082363002 690:0.101934 700:0.112847 719:0.085326001 738:0.072526999 780:0.112779 868:0.131511 885:0.087338999 935:0.088399 954:0.12464 974:0.101099 1065:0.21418799 1133:0.14876699 1142:0.182855 1317:0.094212003 1342:0.097384997 1421:0.252047 1555:0.19317301 1561:0.177716 1731:0.102794 2260:0.24099401 3348:0.16584501 5813:0.25712499 5814:0.35364899 5815:0.25712499 #
-0.30507235601956539383650124364067 6:0.079810001 9:0.058711998 11:0.051339999 15:0.106587 35:0.022173 36:0.044631001 42:0.087286003 69:0.062392 75:0.061260998 76:0.048172001 85:0.14252201 87:0.088619001 98:0.069007002 105:0.066752002 121:0.067139998 122:0.059106 126:0.034334 127:0.103622 137:0.060428001 139:0.145478 143:0.069539003 145:0.123726 155:0.146024 181:0.087778002 183:0.10959 186:0.126187 211:0.119384 239:0.026605999 244:0.120933 245:0.136981 270:0.13131 276:0.048753999 326:0.11423 350:0.058286998 352:0.097510003 354:0.121486 385:0.165749 392:0.085464001 403:0.28127599 404:0.1612 410:0.15915699 433:0.081804 448:0.070981003 492:0.107777 522:0.14917 565:0.159941 574:0.141746 635:0.126187 705:0.107193 743:0.11817 793:0.153304 887:0.115494 910:0.094001003 1012:0.091986001 1142:0.100504 1217:0.154342 1298:0.127463 1374:0.117775 1520:0.12643801 1674:0.32975599 2639:0.16989 2780:0.172658 3397:0.16418099 3508:0.24864499 #
-1.0000000231766961178436758928001 6:0.124964 11:0.038304999 35:0.082849003 77:0.51571399 87:0.066118002 112:0.114744 124:0.22296 126:0.053759001 134:0.14146399 137:0.094617002 206:0.13145199 210:0.15410601 216:0.12852401 223:0.137054 236:0.077650003 239:0.041659001 244:0.090227999 325:0.194159 327:0.106715 419:0.101149 433:0.128087 597:0.132386 624:0.183193 633:0.18055101 723:0.101881 728:0.205148 760:0.26477101 778:0.25939399 896:0.15681 1333:0.21953601 3516:0.31097201 #
0.37332031302848089904244943681988 11:0.019789999 15:0.041085999 27:0.098829001 35:0.017937001 59:0.057751 60:0.096667998 75:0.049557 109:0.14296401 112:0.028248001 119:0.072097003 126:0.047026001 128:0.120454 131:0.063807003 137:0.12755799 150:0.083199002 155:0.069766998 156:0.036008 169:0.062843002 201:0.096575998 206:0.067914002 212:0.073521003 241:0.042208001 293:0.072306 322:0.14668299 335:0.14877599 429:0.093133003 493:0.063961998 634:0.090466999 648:0.100695 668:0.066458002 733:0.32021499 874:0.068764001 896:0.081014998 916:0.124016 975:0.183724 1015:0.12781499 1106:0.18175 1422:0.147018 1724:0.21508101 1788:0.103111 1814:0.13815901 1954:0.36071301 2510:0.12731101 2691:0.111371 3045:0.185486 3062:0.136724 3633:0.153449 3941:0.134057 4293:0.211505 4325:0.264112 4857:0.329992 #
1.0000000231766961178436758928001 3:0.180334 10:0.037696999 31:0.054462001 35:0.017694 44:0.035691001 59:0.056968998 104:0.083189003 105:0.066024996 109:0.164993 112:0.027866 128:0.070179 135:0.13629 155:0.068823002 156:0.035521001 169:0.061992999 199:0.082690999 205:0.051415998 208:0.085767999 227:0.146222 232:0.071877003 236:0.039574999 239:0.021232 385:0.050687999 390:0.16972999 399:0.184165 419:0.051550999 443:0.141242 452:0.130502 457:0.074543998 483:0.083970003 536:0.13042299 597:0.114238 722:0.075571001 723:0.051924001 726:0.111888 733:0.28887001 752:0.099909 837:0.069916002 899:0.115402 1004:0.066527002 1026:0.077745996 1146:0.075893998 1168:0.11716 1284:0.13042299 1299:0.101716 1353:0.083005004 1396:0.118652 1509:0.12462 1545:0.19842 1731:0.094619997 3001:0.147845 3358:0.42784101 3881:0.165892 5139:0.325528 5140:0.206359 5141:0.19226199 #
0.1679260655336394791881104993081 8:0.169542 11:0.018108999 15:0.063657001 44:0.033108 52:0.089782998 60:0.052244999 62:0.059154999 67:0.1156 70:0.055195 74:0.099449001 98:0.051082 105:0.029184001 109:0.16882201 111:0.165683 115:0.048905 121:0.049699999 128:0.181743 130:0.114732 131:0.058387998 137:0.044732001 155:0.108094 223:0.064795002 232:0.031771 256:0.094598003 284:0.087920003 308:0.112683 311:0.079242997 327:0.105877 341:0.070251003 393:0.054373998 419:0.047820002 428:0.084954999 429:0.085222997 448:0.052544001 483:0.077891998 552:0.131035 634:0.082782999 648:0.092142999 690:0.087038003 722:0.070101 733:0.31349301 738:0.061928 742:0.12448 760:0.059645999 776:0.11308 785:0.084821999 797:0.072939999 804:0.083529003 818:0.083655 825:0.066878997 1004:0.104488 1025:0.103513 1093:0.081587002 1106:0.16631401 1121:0.104352 1178:0.102172 1420:0.088373996 1665:0.105815 1681:0.153401 1724:0.093782999 1953:0.13334499 1954:0.103239 2535:0.10522 2659:0.11308 3023:0.191424 3045:0.169733 3162:0.169733 3163:0.191424 4936:0.17834599 4960:0.27648899 6531:0.18405899 11439:0.219548 #
1.0000000231766961178436758928001 8:0.072199002 10:0.043868002 36:0.041446 38:0.066583 56:0.078307003 119:0.082764998 126:0.031884 137:0.133909 150:0.095509 155:0.080090001 156:0.041336 170:0.094231002 183:0.10177 208:0.16457 216:0.076226003 223:0.081285 226:0.111606 267:0.076618999 268:0.12917399 271:0.084482998 284:0.110297 306:0.13237 322:0.168386 327:0.063290998 383:0.063203998 397:0.084568001 429:0.224369 483:0.097716004 620:0.165139 634:0.175837 648:0.27584001 655:0.110674 668:0.076291002 669:0.13350999 733:0.140871 760:0.074827 782:0.105105 975:0.100499 1069:0.104787 1514:0.15695301 1724:0.246904 1821:0.144472 1954:0.271799 2199:0.13852599 3375:0.21788099 4546:0.21292999 5215:0.20864099 7435:0.25316301 10867:0.275424 #
-0.10225791372035104853654985390676 41:0.052366 84:0.042750001 86:0.032426 98:0.022761 126:0.019174 148:0.108087 164:0.023065999 185:0.079466999 244:0.019006999 262:0.051707 295:0.048576001 396:0.036509998 457:0.030811001 466:0.050035 497:0.016807999 530:0.059211001 552:0.058386002 568:0.039652001 579:0.035794001 682:0.030557999 725:0.044417001 791:0.035404 824:0.047839999 827:0.058292001 888:0.041457001 1093:0.036353 1100:0.048730001 1126:0.048119999 1135:0.045409001 1169:0.086557001 1178:0.045524999 1452:0.072761998 1473:0.054152999 1509:0.051507998 1627:0.052324001 1676:0.069480002 1701:0.061574001 1834:0.072761998 1877:0.079466999 1881:0.085294001 1961:0.046882998 2375:0.116095 2493:0.05466 2505:0.13885801 2696:0.077386998 2881:0.075629003 2951:0.16563299 2952:0.121162 2953:0.23344 2954:0.097824998 2955:0.188704 2956:0.068567 2957:0.13885801 2958:0.077386998 2959:0.097824998 2960:0.12805 2961:0.172111 2962:0.152246 2963:0.097824998 2964:0.20529699 2965:0.097824998 2966:0.077386998 2967:0.20529699 2968:0.221852 2969:0.097824998 2970:0.097824998 2971:0.097824998 2972:0.089919001 2973:0.089919001 2974:0.16563299 2975:0.089919001 2976:0.16563299 2977:0.097824998 2978:0.16563299 2979:0.097824998 2980:0.082011998 2981:0.082011998 2982:0.097824998 2983:0.079466999 2984:0.097824998 2985:0.097824998 2986:0.077386998 2987:0.082011998 2988:0.21400499 2989:0.068567 2990:0.077386998 2991:0.072761998 2992:0.097824998 2993:0.075629003 2994:0.097824998 2995:0.089919001 2996:0.097824998 2997:0.20529699 2998:0.059028 2999:0.089919001 3000:0.060230002 3001:0.061108001 3002:0.082011998 3003:0.082011998 3004:0.072761998 3005:0.097824998 3006:0.082011998 3007:0.097824998 #
-0.79231502752665372568685597798321 11:0.018780001 15:0.038989 35:0.017022001 62:0.061347 88:0.059121002 91:0.056938998 105:0.084494002 126:0.026357001 128:0.067511998 156:0.057856001 213:0.090869002 221:0.042544 232:0.032947998 233:0.093108997 241:0.040054001 244:0.074900001 248:0.091866001 250:0.079648003 276:0.037427001 311:0.082177997 326:0.087691002 327:0.05232 348:0.107925 350:0.044746 452:0.052609 457:0.071709998 483:0.080778003 538:0.108218 552:0.168431 594:0.096111998 658:0.116452 665:0.080778003 669:0.110368 722:0.123089 730:0.083192997 733:0.27788901 738:0.064222999 759:0.132533 811:0.119199 895:0.091647997 977:0.081523001 1002:0.22698601 1004:0.063997999 1217:0.069977999 1422:0.082401 1483:0.199981 1513:0.126037 1542:0.17587399 1665:0.109736 2075:0.122276 2088:0.14951099 2338:0.12721699 2644:0.20928 2664:0.27771199 3512:0.13921601 3666:0.130419 4154:0.154074 6144:0.164021 6508:0.16655099 6820:0.17602099 7970:0.198515 13696:0.35434201 #
-0.19019227879173933315470890192955 8:0.079365 11:0.024972999 12:0.054471999 18:0.091448002 36:0.026908001 59:0.043042 63:0.035463002 64:0.063689999 99:0.035789002 122:0.060337 126:0.035048999 132:0.092428997 137:0.061686002 143:0.100048 146:0.054905001 169:0.046836998 181:0.052923001 208:0.080317996 211:0.071978003 226:0.072458997 231:0.053123001 239:0.02716 241:0.053263001 281:0.125871 302:0.133003 351:0.044385999 356:0.055179998 396:0.066738002 460:0.157196 464:0.056733999 483:0.107416 492:0.06498 493:0.047671001 550:0.072608002 668:0.049531002 791:0.064715996 1077:0.078143001 1557:0.147191 1589:0.086933002 1709:0.112552 2197:0.102429 3213:0.174344 6217:0.31460699 8085:0.459297 10521:0.26397899 11275:0.302764 11276:0.302764 11277:0.302764 11278:0.26397899 #
-1.0000000231766961178436758928001 5:0.086197004 44:0.092689998 58:0.101438 109:0.190841 114:0.057909001 156:0.043956999 181:0.086681999 198:0.097751997 205:0.10773 216:0.137244 226:0.070095003 229:0.103243 232:0.071762003 239:0.026273999 240:0.058226001 266:0.15305699 315:0.079902999 350:0.057560001 370:0.055080999 385:0.062725998 415:0.103375 444:0.102458 450:0.096426003 452:0.067675002 454:0.122454 483:0.175937 512:0.126389 523:0.094221003 597:0.083494 622:0.13362101 658:0.149802 668:0.211698 733:0.149802 740:0.113333 759:0.33254701 760:0.079571001 771:0.105148 778:0.186023 780:0.18105599 797:0.097304001 817:0.118097 855:0.16057301 857:0.153631 907:0.14156599 952:0.124365 956:0.117489 964:0.121764 1122:0.117289 1219:0.124612 1353:0.173915 1433:0.122922 1665:0.14116199 1740:0.32865101 1763:0.18161599 2691:0.13595399 #
-1.0000000231766961178436758928001 2:0.080890998 5:0.065958001 10:0.060439002 11:0.018486001 18:0.092469998 32:0.072411001 35:0.016755 36:0.033725001 74:0.101518 76:0.061632 98:0.052145001 109:0.055962998 112:0.026387 180:0.118653 229:0.079001002 234:0.087977 248:0.112082 249:0.058240999 315:0.061142001 322:0.065289997 393:0.055505998 401:0.082461998 414:0.079512998 483:0.134627 523:0.122073 544:0.071788996 634:0.084505998 699:0.124509 722:0.150176 723:0.049168002 740:0.086723 759:0.183865 807:0.045157999 935:0.130457 1104:0.110263 1146:0.071865998 1174:0.262692 1353:0.164949 1358:0.114235 1497:0.29131401 1519:0.118922 1520:0.095542997 1732:0.122412 1954:0.25148401 2042:0.119393 2165:0.095542997 2184:0.086995997 2989:0.157087 3142:0.40014899 3897:0.177292 4325:0.199044 9805:0.206002 11720:0.224116 11721:0.206002 #
-1.0000000231766961178436758928001 36:0.036945999 37:0.054763 44:0.037023999 56:0.069805004 59:0.10006 60:0.058425002 62:0.066152997 74:0.188299 109:0.18060599 113:0.042493001 121:0.055578999 122:0.116758 123:0.068066001 126:0.028422 131:0.065295003 143:0.097465999 155:0.071393996 171:0.096068002 225:0.098656997 231:0.072938003 241:0.073129997 244:0.047703002 248:0.058508001 249:0.063801996 267:0.115641 290:0.098154001 313:0.15531 322:0.071525 370:0.046172999 393:0.060805999 419:0.053475998 426:0.078814 483:0.18280201 493:0.065453999 494:0.086214997 570:0.211853 596:0.201783 619:0.218052 668:0.068007 759:0.084408 771:0.088142999 988:0.241998 991:0.075612001 992:0.217237 1219:0.104459 1578:0.22145499 1724:0.273669 1778:0.135295 1784:0.132956 1827:0.182615 2305:0.17687 2598:0.209077 4524:0.199443 4886:0.172088 6320:0.18980999 10479:0.245518 #
1.0000000231766961178436758928001 6:0.048994001 11:0.025428001 13:0.123452 15:0.089382 39:0.109799 41:0.132715 58:0.106768 69:0.1098 70:0.077500999 83:0.080048002 85:0.087491997 87:0.074313998 105:0.097786002 112:0.036295 115:0.068668999 121:0.118157 126:0.035687 134:0.093906999 172:0.260315 197:0.083405003 211:0.124088 212:0.094466001 216:0.179048 221:0.057603002 239:0.027654 282:0.143235 350:0.060584001 370:0.057975002 385:0.066022001 387:0.097806998 392:0.088831 393:0.160226 410:0.097704001 426:0.098958999 634:0.116238 635:0.13115899 638:0.157132 648:0.12938 677:0.109229 700:0.32285401 723:0.067630999 791:0.111568 1142:0.176873 1225:0.33461601 1449:0.15822101 1736:0.118182 1977:0.15454499 1994:0.13442899 2323:0.167652 2780:0.179461 3093:0.21093 6087:0.20861 7414:0.218951 #
1.0000000231766961178436758928001 6:0.077076003 9:0.056701001 10:0.045621 13:0.114703 14:0.093773 15:0.049049001 58:0.099201001 60:0.068158999 64:0.102018 65:0.079069003 68:0.132957 87:0.040780999 107:0.10644 112:0.057098001 124:0.081220001 127:0.100072 134:0.087251998 142:0.050875999 233:0.117133 240:0.148588 249:0.074432999 258:0.18772601 310:0.125707 315:0.078140996 316:0.105242 321:0.102557 356:0.088386998 426:0.091945998 492:0.104085 497:0.083325997 634:0.108001 668:0.079338998 701:0.10283 728:0.126532 740:0.110834 781:0.203435 783:0.084532999 792:0.27037701 797:0.22707701 807:0.057714 976:0.113931 993:0.075024001 1057:0.196573 1071:0.167684 1333:0.135406 1353:0.100452 1630:0.18989301 1770:0.191802 2447:0.20952401 2572:0.155771 2642:0.22143701 4490:0.191802 5458:0.249735 10187:0.28642699 #
1.0000000231766961178436758928001 1:0.13485201 9:0.116274 11:0.039088 15:0.047928002 16:0.091937996 35:0.020924 44:0.071461 48:0.082911998 58:0.096934997 87:0.039848998 98:0.065119997 100:0.108989 102:0.120778 107:0.104008 109:0.146668 113:0.048439998 126:0.077315003 142:0.049713999 158:0.146262 169:0.073308997 171:0.109514 172:0.16769101 208:0.059903 216:0.077459998 221:0.052297998 239:0.025107 244:0.054379001 276:0.046007998 285:0.124189 292:0.075349003 328:0.108132 350:0.055004001 354:0.067709997 370:0.052636001 382:0.12799799 385:0.101489 403:0.12648 404:0.15211999 408:0.185554 410:0.15019201 426:0.089845002 430:0.116358 447:0.13451301 450:0.092145003 465:0.162919 470:0.17980599 611:0.099427 635:0.249901 713:0.115926 760:0.181449 780:0.072504997 830:0.142177 909:0.1497 920:0.138979 933:0.157483 952:0.118844 1100:0.13941699 1200:0.173553 1450:0.106005 1517:0.138547 1609:0.130585 2437:0.157902 3397:0.15493301 5167:0.227357 14371:0.27988201 #
1.0000000231766961178436758928001 6:0.076145999 12:0.086199999 15:0.101694 18:0.116754 31:0.065114997 41:0.121823 61:0.10255 69:0.059526999 76:0.077817999 85:0.080311 91:0.070766002 99:0.056634001 104:0.058743 112:0.033316001 113:0.082921997 119:0.085033 126:0.032758001 142:0.050262999 145:0.118046 155:0.082285002 199:0.098865002 217:0.116669 221:0.052875001 226:0.067722999 228:0.173024 238:0.094334997 244:0.093088999 276:0.078759 299:0.120876 300:0.073709004 312:0.094443999 352:0.054947 354:0.068457998 357:0.110192 385:0.060603 395:0.108817 404:0.26759699 419:0.061634 530:0.081614003 544:0.090641998 567:0.124732 600:0.133416 682:0.088390999 686:0.124732 700:0.210273 738:0.079818003 765:0.114699 780:0.073305003 791:0.173397 1093:0.178045 1296:0.103111 1433:0.118761 1443:0.173024 1483:0.146795 1515:0.103253 1533:0.12972701 1555:0.299624 1609:0.22353999 1910:0.12757801 1946:0.15593401 2335:0.18251599 2401:0.148431 4832:0.179515 9297:0.260102 #
1.0000000231766961178436758928001 6:0.069917001 9:0.134216 10:0.041384 11:0.036286999 50:0.061873 62:0.118533 92:0.097681999 112:0.030591 119:0.13219599 121:0.140356 122:0.108666 131:0.069099002 134:0.079148002 146:0.079778001 164:0.128567 172:0.19295301 208:0.094155997 209:0.090778001 212:0.13480701 214:0.065968998 221:0.048549999 265:0.128618 290:0.128748 324:0.082436003 326:0.100071 370:0.048864 385:0.163927 410:0.082349002 448:0.062183 497:0.106531 510:0.097396001 516:0.15578701 665:0.092182003 714:0.253326 857:0.136289 937:0.14768 1100:0.129426 1140:0.093032002 1151:0.20217501 1156:0.206866 1827:0.53952497 1899:0.159972 2246:0.14449599 2260:0.14383 4671:0.19325601 4697:0.175825 #
-1.0000000231766961178436758928001 9:0.050639998 13:0.102442 24:0.099933997 36:0.065177001 38:0.061841998 41:0.052476998 58:0.088597998 76:0.070348002 85:0.122927 89:0.074729003 105:0.094933003 109:0.152431 122:0.050980002 155:0.074386999 172:0.31546399 188:0.14730699 210:0.084890001 239:0.038855001 246:0.21462201 249:0.066477001 256:0.065099001 267:0.071162999 282:0.070200004 299:0.109273 337:0.086277999 353:0.086480998 385:0.054786 392:0.073714003 404:0.139037 408:0.169595 419:0.055718001 494:0.089828998 530:0.07378 570:0.105181 579:0.093601003 597:0.072925001 663:0.197767 671:0.127589 760:0.069498003 792:0.115065 807:0.087273002 908:0.112514 1001:0.118445 1077:0.111789 1415:0.130391 1623:0.22033399 1645:0.14362 1653:0.148103 2358:0.162284 7698:0.223041 12049:0.450068 14356:0.25581101 #
-0.5453813775525653273490434003179 9:0.13777199 11:0.027354 15:0.056790002 26:0.102131 35:0.024793001 60:0.078915998 64:0.118118 75:0.068498999 76:0.053863 98:0.077160001 104:0.068843998 105:0.092513002 114:0.065568998 115:0.155028 122:0.211303 126:0.038389999 156:0.049771 169:0.086863004 171:0.129761 172:0.246277 212:0.17206199 221:0.061967 239:0.029750001 241:0.058341 244:0.064433999 251:0.155534 282:0.19098701 287:0.23520599 290:0.078303002 313:0.087911002 327:0.076206997 385:0.120253 392:0.095560998 457:0.104449 470:0.089281 497:0.11958 532:0.136107 569:0.33666399 572:0.127528 579:0.121342 592:0.094121002 676:0.092974 760:0.090095997 803:0.12185 825:0.17104401 858:0.083815999 868:0.169618 975:0.121007 1296:0.120841 1515:0.121007 1561:0.13537499 1576:0.215786 1623:0.136107 1669:0.12395 1681:0.13685299 2616:0.172664 3708:0.25121799 #
-0.22625189718553773143838725445676 11:0.033073999 38:0.057250001 76:0.080720998 112:0.027882 119:0.071163997 121:0.053610001 122:0.047194999 172:0.14188901 205:0.051447 208:0.050686002 226:0.056676999 244:0.046011999 247:0.074432999 267:0.065879002 290:0.055916999 316:0.14732701 342:0.117229 389:0.076021001 393:0.058651999 419:0.051580999 433:0.065319002 474:0.071578003 482:0.159224 508:0.078319997 561:0.088642001 583:0.187674 628:0.104616 669:0.114796 677:0.083910003 719:0.078587003 723:0.051955 753:0.108042 833:0.25187999 855:0.076682001 874:0.067873001 894:0.183755 978:0.096671999 979:0.096159004 1027:0.107019 1077:0.28891701 1256:0.111068 1329:0.113181 1415:0.12071 1500:0.121975 1583:0.099968001 1634:0.361433 1635:0.219008 1910:0.106769 2165:0.100958 2250:0.13109399 2739:0.160256 3639:0.14111499 4922:0.31528401 5967:0.145807 7238:0.19853701 12513:0.20648099 #
-0.61617549398111970404556814173702 121:0.16997901 172:0.265708 244:0.14589 271:0.230322 337:0.25324801 785:0.29009899 792:0.33774501 12136:0.75087303 #
0.17235409467520157456021934194723 1:0.071529001 11:0.020733001 22:0.068176001 26:0.077411003 31:0.121385 59:0.102441 89:0.073429003 92:0.094498999 98:0.058483999 109:0.184903 126:0.061065 138:0.068862997 143:0.058935001 145:0.14778601 146:0.077179 156:0.11617 171:0.166527 172:0.186667 180:0.20509499 181:0.156121 226:0.060157001 232:0.036375001 235:0.141121 239:0.022549 241:0.044220001 246:0.100489 292:0.067671001 308:0.12901001 352:0.048808999 385:0.053833 403:0.113591 419:0.054749001 426:0.080688998 452:0.058079999 484:0.160474 544:0.080516003 705:0.090847 759:0.086416997 895:0.101179 899:0.12256 910:0.079666004 916:0.129926 1008:0.112802 1114:0.13612001 1150:0.116976 1223:0.20012601 1342:0.095201999 1481:0.138514 1561:0.102609 1744:0.198844 1829:0.178528 1973:0.137292 2171:0.124428 2257:0.160763 2259:0.130395 3166:0.204188 3167:0.204188 4782:0.302275 7024:0.194326 12541:0.23104399 #
1.0000000231766961178436758928001 31:0.056320999 49:0.065730996 59:0.058913 72:0.131989 88:0.063553996 98:0.096419998 104:0.050809 109:0.061117001 124:0.069403 126:0.028333001 128:0.122879 137:0.084432997 155:0.120504 156:0.062194001 170:0.141781 201:0.206755 241:0.072903 248:0.058325998 276:0.040233999 309:0.148654 327:0.056244001 352:0.047525998 396:0.091347001 443:0.061207999 445:0.146267 450:0.080580004 457:0.077087998 483:0.18223301 486:0.14094 534:0.150694 583:0.092425004 594:0.103318 616:0.157664 617:0.154442 660:0.13091201 722:0.132318 759:0.176589 761:0.110092 931:0.109337 975:0.089308001 1008:0.18597201 1234:0.095462002 1350:0.213401 1422:0.088578999 1654:0.148654 1722:0.150694 2551:0.114195 2598:0.1231 3412:0.26504201 8999:0.213401 11257:0.414406 11258:0.244755 #
1.0000000231766961178436758928001 18:0.068796001 36:0.042482998 49:0.12837 76:0.045853 82:0.134553 88:0.073307 91:0.070601001 95:0.084187999 98:0.065686002 99:0.056503002 104:0.058605999 108:0.07767 109:0.070495002 111:0.12583099 114:0.117142 127:0.098635003 132:0.145926 137:0.057519998 138:0.130953 163:0.118942 164:0.112705 172:0.099900998 186:0.120114 201:0.113638 208:0.060423002 210:0.24446499 217:0.144272 231:0.083869003 232:0.040854 236:0.047205999 239:0.025326001 247:0.088733003 249:0.124217 279:0.146988 303:0.138896 322:0.13925201 350:0.093939997 351:0.118648 464:0.089570999 538:0.22719499 550:0.114633 557:0.17146599 597:0.080480002 668:0.24081101 676:0.079148002 731:0.089855 759:0.203688 766:0.172621 778:0.127225 789:0.118942 797:0.158804 799:0.107899 995:0.11715 1005:0.16527601 1488:0.156279 1906:0.13006499 3978:0.18904801 6021:0.229333 9692:0.282314 #
1.0000000231766961178436758928001 35:0.062858 77:0.391276 93:0.242934 206:0.237993 229:0.29637599 1784:0.45530799 1954:0.39536101 2595:0.52520502 #
0.56107549410978851955889012970147 8:0.127755 15:0.049291998 33:0.082203001 35:0.02152 44:0.043407001 60:0.068497002 76:0.079157002 105:0.038263001 109:0.121697 112:0.033890001 113:0.084349997 126:0.033321001 128:0.085350998 134:0.087683998 137:0.099297002 154:0.119668 156:0.090659998 163:0.121272 164:0.114912 171:0.112629 174:0.119003 194:0.102255 223:0.084950998 229:0.101466 232:0.070527002 239:0.025822001 243:0.093305998 248:0.178992 292:0.077492997 396:0.107429 410:0.091229998 419:0.062694997 452:0.066509999 475:0.119445 483:0.102122 485:0.133277 493:0.076737002 494:0.101078 559:0.098839 585:0.116065 668:0.079731002 709:0.15395799 719:0.095519997 722:0.23982701 731:0.091614999 736:0.17980599 825:0.087683998 861:0.14118899 977:0.103064 988:0.399865 995:0.119445 1122:0.11527 1578:0.15334301 2920:0.201754 3545:0.17849 4233:0.176002 6979:0.264579 10472:0.287844 #
0.37502477505334674834358565931325 9:0.048172001 11:0.020072 14:0.079668 31:0.055996001 37:0.054278001 43:0.107662 44:0.062132001 50:0.057948001 63:0.048259001 70:0.061177 76:0.039524 83:0.063187003 87:0.034646001 90:0.14246 91:0.060855001 93:0.16778301 94:0.070311002 98:0.095863998 99:0.048703 109:0.15855999 112:0.028650001 113:0.042116001 121:0.115605 164:0.097145997 217:0.059255999 223:0.121597 232:0.073900998 272:0.052590001 313:0.10922 370:0.045763999 385:0.145494 392:0.070120998 433:0.067117997 440:0.078881003 442:0.22795001 445:0.253021 493:0.064873002 512:0.10501 543:0.107736 595:0.097119004 627:0.090558998 771:0.087361999 935:0.083659999 964:0.101167 977:0.087130003 1057:0.098635003 1065:0.119722 1170:0.28482899 1355:0.141661 1824:0.102523 2165:0.103739 2169:0.133498 4806:0.164671 5186:0.197675 5900:0.21216901 13416:0.41201401 13417:0.243342 13418:0.243342 #
-1.0000000231766961178436758928001 56:0.179478 59:0.072403997 60:0.07158 65:0.083036996 94:0.086912997 109:0.127175 115:0.067004003 156:0.076435998 241:0.147732 248:0.071681999 268:0.141075 276:0.10377 350:0.059115 370:0.056570001 374:0.148443 393:0.074497998 422:0.126003 434:0.14636201 445:0.106169 464:0.095435999 465:0.103414 617:0.112103 710:0.267149 716:0.107419 741:0.108863 789:0.21457399 957:0.201427 974:0.308624 1013:0.10051 1057:0.20643701 1107:0.164297 1219:0.127979 1225:0.110833 1417:0.180355 1555:0.39319301 1609:0.334903 1665:0.144977 4355:0.19572701 #
-1.0000000231766961178436758928001 15:0.043331999 22:0.068631999 37:0.056441002 44:0.038159002 56:0.071943 63:0.050182998 81:0.080623999 94:0.073113002 98:0.058874998 109:0.063185997 111:0.112783 126:0.049596999 131:0.067295 155:0.073581003 163:0.35208601 172:0.089543 183:0.093498997 210:0.083971001 226:0.102536 239:0.022700001 243:0.082024999 246:0.101161 299:0.10809 340:0.129494 354:0.061216 370:0.047587998 448:0.102536 483:0.15200201 497:0.073614001 523:0.081404001 544:0.081054002 555:0.109195 560:0.080881 561:0.094714001 583:0.095554002 668:0.224097 719:0.083971001 764:0.100651 791:0.091577999 797:0.084067002 804:0.096271001 852:0.107025 910:0.080199003 928:0.089658998 974:0.099492997 1008:0.192268 1033:0.099656001 1110:0.101161 1468:0.085444003 1514:0.144198 1576:0.16464999 1592:0.16944499 1932:0.120601 2001:0.144945 2242:0.26966801 3360:0.150782 3412:0.161838 3545:0.26567 4023:0.191686 6177:0.200174 13687:0.253041 #
-1.0000000231766961178436758928001 11:0.020728 15:0.043033 33:0.071764998 37:0.094903998 43:0.065664999 101:0.116648 104:0.052166998 124:0.071258001 128:0.074513003 130:0.131322 156:0.079148002 164:0.059250999 181:0.12592401 182:0.16139001 212:0.077004999 219:0.058632001 223:0.074164003 226:0.060141001 239:0.022543 250:0.14884201 292:0.067653 313:0.066615 401:0.092462003 419:0.054733999 616:0.095606998 668:0.069606997 723:0.093344003 760:0.068271004 770:0.097856 778:0.066885002 797:0.17520601 804:0.095606998 813:0.10168 937:0.084357999 977:0.089977004 988:0.14629 1005:0.14711601 1017:0.112005 1093:0.158113 1125:0.084457003 1211:0.107778 1435:0.107778 1518:0.112773 1578:0.133872 1930:0.145487 1954:0.118167 2417:0.168276 2499:0.19427501 2521:0.17005201 2841:0.131815 3165:0.463985 3628:0.186911 3635:0.16501699 4163:0.178482 4228:0.15365399 8770:0.198792 10551:0.230984 #
-0.19959689940729005708242027594679 6:0.044764999 11:0.060625002 15:0.048232999 18:0.068637997 35:0.021058001 44:0.071915999 50:0.067073002 51:0.24143399 55:0.104371 59:0.067796998 70:0.070811003 91:0.119263 98:0.065535001 113:0.102304 114:0.055690002 138:0.077165 145:0.069398001 163:0.30965701 164:0.066412002 171:0.110211 172:0.209171 203:0.129765 217:0.068588004 219:0.065716997 239:0.025266999 248:0.067120999 256:0.121361 322:0.082055002 328:0.10882 370:0.089686997 393:0.118111 396:0.105123 429:0.109335 559:0.096717 561:0.105428 668:0.132098 778:0.178896 791:0.30029699 855:0.091202997 952:0.1196 993:0.073775999 1004:0.079172 1020:0.136142 1033:0.110929 1110:0.112604 1202:0.150653 1368:0.112224 1423:0.135369 1478:0.141664 1826:0.169958 1920:0.161341 2001:0.161341 2008:0.194989 2077:0.13575301 3371:0.14308199 3614:0.20290899 9997:0.281663 #
-0.73928899504590517288704631937435 10:0.040835001 11:0.044380002 12:0.078098997 15:0.043903999 18:0.105782 19:0.080582 35:0.019167 42:0.075452998 58:0.088794999 63:0.050845001 70:0.064455003 75:0.052956 76:0.041641001 88:0.112718 89:0.12681 93:0.074078999 98:0.059652001 99:0.051312 108:0.070534997 112:0.030185999 137:0.052235998 142:0.077105001 157:0.105996 163:0.257759 164:0.060451001 172:0.090723999 194:0.091077998 203:0.118117 208:0.054873001 219:0.059819002 231:0.076164998 232:0.037101001 237:0.120242 239:0.022999 256:0.065243997 310:0.11252 328:0.25847101 418:0.108226 419:0.055842001 427:0.100643 429:0.099521004 445:0.278662 459:0.098743998 560:0.081949003 561:0.095964998 668:0.169466 730:0.093679003 778:0.143207 797:0.085175999 803:0.094201997 975:0.093549997 1007:0.108437 1008:0.19480599 1069:0.097542003 1316:0.12853 1396:0.12853 1397:0.095825002 1824:0.182888 2142:0.156764 2485:0.136043 6062:0.173494 6402:0.223538 7560:0.235659 11109:0.25638101 11110:0.25638101 #
1.0000000231766961178436758928001 1:0.179105 11:0.041885 35:0.022422001 83:0.077876002 87:0.072296999 104:0.062259 105:0.111297 109:0.074888997 112:0.03531 113:0.087885 116:0.085571997 137:0.128235 145:0.073893003 147:0.198053 172:0.339313 190:0.123537 232:0.043400001 239:0.026904 240:0.10095 246:0.25161901 267:0.08343 272:0.064814001 350:0.058940001 385:0.108751 392:0.08642 418:0.1266 427:0.11773 430:0.124684 448:0.18729401 460:0.12562899 477:0.118698 530:0.086498998 665:0.106403 786:0.152868 818:0.114275 830:0.25795099 887:0.116787 933:0.13614701 952:0.12734701 975:0.185286 1026:0.098516002 1109:0.14846 1217:0.15606999 1342:0.33462501 1348:0.095964 1681:0.123763 3635:0.19694 6819:0.261489 #
1.0000000231766961178436758928001 9:0.053291999 11:0.046601001 50:0.064107001 56:0.076540001 60:0.064061999 83:0.069903001 98:0.106053 110:0.106902 111:0.119989 112:0.031695999 113:0.046592999 121:0.14542501 126:0.052765001 134:0.082006 155:0.132543 156:0.040403001 171:0.105337 204:0.093584999 219:0.062811002 221:0.050303001 240:0.14941201 245:0.124335 246:0.107624 256:0.068507999 257:0.209387 270:0.201801 299:0.114996 337:0.090796001 412:0.16041499 440:0.087265 592:0.076405004 596:0.14356001 597:0.076743998 631:0.160467 656:0.088136002 668:0.074569002 705:0.097296998 906:0.082823999 941:0.12026 1040:0.122819 1339:0.14703999 1342:0.101961 1478:0.135399 1497:0.13410001 1561:0.109894 1665:0.129749 2144:0.122232 2598:0.135399 3148:0.48664099 5866:0.218686 6952:0.269207 6953:0.247448 #
0.98181782608859757832675541067147 35:0.035631999 36:0.088895001 44:0.042449001 63:0.055826001 64:0.100261 87:0.067858003 91:0.070395999 105:0.063354999 109:0.22473399 112:0.033142 114:0.055656001 116:0.13598999 120:0.142995 122:0.056097999 145:0.117429 149:0.091852002 184:0.102292 222:0.096657999 239:0.025251999 240:0.117442 272:0.060834002 332:0.190488 351:0.118303 392:0.081114002 399:0.129366 403:0.12720799 432:0.16209599 434:0.080894999 497:0.101501 570:0.11574 682:0.245478 738:0.079401001 792:0.41816199 806:0.139779 863:0.118827 910:0.187231 1131:0.109791 1218:0.114705 1605:0.158811 1616:0.289473 1665:0.135671 2176:0.18156201 2191:0.144476 2304:0.120244 4167:0.165746 5232:0.183163 13345:0.258742 #
1.0000000231766961178436758928001 36:0.140071 156:0.1397 405:0.31542799 785:0.359624 4826:0.85559398 #
1.0000000231766961178436758928001 3:0.087506004 6:0.043556001 9:0.129462 18:0.066784002 24:0.107063 37:0.103501 41:0.056219999 45:0.149579 61:0.099319004 63:0.054350998 76:0.044512998 87:0.039019 88:0.071162999 99:0.054850001 109:0.19105101 112:0.032267001 113:0.047432002 114:0.091746002 121:0.062040001 122:0.092473999 126:0.031725999 131:0.072884999 134:0.083484001 142:0.048679002 181:0.170219 197:0.074147999 206:0.077575997 211:0.110315 222:0.094104998 239:0.024584999 244:0.053247999 256:0.069743 300:0.120869 385:0.099376999 440:0.150415 448:0.137646 493:0.073062003 497:0.079728 530:0.16588099 569:0.16432101 579:0.16978399 583:0.10349 682:0.085607 723:0.060125001 803:0.100697 835:0.12002 874:0.078546003 910:0.18228599 933:0.124412 1135:0.127215 1149:0.110891 1298:0.19942001 1358:0.13969199 1435:0.117541 1468:0.092541002 1600:0.129559 1662:0.13061801 1765:0.145423 2006:0.12853301 2250:0.15170901 2555:0.44747499 4154:0.18545701 7002:0.222627 #
-1.0000000231766961178436758928001 11:0.023556 91:0.071419001 106:0.14008 109:0.186084 112:0.033624001 121:0.135673 125:0.116579 126:0.06938 143:0.066959001 145:0.14766499 208:0.10349 243:0.092574 244:0.13240901 249:0.17709699 260:0.213138 265:0.29668 271:0.14832 321:0.102255 350:0.056125 351:0.148764 352:0.055454001 370:0.053707998 414:0.101321 419:0.062203001 426:0.155219 448:0.068347998 453:0.08185 454:0.119401 538:0.135739 544:0.15488701 719:0.094769999 807:0.057544 887:0.111209 1033:0.112473 1069:0.108653 1217:0.087774999 1765:0.42306 1954:0.13429099 2014:0.19540501 2049:0.20890699 2326:0.145073 4860:0.249 4954:0.22591799 5295:0.18582501 #
-0.69220555323941990177871730338666 8:0.114533 11:0.036038999 22:0.16701899 23:0.042536002 31:0.059381001 32:0.217565 69:0.054285001 76:0.041912999 87:0.036741 92:0.164261 105:0.058079001 109:0.109102 114:0.051022001 119:0.077545002 121:0.098908 122:0.122719 143:0.060504001 146:0.079233997 150:0.089484997 156:0.065573998 164:0.060844999 186:0.109792 208:0.055231001 214:0.065518998 231:0.076661997 232:0.037342999 244:0.050138 268:0.121027 284:0.10334 290:0.060931001 292:0.117627 385:0.055266 393:0.063910998 452:0.059627 457:0.081276 497:0.075071998 525:0.133867 526:0.136397 592:0.073238999 665:0.091553003 752:0.108932 772:0.281813 906:0.079392001 975:0.094159998 991:0.079471998 1305:0.102817 1647:0.112769 1680:0.155711 1728:0.107484 1772:0.138024 1892:0.38179001 2888:0.144187 3245:0.20413899 3392:0.16791099 4977:0.176568 7002:0.43992099 #
-0.72584163381193911313005173724378 5:0.091421001 6:0.103608 9:0.16046301 10:0.049477 11:0.025622999 23:0.051204 31:0.071480997 36:0.111546 44:0.079314001 50:0.073973 68:0.14419401 87:0.105539 97:0.112575 104:0.064485997 112:0.061923999 127:0.10853 181:0.091936 236:0.087944001 321:0.111225 340:0.158968 351:0.077105001 354:0.12724 370:0.058419 453:0.089029998 457:0.097837001 512:0.226965 517:0.40125501 538:0.147646 628:0.137226 682:0.16429 700:0.13633201 707:0.12254 740:0.120202 896:0.104892 977:0.111225 991:0.095665999 1342:0.280754 1954:0.38116401 2551:0.144933 3795:0.39120001 #
-0.2445741961129665742458172417173 9:0.047754001 14:0.078977004 15:0.069944002 35:0.018035 44:0.061593 77:0.112263 100:0.093938001 124:0.068405002 126:0.027926 208:0.087417997 221:0.045076001 226:0.057732999 232:0.034908999 238:0.080420002 245:0.111415 248:0.057487 276:0.039655 315:0.065811999 322:0.207028 327:0.055434 331:0.140433 336:0.24860001 341:0.130693 354:0.098811999 392:0.069513001 411:0.107279 426:0.077437997 588:0.093640998 597:0.068769 615:0.128005 738:0.068044998 760:0.065537997 827:0.301667 846:0.099007003 910:0.076456003 935:0.082934998 1004:0.067806996 1146:0.077354997 1329:0.115291 1491:0.115291 1600:0.114041 1601:0.099367 1970:0.154286 2551:0.236203 3113:0.389864 4316:0.20223799 4329:0.156966 5179:0.195961 5643:0.179427 12240:0.221735 12242:0.221735 12524:0.24123301 #
-0.51163632818545112801444929573336 6:0.080167003 11:0.068603002 13:0.119304 23:0.049107 35:0.022273 44:0.044925999 45:0.077480003 49:0.080007002 71:0.124557 76:0.048386998 87:0.071817003 92:0.112002 93:0.14574599 122:0.100524 126:0.082296997 142:0.052917 149:0.097211003 170:0.101926 209:0.104086 221:0.055667002 226:0.071299002 239:0.045249999 244:0.098004997 292:0.13579801 322:0.146947 327:0.068460003 350:0.099131003 351:0.073948003 354:0.072072998 385:0.166491 411:0.224319 448:0.22795901 493:0.079421997 497:0.086668 530:0.085924 575:0.106954 750:0.316535 863:0.212929 868:0.152375 869:0.137253 910:0.15987 1427:0.114211 1468:0.100597 1561:0.121613 1601:0.122716 1933:0.14839999 2329:0.149838 5967:0.183424 6573:0.21792801 7351:0.34919399 12233:0.297916 #
1.0000000231766961178436758928001 10:0.041715 50:0.062368002 60:0.062323999 86:0.086813003 87:0.037289001 88:0.068007 94:0.075673997 99:0.052416999 105:0.034814 113:0.095127001 130:0.136866 134:0.079782002 137:0.053360999 149:0.08546 155:0.076158002 156:0.039306998 163:0.28793299 164:0.129595 172:0.092679001 183:0.096773997 205:0.056896001 214:0.066496998 217:0.063776001 240:0.052067 290:0.061840001 292:0.070509002 293:0.078929998 341:0.083802998 353:0.088541001 405:0.088751003 419:0.057045002 429:0.101664 445:0.092440002 491:0.091045998 616:0.099642999 650:0.088646002 654:0.165501 668:0.18930399 671:0.077150002 723:0.057457998 730:0.095697001 752:0.110557 759:0.090040997 760:0.071153 765:0.106158 777:0.089932002 778:0.069709003 859:0.122196 945:0.104351 952:0.111209 964:0.108883 969:0.151629 1008:0.246657 1015:0.139523 1057:0.25332499 1134:0.112787 1171:0.105788 1196:0.116471 1225:0.096501 1238:0.19839901 1296:0.095434003 1340:0.098174997 1353:0.091852002 1374:0.104002 1533:0.120068 1558:0.136361 2375:0.18357199 2598:0.131725 4299:0.170417 9064:0.26190299 9065:0.207185 #
1.0000000231766961178436758928001 15:0.032260999 41:0.038646001 44:0.028409 84:0.082326002 91:0.047111999 112:0.02218 114:0.037248001 115:0.041963998 126:0.036924999 142:0.033461999 163:0.22158299 164:0.044419002 172:0.066664003 174:0.131872 180:0.058906998 183:0.06961 203:0.182144 206:0.090288997 239:0.016899999 242:0.083967 250:0.111583 293:0.056775 340:0.096408002 351:0.046760999 399:0.22592001 440:0.061067 492:0.068458997 493:0.050223 497:0.054804999 668:0.136168 676:0.089424998 723:0.041329999 743:0.075060003 759:0.064767003 794:0.074685 814:0.14012299 858:0.080615997 935:0.064767003 1008:0.084542997 1149:0.076227002 1170:0.15645599 1268:0.061000999 1403:0.089542001 1477:0.078914002 1519:0.209786 1689:0.211468 1847:0.11599 1973:0.102898 1998:0.15461899 2001:0.107912 2750:0.119512 3001:0.24696501 3545:0.197791 3554:0.25232899 4299:0.20754901 4318:0.15793601 4319:0.31896999 4320:0.267409 4321:0.188389 4322:0.16425601 #
1.0000000231766961178436758928001 10:0.092223004 11:0.022758 15:0.079995997 22:0.074832998 30:0.170221 31:0.063488998 35:0.020626999 37:0.12915 44:0.041606002 49:0.074096002 59:0.13937099 75:0.056988999 88:0.071641997 98:0.064195 109:0.179776 163:0.27738601 170:0.159825 180:0.181051 201:0.18803801 204:0.162395 210:0.091558002 236:0.046133999 271:0.084629998 290:0.065145999 299:0.19954801 315:0.075269997 352:0.053574 354:0.066747002 370:0.087853 436:0.183082 634:0.104033 648:0.115795 656:0.090328 668:0.160384 752:0.116467 778:0.226138 894:0.072671004 974:0.108483 992:0.144182 1026:0.15345199 1131:0.107611 1140:0.098788999 1305:0.109929 1477:0.115574 1710:0.18878201 1760:0.229831 2210:0.116241 2339:0.17646 2371:0.165427 2487:0.179526 2513:0.160616 2533:0.17502999 13876:0.25360399 #
1.0000000231766961178436758928001 6:0.114347 11:0.021257 18:0.062801003 35:0.032621998 36:0.038780998 61:0.093396001 63:0.086535998 85:0.073142 87:0.036692001 95:0.076852001 105:0.034258001 112:0.030342 126:0.050512999 143:0.060424 146:0.079130001 156:0.08117 208:0.055158 214:0.110787 217:0.062756002 220:0.145395 243:0.083539002 244:0.08478 248:0.061414 249:0.066972002 267:0.071691997 300:0.067129999 351:0.063969001 393:0.063826002 512:0.34246901 519:0.116736 523:0.082906999 597:0.124391 623:0.087539002 650:0.087227002 658:0.44788501 665:0.091433004 671:0.075916 759:0.088601001 770:0.100356 787:0.086919002 851:0.370276 858:0.065133996 936:0.136218 1057:0.219221 1107:0.140762 1457:0.30584201 2242:0.162211 3032:0.169232 3950:0.166224 4096:0.191686 #
1.0000000231766961178436758928001 11:0.019097 37:0.087434001 50:0.093346 60:0.055093002 76:0.089731999 81:0.073766001 109:0.057810999 115:0.051571 128:0.116233 130:0.120987 131:0.171892 137:0.047169998 164:0.054588001 181:0.116014 197:0.062638 198:0.13083 219:0.054017 229:0.081610002 232:0.033503 238:0.077180997 246:0.092556 276:0.064437002 285:0.102728 321:0.082896002 429:0.089869 450:0.076220997 453:0.112347 457:0.072917998 470:0.062329002 583:0.087425999 597:0.065999001 690:0.091783002 723:0.085997999 740:0.089585997 753:0.105624 771:0.083116002 778:0.104333 804:0.088082999 805:0.122849 824:0.113221 858:0.058513001 935:0.079595 936:0.122371 988:0.32161701 992:0.120987 1026:0.076050997 1065:0.113904 1398:0.116825 1486:0.140614 1533:0.106138 1534:0.11967 1724:0.098895997 1903:0.12998 2513:0.13477699 3165:0.138814 4884:0.231517 4885:0.178986 4886:0.162274 4887:0.231517 4888:0.212805 4889:0.231517 4890:0.231517 4891:0.231517 4892:0.15503199 #
-1.0000000231766961178436758928001 6:0.143416 11:0.031191999 35:0.028271001 69:0.079549 104:0.078501001 109:0.225328 112:0.044521999 114:0.074767001 115:0.084233999 126:0.043776002 143:0.088661999 156:0.056752998 183:0.139727 198:0.12621 204:0.131458 209:0.132118 221:0.070660003 383:0.086778 401:0.139138 440:0.207545 592:0.107324 655:0.151953 719:0.125488 778:0.26263699 811:0.116927 818:0.34383601 910:0.119851 1026:0.124218 1057:0.15327699 1126:0.109861 1140:0.135399 1149:0.153009 1276:0.187775 1312:0.165251 1334:0.28866199 3572:0.30718401 10449:0.37814999 #
-1.0000000231766961178436758928001 23:0.041602999 35:0.018869 41:0.087664001 44:0.064442001 45:0.065640002 60:0.060059998 91:0.063118003 105:0.033550002 110:0.23916499 112:0.029716 126:0.029216999 131:0.067121997 142:0.044831 151:0.091095999 162:0.090012997 183:0.093258999 184:0.091715999 201:0.101593 204:0.087738998 222:0.086664997 238:0.084140003 239:0.038334999 240:0.050175998 243:0.081813999 248:0.060145002 249:0.065587997 258:0.069320001 272:0.054545 422:0.105724 436:0.098916002 450:0.083094001 498:0.093258999 508:0.083470002 817:0.101769 921:0.127358 934:0.336016 974:0.099238001 985:0.205025 988:0.38339999 991:0.077728003 1026:0.140374 1119:0.097663999 1125:0.202418 1140:0.153009 1338:0.097511001 1366:0.17690501 1450:0.095592 1713:0.1213 2049:0.184626 2123:0.17926 2371:0.151329 2403:0.13445599 2430:0.118371 3682:0.187727 3683:0.205025 3684:0.199659 3685:0.174724 #
-1.0000000231766961178436758928001 8:0.074072003 9:0.055937 11:0.048914 30:0.174334 31:0.065021999 35:0.021125 36:0.042521 37:0.106715 44:0.042610999 49:0.12848599 50:0.067289002 61:0.102404 63:0.056039002 64:0.100644 70:0.071038999 87:0.040231001 113:0.048905 126:0.055383999 163:0.20156901 164:0.17385501 170:0.16368601 171:0.110565 172:0.1693 197:0.076449998 203:0.130182 212:0.086589001 219:0.065929003 222:0.097028002 223:0.083393998 239:0.025348 248:0.067336999 327:0.064933002 328:0.10917 357:0.110035 385:0.102464 431:0.37713 447:0.135804 458:0.088356003 494:0.099225 510:0.105921 512:0.206458 523:0.090902999 658:0.24470299 668:0.23057701 722:0.090222999 738:0.079704002 752:0.31125599 797:0.15894701 825:0.086076997 899:0.137778 1020:0.13657901 1037:0.122959 1461:0.13322601 1732:0.154339 1843:0.180723 2520:0.155018 #
-0.95621427306106943078134463576134 10:0.051621001 22:0.087903999 35:0.02423 94:0.24436 113:0.094973996 126:0.037517998 142:0.057567999 163:0.42048699 172:0.114687 202:0.108672 246:0.129568 290:0.076525003 292:0.147733 303:0.159453 322:0.094416998 350:0.063694 385:0.069411002 440:0.17787901 448:0.131329 483:0.114985 485:0.31492499 523:0.104263 559:0.111288 661:0.21301 668:0.152 731:0.103154 752:0.23164199 759:0.233835 1056:0.178597 1057:0.131368 1060:0.148946 1146:0.103927 1477:0.28491101 1818:0.209042 4905:0.21702801 #
-1.0000000231766961178436758928001 9:0.058072001 10:0.046723999 11:0.050781 76:0.047646999 88:0.076173998 91:0.073362 99:0.099408001 104:0.060897999 109:0.215794 113:0.085964002 121:0.139364 123:0.081326999 126:0.071267001 150:0.17223801 165:0.144327 180:0.091728002 182:0.23352 223:0.086576998 240:0.12239 247:0.092202999 276:0.081648 307:0.16165499 313:0.077765003 314:0.131346 315:0.13550401 321:0.105037 350:0.057652 370:0.055169001 539:0.104349 559:0.100731 570:0.31474301 579:0.107338 640:0.14902 650:0.099290997 665:0.104077 710:0.153877 743:0.116882 759:0.100854 760:0.079697996 792:0.131952 837:0.086658001 851:0.231741 858:0.074142002 889:0.127923 931:0.13104799 974:0.115344 986:0.127923 993:0.130098 1140:0.105037 1268:0.094989002 1342:0.111107 1449:0.150564 1475:0.126854 1540:0.108089 1879:0.17589 2024:0.163911 2304:0.12531 2344:0.21819501 2430:0.137583 2579:0.167171 #
1.0000000231766961178436758928001 6:0.045641001 8:0.075280003 22:0.077890001 32:0.15710101 35:0.021469999 44:0.043306001 69:0.060412001 92:0.25763601 114:0.056779999 121:0.13643 122:0.057231002 126:0.056287002 132:0.14844 156:0.112467 164:0.067712002 169:0.075220004 211:0.115596 214:0.123454 221:0.090856001 232:0.041558001 235:0.16123 236:0.048018999 261:0.1964 267:0.079888001 271:0.088088997 292:0.13090301 350:0.13467801 351:0.120692 354:0.069475003 356:0.088619001 370:0.054008 433:0.079209 457:0.090448998 465:0.098731004 469:0.14791299 470:0.077313997 474:0.146963 484:0.108284 497:0.049343001 522:0.144437 650:0.097199999 812:0.112916 813:0.116199 852:0.121463 869:0.132305 910:0.091017999 933:0.13036799 977:0.102826 991:0.088440999 1728:0.202526 1892:0.34170601 1902:0.115796 2221:0.26396701 2466:0.19039001 2628:0.217545 2686:0.201287 3795:0.21360099 #
1.0000000231766961178436758928001 11:0.044069 13:0.089659996 14:0.073299997 15:0.038339999 36:0.070704997 38:0.054125998 59:0.053892002 76:0.06157 81:0.071336001 105:0.029762 113:0.03875 122:0.124565 126:0.025917999 138:0.061338 162:0.079848997 181:0.066262998 197:0.102562 206:0.063376002 233:0.091559999 244:0.043501001 251:0.220365 267:0.162524 313:0.059351001 330:0.091395997 338:0.192129 393:0.05545 459:0.086231001 470:0.060276002 483:0.079433002 493:0.101061 622:0.102145 671:0.065953001 701:0.080379002 743:0.089206003 782:0.085440002 807:0.045113001 991:0.068951003 993:0.058644 1004:0.062932998 1033:0.088175997 1205:0.161291 1333:0.179208 1509:0.117887 1515:0.081696004 1596:0.123377 1736:0.085832998 2197:0.12824801 2619:0.1877 2620:0.17711499 2691:0.103928 4377:0.18187501 5808:0.18187501 10680:0.19521099 11930:0.205796 13791:0.223892 13792:0.223892 13793:0.223892 13794:0.223892 13795:0.223892 13796:0.223892 13797:0.223892 #
1.0000000231766961178436758928001 10:0.038981002 11:0.03418 15:0.04191 18:0.059638999 26:0.15817399 35:0.018297 36:0.036828 39:0.087168999 41:0.050206002 76:0.039749999 103:0.104543 112:0.028814999 121:0.093804002 156:0.036729999 172:0.241778 178:0.094851002 179:0.082836002 208:0.052381001 210:0.081215002 241:0.043055002 282:0.187498 292:0.111558 303:0.120408 352:0.047522999 370:0.046025999 392:0.070523001 428:0.29163 433:0.067502998 456:0.23156001 457:0.18394101 464:0.13147099 474:0.073971003 556:0.120045 661:0.095000997 734:0.134864 740:0.094701998 771:0.087862 783:0.072228998 894:0.064461999 896:0.08264 905:0.148643 977:0.087630004 986:0.106722 1146:0.078478999 1424:0.098007999 1432:0.107179 4293:0.127424 7155:0.17630801 8923:0.244737 8924:0.244737 8925:0.244737 8926:0.244737 8927:0.380885 #
1.0000000231766961178436758928001 11:0.088962004 31:0.084246002 35:0.027371 60:0.087121002 73:0.40891099 87:0.052126002 95:0.109177 109:0.218155 122:0.153117 143:0.085839003 197:0.236369 209:0.127912 226:0.087619998 231:0.25954199 265:0.18123201 276:0.060183 287:0.259662 321:0.131088 323:0.135663 327:0.142445 341:0.117148 352:0.14919201 419:0.079742 426:0.117525 440:0.200938 550:0.14865801 560:0.117023 633:0.14234 668:0.101411 991:0.11275 3666:0.209713 3736:0.23614 4008:0.36611101 #
1.0000000231766961178436758928001 8:0.132723 10:0.038426999 39:0.085931003 56:0.068594001 70:0.102696 75:0.049834002 81:0.076870002 99:0.048285998 119:0.122751 131:0.064162001 137:0.049155999 146:0.074078001 210:0.080062002 212:0.15515199 221:0.045081001 226:0.057739999 238:0.080430001 271:0.12530001 308:0.123827 326:0.092921004 350:0.132369 383:0.055365 393:0.059751999 401:0.088771001 448:0.057739999 484:0.090970002 592:0.068472996 594:0.101844 627:0.089783996 656:0.078987002 669:0.11695 677:0.085484996 723:0.111078 741:0.087315001 760:0.065545999 825:0.073494002 937:0.080990002 1037:0.104984 1077:0.17851 1125:0.081084996 1237:0.29758599 1305:0.162756 1334:0.108773 1353:0.084611997 1422:0.087315001 1426:0.110605 1811:0.153053 1814:0.138928 2198:0.159949 2294:0.24052399 2692:0.17135599 3062:0.137486 3784:0.24126101 3785:0.40606099 3786:0.221762 3787:0.24126101 #
-0.58402225441727229071631199985859 8:0.214155 22:0.075217001 38:0.067041002 45:0.072122999 60:0.065991998 62:0.074721001 76:0.045042001 92:0.29106501 98:0.064524002 105:0.077362999 119:0.174886 121:0.13174701 122:0.055266 126:0.076606996 137:0.056501999 156:0.099319004 208:0.059354 221:0.051819 223:0.081845 227:0.10119 239:0.024878001 267:0.077146001 272:0.059932001 281:0.115293 290:0.065480001 323:0.102761 327:0.063726999 350:0.054501001 497:0.124337 550:0.112605 592:0.078707002 716:0.099033996 760:0.179787 783:0.081845 825:0.084477998 832:0.153514 837:0.081920996 936:0.14658099 937:0.093094997 1108:0.26189601 1127:0.097755998 1151:0.26746401 1225:0.102181 1305:0.110493 1433:0.116389 1788:0.119182 2009:0.12905701 2039:0.13521799 3776:0.554793 #
-0.1933394114386146889206230525815 11:0.043721002 14:0.06216 15:0.055050001 18:0.046266999 31:0.04369 37:0.042349 38:0.045899 44:0.028632 70:0.047731999 99:0.064338997 133:0.121432 149:0.061953001 170:0.064957999 180:0.059367999 221:0.035477001 239:0.017031999 240:0.037746001 241:0.033401001 248:0.045244999 276:0.074478 321:0.067982003 322:0.055312 332:0.128482 418:0.191255 419:0.041354001 428:0.124393 436:0.074410997 453:0.054416001 464:0.060238998 470:0.086544998 472:0.186115 508:0.062790997 545:0.069471002 559:0.065195002 617:0.070758998 656:0.06216 679:0.079991996 682:0.100416 780:0.049185 783:0.056033999 857:0.099592 874:0.054416001 914:0.064645998 993:0.049731001 1234:0.074052997 1424:0.076033004 1650:0.069957003 1659:0.10765 1853:0.125874 2519:0.14382701 3715:0.25688401 4202:0.15423299 4257:0.125874 5487:0.174519 6097:0.239106 6726:0.15423299 6971:0.280287 6972:0.295486 6973:0.15423299 6974:0.18986399 6975:0.347408 6976:0.18986399 6977:0.280287 #
-0.30443471068683097824347782989207 35:0.019065 36:0.038373999 63:0.050572999 77:0.118675 87:0.036307 88:0.066216998 112:0.063009001 113:0.044135999 114:0.050420001 126:0.029521 131:0.067818999 137:0.123984 143:0.05979 149:0.083209999 154:0.25298899 155:0.15561999 194:0.090590999 201:0.215418 214:0.064746 231:0.158986 232:0.036903001 239:0.022876 444:0.089207999 452:0.058924001 475:0.10582 483:0.153185 597:0.123086 628:0.112653 650:0.086312003 701:0.155008 719:0.084624 739:0.100928 907:0.123258 935:0.14844 1025:0.20356999 1077:0.188682 1256:0.202499 1374:0.101264 1397:0.095312998 1446:0.12434 1558:0.132772 1859:0.16051 2319:0.150153 2862:0.222342 2866:0.362149 4099:0.183708 8306:0.213788 11176:0.35073999 #
-0.12133273964009434753297256293081 87:0.074492 239:0.046935 399:0.240449 475:0.21711101 648:0.37178901 673:0.53803599 1012:0.16226999 1910:0.39939001 12683:0.52320302 #
-1.0000000231766961178436758928001 1:0.077028997 11:0.022328001 18:0.065963 23:0.044619001 35:0.020237001 36:0.040732998 41:0.094019003 49:0.072695002 70:0.068051003 88:0.070288002 91:0.114615 98:0.062981002 109:0.067592002 112:0.03187 122:0.053945001 137:0.055151001 138:0.074157998 143:0.107458 147:0.105577 156:0.085256003 248:0.064506002 249:0.070343003 306:0.27301601 341:0.086613998 352:0.052561998 470:0.152935 493:0.072163999 530:0.18629999 595:0.108033 600:0.26783299 668:0.074979 671:0.079737999 701:0.097179003 723:0.059385002 743:0.107851 753:0.123494 776:0.13942 780:0.070123002 807:0.054542001 888:0.114713 933:0.21380299 1057:0.109719 1340:0.101468 1423:0.13009401 1523:0.30143201 2060:0.14145701 3150:0.53312498 4892:0.181262 8061:0.22693101 #
1.0000000231766961178436758928001 2:0.075902 5:0.061889999 15:0.036012001 23:0.058690999 31:0.081932999 37:0.046905998 42:0.061889999 44:0.031711999 76:0.071680002 98:0.048928998 108:0.057856001 109:0.137026 111:0.093731001 124:0.125144 128:0.062355999 146:0.109326 155:0.103538 212:0.064441003 219:0.083075002 241:0.062638 249:0.092528 350:0.041328002 477:0.083231002 483:0.15657499 544:0.141366 621:0.093310997 668:0.058249999 726:0.099414997 778:0.094769001 888:0.089119002 953:0.091898002 974:0.173526 993:0.093262002 1014:0.089649998 1274:0.098370999 1329:0.170169 1424:0.084215 1458:0.21216901 1576:0.13683499 1580:0.121096 1712:0.176301 2004:0.117501 2250:0.116411 2401:0.110308 2463:0.129476 2487:0.13683499 2520:0.301045 3951:0.156416 5232:0.13683499 6078:0.193297 7351:0.14558101 14193:0.35605901 14194:0.35605901 14195:0.21029399 #
0.38751137692612425134086606703931 5:0.076045997 11:0.036086999 35:0.019317999 60:0.061489001 70:0.064961001 76:0.041967999 104:0.053640999 109:0.135408 111:0.115169 121:0.099039003 128:0.076618001 137:0.052646 143:0.060584001 156:0.03878 201:0.10401 209:0.090278 223:0.076259002 232:0.063311003 233:0.105669 248:0.104257 272:0.055842999 322:0.075276002 385:0.116135 395:0.099365003 434:0.074257001 457:0.081384003 464:0.081982002 478:0.119641 483:0.192388 532:0.10605 544:0.082768999 579:0.094545998 617:0.096299 621:0.114654 622:0.117886 665:0.091674 707:0.101931 752:0.26028699 797:0.145349 804:0.16644999 906:0.079497002 977:0.092519999 981:0.111049 1065:0.12712701 1490:0.195886 1491:0.123493 1493:0.16813301 1497:0.128713 1579:0.207381 1635:0.14113399 1812:0.17485701 1977:0.129539 2566:0.17303 3374:0.149598 4325:0.229487 4512:0.181113 6524:0.29004899 7351:0.17888001 13660:0.258394 #
0.55622570912015478761247777583776 10:0.038860999 11:0.020125 49:0.065522999 57:0.099420004 59:0.058727998 63:0.048386998 65:0.067351997 86:0.080872998 88:0.063354 93:0.070496999 98:0.096115999 99:0.048831001 109:0.187612 112:0.028726 134:0.074322999 139:0.119675 156:0.036617 170:0.17518 194:0.086673997 201:0.09821 212:0.074764997 226:0.058391999 237:0.114428 239:0.021887001 325:0.102008 397:0.074914001 443:0.061016001 465:0.083880998 483:0.181659 560:0.077986002 668:0.114427 698:0.27954701 778:0.18129399 783:0.072006002 802:0.128961 896:0.082386002 974:0.16242801 1069:0.092826001 1198:0.100136 1316:0.122315 1427:0.093534999 1433:0.214894 1523:0.129464 1583:0.102993 1596:0.13444901 1724:0.104221 1973:0.279668 2143:0.136325 2921:0.27126899 3051:0.32482401 3057:0.113255 3462:0.37455299 #
1.0000000231766961178436758928001 9:0.146014 18:0.058369 19:0.075282998 33:0.068402998 44:0.061156999 63:0.047502 83:0.105306 98:0.05573 142:0.042544998 162:0.085423999 179:0.081070997 187:0.119693 197:0.064804003 229:0.084431998 248:0.057078999 370:0.045046002 393:0.059321001 426:0.076889001 429:0.092977002 448:0.057324 453:0.068648003 473:0.186839 483:0.14388201 505:0.25305399 540:0.148526 597:0.068282001 656:0.078417003 668:0.20431 719:0.079484999 731:0.129078 780:0.062049001 807:0.048262 825:0.072963998 829:0.128113 885:0.081359997 974:0.094177999 1125:0.080500998 1140:0.145208 1180:0.17255101 1292:0.137927 1552:0.206714 1806:0.120865 2004:0.13383301 2039:0.30475301 2085:0.133205 2323:0.130262 2780:0.139437 3941:0.13383301 5525:0.181445 5821:0.208839 5822:0.35359499 5823:0.18948001 5824:0.23952299 #
1.0000000231766961178436758928001 6:0.035342999 8:0.122338 11:0.018343 13:0.089056 35:0.02815 45:0.057836 108:0.061182 109:0.132511 112:0.044330999 116:0.063451998 119:0.066826001 122:0.115645 123:0.061652001 141:0.209397 149:0.072563998 219:0.051886 221:0.041554 222:0.076361001 226:0.090112999 239:0.041866001 290:0.052508 306:0.106878 356:0.068623997 448:0.053222001 483:0.078897998 497:0.080187 512:0.095964998 544:0.12061 628:0.098240003 668:0.061599001 690:0.088160999 733:0.113742 852:0.094058 855:0.072007999 888:0.094241999 961:0.126087 974:0.087439001 1008:0.209438 1119:0.086052001 1198:0.091270998 1305:0.088605002 1461:0.104849 1549:0.094241999 1638:0.117544 1641:0.106579 1815:0.254798 1824:0.22357801 2260:0.123103 2721:0.26742801 2887:0.228687 3182:0.14603101 3362:0.14223 4886:0.155872 4953:0.150488 8168:0.204409 12528:0.46669501 #
-1.0000000231766961178436758928001 11:0.038373999 26:0.084620997 35:0.020543 44:0.041436002 63:0.092265002 98:0.134168 109:0.202126 111:0.12247 121:0.062201999 124:0.077914998 170:0.094007999 195:0.121118 197:0.074340999 208:0.058809001 212:0.142563 232:0.039763 239:0.024649 241:0.048339002 245:0.12690599 350:0.054000001 385:0.058846999 433:0.075787999 436:0.18233199 483:0.097484998 668:0.076110996 719:0.091182999 752:0.24341799 778:0.233826 780:0.071180999 784:0.160861 787:0.092673004 797:0.091287002 804:0.10454 812:0.108039 855:0.088972002 912:0.11599 1008:0.123309 1110:0.185991 1126:0.079828002 1413:0.148799 1736:0.105339 1824:0.115765 1971:0.170385 1973:0.35813701 2004:0.153529 2077:0.132432 2223:0.197946 3157:0.305502 4670:0.217366 4806:0.185941 6524:0.18216699 #
-1.0000000231766961178436758928001 11:0.04033 35:0.021589 56:0.172304 60:0.068719 75:0.059648 76:0.079414003 87:0.041115001 89:0.084360003 104:0.059948001 105:0.038387001 108:0.079448 109:0.122092 115:0.064326003 121:0.065371998 124:0.228607 128:0.085626997 131:0.214405 201:0.11624 207:0.12757 216:0.079921998 229:0.101795 232:0.041788999 236:0.048285998 239:0.025905 241:0.050802 265:0.14295 271:0.088578999 276:0.080374002 312:0.096381001 314:0.129297 324:0.091622002 327:0.066359997 352:0.056074001 385:0.061845999 445:0.101925 597:0.082323 650:0.097741999 723:0.107267 739:0.114293 783:0.085225999 797:0.095939003 807:0.098518997 861:0.141647 937:0.096941002 1234:0.190703 1277:0.19758999 1374:0.114674 1397:0.107934 1424:0.195802 1493:0.187903 1549:0.122379 2282:0.15091 2595:0.180389 2691:0.134048 3672:0.18319701 3813:0.20803399 5244:0.26543701 5245:0.28877699 5246:0.26543701 #
-1.0000000231766961178436758928001 6:0.070460998 11:0.021598 44:0.039487001 58:0.090687998 63:0.051929001 73:0.112077 81:0.083429001 88:0.067992002 91:0.13742299 105:0.034807 109:0.170617 143:0.061393 147:0.102128 164:0.061739001 170:0.089585997 197:0.070844002 198:0.087393001 216:0.072467998 232:0.064157002 233:0.18130299 240:0.088137999 241:0.096671 243:0.084879003 249:0.18996701 293:0.078913003 352:0.050845001 397:0.080398999 419:0.057032999 452:0.102441 579:0.095808998 634:0.16716801 752:0.110533 792:0.19941799 807:0.089331001 885:0.088942997 1114:0.29758 1351:0.141798 1520:0.111628 1564:0.17534199 1967:0.16889 1968:0.26184601 1969:0.191543 1970:0.16746899 1971:0.162369 1972:0.241109 1973:0.14302 1974:0.240683 1975:0.26184601 1976:0.148462 1977:0.13127001 1978:0.15159599 1979:0.161217 #
-0.92675045213670281807338824364706 50:0.104001 56:0.124171 67:0.54874402 69:0.091874003 109:0.184646 114:0.086351 156:0.065545999 197:0.20006301 276:0.171317 317:0.30294099 322:0.127231 428:0.168997 567:0.192509 668:0.120974 731:0.13900501 785:0.168732 858:0.11038 993:0.114393 1142:0.14799599 1515:0.15935899 2695:0.248879 3460:0.31019101 4602:0.286789 #
-1.0000000231766961178436758928001 11:0.017562 26:0.065569997 35:0.026951 36:0.032039002 43:0.055635002 91:0.090150997 137:0.043379001 164:0.084997997 170:0.072843 179:0.072063997 180:0.139715 197:0.057604 199:0.074386999 213:0.17832699 217:0.051846001 226:0.050955001 232:0.030811001 243:0.144839 271:0.065307997 282:0.058428001 315:0.098347001 426:0.11572 433:0.058724999 445:0.12723701 453:0.061021 483:0.127896 485:0.098582 491:0.12531801 497:0.095458999 518:0.143151 654:0.134542 722:0.067982003 741:0.077055 778:0.118926 856:0.234984 941:0.226965 945:0.143631 1008:0.095546998 1069:0.137151 1458:0.214809 1489:0.120717 1713:0.102326 1756:0.082258001 3545:0.132025 3979:0.29283801 4297:0.353466 4335:0.30657199 6479:0.389579 #
1.0000000231766961178436758928001 11:0.023355 13:0.113386 15:0.048486002 44:0.042697001 85:0.080357999 88:0.073521003 91:0.070807002 114:0.055982001 134:0.181006 142:0.050292 155:0.082332999 156:0.110885 184:0.102889 199:0.098922998 203:0.13044401 220:0.159739 240:0.134321 272:0.061190002 275:0.227099 276:0.078805 317:0.196399 350:0.055644002 352:0.054979 402:0.140159 404:0.15389 434:0.137767 592:0.080357999 597:0.16938999 600:0.226025 640:0.143831 730:0.103456 765:0.114766 780:0.124189 792:0.12735701 794:0.112247 797:0.094066001 837:0.083640002 857:0.251463 991:0.087196998 993:0.074161999 1012:0.148683 1168:0.140159 1172:0.157461 1219:0.120464 1285:0.16053399 1353:0.099298999 1520:0.120705 1534:0.14635199 1618:0.32113901 1736:0.108546 2088:0.185927 2104:0.165758 3669:0.18959901 3715:0.16053399 #
1.0000000231766961178436758928001 11:0.058095001 35:0.052655 43:0.065922998 60:0.060033999 64:0.089856997 70:0.063423999 98:0.058699001 104:0.052372001 109:0.17587 112:0.029703001 121:0.136282 122:0.105511 124:0.17071 143:0.059151001 150:0.087484002 151:0.091057003 169:0.066079997 221:0.047141001 232:0.061813001 233:0.103169 324:0.080043003 327:0.057973001 342:0.124884 356:0.077850997 385:0.128932 392:0.072696999 422:0.17893 440:0.17162199 452:0.058293 493:0.113876 512:0.184329 517:0.124884 523:0.081159003 655:0.101375 671:0.074316002 676:0.119754 701:0.15335 743:0.100518 760:0.116048 778:0.19781099 783:0.074455 807:0.050833002 812:0.099195004 813:0.10208 858:0.063762002 976:0.16990501 1279:0.152229 1344:0.21345399 1353:0.14980499 1425:0.16272099 1769:0.11832 1898:0.164156 2009:0.19878501 2034:0.219235 2691:0.117107 2777:0.134398 3165:0.151264 3350:0.19957399 3356:0.157592 3711:0.153226 3954:0.25228199 3955:0.13720199 #
1.0000000231766961178436758928001 4:0.185655 8:0.156495 10:0.056159999 15:0.060380999 35:0.044633001 104:0.073197 105:0.079357997 124:0.099983998 126:0.040817 137:0.121635 149:0.115053 205:0.076599002 217:0.180189 219:0.082268 223:0.218384 248:0.084025003 370:0.066311002 384:0.16009501 858:0.089115001 981:0.15153401 991:0.108588 1004:0.099110998 1007:0.25250399 1069:0.134149 1306:0.199917 1783:0.231539 1789:0.25400999 2259:0.18291301 5214:0.26225999 12308:0.59699899 #
1.0000000231766961178436758928001 11:0.038929999 35:0.035285 39:0.099284001 42:0.082037002 100:0.227801 126:0.032269001 147:0.108722 149:0.090957001 151:0.100611 208:0.059659999 240:0.055417001 247:0.087613001 313:0.073894002 340:0.14265101 353:0.094237 560:0.089098997 567:0.122871 568:0.23711701 578:0.30130401 669:0.135123 670:0.115888 928:0.098768003 952:0.118363 977:0.099808 993:0.153226 1026:0.155036 1142:0.094460003 1155:0.21550199 1217:0.085675001 1269:0.134734 1431:0.17828099 1468:0.15936799 1665:0.134349 1706:0.18137901 1978:0.38510901 2169:0.152924 2508:0.145671 2597:0.21550199 3491:0.138418 5302:0.200811 12006:0.27875099 #
1.0000000231766961178436758928001 11:0.038238999 15:0.079386003 35:0.020470001 36:0.041202001 56:0.077845998 58:0.094828002 69:0.057597999 76:0.093326002 83:0.071096003 86:0.090755999 98:0.063704997 121:0.13007499 143:0.064195998 164:0.064557999 197:0.074078001 198:0.091381997 208:0.058600999 221:0.086623996 224:0.112783 229:0.096515 239:0.024561999 272:0.059172001 313:0.072581001 341:0.087609999 352:0.090017997 357:0.10662 390:0.093561999 442:0.107481 445:0.096639 448:0.065527 530:0.16572399 534:0.168576 579:0.100183 597:0.078052998 617:0.10204 743:0.109091 794:0.108545 797:0.090963997 804:0.10417 976:0.108908 1004:0.076962002 1008:0.208041 1083:0.156028 1107:0.25320801 1223:0.12875 1316:0.137262 1422:0.099091001 1822:0.191911 2069:0.13085601 2164:0.15524 2379:0.168576 2385:0.14004 2691:0.21519101 3150:0.45695099 3618:0.173696 4006:0.181521 5772:0.197244 #
-0.53236979295713038329296296069515 8:0.065793999 11:0.020702999 15:0.042980999 35:0.018764 36:0.037769001 59:0.060415 62:0.067626998 75:0.051842999 81:0.079971001 122:0.084689997 126:0.029054999 128:0.12601 137:0.051137999 151:0.090591997 155:0.072985001 201:0.10103 223:0.19329301 226:0.060068998 231:0.126248 232:0.086672999 239:0.022515999 241:0.044155002 246:0.100342 249:0.065224998 352:0.082519002 353:0.084852003 414:0.089047998 418:0.105951 419:0.054669 448:0.101705 452:0.098195001 597:0.071551003 617:0.15837701 743:0.100003 765:0.101736 813:0.101558 858:0.063436002 922:0.16331699 978:0.102458 991:0.077297002 1033:0.098848999 1077:0.109683 1209:0.093539998 1306:0.29864901 1342:0.199499 1446:0.20720901 1552:0.12793399 1571:0.24512801 1760:0.259148 1788:0.107868 1789:0.306144 1806:0.126652 2198:0.1664 2319:0.25022501 3347:0.180813 3466:0.16331699 5232:0.16331699 5869:0.18668599 #
-0.83562754376481884754923612490529 18:0.052087002 23:0.035232 35:0.01598 36:0.032164 63:0.04239 70:0.053736001 114:0.042261001 115:0.047612 119:0.108751 124:0.06061 126:0.024744 128:0.165383 137:0.043549001 142:0.079676002 146:0.065628998 190:0.25937101 197:0.057829 201:0.086037003 221:0.039939001 234:0.083906002 239:0.032465 250:0.1266 290:0.050469 350:0.10024 393:0.052937001 594:0.090227999 617:0.190089 723:0.046893001 733:0.109323 742:0.121189 760:0.13857099 825:0.065110996 933:0.097032003 1017:0.095268004 1069:0.081321001 1178:0.099471003 1278:0.121189 1332:0.201262 1484:0.114791 1539:0.108579 1724:0.19161101 1783:0.36625701 2075:0.114791 2163:0.107155 2415:0.300376 2691:0.20822001 2773:0.161917 2800:0.186363 2802:0.196468 3527:0.196468 5212:0.186363 5213:0.213744 5214:0.15898199 5215:0.161917 #
-0.73710005202915707123167976533296 6:0.037312001 9:0.16196001 35:0.017552 49:0.063049003 87:0.033426002 94:0.067833997 98:0.054623999 100:0.091421999 113:0.040633 121:0.053146001 149:0.129705 172:0.140662 194:0.083401002 204:0.081614003 208:0.050246999 231:0.069744997 310:0.174455 322:0.068393998 323:0.086994998 393:0.058143999 405:0.207597 513:0.112515 656:0.076861002 682:0.073334001 700:0.103036 725:0.180483 830:0.20192499 837:0.069352001 899:0.114471 952:0.099688001 1109:0.116216 1122:0.094016001 1133:0.080224998 1217:0.072157003 1225:0.086502999 1299:0.17083199 1340:0.149003 1398:0.118467 1405:0.092918001 1423:0.112832 1432:0.174079 1534:0.121351 1700:0.13117699 1977:0.117696 1987:0.379419 1988:0.392131 2034:0.120495 2219:0.16063701 2326:0.11926 2829:0.162525 3977:0.15721001 4299:0.152761 5729:0.1815 #
-0.16046708759414618494787418967462 6:0.101463 11:0.037363 35:0.033865001 36:0.084486 38:0.109504 59:0.109031 98:0.130631 99:0.090657003 105:0.092798002 134:0.13798399 137:0.054508001 155:0.13171799 229:0.15967201 238:0.089187004 239:0.023999 240:0.053185999 243:0.086722001 244:0.05198 249:0.14590099 258:0.073477998 267:0.074423 285:0.118708 315:0.123576 321:0.095790997 322:0.077937998 327:0.061477002 356:0.082556002 395:0.102879 396:0.169057 426:0.224098 441:0.21588799 544:0.14509501 559:0.091863997 660:0.24227799 671:0.078808002 722:0.085422002 797:0.23192801 802:0.141407 811:0.082722001 837:0.07903 858:0.067615002 1126:0.163112 1368:0.18047801 1579:0.12681299 1591:0.28735799 1760:0.131622 1819:0.153245 2691:0.124185 12574:0.452968 #
-1.0000000231766961178436758928001 10:0.046673998 11:0.040925998 35:0.037094001 60:0.069734 87:0.041722 88:0.076093003 98:0.068181999 109:0.174615 219:0.068371996 240:0.15201899 248:0.146552 249:0.12893701 270:0.12974 271:0.089887999 330:0.20254099 597:0.141443 668:0.081170999 717:0.192431 794:0.116174 813:0.118572 885:0.099538997 895:0.117957 935:0.100747 977:0.104925 1075:0.145061 1122:0.280036 1133:0.100138 1427:0.112342 1580:0.285712 2672:0.180424 2837:0.322846 2864:0.177982 4095:0.202866 6029:0.20539799 6101:0.255503 7276:0.293042 7277:0.269357 #
1.0000000231766961178436758928001 7:0.19711199 36:0.070674002 37:0.104758 109:0.117276 163:0.33502799 164:0.18749601 248:0.111921 327:0.107925 354:0.113621 428:0.18173701 445:0.165768 497:0.080697 738:0.132477 776:0.241901 785:0.18145201 807:0.094633996 5698:0.39374 8164:0.469659 8165:0.43169901 #
1.0000000231766961178436758928001 11:0.033054002 26:0.072888002 35:0.017694 39:0.084297001 44:0.035691001 88:0.061455999 98:0.055066999 109:0.1741 112:0.027865 126:0.027398 136:0.100696 150:0.082070999 164:0.055803999 170:0.19322599 183:0.087451003 186:0.100696 198:0.078991003 241:0.041636001 292:0.107882 328:0.091439001 356:0.073034003 374:0.116797 415:0.083535001 428:0.091582 444:0.140182 450:0.16352201 465:0.081367999 665:0.083967999 668:0.110999 676:0.066353001 722:0.075568996 723:0.051922999 759:0.17075901 764:0.094140999 780:0.061310999 901:0.14676 926:0.104324 935:0.081367999 1004:0.066526003 1029:0.170499 1057:0.16242699 1211:0.101508 1353:0.14053699 1497:0.117894 1517:0.117158 1599:0.117524 1669:0.088459998 1684:0.20635501 1947:0.14190599 2002:0.28867999 2099:0.14571799 2220:0.14190599 2304:0.101099 2329:0.119036 4210:0.16015799 8103:0.32552099 8104:0.33594799 8105:0.217545 #
1.0000000231766961178436758928001 11:0.052701999 15:0.045851 35:0.020017 36:0.040291 37:0.059721999 43:0.069964997 53:0.116023 59:0.109121 91:0.066959001 105:0.035592001 109:0.066858999 113:0.04634 126:0.030995 131:0.071207002 138:0.073353 150:0.092848003 156:0.112185 169:0.070130996 181:0.079242997 205:0.058166999 241:0.047102999 243:0.207113 245:0.123662 249:0.19425 251:0.12557399 270:0.118542 273:0.100661 276:0.044013999 336:0.093664996 350:0.052620001 419:0.058318999 436:0.104936 453:0.076738 496:0.13173001 570:0.11009 583:0.101108 595:0.10686 668:0.176981 743:0.10668 778:0.120662 787:0.090304002 794:0.106147 807:0.053950001 894:0.070523001 896:0.090411 964:0.188471 995:0.111107 1004:0.075260997 1026:0.148917 1119:0.103607 1125:0.152362 1312:0.198109 1338:0.175147 1618:0.12726299 1662:0.127611 1747:0.154182 1767:0.139405 2375:0.18767001 2757:0.16261999 3609:0.24610899 3610:0.181188 3611:0.41669899 #
1.0000000231766961178436758928001 18:0.056839999 22:0.063263997 30:0.22178499 31:0.053674001 35:0.017438 44:0.035174001 45:0.060662001 48:0.069098003 55:0.086432002 65:0.135129 76:0.037884999 94:0.067395002 109:0.16260301 112:0.046498001 125:0.095215999 143:0.054689001 146:0.121261 164:0.093117997 221:0.043584 232:0.033753999 240:0.078512996 243:0.12801801 244:0.045318998 249:0.127206 258:0.178849 267:0.064887002 268:0.109395 273:0.087691002 426:0.126775 452:0.053895999 491:0.081086002 497:0.040077001 506:0.116189 544:0.074715003 560:0.074556001 782:0.089011997 945:0.092935003 977:0.083517 992:0.121893 1056:0.128535 1058:0.26182601 1071:0.231204 1151:0.107196 1219:0.099238999 1298:0.100243 1435:0.100039 1482:0.139853 1623:0.095730998 1668:0.27681199 1713:0.189804 1930:0.135041 2176:0.150446 2246:0.12971701 2551:0.108828 4335:0.140745 4830:0.33108899 6427:0.203371 6764:0.288894 #
1.0000000231766961178436758928001 6:0.052039001 11:0.056680001 36:0.049272001 51:0.107558 60:0.077917002 69:0.068879999 83:0.085023001 91:0.081883997 93:0.16018599 98:0.12898999 109:0.195107 112:0.038550999 113:0.056669999 123:0.090774998 162:0.116776 172:0.24315999 222:0.112433 232:0.123643 244:0.063617997 281:0.136127 290:0.077312 307:0.43056801 345:0.33452299 347:0.209416 370:0.061578002 405:0.110957 428:0.126701 523:0.105335 668:0.090696998 743:0.13045999 803:0.120308 820:0.189568 846:0.227534 900:0.243542 1142:0.110957 1217:0.100637 1296:0.119312 1412:0.17657401 1888:0.157812 1979:0.20159701 2191:0.168054 #
-1.0000000231766961178436758928001 10:0.038945001 15:0.041871998 41:0.050159998 59:0.058855999 62:0.065881997 83:0.063492 85:0.117499 91:0.061149001 107:0.090865001 108:0.067271002 109:0.179869 111:0.184526 112:0.028789001 137:0.049819 143:0.057330001 145:0.060245 155:0.071102001 171:0.161993 192:0.086638004 209:0.085428998 223:0.072163999 239:0.021934999 249:0.063542001 327:0.056189001 350:0.081363 353:0.082663 404:0.20482001 426:0.078492001 444:0.085537001 497:0.071134001 561:0.091523997 650:0.082760997 661:0.094915003 682:0.076379001 723:0.053644001 743:0.164952 777:0.083961003 791:0.088492997 794:0.16412701 803:0.089841999 813:0.098938003 907:0.118187 930:0.119223 1142:0.082859002 1223:0.11498 1237:0.126389 1316:0.20754901 1353:0.085754 1459:0.19266599 1494:0.128747 1613:0.12594 1989:0.155118 2443:0.155118 2514:0.18522801 3123:0.18187 3600:0.176148 4556:0.18187 9924:0.50874102 #
-1.0000000231766961178436758928001 1:0.069715999 6:0.065925002 11:0.034215 18:0.059700999 31:0.056375001 44:0.062551998 50:0.098778002 75:0.050604001 76:0.039790999 86:0.081206001 87:0.034880999 91:0.128576 98:0.096511997 100:0.095400997 104:0.050857998 109:0.061175 113:0.042401001 131:0.065154001 137:0.049915001 163:0.216612 172:0.086692996 174:0.101286 181:0.072507001 183:0.090524003 211:0.098614 221:0.045777999 222:0.084123999 244:0.047600001 251:0.27418399 254:0.135617 271:0.075148001 292:0.111673 293:0.073831998 327:0.056297 365:0.119103 429:0.095099002 452:0.056607999 457:0.077160999 474:0.074047998 538:0.116444 544:0.18726499 623:0.083217002 668:0.067860998 787:0.082627997 807:0.049364001 848:0.250294 937:0.082241997 977:0.087719999 1004:0.068862997 1121:0.116444 1126:0.120509 1268:0.079328001 1412:0.13211501 1448:0.123218 1451:0.18558601 1547:0.116129 1903:0.13754401 2069:0.27940199 2146:0.15541799 2691:0.113721 4142:0.15541799 4380:0.18558601 5232:0.159411 7319:0.24498899 7320:0.213605 7321:0.24498899 #
-0.72270612605938522321480377286207 6:0.041733 10:0.041824002 11:0.02166 35:0.019631 37:0.058571 41:0.053867001 48:0.077789001 50:0.062531002 55:0.097303003 69:0.055238999 70:0.066014998 76:0.072212003 83:0.115447 85:0.074525997 90:0.15372699 104:0.054510999 107:0.097580999 109:0.156469 116:0.074924 122:0.088602997 126:0.051468 155:0.076357998 158:0.137224 171:0.102747 182:0.099604003 197:0.071043998 224:0.183138 232:0.064338997 238:0.087539002 240:0.088388003 248:0.062576003 267:0.153299 275:0.10036 276:0.112637 312:0.087640002 350:0.087375998 392:0.075666003 404:0.142721 434:0.180075 447:0.126201 470:0.070694 531:0.167944 579:0.096079998 588:0.10193 724:0.131219 803:0.096482001 978:0.107192 1012:0.081441 1013:0.087741002 1057:0.106436 1104:0.129191 1131:0.102418 1142:0.212339 1178:0.122202 1296:0.095683999 1515:0.095815003 1605:0.14814501 1609:0.122516 1896:0.123805 2250:0.14535999 2316:0.174088 4893:0.16056 5576:0.179671 6004:0.44459999 6005:0.192086 #
-0.49456926632932496357142326814937 8:0.145072 11:0.051906001 13:0.105605 36:0.067189001 39:0.093925998 64:0.093925998 75:0.054469999 87:0.037546001 205:0.057287998 207:0.116495 211:0.106149 222:0.31556299 236:0.074657999 238:0.087912001 240:0.052425999 271:0.136958 285:0.117012 327:0.060598999 383:0.060516 390:0.090112999 492:0.095829003 497:0.14963999 640:0.13395999 668:0.073045999 776:0.13582399 787:0.15059 794:0.104544 855:0.085389003 977:0.094421998 1004:0.074124999 1127:0.092956997 1171:0.223538 1397:0.098563999 1420:0.106149 1422:0.095439002 1450:0.099878997 2160:0.32661599 3044:0.46566001 3769:0.187298 3795:0.196144 3881:0.184837 4293:0.137301 13927:0.26370701 #
-0.23729860807526262367339597858518 11:0.019137001 15:0.039728999 37:0.051748 38:0.056086 48:0.068728 62:0.062510997 65:0.064044997 75:0.047920998 81:0.073919997 87:0.033032 105:0.073592998 111:0.21700899 112:0.027315 113:0.040153999 121:0.088923 126:0.045472998 132:0.11992 145:0.057162002 146:0.071235001 156:0.034818999 181:0.068663001 193:0.14963999 197:0.062769003 206:0.065670997 210:0.076989003 221:0.043350998 226:0.055523999 239:0.020811999 244:0.076321997 258:0.063720003 330:0.094705999 343:0.241852 357:0.090343997 385:0.049687002 410:0.073531002 428:0.15200099 470:0.062458999 475:0.096272998 493:0.06185 497:0.039863002 523:0.074634999 555:0.100116 650:0.078524999 705:0.083851002 759:0.079760998 880:0.138246 1131:0.15321 1140:0.216765 1149:0.244958 1225:0.14473601 1298:0.099706002 1421:0.13431799 1426:0.18008301 1662:0.110574 1740:0.109095 2155:0.16971201 2616:0.120793 5048:0.60539502 #
1.0000000231766961178436758928001 6:0.078345999 11:0.040662002 15:0.084417 128:0.146171 131:0.1311 137:0.100437 156:0.073983997 226:0.117978 240:0.165931 249:0.21689899 395:0.189567 692:0.280918 722:0.1574 975:0.179875 988:0.48588899 2837:0.54309499 5215:0.37343001 #
1.0000000231766961178436758928001 6:0.107181 11:0.036093999 37:0.057645999 56:0.073478997 86:0.085665002 98:0.060132001 107:0.096040003 115:0.057569001 126:0.029918 137:0.052655999 204:0.152117 225:0.10385 226:0.061852001 243:0.083774999 267:0.071893997 292:0.069577001 341:0.140016 352:0.084968001 393:0.134325 401:0.095091999 419:0.056290999 425:0.153073 440:0.083774999 448:0.061852001 458:0.080812 464:0.081997 494:0.090752997 513:0.12386 668:0.071586996 671:0.076131001 723:0.056697998 742:0.146532 804:0.098325998 807:0.052074999 825:0.133296 937:0.086758003 1033:0.101783 1093:0.16260999 1109:0.127933 1126:0.195924 1288:0.145096 1448:0.12998401 1524:0.135563 1635:0.14116 1706:0.168164 1729:0.122176 1811:0.16395199 1896:0.12185 2069:0.123515 2081:0.152173 2435:0.199801 2691:0.28627399 2841:0.135563 3469:0.16529199 4638:0.154 6460:0.199801 7938:0.32546899 11112:0.258441 #
1.0000000231766961178436758928001 31:0.059328001 35:0.019275 56:0.124113 63:0.051132001 76:0.109272 87:0.036708001 105:0.034272 118:0.13575301 119:0.228237 126:0.071222 229:0.090883002 267:0.071722001 395:0.099146001 418:0.108835 419:0.056155998 464:0.21345399 474:0.077927001 523:0.082942002 611:0.091591001 628:0.27178901 723:0.056563001 739:0.17277201 764:0.102553 783:0.076090999 794:0.102212 825:0.13297801 849:0.185735 887:0.100399 984:0.13374799 1001:0.119377 1119:0.099766001 1133:0.088102996 1250:0.156592 1397:0.096364997 1540:0.094998002 1590:0.199323 1635:0.14082301 1638:0.13627601 1651:0.13680799 1778:0.142076 1798:0.127628 1977:0.218844 1998:0.124979 1999:0.155572 2184:0.100081 2628:0.195309 3224:0.20395701 7733:0.224796 13095:0.257824 13096:0.257824 #
1.0000000231766961178436758928001 11:0.046151001 35:0.024705 36:0.049727 44:0.049833 49:0.150261 60:0.13314401 70:0.083077997 98:0.076888002 109:0.139714 114:0.065338001 119:0.099303 131:0.087884001 137:0.067328997 178:0.12807301 197:0.089406997 205:0.071788996 212:0.101264 223:0.16512799 231:0.206025 276:0.054322001 322:0.32711399 327:0.075938001 336:0.115601 350:0.064943999 370:0.062146999 445:0.116637 493:0.088097997 494:0.196476 510:0.29559699 512:0.142603 658:0.169019 741:0.119596 760:0.089777999 797:0.185885 825:0.211257 1349:0.14349601 1491:0.157934 1641:0.413268 3059:0.245793 3060:0.268442 #
1.0000000231766961178436758928001 11:0.023605 18:0.069737002 35:0.021395 36:0.043063 62:0.077105999 76:0.04648 87:0.113748 98:0.066583999 99:0.057275001 105:0.038040999 113:0.049529001 122:0.057030998 151:0.10329 172:0.26425001 192:0.101398 197:0.077425003 205:0.062169001 211:0.115192 212:0.087692998 239:0.025672 240:0.14845601 242:0.127551 244:0.132682 246:0.193707 249:0.074367002 252:0.189724 264:0.16307899 290:0.067570001 315:0.078071997 327:0.065761 351:0.071033001 385:0.061289001 396:0.106806 403:0.12932301 444:0.10011 448:0.178717 465:0.098384999 504:0.096745998 530:0.082537003 544:0.091666996 554:0.13087501 560:0.091472 617:0.106652 697:0.26550299 760:0.077747002 771:0.102738 782:0.109207 807:0.097631 907:0.138321 1071:0.16753501 1342:0.183516 1449:0.146878 1514:0.276117 1540:0.105443 1666:0.138721 1708:0.13087501 1801:0.161451 4722:0.200583 5962:0.22124 8264:0.239914 #
-0.12949111364529775070053574381745 10:0.040814001 11:0.050438002 15:0.043882001 36:0.038559999 57:0.104419 70:0.064421996 99:0.051286001 122:0.086465001 127:0.089529 138:0.070202 143:0.060081001 146:0.078680001 209:0.089529 225:0.174343 226:0.103836 231:0.076126002 239:0.022988001 240:0.050942998 241:0.094604999 311:0.092490003 336:0.151777 383:0.058804002 420:0.156388 429:0.099469997 474:0.077450998 497:0.105066 504:0.181802 505:0.113451 679:0.107961 722:0.138533 767:0.093760997 771:0.091995999 782:0.097787999 838:0.168152 894:0.245616 956:0.102793 991:0.078916997 1119:0.099156998 1178:0.119252 1211:0.109904 1305:0.102098 1329:0.292245 1412:0.138188 1627:0.38263899 1635:0.139963 1641:0.12281 1642:0.14456899 1926:0.126849 2587:0.18460099 3085:0.15889899 3635:0.16827101 4922:0.162562 5936:0.18200199 7131:0.25624999 #
-0.068220030188883368227337200551119 1:0.057131 9:0.083406001 10:0.031977002 11:0.016559999 35:0.01501 41:0.098279998 45:0.052214 59:0.048324998 64:0.071507998 73:0.085932001 108:0.093520001 112:0.023637 121:0.045448001 123:0.116806 206:0.056829002 208:0.042969 211:0.080812998 219:0.046842001 221:0.037514001 244:0.039007999 246:0.080261998 248:0.047843002 258:0.055140998 276:0.069260001 280:0.151509 327:0.078112997 352:0.038984001 405:0.11519 410:0.063630998 433:0.055374999 470:0.054049999 530:0.057904001 547:0.121937 556:0.098476 574:0.095950998 615:0.106532 617:0.074822001 651:0.090305001 656:0.065729 782:0.076614998 783:0.059250999 785:0.077564999 825:0.061158001 830:0.28472099 889:0.087548003 896:0.067791998 902:0.203813 960:0.103774 974:0.078938998 991:0.061829001 1004:0.056432001 1012:0.105427 1038:0.120375 1137:0.099693 1374:0.079723999 1422:0.072659001 1449:0.103043 1487:0.12840401 1570:0.090515003 1576:0.13063499 1601:0.140021 1613:0.103406 2379:0.12361 2616:0.10453 2786:0.133102 3397:0.111137 4243:0.389662 4478:0.117534 4595:0.18453901 8201:0.16308799 9121:0.175047 13708:0.200765 13709:0.200765 13710:0.200765 13711:0.200765 #
-0.24116127246520055460443643369217 1:0.071351998 3:0.080059998 10:0.039935999 11:0.049353998 23:0.041329999 35:0.018746 36:0.037730999 37:0.11737 44:0.037811 73:0.107322 76:0.085465997 93:0.122665 98:0.058339 105:0.033330001 113:0.043396 131:0.066683002 138:0.068691999 143:0.058789 208:0.090862997 209:0.087603003 221:0.046852 236:0.041926 244:0.048717 282:0.116502 351:0.062238 387:0.079553001 399:0.115232 429:0.097331002 444:0.087714002 448:0.060008001 453:0.071863003 504:0.14352199 541:0.105639 611:0.089074001 633:0.097484998 669:0.121544 713:0.24782699 782:0.095684998 838:0.097176999 840:0.107759 1146:0.080403 1147:0.347339 1149:0.101455 1156:0.117905 1218:0.102173 2259:0.130073 2354:0.151297 2668:0.157821 2906:0.203683 3421:0.15033799 3636:0.56660002 4335:0.151297 5830:0.193845 #
-0.17223709525076758009021204998135 1:0.068520002 6:0.038268 11:0.047394 15:0.041232999 36:0.036233 42:0.119982 43:0.062918998 60:0.057298001 65:0.066468999 70:0.060534 98:0.056023002 100:0.158756 112:0.028348999 113:0.041673999 115:0.112561 123:0.066753 134:0.12419 136:0.102445 145:0.174768 156:0.036137 213:0.096098997 219:0.05618 222:0.082680002 240:0.16681799 243:0.078051999 244:0.046783 250:0.084232002 258:0.235759 262:0.12727 270:0.106604 272:0.052037001 276:0.039581001 285:0.106841 300:0.062720001 327:0.093684003 351:0.059767 389:0.077293999 392:0.069384001 395:0.092593998 415:0.084986001 419:0.052444998 428:0.093172997 453:0.069009997 465:0.082781002 497:0.086823002 530:0.069445997 559:0.082680002 690:0.095457003 738:0.189612 782:0.091886997 785:0.093027003 787:0.081210002 797:0.079994999 804:0.091609001 807:0.048517 825:0.073348001 896:0.081306003 935:0.082781002 976:0.095775999 991:0.074153997 993:0.063068002 995:0.099917002 1006:0.13453799 1012:0.074679002 1093:0.089478999 1305:0.162435 1484:0.12931301 1647:0.105223 1651:0.127767 1669:0.089996003 1689:0.159633 1699:0.16475201 1723:0.12878799 2225:0.155305 2259:0.124909 2616:0.125366 11562:0.37473401 11563:0.221324 11564:0.221324 #
-0.031356547744240098607448885559279 8:0.121524 10:0.035184 35:0.034658998 36:0.056283001 56:0.131806 70:0.132524 95:0.111536 112:0.026008001 113:0.080234997 114:0.043676998 122:0.105052 128:0.110904 138:0.060518999 161:0.179446 205:0.047989 209:0.077179 217:0.091077998 226:0.110949 231:0.065624997 232:0.031966999 236:0.036936998 239:0.019817 241:0.038862001 257:0.221724 300:0.057541002 384:0.100299 484:0.083293997 508:0.073055997 650:0.074767999 783:0.065194003 790:0.164306 937:0.074156001 952:0.093800001 1025:0.104151 1103:0.111104 1112:0.112597 1171:0.089226998 1273:0.154834 1424:0.088463001 1469:0.096329004 1756:0.085345 2003:0.143738 3643:0.14645199 4106:0.32493699 4177:0.179446 5546:0.17475 6226:0.17475 7369:0.34378999 10256:0.19260401 10262:0.220902 10263:0.404201 #
1.0000000231766961178436758928001 6:0.048997 9:0.10333 11:0.043055002 15:0.052793 35:0.039023999 48:0.091326997 50:0.073413998 55:0.19342101 59:0.074206002 77:0.14347 88:0.167998 105:0.069385998 109:0.226781 113:0.053357001 128:0.091412999 145:0.15940601 164:0.072690003 171:0.28785601 199:0.10771 218:0.249467 232:0.093625002 239:0.027656 241:0.054235 290:0.072792001 300:0.135967 385:0.11179 392:0.088835001 394:0.111123 401:0.113433 440:0.099933997 452:0.14949401 512:0.133037 539:0.185673 545:0.112802 728:0.13619 739:0.122016 780:0.135221 789:0.129886 803:0.113274 855:0.23821101 886:0.19404501 977:0.110385 993:0.080750003 1458:0.183704 1520:0.36691201 1570:0.138992 1805:0.14458799 4146:0.195575 #
